<?xml version="1.0"?>
<opencv_storage>
<shapeML type_id="opencv-ml-ann-mlp">
  <layer_sizes type_id="opencv-matrix">
    <rows>1</rows>
    <cols>3</cols>
    <dt>i</dt>
    <data>
      1600 40 1</data></layer_sizes>
  <activation_function>SIGMOID_SYM</activation_function>
  <f_param1>5.9999999999999998e-01</f_param1>
  <f_param2>1.</f_param2>
  <min_val>-9.4999999999999996e-01</min_val>
  <max_val>9.4999999999999996e-01</max_val>
  <min_val1>-9.7999999999999998e-01</min_val1>
  <max_val1>9.7999999999999998e-01</max_val1>
  <training_params>
    <train_method>BACKPROP</train_method>
    <dw_scale>1.0000000000000001e-01</dw_scale>
    <moment_scale>1.0000000000000001e-01</moment_scale>
    <term_criteria><epsilon>9.9999999747524271e-07</epsilon>
      <iterations>4000</iterations></term_criteria></training_params>
  <input_scale>
    1. 0. 3.4190481983476254e-02 -1.1624763874381926e-01
    3.4190481983476254e-02 -1.1624763874381926e-01
    3.4190481983476254e-02 -1.1624763874381926e-01
    2.0012171101169755e-02 -2.0412414523193148e-01
    2.0012171101169755e-02 -2.0412414523193148e-01
    3.4190481983476254e-02 -1.1624763874381926e-01
    3.4190481983476254e-02 -1.1624763874381926e-01
    2.4341349664775531e-02 -1.6552117772047362e-01
    3.4190481983476254e-02 -1.1624763874381926e-01
    2.4341349664775531e-02 -1.6552117772047362e-01
    2.4341349664775531e-02 -1.6552117772047362e-01
    2.4341349664775531e-02 -1.6552117772047362e-01
    1.7452671444027255e-02 -2.3735633163877068e-01
    2.0012171101169755e-02 -2.0412414523193148e-01
    1.2703947435020001e-02 -3.4554737023254400e-01
    1.2703947435020001e-02 -3.4554737023254400e-01
    3.4190481983476254e-02 -1.1624763874381926e-01
    2.0012171101169755e-02 -2.0412414523193148e-01
    9.8039215686274508e-03 -5.0000000000000000e-01
    8.8679807228754012e-03 -6.0302268915552726e-01
    1.0359852259946277e-02 -4.5790546988962549e-01
    1.2703947435020001e-02 -3.4554737023254400e-01
    1.3480860250414872e-02 -3.2084447395987398e-01 1. 0.
    3.4190481983476254e-02 -1.1624763874381926e-01
    2.4341349664775531e-02 -1.6552117772047362e-01
    1.7452671444027255e-02 -2.3735633163877068e-01
    2.0012171101169755e-02 -2.0412414523193148e-01
    2.0012171101169755e-02 -2.0412414523193148e-01
    1.5721249524260256e-02 -2.6726124191242434e-01
    2.4341349664775531e-02 -1.6552117772047362e-01
    2.0012171101169755e-02 -2.0412414523193148e-01
    2.4341349664775531e-02 -1.6552117772047362e-01
    1.7452671444027255e-02 -2.3735633163877068e-01
    1.7452671444027255e-02 -2.3735633163877068e-01
    3.4190481983476254e-02 -1.1624763874381926e-01
    3.4190481983476254e-02 -1.1624763874381926e-01
    3.4190481983476254e-02 -1.1624763874381926e-01
    3.4190481983476254e-02 -1.1624763874381926e-01
    3.4190481983476254e-02 -1.1624763874381926e-01
    2.4341349664775531e-02 -1.6552117772047362e-01
    3.4190481983476254e-02 -1.1624763874381926e-01
    2.4341349664775531e-02 -1.6552117772047362e-01
    1.7452671444027255e-02 -2.3735633163877068e-01
    1.7452671444027255e-02 -2.3735633163877068e-01
    1.7452671444027255e-02 -2.3735633163877068e-01
    1.7452671444027255e-02 -2.3735633163877068e-01
    1.7452671444027255e-02 -2.3735633163877068e-01
    1.7452671444027255e-02 -2.3735633163877068e-01
    1.1536243243422589e-02 -3.9223227027636803e-01
    1.1536243243422589e-02 -3.9223227027636803e-01
    1.1084975903594252e-02 -4.1457809879442503e-01
    9.8039215686274508e-03 -5.0000000000000000e-01
    9.1822138390362153e-03 -5.6195148694901642e-01
    8.7340275134779218e-03 -6.2360956446232363e-01
    8.7340275134779218e-03 -6.2360956446232363e-01
    8.1076153885289888e-03 -7.7184498498795973e-01
    8.0527305616675520e-03 -7.9399923338042055e-01
    8.4067933893386682e-03 -6.8599434057003528e-01
    8.0048684404679018e-03 -8.1649658092772603e-01
    8.5046313524447092e-03 -6.6506217176117632e-01
    8.5046313524447092e-03 -6.6506217176117632e-01
    8.8679807228754012e-03 -6.0302268915552726e-01
    9.5727140427076373e-03 -5.2075564392329543e-01
    1.0359852259946277e-02 -4.5790546988962549e-01
    1.3480860250414872e-02 -3.2084447395987398e-01
    1.3480860250414872e-02 -3.2084447395987398e-01
    1.2703947435020001e-02 -3.4554737023254400e-01
    1.2703947435020001e-02 -3.4554737023254400e-01
    1.3480860250414872e-02 -3.2084447395987398e-01
    1.3480860250414872e-02 -3.2084447395987398e-01
    1.3480860250414872e-02 -3.2084447395987398e-01
    1.3480860250414872e-02 -3.2084447395987398e-01
    1.3480860250414872e-02 -3.2084447395987398e-01
    1.4455093740676191e-02 -2.9488391230979427e-01
    2.4341349664775531e-02 -1.6552117772047362e-01
    2.4341349664775531e-02 -1.6552117772047362e-01
    2.4341349664775531e-02 -1.6552117772047362e-01
    2.0012171101169755e-02 -2.0412414523193148e-01 1. 0.
    2.4341349664775531e-02 -1.6552117772047362e-01
    2.4341349664775531e-02 -1.6552117772047362e-01
    2.4341349664775531e-02 -1.6552117772047362e-01
    1.7452671444027255e-02 -2.3735633163877068e-01
    1.4455093740676191e-02 -2.9488391230979427e-01
    1.3480860250414872e-02 -3.2084447395987398e-01
    1.4455093740676191e-02 -2.9488391230979427e-01
    1.0696955403725117e-02 -4.3643578047198472e-01
    1.1084975903594252e-02 -4.1457809879442503e-01
    9.3666140485070895e-03 -5.4139029200370969e-01
    9.3666140485070895e-03 -5.4139029200370969e-01
    8.5046313524447092e-03 -6.6506217176117632e-01
    8.1076153885289888e-03 -7.7184498498795973e-01
    8.1699346405228763e-03 -7.5000000000000000e-01
    7.8775232941997089e-03 -9.1064169280948626e-01
    7.8775232941997089e-03 -9.1064169280948626e-01
    7.8775232941997089e-03 -9.1064169280948626e-01
    7.8494193041709383e-03 -9.6076892283052284e-01
    8.1699346405228763e-03 -7.5000000000000000e-01
    7.9002251375037275e-03 -8.8640526042791823e-01
    8.0048684404679018e-03 -8.1649658092772603e-01
    8.4067933893386682e-03 -6.8599434057003528e-01
    8.4067933893386682e-03 -6.8599434057003528e-01
    8.0048684404679018e-03 -8.1649658092772603e-01
    8.0048684404679018e-03 -8.1649658092772603e-01
    9.0167549924259679e-03 -5.8248237251071744e-01
    9.8039215686274508e-03 -5.0000000000000000e-01
    9.8039215686274508e-03 -5.0000000000000000e-01
    1.1084975903594252e-02 -4.1457809879442503e-01
    1.1536243243422589e-02 -3.9223227027636803e-01
    1.2067793233267914e-02 -3.6927447293799820e-01
    1.1084975903594252e-02 -4.1457809879442503e-01
    1.1536243243422589e-02 -3.9223227027636803e-01
    1.2067793233267914e-02 -3.6927447293799820e-01
    1.2067793233267914e-02 -3.6927447293799820e-01
    1.7452671444027255e-02 -2.3735633163877068e-01
    1.7452671444027255e-02 -2.3735633163877068e-01
    2.4341349664775531e-02 -1.6552117772047362e-01
    3.4190481983476254e-02 -1.1624763874381926e-01 1. 0.
    3.4190481983476254e-02 -1.1624763874381926e-01
    2.4341349664775531e-02 -1.6552117772047362e-01
    2.0012171101169755e-02 -2.0412414523193148e-01
    1.4455093740676191e-02 -2.9488391230979427e-01
    1.4455093740676191e-02 -2.9488391230979427e-01
    1.3480860250414872e-02 -3.2084447395987398e-01
    9.5727140427076373e-03 -5.2075564392329543e-01
    9.8039215686274508e-03 -5.0000000000000000e-01
    9.0167549924259679e-03 -5.8248237251071744e-01
    8.8679807228754012e-03 -6.0302268915552726e-01
    7.9636817804982704e-03 -8.3937205966451778e-01
    8.0527305616675520e-03 -7.9399923338042055e-01
    7.9002251375037275e-03 -8.8640526042791823e-01
    7.8775232941997089e-03 -9.1064169280948626e-01
    7.8438345156274254e-03 -9.8675438206593014e-01
    7.9636817804982704e-03 -1.1913667943625412e+00
    7.9288803826057640e-03 -1.1592023119369625e+00
    7.8438345156274254e-03 -1.0134234194190632e+00
    7.9002251375037275e-03 -8.8640526042791823e-01
    7.8606247621301282e-03 -1.0690449676496974e+00
    7.8494193041709383e-03 -1.0408329997330663e+00
    7.8494193041709383e-03 -1.0408329997330663e+00
    7.8494193041709383e-03 -9.6076892283052284e-01
    7.8775232941997089e-03 -9.1064169280948626e-01
    7.9636817804982704e-03 -8.3937205966451778e-01
    8.1699346405228763e-03 -7.5000000000000000e-01
    7.9002251375037275e-03 -8.8640526042791823e-01
    9.5727140427076373e-03 -5.2075564392329543e-01
    9.8039215686274508e-03 -5.0000000000000000e-01
    9.5727140427076373e-03 -5.2075564392329543e-01
    9.5727140427076373e-03 -5.2075564392329543e-01
    1.1536243243422589e-02 -3.9223227027636803e-01
    1.2067793233267914e-02 -3.6927447293799820e-01
    1.1084975903594252e-02 -4.1457809879442503e-01
    1.1536243243422589e-02 -3.9223227027636803e-01
    1.2703947435020001e-02 -3.4554737023254400e-01
    1.5721249524260256e-02 -2.6726124191242434e-01
    2.4341349664775531e-02 -1.6552117772047362e-01
    3.4190481983476254e-02 -1.1624763874381926e-01 1. 0.
    3.4190481983476254e-02 -1.1624763874381926e-01
    3.4190481983476254e-02 -1.1624763874381926e-01
    1.4455093740676191e-02 -2.9488391230979427e-01
    1.2703947435020001e-02 -3.4554737023254400e-01
    1.3480860250414872e-02 -3.2084447395987398e-01
    1.0064498688664042e-02 -4.7907013758040845e-01
    9.5727140427076373e-03 -5.2075564392329543e-01
    9.1822138390362153e-03 -5.6195148694901642e-01
    8.7340275134779218e-03 -6.2360956446232363e-01
    8.0048684404679018e-03 -8.1649658092772603e-01
    7.9002251375037275e-03 -8.8640526042791823e-01
    7.9288803826057658e-03 -8.6266218562750729e-01
    7.8494193041709383e-03 -9.6076892283052284e-01
    7.8494193041709383e-03 -9.6076892283052284e-01
    7.9002251375037275e-03 -8.8640526042791823e-01
    8.0048684404679018e-03 -1.2247448713915889e+00
    7.8494193041709383e-03 -1.0408329997330663e+00
    7.8606247621301282e-03 -9.3541434669348522e-01
    7.8606247621301282e-03 -9.3541434669348522e-01
    7.8494193041709383e-03 -1.0408329997330663e+00
    7.8494193041709383e-03 -9.6076892283052284e-01
    7.8494193041709383e-03 -9.6076892283052284e-01
    7.8775232941997089e-03 -9.1064169280948626e-01
    8.0527305616675520e-03 -7.9399923338042055e-01
    7.8775232941997089e-03 -9.1064169280948626e-01
    7.8494193041709383e-03 -9.6076892283052284e-01
    7.8606247621301282e-03 -9.3541434669348522e-01
    8.0527305616675520e-03 -7.9399923338042055e-01
    8.3189033080770299e-03 -7.0710678118654757e-01
    8.7340275134779218e-03 -6.2360956446232363e-01
    9.5727140427076373e-03 -5.2075564392329543e-01
    9.5727140427076373e-03 -5.2075564392329543e-01
    1.1084975903594252e-02 -4.1457809879442503e-01
    1.1084975903594252e-02 -4.1457809879442503e-01
    1.0359852259946277e-02 -4.5790546988962549e-01
    1.3480860250414872e-02 -3.2084447395987398e-01
    1.4455093740676191e-02 -2.9488391230979427e-01
    2.4341349664775531e-02 -1.6552117772047362e-01
    3.4190481983476254e-02 -1.1624763874381926e-01 1. 0.
    3.4190481983476254e-02 -1.1624763874381926e-01
    1.7452671444027255e-02 -2.3735633163877068e-01
    1.5721249524260256e-02 -2.6726124191242434e-01
    1.3480860250414872e-02 -3.2084447395987398e-01
    1.0064498688664042e-02 -4.7907013758040845e-01
    9.1822138390362153e-03 -5.6195148694901642e-01
    9.1822138390362153e-03 -5.6195148694901642e-01
    8.3189033080770299e-03 -7.0710678118654757e-01
    7.9288803826057658e-03 -8.6266218562750729e-01
    7.9636817804982704e-03 -8.3937205966451778e-01
    7.9288803826057658e-03 -8.6266218562750729e-01
    7.8606247621301282e-03 -9.3541434669348522e-01
    8.1699346405228763e-03 -7.5000000000000000e-01
    7.9636817804982704e-03 -8.3937205966451778e-01
    7.8438345156274254e-03 -1.0134234194190632e+00
    8.3189033080770299e-03 -1.4142135623730951e+00
    7.9288803826057640e-03 -1.1592023119369625e+00
    8.1076153885289905e-03 -1.2955969390869329e+00
    7.8438345156274254e-03 -1.0134234194190632e+00
    7.8494193041709383e-03 -1.0408329997330663e+00
    8.1076153885289905e-03 -1.2955969390869329e+00
    7.8606247621301282e-03 -9.3541434669348522e-01
    7.8606247621301282e-03 -9.3541434669348522e-01
    7.8775232941997089e-03 -1.0981267472114395e+00
    7.9288803826057640e-03 -1.1592023119369625e+00
    7.9002251375037292e-03 -1.1281521496355327e+00
    7.8606247621301282e-03 -1.0690449676496974e+00
    7.9636817804982704e-03 -8.3937205966451778e-01
    8.1076153885289888e-03 -7.7184498498795973e-01
    8.4067933893386682e-03 -6.8599434057003528e-01
    8.4067933893386682e-03 -6.8599434057003528e-01
    9.3666140485070895e-03 -5.4139029200370969e-01
    9.3666140485070895e-03 -5.4139029200370969e-01
    1.0064498688664042e-02 -4.7907013758040845e-01
    1.0696955403725117e-02 -4.3643578047198472e-01
    1.2703947435020001e-02 -3.4554737023254400e-01
    1.4455093740676191e-02 -2.9488391230979427e-01
    1.7452671444027255e-02 -2.3735633163877068e-01
    2.4341349664775531e-02 -1.6552117772047362e-01 1. 0.
    2.4341349664775531e-02 -1.6552117772047362e-01
    1.7452671444027255e-02 -2.3735633163877068e-01
    1.0359852259946277e-02 -4.5790546988962549e-01
    1.0359852259946277e-02 -4.5790546988962549e-01
    9.8039215686274508e-03 -5.0000000000000000e-01
    9.1822138390362153e-03 -5.6195148694901642e-01
    8.8679807228754012e-03 -6.0302268915552726e-01
    8.0048684404679018e-03 -8.1649658092772603e-01
    8.0048684404679018e-03 -8.1649658092772603e-01
    8.0527305616675520e-03 -7.9399923338042055e-01
    7.8438345156274254e-03 -9.8675438206593014e-01
    7.8606247621301282e-03 -1.0690449676496974e+00
    7.8494193041709383e-03 -1.0408329997330663e+00
    8.2401737453018497e-03 -1.3728129459672882e+00
    8.0527305616675537e-03 -1.2594470598448055e+00
    8.0048684404679018e-03 -1.2247448713915889e+00
    8.2401737453018497e-03 -1.3728129459672882e+00
    8.4067933893386699e-03 -1.4577379737113254e+00
    8.1076153885289905e-03 -1.2955969390869329e+00
    8.0527305616675537e-03 -1.2594470598448055e+00
    7.9002251375037292e-03 -1.1281521496355327e+00
    7.8494193041709383e-03 -1.0408329997330663e+00
    7.8606247621301282e-03 -1.0690449676496974e+00
    7.8494193041709383e-03 -9.6076892283052284e-01
    7.9288803826057640e-03 -1.1592023119369625e+00
    7.9636817804982704e-03 -1.1913667943625412e+00
    7.8606247621301282e-03 -1.0690449676496974e+00
    7.8494193041709383e-03 -1.0408329997330663e+00
    7.9288803826057640e-03 -1.1592023119369625e+00
    8.0048684404679018e-03 -8.1649658092772603e-01
    8.1699346405228763e-03 -7.5000000000000000e-01
    8.4067933893386682e-03 -6.8599434057003528e-01
    9.0167549924259679e-03 -5.8248237251071744e-01
    9.1822138390362153e-03 -5.6195148694901642e-01
    1.2067793233267914e-02 -3.6927447293799820e-01
    1.2067793233267914e-02 -3.6927447293799820e-01
    1.2703947435020001e-02 -3.4554737023254400e-01
    1.5721249524260256e-02 -2.6726124191242434e-01
    2.4341349664775531e-02 -1.6552117772047362e-01 1. 0.
    2.0012171101169755e-02 -2.0412414523193148e-01
    1.7452671444027255e-02 -2.3735633163877068e-01
    1.0064498688664042e-02 -4.7907013758040845e-01
    9.8039215686274508e-03 -5.0000000000000000e-01
    1.2067793233267914e-02 -3.6927447293799820e-01
    8.5046313524447092e-03 -6.6506217176117632e-01
    7.9002251375037275e-03 -8.8640526042791823e-01
    7.9002251375037275e-03 -8.8640526042791823e-01
    8.0527305616675520e-03 -7.9399923338042055e-01
    7.8606247621301282e-03 -9.3541434669348522e-01
    8.0527305616675537e-03 -1.2594470598448055e+00
    8.1699346405228763e-03 -1.3333333333333333e+00
    8.5046313524447109e-03 -1.5036188231122249e+00
    8.5046313524447109e-03 -1.5036188231122249e+00
    8.0048684404679018e-03 -1.2247448713915889e+00
    7.9002251375037292e-03 -1.1281521496355327e+00
    8.1076153885289905e-03 -1.2955969390869329e+00
    8.1076153885289905e-03 -1.2955969390869329e+00
    8.1699346405228763e-03 -1.3333333333333333e+00
    8.0048684404679018e-03 -1.2247448713915889e+00
    7.9002251375037292e-03 -1.1281521496355327e+00
    8.5046313524447109e-03 -1.5036188231122249e+00
    8.3189033080770299e-03 -1.4142135623730951e+00
    8.1076153885289905e-03 -1.2955969390869329e+00
    7.8775232941997089e-03 -1.0981267472114395e+00
    7.9288803826057640e-03 -1.1592023119369625e+00
    7.9288803826057640e-03 -1.1592023119369625e+00
    7.8494193041709383e-03 -9.6076892283052284e-01
    7.8438345156274254e-03 -9.8675438206593014e-01
    7.8494193041709383e-03 -1.0408329997330663e+00
    7.9636817804982704e-03 -8.3937205966451778e-01
    8.2401737453018497e-03 -7.2843135908468359e-01
    8.3189033080770299e-03 -7.0710678118654757e-01
    9.3666140485070895e-03 -5.4139029200370969e-01
    1.0359852259946277e-02 -4.5790546988962549e-01
    1.2067793233267914e-02 -3.6927447293799820e-01
    1.3480860250414872e-02 -3.2084447395987398e-01
    1.5721249524260256e-02 -2.6726124191242434e-01
    1.7452671444027255e-02 -2.3735633163877068e-01
    3.4190481983476254e-02 -1.1624763874381926e-01
    2.0012171101169755e-02 -2.0412414523193148e-01
    1.5721249524260256e-02 -2.6726124191242434e-01
    1.2067793233267914e-02 -3.6927447293799820e-01
    1.1084975903594252e-02 -4.1457809879442503e-01
    9.8039215686274508e-03 -5.0000000000000000e-01
    8.0527305616675520e-03 -7.9399923338042055e-01
    7.8438345156274254e-03 -9.8675438206593014e-01
    7.8494193041709383e-03 -9.6076892283052284e-01
    7.8438345156274254e-03 -9.8675438206593014e-01
    7.8494193041709383e-03 -1.0408329997330663e+00
    8.1699346405228763e-03 -1.3333333333333333e+00
    8.1076153885289905e-03 -1.2955969390869329e+00
    8.1076153885289905e-03 -1.2955969390869329e+00
    7.9002251375037292e-03 -1.1281521496355327e+00
    7.9002251375037292e-03 -1.1281521496355327e+00
    7.9002251375037292e-03 -1.1281521496355327e+00
    8.0527305616675537e-03 -1.2594470598448055e+00
    7.9636817804982704e-03 -1.1913667943625412e+00
    8.0048684404679018e-03 -1.2247448713915889e+00
    7.8606247621301282e-03 -9.3541434669348522e-01
    8.1699346405228763e-03 -1.3333333333333333e+00
    8.0527305616675537e-03 -1.2594470598448055e+00
    8.1076153885289905e-03 -1.2955969390869329e+00
    8.0048684404679018e-03 -1.2247448713915889e+00
    8.3189033080770299e-03 -1.4142135623730951e+00
    8.1699346405228763e-03 -1.3333333333333333e+00
    7.8438345156274254e-03 -9.8675438206593014e-01
    7.8494193041709383e-03 -1.0408329997330663e+00
    7.8775232941997089e-03 -1.0981267472114395e+00
    7.8494193041709383e-03 -1.0408329997330663e+00
    7.8606247621301282e-03 -1.0690449676496974e+00
    7.8438345156274254e-03 -9.8675438206593014e-01
    8.0048684404679018e-03 -8.1649658092772603e-01
    8.5046313524447092e-03 -6.6506217176117632e-01
    1.0064498688664042e-02 -4.7907013758040845e-01
    1.0064498688664042e-02 -4.7907013758040845e-01
    1.3480860250414872e-02 -3.2084447395987398e-01
    1.5721249524260256e-02 -2.6726124191242434e-01
    1.7452671444027255e-02 -2.3735633163877068e-01 1. 0.
    1.7452671444027255e-02 -2.3735633163877068e-01
    1.5721249524260256e-02 -2.6726124191242434e-01
    1.2703947435020001e-02 -3.4554737023254400e-01
    9.5727140427076373e-03 -5.2075564392329543e-01
    8.0048684404679018e-03 -8.1649658092772603e-01
    8.0048684404679018e-03 -8.1649658092772603e-01
    7.9288803826057658e-03 -8.6266218562750729e-01
    7.8438345156274254e-03 -9.8675438206593014e-01
    7.8775232941997089e-03 -9.1064169280948626e-01
    7.8775232941997089e-03 -1.0981267472114395e+00
    7.8494193041709383e-03 -1.0408329997330663e+00
    7.9636817804982704e-03 -1.1913667943625412e+00
    8.0527305616675537e-03 -1.2594470598448055e+00
    7.9636817804982704e-03 -1.1913667943625412e+00
    8.1699346405228763e-03 -1.3333333333333333e+00
    7.9288803826057640e-03 -1.1592023119369625e+00
    8.0527305616675537e-03 -1.2594470598448055e+00
    7.8438345156274254e-03 -1.0134234194190632e+00
    7.8775232941997089e-03 -1.0981267472114395e+00
    8.0527305616675537e-03 -1.2594470598448055e+00
    7.9288803826057640e-03 -1.1592023119369625e+00
    8.1699346405228763e-03 -1.3333333333333333e+00
    8.0048684404679018e-03 -1.2247448713915889e+00
    8.1076153885289905e-03 -1.2955969390869329e+00
    8.4067933893386699e-03 -1.4577379737113254e+00
    8.0527305616675537e-03 -1.2594470598448055e+00
    8.3189033080770299e-03 -1.4142135623730951e+00
    7.9288803826057640e-03 -1.1592023119369625e+00
    7.9288803826057640e-03 -1.1592023119369625e+00
    7.8775232941997089e-03 -1.0981267472114395e+00
    7.8606247621301282e-03 -1.0690449676496974e+00
    7.8494193041709383e-03 -1.0408329997330663e+00
    7.8606247621301282e-03 -9.3541434669348522e-01
    8.0527305616675520e-03 -7.9399923338042055e-01
    8.7340275134779218e-03 -6.2360956446232363e-01
    9.8039215686274508e-03 -5.0000000000000000e-01
    1.3480860250414872e-02 -3.2084447395987398e-01
    1.4455093740676191e-02 -2.9488391230979427e-01
    1.5721249524260256e-02 -2.6726124191242434e-01
    2.4341349664775531e-02 -1.6552117772047362e-01
    1.4455093740676191e-02 -2.9488391230979427e-01
    1.4455093740676191e-02 -2.9488391230979427e-01
    9.3666140485070895e-03 -5.4139029200370969e-01
    8.1699346405228763e-03 -7.5000000000000000e-01
    8.0527305616675520e-03 -7.9399923338042055e-01
    8.5046313524447092e-03 -6.6506217176117632e-01
    7.9636817804982704e-03 -8.3937205966451778e-01
    8.0048684404679018e-03 -8.1649658092772603e-01
    7.8438345156274254e-03 -1.0134234194190632e+00
    7.9288803826057640e-03 -1.1592023119369625e+00
    7.8438345156274254e-03 -1.0134234194190632e+00
    7.8438345156274254e-03 -9.8675438206593014e-01
    7.9002251375037292e-03 -1.1281521496355327e+00
    8.0527305616675537e-03 -1.2594470598448055e+00
    7.9636817804982704e-03 -1.1913667943625412e+00
    8.0527305616675537e-03 -1.2594470598448055e+00
    7.8775232941997089e-03 -1.0981267472114395e+00
    7.8438345156274254e-03 -9.8675438206593014e-01
    7.9288803826057640e-03 -1.1592023119369625e+00
    7.9002251375037292e-03 -1.1281521496355327e+00
    7.8438345156274254e-03 -1.0134234194190632e+00
    8.0048684404679018e-03 -1.2247448713915889e+00
    8.0048684404679018e-03 -1.2247448713915889e+00
    7.9636817804982704e-03 -1.1913667943625412e+00
    8.1076153885289905e-03 -1.2955969390869329e+00
    8.1076153885289905e-03 -1.2955969390869329e+00
    8.5046313524447109e-03 -1.5036188231122249e+00
    8.1699346405228763e-03 -1.3333333333333333e+00
    8.4067933893386699e-03 -1.4577379737113254e+00
    8.0527305616675537e-03 -1.2594470598448055e+00
    7.8775232941997089e-03 -1.0981267472114395e+00
    7.8606247621301282e-03 -1.0690449676496974e+00
    7.8606247621301282e-03 -1.0690449676496974e+00
    7.8775232941997089e-03 -9.1064169280948626e-01
    8.4067933893386682e-03 -6.8599434057003528e-01
    9.3666140485070895e-03 -5.4139029200370969e-01
    1.2067793233267914e-02 -3.6927447293799820e-01
    1.4455093740676191e-02 -2.9488391230979427e-01
    1.7452671444027255e-02 -2.3735633163877068e-01
    2.4341349664775531e-02 -1.6552117772047362e-01
    1.4455093740676191e-02 -2.9488391230979427e-01
    1.3480860250414872e-02 -3.2084447395987398e-01
    8.5046313524447092e-03 -6.6506217176117632e-01
    8.0527305616675520e-03 -7.9399923338042055e-01
    8.4067933893386682e-03 -6.8599434057003528e-01
    8.5046313524447092e-03 -6.6506217176117632e-01
    7.9288803826057658e-03 -8.6266218562750729e-01
    7.8494193041709383e-03 -9.6076892283052284e-01
    7.8606247621301282e-03 -1.0690449676496974e+00
    7.9288803826057640e-03 -1.1592023119369625e+00
    7.8775232941997089e-03 -1.0981267472114395e+00
    7.8606247621301282e-03 -9.3541434669348522e-01
    8.0527305616675520e-03 -7.9399923338042055e-01
    7.8438345156274254e-03 -9.8675438206593014e-01
    8.1076153885289905e-03 -1.2955969390869329e+00
    7.9002251375037292e-03 -1.1281521496355327e+00
    7.8438345156274254e-03 -9.8675438206593014e-01
    7.9002251375037292e-03 -1.1281521496355327e+00
    7.9288803826057640e-03 -1.1592023119369625e+00
    7.8438345156274254e-03 -1.0134234194190632e+00
    7.8775232941997089e-03 -9.1064169280948626e-01
    7.8494193041709383e-03 -9.6076892283052284e-01
    7.9288803826057640e-03 -1.1592023119369625e+00
    7.9002251375037292e-03 -1.1281521496355327e+00
    8.0048684404679018e-03 -1.2247448713915889e+00
    7.9636817804982704e-03 -1.1913667943625412e+00
    8.4067933893386699e-03 -1.4577379737113254e+00
    8.8679807228754012e-03 -1.6583123951777001e+00
    8.7340275134779218e-03 -1.6035674514745464e+00
    8.3189033080770299e-03 -1.4142135623730951e+00
    7.9002251375037292e-03 -1.1281521496355327e+00
    7.9002251375037292e-03 -1.1281521496355327e+00
    7.8494193041709383e-03 -1.0408329997330663e+00
    7.8494193041709383e-03 -1.0408329997330663e+00
    8.0527305616675520e-03 -7.9399923338042055e-01
    9.3666140485070895e-03 -5.4139029200370969e-01
    9.5727140427076373e-03 -5.2075564392329543e-01
    1.4455093740676191e-02 -2.9488391230979427e-01
    1.5721249524260256e-02 -2.6726124191242434e-01
    2.4341349664775531e-02 -1.6552117772047362e-01
    1.4455093740676191e-02 -2.9488391230979427e-01
    1.0359852259946277e-02 -4.5790546988962549e-01
    8.4067933893386682e-03 -6.8599434057003528e-01
    8.0527305616675520e-03 -7.9399923338042055e-01
    7.9636817804982704e-03 -8.3937205966451778e-01
    7.9002251375037275e-03 -8.8640526042791823e-01
    8.0048684404679018e-03 -8.1649658092772603e-01
    7.8494193041709383e-03 -1.0408329997330663e+00
    7.9636817804982704e-03 -1.1913667943625412e+00
    7.8494193041709383e-03 -9.6076892283052284e-01
    7.8606247621301282e-03 -1.0690449676496974e+00
    7.8775232941997089e-03 -1.0981267472114395e+00
    7.9288803826057640e-03 -1.1592023119369625e+00
    8.0527305616675537e-03 -1.2594470598448055e+00
    7.8606247621301282e-03 -1.0690449676496974e+00
    7.8494193041709383e-03 -1.0408329997330663e+00
    7.8606247621301282e-03 -1.0690449676496974e+00
    7.8606247621301282e-03 -1.0690449676496974e+00
    7.8775232941997089e-03 -1.0981267472114395e+00
    7.8494193041709383e-03 -9.6076892283052284e-01
    7.8606247621301282e-03 -9.3541434669348522e-01
    7.8494193041709383e-03 -9.6076892283052284e-01
    7.8775232941997089e-03 -1.0981267472114395e+00
    8.1076153885289905e-03 -1.2955969390869329e+00
    7.8775232941997089e-03 -1.0981267472114395e+00
    8.7340275134779218e-03 -1.6035674514745464e+00
    8.7340275134779218e-03 -1.6035674514745464e+00
    9.3666140485070860e-03 -1.8470962903655972e+00
    8.4067933893386699e-03 -1.4577379737113254e+00
    8.5046313524447109e-03 -1.5036188231122249e+00
    8.1699346405228763e-03 -1.3333333333333333e+00
    7.9288803826057640e-03 -1.1592023119369625e+00
    7.9288803826057640e-03 -1.1592023119369625e+00
    7.8438345156274254e-03 -1.0134234194190632e+00
    7.9002251375037275e-03 -8.8640526042791823e-01
    8.7340275134779218e-03 -6.2360956446232363e-01
    9.3666140485070895e-03 -5.4139029200370969e-01
    1.2703947435020001e-02 -3.4554737023254400e-01
    1.7452671444027255e-02 -2.3735633163877068e-01
    2.4341349664775531e-02 -1.6552117772047362e-01
    1.4455093740676191e-02 -2.9488391230979427e-01
    8.7340275134779218e-03 -6.2360956446232363e-01
    8.2401737453018497e-03 -7.2843135908468359e-01
    7.8606247621301282e-03 -9.3541434669348522e-01
    7.8606247621301282e-03 -9.3541434669348522e-01
    7.8775232941997089e-03 -9.1064169280948626e-01
    7.9002251375037292e-03 -1.1281521496355327e+00
    7.9288803826057640e-03 -1.1592023119369625e+00
    7.8438345156274254e-03 -1.0134234194190632e+00
    7.8494193041709383e-03 -1.0408329997330663e+00
    7.8494193041709383e-03 -1.0408329997330663e+00
    7.9636817804982704e-03 -1.1913667943625412e+00
    7.9288803826057640e-03 -1.1592023119369625e+00
    7.8775232941997089e-03 -9.1064169280948626e-01
    7.8494193041709383e-03 -9.6076892283052284e-01
    7.8494193041709383e-03 -9.6076892283052284e-01
    7.9002251375037275e-03 -8.8640526042791823e-01
    7.8775232941997089e-03 -1.0981267472114395e+00
    7.8438345156274254e-03 -9.8675438206593014e-01
    7.8494193041709383e-03 -1.0408329997330663e+00
    7.8494193041709383e-03 -9.6076892283052284e-01
    7.8606247621301282e-03 -9.3541434669348522e-01
    8.1699346405228763e-03 -1.3333333333333333e+00
    8.1699346405228763e-03 -1.3333333333333333e+00
    8.3189033080770299e-03 -1.4142135623730951e+00
    8.7340275134779218e-03 -1.6035674514745464e+00
    8.5046313524447109e-03 -1.5036188231122249e+00
    8.6133443037856288e-03 -1.5521246435421703e+00
    8.3189033080770299e-03 -1.4142135623730951e+00
    8.6133443037856288e-03 -1.5521246435421703e+00
    8.5046313524447109e-03 -1.5036188231122249e+00
    8.0527305616675537e-03 -1.2594470598448055e+00
    7.8438345156274254e-03 -9.8675438206593014e-01
    7.8775232941997089e-03 -1.0981267472114395e+00
    7.8606247621301282e-03 -9.3541434669348522e-01
    8.3189033080770299e-03 -7.0710678118654757e-01
    9.3666140485070895e-03 -5.4139029200370969e-01
    9.0167549924259679e-03 -5.8248237251071744e-01
    1.4455093740676191e-02 -2.9488391230979427e-01
    1.7452671444027255e-02 -2.3735633163877068e-01
    1.2067793233267914e-02 -3.6927447293799820e-01
    8.7340275134779218e-03 -6.2360956446232363e-01
    8.1699346405228763e-03 -7.5000000000000000e-01
    7.8438345156274254e-03 -9.8675438206593014e-01
    7.8606247621301282e-03 -9.3541434669348522e-01
    7.8494193041709383e-03 -1.0408329997330663e+00
    7.9636817804982704e-03 -1.1913667943625412e+00
    7.9636817804982704e-03 -1.1913667943625412e+00
    7.8606247621301282e-03 -1.0690449676496974e+00
    7.8494193041709383e-03 -1.0408329997330663e+00
    7.8775232941997089e-03 -1.0981267472114395e+00
    8.0048684404679018e-03 -1.2247448713915889e+00
    8.0527305616675537e-03 -1.2594470598448055e+00
    7.8438345156274254e-03 -9.8675438206593014e-01
    7.8606247621301282e-03 -9.3541434669348522e-01
    7.8606247621301282e-03 -9.3541434669348522e-01
    7.8438345156274254e-03 -9.8675438206593014e-01
    7.8494193041709383e-03 -9.6076892283052284e-01
    7.8606247621301282e-03 -9.3541434669348522e-01
    7.8775232941997089e-03 -9.1064169280948626e-01
    7.9636817804982704e-03 -8.3937205966451778e-01
    7.8438345156274254e-03 -9.8675438206593014e-01
    7.8494193041709383e-03 -1.0408329997330663e+00
    7.8494193041709383e-03 -1.0408329997330663e+00
    7.9636817804982704e-03 -1.1913667943625412e+00
    8.1076153885289905e-03 -1.2955969390869329e+00
    8.0527305616675537e-03 -1.2594470598448055e+00
    8.6133443037856288e-03 -1.5521246435421703e+00
    8.6133443037856288e-03 -1.5521246435421703e+00
    9.5727140427076373e-03 -1.9202864369671520e+00
    9.3666140485070860e-03 -1.8470962903655972e+00
    8.5046313524447109e-03 -1.5036188231122249e+00
    7.9002251375037292e-03 -1.1281521496355327e+00
    7.8606247621301282e-03 -9.3541434669348522e-01
    7.8494193041709383e-03 -9.6076892283052284e-01
    7.9636817804982704e-03 -8.3937205966451778e-01
    8.8679807228754012e-03 -6.0302268915552726e-01
    9.3666140485070895e-03 -5.4139029200370969e-01
    1.2067793233267914e-02 -3.6927447293799820e-01
    2.4341349664775531e-02 -1.6552117772047362e-01
    1.2703947435020001e-02 -3.4554737023254400e-01
    8.4067933893386682e-03 -6.8599434057003528e-01
    8.2401737453018497e-03 -7.2843135908468359e-01
    7.8494193041709383e-03 -1.0408329997330663e+00
    7.8606247621301282e-03 -9.3541434669348522e-01
    7.8606247621301282e-03 -1.0690449676496974e+00
    8.1699346405228763e-03 -1.3333333333333333e+00
    8.0527305616675537e-03 -1.2594470598448055e+00
    7.8494193041709383e-03 -1.0408329997330663e+00
    7.8438345156274254e-03 -1.0134234194190632e+00
    7.8438345156274254e-03 -1.0134234194190632e+00
    7.9636817804982704e-03 -1.1913667943625412e+00
    7.8606247621301282e-03 -1.0690449676496974e+00
    7.8438345156274254e-03 -1.0134234194190632e+00
    7.8438345156274254e-03 -1.0134234194190632e+00
    7.8438345156274254e-03 -9.8675438206593014e-01
    7.8606247621301282e-03 -9.3541434669348522e-01
    7.8438345156274254e-03 -1.0134234194190632e+00
    7.8494193041709383e-03 -9.6076892283052284e-01
    7.8606247621301282e-03 -9.3541434669348522e-01
    7.8775232941997089e-03 -9.1064169280948626e-01
    7.8494193041709383e-03 -9.6076892283052284e-01
    7.8438345156274254e-03 -9.8675438206593014e-01
    7.9288803826057640e-03 -1.1592023119369625e+00
    7.8606247621301282e-03 -1.0690449676496974e+00
    7.9288803826057640e-03 -1.1592023119369625e+00
    8.4067933893386699e-03 -1.4577379737113254e+00
    8.1699346405228763e-03 -1.3333333333333333e+00
    8.6133443037856288e-03 -1.5521246435421703e+00
    8.7340275134779218e-03 -1.6035674514745464e+00
    9.8039215686274508e-03 -2. 8.7340275134779218e-03
    -1.6035674514745464e+00 8.0048684404679018e-03
    -1.2247448713915889e+00 7.8494193041709383e-03
    -1.0408329997330663e+00 7.8606247621301282e-03
    -1.0690449676496974e+00 7.9288803826057658e-03
    -8.6266218562750729e-01 8.0048684404679018e-03
    -8.1649658092772603e-01 8.8679807228754012e-03
    -6.0302268915552726e-01 1.1536243243422589e-02
    -3.9223227027636803e-01 2.0012171101169755e-02
    -2.0412414523193148e-01 1.0696955403725117e-02
    -4.3643578047198472e-01 9.0167549924259679e-03
    -5.8248237251071744e-01 8.1076153885289888e-03
    -7.7184498498795973e-01 7.8438345156274254e-03
    -1.0134234194190632e+00 7.8438345156274254e-03
    -9.8675438206593014e-01 7.8606247621301282e-03
    -1.0690449676496974e+00 8.1699346405228763e-03
    -1.3333333333333333e+00 8.2401737453018497e-03
    -1.3728129459672882e+00 7.9288803826057640e-03
    -1.1592023119369625e+00 7.8606247621301282e-03
    -1.0690449676496974e+00 7.8438345156274254e-03
    -1.0134234194190632e+00 7.8606247621301282e-03
    -9.3541434669348522e-01 7.8606247621301282e-03
    -1.0690449676496974e+00 7.8775232941997089e-03
    -9.1064169280948626e-01 7.8438345156274254e-03
    -9.8675438206593014e-01 7.8606247621301282e-03
    -9.3541434669348522e-01 7.8775232941997089e-03
    -9.1064169280948626e-01 7.8494193041709383e-03
    -9.6076892283052284e-01 7.8606247621301282e-03
    -9.3541434669348522e-01 7.8606247621301282e-03
    -9.3541434669348522e-01 7.8494193041709383e-03
    -9.6076892283052284e-01 7.8438345156274254e-03
    -9.8675438206593014e-01 7.8494193041709383e-03
    -9.6076892283052284e-01 7.8438345156274254e-03
    -1.0134234194190632e+00 7.8606247621301282e-03
    -9.3541434669348522e-01 7.8438345156274254e-03
    -9.8675438206593014e-01 7.9288803826057640e-03
    -1.1592023119369625e+00 8.5046313524447109e-03
    -1.5036188231122249e+00 8.6133443037856288e-03
    -1.5521246435421703e+00 8.4067933893386699e-03
    -1.4577379737113254e+00 8.6133443037856288e-03
    -1.5521246435421703e+00 8.7340275134779218e-03
    -1.6035674514745464e+00 7.9288803826057640e-03
    -1.1592023119369625e+00 7.9002251375037292e-03
    -1.1281521496355327e+00 8.0048684404679018e-03
    -1.2247448713915889e+00 7.9002251375037292e-03
    -1.1281521496355327e+00 8.3189033080770299e-03
    -7.0710678118654757e-01 9.0167549924259679e-03
    -5.8248237251071744e-01 1.0064498688664042e-02
    -4.7907013758040845e-01 1.4455093740676191e-02
    -2.9488391230979427e-01 1.1084975903594252e-02
    -4.1457809879442503e-01 9.1822138390362153e-03
    -5.6195148694901642e-01 7.9636817804982704e-03
    -8.3937205966451778e-01 7.8438345156274254e-03
    -1.0134234194190632e+00 7.8606247621301282e-03
    -9.3541434669348522e-01 7.8438345156274254e-03
    -1.0134234194190632e+00 8.0048684404679018e-03
    -1.2247448713915889e+00 8.3189033080770299e-03
    -1.4142135623730951e+00 7.9288803826057640e-03
    -1.1592023119369625e+00 8.0527305616675537e-03
    -1.2594470598448055e+00 8.0048684404679018e-03
    -1.2247448713915889e+00 7.8775232941997089e-03
    -1.0981267472114395e+00 7.8775232941997089e-03
    -1.0981267472114395e+00 7.8438345156274254e-03
    -1.0134234194190632e+00 7.8775232941997089e-03
    -9.1064169280948626e-01 7.9002251375037275e-03
    -8.8640526042791823e-01 7.9636817804982704e-03
    -8.3937205966451778e-01 7.8775232941997089e-03
    -9.1064169280948626e-01 7.8438345156274254e-03
    -1.0134234194190632e+00 7.8775232941997089e-03
    -9.1064169280948626e-01 7.9636817804982704e-03
    -8.3937205966451778e-01 7.8606247621301282e-03
    -1.0690449676496974e+00 7.8438345156274254e-03
    -1.0134234194190632e+00 7.8438345156274254e-03
    -1.0134234194190632e+00 7.8494193041709383e-03
    -1.0408329997330663e+00 7.8438345156274254e-03
    -9.8675438206593014e-01 7.8775232941997089e-03
    -1.0981267472114395e+00 8.5046313524447109e-03
    -1.5036188231122249e+00 8.6133443037856288e-03
    -1.5521246435421703e+00 9.1822138390362171e-03
    -1.7795130420052190e+00 8.8679807228754012e-03
    -1.6583123951777001e+00 9.0167549924259679e-03
    -1.7167901505579044e+00 8.6133443037856288e-03
    -1.5521246435421703e+00 8.1076153885289905e-03
    -1.2955969390869329e+00 7.9002251375037292e-03
    -1.1281521496355327e+00 7.9288803826057640e-03
    -1.1592023119369625e+00 8.1699346405228763e-03
    -7.5000000000000000e-01 9.8039215686274508e-03
    -5.0000000000000000e-01 1.0696955403725117e-02
    -4.3643578047198472e-01 1.2067793233267914e-02
    -3.6927447293799820e-01 1.1084975903594252e-02
    -4.1457809879442503e-01 9.0167549924259679e-03
    -5.8248237251071744e-01 8.5046313524447092e-03
    -6.6506217176117632e-01 8.1076153885289888e-03
    -7.7184498498795973e-01 8.0048684404679018e-03
    -8.1649658092772603e-01 7.8438345156274254e-03
    -1.0134234194190632e+00 7.8438345156274254e-03
    -9.8675438206593014e-01 8.4067933893386699e-03
    -1.4577379737113254e+00 7.9002251375037292e-03
    -1.1281521496355327e+00 7.8494193041709383e-03
    -1.0408329997330663e+00 8.0048684404679018e-03
    -1.2247448713915889e+00 8.0527305616675537e-03
    -1.2594470598448055e+00 7.8775232941997089e-03
    -1.0981267472114395e+00 7.9002251375037292e-03
    -1.1281521496355327e+00 7.8438345156274254e-03
    -1.0134234194190632e+00 7.8438345156274254e-03
    -9.8675438206593014e-01 7.8606247621301282e-03
    -9.3541434669348522e-01 7.8775232941997089e-03
    -9.1064169280948626e-01 7.9288803826057658e-03
    -8.6266218562750729e-01 7.8494193041709383e-03
    -1.0408329997330663e+00 7.9002251375037275e-03
    -8.8640526042791823e-01 7.8438345156274254e-03
    -1.0134234194190632e+00 7.8438345156274254e-03
    -9.8675438206593014e-01 7.8494193041709383e-03
    -9.6076892283052284e-01 8.0048684404679018e-03
    -8.1649658092772603e-01 7.8606247621301282e-03
    -9.3541434669348522e-01 7.8606247621301282e-03
    -1.0690449676496974e+00 8.0527305616675537e-03
    -1.2594470598448055e+00 8.3189033080770299e-03
    -1.4142135623730951e+00 8.4067933893386699e-03
    -1.4577379737113254e+00 8.1699346405228763e-03
    -1.3333333333333333e+00 8.7340275134779218e-03
    -1.6035674514745464e+00 8.6133443037856288e-03
    -1.5521246435421703e+00 8.0527305616675537e-03
    -1.2594470598448055e+00 8.0527305616675537e-03
    -1.2594470598448055e+00 7.9288803826057640e-03
    -1.1592023119369625e+00 8.0048684404679018e-03
    -8.1649658092772603e-01 1.2067793233267914e-02
    -3.6927447293799820e-01 1.0359852259946277e-02
    -4.5790546988962549e-01 1.2067793233267914e-02
    -3.6927447293799820e-01 1.0696955403725117e-02
    -4.3643578047198472e-01 9.0167549924259679e-03
    -5.8248237251071744e-01 8.3189033080770299e-03
    -7.0710678118654757e-01 8.0048684404679018e-03
    -8.1649658092772603e-01 7.8775232941997089e-03
    -9.1064169280948626e-01 7.8438345156274254e-03
    -1.0134234194190632e+00 7.8606247621301282e-03
    -1.0690449676496974e+00 8.1076153885289905e-03
    -1.2955969390869329e+00 8.0527305616675537e-03
    -1.2594470598448055e+00 7.9636817804982704e-03
    -1.1913667943625412e+00 8.0048684404679018e-03
    -1.2247448713915889e+00 7.8775232941997089e-03
    -1.0981267472114395e+00 7.8494193041709383e-03
    -1.0408329997330663e+00 7.9636817804982704e-03
    -1.1913667943625412e+00 7.8438345156274254e-03
    -9.8675438206593014e-01 7.8438345156274254e-03
    -9.8675438206593014e-01 7.9636817804982704e-03
    -8.3937205966451778e-01 7.8438345156274254e-03
    -1.0134234194190632e+00 7.8494193041709383e-03
    -1.0408329997330663e+00 7.8438345156274254e-03
    -9.8675438206593014e-01 7.9002251375037275e-03
    -8.8640526042791823e-01 7.8438345156274254e-03
    -1.0134234194190632e+00 7.8606247621301282e-03
    -1.0690449676496974e+00 7.8438345156274254e-03
    -1.0134234194190632e+00 7.8438345156274254e-03
    -1.0134234194190632e+00 7.9288803826057640e-03
    -1.1592023119369625e+00 8.2401737453018497e-03
    -1.3728129459672882e+00 8.0048684404679018e-03
    -1.2247448713915889e+00 8.5046313524447109e-03
    -1.5036188231122249e+00 8.6133443037856288e-03
    -1.5521246435421703e+00 8.5046313524447109e-03
    -1.5036188231122249e+00 8.8679807228754012e-03
    -1.6583123951777001e+00 8.1699346405228763e-03
    -1.3333333333333333e+00 8.0527305616675537e-03
    -1.2594470598448055e+00 7.9288803826057640e-03
    -1.1592023119369625e+00 7.8606247621301282e-03
    -1.0690449676496974e+00 8.0527305616675520e-03
    -7.9399923338042055e-01 1.2067793233267914e-02
    -3.6927447293799820e-01 1.0696955403725117e-02
    -4.3643578047198472e-01 1.4455093740676191e-02
    -2.9488391230979427e-01 1.1536243243422589e-02
    -3.9223227027636803e-01 9.0167549924259679e-03
    -5.8248237251071744e-01 8.0048684404679018e-03
    -8.1649658092772603e-01 8.1076153885289888e-03
    -7.7184498498795973e-01 7.9288803826057658e-03
    -8.6266218562750729e-01 7.9002251375037275e-03
    -8.8640526042791823e-01 7.8775232941997089e-03
    -1.0981267472114395e+00 8.2401737453018497e-03
    -1.3728129459672882e+00 8.1076153885289905e-03
    -1.2955969390869329e+00 8.0527305616675537e-03
    -1.2594470598448055e+00 8.0048684404679018e-03
    -1.2247448713915889e+00 7.8494193041709383e-03
    -9.6076892283052284e-01 7.8494193041709383e-03
    -1.0408329997330663e+00 7.9288803826057640e-03
    -1.1592023119369625e+00 7.8438345156274254e-03
    -9.8675438206593014e-01 7.8775232941997089e-03
    -9.1064169280948626e-01 7.9002251375037275e-03
    -8.8640526042791823e-01 7.8606247621301282e-03
    -9.3541434669348522e-01 7.8775232941997089e-03
    -1.0981267472114395e+00 7.9288803826057640e-03
    -1.1592023119369625e+00 7.8438345156274254e-03
    -9.8675438206593014e-01 7.8775232941997089e-03
    -9.1064169280948626e-01 7.8438345156274254e-03
    -1.0134234194190632e+00 7.8438345156274254e-03
    -9.8675438206593014e-01 8.0048684404679018e-03
    -1.2247448713915889e+00 8.2401737453018497e-03
    -1.3728129459672882e+00 8.1699346405228763e-03
    -1.3333333333333333e+00 8.2401737453018497e-03
    -1.3728129459672882e+00 7.9288803826057640e-03
    -1.1592023119369625e+00 8.6133443037856288e-03
    -1.5521246435421703e+00 8.1076153885289905e-03
    -1.2955969390869329e+00 8.1699346405228763e-03
    -1.3333333333333333e+00 8.3189033080770299e-03
    -1.4142135623730951e+00 7.9636817804982704e-03
    -1.1913667943625412e+00 7.9636817804982704e-03
    -1.1913667943625412e+00 7.8775232941997089e-03
    -1.0981267472114395e+00 7.8775232941997089e-03
    -9.1064169280948626e-01 1.0064498688664042e-02
    -4.7907013758040845e-01 1.0359852259946277e-02
    -4.5790546988962549e-01 1.5721249524260256e-02
    -2.6726124191242434e-01 1.3480860250414872e-02
    -3.2084447395987398e-01 9.0167549924259679e-03
    -5.8248237251071744e-01 8.3189033080770299e-03
    -7.0710678118654757e-01 8.0527305616675520e-03
    -7.9399923338042055e-01 7.9002251375037275e-03
    -8.8640526042791823e-01 7.8494193041709383e-03
    -9.6076892283052284e-01 7.8775232941997089e-03
    -1.0981267472114395e+00 7.9288803826057640e-03
    -1.1592023119369625e+00 7.9636817804982704e-03
    -1.1913667943625412e+00 7.8438345156274254e-03
    -9.8675438206593014e-01 7.8494193041709383e-03
    -9.6076892283052284e-01 7.8438345156274254e-03
    -9.8675438206593014e-01 8.0048684404679018e-03
    -1.2247448713915889e+00 7.9288803826057640e-03
    -1.1592023119369625e+00 7.9636817804982704e-03
    -8.3937205966451778e-01 8.0048684404679018e-03
    -8.1649658092772603e-01 7.9288803826057658e-03
    -8.6266218562750729e-01 7.9288803826057658e-03
    -8.6266218562750729e-01 7.8438345156274254e-03
    -9.8675438206593014e-01 7.8438345156274254e-03
    -1.0134234194190632e+00 7.8438345156274254e-03
    -1.0134234194190632e+00 7.8775232941997089e-03
    -9.1064169280948626e-01 7.8775232941997089e-03
    -9.1064169280948626e-01 7.8775232941997089e-03
    -9.1064169280948626e-01 7.9288803826057640e-03
    -1.1592023119369625e+00 7.8494193041709383e-03
    -1.0408329997330663e+00 8.1076153885289905e-03
    -1.2955969390869329e+00 8.1076153885289905e-03
    -1.2955969390869329e+00 7.9288803826057640e-03
    -1.1592023119369625e+00 8.2401737453018497e-03
    -1.3728129459672882e+00 8.1076153885289905e-03
    -1.2955969390869329e+00 8.1076153885289905e-03
    -1.2955969390869329e+00 8.3189033080770299e-03
    -1.4142135623730951e+00 7.8438345156274254e-03
    -9.8675438206593014e-01 7.8775232941997089e-03
    -1.0981267472114395e+00 7.8775232941997089e-03
    -1.0981267472114395e+00 7.9636817804982704e-03
    -8.3937205966451778e-01 8.8679807228754012e-03
    -6.0302268915552726e-01 1.0696955403725117e-02
    -4.3643578047198472e-01 1.7452671444027255e-02
    -2.3735633163877068e-01 1.4455093740676191e-02
    -2.9488391230979427e-01 9.5727140427076373e-03
    -5.2075564392329543e-01 8.3189033080770299e-03
    -7.0710678118654757e-01 8.1076153885289888e-03
    -7.7184498498795973e-01 7.9288803826057658e-03
    -8.6266218562750729e-01 7.8775232941997089e-03
    -1.0981267472114395e+00 7.8775232941997089e-03
    -1.0981267472114395e+00 7.9002251375037292e-03
    -1.1281521496355327e+00 7.8606247621301282e-03
    -1.0690449676496974e+00 7.8606247621301282e-03
    -1.0690449676496974e+00 7.8494193041709383e-03
    -1.0408329997330663e+00 8.0048684404679018e-03
    -1.2247448713915889e+00 7.9288803826057658e-03
    -8.6266218562750729e-01 7.9002251375037292e-03
    -1.1281521496355327e+00 7.8606247621301282e-03
    -9.3541434669348522e-01 7.9002251375037275e-03
    -8.8640526042791823e-01 8.0527305616675520e-03
    -7.9399923338042055e-01 7.9002251375037275e-03
    -8.8640526042791823e-01 7.9002251375037275e-03
    -8.8640526042791823e-01 7.9636817804982704e-03
    -8.3937205966451778e-01 8.1076153885289888e-03
    -7.7184498498795973e-01 8.0048684404679018e-03
    -8.1649658092772603e-01 7.9636817804982704e-03
    -8.3937205966451778e-01 7.9288803826057658e-03
    -8.6266218562750729e-01 7.9002251375037292e-03
    -1.1281521496355327e+00 8.1699346405228763e-03
    -1.3333333333333333e+00 8.1076153885289905e-03
    -1.2955969390869329e+00 8.0527305616675537e-03
    -1.2594470598448055e+00 7.9288803826057640e-03
    -1.1592023119369625e+00 7.8606247621301282e-03
    -1.0690449676496974e+00 8.1076153885289905e-03
    -1.2955969390869329e+00 8.0048684404679018e-03
    -1.2247448713915889e+00 8.0048684404679018e-03
    -1.2247448713915889e+00 7.8438345156274254e-03
    -9.8675438206593014e-01 7.8494193041709383e-03
    -1.0408329997330663e+00 7.8494193041709383e-03
    -1.0408329997330663e+00 7.9636817804982704e-03
    -8.3937205966451778e-01 9.0167549924259679e-03
    -5.8248237251071744e-01 1.1084975903594252e-02
    -4.1457809879442503e-01 2.4341349664775531e-02
    -1.6552117772047362e-01 1.2703947435020001e-02
    -3.4554737023254400e-01 9.5727140427076373e-03
    -5.2075564392329543e-01 8.5046313524447092e-03
    -6.6506217176117632e-01 8.4067933893386682e-03
    -6.8599434057003528e-01 8.0527305616675520e-03
    -7.9399923338042055e-01 7.8494193041709383e-03
    -9.6076892283052284e-01 7.8606247621301282e-03
    -1.0690449676496974e+00 7.8606247621301282e-03
    -1.0690449676496974e+00 7.9288803826057640e-03
    -1.1592023119369625e+00 7.8438345156274254e-03
    -9.8675438206593014e-01 7.9636817804982704e-03
    -1.1913667943625412e+00 7.9636817804982704e-03
    -1.1913667943625412e+00 7.9002251375037292e-03
    -1.1281521496355327e+00 7.8606247621301282e-03
    -9.3541434669348522e-01 7.8438345156274254e-03
    -1.0134234194190632e+00 7.8494193041709383e-03
    -9.6076892283052284e-01 7.9002251375037275e-03
    -8.8640526042791823e-01 7.8775232941997089e-03
    -9.1064169280948626e-01 7.9002251375037275e-03
    -8.8640526042791823e-01 8.0048684404679018e-03
    -8.1649658092772603e-01 8.0048684404679018e-03
    -8.1649658092772603e-01 8.1076153885289888e-03
    -7.7184498498795973e-01 7.8438345156274254e-03
    -9.8675438206593014e-01 7.8494193041709383e-03
    -1.0408329997330663e+00 7.9288803826057640e-03
    -1.1592023119369625e+00 7.9636817804982704e-03
    -1.1913667943625412e+00 8.1699346405228763e-03
    -1.3333333333333333e+00 7.9002251375037292e-03
    -1.1281521496355327e+00 7.9288803826057640e-03
    -1.1592023119369625e+00 8.1076153885289905e-03
    -1.2955969390869329e+00 7.8494193041709383e-03
    -1.0408329997330663e+00 8.0048684404679018e-03
    -1.2247448713915889e+00 8.1699346405228763e-03
    -1.3333333333333333e+00 7.8606247621301282e-03
    -1.0690449676496974e+00 7.8606247621301282e-03
    -1.0690449676496974e+00 7.8438345156274254e-03
    -9.8675438206593014e-01 7.9636817804982704e-03
    -8.3937205966451778e-01 9.0167549924259679e-03
    -5.8248237251071744e-01 1.0359852259946277e-02
    -4.5790546988962549e-01 2.4341349664775531e-02
    -1.6552117772047362e-01 1.2067793233267914e-02
    -3.6927447293799820e-01 1.0359852259946277e-02
    -4.5790546988962549e-01 8.8679807228754012e-03
    -6.0302268915552726e-01 8.2401737453018497e-03
    -7.2843135908468359e-01 8.0527305616675520e-03
    -7.9399923338042055e-01 7.8438345156274254e-03
    -1.0134234194190632e+00 7.8494193041709383e-03
    -1.0408329997330663e+00 7.8606247621301282e-03
    -9.3541434669348522e-01 7.8438345156274254e-03
    -9.8675438206593014e-01 7.8606247621301282e-03
    -1.0690449676496974e+00 8.0527305616675537e-03
    -1.2594470598448055e+00 7.8494193041709383e-03
    -1.0408329997330663e+00 7.8438345156274254e-03
    -1.0134234194190632e+00 7.8494193041709383e-03
    -1.0408329997330663e+00 7.8775232941997089e-03
    -1.0981267472114395e+00 7.8438345156274254e-03
    -9.8675438206593014e-01 7.8606247621301282e-03
    -1.0690449676496974e+00 7.8775232941997089e-03
    -9.1064169280948626e-01 7.9636817804982704e-03
    -8.3937205966451778e-01 7.8606247621301282e-03
    -9.3541434669348522e-01 7.9288803826057658e-03
    -8.6266218562750729e-01 7.8775232941997089e-03
    -9.1064169280948626e-01 7.8606247621301282e-03
    -9.3541434669348522e-01 7.8606247621301282e-03
    -1.0690449676496974e+00 7.8494193041709383e-03
    -9.6076892283052284e-01 8.0048684404679018e-03
    -1.2247448713915889e+00 7.9002251375037292e-03
    -1.1281521496355327e+00 7.8494193041709383e-03
    -9.6076892283052284e-01 7.8438345156274254e-03
    -9.8675438206593014e-01 7.9002251375037292e-03
    -1.1281521496355327e+00 7.9636817804982704e-03
    -1.1913667943625412e+00 8.1076153885289905e-03
    -1.2955969390869329e+00 7.9636817804982704e-03
    -1.1913667943625412e+00 7.8438345156274254e-03
    -1.0134234194190632e+00 7.8606247621301282e-03
    -1.0690449676496974e+00 7.8438345156274254e-03
    -9.8675438206593014e-01 8.0048684404679018e-03
    -8.1649658092772603e-01 8.6133443037856288e-03
    -6.4427815392316501e-01 9.3666140485070895e-03
    -5.4139029200370969e-01 1.7452671444027255e-02
    -2.3735633163877068e-01 1.2703947435020001e-02
    -3.4554737023254400e-01 9.8039215686274508e-03
    -5.0000000000000000e-01 9.0167549924259679e-03
    -5.8248237251071744e-01 8.3189033080770299e-03
    -7.0710678118654757e-01 8.1699346405228763e-03
    -7.5000000000000000e-01 7.8494193041709383e-03
    -9.6076892283052284e-01 7.8606247621301282e-03
    -1.0690449676496974e+00 7.8775232941997089e-03
    -1.0981267472114395e+00 7.9288803826057658e-03
    -8.6266218562750729e-01 7.9636817804982704e-03
    -1.1913667943625412e+00 8.0048684404679018e-03
    -1.2247448713915889e+00 7.9288803826057640e-03
    -1.1592023119369625e+00 7.8494193041709383e-03
    -1.0408329997330663e+00 7.8438345156274254e-03
    -1.0134234194190632e+00 7.8606247621301282e-03
    -1.0690449676496974e+00 7.8494193041709383e-03
    -1.0408329997330663e+00 7.8775232941997089e-03
    -1.0981267472114395e+00 7.8438345156274254e-03
    -9.8675438206593014e-01 7.8494193041709383e-03
    -9.6076892283052284e-01 7.8775232941997089e-03
    -9.1064169280948626e-01 7.9288803826057658e-03
    -8.6266218562750729e-01 7.8494193041709383e-03
    -1.0408329997330663e+00 7.8438345156274254e-03
    -1.0134234194190632e+00 7.8775232941997089e-03
    -1.0981267472114395e+00 7.9002251375037292e-03
    -1.1281521496355327e+00 7.8438345156274254e-03
    -1.0134234194190632e+00 7.8494193041709383e-03
    -9.6076892283052284e-01 7.9288803826057640e-03
    -1.1592023119369625e+00 7.9288803826057640e-03
    -1.1592023119369625e+00 7.8775232941997089e-03
    -1.0981267472114395e+00 7.8775232941997089e-03
    -1.0981267472114395e+00 8.1076153885289905e-03
    -1.2955969390869329e+00 7.9288803826057640e-03
    -1.1592023119369625e+00 7.9002251375037292e-03
    -1.1281521496355327e+00 7.8606247621301282e-03
    -9.3541434669348522e-01 7.8606247621301282e-03
    -9.3541434669348522e-01 7.9288803826057658e-03
    -8.6266218562750729e-01 9.3666140485070895e-03
    -5.4139029200370969e-01 9.8039215686274508e-03
    -5.0000000000000000e-01 2.4341349664775531e-02
    -1.6552117772047362e-01 1.1536243243422589e-02
    -3.9223227027636803e-01 1.0359852259946277e-02
    -4.5790546988962549e-01 9.3666140485070895e-03
    -5.4139029200370969e-01 8.5046313524447092e-03
    -6.6506217176117632e-01 8.2401737453018497e-03
    -7.2843135908468359e-01 8.0527305616675520e-03
    -7.9399923338042055e-01 7.9002251375037275e-03
    -8.8640526042791823e-01 7.9002251375037275e-03
    -8.8640526042791823e-01 7.8438345156274254e-03
    -9.8675438206593014e-01 7.9002251375037275e-03
    -8.8640526042791823e-01 7.8606247621301282e-03
    -1.0690449676496974e+00 7.9288803826057640e-03
    -1.1592023119369625e+00 7.8494193041709383e-03
    -1.0408329997330663e+00 7.9002251375037292e-03
    -1.1281521496355327e+00 7.9636817804982704e-03
    -1.1913667943625412e+00 7.8438345156274254e-03
    -9.8675438206593014e-01 7.8438345156274254e-03
    -9.8675438206593014e-01 7.8606247621301282e-03
    -9.3541434669348522e-01 7.8606247621301282e-03
    -1.0690449676496974e+00 7.8606247621301282e-03
    -1.0690449676496974e+00 7.8438345156274254e-03
    -9.8675438206593014e-01 7.8606247621301282e-03
    -1.0690449676496974e+00 7.8775232941997089e-03
    -1.0981267472114395e+00 7.8775232941997089e-03
    -9.1064169280948626e-01 7.8438345156274254e-03
    -1.0134234194190632e+00 7.8606247621301282e-03
    -9.3541434669348522e-01 8.0048684404679018e-03
    -1.2247448713915889e+00 7.9636817804982704e-03
    -1.1913667943625412e+00 7.8494193041709383e-03
    -1.0408329997330663e+00 7.9288803826057640e-03
    -1.1592023119369625e+00 7.9002251375037292e-03
    -1.1281521496355327e+00 8.1076153885289905e-03
    -1.2955969390869329e+00 7.8606247621301282e-03
    -1.0690449676496974e+00 7.8775232941997089e-03
    -1.0981267472114395e+00 7.8494193041709383e-03
    -9.6076892283052284e-01 7.8494193041709383e-03
    -9.6076892283052284e-01 8.3189033080770299e-03
    -7.0710678118654757e-01 8.7340275134779218e-03
    -6.2360956446232363e-01 1.0064498688664042e-02
    -4.7907013758040845e-01 1.4455093740676191e-02
    -2.9488391230979427e-01 1.2703947435020001e-02
    -3.4554737023254400e-01 1.0359852259946277e-02
    -4.5790546988962549e-01 1.0359852259946277e-02
    -4.5790546988962549e-01 8.2401737453018497e-03
    -7.2843135908468359e-01 8.4067933893386682e-03
    -6.8599434057003528e-01 8.1076153885289888e-03
    -7.7184498498795973e-01 7.9636817804982704e-03
    -8.3937205966451778e-01 7.9002251375037275e-03
    -8.8640526042791823e-01 7.8494193041709383e-03
    -9.6076892283052284e-01 7.8775232941997089e-03
    -1.0981267472114395e+00 7.8775232941997089e-03
    -1.0981267472114395e+00 7.8775232941997089e-03
    -9.1064169280948626e-01 7.8494193041709383e-03
    -9.6076892283052284e-01 7.9288803826057640e-03
    -1.1592023119369625e+00 7.9288803826057658e-03
    -8.6266218562750729e-01 7.8775232941997089e-03
    -1.0981267472114395e+00 7.9002251375037292e-03
    -1.1281521496355327e+00 7.8438345156274254e-03
    -9.8675438206593014e-01 7.9636817804982704e-03
    -8.3937205966451778e-01 7.8606247621301282e-03
    -1.0690449676496974e+00 7.8494193041709383e-03
    -1.0408329997330663e+00 7.8438345156274254e-03
    -9.8675438206593014e-01 7.8775232941997089e-03
    -1.0981267472114395e+00 7.8438345156274254e-03
    -9.8675438206593014e-01 7.9002251375037292e-03
    -1.1281521496355327e+00 7.8494193041709383e-03
    -1.0408329997330663e+00 7.8606247621301282e-03
    -1.0690449676496974e+00 7.8775232941997089e-03
    -9.1064169280948626e-01 7.8494193041709383e-03
    -9.6076892283052284e-01 7.9002251375037292e-03
    -1.1281521496355327e+00 8.3189033080770299e-03
    -1.4142135623730951e+00 8.4067933893386699e-03
    -1.4577379737113254e+00 7.9002251375037292e-03
    -1.1281521496355327e+00 7.8775232941997089e-03
    -9.1064169280948626e-01 7.8438345156274254e-03
    -1.0134234194190632e+00 7.8494193041709383e-03
    -9.6076892283052284e-01 8.6133443037856288e-03
    -6.4427815392316501e-01 8.8679807228754012e-03
    -6.0302268915552726e-01 1.3480860250414872e-02
    -3.2084447395987398e-01 1.4455093740676191e-02
    -2.9488391230979427e-01 1.2703947435020001e-02
    -3.4554737023254400e-01 1.0064498688664042e-02
    -4.7907013758040845e-01 1.0064498688664042e-02
    -4.7907013758040845e-01 9.3666140485070895e-03
    -5.4139029200370969e-01 8.5046313524447092e-03
    -6.6506217176117632e-01 8.1699346405228763e-03
    -7.5000000000000000e-01 8.1076153885289888e-03
    -7.7184498498795973e-01 7.9288803826057658e-03
    -8.6266218562750729e-01 7.8606247621301282e-03
    -9.3541434669348522e-01 7.8606247621301282e-03
    -9.3541434669348522e-01 7.8775232941997089e-03
    -1.0981267472114395e+00 7.9636817804982704e-03
    -1.1913667943625412e+00 7.9288803826057640e-03
    -1.1592023119369625e+00 7.9002251375037292e-03
    -1.1281521496355327e+00 7.9002251375037292e-03
    -1.1281521496355327e+00 7.8494193041709383e-03
    -1.0408329997330663e+00 7.9002251375037292e-03
    -1.1281521496355327e+00 7.9636817804982704e-03
    -1.1913667943625412e+00 7.9636817804982704e-03
    -1.1913667943625412e+00 7.8775232941997089e-03
    -1.0981267472114395e+00 7.8494193041709383e-03
    -9.6076892283052284e-01 7.8606247621301282e-03
    -1.0690449676496974e+00 7.8606247621301282e-03
    -1.0690449676496974e+00 7.8775232941997089e-03
    -1.0981267472114395e+00 7.9288803826057640e-03
    -1.1592023119369625e+00 8.0048684404679018e-03
    -1.2247448713915889e+00 7.8606247621301282e-03
    -1.0690449676496974e+00 7.9002251375037292e-03
    -1.1281521496355327e+00 7.8438345156274254e-03
    -9.8675438206593014e-01 8.0527305616675537e-03
    -1.2594470598448055e+00 8.5046313524447109e-03
    -1.5036188231122249e+00 7.9002251375037292e-03
    -1.1281521496355327e+00 7.8775232941997089e-03
    -1.0981267472114395e+00 7.8438345156274254e-03
    -9.8675438206593014e-01 7.8494193041709383e-03
    -9.6076892283052284e-01 7.9288803826057658e-03
    -8.6266218562750729e-01 8.3189033080770299e-03
    -7.0710678118654757e-01 8.7340275134779218e-03
    -6.2360956446232363e-01 1.4455093740676191e-02
    -2.9488391230979427e-01 1.5721249524260256e-02
    -2.6726124191242434e-01 1.4455093740676191e-02
    -2.9488391230979427e-01 1.2067793233267914e-02
    -3.6927447293799820e-01 1.0696955403725117e-02
    -4.3643578047198472e-01 1.0359852259946277e-02
    -4.5790546988962549e-01 9.3666140485070895e-03
    -5.4139029200370969e-01 8.5046313524447092e-03
    -6.6506217176117632e-01 8.1699346405228763e-03
    -7.5000000000000000e-01 8.1076153885289888e-03
    -7.7184498498795973e-01 7.9636817804982704e-03
    -8.3937205966451778e-01 7.8494193041709383e-03
    -9.6076892283052284e-01 7.8494193041709383e-03
    -1.0408329997330663e+00 8.1699346405228763e-03
    -1.3333333333333333e+00 8.1699346405228763e-03
    -1.3333333333333333e+00 7.8438345156274254e-03
    -1.0134234194190632e+00 7.8775232941997089e-03
    -1.0981267472114395e+00 7.8438345156274254e-03
    -9.8675438206593014e-01 7.8438345156274254e-03
    -9.8675438206593014e-01 7.8606247621301282e-03
    -1.0690449676496974e+00 7.9288803826057640e-03
    -1.1592023119369625e+00 7.8438345156274254e-03
    -1.0134234194190632e+00 7.9288803826057640e-03
    -1.1592023119369625e+00 7.9002251375037292e-03
    -1.1281521496355327e+00 7.8494193041709383e-03
    -1.0408329997330663e+00 7.8438345156274254e-03
    -9.8675438206593014e-01 7.8494193041709383e-03
    -1.0408329997330663e+00 7.8494193041709383e-03
    -1.0408329997330663e+00 7.8606247621301282e-03
    -1.0690449676496974e+00 7.8775232941997089e-03
    -1.0981267472114395e+00 7.8494193041709383e-03
    -9.6076892283052284e-01 8.1076153885289905e-03
    -1.2955969390869329e+00 7.9288803826057640e-03
    -1.1592023119369625e+00 7.9002251375037292e-03
    -1.1281521496355327e+00 7.8438345156274254e-03
    -9.8675438206593014e-01 7.8775232941997089e-03
    -9.1064169280948626e-01 7.9636817804982704e-03
    -8.3937205966451778e-01 7.9288803826057658e-03
    -8.6266218562750729e-01 8.3189033080770299e-03
    -7.0710678118654757e-01 1.0696955403725117e-02
    -4.3643578047198472e-01 1.4455093740676191e-02
    -2.9488391230979427e-01 1.7452671444027255e-02
    -2.3735633163877068e-01 1.7452671444027255e-02
    -2.3735633163877068e-01 1.4455093740676191e-02
    -2.9488391230979427e-01 1.1084975903594252e-02
    -4.1457809879442503e-01 1.1084975903594252e-02
    -4.1457809879442503e-01 1.0696955403725117e-02
    -4.3643578047198472e-01 1.0696955403725117e-02
    -4.3643578047198472e-01 8.7340275134779218e-03
    -6.2360956446232363e-01 8.6133443037856288e-03
    -6.4427815392316501e-01 7.9002251375037275e-03
    -8.8640526042791823e-01 7.8438345156274254e-03
    -1.0134234194190632e+00 8.0048684404679018e-03
    -8.1649658092772603e-01 7.9002251375037292e-03
    -1.1281521496355327e+00 8.1699346405228763e-03
    -1.3333333333333333e+00 8.3189033080770299e-03
    -1.4142135623730951e+00 8.2401737453018497e-03
    -1.3728129459672882e+00 7.9002251375037292e-03
    -1.1281521496355327e+00 7.8775232941997089e-03
    -1.0981267472114395e+00 7.8438345156274254e-03
    -9.8675438206593014e-01 7.8438345156274254e-03
    -1.0134234194190632e+00 7.8438345156274254e-03
    -9.8675438206593014e-01 7.8775232941997089e-03
    -1.0981267472114395e+00 7.8606247621301282e-03
    -1.0690449676496974e+00 7.8438345156274254e-03
    -1.0134234194190632e+00 7.8606247621301282e-03
    -9.3541434669348522e-01 7.8494193041709383e-03
    -1.0408329997330663e+00 7.8494193041709383e-03
    -1.0408329997330663e+00 7.8606247621301282e-03
    -9.3541434669348522e-01 7.8494193041709383e-03
    -1.0408329997330663e+00 8.0048684404679018e-03
    -8.1649658092772603e-01 8.5046313524447109e-03
    -1.5036188231122249e+00 7.8775232941997089e-03
    -1.0981267472114395e+00 7.8438345156274254e-03
    -1.0134234194190632e+00 7.8438345156274254e-03
    -1.0134234194190632e+00 7.8775232941997089e-03
    -9.1064169280948626e-01 8.0048684404679018e-03
    -8.1649658092772603e-01 8.2401737453018497e-03
    -7.2843135908468359e-01 8.8679807228754012e-03
    -6.0302268915552726e-01 1.2067793233267914e-02
    -3.6927447293799820e-01 1.7452671444027255e-02
    -2.3735633163877068e-01 1.7452671444027255e-02
    -2.3735633163877068e-01 1.7452671444027255e-02
    -2.3735633163877068e-01 1.4455093740676191e-02
    -2.9488391230979427e-01 1.2703947435020001e-02
    -3.4554737023254400e-01 1.1084975903594252e-02
    -4.1457809879442503e-01 1.2703947435020001e-02
    -3.4554737023254400e-01 1.1536243243422589e-02
    -3.9223227027636803e-01 1.0064498688664042e-02
    -4.7907013758040845e-01 8.7340275134779218e-03
    -6.2360956446232363e-01 8.3189033080770299e-03
    -7.0710678118654757e-01 8.1076153885289888e-03
    -7.7184498498795973e-01 8.1076153885289888e-03
    -7.7184498498795973e-01 7.8494193041709383e-03
    -9.6076892283052284e-01 7.8438345156274254e-03
    -1.0134234194190632e+00 7.9002251375037292e-03
    -1.1281521496355327e+00 8.0527305616675537e-03
    -1.2594470598448055e+00 8.1699346405228763e-03
    -1.3333333333333333e+00 8.1076153885289905e-03
    -1.2955969390869329e+00 7.9002251375037292e-03
    -1.1281521496355327e+00 8.0048684404679018e-03
    -1.2247448713915889e+00 8.0048684404679018e-03
    -1.2247448713915889e+00 8.0048684404679018e-03
    -1.2247448713915889e+00 7.8606247621301282e-03
    -1.0690449676496974e+00 7.8606247621301282e-03
    -1.0690449676496974e+00 7.9288803826057658e-03
    -8.6266218562750729e-01 7.9288803826057658e-03
    -8.6266218562750729e-01 7.9002251375037275e-03
    -8.8640526042791823e-01 7.8494193041709383e-03
    -1.0408329997330663e+00 8.0048684404679018e-03
    -1.2247448713915889e+00 7.9002251375037292e-03
    -1.1281521496355327e+00 8.2401737453018497e-03
    -1.3728129459672882e+00 7.8438345156274254e-03
    -9.8675438206593014e-01 7.8606247621301282e-03
    -9.3541434669348522e-01 7.9288803826057658e-03
    -8.6266218562750729e-01 7.8606247621301282e-03
    -9.3541434669348522e-01 7.9002251375037275e-03
    -8.8640526042791823e-01 8.7340275134779218e-03
    -6.2360956446232363e-01 9.3666140485070895e-03
    -5.4139029200370969e-01 1.5721249524260256e-02
    -2.6726124191242434e-01 1.5721249524260256e-02
    -2.6726124191242434e-01 2.0012171101169755e-02
    -2.0412414523193148e-01 1.7452671444027255e-02
    -2.3735633163877068e-01 1.4455093740676191e-02
    -2.9488391230979427e-01 1.2067793233267914e-02
    -3.6927447293799820e-01 1.2067793233267914e-02
    -3.6927447293799820e-01 1.1084975903594252e-02
    -4.1457809879442503e-01 1.0064498688664042e-02
    -4.7907013758040845e-01 9.8039215686274508e-03
    -5.0000000000000000e-01 9.1822138390362153e-03
    -5.6195148694901642e-01 8.5046313524447092e-03
    -6.6506217176117632e-01 8.4067933893386682e-03
    -6.8599434057003528e-01 8.1699346405228763e-03
    -7.5000000000000000e-01 8.0048684404679018e-03
    -8.1649658092772603e-01 7.8494193041709383e-03
    -1.0408329997330663e+00 7.8606247621301282e-03
    -1.0690449676496974e+00 7.8438345156274254e-03
    -1.0134234194190632e+00 7.8606247621301282e-03
    -1.0690449676496974e+00 7.8606247621301282e-03
    -1.0690449676496974e+00 7.8775232941997089e-03
    -1.0981267472114395e+00 7.8775232941997089e-03
    -1.0981267472114395e+00 7.9636817804982704e-03
    -1.1913667943625412e+00 7.9002251375037292e-03
    -1.1281521496355327e+00 7.8606247621301282e-03
    -9.3541434669348522e-01 7.8438345156274254e-03
    -9.8675438206593014e-01 8.0048684404679018e-03
    -8.1649658092772603e-01 7.9288803826057658e-03
    -8.6266218562750729e-01 8.1699346405228763e-03
    -7.5000000000000000e-01 7.9636817804982704e-03
    -1.1913667943625412e+00 7.9288803826057640e-03
    -1.1592023119369625e+00 7.9002251375037292e-03
    -1.1281521496355327e+00 7.8606247621301282e-03
    -1.0690449676496974e+00 7.8438345156274254e-03
    -9.8675438206593014e-01 7.9288803826057658e-03
    -8.6266218562750729e-01 7.8775232941997089e-03
    -9.1064169280948626e-01 7.8606247621301282e-03
    -9.3541434669348522e-01 8.5046313524447092e-03
    -6.6506217176117632e-01 8.7340275134779218e-03
    -6.2360956446232363e-01 1.0064498688664042e-02
    -4.7907013758040845e-01 1.3480860250414872e-02
    -3.2084447395987398e-01 1.5721249524260256e-02
    -2.6726124191242434e-01 1.7452671444027255e-02
    -2.3735633163877068e-01 1.7452671444027255e-02
    -2.3735633163877068e-01 1.2703947435020001e-02
    -3.4554737023254400e-01 1.2067793233267914e-02
    -3.6927447293799820e-01 1.2067793233267914e-02
    -3.6927447293799820e-01 1.1536243243422589e-02
    -3.9223227027636803e-01 1.0359852259946277e-02
    -4.5790546988962549e-01 9.5727140427076373e-03
    -5.2075564392329543e-01 9.1822138390362153e-03
    -5.6195148694901642e-01 9.1822138390362153e-03
    -5.6195148694901642e-01 8.3189033080770299e-03
    -7.0710678118654757e-01 8.2401737453018497e-03
    -7.2843135908468359e-01 7.8775232941997089e-03
    -9.1064169280948626e-01 7.8494193041709383e-03
    -9.6076892283052284e-01 7.8606247621301282e-03
    -9.3541434669348522e-01 7.9002251375037275e-03
    -8.8640526042791823e-01 7.8775232941997089e-03
    -1.0981267472114395e+00 7.8606247621301282e-03
    -1.0690449676496974e+00 7.8438345156274254e-03
    -1.0134234194190632e+00 7.8775232941997089e-03
    -1.0981267472114395e+00 7.9636817804982704e-03
    -1.1913667943625412e+00 7.9636817804982704e-03
    -1.1913667943625412e+00 7.8775232941997089e-03
    -1.0981267472114395e+00 7.8494193041709383e-03
    -9.6076892283052284e-01 7.8606247621301282e-03
    -9.3541434669348522e-01 7.9288803826057640e-03
    -1.1592023119369625e+00 7.9288803826057640e-03
    -1.1592023119369625e+00 8.1699346405228763e-03
    -1.3333333333333333e+00 7.9002251375037292e-03
    -1.1281521496355327e+00 7.8606247621301282e-03
    -1.0690449676496974e+00 7.9288803826057658e-03
    -8.6266218562750729e-01 7.8494193041709383e-03
    -9.6076892283052284e-01 7.8606247621301282e-03
    -9.3541434669348522e-01 7.8606247621301282e-03
    -9.3541434669348522e-01 8.3189033080770299e-03
    -7.0710678118654757e-01 8.8679807228754012e-03
    -6.0302268915552726e-01 8.8679807228754012e-03
    -6.0302268915552726e-01 1.0359852259946277e-02
    -4.5790546988962549e-01 1.3480860250414872e-02
    -3.2084447395987398e-01 1.7452671444027255e-02
    -2.3735633163877068e-01 2.0012171101169755e-02
    -2.0412414523193148e-01 1.7452671444027255e-02
    -2.3735633163877068e-01 1.1536243243422589e-02
    -3.9223227027636803e-01 1.1084975903594252e-02
    -4.1457809879442503e-01 1.0696955403725117e-02
    -4.3643578047198472e-01 1.0696955403725117e-02
    -4.3643578047198472e-01 1.1084975903594252e-02
    -4.1457809879442503e-01 1.0064498688664042e-02
    -4.7907013758040845e-01 1.0064498688664042e-02
    -4.7907013758040845e-01 9.5727140427076373e-03
    -5.2075564392329543e-01 9.3666140485070895e-03
    -5.4139029200370969e-01 8.1076153885289888e-03
    -7.7184498498795973e-01 8.4067933893386682e-03
    -6.8599434057003528e-01 8.3189033080770299e-03
    -7.0710678118654757e-01 8.1076153885289888e-03
    -7.7184498498795973e-01 7.8438345156274254e-03
    -9.8675438206593014e-01 7.8438345156274254e-03
    -9.8675438206593014e-01 8.0527305616675537e-03
    -1.2594470598448055e+00 7.9288803826057640e-03
    -1.1592023119369625e+00 8.0527305616675537e-03
    -1.2594470598448055e+00 7.8494193041709383e-03
    -1.0408329997330663e+00 7.8438345156274254e-03
    -9.8675438206593014e-01 7.9288803826057640e-03
    -1.1592023119369625e+00 7.9288803826057640e-03
    -1.1592023119369625e+00 7.8438345156274254e-03
    -9.8675438206593014e-01 7.8775232941997089e-03
    -1.0981267472114395e+00 7.8606247621301282e-03
    -1.0690449676496974e+00 7.9288803826057640e-03
    -1.1592023119369625e+00 7.9002251375037292e-03
    -1.1281521496355327e+00 7.9002251375037292e-03
    -1.1281521496355327e+00 7.9636817804982704e-03
    -8.3937205966451778e-01 7.9002251375037275e-03
    -8.8640526042791823e-01 7.8606247621301282e-03
    -9.3541434669348522e-01 8.0527305616675520e-03
    -7.9399923338042055e-01 8.4067933893386682e-03
    -6.8599434057003528e-01 8.7340275134779218e-03
    -6.2360956446232363e-01 9.0167549924259679e-03
    -5.8248237251071744e-01 1.1536243243422589e-02
    -3.9223227027636803e-01 1.4455093740676191e-02
    -2.9488391230979427e-01 1.4455093740676191e-02
    -2.9488391230979427e-01 2.4341349664775531e-02
    -1.6552117772047362e-01 1.5721249524260256e-02
    -2.6726124191242434e-01 1.2703947435020001e-02
    -3.4554737023254400e-01 1.1536243243422589e-02
    -3.9223227027636803e-01 1.0359852259946277e-02
    -4.5790546988962549e-01 1.0359852259946277e-02
    -4.5790546988962549e-01 1.0064498688664042e-02
    -4.7907013758040845e-01 1.0359852259946277e-02
    -4.5790546988962549e-01 9.8039215686274508e-03
    -5.0000000000000000e-01 1.0064498688664042e-02
    -4.7907013758040845e-01 1.0064498688664042e-02
    -4.7907013758040845e-01 8.8679807228754012e-03
    -6.0302268915552726e-01 8.0527305616675520e-03
    -7.9399923338042055e-01 8.1699346405228763e-03
    -7.5000000000000000e-01 7.9288803826057658e-03
    -8.6266218562750729e-01 7.8775232941997089e-03
    -9.1064169280948626e-01 7.8775232941997089e-03
    -9.1064169280948626e-01 7.8606247621301282e-03
    -9.3541434669348522e-01 8.1076153885289905e-03
    -1.2955969390869329e+00 7.9636817804982704e-03
    -1.1913667943625412e+00 7.8606247621301282e-03
    -1.0690449676496974e+00 7.8494193041709383e-03
    -1.0408329997330663e+00 7.9002251375037275e-03
    -8.8640526042791823e-01 7.8438345156274254e-03
    -1.0134234194190632e+00 8.1076153885289905e-03
    -1.2955969390869329e+00 8.0048684404679018e-03
    -1.2247448713915889e+00 7.9288803826057640e-03
    -1.1592023119369625e+00 7.8606247621301282e-03
    -9.3541434669348522e-01 8.0048684404679018e-03
    -8.1649658092772603e-01 7.9288803826057658e-03
    -8.6266218562750729e-01 7.9288803826057658e-03
    -8.6266218562750729e-01 8.2401737453018497e-03
    -7.2843135908468359e-01 8.2401737453018497e-03
    -7.2843135908468359e-01 8.1699346405228763e-03
    -7.5000000000000000e-01 8.7340275134779218e-03
    -6.2360956446232363e-01 9.0167549924259679e-03
    -5.8248237251071744e-01 1.0696955403725117e-02
    -4.3643578047198472e-01 1.1084975903594252e-02
    -4.1457809879442503e-01 1.4455093740676191e-02
    -2.9488391230979427e-01 1.5721249524260256e-02
    -2.6726124191242434e-01 1.7452671444027255e-02
    -2.3735633163877068e-01 1.4455093740676191e-02
    -2.9488391230979427e-01 1.3480860250414872e-02
    -3.2084447395987398e-01 1.1084975903594252e-02
    -4.1457809879442503e-01 1.1084975903594252e-02
    -4.1457809879442503e-01 1.1084975903594252e-02
    -4.1457809879442503e-01 1.1536243243422589e-02
    -3.9223227027636803e-01 1.1084975903594252e-02
    -4.1457809879442503e-01 1.1084975903594252e-02
    -4.1457809879442503e-01 1.0359852259946277e-02
    -4.5790546988962549e-01 1.1084975903594252e-02
    -4.1457809879442503e-01 1.0359852259946277e-02
    -4.5790546988962549e-01 9.8039215686274508e-03
    -5.0000000000000000e-01 8.4067933893386682e-03
    -6.8599434057003528e-01 8.0527305616675520e-03
    -7.9399923338042055e-01 7.9002251375037275e-03
    -8.8640526042791823e-01 7.9636817804982704e-03
    -8.3937205966451778e-01 7.9288803826057658e-03
    -8.6266218562750729e-01 7.8438345156274254e-03
    -9.8675438206593014e-01 7.8775232941997089e-03
    -1.0981267472114395e+00 7.8438345156274254e-03
    -1.0134234194190632e+00 7.8494193041709383e-03
    -9.6076892283052284e-01 7.9002251375037275e-03
    -8.8640526042791823e-01 7.9636817804982704e-03
    -1.1913667943625412e+00 7.9002251375037292e-03
    -1.1281521496355327e+00 8.0048684404679018e-03
    -1.2247448713915889e+00 7.9288803826057658e-03
    -8.6266218562750729e-01 7.8494193041709383e-03
    -9.6076892283052284e-01 7.9002251375037275e-03
    -8.8640526042791823e-01 7.9288803826057658e-03
    -8.6266218562750729e-01 8.2401737453018497e-03
    -7.2843135908468359e-01 8.2401737453018497e-03
    -7.2843135908468359e-01 9.1822138390362153e-03
    -5.6195148694901642e-01 9.0167549924259679e-03
    -5.8248237251071744e-01 9.1822138390362153e-03
    -5.6195148694901642e-01 1.0359852259946277e-02
    -4.5790546988962549e-01 1.2067793233267914e-02
    -3.6927447293799820e-01 1.2067793233267914e-02
    -3.6927447293799820e-01 1.4455093740676191e-02
    -2.9488391230979427e-01 2.4341349664775531e-02
    -1.6552117772047362e-01 2.0012171101169755e-02
    -2.0412414523193148e-01 1.5721249524260256e-02
    -2.6726124191242434e-01 1.4455093740676191e-02
    -2.9488391230979427e-01 1.2067793233267914e-02
    -3.6927447293799820e-01 1.1536243243422589e-02
    -3.9223227027636803e-01 1.2067793233267914e-02
    -3.6927447293799820e-01 1.2703947435020001e-02
    -3.4554737023254400e-01 1.2067793233267914e-02
    -3.6927447293799820e-01 1.2703947435020001e-02
    -3.4554737023254400e-01 1.4455093740676191e-02
    -2.9488391230979427e-01 1.2067793233267914e-02
    -3.6927447293799820e-01 1.1536243243422589e-02
    -3.9223227027636803e-01 1.0696955403725117e-02
    -4.3643578047198472e-01 9.8039215686274508e-03
    -5.0000000000000000e-01 9.3666140485070895e-03
    -5.4139029200370969e-01 8.5046313524447092e-03
    -6.6506217176117632e-01 8.4067933893386682e-03
    -6.8599434057003528e-01 8.1076153885289888e-03
    -7.7184498498795973e-01 8.0048684404679018e-03
    -8.1649658092772603e-01 7.8438345156274254e-03
    -9.8675438206593014e-01 7.8438345156274254e-03
    -1.0134234194190632e+00 7.8606247621301282e-03
    -1.0690449676496974e+00 7.8438345156274254e-03
    -9.8675438206593014e-01 7.9288803826057640e-03
    -1.1592023119369625e+00 7.9288803826057640e-03
    -1.1592023119369625e+00 7.8438345156274254e-03
    -1.0134234194190632e+00 7.8606247621301282e-03
    -9.3541434669348522e-01 7.8606247621301282e-03
    -9.3541434669348522e-01 8.0527305616675520e-03
    -7.9399923338042055e-01 8.1699346405228763e-03
    -7.5000000000000000e-01 8.5046313524447092e-03
    -6.6506217176117632e-01 8.6133443037856288e-03
    -6.4427815392316501e-01 9.5727140427076373e-03
    -5.2075564392329543e-01 9.8039215686274508e-03
    -5.0000000000000000e-01 1.2067793233267914e-02
    -3.6927447293799820e-01 1.4455093740676191e-02
    -2.9488391230979427e-01 1.3480860250414872e-02
    -3.2084447395987398e-01 1.3480860250414872e-02
    -3.2084447395987398e-01 1.5721249524260256e-02
    -2.6726124191242434e-01 1.7452671444027255e-02
    -2.3735633163877068e-01 1. 0. 2.0012171101169755e-02
    -2.0412414523193148e-01 1.7452671444027255e-02
    -2.3735633163877068e-01 1.5721249524260256e-02
    -2.6726124191242434e-01 1.5721249524260256e-02
    -2.6726124191242434e-01 1.5721249524260256e-02
    -2.6726124191242434e-01 1.5721249524260256e-02
    -2.6726124191242434e-01 1.5721249524260256e-02
    -2.6726124191242434e-01 1.5721249524260256e-02
    -2.6726124191242434e-01 1.4455093740676191e-02
    -2.9488391230979427e-01 1.5721249524260256e-02
    -2.6726124191242434e-01 1.4455093740676191e-02
    -2.9488391230979427e-01 1.2703947435020001e-02
    -3.4554737023254400e-01 1.1536243243422589e-02
    -3.9223227027636803e-01 1.1084975903594252e-02
    -4.1457809879442503e-01 1.0696955403725117e-02
    -4.3643578047198472e-01 9.0167549924259679e-03
    -5.8248237251071744e-01 8.3189033080770299e-03
    -7.0710678118654757e-01 7.9002251375037275e-03
    -8.8640526042791823e-01 8.1699346405228763e-03
    -7.5000000000000000e-01 8.3189033080770299e-03
    -7.0710678118654757e-01 7.8775232941997089e-03
    -9.1064169280948626e-01 8.1076153885289888e-03
    -7.7184498498795973e-01 7.8438345156274254e-03
    -9.8675438206593014e-01 8.3189033080770299e-03
    -7.0710678118654757e-01 7.8606247621301282e-03
    -9.3541434669348522e-01 8.1699346405228763e-03
    -7.5000000000000000e-01 8.0527305616675520e-03
    -7.9399923338042055e-01 8.2401737453018497e-03
    -7.2843135908468359e-01 8.4067933893386682e-03
    -6.8599434057003528e-01 8.6133443037856288e-03
    -6.4427815392316501e-01 1.0064498688664042e-02
    -4.7907013758040845e-01 1.1084975903594252e-02
    -4.1457809879442503e-01 1.5721249524260256e-02
    -2.6726124191242434e-01 1.5721249524260256e-02
    -2.6726124191242434e-01 1.5721249524260256e-02
    -2.6726124191242434e-01 1.7452671444027255e-02
    -2.3735633163877068e-01 1.7452671444027255e-02
    -2.3735633163877068e-01 1.7452671444027255e-02
    -2.3735633163877068e-01 1.7452671444027255e-02
    -2.3735633163877068e-01 3.4190481983476254e-02
    -1.1624763874381926e-01 1.7452671444027255e-02
    -2.3735633163877068e-01 1.7452671444027255e-02
    -2.3735633163877068e-01 1.7452671444027255e-02
    -2.3735633163877068e-01 2.0012171101169755e-02
    -2.0412414523193148e-01 2.4341349664775531e-02
    -1.6552117772047362e-01 2.0012171101169755e-02
    -2.0412414523193148e-01 2.0012171101169755e-02
    -2.0412414523193148e-01 2.0012171101169755e-02
    -2.0412414523193148e-01 1.5721249524260256e-02
    -2.6726124191242434e-01 1.7452671444027255e-02
    -2.3735633163877068e-01 1.7452671444027255e-02
    -2.3735633163877068e-01 1.5721249524260256e-02
    -2.6726124191242434e-01 1.7452671444027255e-02
    -2.3735633163877068e-01 1.7452671444027255e-02
    -2.3735633163877068e-01 1.4455093740676191e-02
    -2.9488391230979427e-01 9.8039215686274508e-03
    -5.0000000000000000e-01 1.0359852259946277e-02
    -4.5790546988962549e-01 1.0064498688664042e-02
    -4.7907013758040845e-01 1.0064498688664042e-02
    -4.7907013758040845e-01 8.4067933893386682e-03
    -6.8599434057003528e-01 8.6133443037856288e-03
    -6.4427815392316501e-01 1.1084975903594252e-02
    -4.1457809879442503e-01 9.3666140485070895e-03
    -5.4139029200370969e-01 8.1076153885289888e-03
    -7.7184498498795973e-01 8.5046313524447092e-03
    -6.6506217176117632e-01 8.3189033080770299e-03
    -7.0710678118654757e-01 8.3189033080770299e-03
    -7.0710678118654757e-01 8.4067933893386682e-03
    -6.8599434057003528e-01 8.7340275134779218e-03
    -6.2360956446232363e-01 9.5727140427076373e-03
    -5.2075564392329543e-01 1.2703947435020001e-02
    -3.4554737023254400e-01 1.5721249524260256e-02
    -2.6726124191242434e-01 1.5721249524260256e-02
    -2.6726124191242434e-01 1.5721249524260256e-02
    -2.6726124191242434e-01 1.7452671444027255e-02
    -2.3735633163877068e-01 2.0012171101169755e-02
    -2.0412414523193148e-01 2.0012171101169755e-02
    -2.0412414523193148e-01 2.0012171101169755e-02
    -2.0412414523193148e-01 1.7452671444027255e-02
    -2.3735633163877068e-01</input_scale>
  <output_scale>
    1.0526315789473684e+00 0.</output_scale>
  <inv_output_scale>
    9.4999999999999996e-01 0.</inv_output_scale>
  <weights>
    <_>
      -1.1719048386403424e-03 -2.2903224389177911e-04
      -9.9637750405231888e-04 -5.5088375721748159e-04
      2.2039270841974236e-04 1.2144499427915077e-03
      9.9728247011042037e-04 2.0453599492093418e-04
      -7.2831549546728146e-04 -4.2920232853557353e-04
      -1.1054717958401724e-03 -1.2409612586460942e-04
      -2.1397120762249158e-05 -7.8018402384446585e-04
      6.7194088742161514e-04 -1.1208781013474275e-03
      1.1037170489498088e-03 1.0083693640301039e-03
      -2.5698247005999147e-04 -3.4383640164285737e-05
      3.0002183913935715e-04 -7.7645728251324352e-04
      -6.5397802009701264e-04 9.5527311481024093e-04
      -1.0954164450422850e-03 -3.1663012947851025e-04
      6.1523554708813478e-04 -6.3403300196013517e-04
      1.0630743572223426e-03 -2.4215284090006096e-04
      1.2150750992007805e-03 -3.7732545206526025e-04
      2.2581237915161135e-04 8.1166924113520002e-04
      1.1322676431532379e-03 5.1786688077618958e-04
      8.1904968067006900e-04 5.2277548999592920e-04
      1.2256443938238879e-03 -1.5902424652943092e-04
      -1.2834625958661308e+00 -1.7165819230526323e-02
      -1.9504219158542040e-02 -3.2065551516332592e-02
      1.7230671082071346e-02 -5.7776656995778233e-02
      4.1519355976120546e-02 1.5134615089724567e-02
      4.2014048476651716e-02 -1.9622856446714586e-02
      -5.0265703489344234e-02 -1.4150121115222826e-02
      -4.3798304886134565e-02 3.5187529722528863e-03
      3.3404532490453241e-02 -4.9217165088914036e-02
      4.5670379096129247e-02 -2.5361770067118157e-03
      1.7976428278698688e-02 -1.8113991526534572e-02
      1.1179002032535058e-02 -5.2328347612738600e-02
      -4.3183077532948352e-02 -1.7621661662571137e-02
      -5.1616606176814496e-02 4.6808370780987645e-02
      -1.7623118872600745e-02 1.7199227206449171e-02
      -4.4329640663337097e-02 -5.3530201550593820e-02
      1.9750083751058221e-02 1.8206337800806455e-02
      -2.0559468159252092e-02 -2.8067894251104574e-02
      -2.4316607384174019e-03 -5.0018600244789345e-02
      -1.7778836289909922e-02 -1.4884753567696399e-02
      1.7909032731644597e-02 1.7634979672351964e-02
      1.8574798168389092e-01 1.9239136666069367e-02
      3.0966670686422868e-02 1.1921178400613288e-02
      -2.7989670606746900e-02 2.2066016435243866e-02
      -1.6329831096352217e-02 -2.6071249262129125e-02
      -8.9994212248926762e-03 5.8618519381896275e-04
      1.9318644377359692e-02 2.3914637949997705e-02
      1.7305024908521868e-02 -2.1404944843792462e-02
      -5.6418901247462074e-03 1.8862295388019860e-02
      -8.8172989989829045e-03 2.8622213050713052e-02
      -6.8211233500776979e-03 -2.0688131114477925e-03
      -2.4556283045132934e-02 1.6756910188679579e-02
      8.1923557119685225e-03 3.1691875722604887e-02
      2.0326468803989244e-02 -9.8268875681495459e-03
      1.7245341989851011e-02 -9.6381257333922488e-03
      1.8844941795347764e-02 2.1354936219187267e-02
      -2.5222817061342991e-02 -2.0493850087009054e-02
      -5.1174760704362499e-03 1.1384991479063437e-02
      2.4417898264040973e-02 1.4466860048428429e-02
      2.9203840817252403e-02 1.4245255848072453e-02
      -2.3083699659225135e-02 -2.9129739785632269e-02
      -1.2329490408102479e-01 2.0439639839244499e-02
      1.2230146410789816e-02 1.0115884387211418e-03
      -9.5706836888991235e-03 -2.5893479156184306e-03
      9.0948212237280913e-04 -1.0244464235108653e-02
      6.1381503086316682e-03 2.5166753934578377e-02
      -7.5388794340433806e-05 9.5171746962222567e-03
      3.7430788843178852e-04 -1.0160774091771631e-02
      4.3913576587539119e-03 -2.0471740821385501e-04
      6.9951337546284575e-03 1.5418871849533009e-02
      -2.7232921886494958e-02 2.4648519526643944e-02
      -1.0845435422682964e-02 -4.3057487496578973e-03
      -5.0759572767133066e-03 1.1676046191867129e-02
      3.7729310284363547e-04 5.8750118855328340e-03
      2.1242502381116028e-02 -2.3274036969984906e-02
      1.6414181215012099e-03 -7.8022414059439275e-05
      -1.2646194847288255e-02 -1.9578755416208297e-02
      2.8037829785625048e-02 6.1696847165581094e-04
      1.2391313600100172e-02 -4.4654049200519332e-03
      1.2363417942613733e-02 3.9865511307005603e-03
      -1.4898550203400278e-02 -1.1316975474545138e-02
      -7.1621354691248668e-02 9.9198878989517590e-03
      3.8482018291788080e-02 8.6228459593715168e-03
      -3.3895456424930519e-02 -1.3851400790206690e-04
      -5.1425038413083152e-03 -2.9573361908909683e-02
      6.3311719621040163e-03 -2.2698558748355073e-03
      4.0620641800629288e-03 2.8569278701182654e-02
      6.1159926712333256e-03 -2.8155546755078673e-02
      5.3792162346051530e-03 2.0111237422683163e-03
      8.8123410067818056e-03 3.8003853118040387e-02
      6.7999039734911954e-04 -2.5850130475122569e-03
      -3.3536739261627056e-02 -3.9081226467416645e-03
      -8.5214163449640681e-03 3.9876426550493012e-02
      3.4131025771637902e-03 6.8683592565930316e-03
      5.7777928076279267e-03 -3.6539927446486585e-04
      5.0306787561317599e-03 2.3291717801896140e-03
      -4.1744958314642540e-02 -1.2199031278151719e-02
      -3.2042013906410376e-03 1.0071713703238677e-02
      3.1122169325618468e-02 -3.5919776483504121e-03
      3.7898099645440685e-02 1.6793018424033287e-02
      -4.4060812336796935e-02 -3.4848438553930085e-02
      -7.1195590525281974e-02 8.5488952464987007e-03
      3.9332785361942353e-02 9.2527746131816496e-03
      -3.2751370206180463e-02 -1.4879150306946448e-03
      -5.6533319048734541e-03 -3.0030872487035936e-02
      6.4840371124262192e-03 -2.0556816228439489e-03
      2.8214398493740839e-03 2.8160999717334174e-02
      6.3098676820953310e-03 -2.8561744153979822e-02
      6.9787935061670714e-03 2.4694219627011014e-03
      8.1125975196429979e-03 3.6606259235700100e-02
      -1.2436271175973522e-03 -2.7368071358581754e-03
      -3.3527154983139157e-02 -2.5175381595935837e-03
      -7.0938451834015063e-03 3.9989270776570163e-02
      1.4227029633296353e-03 6.1730448206913984e-03
      7.3793653368583222e-03 -1.1217883987714881e-03
      5.5246154539966962e-03 2.6040066942203291e-03
      -4.2391941961656555e-02 -1.2297698296767117e-02
      -1.7271640179617926e-03 1.0970734463280859e-02
      3.2331910861569939e-02 -3.6858039172842968e-03
      3.8676992578618473e-02 1.6779811696023737e-02
      -4.3005161780608946e-02 -3.6274091108913838e-02
      -1.2251464899262378e-01 1.9010948377136228e-02
      1.2696572353931228e-02 1.7384343172255272e-03
      -1.1304976613953648e-02 -2.7490060072143992e-03
      -7.8425769514958233e-04 -1.0761289139042656e-02
      6.5810270903760145e-03 2.5970473576582592e-02
      -5.6814753326700506e-04 9.3919145069401039e-03
      -1.8549067458777872e-04 -9.2896635596719426e-03
      5.4974705074741790e-03 1.7359886327432552e-04
      5.2884379080843404e-03 1.3492573600200822e-02
      -2.6876206656278306e-02 2.6610752948556773e-02
      -1.1387908971387573e-02 -2.6990104757117538e-03
      -5.0857528350823468e-03 1.1427420737852072e-02
      -1.8852523832125008e-03 6.9387770295233145e-03
      2.1598472479290264e-02 -2.1298385339324700e-02
      -2.3238253174996467e-04 -1.6351072965367929e-04
      -1.2529672050358206e-02 -1.9980578671569878e-02
      2.7379545836370863e-02 5.6280373763744175e-04
      1.2728789062918616e-02 -3.4741955941338413e-03
      1.0933185427482844e-02 4.2269802799318780e-03
      -1.6491133718025824e-02 -1.0493779868154902e-02
      -1.2232109273158413e-01 1.8993405349375530e-02
      1.0467996821993637e-02 4.4723250372471774e-04
      -1.1186363853726266e-02 -1.1885570959720556e-03
      8.0512498300236012e-04 -9.4248544867077191e-03
      6.9825534604862722e-03 2.5707520261819262e-02
      9.2305270535037755e-04 1.0147863884515848e-02
      -1.1316085896593195e-03 -8.7613032812376024e-03
      5.6831275948508037e-03 -1.5893715632739757e-03
      5.0622748706243750e-03 1.4867271872502129e-02
      -2.7161459185732557e-02 2.6247854751910792e-02
      -1.0949815704722551e-02 -4.3350501805021445e-03
      -5.4422560667015110e-03 1.2523794147019103e-02
      -7.8462547586001204e-04 4.7187491192357545e-03
      2.0365581530648023e-02 -2.3094270857006643e-02
      1.0703482137642407e-03 -6.0438896440248525e-04
      -1.4265870626116381e-02 -2.1132889282637898e-02
      2.7670014343881198e-02 9.3422584727193036e-04
      1.2010630016068852e-02 -3.7995063720210756e-03
      1.2226180367834155e-02 3.0024640586926977e-03
      -1.4551527753896612e-02 -1.0077223668012015e-02
      -2.6741226337512947e-01 4.1138449343921463e-03
      -4.0536871352807166e-03 -7.0765251863400911e-03
      3.3986873687260931e-03 -9.2212218600939855e-03
      7.9299155699025913e-03 2.1551189384963910e-03
      1.1961837839432816e-02 6.0062804706063041e-03
      -1.0000613559015029e-02 -3.2205347771436564e-03
      -9.2722512986704551e-03 -3.8327311135283875e-03
      9.6186477462624157e-03 -1.0288320738107495e-02
      1.3039090718052546e-02 6.2856958858165512e-03
      -7.8293042300152885e-03 6.1965281465322097e-03
      -3.4900682453907288e-04 -1.1967359588743677e-02
      -1.1469802131158356e-02 -4.8161156850578873e-03
      -1.0130361163866522e-02 1.2701267768918847e-02
      4.9140408112261199e-03 -4.8293950888208051e-03
      -1.0283788776379303e-02 -8.3466414206905797e-03
      2.6353726715966706e-03 -3.4983094829271182e-03
      6.3809517736236306e-03 -7.6390361652178950e-03
      4.1713539165474057e-03 -1.1771626545076765e-02
      -2.9416253171271009e-03 -6.0182104138942179e-03
      -2.3501627151506407e-04 5.2417916371918999e-03
      -1.2235530026642606e-01 1.8664671209574647e-02
      1.2100759816028948e-02 3.4343294146015648e-04
      -1.0465747861421489e-02 -1.9642064883288886e-03
      -2.4662868372695779e-04 -1.0057024854643912e-02
      4.6175630334138957e-03 2.6087991138022692e-02
      -7.6728662301462589e-05 9.9292881105608483e-03
      -8.2596360552330693e-04 -8.9676376065254363e-03
      6.1510265707331738e-03 -1.6051787719612676e-03
      6.8053300432950794e-03 1.5829437080746828e-02
      -2.6371908222662201e-02 2.6523097069366241e-02
      -1.1312824383756141e-02 -3.4460444637416602e-03
      -7.2852406642474462e-03 1.1877741276713604e-02
      3.1117654949497261e-04 6.3409560132546734e-03
      2.1453901905022249e-02 -2.1793939149875843e-02
      -1.8591919743745887e-04 -3.3078767333122728e-04
      -1.3225115357838619e-02 -2.1234949313251161e-02
      2.6906669473270788e-02 1.4607662454396229e-03
      1.1878781396949627e-02 -5.8386273721375160e-03
      1.2066172970593149e-02 4.1113205889591635e-03
      -1.6643963619982688e-02 -1.0826013614520092e-02
      -2.6686680620641062e-01 3.1347611405470465e-03
      -3.7726514709176926e-03 -7.8585842989868180e-03
      5.4414201479853338e-03 -9.2778209489825288e-03
      7.8706140038628560e-03 2.3791590253788722e-03
      1.2893645309782589e-02 6.7345684894513352e-03
      -8.2317151640894110e-03 -4.4167216053021107e-03
      -8.2776505709667228e-03 -1.7993525890306165e-03
      9.8067310873690295e-03 -1.0420319192774932e-02
      1.2852980642432258e-02 5.7564584152238352e-03
      -7.8025246849617183e-03 5.4145400749445963e-03
      -1.4038216713898148e-03 -1.0228832621924496e-02
      -1.1552324085505963e-02 -3.2548235993917303e-03
      -9.8610859729732873e-03 1.3989234937096692e-02
      3.5926635001140442e-03 -4.9792507804135907e-03
      -9.5364787466279549e-03 -9.1642589639038315e-03
      3.0195160211068761e-03 -3.3721371744586445e-03
      6.3454924295638830e-03 -8.0764885929132148e-03
      3.8489250593733734e-03 -1.2773381318645010e-02
      -3.1289834597296104e-03 -4.5735330375071513e-03
      7.1681939974057188e-05 4.7762665654156392e-03
      -2.6829581365237809e-01 4.2052401865054047e-03
      -3.1533904774122012e-03 -8.1585592060119273e-03
      3.2939687542449091e-03 -1.0481955165376288e-02
      8.4153319432646451e-03 3.8912922525994797e-03
      1.2289603518868061e-02 5.3912125065510895e-03
      -8.8278341139189972e-03 -4.4945648956678302e-03
      -8.0934827923497404e-03 -3.8028649314175230e-03
      9.3979069730681774e-03 -8.6200435247366543e-03
      1.2439506837265654e-02 7.6747787164121069e-03
      -6.5609409207102306e-03 7.6141468883714238e-03
      -1.6557468912073770e-04 -1.0914303964597308e-02
      -1.3677954043373637e-02 -3.0027239314537645e-03
      -9.1519146607182342e-03 1.4123263924650416e-02
      4.2239058303663946e-03 -5.5289139507263135e-03
      -8.6835646948729261e-03 -1.0213166570066568e-02
      3.6401613108117061e-03 -2.7765341978329547e-03
      7.1670482768310109e-03 -8.3566530616075666e-03
      6.0146541824007633e-03 -1.2134967147693698e-02
      -3.2189060494728339e-03 -6.5313321221643636e-03
      1.4295836157472049e-03 5.0148804333388051e-03
      -2.6678020583467343e-01 2.1057042121714760e-03
      -4.4859673263117983e-03 -6.8928284209704271e-03
      5.3121312648989729e-03 -1.0805560824263311e-02
      9.0207100526034454e-03 3.4693462529195827e-03
      1.3310311849568395e-02 5.5197736982743649e-03
      -1.0332164184985148e-02 -2.6627279096285298e-03
      -9.7789602142600469e-03 -2.4313383224710060e-03
      1.0315027964464705e-02 -8.9130885378433805e-03
      1.2480678796661386e-02 7.4814373240991352e-03
      -7.7555921189847755e-03 6.2046976261291298e-03
      -1.7549652210140001e-04 -1.2219020121169365e-02
      -1.2238862172796773e-02 -3.2821116458977579e-03
      -1.0621671438490413e-02 1.3225343354865710e-02
      3.9788326395666018e-03 -4.5019162506435492e-03
      -9.6039713296097590e-03 -9.7853444171568504e-03
      2.4542310511049574e-03 -3.4123049770313323e-03
      7.6292019090541032e-03 -7.8065448775790740e-03
      4.9272596005018121e-03 -1.2398220442263432e-02
      -4.7601041120445683e-03 -5.7044716928133267e-03
      1.6196968273199379e-03 3.4360016432701313e-03
      -1.4354996030204478e-02 1.7755513033051912e-02
      7.3038965689985252e-03 -6.4261862697827842e-03
      -5.1161021697424267e-03 -8.9640835949672433e-03
      8.0262997464075302e-03 -2.4075446690323566e-03
      -2.5700404814466868e-03 2.5906630677104241e-02
      -9.7051524981202220e-03 2.4156762662898654e-03
      -7.6590466910838673e-03 7.1079657620205300e-03
      -1.4887428825012636e-03 -1.0128276690518386e-02
      -3.3160790420079093e-03 -9.7731239385890969e-03
      -2.7476969319249787e-02 2.8120861265641752e-02
      3.9701517660427728e-04 -5.7044803439334352e-03
      2.1088280709908444e-03 7.4387982164914749e-03
      -9.5239041088204680e-03 -1.5716079767668365e-03
      2.1633736413763142e-02 -2.2322764243216376e-02
      -9.0510472389697290e-03 -9.8367461665624951e-03
      -9.0515092308375306e-03 -1.9321063902134193e-02
      2.7515042111544930e-02 -4.7560565337428041e-03
      -8.9665880471124105e-03 -2.2278883359311639e-03
      5.8686725746751860e-03 -3.4834756694875012e-03
      -1.2934232790173110e-02 -4.9308139570383080e-03
      -1.8155860871824936e-01 8.3622632175872156e-03
      -1.1821270130455855e-03 -2.5991976718992651e-03
      1.0069305866483602e-03 1.8464171463759139e-03
      1.3892011346315113e-03 2.9459570373243068e-03
      6.0609945193678908e-03 1.3487722079152815e-02
      2.2899227288405428e-03 -2.2188296475817164e-03
      1.6579289683965023e-04 2.4809135671767690e-03
      3.6972120120935675e-03 9.3317330780648384e-05
      5.5867532950173611e-03 1.5059815216189470e-03
      -1.1871435490366396e-02 1.3141515598271158e-02
      1.5545086822175154e-03 -2.1583603429787051e-03
      -5.1475353715399047e-03 6.0209732838486824e-04
      4.2070653401769526e-04 6.9449593756020543e-03
      9.3335442231339914e-03 -1.0219250859613215e-02
      -4.5012879627685532e-04 2.8772174627272420e-03
      -5.0498666762629476e-04 -7.7421534602819739e-03
      1.3648379082268404e-02 -3.1841291868295813e-03
      9.4077259235958097e-04 -5.0688944148500779e-03
      -5.3974854035296370e-04 -3.9699615428299027e-03
      -4.0464296609075369e-03 1.4816806097136121e-04
      1.8761592412920972e-01 6.4232859454712340e-02
      5.0096232696527840e-02 1.0981414831376005e-02
      -4.4623097023754429e-02 9.0761080068415135e-04
      -7.5303233911222381e-03 -3.7267119672814028e-02
      -3.1995502862170221e-03 7.9068622073773145e-02
      5.2827952117230868e-03 3.6447774574398434e-02
      7.3388247000916130e-03 -2.4984789390891812e-02
      -8.7381800954901899e-05 2.1406985207517424e-03
      -2.5427394018157972e-03 3.0293744425415933e-02
      -7.7453311709181405e-02 7.8086643439275766e-02
      -3.1971592673503281e-02 1.0968618456639741e-02
      1.4282879384779202e-03 4.9879089768445420e-02
      1.6809921727273321e-03 -4.9140771156847771e-03
      6.8328807210799342e-02 -7.1091460455068520e-02
      8.4107444733763307e-03 3.1016020345914011e-03
      -5.4487878404636834e-02 -6.6264875170923915e-02
      7.8092997118418869e-02 1.3872652097599190e-02
      2.6344680393509380e-02 8.0232550551672319e-03
      4.9817440332660383e-02 1.9669300169167660e-02
      -5.7241111947353110e-02 -4.7078254516717169e-02
      1.8683739566035454e-01 6.4529003159535595e-02
      5.1247147599694301e-02 1.2712856249258062e-02
      -4.4225929552806631e-02 -9.5515603577932013e-04
      -7.6409059638829257e-03 -3.8011345379649827e-02
      -2.5190855126684970e-03 7.8478130986401010e-02
      3.9084604086498847e-03 3.8594017834257435e-02
      6.9714034564451648e-03 -2.3504961142815813e-02
      -1.6017810873264809e-03 3.4340631795604609e-03
      -2.0842549453580928e-03 3.2216383628585789e-02
      -7.5708360579780365e-02 7.9610887149302423e-02
      -3.1915520467830638e-02 8.9756025014811804e-03
      1.4998883878629280e-03 4.9715158326030552e-02
      2.3071290899430918e-03 -5.2992523338348859e-03
      6.7693304729015219e-02 -7.0851990602153789e-02
      6.5836394092789836e-03 4.3890954475472449e-03
      -5.4529290380448452e-02 -6.4123260917048994e-02
