<?xml version="1.0"?>
<opencv_storage>
<shapeML type_id="opencv-ml-ann-mlp">
  <layer_sizes type_id="opencv-matrix">
    <rows>1</rows>
    <cols>3</cols>
    <dt>i</dt>
    <data>
      1600 40 1</data></layer_sizes>
  <activation_function>SIGMOID_SYM</activation_function>
  <f_param1>5.9999999999999998e-01</f_param1>
  <f_param2>1.</f_param2>
  <min_val>-9.4999999999999996e-01</min_val>
  <max_val>9.4999999999999996e-01</max_val>
  <min_val1>-9.7999999999999998e-01</min_val1>
  <max_val1>9.7999999999999998e-01</max_val1>
  <training_params>
    <train_method>BACKPROP</train_method>
    <dw_scale>1.0000000000000001e-01</dw_scale>
    <moment_scale>1.0000000000000001e-01</moment_scale>
    <term_criteria><epsilon>9.9999999747524271e-07</epsilon>
      <iterations>4000</iterations></term_criteria></training_params>
  <input_scale>
    1. 0. 3.3509129172532327e-02 -1.1867816581938533e-01
    3.3509129172532327e-02 -1.1867816581938533e-01
    3.3509129172532327e-02 -1.1867816581938533e-01
    1.9624886028901153e-02 -2.0851441405707474e-01
    1.9624886028901153e-02 -2.0851441405707474e-01
    3.3509129172532327e-02 -1.1867816581938533e-01
    3.3509129172532327e-02 -1.1867816581938533e-01
    2.3863178957040466e-02 -1.6903085094570330e-01
    3.3509129172532327e-02 -1.1867816581938533e-01
    2.3863178957040466e-02 -1.6903085094570330e-01
    2.3863178957040466e-02 -1.6903085094570330e-01
    2.3863178957040466e-02 -1.6903085094570330e-01
    1.7120161767270561e-02 -2.4253562503633294e-01
    1.9624886028901153e-02 -2.0851441405707474e-01
    1.3236910050028106e-02 -3.2816506165694681e-01
    1.3236910050028106e-02 -3.2816506165694681e-01 1. 0.
    2.3863178957040466e-02 -1.6903085094570330e-01
    9.9086457366154793e-03 -4.9130368444051753e-01
    8.7553930298264783e-03 -6.2017367294604220e-01
    1.0195173807164032e-02 -4.6940279403817725e-01
    1.2478354962115544e-02 -3.5355339059327373e-01
    1.3236910050028106e-02 -3.2816506165694681e-01 1. 0.
    3.3509129172532327e-02 -1.1867816581938533e-01
    2.3863178957040466e-02 -1.6903085094570330e-01
    1.7120161767270561e-02 -2.4253562503633294e-01
    1.9624886028901153e-02 -2.0851441405707474e-01
    1.9624886028901153e-02 -2.0851441405707474e-01
    1.5426589121171381e-02 -2.7317918235407651e-01
    2.3863178957040466e-02 -1.6903085094570330e-01
    1.9624886028901153e-02 -2.0851441405707474e-01
    2.3863178957040466e-02 -1.6903085094570330e-01
    1.7120161767270561e-02 -2.4253562503633294e-01
    1.7120161767270561e-02 -2.4253562503633294e-01
    3.3509129172532327e-02 -1.1867816581938533e-01
    3.3509129172532327e-02 -1.1867816581938533e-01
    3.3509129172532327e-02 -1.1867816581938533e-01
    3.3509129172532327e-02 -1.1867816581938533e-01
    3.3509129172532327e-02 -1.1867816581938533e-01
    2.3863178957040466e-02 -1.6903085094570330e-01
    3.3509129172532327e-02 -1.1867816581938533e-01
    2.3863178957040466e-02 -1.6903085094570330e-01
    1.7120161767270561e-02 -2.4253562503633294e-01
    1.7120161767270561e-02 -2.4253562503633294e-01
    1.7120161767270561e-02 -2.4253562503633294e-01
    1.7120161767270561e-02 -2.4253562503633294e-01
    1.7120161767270561e-02 -2.4253562503633294e-01
    1.7120161767270561e-02 -2.4253562503633294e-01
    1.1339566996270572e-02 -4.0160966445124940e-01
    1.1857708957152227e-02 -3.7796447300922725e-01
    1.1339566996270572e-02 -4.0160966445124940e-01
    9.6562668431543919e-03 -5.1298917604257710e-01
    9.2339285670738156e-03 -5.5595944914256934e-01
    8.7553930298264783e-03 -6.2017367294604220e-01
    8.7553930298264783e-03 -6.2017367294604220e-01
    8.1644460983469214e-03 -7.5180941155611236e-01
    8.1003573254011339e-03 -7.7459666924148340e-01
    8.5132614939603841e-03 -6.6332495807107994e-01
    7.9957478370155152e-03 -8.2122993409346845e-01
    8.5132614939603841e-03 -6.6332495807107994e-01
    8.5132614939603841e-03 -6.6332495807107994e-01
    8.8976963528930031e-03 -5.9874081708009175e-01
    9.4327497145561545e-03 -5.3452248382484868e-01
    1.0195173807164032e-02 -4.6940279403817725e-01
    1.3236910050028106e-02 -3.2816506165694681e-01
    1.3236910050028106e-02 -3.2816506165694681e-01
    1.2478354962115544e-02 -3.5355339059327373e-01
    1.2478354962115544e-02 -3.5355339059327373e-01
    1.3236910050028106e-02 -3.2816506165694681e-01
    1.3236910050028106e-02 -3.2816506165694681e-01
    1.3236910050028106e-02 -3.2816506165694681e-01
    1.3236910050028106e-02 -3.2816506165694681e-01
    1.3236910050028106e-02 -3.2816506165694681e-01
    1.4188769156600639e-02 -3.0151134457776357e-01
    2.3863178957040466e-02 -1.6903085094570330e-01
    2.3863178957040466e-02 -1.6903085094570330e-01
    2.3863178957040466e-02 -1.6903085094570330e-01
    1.9624886028901153e-02 -2.0851441405707474e-01 1. 0.
    2.3863178957040466e-02 -1.6903085094570330e-01
    2.3863178957040466e-02 -1.6903085094570330e-01
    2.3863178957040466e-02 -1.6903085094570330e-01
    1.7120161767270561e-02 -2.4253562503633294e-01
    1.4188769156600639e-02 -3.0151134457776357e-01
    1.3236910050028106e-02 -3.2816506165694681e-01
    1.4188769156600639e-02 -3.0151134457776357e-01
    1.0522672835293128e-02 -4.4721359549995793e-01
    1.0900114397395523e-02 -4.2465029006520061e-01
    9.4327497145561545e-03 -5.3452248382484868e-01
    9.4327497145561545e-03 -5.3452248382484868e-01
    8.5132614939603841e-03 -6.6332495807107994e-01
    8.1003573254011339e-03 -7.7459666924148340e-01
    8.1644460983469214e-03 -7.5180941155611236e-01
    7.8920046264698458e-03 -8.9442719099991586e-01
    7.8920046264698458e-03 -8.9442719099991586e-01
    7.8920046264698458e-03 -8.9442719099991586e-01
    7.8461649088479302e-03 -9.7259752515927467e-01
    8.1644460983469214e-03 -7.5180941155611236e-01
    7.8920046264698458e-03 -8.9442719099991586e-01
    7.9957478370155152e-03 -8.2122993409346845e-01
    8.4106654409576379e-03 -6.8511878904467427e-01
    8.4106654409576379e-03 -6.8511878904467427e-01
    7.9957478370155152e-03 -8.2122993409346845e-01
    7.9957478370155152e-03 -8.2122993409346845e-01
    8.8976963528930031e-03 -5.9874081708009175e-01
    9.6562668431543919e-03 -5.1298917604257710e-01
    9.6562668431543919e-03 -5.1298917604257710e-01
    1.0900114397395523e-02 -4.2465029006520061e-01
    1.1339566996270572e-02 -4.0160966445124940e-01
    1.1857708957152227e-02 -3.7796447300922725e-01
    1.0900114397395523e-02 -4.2465029006520061e-01
    1.1339566996270572e-02 -4.0160966445124940e-01
    1.1857708957152227e-02 -3.7796447300922725e-01
    1.1857708957152227e-02 -3.7796447300922725e-01
    1.7120161767270561e-02 -2.4253562503633294e-01
    1.7120161767270561e-02 -2.4253562503633294e-01
    2.3863178957040466e-02 -1.6903085094570330e-01
    3.3509129172532327e-02 -1.1867816581938533e-01 1. 0.
    3.3509129172532327e-02 -1.1867816581938533e-01
    2.3863178957040466e-02 -1.6903085094570330e-01
    1.9624886028901153e-02 -2.0851441405707474e-01
    1.4188769156600639e-02 -3.0151134457776357e-01
    1.4188769156600639e-02 -3.0151134457776357e-01
    1.3236910050028106e-02 -3.2816506165694681e-01
    9.6562668431543919e-03 -5.1298917604257710e-01
    9.6562668431543919e-03 -5.1298917604257710e-01
    8.8976963528930031e-03 -5.9874081708009175e-01
    8.8976963528930031e-03 -5.9874081708009175e-01
    7.9543929856801549e-03 -8.4515425472851646e-01
    8.1003573254011339e-03 -7.7459666924148340e-01
    7.9198971311042043e-03 -8.6953870585248250e-01
    7.8920046264698458e-03 -8.9442719099991586e-01
    7.8461649088479302e-03 -9.7259752515927467e-01
    7.9543929856801549e-03 -1.1832159566199230e+00
    7.9543929856801549e-03 -1.1832159566199230e+00
    7.8461649088479284e-03 -1.0281745265969473e+00
    7.8705130353608540e-03 -9.1986621100779986e-01
    7.8920046264698458e-03 -1.1180339887498947e+00
    7.8705130353608540e-03 -1.0871146130092180e+00
    7.8552689516422202e-03 -1.0571882797418488e+00
    7.8461649088479302e-03 -9.7259752515927467e-01
    7.8705130353608540e-03 -9.1986621100779986e-01
    7.9543929856801549e-03 -8.4515425472851646e-01
    8.1644460983469214e-03 -7.5180941155611236e-01
    7.8920046264698458e-03 -8.9442719099991586e-01
    9.4327497145561545e-03 -5.3452248382484868e-01
    9.6562668431543919e-03 -5.1298917604257710e-01
    9.4327497145561545e-03 -5.3452248382484868e-01
    9.4327497145561545e-03 -5.3452248382484868e-01
    1.1339566996270572e-02 -4.0160966445124940e-01
    1.1857708957152227e-02 -3.7796447300922725e-01
    1.0900114397395523e-02 -4.2465029006520061e-01
    1.1339566996270572e-02 -4.0160966445124940e-01
    1.2478354962115544e-02 -3.5355339059327373e-01
    1.5426589121171381e-02 -2.7317918235407651e-01
    2.3863178957040466e-02 -1.6903085094570330e-01
    3.3509129172532327e-02 -1.1867816581938533e-01 1. 0.
    3.3509129172532327e-02 -1.1867816581938533e-01
    3.3509129172532327e-02 -1.1867816581938533e-01
    1.4188769156600639e-02 -3.0151134457776357e-01
    1.2478354962115544e-02 -3.5355339059327373e-01
    1.3236910050028106e-02 -3.2816506165694681e-01
    9.9086457366154793e-03 -4.9130368444051753e-01
    9.6562668431543919e-03 -5.1298917604257710e-01
    9.2339285670738156e-03 -5.5595944914256934e-01
    8.7553930298264783e-03 -6.2017367294604220e-01
    7.9957478370155152e-03 -8.2122993409346845e-01
    7.8920046264698458e-03 -8.9442719099991586e-01
    7.9198971311042043e-03 -8.6953870585248250e-01
    7.8552689516422202e-03 -9.4590530292691744e-01
    7.8552689516422202e-03 -9.4590530292691744e-01
    7.9198971311042043e-03 -8.6953870585248250e-01
    7.9957478370155152e-03 -1.2176857643454877e+00
    7.8552689516422202e-03 -1.0571882797418488e+00
    7.8552689516422202e-03 -9.4590530292691744e-01
    7.8552689516422202e-03 -9.4590530292691744e-01
    7.8705130353608540e-03 -1.0871146130092180e+00
    7.8461649088479302e-03 -9.7259752515927467e-01
    7.8461649088479302e-03 -9.7259752515927467e-01
    7.8705130353608540e-03 -9.1986621100779986e-01
    8.0442759853862084e-03 -7.9772403521746571e-01
    7.8705130353608540e-03 -9.1986621100779986e-01
    7.8461649088479302e-03 -9.7259752515927467e-01
    7.8461649088479302e-03 -9.7259752515927467e-01
    7.9957478370155152e-03 -8.2122993409346845e-01
    8.3189033080770299e-03 -7.0710678118654757e-01
    8.7553930298264783e-03 -6.2017367294604220e-01
    9.4327497145561545e-03 -5.3452248382484868e-01
    9.4327497145561545e-03 -5.3452248382484868e-01
    1.0900114397395523e-02 -4.2465029006520061e-01
    1.0900114397395523e-02 -4.2465029006520061e-01
    1.0195173807164032e-02 -4.6940279403817725e-01
    1.3236910050028106e-02 -3.2816506165694681e-01
    1.4188769156600639e-02 -3.0151134457776357e-01
    2.3863178957040466e-02 -1.6903085094570330e-01
    3.3509129172532327e-02 -1.1867816581938533e-01 1. 0.
    3.3509129172532327e-02 -1.1867816581938533e-01
    1.7120161767270561e-02 -2.4253562503633294e-01
    1.5426589121171381e-02 -2.7317918235407651e-01
    1.3236910050028106e-02 -3.2816506165694681e-01
    9.9086457366154793e-03 -4.9130368444051753e-01
    9.2339285670738156e-03 -5.5595944914256934e-01
    9.2339285670738156e-03 -5.5595944914256934e-01
    8.3189033080770299e-03 -7.0710678118654757e-01
    7.9543929856801549e-03 -8.4515425472851646e-01
    7.9957478370155152e-03 -8.2122993409346845e-01
    7.9198971311042043e-03 -8.6953870585248250e-01
    7.8461649088479302e-03 -9.7259752515927467e-01
    8.1644460983469214e-03 -7.5180941155611236e-01
    7.9543929856801549e-03 -8.4515425472851646e-01
    7.8461649088479284e-03 -1.0281745265969473e+00
    8.4106654409576362e-03 -1.4596008983995230e+00
    7.9543929856801549e-03 -1.1832159566199230e+00
    8.1644460983469197e-03 -1.3301243435223522e+00
    7.8461649088479284e-03 -1.0281745265969473e+00
    7.8552689516422202e-03 -1.0571882797418488e+00
    8.1644460983469197e-03 -1.3301243435223522e+00
    7.8552689516422202e-03 -9.4590530292691744e-01
    7.8552689516422202e-03 -9.4590530292691744e-01
    7.8920046264698458e-03 -1.1180339887498947e+00
    7.9543929856801549e-03 -1.1832159566199230e+00
    7.9198971311042043e-03 -1.1500350625790898e+00
    7.8705130353608540e-03 -1.0871146130092180e+00
    7.9543929856801549e-03 -8.4515425472851646e-01
    8.1003573254011339e-03 -7.7459666924148340e-01
    8.4106654409576379e-03 -6.8511878904467427e-01
    8.4106654409576379e-03 -6.8511878904467427e-01
    9.4327497145561545e-03 -5.3452248382484868e-01
    9.2339285670738156e-03 -5.5595944914256934e-01
    9.9086457366154793e-03 -4.9130368444051753e-01
    1.0522672835293128e-02 -4.4721359549995793e-01
    1.2478354962115544e-02 -3.5355339059327373e-01
    1.4188769156600639e-02 -3.0151134457776357e-01
    1.7120161767270561e-02 -2.4253562503633294e-01
    2.3863178957040466e-02 -1.6903085094570330e-01 1. 0.
    2.3863178957040466e-02 -1.6903085094570330e-01
    1.7120161767270561e-02 -2.4253562503633294e-01
    1.0195173807164032e-02 -4.6940279403817725e-01
    1.0195173807164032e-02 -4.6940279403817725e-01
    9.6562668431543919e-03 -5.1298917604257710e-01
    9.0564748108176597e-03 -5.7735026918962584e-01
    8.8976963528930031e-03 -5.9874081708009175e-01
    8.0442759853862084e-03 -7.9772403521746571e-01
    7.9957478370155152e-03 -8.2122993409346845e-01
    8.1003573254011339e-03 -7.7459666924148340e-01
    7.8461649088479302e-03 -9.7259752515927467e-01
    7.8705130353608540e-03 -1.0871146130092180e+00
    7.8552689516422202e-03 -1.0571882797418488e+00
    8.4106654409576362e-03 -1.4596008983995230e+00
    8.1003573254011339e-03 -1.2909944487358056e+00
    8.1003573254011339e-03 -1.2909944487358056e+00
    8.3189033080770299e-03 -1.4142135623730951e+00
    8.5132614939603859e-03 -1.5075567228888185e+00
    8.1644460983469197e-03 -1.3301243435223522e+00
    8.1003573254011339e-03 -1.2909944487358056e+00
    7.9198971311042043e-03 -1.1500350625790898e+00
    7.8552689516422202e-03 -1.0571882797418488e+00
    7.8705130353608540e-03 -1.0871146130092180e+00
    7.8461649088479302e-03 -9.7259752515927467e-01
    7.9543929856801549e-03 -1.1832159566199230e+00
    7.9957478370155152e-03 -1.2176857643454877e+00
    7.8705130353608540e-03 -1.0871146130092180e+00
    7.8552689516422202e-03 -1.0571882797418488e+00
    7.9543929856801549e-03 -1.1832159566199230e+00
    7.9957478370155152e-03 -8.2122993409346845e-01
    8.1644460983469214e-03 -7.5180941155611236e-01
    8.4106654409576379e-03 -6.8511878904467427e-01
    9.0564748108176597e-03 -5.7735026918962584e-01
    9.0564748108176597e-03 -5.7735026918962584e-01
    1.1857708957152227e-02 -3.7796447300922725e-01
    1.1857708957152227e-02 -3.7796447300922725e-01
    1.2478354962115544e-02 -3.5355339059327373e-01
    1.5426589121171381e-02 -2.7317918235407651e-01
    2.3863178957040466e-02 -1.6903085094570330e-01 1. 0.
    1.9624886028901153e-02 -2.0851441405707474e-01
    1.7120161767270561e-02 -2.4253562503633294e-01
    9.9086457366154793e-03 -4.9130368444051753e-01
    9.6562668431543919e-03 -5.1298917604257710e-01
    1.1857708957152227e-02 -3.7796447300922725e-01
    8.5132614939603841e-03 -6.6332495807107994e-01
    7.9198971311042043e-03 -8.6953870585248250e-01
    7.9198971311042043e-03 -8.6953870585248250e-01
    8.0442759853862084e-03 -7.9772403521746571e-01
    7.8705130353608540e-03 -9.1986621100779986e-01
    8.0442759853862084e-03 -1.2535663410560176e+00
    8.1644460983469197e-03 -1.3301243435223522e+00
    8.6277505602655180e-03 -1.5583874449479591e+00
    8.5132614939603859e-03 -1.5075567228888185e+00
    8.1003573254011339e-03 -1.2909944487358056e+00
    7.9198971311042043e-03 -1.1500350625790898e+00
    8.1644460983469197e-03 -1.3301243435223522e+00
    8.1644460983469197e-03 -1.3301243435223522e+00
    8.2370818728222817e-03 -1.3711309200802091e+00
    8.0442759853862084e-03 -1.2535663410560176e+00
    7.9198971311042043e-03 -1.1500350625790898e+00
    8.6277505602655180e-03 -1.5583874449479591e+00
    8.5132614939603859e-03 -1.5075567228888185e+00
    8.1644460983469197e-03 -1.3301243435223522e+00
    7.8920046264698458e-03 -1.1180339887498947e+00
    7.9957478370155152e-03 -1.2176857643454877e+00
    7.9957478370155152e-03 -1.2176857643454877e+00
    7.8461649088479302e-03 -9.7259752515927467e-01
    7.8431372549019607e-03 -1. 7.8552689516422202e-03
    -1.0571882797418488e+00 7.9543929856801549e-03
    -8.4515425472851646e-01 8.2370818728222817e-03
    -7.2932495748947290e-01 8.3189033080770299e-03
    -7.0710678118654757e-01 9.4327497145561545e-03
    -5.3452248382484868e-01 1.0195173807164032e-02
    -4.6940279403817725e-01 1.1857708957152227e-02
    -3.7796447300922725e-01 1.3236910050028106e-02
    -3.2816506165694681e-01 1.5426589121171381e-02
    -2.7317918235407651e-01 1.7120161767270561e-02
    -2.4253562503633294e-01 3.3509129172532327e-02
    -1.1867816581938533e-01 1.9624886028901153e-02
    -2.0851441405707474e-01 1.5426589121171381e-02
    -2.7317918235407651e-01 1.1857708957152227e-02
    -3.7796447300922725e-01 1.0900114397395523e-02
    -4.2465029006520061e-01 9.6562668431543919e-03
    -5.1298917604257710e-01 8.1003573254011339e-03
    -7.7459666924148340e-01 7.8552689516422202e-03
    -9.4590530292691744e-01 7.8705130353608540e-03
    -9.1986621100779986e-01 7.8552689516422202e-03
    -9.4590530292691744e-01 7.8431372549019607e-03 -1.
    8.1003573254011339e-03 -1.2909944487358056e+00
    8.0442759853862084e-03 -1.2535663410560176e+00
    8.1003573254011339e-03 -1.2909944487358056e+00
    7.9198971311042043e-03 -1.1500350625790898e+00
    7.8920046264698458e-03 -1.1180339887498947e+00
    7.9198971311042043e-03 -1.1500350625790898e+00
    8.1003573254011339e-03 -1.2909944487358056e+00
    7.9957478370155152e-03 -1.2176857643454877e+00
    8.0442759853862084e-03 -1.2535663410560176e+00
    7.8552689516422202e-03 -9.4590530292691744e-01
    8.2370818728222817e-03 -1.3711309200802091e+00
    8.1644460983469197e-03 -1.3301243435223522e+00
    8.2370818728222817e-03 -1.3711309200802091e+00
    8.1003573254011339e-03 -1.2909944487358056e+00
    8.4106654409576362e-03 -1.4596008983995230e+00
    8.3189033080770299e-03 -1.4142135623730951e+00
    7.8461649088479284e-03 -1.0281745265969473e+00
    7.8552689516422202e-03 -1.0571882797418488e+00
    7.8920046264698458e-03 -1.1180339887498947e+00
    7.8552689516422202e-03 -1.0571882797418488e+00
    7.8705130353608540e-03 -1.0871146130092180e+00
    7.8431372549019607e-03 -1. 7.9957478370155152e-03
    -8.2122993409346845e-01 8.4106654409576379e-03
    -6.8511878904467427e-01 1.0195173807164032e-02
    -4.6940279403817725e-01 9.9086457366154793e-03
    -4.9130368444051753e-01 1.3236910050028106e-02
    -3.2816506165694681e-01 1.5426589121171381e-02
    -2.7317918235407651e-01 1.7120161767270561e-02
    -2.4253562503633294e-01 1. 0. 1.7120161767270561e-02
    -2.4253562503633294e-01 1.5426589121171381e-02
    -2.7317918235407651e-01 1.2478354962115544e-02
    -3.5355339059327373e-01 9.4327497145561545e-03
    -5.3452248382484868e-01 7.9957478370155152e-03
    -8.2122993409346845e-01 8.0442759853862084e-03
    -7.9772403521746571e-01 7.9543929856801549e-03
    -8.4515425472851646e-01 7.8552689516422202e-03
    -9.4590530292691744e-01 7.9198971311042043e-03
    -8.6953870585248250e-01 7.8552689516422202e-03
    -1.0571882797418488e+00 7.8431372549019607e-03 -1.
    7.9198971311042043e-03 -1.1500350625790898e+00
    7.9957478370155152e-03 -1.2176857643454877e+00
    7.9543929856801549e-03 -1.1832159566199230e+00
    8.1644460983469197e-03 -1.3301243435223522e+00
    7.9198971311042043e-03 -1.1500350625790898e+00
    8.0442759853862084e-03 -1.2535663410560176e+00
    7.8431372549019607e-03 -1. 7.8920046264698458e-03
    -1.1180339887498947e+00 8.1003573254011339e-03
    -1.2909944487358056e+00 7.9543929856801549e-03
    -1.1832159566199230e+00 8.2370818728222817e-03
    -1.3711309200802091e+00 8.0442759853862084e-03
    -1.2535663410560176e+00 8.1644460983469197e-03
    -1.3301243435223522e+00 8.6277505602655180e-03
    -1.5583874449479591e+00 8.1003573254011339e-03
    -1.2909944487358056e+00 8.4106654409576362e-03
    -1.4596008983995230e+00 7.9543929856801549e-03
    -1.1832159566199230e+00 7.9543929856801549e-03
    -1.1832159566199230e+00 7.8920046264698458e-03
    -1.1180339887498947e+00 7.8705130353608540e-03
    -1.0871146130092180e+00 7.8552689516422202e-03
    -1.0571882797418488e+00 7.8461649088479302e-03
    -9.7259752515927467e-01 7.9957478370155152e-03
    -8.2122993409346845e-01 8.6277505602655180e-03
    -6.4168894791974795e-01 9.9086457366154793e-03
    -4.9130368444051753e-01 1.3236910050028106e-02
    -3.2816506165694681e-01 1.4188769156600639e-02
    -3.0151134457776357e-01 1.5426589121171381e-02
    -2.7317918235407651e-01 2.3863178957040466e-02
    -1.6903085094570330e-01 1.5426589121171381e-02
    -2.7317918235407651e-01 1.5426589121171381e-02
    -2.7317918235407651e-01 9.4327497145561545e-03
    -5.3452248382484868e-01 8.2370818728222817e-03
    -7.2932495748947290e-01 8.1003573254011339e-03
    -7.7459666924148340e-01 8.6277505602655180e-03
    -6.4168894791974795e-01 8.0442759853862084e-03
    -7.9772403521746571e-01 8.1003573254011339e-03
    -7.7459666924148340e-01 7.8461649088479302e-03
    -9.7259752515927467e-01 7.9543929856801549e-03
    -1.1832159566199230e+00 7.8461649088479284e-03
    -1.0281745265969473e+00 7.8461649088479284e-03
    -1.0281745265969473e+00 7.8920046264698458e-03
    -1.1180339887498947e+00 8.0442759853862084e-03
    -1.2535663410560176e+00 7.9543929856801549e-03
    -1.1832159566199230e+00 8.1003573254011339e-03
    -1.2909944487358056e+00 7.8552689516422202e-03
    -1.0571882797418488e+00 7.8461649088479302e-03
    -9.7259752515927467e-01 7.9198971311042043e-03
    -1.1500350625790898e+00 7.9198971311042043e-03
    -1.1500350625790898e+00 7.8552689516422202e-03
    -1.0571882797418488e+00 8.0442759853862084e-03
    -1.2535663410560176e+00 8.0442759853862084e-03
    -1.2535663410560176e+00 7.9957478370155152e-03
    -1.2176857643454877e+00 8.2370818728222817e-03
    -1.3711309200802091e+00 8.2370818728222817e-03
    -1.3711309200802091e+00 8.6277505602655180e-03
    -1.5583874449479591e+00 8.2370818728222817e-03
    -1.3711309200802091e+00 8.5132614939603859e-03
    -1.5075567228888185e+00 8.1003573254011339e-03
    -1.2909944487358056e+00 7.8920046264698458e-03
    -1.1180339887498947e+00 7.8705130353608540e-03
    -1.0871146130092180e+00 7.8705130353608540e-03
    -1.0871146130092180e+00 7.8705130353608540e-03
    -9.1986621100779986e-01 8.4106654409576379e-03
    -6.8511878904467427e-01 9.4327497145561545e-03
    -5.3452248382484868e-01 1.2478354962115544e-02
    -3.5355339059327373e-01 1.4188769156600639e-02
    -3.0151134457776357e-01 1.7120161767270561e-02
    -2.4253562503633294e-01 2.3863178957040466e-02
    -1.6903085094570330e-01 1.4188769156600639e-02
    -3.0151134457776357e-01 1.3236910050028106e-02
    -3.2816506165694681e-01 8.5132614939603841e-03
    -6.6332495807107994e-01 8.1003573254011339e-03
    -7.7459666924148340e-01 8.5132614939603841e-03
    -6.6332495807107994e-01 8.6277505602655180e-03
    -6.4168894791974795e-01 7.9957478370155152e-03
    -8.2122993409346845e-01 7.8705130353608540e-03
    -9.1986621100779986e-01 7.8461649088479284e-03
    -1.0281745265969473e+00 7.9198971311042043e-03
    -1.1500350625790898e+00 7.8920046264698458e-03
    -1.1180339887498947e+00 7.8461649088479302e-03
    -9.7259752515927467e-01 8.0442759853862084e-03
    -7.9772403521746571e-01 7.8461649088479302e-03
    -9.7259752515927467e-01 8.0442759853862084e-03
    -1.2535663410560176e+00 7.8920046264698458e-03
    -1.1180339887498947e+00 7.8461649088479302e-03
    -9.7259752515927467e-01 7.8920046264698458e-03
    -1.1180339887498947e+00 7.9198971311042043e-03
    -1.1500350625790898e+00 7.8552689516422202e-03
    -1.0571882797418488e+00 7.8552689516422202e-03
    -9.4590530292691744e-01 7.8431372549019607e-03 -1.
    7.9957478370155152e-03 -1.2176857643454877e+00
    7.9198971311042043e-03 -1.1500350625790898e+00
    7.9957478370155152e-03 -1.2176857643454877e+00
    7.9957478370155152e-03 -1.2176857643454877e+00
    8.5132614939603859e-03 -1.5075567228888185e+00
    9.0564748108176597e-03 -1.7320508075688774e+00
    8.8976963528930048e-03 -1.6701717529076245e+00
    8.5132614939603859e-03 -1.5075567228888185e+00
    7.9198971311042043e-03 -1.1500350625790898e+00
    7.9198971311042043e-03 -1.1500350625790898e+00
    7.8552689516422202e-03 -1.0571882797418488e+00
    7.8552689516422202e-03 -1.0571882797418488e+00
    8.0442759853862084e-03 -7.9772403521746571e-01
    9.4327497145561545e-03 -5.3452248382484868e-01
    9.6562668431543919e-03 -5.1298917604257710e-01
    1.4188769156600639e-02 -3.0151134457776357e-01
    1.5426589121171381e-02 -2.7317918235407651e-01
    2.3863178957040466e-02 -1.6903085094570330e-01
    1.4188769156600639e-02 -3.0151134457776357e-01
    1.0195173807164032e-02 -4.6940279403817725e-01
    8.4106654409576379e-03 -6.8511878904467427e-01
    8.1003573254011339e-03 -7.7459666924148340e-01
    7.9957478370155152e-03 -8.2122993409346845e-01
    7.9198971311042043e-03 -8.6953870585248250e-01
    8.1003573254011339e-03 -7.7459666924148340e-01
    7.8461649088479284e-03 -1.0281745265969473e+00
    7.9543929856801549e-03 -1.1832159566199230e+00
    7.8552689516422202e-03 -9.4590530292691744e-01
    7.8705130353608540e-03 -1.0871146130092180e+00
    7.8920046264698458e-03 -1.1180339887498947e+00
    7.9198971311042043e-03 -1.1500350625790898e+00
    8.0442759853862084e-03 -1.2535663410560176e+00
    7.8705130353608540e-03 -1.0871146130092180e+00
    7.8461649088479284e-03 -1.0281745265969473e+00
    7.8552689516422202e-03 -1.0571882797418488e+00
    7.8461649088479284e-03 -1.0281745265969473e+00
    7.8920046264698458e-03 -1.1180339887498947e+00
    7.8431372549019607e-03 -1. 7.8552689516422202e-03
    -9.4590530292691744e-01 7.8461649088479302e-03
    -9.7259752515927467e-01 7.8920046264698458e-03
    -1.1180339887498947e+00 8.1003573254011339e-03
    -1.2909944487358056e+00 7.8705130353608540e-03
    -1.0871146130092180e+00 8.8976963528930048e-03
    -1.6701717529076245e+00 8.8976963528930048e-03
    -1.6701717529076245e+00 9.6562668431543919e-03
    -1.9493588689617929e+00 8.6277505602655180e-03
    -1.5583874449479591e+00 8.7553930298264783e-03
    -1.6124515496597096e+00 8.2370818728222817e-03
    -1.3711309200802091e+00 7.9543929856801549e-03
    -1.1832159566199230e+00 7.9543929856801549e-03
    -1.1832159566199230e+00 7.8461649088479284e-03
    -1.0281745265969473e+00 7.8920046264698458e-03
    -8.9442719099991586e-01 8.7553930298264783e-03
    -6.2017367294604220e-01 9.4327497145561545e-03
    -5.3452248382484868e-01 1.3236910050028106e-02
    -3.2816506165694681e-01 1.7120161767270561e-02
    -2.4253562503633294e-01 2.3863178957040466e-02
    -1.6903085094570330e-01 1.4188769156600639e-02
    -3.0151134457776357e-01 8.7553930298264783e-03
    -6.2017367294604220e-01 8.2370818728222817e-03
    -7.2932495748947290e-01 7.8705130353608540e-03
    -9.1986621100779986e-01 7.8705130353608540e-03
    -9.1986621100779986e-01 7.8920046264698458e-03
    -8.9442719099991586e-01 7.8705130353608540e-03
    -1.0871146130092180e+00 7.9198971311042043e-03
    -1.1500350625790898e+00 7.8431372549019607e-03 -1.
    7.8461649088479284e-03 -1.0281745265969473e+00
    7.8552689516422202e-03 -1.0571882797418488e+00
    7.9957478370155152e-03 -1.2176857643454877e+00
    7.9543929856801549e-03 -1.1832159566199230e+00
    7.8705130353608540e-03 -9.1986621100779986e-01
    7.8461649088479302e-03 -9.7259752515927467e-01
    7.8461649088479302e-03 -9.7259752515927467e-01
    7.9543929856801549e-03 -8.4515425472851646e-01
    7.8705130353608540e-03 -1.0871146130092180e+00
    7.8461649088479302e-03 -9.7259752515927467e-01
    7.8461649088479284e-03 -1.0281745265969473e+00
    7.8552689516422202e-03 -9.4590530292691744e-01
    7.8705130353608540e-03 -9.1986621100779986e-01
    8.1644460983469197e-03 -1.3301243435223522e+00
    8.1644460983469197e-03 -1.3301243435223522e+00
    8.3189033080770299e-03 -1.4142135623730951e+00
    8.7553930298264783e-03 -1.6124515496597096e+00
    8.6277505602655180e-03 -1.5583874449479591e+00
    8.7553930298264783e-03 -1.6124515496597096e+00
    8.4106654409576362e-03 -1.4596008983995230e+00
    8.8976963528930048e-03 -1.6701717529076245e+00
    8.6277505602655180e-03 -1.5583874449479591e+00
    8.1003573254011339e-03 -1.2909944487358056e+00
    7.8431372549019607e-03 -1. 7.8920046264698458e-03
    -1.1180339887498947e+00 7.8552689516422202e-03
    -9.4590530292691744e-01 8.3189033080770299e-03
    -7.0710678118654757e-01 9.4327497145561545e-03
    -5.3452248382484868e-01 9.0564748108176597e-03
    -5.7735026918962584e-01 1.4188769156600639e-02
    -3.0151134457776357e-01 1.7120161767270561e-02
    -2.4253562503633294e-01 1.1857708957152227e-02
    -3.7796447300922725e-01 8.7553930298264783e-03
    -6.2017367294604220e-01 8.1644460983469214e-03
    -7.5180941155611236e-01 7.8461649088479302e-03
    -9.7259752515927467e-01 7.8705130353608540e-03
    -9.1986621100779986e-01 7.8461649088479284e-03
    -1.0281745265969473e+00 7.9198971311042043e-03
    -1.1500350625790898e+00 7.9543929856801549e-03
    -1.1832159566199230e+00 7.8705130353608540e-03
    -1.0871146130092180e+00 7.8552689516422202e-03
    -1.0571882797418488e+00 7.8920046264698458e-03
    -1.1180339887498947e+00 7.9957478370155152e-03
    -1.2176857643454877e+00 8.0442759853862084e-03
    -1.2535663410560176e+00 7.8461649088479302e-03
    -9.7259752515927467e-01 7.8552689516422202e-03
    -9.4590530292691744e-01 7.8552689516422202e-03
    -9.4590530292691744e-01 7.8552689516422202e-03
    -9.4590530292691744e-01 7.8552689516422202e-03
    -9.4590530292691744e-01 7.8705130353608540e-03
    -9.1986621100779986e-01 7.8920046264698458e-03
    -8.9442719099991586e-01 7.9957478370155152e-03
    -8.2122993409346845e-01 7.8461649088479302e-03
    -9.7259752515927467e-01 7.8461649088479284e-03
    -1.0281745265969473e+00 7.8461649088479284e-03
    -1.0281745265969473e+00 7.9543929856801549e-03
    -1.1832159566199230e+00 8.1003573254011339e-03
    -1.2909944487358056e+00 8.0442759853862084e-03
    -1.2535663410560176e+00 8.6277505602655180e-03
    -1.5583874449479591e+00 8.7553930298264783e-03
    -1.6124515496597096e+00 9.9086457366154759e-03
    -2.0354009783964289e+00 9.6562668431543919e-03
    -1.9493588689617929e+00 8.6277505602655180e-03
    -1.5583874449479591e+00 7.9198971311042043e-03
    -1.1500350625790898e+00 7.8552689516422202e-03
    -9.4590530292691744e-01 7.8461649088479302e-03
    -9.7259752515927467e-01 7.9543929856801549e-03
    -8.4515425472851646e-01 8.8976963528930031e-03
    -5.9874081708009175e-01 9.4327497145561545e-03
    -5.3452248382484868e-01 1.2478354962115544e-02
    -3.5355339059327373e-01 2.3863178957040466e-02
    -1.6903085094570330e-01 1.2478354962115544e-02
    -3.5355339059327373e-01 8.4106654409576379e-03
    -6.8511878904467427e-01 8.3189033080770299e-03
    -7.0710678118654757e-01 7.8461649088479284e-03
    -1.0281745265969473e+00 7.8705130353608540e-03
    -9.1986621100779986e-01 7.8552689516422202e-03
    -1.0571882797418488e+00 8.1003573254011339e-03
    -1.2909944487358056e+00 8.0442759853862084e-03
    -1.2535663410560176e+00 7.8461649088479284e-03
    -1.0281745265969473e+00 7.8461649088479284e-03
    -1.0281745265969473e+00 7.8461649088479284e-03
    -1.0281745265969473e+00 7.9543929856801549e-03
    -1.1832159566199230e+00 7.8552689516422202e-03
    -1.0571882797418488e+00 7.8461649088479302e-03
    -9.7259752515927467e-01 7.8461649088479302e-03
    -9.7259752515927467e-01 7.8552689516422202e-03
    -9.4590530292691744e-01 7.8920046264698458e-03
    -8.9442719099991586e-01 7.8461649088479302e-03
    -9.7259752515927467e-01 7.8552689516422202e-03
    -9.4590530292691744e-01 7.8705130353608540e-03
    -9.1986621100779986e-01 7.8920046264698458e-03
    -8.9442719099991586e-01 7.8552689516422202e-03
    -9.4590530292691744e-01 7.8461649088479302e-03
    -9.7259752515927467e-01 7.9198971311042043e-03
    -1.1500350625790898e+00 7.8552689516422202e-03
    -1.0571882797418488e+00 7.9198971311042043e-03
    -1.1500350625790898e+00 8.4106654409576362e-03
    -1.4596008983995230e+00 8.1644460983469197e-03
    -1.3301243435223522e+00 8.6277505602655180e-03
    -1.5583874449479591e+00 8.8976963528930048e-03
    -1.6701717529076245e+00 1.0195173807164032e-02
    -2.1303665267886509e+00 9.0564748108176597e-03
    -1.7320508075688774e+00 8.1003573254011339e-03
    -1.2909944487358056e+00 7.8552689516422202e-03
    -1.0571882797418488e+00 7.8705130353608540e-03
    -1.0871146130092180e+00 7.9198971311042043e-03
    -8.6953870585248250e-01 7.9957478370155152e-03
    -8.2122993409346845e-01 8.8976963528930031e-03
    -5.9874081708009175e-01 1.1857708957152227e-02
    -3.7796447300922725e-01 1.9624886028901153e-02
    -2.0851441405707474e-01 1.1339566996270572e-02
    -4.0160966445124940e-01 9.2339285670738156e-03
    -5.5595944914256934e-01 8.1644460983469214e-03
    -7.5180941155611236e-01 7.8431372549019607e-03 -1.
    7.8461649088479302e-03 -9.7259752515927467e-01
    7.8461649088479284e-03 -1.0281745265969473e+00
    8.1003573254011339e-03 -1.2909944487358056e+00
    8.1644460983469197e-03 -1.3301243435223522e+00
    7.9198971311042043e-03 -1.1500350625790898e+00
    7.8552689516422202e-03 -1.0571882797418488e+00
    7.8461649088479284e-03 -1.0281745265969473e+00
    7.8552689516422202e-03 -9.4590530292691744e-01
    7.8552689516422202e-03 -1.0571882797418488e+00
    7.8920046264698458e-03 -8.9442719099991586e-01
    7.8431372549019607e-03 -1. 7.8552689516422202e-03
    -9.4590530292691744e-01 7.8705130353608540e-03
    -9.1986621100779986e-01 7.8552689516422202e-03
    -9.4590530292691744e-01 7.8705130353608540e-03
    -9.1986621100779986e-01 7.8552689516422202e-03
    -9.4590530292691744e-01 7.8461649088479302e-03
    -9.7259752515927467e-01 7.8461649088479302e-03
    -9.7259752515927467e-01 7.8552689516422202e-03
    -9.4590530292691744e-01 7.8431372549019607e-03 -1.
    7.8705130353608540e-03 -9.1986621100779986e-01
    7.8461649088479302e-03 -9.7259752515927467e-01
    7.9198971311042043e-03 -1.1500350625790898e+00
    8.5132614939603859e-03 -1.5075567228888185e+00
    8.6277505602655180e-03 -1.5583874449479591e+00
    8.5132614939603859e-03 -1.5075567228888185e+00
    8.7553930298264783e-03 -1.6124515496597096e+00
    8.8976963528930048e-03 -1.6701717529076245e+00
    7.9957478370155152e-03 -1.2176857643454877e+00
    7.9543929856801549e-03 -1.1832159566199230e+00
    8.0442759853862084e-03 -1.2535663410560176e+00
    7.9198971311042043e-03 -1.1500350625790898e+00
    8.3189033080770299e-03 -7.0710678118654757e-01
    9.0564748108176597e-03 -5.7735026918962584e-01
    1.0195173807164032e-02 -4.6940279403817725e-01
    1.5426589121171381e-02 -2.7317918235407651e-01
    1.1857708957152227e-02 -3.7796447300922725e-01
    9.4327497145561545e-03 -5.3452248382484868e-01
    7.9957478370155152e-03 -8.2122993409346845e-01
    7.8431372549019607e-03 -1. 7.8705130353608540e-03
    -9.1986621100779986e-01 7.8431372549019607e-03 -1.
    7.9957478370155152e-03 -1.2176857643454877e+00
    8.3189033080770299e-03 -1.4142135623730951e+00
    7.9543929856801549e-03 -1.1832159566199230e+00
    7.9957478370155152e-03 -1.2176857643454877e+00
    7.9543929856801549e-03 -1.1832159566199230e+00
    7.8552689516422202e-03 -1.0571882797418488e+00
    7.8705130353608540e-03 -1.0871146130092180e+00
    7.8431372549019607e-03 -1. 7.8705130353608540e-03
    -9.1986621100779986e-01 7.8920046264698458e-03
    -8.9442719099991586e-01 7.9957478370155152e-03
    -8.2122993409346845e-01 7.8920046264698458e-03
    -8.9442719099991586e-01 7.8431372549019607e-03 -1.
    7.8920046264698458e-03 -8.9442719099991586e-01
    7.9543929856801549e-03 -8.4515425472851646e-01
    7.8552689516422202e-03 -1.0571882797418488e+00
    7.8431372549019607e-03 -1. 7.8431372549019607e-03 -1.
    7.8461649088479284e-03 -1.0281745265969473e+00
    7.8461649088479302e-03 -9.7259752515927467e-01
    7.8705130353608540e-03 -1.0871146130092180e+00
    8.5132614939603859e-03 -1.5075567228888185e+00
    8.6277505602655180e-03 -1.5583874449479591e+00
    9.2339285670738139e-03 -1.7986923354612532e+00
    8.8976963528930048e-03 -1.6701717529076245e+00
    9.0564748108176597e-03 -1.7320508075688774e+00
    8.7553930298264783e-03 -1.6124515496597096e+00
    8.1644460983469197e-03 -1.3301243435223522e+00
    7.9198971311042043e-03 -1.1500350625790898e+00
    7.9543929856801549e-03 -1.1832159566199230e+00
    8.1644460983469214e-03 -7.5180941155611236e-01
    9.9086457366154793e-03 -4.9130368444051753e-01
    1.0900114397395523e-02 -4.2465029006520061e-01
    1.3236910050028106e-02 -3.2816506165694681e-01
    1.1857708957152227e-02 -3.7796447300922725e-01
    9.2339285670738156e-03 -5.5595944914256934e-01
    8.6277505602655180e-03 -6.4168894791974795e-01
    8.1644460983469214e-03 -7.5180941155611236e-01
    7.9957478370155152e-03 -8.2122993409346845e-01
    7.8431372549019607e-03 -1. 7.8461649088479302e-03
    -9.7259752515927467e-01 8.4106654409576362e-03
    -1.4596008983995230e+00 7.9198971311042043e-03
    -1.1500350625790898e+00 7.8461649088479284e-03
    -1.0281745265969473e+00 7.9543929856801549e-03
    -1.1832159566199230e+00 7.9957478370155152e-03
    -1.2176857643454877e+00 7.8705130353608540e-03
    -1.0871146130092180e+00 7.8920046264698458e-03
    -1.1180339887498947e+00 7.8461649088479302e-03
    -9.7259752515927467e-01 7.8552689516422202e-03
    -9.4590530292691744e-01 7.8920046264698458e-03
    -8.9442719099991586e-01 7.8705130353608540e-03
    -9.1986621100779986e-01 7.9198971311042043e-03
    -8.6953870585248250e-01 7.8461649088479284e-03
    -1.0281745265969473e+00 7.8920046264698458e-03
    -8.9442719099991586e-01 7.8461649088479284e-03
    -1.0281745265969473e+00 7.8431372549019607e-03 -1.
    7.8461649088479302e-03 -9.7259752515927467e-01
    7.9957478370155152e-03 -8.2122993409346845e-01
    7.8705130353608540e-03 -9.1986621100779986e-01
    7.8552689516422202e-03 -1.0571882797418488e+00
    8.1003573254011339e-03 -1.2909944487358056e+00
    8.4106654409576362e-03 -1.4596008983995230e+00
    8.4106654409576362e-03 -1.4596008983995230e+00
    8.1644460983469197e-03 -1.3301243435223522e+00
    8.7553930298264783e-03 -1.6124515496597096e+00
    8.6277505602655180e-03 -1.5583874449479591e+00
    8.0442759853862084e-03 -1.2535663410560176e+00
    8.0442759853862084e-03 -1.2535663410560176e+00
    7.9543929856801549e-03 -1.1832159566199230e+00
    7.9543929856801549e-03 -8.4515425472851646e-01
    1.1857708957152227e-02 -3.7796447300922725e-01
    1.0522672835293128e-02 -4.4721359549995793e-01
    1.2478354962115544e-02 -3.5355339059327373e-01
    1.1339566996270572e-02 -4.0160966445124940e-01
    9.2339285670738156e-03 -5.5595944914256934e-01
    8.4106654409576379e-03 -6.8511878904467427e-01
    8.0442759853862084e-03 -7.9772403521746571e-01
    7.8920046264698458e-03 -8.9442719099991586e-01
    7.8431372549019607e-03 -1. 7.8552689516422202e-03
    -1.0571882797418488e+00 8.1003573254011339e-03
    -1.2909944487358056e+00 8.0442759853862084e-03
    -1.2535663410560176e+00 7.9543929856801549e-03
    -1.1832159566199230e+00 7.9543929856801549e-03
    -1.1832159566199230e+00 7.8705130353608540e-03
    -1.0871146130092180e+00 7.8431372549019607e-03 -1.
    7.9198971311042043e-03 -1.1500350625790898e+00
    7.8552689516422202e-03 -9.4590530292691744e-01
    7.8552689516422202e-03 -9.4590530292691744e-01
    8.0442759853862084e-03 -7.9772403521746571e-01
    7.8431372549019607e-03 -1. 7.8461649088479284e-03
    -1.0281745265969473e+00 7.8431372549019607e-03 -1.
    7.8705130353608540e-03 -9.1986621100779986e-01
    7.8552689516422202e-03 -1.0571882797418488e+00
    7.8920046264698458e-03 -1.1180339887498947e+00
    7.8552689516422202e-03 -1.0571882797418488e+00
    7.8552689516422202e-03 -1.0571882797418488e+00
    7.9198971311042043e-03 -1.1500350625790898e+00
    8.2370818728222817e-03 -1.3711309200802091e+00
    7.9957478370155152e-03 -1.2176857643454877e+00
    8.6277505602655180e-03 -1.5583874449479591e+00
    8.7553930298264783e-03 -1.6124515496597096e+00
    8.6277505602655180e-03 -1.5583874449479591e+00
    8.8976963528930048e-03 -1.6701717529076245e+00
    8.2370818728222817e-03 -1.3711309200802091e+00
    8.0442759853862084e-03 -1.2535663410560176e+00
    7.9198971311042043e-03 -1.1500350625790898e+00
    7.8920046264698458e-03 -1.1180339887498947e+00
    7.9957478370155152e-03 -8.2122993409346845e-01
    1.2478354962115544e-02 -3.5355339059327373e-01
    1.0522672835293128e-02 -4.4721359549995793e-01
    1.4188769156600639e-02 -3.0151134457776357e-01
    1.2478354962115544e-02 -3.5355339059327373e-01
    9.2339285670738156e-03 -5.5595944914256934e-01
    8.0442759853862084e-03 -7.9772403521746571e-01
    8.1644460983469214e-03 -7.5180941155611236e-01
    7.9543929856801549e-03 -8.4515425472851646e-01
    7.9198971311042043e-03 -8.6953870585248250e-01
    7.8705130353608540e-03 -1.0871146130092180e+00
    8.3189033080770299e-03 -1.4142135623730951e+00
    8.1644460983469197e-03 -1.3301243435223522e+00
    8.0442759853862084e-03 -1.2535663410560176e+00
    7.9957478370155152e-03 -1.2176857643454877e+00
    7.8552689516422202e-03 -9.4590530292691744e-01
    7.8461649088479284e-03 -1.0281745265969473e+00
    7.8920046264698458e-03 -1.1180339887498947e+00
    7.8552689516422202e-03 -9.4590530292691744e-01
    7.8920046264698458e-03 -8.9442719099991586e-01
    7.8920046264698458e-03 -8.9442719099991586e-01
    7.8552689516422202e-03 -9.4590530292691744e-01
    7.8552689516422202e-03 -1.0571882797418488e+00
    7.8920046264698458e-03 -1.1180339887498947e+00
    7.8461649088479284e-03 -1.0281745265969473e+00
    7.8552689516422202e-03 -9.4590530292691744e-01
    7.8461649088479284e-03 -1.0281745265969473e+00
    7.8431372549019607e-03 -1. 8.0442759853862084e-03
    -1.2535663410560176e+00 8.2370818728222817e-03
    -1.3711309200802091e+00 8.1644460983469197e-03
    -1.3301243435223522e+00 8.2370818728222817e-03
    -1.3711309200802091e+00 7.9543929856801549e-03
    -1.1832159566199230e+00 8.7553930298264783e-03
    -1.6124515496597096e+00 8.1644460983469197e-03
    -1.3301243435223522e+00 8.3189033080770299e-03
    -1.4142135623730951e+00 8.4106654409576362e-03
    -1.4596008983995230e+00 7.9957478370155152e-03
    -1.2176857643454877e+00 7.9543929856801549e-03
    -1.1832159566199230e+00 7.8920046264698458e-03
    -1.1180339887498947e+00 7.8705130353608540e-03
    -9.1986621100779986e-01 1.0522672835293128e-02
    -4.4721359549995793e-01 1.0522672835293128e-02
    -4.4721359549995793e-01 1.5426589121171381e-02
    -2.7317918235407651e-01 1.3236910050028106e-02
    -3.2816506165694681e-01 9.2339285670738156e-03
    -5.5595944914256934e-01 8.4106654409576379e-03
    -6.8511878904467427e-01 8.1003573254011339e-03
    -7.7459666924148340e-01 7.9198971311042043e-03
    -8.6953870585248250e-01 7.8552689516422202e-03
    -9.4590530292691744e-01 7.8705130353608540e-03
    -1.0871146130092180e+00 7.9198971311042043e-03
    -1.1500350625790898e+00 7.9957478370155152e-03
    -1.2176857643454877e+00 7.8461649088479302e-03
    -9.7259752515927467e-01 7.8461649088479302e-03
    -9.7259752515927467e-01 7.8461649088479302e-03
    -9.7259752515927467e-01 7.9957478370155152e-03
    -1.2176857643454877e+00 7.8920046264698458e-03
    -1.1180339887498947e+00 8.0442759853862084e-03
    -7.9772403521746571e-01 7.9957478370155152e-03
    -8.2122993409346845e-01 7.9198971311042043e-03
    -8.6953870585248250e-01 7.9198971311042043e-03
    -8.6953870585248250e-01 7.8461649088479302e-03
    -9.7259752515927467e-01 7.8431372549019607e-03 -1.
    7.8431372549019607e-03 -1. 7.8705130353608540e-03
    -9.1986621100779986e-01 7.8705130353608540e-03
    -9.1986621100779986e-01 7.8705130353608540e-03
    -9.1986621100779986e-01 7.9543929856801549e-03
    -1.1832159566199230e+00 7.8552689516422202e-03
    -1.0571882797418488e+00 8.1003573254011339e-03
    -1.2909944487358056e+00 8.1003573254011339e-03
    -1.2909944487358056e+00 7.9543929856801549e-03
    -1.1832159566199230e+00 8.3189033080770299e-03
    -1.4142135623730951e+00 8.1644460983469197e-03
    -1.3301243435223522e+00 8.1644460983469197e-03
    -1.3301243435223522e+00 8.5132614939603859e-03
    -1.5075567228888185e+00 7.8461649088479284e-03
    -1.0281745265969473e+00 7.8920046264698458e-03
    -1.1180339887498947e+00 7.8920046264698458e-03
    -1.1180339887498947e+00 7.9198971311042043e-03
    -8.6953870585248250e-01 8.8976963528930031e-03
    -5.9874081708009175e-01 1.0900114397395523e-02
    -4.2465029006520061e-01 1.7120161767270561e-02
    -2.4253562503633294e-01 1.4188769156600639e-02
    -3.0151134457776357e-01 9.6562668431543919e-03
    -5.1298917604257710e-01 8.4106654409576379e-03
    -6.8511878904467427e-01 8.1644460983469214e-03
    -7.5180941155611236e-01 7.9198971311042043e-03
    -8.6953870585248250e-01 7.8705130353608540e-03
    -1.0871146130092180e+00 7.8705130353608540e-03
    -1.0871146130092180e+00 7.9198971311042043e-03
    -1.1500350625790898e+00 7.8705130353608540e-03
    -1.0871146130092180e+00 7.8552689516422202e-03
    -1.0571882797418488e+00 7.8461649088479284e-03
    -1.0281745265969473e+00 7.9543929856801549e-03
    -1.1832159566199230e+00 7.9957478370155152e-03
    -8.2122993409346845e-01 7.8705130353608540e-03
    -1.0871146130092180e+00 7.8920046264698458e-03
    -8.9442719099991586e-01 7.9543929856801549e-03
    -8.4515425472851646e-01 8.0442759853862084e-03
    -7.9772403521746571e-01 7.9198971311042043e-03
    -8.6953870585248250e-01 7.9198971311042043e-03
    -8.6953870585248250e-01 7.9957478370155152e-03
    -8.2122993409346845e-01 8.1644460983469214e-03
    -7.5180941155611236e-01 7.9543929856801549e-03
    -8.4515425472851646e-01 7.9198971311042043e-03
    -8.6953870585248250e-01 7.9198971311042043e-03
    -8.6953870585248250e-01 7.9198971311042043e-03
    -1.1500350625790898e+00 8.1644460983469197e-03
    -1.3301243435223522e+00 8.1003573254011339e-03
    -1.2909944487358056e+00 8.1003573254011339e-03
    -1.2909944487358056e+00 7.9957478370155152e-03
    -1.2176857643454877e+00 7.8705130353608540e-03
    -1.0871146130092180e+00 8.1644460983469197e-03
    -1.3301243435223522e+00 8.0442759853862084e-03
    -1.2535663410560176e+00 8.1003573254011339e-03
    -1.2909944487358056e+00 7.8461649088479284e-03
    -1.0281745265969473e+00 7.8552689516422202e-03
    -1.0571882797418488e+00 7.8552689516422202e-03
    -1.0571882797418488e+00 7.9543929856801549e-03
    -8.4515425472851646e-01 9.0564748108176597e-03
    -5.7735026918962584e-01 1.0900114397395523e-02
    -4.2465029006520061e-01 2.3863178957040466e-02
    -1.6903085094570330e-01 1.2478354962115544e-02
    -3.5355339059327373e-01 9.6562668431543919e-03
    -5.1298917604257710e-01 8.5132614939603841e-03
    -6.6332495807107994e-01 8.4106654409576379e-03
    -6.8511878904467427e-01 8.0442759853862084e-03
    -7.9772403521746571e-01 7.8461649088479302e-03
    -9.7259752515927467e-01 7.8552689516422202e-03
    -1.0571882797418488e+00 7.8705130353608540e-03
    -1.0871146130092180e+00 7.9543929856801549e-03
    -1.1832159566199230e+00 7.8461649088479284e-03
    -1.0281745265969473e+00 7.9198971311042043e-03
    -1.1500350625790898e+00 7.9198971311042043e-03
    -1.1500350625790898e+00 7.8920046264698458e-03
    -1.1180339887498947e+00 7.8705130353608540e-03
    -9.1986621100779986e-01 7.8461649088479302e-03
    -9.7259752515927467e-01 7.8705130353608540e-03
    -9.1986621100779986e-01 7.9198971311042043e-03
    -8.6953870585248250e-01 7.8920046264698458e-03
    -8.9442719099991586e-01 7.9198971311042043e-03
    -8.6953870585248250e-01 8.0442759853862084e-03
    -7.9772403521746571e-01 8.0442759853862084e-03
    -7.9772403521746571e-01 8.1003573254011339e-03
    -7.7459666924148340e-01 7.8461649088479302e-03
    -9.7259752515927467e-01 7.8461649088479284e-03
    -1.0281745265969473e+00 7.9198971311042043e-03
    -1.1500350625790898e+00 7.9543929856801549e-03
    -1.1832159566199230e+00 8.1644460983469197e-03
    -1.3301243435223522e+00 7.9198971311042043e-03
    -1.1500350625790898e+00 7.9543929856801549e-03
    -1.1832159566199230e+00 8.1644460983469197e-03
    -1.3301243435223522e+00 7.8552689516422202e-03
    -1.0571882797418488e+00 8.0442759853862084e-03
    -1.2535663410560176e+00 8.2370818728222817e-03
    -1.3711309200802091e+00 7.8705130353608540e-03
    -1.0871146130092180e+00 7.8705130353608540e-03
    -1.0871146130092180e+00 7.8431372549019607e-03 -1.
    7.9543929856801549e-03 -8.4515425472851646e-01
    9.0564748108176597e-03 -5.7735026918962584e-01
    1.0522672835293128e-02 -4.4721359549995793e-01
    2.3863178957040466e-02 -1.6903085094570330e-01
    1.1857708957152227e-02 -3.7796447300922725e-01
    1.0522672835293128e-02 -4.4721359549995793e-01
    8.8976963528930031e-03 -5.9874081708009175e-01
    8.2370818728222817e-03 -7.2932495748947290e-01
    8.0442759853862084e-03 -7.9772403521746571e-01
    7.8461649088479302e-03 -9.7259752515927467e-01
    7.8461649088479284e-03 -1.0281745265969473e+00
    7.8920046264698458e-03 -8.9442719099991586e-01
    7.8461649088479302e-03 -9.7259752515927467e-01
    7.8552689516422202e-03 -1.0571882797418488e+00
    7.9957478370155152e-03 -1.2176857643454877e+00
    7.8431372549019607e-03 -1. 7.8431372549019607e-03 -1.
    7.8461649088479284e-03 -1.0281745265969473e+00
    7.8920046264698458e-03 -1.1180339887498947e+00
    7.8461649088479302e-03 -9.7259752515927467e-01
    7.8552689516422202e-03 -1.0571882797418488e+00
    7.8920046264698458e-03 -8.9442719099991586e-01
    7.9543929856801549e-03 -8.4515425472851646e-01
    7.8705130353608540e-03 -9.1986621100779986e-01
    7.9543929856801549e-03 -8.4515425472851646e-01
    7.8920046264698458e-03 -8.9442719099991586e-01
    7.8552689516422202e-03 -9.4590530292691744e-01
    7.8705130353608540e-03 -1.0871146130092180e+00
    7.8552689516422202e-03 -9.4590530292691744e-01
    7.9957478370155152e-03 -1.2176857643454877e+00
    7.8920046264698458e-03 -1.1180339887498947e+00
    7.8552689516422202e-03 -9.4590530292691744e-01
    7.8461649088479284e-03 -1.0281745265969473e+00
    7.9198971311042043e-03 -1.1500350625790898e+00
    7.9957478370155152e-03 -1.2176857643454877e+00
    8.1644460983469197e-03 -1.3301243435223522e+00
    7.9957478370155152e-03 -1.2176857643454877e+00
    7.8461649088479284e-03 -1.0281745265969473e+00
    7.8705130353608540e-03 -1.0871146130092180e+00
    7.8431372549019607e-03 -1. 7.9957478370155152e-03
    -8.2122993409346845e-01 8.6277505602655180e-03
    -6.4168894791974795e-01 9.4327497145561545e-03
    -5.3452248382484868e-01 1.7120161767270561e-02
    -2.4253562503633294e-01 1.2478354962115544e-02
    -3.5355339059327373e-01 9.9086457366154793e-03
    -4.9130368444051753e-01 9.0564748108176597e-03
    -5.7735026918962584e-01 8.3189033080770299e-03
    -7.0710678118654757e-01 8.1644460983469214e-03
    -7.5180941155611236e-01 7.8552689516422202e-03
    -9.4590530292691744e-01 7.8552689516422202e-03
    -1.0571882797418488e+00 7.8552689516422202e-03
    -1.0571882797418488e+00 7.9543929856801549e-03
    -8.4515425472851646e-01 7.9198971311042043e-03
    -1.1500350625790898e+00 7.9543929856801549e-03
    -1.1832159566199230e+00 7.8920046264698458e-03
    -1.1180339887498947e+00 7.8461649088479284e-03
    -1.0281745265969473e+00 7.8461649088479284e-03
    -1.0281745265969473e+00 7.8705130353608540e-03
    -1.0871146130092180e+00 7.8552689516422202e-03
    -1.0571882797418488e+00 7.8705130353608540e-03
    -1.0871146130092180e+00 7.8461649088479284e-03
    -1.0281745265969473e+00 7.8461649088479302e-03
    -9.7259752515927467e-01 7.8705130353608540e-03
    -9.1986621100779986e-01 7.9198971311042043e-03
    -8.6953870585248250e-01 7.8552689516422202e-03
    -1.0571882797418488e+00 7.8461649088479284e-03
    -1.0281745265969473e+00 7.8920046264698458e-03
    -1.1180339887498947e+00 7.9198971311042043e-03
    -1.1500350625790898e+00 7.8431372549019607e-03 -1.
    7.8552689516422202e-03 -9.4590530292691744e-01
    7.9957478370155152e-03 -1.2176857643454877e+00
    7.9957478370155152e-03 -1.2176857643454877e+00
    7.8920046264698458e-03 -1.1180339887498947e+00
    7.8920046264698458e-03 -1.1180339887498947e+00
    8.1644460983469197e-03 -1.3301243435223522e+00
    7.9543929856801549e-03 -1.1832159566199230e+00
    7.9198971311042043e-03 -1.1500350625790898e+00
    7.8552689516422202e-03 -9.4590530292691744e-01
    7.8552689516422202e-03 -9.4590530292691744e-01
    7.9198971311042043e-03 -8.6953870585248250e-01
    9.4327497145561545e-03 -5.3452248382484868e-01
    9.9086457366154793e-03 -4.9130368444051753e-01
    2.3863178957040466e-02 -1.6903085094570330e-01
    1.1339566996270572e-02 -4.0160966445124940e-01
    1.0522672835293128e-02 -4.4721359549995793e-01
    9.4327497145561545e-03 -5.3452248382484868e-01
    8.5132614939603841e-03 -6.6332495807107994e-01
    8.2370818728222817e-03 -7.2932495748947290e-01
    8.1003573254011339e-03 -7.7459666924148340e-01
    7.8920046264698458e-03 -8.9442719099991586e-01
    7.8920046264698458e-03 -8.9442719099991586e-01
    7.8461649088479302e-03 -9.7259752515927467e-01
    7.9198971311042043e-03 -8.6953870585248250e-01
    7.8552689516422202e-03 -1.0571882797418488e+00
    7.8920046264698458e-03 -1.1180339887498947e+00
    7.8431372549019607e-03 -1. 7.8705130353608540e-03
    -1.0871146130092180e+00 7.9198971311042043e-03
    -1.1500350625790898e+00 7.8461649088479302e-03
    -9.7259752515927467e-01 7.8431372549019607e-03 -1.
    7.8461649088479302e-03 -9.7259752515927467e-01
    7.8920046264698458e-03 -1.1180339887498947e+00
    7.8705130353608540e-03 -1.0871146130092180e+00
    7.8431372549019607e-03 -1. 7.8705130353608540e-03
    -1.0871146130092180e+00 7.8920046264698458e-03
    -1.1180339887498947e+00 7.8705130353608540e-03
    -9.1986621100779986e-01 7.8552689516422202e-03
    -1.0571882797418488e+00 7.8705130353608540e-03
    -9.1986621100779986e-01 8.0442759853862084e-03
    -1.2535663410560176e+00 7.9957478370155152e-03
    -1.2176857643454877e+00 7.8552689516422202e-03
    -1.0571882797418488e+00 7.9543929856801549e-03
    -1.1832159566199230e+00 7.9198971311042043e-03
    -1.1500350625790898e+00 8.1644460983469197e-03
    -1.3301243435223522e+00 7.8705130353608540e-03
    -1.0871146130092180e+00 7.8920046264698458e-03
    -1.1180339887498947e+00 7.8461649088479302e-03
    -9.7259752515927467e-01 7.8461649088479302e-03
    -9.7259752515927467e-01 8.3189033080770299e-03
    -7.0710678118654757e-01 8.7553930298264783e-03
    -6.2017367294604220e-01 1.0195173807164032e-02
    -4.6940279403817725e-01 1.4188769156600639e-02
    -3.0151134457776357e-01 1.2478354962115544e-02
    -3.5355339059327373e-01 1.0522672835293128e-02
    -4.4721359549995793e-01 1.0522672835293128e-02
    -4.4721359549995793e-01 8.2370818728222817e-03
    -7.2932495748947290e-01 8.4106654409576379e-03
    -6.8511878904467427e-01 8.1644460983469214e-03
    -7.5180941155611236e-01 7.9957478370155152e-03
    -8.2122993409346845e-01 7.8920046264698458e-03
    -8.9442719099991586e-01 7.8552689516422202e-03
    -9.4590530292691744e-01 7.8705130353608540e-03
    -1.0871146130092180e+00 7.8705130353608540e-03
    -1.0871146130092180e+00 7.9198971311042043e-03
    -8.6953870585248250e-01 7.8552689516422202e-03
    -9.4590530292691744e-01 7.8920046264698458e-03
    -1.1180339887498947e+00 7.9543929856801549e-03
    -8.4515425472851646e-01 7.8920046264698458e-03
    -1.1180339887498947e+00 7.9198971311042043e-03
    -1.1500350625790898e+00 7.8431372549019607e-03 -1.
    7.9198971311042043e-03 -8.6953870585248250e-01
    7.8920046264698458e-03 -1.1180339887498947e+00
    7.8705130353608540e-03 -1.0871146130092180e+00
    7.8461649088479302e-03 -9.7259752515927467e-01
    7.8705130353608540e-03 -1.0871146130092180e+00
    7.8461649088479284e-03 -1.0281745265969473e+00
    7.9543929856801549e-03 -1.1832159566199230e+00
    7.8461649088479284e-03 -1.0281745265969473e+00
    7.8705130353608540e-03 -1.0871146130092180e+00
    7.8705130353608540e-03 -9.1986621100779986e-01
    7.8431372549019607e-03 -1. 7.9198971311042043e-03
    -1.1500350625790898e+00 8.4106654409576362e-03
    -1.4596008983995230e+00 8.5132614939603859e-03
    -1.5075567228888185e+00 7.9198971311042043e-03
    -1.1500350625790898e+00 7.8705130353608540e-03
    -9.1986621100779986e-01 7.8461649088479284e-03
    -1.0281745265969473e+00 7.8461649088479302e-03
    -9.7259752515927467e-01 8.6277505602655180e-03
    -6.4168894791974795e-01 8.8976963528930031e-03
    -5.9874081708009175e-01 1.4188769156600639e-02
    -3.0151134457776357e-01 1.4188769156600639e-02
    -3.0151134457776357e-01 1.2478354962115544e-02
    -3.5355339059327373e-01 1.0195173807164032e-02
    -4.6940279403817725e-01 1.0195173807164032e-02
    -4.6940279403817725e-01 9.4327497145561545e-03
    -5.3452248382484868e-01 8.5132614939603841e-03
    -6.6332495807107994e-01 8.1644460983469214e-03
    -7.5180941155611236e-01 8.1003573254011339e-03
    -7.7459666924148340e-01 7.9198971311042043e-03
    -8.6953870585248250e-01 7.8552689516422202e-03
    -9.4590530292691744e-01 7.8705130353608540e-03
    -9.1986621100779986e-01 7.8705130353608540e-03
    -1.0871146130092180e+00 7.9957478370155152e-03
    -1.2176857643454877e+00 7.9198971311042043e-03
    -1.1500350625790898e+00 7.8920046264698458e-03
    -1.1180339887498947e+00 7.8920046264698458e-03
    -1.1180339887498947e+00 7.8461649088479284e-03
    -1.0281745265969473e+00 7.8920046264698458e-03
    -1.1180339887498947e+00 7.9543929856801549e-03
    -1.1832159566199230e+00 7.9543929856801549e-03
    -1.1832159566199230e+00 7.8705130353608540e-03
    -1.0871146130092180e+00 7.8461649088479302e-03
    -9.7259752515927467e-01 7.8552689516422202e-03
    -1.0571882797418488e+00 7.8552689516422202e-03
    -1.0571882797418488e+00 7.8705130353608540e-03
    -1.0871146130092180e+00 7.9198971311042043e-03
    -1.1500350625790898e+00 7.9543929856801549e-03
    -1.1832159566199230e+00 7.8705130353608540e-03
    -1.0871146130092180e+00 7.9198971311042043e-03
    -1.1500350625790898e+00 7.8461649088479284e-03
    -1.0281745265969473e+00 8.1644460983469197e-03
    -1.3301243435223522e+00 8.6277505602655180e-03
    -1.5583874449479591e+00 7.9198971311042043e-03
    -1.1500350625790898e+00 7.8920046264698458e-03
    -1.1180339887498947e+00 7.8431372549019607e-03 -1.
    7.8461649088479302e-03 -9.7259752515927467e-01
    7.8920046264698458e-03 -8.9442719099991586e-01
    8.2370818728222817e-03 -7.2932495748947290e-01
    8.7553930298264783e-03 -6.2017367294604220e-01
    1.4188769156600639e-02 -3.0151134457776357e-01
    1.5426589121171381e-02 -2.7317918235407651e-01
    1.4188769156600639e-02 -3.0151134457776357e-01
    1.1857708957152227e-02 -3.7796447300922725e-01
    1.0900114397395523e-02 -4.2465029006520061e-01
    1.0522672835293128e-02 -4.4721359549995793e-01
    9.4327497145561545e-03 -5.3452248382484868e-01
    8.6277505602655180e-03 -6.4168894791974795e-01
    8.1644460983469214e-03 -7.5180941155611236e-01
    8.1644460983469214e-03 -7.5180941155611236e-01
    7.9543929856801549e-03 -8.4515425472851646e-01
    7.8461649088479302e-03 -9.7259752515927467e-01
    7.8461649088479284e-03 -1.0281745265969473e+00
    8.1003573254011339e-03 -1.2909944487358056e+00
    8.1644460983469197e-03 -1.3301243435223522e+00
    7.8431372549019607e-03 -1. 7.8705130353608540e-03
    -1.0871146130092180e+00 7.8461649088479302e-03
    -9.7259752515927467e-01 7.8461649088479302e-03
    -9.7259752515927467e-01 7.8552689516422202e-03
    -1.0571882797418488e+00 7.9198971311042043e-03
    -1.1500350625790898e+00 7.8461649088479302e-03
    -9.7259752515927467e-01 7.8920046264698458e-03
    -1.1180339887498947e+00 7.8705130353608540e-03
    -1.0871146130092180e+00 7.8461649088479284e-03
    -1.0281745265969473e+00 7.8461649088479302e-03
    -9.7259752515927467e-01 7.8431372549019607e-03 -1.
    7.8431372549019607e-03 -1. 7.8552689516422202e-03
    -1.0571882797418488e+00 7.8920046264698458e-03
    -1.1180339887498947e+00 7.8431372549019607e-03 -1.
    8.1644460983469197e-03 -1.3301243435223522e+00
    7.9543929856801549e-03 -1.1832159566199230e+00
    7.9198971311042043e-03 -1.1500350625790898e+00
    7.8431372549019607e-03 -1. 7.8705130353608540e-03
    -9.1986621100779986e-01 7.9543929856801549e-03
    -8.4515425472851646e-01 7.8920046264698458e-03
    -8.9442719099991586e-01 8.2370818728222817e-03
    -7.2932495748947290e-01 1.0522672835293128e-02
    -4.4721359549995793e-01 1.4188769156600639e-02
    -3.0151134457776357e-01 1.7120161767270561e-02
    -2.4253562503633294e-01 1.7120161767270561e-02
    -2.4253562503633294e-01 1.4188769156600639e-02
    -3.0151134457776357e-01 1.0900114397395523e-02
    -4.2465029006520061e-01 1.0900114397395523e-02
    -4.2465029006520061e-01 1.0900114397395523e-02
    -4.2465029006520061e-01 1.0900114397395523e-02
    -4.2465029006520061e-01 8.7553930298264783e-03
    -6.2017367294604220e-01 8.7553930298264783e-03
    -6.2017367294604220e-01 7.9198971311042043e-03
    -8.6953870585248250e-01 7.8461649088479284e-03
    -1.0281745265969473e+00 7.9957478370155152e-03
    -8.2122993409346845e-01 7.8705130353608540e-03
    -1.0871146130092180e+00 8.1644460983469197e-03
    -1.3301243435223522e+00 8.3189033080770299e-03
    -1.4142135623730951e+00 8.2370818728222817e-03
    -1.3711309200802091e+00 7.9198971311042043e-03
    -1.1500350625790898e+00 7.8920046264698458e-03
    -1.1180339887498947e+00 7.8431372549019607e-03 -1.
    7.8461649088479284e-03 -1.0281745265969473e+00
    7.8461649088479302e-03 -9.7259752515927467e-01
    7.8705130353608540e-03 -1.0871146130092180e+00
    7.8552689516422202e-03 -1.0571882797418488e+00
    7.8431372549019607e-03 -1. 7.8705130353608540e-03
    -9.1986621100779986e-01 7.8461649088479284e-03
    -1.0281745265969473e+00 7.8552689516422202e-03
    -1.0571882797418488e+00 7.8705130353608540e-03
    -9.1986621100779986e-01 7.8552689516422202e-03
    -1.0571882797418488e+00 7.9543929856801549e-03
    -8.4515425472851646e-01 8.6277505602655180e-03
    -1.5583874449479591e+00 7.8920046264698458e-03
    -1.1180339887498947e+00 7.8552689516422202e-03
    -1.0571882797418488e+00 7.8552689516422202e-03
    -1.0571882797418488e+00 7.8705130353608540e-03
    -9.1986621100779986e-01 7.9957478370155152e-03
    -8.2122993409346845e-01 8.2370818728222817e-03
    -7.2932495748947290e-01 8.8976963528930031e-03
    -5.9874081708009175e-01 1.1857708957152227e-02
    -3.7796447300922725e-01 1.7120161767270561e-02
    -2.4253562503633294e-01 1.7120161767270561e-02
    -2.4253562503633294e-01 1.7120161767270561e-02
    -2.4253562503633294e-01 1.4188769156600639e-02
    -3.0151134457776357e-01 1.2478354962115544e-02
    -3.5355339059327373e-01 1.0900114397395523e-02
    -4.2465029006520061e-01 1.2478354962115544e-02
    -3.5355339059327373e-01 1.1339566996270572e-02
    -4.0160966445124940e-01 1.0195173807164032e-02
    -4.6940279403817725e-01 8.7553930298264783e-03
    -6.2017367294604220e-01 8.4106654409576379e-03
    -6.8511878904467427e-01 8.1003573254011339e-03
    -7.7459666924148340e-01 8.1003573254011339e-03
    -7.7459666924148340e-01 7.8705130353608540e-03
    -9.1986621100779986e-01 7.8461649088479302e-03
    -9.7259752515927467e-01 7.8920046264698458e-03
    -1.1180339887498947e+00 8.0442759853862084e-03
    -1.2535663410560176e+00 8.1644460983469197e-03
    -1.3301243435223522e+00 8.1644460983469197e-03
    -1.3301243435223522e+00 7.9198971311042043e-03
    -1.1500350625790898e+00 8.0442759853862084e-03
    -1.2535663410560176e+00 7.9957478370155152e-03
    -1.2176857643454877e+00 7.9957478370155152e-03
    -1.2176857643454877e+00 7.8705130353608540e-03
    -1.0871146130092180e+00 7.8705130353608540e-03
    -1.0871146130092180e+00 7.9198971311042043e-03
    -8.6953870585248250e-01 7.9198971311042043e-03
    -8.6953870585248250e-01 7.8705130353608540e-03
    -9.1986621100779986e-01 7.8705130353608540e-03
    -1.0871146130092180e+00 8.0442759853862084e-03
    -1.2535663410560176e+00 7.9198971311042043e-03
    -1.1500350625790898e+00 8.2370818728222817e-03
    -1.3711309200802091e+00 7.8431372549019607e-03 -1.
    7.8461649088479302e-03 -9.7259752515927467e-01
    7.8920046264698458e-03 -8.9442719099991586e-01
    7.8552689516422202e-03 -9.4590530292691744e-01
    7.8920046264698458e-03 -8.9442719099991586e-01
    8.7553930298264783e-03 -6.2017367294604220e-01
    9.2339285670738156e-03 -5.5595944914256934e-01
    1.5426589121171381e-02 -2.7317918235407651e-01
    1.5426589121171381e-02 -2.7317918235407651e-01
    1.9624886028901153e-02 -2.0851441405707474e-01
    1.7120161767270561e-02 -2.4253562503633294e-01
    1.4188769156600639e-02 -3.0151134457776357e-01
    1.1857708957152227e-02 -3.7796447300922725e-01
    1.1857708957152227e-02 -3.7796447300922725e-01
    1.0900114397395523e-02 -4.2465029006520061e-01
    9.9086457366154793e-03 -4.9130368444051753e-01
    9.6562668431543919e-03 -5.1298917604257710e-01
    9.2339285670738156e-03 -5.5595944914256934e-01
    8.5132614939603841e-03 -6.6332495807107994e-01
    8.5132614939603841e-03 -6.6332495807107994e-01
    8.2370818728222817e-03 -7.2932495748947290e-01
    8.0442759853862084e-03 -7.9772403521746571e-01
    7.8461649088479284e-03 -1.0281745265969473e+00
    7.8552689516422202e-03 -1.0571882797418488e+00
    7.8431372549019607e-03 -1. 7.8552689516422202e-03
    -1.0571882797418488e+00 7.8705130353608540e-03
    -1.0871146130092180e+00 7.8920046264698458e-03
    -1.1180339887498947e+00 7.8705130353608540e-03
    -1.0871146130092180e+00 7.9543929856801549e-03
    -1.1832159566199230e+00 7.8920046264698458e-03
    -1.1180339887498947e+00 7.8552689516422202e-03
    -9.4590530292691744e-01 7.8461649088479284e-03
    -1.0281745265969473e+00 7.9543929856801549e-03
    -8.4515425472851646e-01 7.9198971311042043e-03
    -8.6953870585248250e-01 8.1003573254011339e-03
    -7.7459666924148340e-01 7.9543929856801549e-03
    -1.1832159566199230e+00 7.9198971311042043e-03
    -1.1500350625790898e+00 7.9198971311042043e-03
    -1.1500350625790898e+00 7.8552689516422202e-03
    -1.0571882797418488e+00 7.8461649088479284e-03
    -1.0281745265969473e+00 7.8920046264698458e-03
    -8.9442719099991586e-01 7.8552689516422202e-03
    -9.4590530292691744e-01 7.8552689516422202e-03
    -9.4590530292691744e-01 8.5132614939603841e-03
    -6.6332495807107994e-01 8.7553930298264783e-03
    -6.2017367294604220e-01 9.9086457366154793e-03
    -4.9130368444051753e-01 1.3236910050028106e-02
    -3.2816506165694681e-01 1.5426589121171381e-02
    -2.7317918235407651e-01 1.7120161767270561e-02
    -2.4253562503633294e-01 1.7120161767270561e-02
    -2.4253562503633294e-01 1.2478354962115544e-02
    -3.5355339059327373e-01 1.1857708957152227e-02
    -3.7796447300922725e-01 1.1857708957152227e-02
    -3.7796447300922725e-01 1.1339566996270572e-02
    -4.0160966445124940e-01 1.0195173807164032e-02
    -4.6940279403817725e-01 9.4327497145561545e-03
    -5.3452248382484868e-01 9.2339285670738156e-03
    -5.5595944914256934e-01 9.2339285670738156e-03
    -5.5595944914256934e-01 8.4106654409576379e-03
    -6.8511878904467427e-01 8.3189033080770299e-03
    -7.0710678118654757e-01 7.8920046264698458e-03
    -8.9442719099991586e-01 7.8552689516422202e-03
    -9.4590530292691744e-01 7.8705130353608540e-03
    -9.1986621100779986e-01 7.9543929856801549e-03
    -8.4515425472851646e-01 7.8705130353608540e-03
    -1.0871146130092180e+00 7.8552689516422202e-03
    -1.0571882797418488e+00 7.8431372549019607e-03 -1.
    7.8705130353608540e-03 -1.0871146130092180e+00
    7.9543929856801549e-03 -1.1832159566199230e+00
    7.9543929856801549e-03 -1.1832159566199230e+00
    7.8920046264698458e-03 -1.1180339887498947e+00
    7.8461649088479302e-03 -9.7259752515927467e-01
    7.8461649088479302e-03 -9.7259752515927467e-01
    7.9543929856801549e-03 -1.1832159566199230e+00
    7.9543929856801549e-03 -1.1832159566199230e+00
    8.2370818728222817e-03 -1.3711309200802091e+00
    7.8920046264698458e-03 -1.1180339887498947e+00
    7.8552689516422202e-03 -1.0571882797418488e+00
    7.9198971311042043e-03 -8.6953870585248250e-01
    7.8461649088479302e-03 -9.7259752515927467e-01
    7.8552689516422202e-03 -9.4590530292691744e-01
    7.8552689516422202e-03 -9.4590530292691744e-01
    8.3189033080770299e-03 -7.0710678118654757e-01
    8.8976963528930031e-03 -5.9874081708009175e-01
    8.7553930298264783e-03 -6.2017367294604220e-01
    1.0195173807164032e-02 -4.6940279403817725e-01
    1.3236910050028106e-02 -3.2816506165694681e-01
    1.7120161767270561e-02 -2.4253562503633294e-01
    1.9624886028901153e-02 -2.0851441405707474e-01
    1.7120161767270561e-02 -2.4253562503633294e-01
    1.1339566996270572e-02 -4.0160966445124940e-01
    1.0900114397395523e-02 -4.2465029006520061e-01
    1.0522672835293128e-02 -4.4721359549995793e-01
    1.0522672835293128e-02 -4.4721359549995793e-01
    1.0900114397395523e-02 -4.2465029006520061e-01
    9.9086457366154793e-03 -4.9130368444051753e-01
    9.9086457366154793e-03 -4.9130368444051753e-01
    9.6562668431543919e-03 -5.1298917604257710e-01
    9.4327497145561545e-03 -5.3452248382484868e-01
    8.1003573254011339e-03 -7.7459666924148340e-01
    8.4106654409576379e-03 -6.8511878904467427e-01
    8.3189033080770299e-03 -7.0710678118654757e-01
    8.0442759853862084e-03 -7.9772403521746571e-01
    7.8431372549019607e-03 -1. 7.8552689516422202e-03
    -9.4590530292691744e-01 7.9957478370155152e-03
    -1.2176857643454877e+00 7.9198971311042043e-03
    -1.1500350625790898e+00 8.0442759853862084e-03
    -1.2535663410560176e+00 7.8461649088479284e-03
    -1.0281745265969473e+00 7.8461649088479302e-03
    -9.7259752515927467e-01 7.9543929856801549e-03
    -1.1832159566199230e+00 7.9543929856801549e-03
    -1.1832159566199230e+00 7.8431372549019607e-03 -1.
    7.8920046264698458e-03 -1.1180339887498947e+00
    7.8705130353608540e-03 -1.0871146130092180e+00
    7.9543929856801549e-03 -1.1832159566199230e+00
    7.9198971311042043e-03 -1.1500350625790898e+00
    7.8920046264698458e-03 -1.1180339887498947e+00
    7.9543929856801549e-03 -8.4515425472851646e-01
    7.8920046264698458e-03 -8.9442719099991586e-01
    7.8705130353608540e-03 -9.1986621100779986e-01
    8.1003573254011339e-03 -7.7459666924148340e-01
    8.5132614939603841e-03 -6.6332495807107994e-01
    8.6277505602655180e-03 -6.4168894791974795e-01
    8.8976963528930031e-03 -5.9874081708009175e-01
    1.1339566996270572e-02 -4.0160966445124940e-01
    1.4188769156600639e-02 -3.0151134457776357e-01
    1.4188769156600639e-02 -3.0151134457776357e-01
    2.3863178957040466e-02 -1.6903085094570330e-01
    1.5426589121171381e-02 -2.7317918235407651e-01
    1.2478354962115544e-02 -3.5355339059327373e-01
    1.1339566996270572e-02 -4.0160966445124940e-01
    1.0195173807164032e-02 -4.6940279403817725e-01
    1.0195173807164032e-02 -4.6940279403817725e-01
    9.9086457366154793e-03 -4.9130368444051753e-01
    1.0195173807164032e-02 -4.6940279403817725e-01
    9.6562668431543919e-03 -5.1298917604257710e-01
    1.0195173807164032e-02 -4.6940279403817725e-01
    1.0195173807164032e-02 -4.6940279403817725e-01
    8.8976963528930031e-03 -5.9874081708009175e-01
    8.0442759853862084e-03 -7.9772403521746571e-01
    8.1003573254011339e-03 -7.7459666924148340e-01
    7.9543929856801549e-03 -8.4515425472851646e-01
    7.8920046264698458e-03 -8.9442719099991586e-01
    7.8705130353608540e-03 -9.1986621100779986e-01
    7.8705130353608540e-03 -9.1986621100779986e-01
    8.0442759853862084e-03 -1.2535663410560176e+00
    8.0442759853862084e-03 -1.2535663410560176e+00
    7.8705130353608540e-03 -1.0871146130092180e+00
    7.8461649088479284e-03 -1.0281745265969473e+00
    7.8920046264698458e-03 -8.9442719099991586e-01
    7.8461649088479284e-03 -1.0281745265969473e+00
    8.1644460983469197e-03 -1.3301243435223522e+00
    8.0442759853862084e-03 -1.2535663410560176e+00
    7.9543929856801549e-03 -1.1832159566199230e+00
    7.8552689516422202e-03 -9.4590530292691744e-01
    7.9957478370155152e-03 -8.2122993409346845e-01
    7.8920046264698458e-03 -8.9442719099991586e-01
    7.9198971311042043e-03 -8.6953870585248250e-01
    8.2370818728222817e-03 -7.2932495748947290e-01
    8.3189033080770299e-03 -7.0710678118654757e-01
    8.2370818728222817e-03 -7.2932495748947290e-01
    8.7553930298264783e-03 -6.2017367294604220e-01
    8.8976963528930031e-03 -5.9874081708009175e-01
    1.0522672835293128e-02 -4.4721359549995793e-01
    1.0900114397395523e-02 -4.2465029006520061e-01
    1.4188769156600639e-02 -3.0151134457776357e-01
    1.5426589121171381e-02 -2.7317918235407651e-01
    1.7120161767270561e-02 -2.4253562503633294e-01
    1.4188769156600639e-02 -3.0151134457776357e-01
    1.3236910050028106e-02 -3.2816506165694681e-01
    1.0900114397395523e-02 -4.2465029006520061e-01
    1.0900114397395523e-02 -4.2465029006520061e-01
    1.0900114397395523e-02 -4.2465029006520061e-01
    1.1339566996270572e-02 -4.0160966445124940e-01
    1.0900114397395523e-02 -4.2465029006520061e-01
    1.0900114397395523e-02 -4.2465029006520061e-01
    1.0522672835293128e-02 -4.4721359549995793e-01
    1.1339566996270572e-02 -4.0160966445124940e-01
    1.0522672835293128e-02 -4.4721359549995793e-01
    9.9086457366154793e-03 -4.9130368444051753e-01
    8.4106654409576379e-03 -6.8511878904467427e-01
    8.1003573254011339e-03 -7.7459666924148340e-01
    7.8920046264698458e-03 -8.9442719099991586e-01
    7.9543929856801549e-03 -8.4515425472851646e-01
    7.9198971311042043e-03 -8.6953870585248250e-01
    7.8431372549019607e-03 -1. 7.9198971311042043e-03
    -1.1500350625790898e+00 7.8552689516422202e-03
    -1.0571882797418488e+00 7.8552689516422202e-03
    -9.4590530292691744e-01 7.8920046264698458e-03
    -8.9442719099991586e-01 7.9957478370155152e-03
    -1.2176857643454877e+00 7.9198971311042043e-03
    -1.1500350625790898e+00 8.0442759853862084e-03
    -1.2535663410560176e+00 7.9198971311042043e-03
    -8.6953870585248250e-01 7.8461649088479302e-03
    -9.7259752515927467e-01 7.8920046264698458e-03
    -8.9442719099991586e-01 7.9198971311042043e-03
    -8.6953870585248250e-01 8.2370818728222817e-03
    -7.2932495748947290e-01 8.3189033080770299e-03
    -7.0710678118654757e-01 9.2339285670738156e-03
    -5.5595944914256934e-01 9.0564748108176597e-03
    -5.7735026918962584e-01 9.2339285670738156e-03
    -5.5595944914256934e-01 1.0195173807164032e-02
    -4.6940279403817725e-01 1.1857708957152227e-02
    -3.7796447300922725e-01 1.1857708957152227e-02
    -3.7796447300922725e-01 1.4188769156600639e-02
    -3.0151134457776357e-01 2.3863178957040466e-02
    -1.6903085094570330e-01 1.9624886028901153e-02
    -2.0851441405707474e-01 1.5426589121171381e-02
    -2.7317918235407651e-01 1.4188769156600639e-02
    -3.0151134457776357e-01 1.1857708957152227e-02
    -3.7796447300922725e-01 1.1339566996270572e-02
    -4.0160966445124940e-01 1.1857708957152227e-02
    -3.7796447300922725e-01 1.2478354962115544e-02
    -3.5355339059327373e-01 1.1857708957152227e-02
    -3.7796447300922725e-01 1.2478354962115544e-02
    -3.5355339059327373e-01 1.4188769156600639e-02
    -3.0151134457776357e-01 1.2478354962115544e-02
    -3.5355339059327373e-01 1.1857708957152227e-02
    -3.7796447300922725e-01 1.0900114397395523e-02
    -4.2465029006520061e-01 9.9086457366154793e-03
    -4.9130368444051753e-01 9.4327497145561545e-03
    -5.3452248382484868e-01 8.6277505602655180e-03
    -6.4168894791974795e-01 8.5132614939603841e-03
    -6.6332495807107994e-01 8.1644460983469214e-03
    -7.5180941155611236e-01 8.0442759853862084e-03
    -7.9772403521746571e-01 7.8431372549019607e-03 -1.
    7.8461649088479284e-03 -1.0281745265969473e+00
    7.8552689516422202e-03 -1.0571882797418488e+00
    7.8461649088479302e-03 -9.7259752515927467e-01
    7.9543929856801549e-03 -1.1832159566199230e+00
    7.9957478370155152e-03 -1.2176857643454877e+00
    7.8461649088479284e-03 -1.0281745265969473e+00
    7.8552689516422202e-03 -9.4590530292691744e-01
    7.8552689516422202e-03 -9.4590530292691744e-01
    7.9957478370155152e-03 -8.2122993409346845e-01
    8.1644460983469214e-03 -7.5180941155611236e-01
    8.5132614939603841e-03 -6.6332495807107994e-01
    8.5132614939603841e-03 -6.6332495807107994e-01
    9.4327497145561545e-03 -5.3452248382484868e-01
    9.6562668431543919e-03 -5.1298917604257710e-01
    1.1857708957152227e-02 -3.7796447300922725e-01
    1.4188769156600639e-02 -3.0151134457776357e-01
    1.3236910050028106e-02 -3.2816506165694681e-01
    1.3236910050028106e-02 -3.2816506165694681e-01
    1.5426589121171381e-02 -2.7317918235407651e-01
    1.7120161767270561e-02 -2.4253562503633294e-01 1. 0.
    1.9624886028901153e-02 -2.0851441405707474e-01
    1.7120161767270561e-02 -2.4253562503633294e-01
    1.5426589121171381e-02 -2.7317918235407651e-01
    1.5426589121171381e-02 -2.7317918235407651e-01
    1.5426589121171381e-02 -2.7317918235407651e-01
    1.5426589121171381e-02 -2.7317918235407651e-01
    1.5426589121171381e-02 -2.7317918235407651e-01
    1.5426589121171381e-02 -2.7317918235407651e-01
    1.4188769156600639e-02 -3.0151134457776357e-01
    1.5426589121171381e-02 -2.7317918235407651e-01
    1.4188769156600639e-02 -3.0151134457776357e-01
    1.3236910050028106e-02 -3.2816506165694681e-01
    1.1857708957152227e-02 -3.7796447300922725e-01
    1.1339566996270572e-02 -4.0160966445124940e-01
    1.0900114397395523e-02 -4.2465029006520061e-01
    9.2339285670738156e-03 -5.5595944914256934e-01
    8.4106654409576379e-03 -6.8511878904467427e-01
    7.9198971311042043e-03 -8.6953870585248250e-01
    8.2370818728222817e-03 -7.2932495748947290e-01
    8.4106654409576379e-03 -6.8511878904467427e-01
    7.8920046264698458e-03 -8.9442719099991586e-01
    8.1644460983469214e-03 -7.5180941155611236e-01
    7.8461649088479284e-03 -1.0281745265969473e+00
    8.2370818728222817e-03 -7.2932495748947290e-01
    7.8552689516422202e-03 -9.4590530292691744e-01
    8.1644460983469214e-03 -7.5180941155611236e-01
    8.0442759853862084e-03 -7.9772403521746571e-01
    8.2370818728222817e-03 -7.2932495748947290e-01
    8.4106654409576379e-03 -6.8511878904467427e-01
    8.6277505602655180e-03 -6.4168894791974795e-01
    9.9086457366154793e-03 -4.9130368444051753e-01
    1.0900114397395523e-02 -4.2465029006520061e-01
    1.5426589121171381e-02 -2.7317918235407651e-01
    1.5426589121171381e-02 -2.7317918235407651e-01
    1.5426589121171381e-02 -2.7317918235407651e-01
    1.7120161767270561e-02 -2.4253562503633294e-01
    1.7120161767270561e-02 -2.4253562503633294e-01
    1.7120161767270561e-02 -2.4253562503633294e-01
    1.7120161767270561e-02 -2.4253562503633294e-01
    3.3509129172532327e-02 -1.1867816581938533e-01
    1.7120161767270561e-02 -2.4253562503633294e-01
    1.7120161767270561e-02 -2.4253562503633294e-01
    1.7120161767270561e-02 -2.4253562503633294e-01
    1.9624886028901153e-02 -2.0851441405707474e-01
    2.3863178957040466e-02 -1.6903085094570330e-01
    1.9624886028901153e-02 -2.0851441405707474e-01
    1.9624886028901153e-02 -2.0851441405707474e-01
    1.9624886028901153e-02 -2.0851441405707474e-01
    1.5426589121171381e-02 -2.7317918235407651e-01
    1.7120161767270561e-02 -2.4253562503633294e-01
    1.7120161767270561e-02 -2.4253562503633294e-01
    1.5426589121171381e-02 -2.7317918235407651e-01
    1.7120161767270561e-02 -2.4253562503633294e-01
    1.7120161767270561e-02 -2.4253562503633294e-01
    1.5426589121171381e-02 -2.7317918235407651e-01
    1.0195173807164032e-02 -4.6940279403817725e-01
    1.0900114397395523e-02 -4.2465029006520061e-01
    1.0522672835293128e-02 -4.4721359549995793e-01
    1.0522672835293128e-02 -4.4721359549995793e-01
    8.5132614939603841e-03 -6.6332495807107994e-01
    8.7553930298264783e-03 -6.2017367294604220e-01
    1.1857708957152227e-02 -3.7796447300922725e-01
    9.4327497145561545e-03 -5.3452248382484868e-01
    8.1644460983469214e-03 -7.5180941155611236e-01
    8.6277505602655180e-03 -6.4168894791974795e-01
    8.3189033080770299e-03 -7.0710678118654757e-01
    8.3189033080770299e-03 -7.0710678118654757e-01
    8.4106654409576379e-03 -6.8511878904467427e-01
    8.7553930298264783e-03 -6.2017367294604220e-01
    9.6562668431543919e-03 -5.1298917604257710e-01
    1.2478354962115544e-02 -3.5355339059327373e-01
    1.5426589121171381e-02 -2.7317918235407651e-01
    1.5426589121171381e-02 -2.7317918235407651e-01
    1.5426589121171381e-02 -2.7317918235407651e-01
    1.7120161767270561e-02 -2.4253562503633294e-01
    1.9624886028901153e-02 -2.0851441405707474e-01
    1.9624886028901153e-02 -2.0851441405707474e-01
    1.9624886028901153e-02 -2.0851441405707474e-01
    1.7120161767270561e-02 -2.4253562503633294e-01</input_scale>
  <output_scale>
    1.0526315789473684e+00 0.</output_scale>
  <inv_output_scale>
    9.4999999999999996e-01 0.</inv_output_scale>
  <weights>
    <_>
      -1.1719048386403424e-03 -2.2903224389177911e-04
      -9.9637750405231888e-04 -5.5088375721748159e-04
      2.2039270841974236e-04 1.2144499427915077e-03
      9.9728247011042037e-04 2.0453599492093418e-04
      -7.2831549546728146e-04 -4.2920232853557353e-04
      -1.1054717958401724e-03 -1.2409612586460942e-04
      -2.1397120762249158e-05 -7.8018402384446585e-04
      6.7194088742161514e-04 -1.1208781013474275e-03
      1.1037170489498088e-03 1.0083693640301039e-03
      -2.5698247005999147e-04 -3.4383640164285737e-05
      3.0002183913935715e-04 -7.7645728251324352e-04
      -6.5397802009701264e-04 9.5527311481024093e-04
      -1.0954164450422850e-03 -3.1663012947851025e-04
      6.1523554708813478e-04 -6.3403300196013517e-04
      1.0630743572223426e-03 -2.4215284090006096e-04
      1.2150750992007805e-03 -3.7732545206526025e-04
      2.2581237915161135e-04 8.1166924113520002e-04
      1.1322676431532379e-03 5.1786688077618958e-04
      8.1904968067006900e-04 5.2277548999592920e-04
      1.2256443938238879e-03 -1.5902424652943092e-04
      -7.6424925426649137e-01 -2.0932071422955181e-02
      -2.6212973680524936e-02 -4.7388923898819737e-03
      2.3838047242387275e-02 2.0169183361196552e-02
      -3.9588454633585329e-03 2.2749327458293306e-02
      2.9924733475015706e-02 -2.7004142887888143e-02
      7.6888544934599953e-03 -2.1185180486713945e-02
      5.0528601338409229e-03 1.5166855234553453e-02
      3.4996632672009122e-02 1.2061230638468794e-02
      2.9022527097243296e-02 -1.9444559874814298e-02
      2.5091407943977719e-02 -2.5366397419696186e-02
      2.1599501638593074e-02 1.6581258236021561e-02
      -3.1457547413373844e-02 -2.4065290661818374e-02
      1.1641619247006713e-02 -7.8335812176439784e-03
      -2.2740688908981524e-02 2.3597705056765859e-02
      -3.1829764518083573e-03 1.1594925287012418e-02
      2.5178909007417725e-02 2.2328811186946011e-02
      -2.7791176145072826e-02 -6.5056949379456424e-03
      -1.7215596964186598e-02 1.9390200540055962e-02
      -2.4301384942948680e-02 -1.2676297344941686e-02
      1.8848514093560389e-02 2.4287724504607720e-02
      2.0660776845766483e-02 -1.7273490480664408e-03
      1.5454873221169492e-02 -1.8973705418347986e-03
      -1.4823794670136429e-02 -7.1822685496625823e-03
      3.3710019365266151e-03 -1.4357933339236323e-02
      -5.2146924847478729e-03 -3.4796189773106531e-04
      -5.5973608855851295e-03 1.2470429723139512e-02
      -3.2384947441684848e-03 -6.7734804415285786e-03
      -5.2833512975159480e-03 -6.3444901293449396e-03
      -4.6017471551125242e-03 1.1591360884536597e-02
      -5.0078140274881352e-04 8.6320829291735559e-04
      -1.1682262231817718e-02 -4.4653992396531629e-03
      4.5080136891844863e-03 1.5441580020578405e-02
      -5.5435084907814571e-03 3.5743808986717761e-03
      -2.1937535280257981e-03 6.9984431803252873e-04
      -6.6402301171844561e-06 -6.1908453586238957e-03
      -1.0518747525027686e-02 1.6479711197927151e-03
      -3.4576578459676337e-04 -7.5332660845226439e-04
      8.9508509813251876e-03 -5.7415931789729273e-03
      1.4088263165034060e-02 4.1218286161614119e-03
      6.9040896315725027e-05 -1.4930683737321803e-02
      -2.1746685697709112e-01 3.2135155021230037e-02
      1.7593587303026594e-02 9.4838527881746307e-03
      -1.3476001813577054e-02 1.5673726838151693e-02
      -9.7766172433861754e-03 -1.1786148692464847e-02
      1.3629380243975324e-02 3.6252808969813706e-02
      1.2476995325650147e-02 1.1455552253392254e-02
      1.1536811722600369e-02 -8.0975350255258483e-03
      1.6070622540927285e-02 1.3777550475446911e-02
      1.3549359608304610e-02 9.0662170697791613e-03
      -3.6886492566945824e-02 3.6026231226939202e-02
      -9.5454036886183872e-03 1.2318170755273422e-02
      -1.3130627550146538e-02 1.7388852337982111e-02
      1.4245427908532653e-02 -8.5766708634278186e-03
      3.2916080982131904e-02 -3.4756091389779760e-02
      1.0611610267076566e-02 1.3997543560610304e-02
      -2.0463447142563089e-02 -3.1328055229412857e-02
      3.8328027808695556e-02 8.2431886491976351e-03
      7.8650244601128072e-03 1.4716705032607245e-02
      1.7739218727402247e-02 8.4877393856092904e-03
      -2.7825874980206538e-02 -1.5777098965731363e-02
      -3.3338465515108806e-01 9.7464835308529660e-03
      -2.1121525993970675e-03 -2.3018638589943742e-03
      1.4849256120670882e-03 6.7738137503900930e-03
      1.7190939664206951e-03 3.6357491631283266e-03
      1.6227636463370488e-02 9.9149318644900074e-03
      6.0423994657605117e-04 -3.5350458359804690e-03
      1.6786765073194097e-04 2.3145680113730296e-03
      2.1556568925924620e-02 8.3121150660288756e-04
      1.7897337755355808e-02 -3.1799060192232373e-03
      -9.3963043338942467e-03 1.0111099128246002e-02
      2.2238612757028140e-03 4.4534497735187924e-03
      -1.9135445661916540e-02 -1.1561022622798309e-03
      2.7021444056205650e-03 -2.2946433647709963e-03
      8.5843194089777319e-03 -8.0227326045530512e-03
      -2.6051212321033267e-03 1.4747358393818757e-03
      1.4992278951763316e-03 -8.4607742821494192e-03
      9.9220896880391329e-03 -2.2120611856221678e-03
      -4.2510119785928897e-03 6.8469321745917126e-03
      -2.3733602514601593e-03 -1.6437500921457650e-03
      -8.2209876341326499e-03 3.1110169477288601e-03
      -3.3295889098512144e-01 8.3754908783999077e-03
      -1.2613855292427738e-03 -1.6719352051842292e-03
      2.6290118308171205e-03 5.4244127275974684e-03
      1.2082659028555501e-03 3.1782385850020771e-03
      1.6380501613692689e-02 1.0129106116481558e-02
      -6.3638438411277158e-04 -3.9433248198289458e-03
      3.6174266159394946e-04 1.9083706124718625e-03
      2.3156146197486620e-02 1.2895097270356809e-03
      1.7197594268217070e-02 -4.5774999015635778e-03
      -1.1319921848840803e-02 9.9593050399000779e-03
      2.2334455541907143e-03 5.8440342606668819e-03
      -1.7707874500354059e-02 -1.0432580362026763e-03
      7.1174479178635777e-04 -2.9899578006726112e-03
      1.0185891938208127e-02 -8.7791217288596905e-03
      -2.1111845342384060e-03 1.7495707534126181e-03
      8.5224424816232429e-04 -8.5594413007648168e-03
      1.1399127060718385e-02 -1.3130404255799781e-03
      -3.0412704426414786e-03 6.7531059056578305e-03
      -1.5944673182823974e-03 -1.6569568201553148e-03
      -7.1653370779447200e-03 1.6853643927451213e-03
      -2.1668660188869021e-01 3.0706463559122071e-02
      1.8060013246167982e-02 1.0210698666678975e-02
      -1.5210294738631613e-02 1.5514068746555702e-02
      -1.1470357060908576e-02 -1.2302973596398830e-02
      1.4072257025719669e-02 3.7056528611817928e-02
      1.1984236586723559e-02 1.1330292064110082e-02
      1.0977013159580796e-02 -7.2264244934261224e-03
      1.7176735389647549e-02 1.4155866746935097e-02
      1.1842663761760523e-02 7.1399188204470448e-03
      -3.6529777336729172e-02 3.7988464648852048e-02
      -1.0087877237322988e-02 1.3924909029219555e-02
      -1.3140423108515577e-02 1.7140226883967047e-02
      1.1982882422476530e-02 -7.5129057194373294e-03
      3.3272051080306141e-02 -3.2780439759119553e-02
      8.7378096138253612e-03 1.3912055245016057e-02
      -2.0346924345633038e-02 -3.1729878484774446e-02
      3.7669743859441371e-02 8.1890239151792537e-03
      8.2024999229312577e-03 1.5707914358525331e-02
      1.6308986212271344e-02 8.7281685348406125e-03
      -2.9418458494832090e-02 -1.4953903359341153e-02
      -2.1649304562765059e-01 3.0688920531361373e-02
      1.5831437714230488e-02 8.9194968531782128e-03
      -1.5091681978404230e-02 1.7074517657798140e-02
      -9.8809743827566483e-03 -1.0966538944063900e-02
      1.4473783395829920e-02 3.6793575297054591e-02
      1.3475436825340949e-02 1.2086241441685889e-02
      1.0030895244509237e-02 -6.6980642149917667e-03
      1.7362392477024147e-02 1.2392896320386784e-02
      1.1616500724300559e-02 8.5146170927482712e-03
      -3.6815029866183423e-02 3.7625566452206070e-02
      -9.6497839706579675e-03 1.2288869324429168e-02
      -1.3496926340134739e-02 1.8236600293134043e-02
      1.3083509329829031e-02 -9.7329336297248999e-03
      3.2039160131663899e-02 -3.4576325276801496e-02
      1.0040540359339607e-02 1.3471177010267265e-02
      -2.2083122921391241e-02 -3.2882189095842465e-02
      3.7960212366951712e-02 8.5604460248137892e-03
      7.4843408760814608e-03 1.5382603580638090e-02
      1.7601981152622664e-02 7.5036523136013415e-03
      -2.7478852530702865e-02 -1.4537347159198279e-02
      -3.2661133626216254e-01 2.5578048680315321e-02
      1.3804639163026855e-02 1.1340860881481247e-02
      -1.2229970144314206e-02 1.9952186421164714e-02
      -1.2860297435175435e-02 -9.3642704387034044e-03
      1.9580166421022168e-02 2.2549402685955993e-02
      1.2983166144745156e-02 8.7920812443438752e-03
      1.1994328103744135e-02 -7.6650645418488714e-03
      2.5002676643129065e-02 1.4181811371552432e-02
      1.9127360837333962e-02 5.5880531317065111e-03
      -2.3780454310115745e-02 2.3060456870498246e-02
      -7.6380236080222912e-03 1.4813947595711105e-02
      -1.9948071739132489e-02 1.3200257271536139e-02
      1.4275193704142649e-02 -1.1332017481264051e-02
      2.5776417184932406e-02 -2.5194003995821508e-02
      9.3777439183638060e-03 1.6271072491596608e-02
      -1.7099020586205632e-02 -2.4985877853874124e-02
      2.1848056280813367e-02 9.5275456337869414e-03
      4.8957221399447866e-03 1.7990182327054138e-02
      1.4500371925435195e-02 6.6333752092397674e-03
      -2.4247218545760528e-02 -1.1264511957343458e-02
      -2.1652725316249249e-01 3.0360186391560472e-02
      1.7464200708265720e-02 8.8156972909136464e-03
      -1.4371065986099465e-02 1.6298868265441333e-02
      -1.0932728049485979e-02 -1.1598709312000114e-02
      1.2108792968757505e-02 3.7174046173258014e-02
      1.2475655457689118e-02 1.1867665667730861e-02
      1.0336540228645255e-02 -6.9043985402795736e-03
      1.7830291452906488e-02 1.2377089111699491e-02
      1.3359555896971249e-02 9.4767823009929818e-03
      -3.6025478903113070e-02 3.7900808769661516e-02
      -1.0012792649691560e-02 1.3177875041189667e-02
      -1.5339910937680726e-02 1.7590547422828562e-02
      1.4179311355183992e-02 -8.1107267357059670e-03
      3.3127480506038129e-02 -3.3275993569670696e-02
      8.7842729481378678e-03 1.3744778301338521e-02
      -2.1042367653113476e-02 -3.2984249126455728e-02
      3.7196867496341296e-02 9.0869864229814936e-03
      7.3524922569622479e-03 1.3343482580521647e-02
      1.7441973755381670e-02 8.6125088438678919e-03
      -2.9571288396788954e-02 -1.5286137105706381e-02
      -3.2606587909344370e-01 2.4598964886470249e-02
      1.4085674827389892e-02 1.0558801768834595e-02
      -1.0187237365055017e-02 1.9895587332276175e-02
      -1.2919599001215165e-02 -9.1402303518209327e-03
      2.0511973891371979e-02 2.3277690704801016e-02
      1.4752064539670756e-02 7.5958944161853793e-03
      1.2988928831447862e-02 -5.6316860173511408e-03
      2.5190759984235644e-02 1.4049812916884992e-02
      1.8941250761713678e-02 5.0588156611137969e-03
      -2.3753674765062169e-02 2.2278468798910638e-02
      -8.6928384548730312e-03 1.6552474562530277e-02
      -2.0030593693480085e-02 1.4761549357202385e-02
      1.4544468895035873e-02 -1.0044050313086229e-02
      2.4455039873820354e-02 -2.5343859687414295e-02
      1.0125053948115172e-02 1.5453454948383325e-02
      -1.6714877236695416e-02 -2.4859705545405657e-02
      2.1812596936753612e-02 9.0900932060916043e-03
      4.5732932827707391e-03 1.6988427553485941e-02
      1.4313013782832663e-02 8.0780525856267559e-03
      -2.3940520334271409e-02 -1.1730037029119721e-02
      -3.2749488653941100e-01 2.5669443932428589e-02
      1.4704935820895335e-02 1.0258826861809506e-02
      -1.2334688758795410e-02 1.8691453115882408e-02
      -1.2374881061813366e-02 -7.6280971246003399e-03
      1.9907932100457430e-02 2.1934334721900779e-02
      1.4155945589841184e-02 7.5180511258196520e-03
      1.3173096610064852e-02 -7.6351983597380147e-03
      2.4781935869934865e-02 1.5850088584923296e-02
      1.8527776956547049e-02 6.9771359623020919e-03
      -2.2512091000810659e-02 2.4478075612337474e-02
      -7.4545914726039716e-03 1.5867003219857487e-02
      -2.2156223651347798e-02 1.5013649025140309e-02
      1.5253640207290926e-02 -9.9100213255324983e-03
      2.5086282204072698e-02 -2.5893522857727010e-02
      1.0977967999870204e-02 1.4404547342220610e-02
      -1.6094231946990584e-02 -2.4264102568779960e-02
      2.2634152784020752e-02 8.8099287373972265e-03
      6.7390224057981779e-03 1.7626841724437174e-02
      1.4223091193089416e-02 6.1202535009696035e-03
      -2.2582618658498244e-02 -1.1491423161196541e-02
      -3.2597927872170646e-01 2.3569907958094695e-02
      1.3372358971995775e-02 1.1524557646850892e-02
      -1.0316526248141382e-02 1.8367847456995372e-02
      -1.1769502952474567e-02 -8.0500431242802248e-03
      2.0928640431157806e-02 2.2062895913624061e-02
      1.2651615518775037e-02 9.3498881118589897e-03
      1.1487619188154533e-02 -6.2636717507915307e-03
      2.5699056861331331e-02 1.5557043571816561e-02
      1.8568948915942778e-02 6.7837945699890899e-03
      -2.3706742199085196e-02 2.3068626350095166e-02
      -7.4645133055846347e-03 1.4562287063285415e-02
      -2.0717131780770909e-02 1.4734261310696361e-02
      1.3783883429518744e-02 -1.0807941895317223e-02
      2.4841209013272900e-02 -2.4866525157644252e-02
      1.0057561365133373e-02 1.4832369495130317e-02
      -1.7280162206697321e-02 -2.4899873347978340e-02
      2.3096306416243852e-02 9.3600369214257122e-03
      5.6516278238991800e-03 1.7363588429867478e-02
      1.2681893130517758e-02 6.9471139303206395e-03
      -2.2392505446925517e-02 -1.3070301951265099e-02
      1.9186235816284650e-01 2.9546883016842176e-02
      1.7227786289368701e-02 6.5957832364280421e-03
      -1.4830813177163697e-02 2.2012144177583986e-03
      -5.8195006496904768e-03 -1.0289669560780722e-02
      -7.2449581422510340e-03 2.5361017093799475e-02
      5.0672717549589113e-03 1.0624552891070265e-02
      6.1707265491266266e-03 -9.7322951428578663e-03
      -1.1082553720304075e-02 4.2292497582976478e-03
      -8.2298963953400285e-03 8.1590698983792578e-03
      -2.7344933135856501e-02 2.7594512883107172e-02
      -1.1915461872935434e-02 1.3743900260674996e-03
      7.6190025584076141e-03 1.7568046005952319e-02
      4.5783690652102431e-03 -1.8649259244090072e-04
      3.0565627746093123e-02 -2.8411637416433849e-02
      5.8304203469043718e-03 5.1446076701935368e-03
      -2.0098226736682486e-02 -3.0205831650551202e-02
      2.4855193252895806e-02 8.2703714985034957e-03
      8.1889833980509450e-03 -1.7156172333848810e-04
      1.5564980403449051e-02 8.1289644490330510e-03
      -2.9717279783916209e-02 -1.4790699805419274e-02
      -2.7794225439785847e-01 1.7958856578687600e-02
      1.7643838963080794e-02 7.3992623494120169e-03
      -1.7828024910357749e-02 8.2415137432622302e-03
      -5.8094084447632664e-03 -1.4393649183789239e-02
      6.4214589113785149e-03 2.2024902883750627e-02
      6.8666909779552913e-03 1.5027269404262078e-02
      7.1519683450839682e-03 -7.3847245141614370e-03
      6.1365703907949078e-03 6.1352333384030715e-03
      5.1490654982603743e-03 1.1567403023189590e-02
      -2.0737419336453341e-02 2.1849118985885284e-02
      -1.3077105764036966e-02 6.5590645862916340e-03
      -5.4867619818275313e-03 1.8353669599134471e-02
      6.2061393856952312e-03 -4.2324858990373370e-03
      1.8550910931539610e-02 -1.8720633224339204e-02
      5.7922413647604415e-03 6.5912640873591914e-03
      -1.6602312096514093e-02 -1.7732900454741556e-02
      2.2542733487401302e-02 7.3601667544072940e-03
      1.0218986354763791e-02 6.3734447945452541e-03
      1.7468998479502344e-02 8.5642756849363556e-03
      -1.6942595661551887e-02 -1.8564373478735737e-02
      6.8417086193443133e-01 -3.2140948357441752e-02
      -4.1571809791200488e-02 -1.6018962526053681e-02
      3.7195639970671206e-02 -1.3988733812190172e-02
      1.5503923921791521e-02 3.4598139240272573e-02
      -4.4214348831561343e-03 -3.8311130331655188e-02
      -1.5632569107600823e-02 -3.5436022174795301e-02
      -1.5176247069663694e-02 2.3703477827750046e-02
      -1.1989844144412400e-03 -1.7094641525956775e-02
      -3.1796496533840974e-03 -3.1682905124542644e-02
      3.7688049353811669e-02 -3.8734229812954102e-02
      3.2538042252752017e-02 -1.2140945410166162e-02
      2.4227309792338512e-03 -4.0291800083116461e-02
      -1.6787365318470710e-02 1.0385956412681486e-02
      -3.3621462609762523e-02 3.6573598935978828e-02
      -1.3960819575906686e-02 -1.6936928110563642e-02
      4.0575699117612544e-02 3.1986007507132153e-02
      -3.8136960387300245e-02 -1.5433521977936899e-02
      -2.7525616552394723e-02 -1.3454279708977527e-02
      -4.0588737964867221e-02 -2.0406240015134983e-02
      3.0338963739119609e-02 3.9082977918700926e-02
      6.8339233346557615e-01 -3.1844804652618519e-02
      -4.0420894888034006e-02 -1.4287521108171745e-02
      3.7592807441619032e-02 -1.5851500648653545e-02
      1.5393341349030726e-02 3.3853913533436794e-02
      -3.7409701096076772e-03 -3.8901621419027317e-02
      -1.7006903910674050e-02 -3.3289778914936292e-02
      -1.5543668313310140e-02 2.5183306075826060e-02
      -2.7133837008127800e-03 -1.5801276867148051e-02
      -2.7211651969263921e-03 -2.9760265921372823e-02
      3.9433000483212639e-02 -3.7209986102927473e-02
      3.2594114458424701e-02 -1.4133961365324722e-02
      2.4943314286188551e-03 -4.0455731525531335e-02
      -1.6161228401254914e-02 1.0000781194531376e-02
      -3.4256965091546653e-02 3.6813068788893552e-02
      -1.5787924640003895e-02 -1.5649434697607795e-02
      4.0534287141800927e-02 3.4127621761006484e-02
      -3.8713508453512201e-02 -1.6673089440652985e-02
      -2.6979527416975027e-02 -1.2376600561437577e-02
      -4.0317795424399422e-02 -2.2434332427471882e-02
      3.0244990629798064e-02 3.8957725002500290e-02
      -4.7349418343048427e-04 4.9407763717173691e-04
      -1.4947955601538998e-05 -6.0405998552800968e-04
      8.7587241765668482e-04 -1.1551985943962311e-03
      5.8375464454631099e-04 -1.2289870768915792e-03
      -5.2893152915763205e-04 -4.0594988705829391e-04
      -4.8612965124038922e-04 -7.9101746860447725e-04
      2.2229348581299566e-04 1.0747041817950815e-03
      8.2058340025619239e-04 -8.6859745154712947e-04
      3.0144024765250976e-04 1.1521363763472147e-03
      6.3380642539112965e-04 -5.9511656907647141e-04
      7.7257823735759202e-04 8.3627098218526190e-04
      -1.0957742459373478e-03 1.9387142677419216e-04
      -8.3048399593597336e-04 1.0834177606126149e-03
      -1.2219184550069577e-03 5.4154151553535865e-05
      8.8640926615739604e-04 -1.1897417104257050e-03
      8.1460266760867124e-04 -5.2555614364662806e-04
      -1.0467511008256298e-03 6.6281595458792940e-04
      1.0199272449838014e-03 8.6943051960598078e-04
      1.2015010382165057e-03 3.0089124071448672e-04
      1.1215983451558428e-03 1.0102593102785040e-03
