<?xml version="1.0"?>
<opencv_storage>
<shapeML type_id="opencv-ml-ann-mlp">
  <layer_sizes type_id="opencv-matrix">
    <rows>1</rows>
    <cols>3</cols>
    <dt>i</dt>
    <data>
      1600 40 1</data></layer_sizes>
  <activation_function>SIGMOID_SYM</activation_function>
  <f_param1>5.9999999999999998e-01</f_param1>
  <f_param2>1.</f_param2>
  <min_val>-9.4999999999999996e-01</min_val>
  <max_val>9.4999999999999996e-01</max_val>
  <min_val1>-9.7999999999999998e-01</min_val1>
  <max_val1>9.7999999999999998e-01</max_val1>
  <training_params>
    <train_method>BACKPROP</train_method>
    <dw_scale>1.0000000000000001e-01</dw_scale>
    <moment_scale>1.0000000000000001e-01</moment_scale>
    <term_criteria><epsilon>9.9999999747524271e-07</epsilon>
      <iterations>4000</iterations></term_criteria></training_params>
  <input_scale>
    1. 0. 3.3278914220683117e-02 -1.1952286093343936e-01
    3.3278914220683117e-02 -1.1952286093343936e-01
    3.3278914220683117e-02 -1.1952286093343936e-01
    1.9494095287448762e-02 -2.1004201260420147e-01
    1.9494095287448762e-02 -2.1004201260420147e-01
    3.3278914220683117e-02 -1.1952286093343936e-01
    3.3278914220683117e-02 -1.1952286093343936e-01
    2.3701652425047511e-02 -1.7025130615174974e-01
    3.3278914220683117e-02 -1.1952286093343936e-01
    2.3701652425047511e-02 -1.7025130615174974e-01
    2.3701652425047511e-02 -1.7025130615174974e-01
    2.3701652425047511e-02 -1.7025130615174974e-01
    1.7007903037838570e-02 -2.4433888871261045e-01
    1.9494095287448762e-02 -2.1004201260420147e-01
    1.3154645874340752e-02 -3.3071891388307384e-01
    1.3154645874340752e-02 -3.3071891388307384e-01 1. 0.
    2.3701652425047511e-02 -1.7025130615174974e-01
    9.8563637458313723e-03 -4.9559462778335212e-01
    8.7180244445187495e-03 -6.2622429108514965e-01
    1.0139872527799082e-02 -4.7343207647399937e-01
    1.2402319069138648e-02 -3.5634832254989918e-01
    1.3154645874340752e-02 -3.3071891388307384e-01 1. 0.
    3.3278914220683117e-02 -1.1952286093343936e-01
    2.3701652425047511e-02 -1.7025130615174974e-01
    1.7007903037838570e-02 -2.4433888871261045e-01
    1.9494095287448762e-02 -2.1004201260420147e-01
    1.9494095287448762e-02 -2.1004201260420147e-01
    1.5327142612543452e-02 -2.7524094128159016e-01
    2.3701652425047511e-02 -1.7025130615174974e-01
    1.9494095287448762e-02 -2.1004201260420147e-01
    2.3701652425047511e-02 -1.7025130615174974e-01
    1.7007903037838570e-02 -2.4433888871261045e-01
    1.7007903037838570e-02 -2.4433888871261045e-01
    3.3278914220683117e-02 -1.1952286093343936e-01
    3.3278914220683117e-02 -1.1952286093343936e-01
    3.3278914220683117e-02 -1.1952286093343936e-01
    3.3278914220683117e-02 -1.1952286093343936e-01
    3.3278914220683117e-02 -1.1952286093343936e-01
    2.3701652425047511e-02 -1.7025130615174974e-01
    3.3278914220683117e-02 -1.1952286093343936e-01
    2.3701652425047511e-02 -1.7025130615174974e-01
    1.7007903037838570e-02 -2.4433888871261045e-01
    1.7007903037838570e-02 -2.4433888871261045e-01
    1.7007903037838570e-02 -2.4433888871261045e-01
    1.7007903037838570e-02 -2.4433888871261045e-01
    1.7007903037838570e-02 -2.4433888871261045e-01
    1.7007903037838570e-02 -2.4433888871261045e-01
    1.1273356753471185e-02 -4.0488816508945807e-01
    1.1786939891520949e-02 -3.8100038100057154e-01
    1.1273356753471185e-02 -4.0488816508945807e-01
    9.6067950418249320e-03 -5.1754916950676566e-01
    9.1896046472344940e-03 -5.6108360768678212e-01
    8.7180244445187495e-03 -6.2622429108514965e-01
    8.7180244445187495e-03 -6.2622429108514965e-01
    8.1400156040260224e-03 -7.6011695006609192e-01
    8.0781134463101603e-03 -7.8334945180064020e-01
    8.4802525833324038e-03 -6.7005939426048999e-01
    7.9780090410488131e-03 -8.3094896983881650e-01
    8.4802525833324038e-03 -6.7005939426048999e-01
    8.4802525833324038e-03 -6.7005939426048999e-01
    8.8580819943686710e-03 -6.0447052482698882e-01
    9.3859196539000378e-03 -5.3935988997059370e-01
    1.0139872527799082e-02 -4.7343207647399937e-01
    1.3154645874340752e-02 -3.3071891388307384e-01
    1.3154645874340752e-02 -3.3071891388307384e-01
    1.2402319069138648e-02 -3.5634832254989918e-01
    1.2402319069138648e-02 -3.5634832254989918e-01
    1.3154645874340752e-02 -3.3071891388307384e-01
    1.3154645874340752e-02 -3.3071891388307384e-01
    1.3154645874340752e-02 -3.3071891388307384e-01
    1.3154645874340752e-02 -3.3071891388307384e-01
    1.3154645874340752e-02 -3.3071891388307384e-01
    1.4098920600576536e-02 -3.0382181012510001e-01
    2.3701652425047511e-02 -1.7025130615174974e-01
    2.3701652425047511e-02 -1.7025130615174974e-01
    2.3701652425047511e-02 -1.7025130615174974e-01
    1.9494095287448762e-02 -2.1004201260420147e-01 1. 0.
    2.3701652425047511e-02 -1.7025130615174974e-01
    2.3701652425047511e-02 -1.7025130615174974e-01
    2.3701652425047511e-02 -1.7025130615174974e-01
    1.7007903037838570e-02 -2.4433888871261045e-01
    1.4098920600576536e-02 -3.0382181012510001e-01
    1.3154645874340752e-02 -3.3071891388307384e-01
    1.4098920600576536e-02 -3.0382181012510001e-01
    1.0464091762392323e-02 -4.5098761680169730e-01
    1.0837926477542770e-02 -4.2817441928883765e-01
    9.3859196539000378e-03 -5.3935988997059370e-01
    9.3859196539000378e-03 -5.3935988997059370e-01
    8.4802525833324038e-03 -6.7005939426048999e-01
    8.0781134463101603e-03 -7.8334945180064020e-01
    8.1400156040260224e-03 -7.6011695006609192e-01
    7.8815362180653242e-03 -9.0582162731567673e-01
    7.8815362180653242e-03 -9.0582162731567673e-01
    7.8815362180653242e-03 -9.0582162731567673e-01
    7.8439153053234869e-03 -9.8601329718326924e-01
    8.1400156040260224e-03 -7.6011695006609192e-01
    7.8815362180653242e-03 -9.0582162731567673e-01
    7.9780090410488131e-03 -8.3094896983881650e-01
    8.3797995775388382e-03 -6.9221865524317305e-01
    8.3797995775388382e-03 -6.9221865524317305e-01
    7.9780090410488131e-03 -8.3094896983881650e-01
    7.9780090410488131e-03 -8.3094896983881650e-01
    8.8580819943686710e-03 -6.0447052482698882e-01
    9.6067950418249320e-03 -5.1754916950676566e-01
    9.6067950418249320e-03 -5.1754916950676566e-01
    1.0837926477542770e-02 -4.2817441928883765e-01
    1.1273356753471185e-02 -4.0488816508945807e-01
    1.1786939891520949e-02 -3.8100038100057154e-01
    1.0837926477542770e-02 -4.2817441928883765e-01
    1.1273356753471185e-02 -4.0488816508945807e-01
    1.1786939891520949e-02 -3.8100038100057154e-01
    1.1786939891520949e-02 -3.8100038100057154e-01
    1.7007903037838570e-02 -2.4433888871261045e-01
    1.7007903037838570e-02 -2.4433888871261045e-01
    2.3701652425047511e-02 -1.7025130615174974e-01
    3.3278914220683117e-02 -1.1952286093343936e-01 1. 0.
    3.3278914220683117e-02 -1.1952286093343936e-01
    2.3701652425047511e-02 -1.7025130615174974e-01
    1.9494095287448762e-02 -2.1004201260420147e-01
    1.4098920600576536e-02 -3.0382181012510001e-01
    1.4098920600576536e-02 -3.0382181012510001e-01
    1.3154645874340752e-02 -3.3071891388307384e-01
    9.6067950418249320e-03 -5.1754916950676566e-01
    9.6067950418249320e-03 -5.1754916950676566e-01
    8.8580819943686710e-03 -6.0447052482698882e-01
    8.8580819943686710e-03 -6.0447052482698882e-01
    7.9389965381110334e-03 -8.5539892276830154e-01
    8.0781134463101603e-03 -7.8334945180064020e-01
    7.9069196532434508e-03 -8.8034084308295035e-01
    7.8815362180653242e-03 -9.0582162731567673e-01
    7.8439153053234869e-03 -9.8601329718326924e-01
    7.9780090410488131e-03 -1.2034433356286307e+00
    7.9780090410488131e-03 -1.2034433356286307e+00
    7.8501480558542495e-03 -1.0431851677040120e+00
    7.8626582598957367e-03 -9.3189111629609322e-01
    7.9069196532434508e-03 -1.1359236684941296e+00
    7.8815362180653225e-03 -1.1039701082909807e+00
    7.8626582598957367e-03 -1.0730867399773194e+00
    7.8439153053234869e-03 -9.8601329718326924e-01
    7.8626582598957367e-03 -9.3189111629609322e-01
    7.9389965381110334e-03 -8.5539892276830154e-01
    8.1400156040260224e-03 -7.6011695006609192e-01
    7.8815362180653242e-03 -9.0582162731567673e-01
    9.3859196539000378e-03 -5.3935988997059370e-01
    9.6067950418249320e-03 -5.1754916950676566e-01
    9.3859196539000378e-03 -5.3935988997059370e-01
    9.3859196539000378e-03 -5.3935988997059370e-01
    1.1273356753471185e-02 -4.0488816508945807e-01
    1.1786939891520949e-02 -3.8100038100057154e-01
    1.0837926477542770e-02 -4.2817441928883765e-01
    1.1273356753471185e-02 -4.0488816508945807e-01
    1.2402319069138648e-02 -3.5634832254989918e-01
    1.5327142612543452e-02 -2.7524094128159016e-01
    2.3701652425047511e-02 -1.7025130615174974e-01
    3.3278914220683117e-02 -1.1952286093343936e-01 1. 0.
    3.3278914220683117e-02 -1.1952286093343936e-01
    3.3278914220683117e-02 -1.1952286093343936e-01
    1.4098920600576536e-02 -3.0382181012510001e-01
    1.2402319069138648e-02 -3.5634832254989918e-01
    1.3154645874340752e-02 -3.3071891388307384e-01
    9.8563637458313723e-03 -4.9559462778335212e-01
    9.6067950418249320e-03 -5.1754916950676566e-01
    9.1896046472344940e-03 -5.6108360768678212e-01
    8.7180244445187495e-03 -6.2622429108514965e-01
    7.9780090410488131e-03 -8.3094896983881650e-01
    7.8815362180653242e-03 -9.0582162731567673e-01
    7.9069196532434508e-03 -8.8034084308295035e-01
    7.8501480558542478e-03 -9.5860258653882158e-01
    7.8501480558542478e-03 -9.5860258653882158e-01
    7.9069196532434508e-03 -8.8034084308295035e-01
    8.0242587562746447e-03 -1.2392393980641052e+00
    7.8626582598957367e-03 -1.0730867399773194e+00
    7.8501480558542478e-03 -9.5860258653882158e-01
    7.8501480558542478e-03 -9.5860258653882158e-01
    7.8815362180653225e-03 -1.1039701082909807e+00
    7.8439153053234869e-03 -9.8601329718326924e-01
    7.8439153053234869e-03 -9.8601329718326924e-01
    7.8626582598957367e-03 -9.3189111629609322e-01
    8.0242587562746447e-03 -8.0694658478592907e-01
    7.8626582598957367e-03 -9.3189111629609322e-01
    7.8439153053234869e-03 -9.8601329718326924e-01
    7.8439153053234869e-03 -9.8601329718326924e-01
    7.9780090410488131e-03 -8.3094896983881650e-01
    8.2901734757753667e-03 -7.1458960101049640e-01
    8.7180244445187495e-03 -6.2622429108514965e-01
    9.3859196539000378e-03 -5.3935988997059370e-01
    9.3859196539000378e-03 -5.3935988997059370e-01
    1.0837926477542770e-02 -4.2817441928883765e-01
    1.0837926477542770e-02 -4.2817441928883765e-01
    1.0139872527799082e-02 -4.7343207647399937e-01
    1.3154645874340752e-02 -3.3071891388307384e-01
    1.4098920600576536e-02 -3.0382181012510001e-01
    2.3701652425047511e-02 -1.7025130615174974e-01
    3.3278914220683117e-02 -1.1952286093343936e-01 1. 0.
    3.3278914220683117e-02 -1.1952286093343936e-01
    1.7007903037838570e-02 -2.4433888871261045e-01
    1.5327142612543452e-02 -2.7524094128159016e-01
    1.3154645874340752e-02 -3.3071891388307384e-01
    9.8563637458313723e-03 -4.9559462778335212e-01
    9.1896046472344940e-03 -5.6108360768678212e-01
    9.1896046472344940e-03 -5.6108360768678212e-01
    8.2901734757753667e-03 -7.1458960101049640e-01
    7.9389965381110334e-03 -8.5539892276830154e-01
    7.9780090410488131e-03 -8.3094896983881650e-01
    7.9069196532434508e-03 -8.8034084308295035e-01
    7.8439153053234869e-03 -9.8601329718326924e-01
    8.1400156040260224e-03 -7.6011695006609192e-01
    7.9389965381110334e-03 -8.5539892276830154e-01
    7.8501480558542495e-03 -1.0431851677040120e+00
    8.4802525833324038e-03 -1.4924050144892731e+00
    7.9780090410488131e-03 -1.2034433356286307e+00
    8.2104932447040757e-03 -1.3564659966250536e+00
    7.8501480558542495e-03 -1.0431851677040120e+00
    7.8626582598957367e-03 -1.0730867399773194e+00
    8.2104932447040757e-03 -1.3564659966250536e+00
    7.8501480558542478e-03 -9.5860258653882158e-01
    7.8501480558542478e-03 -9.5860258653882158e-01
    7.9069196532434508e-03 -1.1359236684941296e+00
    7.9780090410488131e-03 -1.2034433356286307e+00
    7.9389965381110334e-03 -1.1690451944500122e+00
    7.8815362180653225e-03 -1.1039701082909807e+00
    7.9389965381110334e-03 -8.5539892276830154e-01
    8.0781134463101603e-03 -7.8334945180064020e-01
    8.3797995775388382e-03 -6.9221865524317305e-01
    8.3797995775388382e-03 -6.9221865524317305e-01
    9.3859196539000378e-03 -5.3935988997059370e-01
    9.3859196539000378e-03 -5.3935988997059370e-01
    1.0139872527799082e-02 -4.7343207647399937e-01
    1.0837926477542770e-02 -4.2817441928883765e-01
    1.2402319069138648e-02 -3.5634832254989918e-01
    1.4098920600576536e-02 -3.0382181012510001e-01
    1.7007903037838570e-02 -2.4433888871261045e-01
    3.3278914220683117e-02 -1.1952286093343936e-01 1. 0.
    2.3701652425047511e-02 -1.7025130615174974e-01
    1.7007903037838570e-02 -2.4433888871261045e-01
    1.0139872527799082e-02 -4.7343207647399937e-01
    1.0139872527799082e-02 -4.7343207647399937e-01
    9.6067950418249320e-03 -5.1754916950676566e-01
    9.0145485264530398e-03 -5.8277151741435851e-01
    8.8580819943686710e-03 -6.0447052482698882e-01
    8.0242587562746447e-03 -8.0694658478592907e-01
    7.9780090410488131e-03 -8.3094896983881650e-01
    8.0781134463101603e-03 -7.8334945180064020e-01
    7.8439153053234869e-03 -9.8601329718326924e-01
    7.8815362180653225e-03 -1.1039701082909807e+00
    7.8626582598957367e-03 -1.0730867399773194e+00
    8.4802525833324038e-03 -1.4924050144892731e+00
    8.1400156040260241e-03 -1.3155870289605440e+00
    8.1400156040260241e-03 -1.3155870289605440e+00
    8.3797995775388382e-03 -1.4446302370292308e+00
    8.5925787037713919e-03 -1.5430334996209190e+00
    8.2104932447040757e-03 -1.3564659966250536e+00
    8.1400156040260241e-03 -1.3155870289605440e+00
    7.9389965381110334e-03 -1.1690451944500122e+00
    7.8626582598957367e-03 -1.0730867399773194e+00
    7.8815362180653225e-03 -1.1039701082909807e+00
    7.8439153053234869e-03 -9.8601329718326924e-01
    7.9780090410488131e-03 -1.2034433356286307e+00
    8.0242587562746447e-03 -1.2392393980641052e+00
    7.8815362180653225e-03 -1.1039701082909807e+00
    7.8626582598957367e-03 -1.0730867399773194e+00
    7.9780090410488131e-03 -1.2034433356286307e+00
    8.0242587562746447e-03 -8.0694658478592907e-01
    8.2104932447040757e-03 -7.3720978077448562e-01
    8.4802525833324038e-03 -6.7005939426048999e-01
    9.1896046472344940e-03 -5.6108360768678212e-01
    9.1896046472344940e-03 -5.6108360768678212e-01
    1.1786939891520949e-02 -3.8100038100057154e-01
    1.2402319069138648e-02 -3.5634832254989918e-01
    1.3154645874340752e-02 -3.3071891388307384e-01
    1.7007903037838570e-02 -2.4433888871261045e-01
    2.3701652425047511e-02 -1.7025130615174974e-01 1. 0.
    1.9494095287448762e-02 -2.1004201260420147e-01
    1.7007903037838570e-02 -2.4433888871261045e-01
    9.8563637458313723e-03 -4.9559462778335212e-01
    9.6067950418249320e-03 -5.1754916950676566e-01
    1.1786939891520949e-02 -3.8100038100057154e-01
    8.4802525833324038e-03 -6.7005939426048999e-01
    7.9069196532434508e-03 -8.8034084308295035e-01
    7.9069196532434508e-03 -8.8034084308295035e-01
    8.0242587562746447e-03 -8.0694658478592907e-01
    7.8626582598957367e-03 -9.3189111629609322e-01
    8.0781134463101603e-03 -1.2765694770084508e+00
    8.2104932447040757e-03 -1.3564659966250536e+00
    8.7180244445187495e-03 -1.5968719422671316e+00
    8.5925787037713919e-03 -1.5430334996209190e+00
    8.1400156040260241e-03 -1.3155870289605440e+00
    7.9389965381110334e-03 -1.1690451944500122e+00
    8.2104932447040757e-03 -1.3564659966250536e+00
    8.2104932447040757e-03 -1.3564659966250536e+00
    8.2901734757753667e-03 -1.3994046353122220e+00
    8.0781134463101603e-03 -1.2765694770084508e+00
    7.9389965381110334e-03 -1.1690451944500122e+00
    8.7180244445187495e-03 -1.5968719422671316e+00
    8.5925787037713919e-03 -1.5430334996209190e+00
    8.2104932447040757e-03 -1.3564659966250536e+00
    7.9069196532434508e-03 -1.1359236684941296e+00
    8.0242587562746447e-03 -1.2392393980641052e+00
    8.0242587562746447e-03 -1.2392393980641052e+00
    7.8439153053234869e-03 -9.8601329718326924e-01
    7.8439153053234869e-03 -9.8601329718326924e-01
    7.8626582598957367e-03 -1.0730867399773194e+00
    7.9389965381110334e-03 -8.5539892276830154e-01
    8.2104932447040757e-03 -7.3720978077448562e-01
    8.2901734757753667e-03 -7.1458960101049640e-01
    9.3859196539000378e-03 -5.3935988997059370e-01
    1.0139872527799082e-02 -4.7343207647399937e-01
    1.1786939891520949e-02 -3.8100038100057154e-01
    1.3154645874340752e-02 -3.3071891388307384e-01
    1.5327142612543452e-02 -2.7524094128159016e-01
    1.7007903037838570e-02 -2.4433888871261045e-01
    3.3278914220683117e-02 -1.1952286093343936e-01
    1.9494095287448762e-02 -2.1004201260420147e-01
    1.5327142612543452e-02 -2.7524094128159016e-01
    1.1786939891520949e-02 -3.8100038100057154e-01
    1.0837926477542770e-02 -4.2817441928883765e-01
    9.6067950418249320e-03 -5.1754916950676566e-01
    8.0781134463101603e-03 -7.8334945180064020e-01
    7.8501480558542478e-03 -9.5860258653882158e-01
    7.8626582598957367e-03 -9.3189111629609322e-01
    7.8501480558542478e-03 -9.5860258653882158e-01
    7.8439153053234869e-03 -1.0141851056742199e+00
    8.1400156040260241e-03 -1.3155870289605440e+00
    8.0781134463101603e-03 -1.2765694770084508e+00
    8.1400156040260241e-03 -1.3155870289605440e+00
    7.9389965381110334e-03 -1.1690451944500122e+00
    7.9069196532434508e-03 -1.1359236684941296e+00
    7.9389965381110334e-03 -1.1690451944500122e+00
    8.1400156040260241e-03 -1.3155870289605440e+00
    8.0242587562746447e-03 -1.2392393980641052e+00
    8.0781134463101603e-03 -1.2765694770084508e+00
    7.8501480558542478e-03 -9.5860258653882158e-01
    8.2901734757753667e-03 -1.3994046353122220e+00
    8.2104932447040757e-03 -1.3564659966250536e+00
    8.2901734757753667e-03 -1.3994046353122220e+00
    8.1400156040260241e-03 -1.3155870289605440e+00
    8.4802525833324038e-03 -1.4924050144892731e+00
    8.3797995775388382e-03 -1.4446302370292308e+00
    7.8501480558542495e-03 -1.0431851677040120e+00
    7.8626582598957367e-03 -1.0730867399773194e+00
    7.8815362180653225e-03 -1.1039701082909807e+00
    7.8626582598957367e-03 -1.0730867399773194e+00
    7.8815362180653225e-03 -1.1039701082909807e+00
    7.8439153053234869e-03 -1.0141851056742199e+00
    7.9780090410488131e-03 -8.3094896983881650e-01
    8.3797995775388382e-03 -6.9221865524317305e-01
    1.0139872527799082e-02 -4.7343207647399937e-01
    9.8563637458313723e-03 -4.9559462778335212e-01
    1.3154645874340752e-02 -3.3071891388307384e-01
    1.5327142612543452e-02 -2.7524094128159016e-01
    1.7007903037838570e-02 -2.4433888871261045e-01 1. 0.
    1.7007903037838570e-02 -2.4433888871261045e-01
    1.5327142612543452e-02 -2.7524094128159016e-01
    1.2402319069138648e-02 -3.5634832254989918e-01
    9.3859196539000378e-03 -5.3935988997059370e-01
    7.9780090410488131e-03 -8.3094896983881650e-01
    8.0242587562746447e-03 -8.0694658478592907e-01
    7.9389965381110334e-03 -8.5539892276830154e-01
    7.8501480558542478e-03 -9.5860258653882158e-01
    7.9069196532434508e-03 -8.8034084308295035e-01
    7.8626582598957367e-03 -1.0730867399773194e+00
    7.8439153053234869e-03 -1.0141851056742199e+00
    7.9389965381110334e-03 -1.1690451944500122e+00
    8.0242587562746447e-03 -1.2392393980641052e+00
    7.9780090410488131e-03 -1.2034433356286307e+00
    8.2104932447040757e-03 -1.3564659966250536e+00
    7.9389965381110334e-03 -1.1690451944500122e+00
    8.0781134463101603e-03 -1.2765694770084508e+00
    7.8439153053234869e-03 -1.0141851056742199e+00
    7.9069196532434508e-03 -1.1359236684941296e+00
    8.1400156040260241e-03 -1.3155870289605440e+00
    7.9780090410488131e-03 -1.2034433356286307e+00
    8.2901734757753667e-03 -1.3994046353122220e+00
    8.0781134463101603e-03 -1.2765694770084508e+00
    8.2104932447040757e-03 -1.3564659966250536e+00
    8.7180244445187495e-03 -1.5968719422671316e+00
    8.1400156040260241e-03 -1.3155870289605440e+00
    8.4802525833324038e-03 -1.4924050144892731e+00
    7.9389965381110334e-03 -1.1690451944500122e+00
    7.9780090410488131e-03 -1.2034433356286307e+00
    7.9069196532434508e-03 -1.1359236684941296e+00
    7.8815362180653225e-03 -1.1039701082909807e+00
    7.8626582598957367e-03 -1.0730867399773194e+00
    7.8439153053234869e-03 -9.8601329718326924e-01
    7.9780090410488131e-03 -8.3094896983881650e-01
    8.5925787037713936e-03 -6.4807406984078608e-01
    9.8563637458313723e-03 -4.9559462778335212e-01
    1.3154645874340752e-02 -3.3071891388307384e-01
    1.4098920600576536e-02 -3.0382181012510001e-01
    1.5327142612543452e-02 -2.7524094128159016e-01
    2.3701652425047511e-02 -1.7025130615174974e-01
    1.5327142612543452e-02 -2.7524094128159016e-01
    1.5327142612543452e-02 -2.7524094128159016e-01
    9.3859196539000378e-03 -5.3935988997059370e-01
    8.2104932447040757e-03 -7.3720978077448562e-01
    8.0781134463101603e-03 -7.8334945180064020e-01
    8.5925787037713936e-03 -6.4807406984078608e-01
    8.0242587562746447e-03 -8.0694658478592907e-01
    8.0781134463101603e-03 -7.8334945180064020e-01
    7.8439153053234869e-03 -9.8601329718326924e-01
    7.9780090410488131e-03 -1.2034433356286307e+00
    7.8501480558542495e-03 -1.0431851677040120e+00
    7.8501480558542495e-03 -1.0431851677040120e+00
    7.9069196532434508e-03 -1.1359236684941296e+00
    8.0781134463101603e-03 -1.2765694770084508e+00
    7.9780090410488131e-03 -1.2034433356286307e+00
    8.1400156040260241e-03 -1.3155870289605440e+00
    7.8626582598957367e-03 -1.0730867399773194e+00
    7.8439153053234869e-03 -9.8601329718326924e-01
    7.9389965381110334e-03 -1.1690451944500122e+00
    7.9389965381110334e-03 -1.1690451944500122e+00
    7.8626582598957367e-03 -1.0730867399773194e+00
    8.0781134463101603e-03 -1.2765694770084508e+00
    8.0781134463101603e-03 -1.2765694770084508e+00
    8.0242587562746447e-03 -1.2392393980641052e+00
    8.2901734757753667e-03 -1.3994046353122220e+00
    8.2901734757753667e-03 -1.3994046353122220e+00
    8.5925787037713919e-03 -1.5430334996209190e+00
    8.2901734757753667e-03 -1.3994046353122220e+00
    8.5925787037713919e-03 -1.5430334996209190e+00
    8.1400156040260241e-03 -1.3155870289605440e+00
    7.9069196532434508e-03 -1.1359236684941296e+00
    7.8815362180653225e-03 -1.1039701082909807e+00
    7.8815362180653225e-03 -1.1039701082909807e+00
    7.8626582598957367e-03 -9.3189111629609322e-01
    8.3797995775388382e-03 -6.9221865524317305e-01
    9.3859196539000378e-03 -5.3935988997059370e-01
    1.2402319069138648e-02 -3.5634832254989918e-01
    1.4098920600576536e-02 -3.0382181012510001e-01
    1.7007903037838570e-02 -2.4433888871261045e-01
    2.3701652425047511e-02 -1.7025130615174974e-01
    1.4098920600576536e-02 -3.0382181012510001e-01
    1.3154645874340752e-02 -3.3071891388307384e-01
    8.4802525833324038e-03 -6.7005939426048999e-01
    8.0781134463101603e-03 -7.8334945180064020e-01
    8.4802525833324038e-03 -6.7005939426048999e-01
    8.5925787037713936e-03 -6.4807406984078608e-01
    7.9780090410488131e-03 -8.3094896983881650e-01
    7.8626582598957367e-03 -9.3189111629609322e-01
    7.8501480558542495e-03 -1.0431851677040120e+00
    7.9389965381110334e-03 -1.1690451944500122e+00
    7.9069196532434508e-03 -1.1359236684941296e+00
    7.8439153053234869e-03 -9.8601329718326924e-01
    8.0242587562746447e-03 -8.0694658478592907e-01
    7.8439153053234869e-03 -9.8601329718326924e-01
    8.0781134463101603e-03 -1.2765694770084508e+00
    7.9069196532434508e-03 -1.1359236684941296e+00
    7.8439153053234869e-03 -9.8601329718326924e-01
    7.9069196532434508e-03 -1.1359236684941296e+00
    7.9389965381110334e-03 -1.1690451944500122e+00
    7.8626582598957367e-03 -1.0730867399773194e+00
    7.8501480558542478e-03 -9.5860258653882158e-01
    7.8439153053234869e-03 -1.0141851056742199e+00
    8.0242587562746447e-03 -1.2392393980641052e+00
    7.9389965381110334e-03 -1.1690451944500122e+00
    8.0242587562746447e-03 -1.2392393980641052e+00
    8.0242587562746447e-03 -1.2392393980641052e+00
    8.4802525833324038e-03 -1.4924050144892731e+00
    9.1896046472344922e-03 -1.7822655773580134e+00
    9.0145485264530433e-03 -1.7159383568311675e+00
    8.5925787037713919e-03 -1.5430334996209190e+00
    7.9389965381110334e-03 -1.1690451944500122e+00
    7.9389965381110334e-03 -1.1690451944500122e+00
    7.8626582598957367e-03 -1.0730867399773194e+00
    7.8626582598957367e-03 -1.0730867399773194e+00
    8.0242587562746447e-03 -8.0694658478592907e-01
    9.3859196539000378e-03 -5.3935988997059370e-01
    9.6067950418249320e-03 -5.1754916950676566e-01
    1.4098920600576536e-02 -3.0382181012510001e-01
    1.5327142612543452e-02 -2.7524094128159016e-01
    2.3701652425047511e-02 -1.7025130615174974e-01
    1.4098920600576536e-02 -3.0382181012510001e-01
    1.0139872527799082e-02 -4.7343207647399937e-01
    8.3797995775388382e-03 -6.9221865524317305e-01
    8.0781134463101603e-03 -7.8334945180064020e-01
    7.9780090410488131e-03 -8.3094896983881650e-01
    7.9069196532434508e-03 -8.8034084308295035e-01
    8.0781134463101603e-03 -7.8334945180064020e-01
    7.8501480558542495e-03 -1.0431851677040120e+00
    7.9780090410488131e-03 -1.2034433356286307e+00
    7.8501480558542478e-03 -9.5860258653882158e-01
    7.8815362180653225e-03 -1.1039701082909807e+00
    7.9069196532434508e-03 -1.1359236684941296e+00
    7.9389965381110334e-03 -1.1690451944500122e+00
    8.0781134463101603e-03 -1.2765694770084508e+00
    7.8815362180653225e-03 -1.1039701082909807e+00
    7.8501480558542495e-03 -1.0431851677040120e+00
    7.8626582598957367e-03 -1.0730867399773194e+00
    7.8501480558542495e-03 -1.0431851677040120e+00
    7.9069196532434508e-03 -1.1359236684941296e+00
    7.8439153053234869e-03 -1.0141851056742199e+00
    7.8501480558542478e-03 -9.5860258653882158e-01
    7.8439153053234869e-03 -9.8601329718326924e-01
    7.9069196532434508e-03 -1.1359236684941296e+00
    8.1400156040260241e-03 -1.3155870289605440e+00
    7.8815362180653225e-03 -1.1039701082909807e+00
    8.8580819943686728e-03 -1.6543403837370225e+00
    8.8580819943686728e-03 -1.6543403837370225e+00
    9.8563637458313740e-03 -2.0177781274036484e+00
    8.7180244445187495e-03 -1.5968719422671316e+00
    8.8580819943686728e-03 -1.6543403837370225e+00
    8.2901734757753667e-03 -1.3994046353122220e+00
    7.9780090410488131e-03 -1.2034433356286307e+00
    7.9780090410488131e-03 -1.2034433356286307e+00
    7.8501480558542495e-03 -1.0431851677040120e+00
    7.8815362180653242e-03 -9.0582162731567673e-01
    8.7180244445187495e-03 -6.2622429108514965e-01
    9.3859196539000378e-03 -5.3935988997059370e-01
    1.3154645874340752e-02 -3.3071891388307384e-01
    1.7007903037838570e-02 -2.4433888871261045e-01
    2.3701652425047511e-02 -1.7025130615174974e-01
    1.4098920600576536e-02 -3.0382181012510001e-01
    8.7180244445187495e-03 -6.2622429108514965e-01
    8.2104932447040757e-03 -7.3720978077448562e-01
    7.8626582598957367e-03 -9.3189111629609322e-01
    7.8626582598957367e-03 -9.3189111629609322e-01
    7.8815362180653242e-03 -9.0582162731567673e-01
    7.8815362180653225e-03 -1.1039701082909807e+00
    7.9389965381110334e-03 -1.1690451944500122e+00
    7.8439153053234869e-03 -1.0141851056742199e+00
    7.8501480558542495e-03 -1.0431851677040120e+00
    7.8626582598957367e-03 -1.0730867399773194e+00
    8.0242587562746447e-03 -1.2392393980641052e+00
    7.9780090410488131e-03 -1.2034433356286307e+00
    7.8626582598957367e-03 -9.3189111629609322e-01
    7.8439153053234869e-03 -9.8601329718326924e-01
    7.8439153053234869e-03 -9.8601329718326924e-01
    7.9389965381110334e-03 -8.5539892276830154e-01
    7.8815362180653225e-03 -1.1039701082909807e+00
    7.8439153053234869e-03 -9.8601329718326924e-01
    7.8501480558542495e-03 -1.0431851677040120e+00
    7.8501480558542478e-03 -9.5860258653882158e-01
    7.8626582598957367e-03 -9.3189111629609322e-01
    8.1400156040260241e-03 -1.3155870289605440e+00
    8.1400156040260241e-03 -1.3155870289605440e+00
    8.2901734757753667e-03 -1.3994046353122220e+00
    8.7180244445187495e-03 -1.5968719422671316e+00
    8.7180244445187495e-03 -1.5968719422671316e+00
    8.8580819943686728e-03 -1.6543403837370225e+00
    8.4802525833324038e-03 -1.4924050144892731e+00
    9.0145485264530433e-03 -1.7159383568311675e+00
    8.7180244445187495e-03 -1.5968719422671316e+00
    8.1400156040260241e-03 -1.3155870289605440e+00
    7.8439153053234869e-03 -1.0141851056742199e+00
    7.9069196532434508e-03 -1.1359236684941296e+00
    7.8501480558542478e-03 -9.5860258653882158e-01
    8.2901734757753667e-03 -7.1458960101049640e-01
    9.3859196539000378e-03 -5.3935988997059370e-01
    9.0145485264530398e-03 -5.8277151741435851e-01
    1.4098920600576536e-02 -3.0382181012510001e-01
    1.7007903037838570e-02 -2.4433888871261045e-01
    1.1786939891520949e-02 -3.8100038100057154e-01
    8.7180244445187495e-03 -6.2622429108514965e-01
    8.1400156040260224e-03 -7.6011695006609192e-01
    7.8439153053234869e-03 -9.8601329718326924e-01
    7.8626582598957367e-03 -9.3189111629609322e-01
    7.8501480558542495e-03 -1.0431851677040120e+00
    7.9389965381110334e-03 -1.1690451944500122e+00
    7.9780090410488131e-03 -1.2034433356286307e+00
    7.8815362180653225e-03 -1.1039701082909807e+00
    7.8626582598957367e-03 -1.0730867399773194e+00
    7.9069196532434508e-03 -1.1359236684941296e+00
    8.0242587562746447e-03 -1.2392393980641052e+00
    8.0781134463101603e-03 -1.2765694770084508e+00
    7.8439153053234869e-03 -9.8601329718326924e-01
    7.8501480558542478e-03 -9.5860258653882158e-01
    7.8501480558542478e-03 -9.5860258653882158e-01
    7.8501480558542478e-03 -9.5860258653882158e-01
    7.8501480558542478e-03 -9.5860258653882158e-01
    7.8626582598957367e-03 -9.3189111629609322e-01
    7.8815362180653242e-03 -9.0582162731567673e-01
    7.9780090410488131e-03 -8.3094896983881650e-01
    7.8439153053234869e-03 -9.8601329718326924e-01
    7.8439153053234869e-03 -1.0141851056742199e+00
    7.8439153053234869e-03 -1.0141851056742199e+00
    7.9389965381110334e-03 -1.1690451944500122e+00
    8.0781134463101603e-03 -1.2765694770084508e+00
    8.0781134463101603e-03 -1.2765694770084508e+00
    8.7180244445187495e-03 -1.5968719422671316e+00
    8.8580819943686728e-03 -1.6543403837370225e+00
    1.0139872527799080e-02 -2.1122354181147660e+00
    9.8563637458313740e-03 -2.0177781274036484e+00
    8.7180244445187495e-03 -1.5968719422671316e+00
    7.9389965381110334e-03 -1.1690451944500122e+00
    7.8501480558542478e-03 -9.5860258653882158e-01
    7.8439153053234869e-03 -9.8601329718326924e-01
    7.9389965381110334e-03 -8.5539892276830154e-01
    8.8580819943686710e-03 -6.0447052482698882e-01
    9.3859196539000378e-03 -5.3935988997059370e-01
    1.2402319069138648e-02 -3.5634832254989918e-01
    3.3278914220683117e-02 -1.1952286093343936e-01
    1.3154645874340752e-02 -3.3071891388307384e-01
    8.4802525833324038e-03 -6.7005939426048999e-01
    8.3797995775388382e-03 -6.9221865524317305e-01
    7.8439153053234869e-03 -1.0141851056742199e+00
    7.8815362180653242e-03 -9.0582162731567673e-01
    7.8501480558542495e-03 -1.0431851677040120e+00
    8.0781134463101603e-03 -1.2765694770084508e+00
    8.0242587562746447e-03 -1.2392393980641052e+00
    7.8439153053234869e-03 -1.0141851056742199e+00
    7.8501480558542495e-03 -1.0431851677040120e+00
    7.8501480558542495e-03 -1.0431851677040120e+00
    7.9389965381110334e-03 -1.1690451944500122e+00
    7.8501480558542495e-03 -1.0431851677040120e+00
    7.8501480558542478e-03 -9.5860258653882158e-01
    7.8439153053234869e-03 -9.8601329718326924e-01
    7.8501480558542478e-03 -9.5860258653882158e-01
    7.8815362180653242e-03 -9.0582162731567673e-01
    7.8439153053234869e-03 -9.8601329718326924e-01
    7.8501480558542478e-03 -9.5860258653882158e-01
    7.8626582598957367e-03 -9.3189111629609322e-01
    7.8815362180653242e-03 -9.0582162731567673e-01
    7.8501480558542478e-03 -9.5860258653882158e-01
    7.8501480558542478e-03 -9.5860258653882158e-01
    7.9069196532434508e-03 -1.1359236684941296e+00
    7.8626582598957367e-03 -1.0730867399773194e+00
    7.9389965381110334e-03 -1.1690451944500122e+00
    8.4802525833324038e-03 -1.4924050144892731e+00
    8.2104932447040757e-03 -1.3564659966250536e+00
    8.7180244445187495e-03 -1.5968719422671316e+00
    9.0145485264530433e-03 -1.7159383568311675e+00
    1.0464091762392326e-02 -2.2173557826083456e+00
    9.1896046472344922e-03 -1.7822655773580134e+00
    8.1400156040260241e-03 -1.3155870289605440e+00
    7.8626582598957367e-03 -1.0730867399773194e+00
    7.8815362180653225e-03 -1.1039701082909807e+00
    7.9069196532434508e-03 -8.8034084308295035e-01
    7.9780090410488131e-03 -8.3094896983881650e-01
    8.8580819943686710e-03 -6.0447052482698882e-01
    1.1786939891520949e-02 -3.8100038100057154e-01
    2.3701652425047511e-02 -1.7025130615174974e-01
    1.1786939891520949e-02 -3.8100038100057154e-01
    9.1896046472344940e-03 -5.6108360768678212e-01
    8.1400156040260224e-03 -7.6011695006609192e-01
    7.8439153053234869e-03 -1.0141851056742199e+00
    7.8439153053234869e-03 -9.8601329718326924e-01
    7.8501480558542495e-03 -1.0431851677040120e+00
    8.1400156040260241e-03 -1.3155870289605440e+00
    8.2104932447040757e-03 -1.3564659966250536e+00
    7.9069196532434508e-03 -1.1359236684941296e+00
    7.8501480558542495e-03 -1.0431851677040120e+00
    7.8439153053234869e-03 -1.0141851056742199e+00
    7.8626582598957367e-03 -9.3189111629609322e-01
    7.8501480558542495e-03 -1.0431851677040120e+00
    7.9069196532434508e-03 -8.8034084308295035e-01
    7.8439153053234869e-03 -1.0141851056742199e+00
    7.8501480558542478e-03 -9.5860258653882158e-01
    7.8626582598957367e-03 -9.3189111629609322e-01
    7.8501480558542478e-03 -9.5860258653882158e-01
    7.8626582598957367e-03 -9.3189111629609322e-01
    7.8501480558542478e-03 -9.5860258653882158e-01
    7.8439153053234869e-03 -9.8601329718326924e-01
    7.8439153053234869e-03 -9.8601329718326924e-01
    7.8626582598957367e-03 -9.3189111629609322e-01
    7.8439153053234869e-03 -1.0141851056742199e+00
    7.8626582598957367e-03 -9.3189111629609322e-01
    7.8439153053234869e-03 -9.8601329718326924e-01
    7.9389965381110334e-03 -1.1690451944500122e+00
    8.5925787037713919e-03 -1.5430334996209190e+00
    8.7180244445187495e-03 -1.5968719422671316e+00
    8.5925787037713919e-03 -1.5430334996209190e+00
    8.8580819943686728e-03 -1.6543403837370225e+00
    9.0145485264530433e-03 -1.7159383568311675e+00
    8.0242587562746447e-03 -1.2392393980641052e+00
    7.9780090410488131e-03 -1.2034433356286307e+00
    8.0781134463101603e-03 -1.2765694770084508e+00
    7.9389965381110334e-03 -1.1690451944500122e+00
    8.2901734757753667e-03 -7.1458960101049640e-01
    9.0145485264530398e-03 -5.8277151741435851e-01
    1.0139872527799082e-02 -4.7343207647399937e-01
    1.7007903037838570e-02 -2.4433888871261045e-01
    1.2402319069138648e-02 -3.5634832254989918e-01
    9.3859196539000378e-03 -5.3935988997059370e-01
    7.9780090410488131e-03 -8.3094896983881650e-01
    7.8439153053234869e-03 -1.0141851056742199e+00
    7.8626582598957367e-03 -9.3189111629609322e-01
    7.8439153053234869e-03 -1.0141851056742199e+00
    8.0242587562746447e-03 -1.2392393980641052e+00
    8.3797995775388382e-03 -1.4446302370292308e+00
    7.9780090410488131e-03 -1.2034433356286307e+00
    8.0242587562746447e-03 -1.2392393980641052e+00
    7.9780090410488131e-03 -1.2034433356286307e+00
    7.8501480558542495e-03 -1.0431851677040120e+00
    7.8626582598957367e-03 -1.0730867399773194e+00
    7.8439153053234869e-03 -9.8601329718326924e-01
    7.8626582598957367e-03 -9.3189111629609322e-01
    7.8815362180653242e-03 -9.0582162731567673e-01
    7.9780090410488131e-03 -8.3094896983881650e-01
    7.8815362180653242e-03 -9.0582162731567673e-01
    7.8439153053234869e-03 -1.0141851056742199e+00
    7.8815362180653242e-03 -9.0582162731567673e-01
    7.9389965381110334e-03 -8.5539892276830154e-01
    7.8501480558542495e-03 -1.0431851677040120e+00
    7.8439153053234869e-03 -9.8601329718326924e-01
    7.8439153053234869e-03 -1.0141851056742199e+00
    7.8501480558542495e-03 -1.0431851677040120e+00
    7.8439153053234869e-03 -9.8601329718326924e-01
    7.8815362180653225e-03 -1.1039701082909807e+00
    8.5925787037713919e-03 -1.5430334996209190e+00
    8.7180244445187495e-03 -1.5968719422671316e+00
    9.3859196539000361e-03 -1.8540496217739155e+00
    9.0145485264530433e-03 -1.7159383568311675e+00
    9.1896046472344922e-03 -1.7822655773580134e+00
    8.8580819943686728e-03 -1.6543403837370225e+00
    8.2104932447040757e-03 -1.3564659966250536e+00
    7.9389965381110334e-03 -1.1690451944500122e+00
    7.9780090410488131e-03 -1.2034433356286307e+00
    8.1400156040260224e-03 -7.6011695006609192e-01
    9.8563637458313723e-03 -4.9559462778335212e-01
    1.0837926477542770e-02 -4.2817441928883765e-01
    1.4098920600576536e-02 -3.0382181012510001e-01
    1.2402319069138648e-02 -3.5634832254989918e-01
    9.3859196539000378e-03 -5.3935988997059370e-01
    8.5925787037713936e-03 -6.4807406984078608e-01
    8.1400156040260224e-03 -7.6011695006609192e-01
    7.9780090410488131e-03 -8.3094896983881650e-01
    7.8439153053234869e-03 -1.0141851056742199e+00
    7.8439153053234869e-03 -9.8601329718326924e-01
    8.4802525833324038e-03 -1.4924050144892731e+00
    7.9389965381110334e-03 -1.1690451944500122e+00
    7.8501480558542495e-03 -1.0431851677040120e+00
    7.9780090410488131e-03 -1.2034433356286307e+00
    8.0242587562746447e-03 -1.2392393980641052e+00
    7.8815362180653225e-03 -1.1039701082909807e+00
    7.9069196532434508e-03 -1.1359236684941296e+00
    7.8501480558542478e-03 -9.5860258653882158e-01
    7.8626582598957367e-03 -9.3189111629609322e-01
    7.9069196532434508e-03 -8.8034084308295035e-01
    7.8815362180653242e-03 -9.0582162731567673e-01
    7.9389965381110334e-03 -8.5539892276830154e-01
    7.8439153053234869e-03 -1.0141851056742199e+00
    7.9069196532434508e-03 -8.8034084308295035e-01
    7.8439153053234869e-03 -1.0141851056742199e+00
    7.8439153053234869e-03 -9.8601329718326924e-01
    7.8439153053234869e-03 -9.8601329718326924e-01
    7.9780090410488131e-03 -8.3094896983881650e-01
    7.8626582598957367e-03 -9.3189111629609322e-01
    7.8626582598957367e-03 -1.0730867399773194e+00
    8.1400156040260241e-03 -1.3155870289605440e+00
    8.4802525833324038e-03 -1.4924050144892731e+00
    8.4802525833324038e-03 -1.4924050144892731e+00
    8.2104932447040757e-03 -1.3564659966250536e+00
    8.8580819943686728e-03 -1.6543403837370225e+00
    8.7180244445187495e-03 -1.5968719422671316e+00
    8.0781134463101603e-03 -1.2765694770084508e+00
    8.0781134463101603e-03 -1.2765694770084508e+00
    7.9780090410488131e-03 -1.2034433356286307e+00
    7.9389965381110334e-03 -8.5539892276830154e-01
    1.1786939891520949e-02 -3.8100038100057154e-01
    1.0464091762392323e-02 -4.5098761680169730e-01
    1.3154645874340752e-02 -3.3071891388307384e-01
    1.1786939891520949e-02 -3.8100038100057154e-01
    9.3859196539000378e-03 -5.3935988997059370e-01
    8.3797995775388382e-03 -6.9221865524317305e-01
    8.0242587562746447e-03 -8.0694658478592907e-01
    7.8815362180653242e-03 -9.0582162731567673e-01
    7.8439153053234869e-03 -1.0141851056742199e+00
    7.8626582598957367e-03 -1.0730867399773194e+00
    8.1400156040260241e-03 -1.3155870289605440e+00
    8.0781134463101603e-03 -1.2765694770084508e+00
    7.9780090410488131e-03 -1.2034433356286307e+00
    7.9780090410488131e-03 -1.2034433356286307e+00
    7.8815362180653225e-03 -1.1039701082909807e+00
    7.8439153053234869e-03 -1.0141851056742199e+00
    7.9389965381110334e-03 -1.1690451944500122e+00
    7.8501480558542478e-03 -9.5860258653882158e-01
    7.8501480558542478e-03 -9.5860258653882158e-01
    8.0242587562746447e-03 -8.0694658478592907e-01
    7.8439153053234869e-03 -1.0141851056742199e+00
    7.8501480558542495e-03 -1.0431851677040120e+00
    7.8439153053234869e-03 -1.0141851056742199e+00
    7.8626582598957367e-03 -9.3189111629609322e-01
    7.8501480558542495e-03 -1.0431851677040120e+00
    7.9069196532434508e-03 -1.1359236684941296e+00
    7.8626582598957367e-03 -1.0730867399773194e+00
    7.8626582598957367e-03 -1.0730867399773194e+00
    7.9389965381110334e-03 -1.1690451944500122e+00
    8.2901734757753667e-03 -1.3994046353122220e+00
    8.0242587562746447e-03 -1.2392393980641052e+00
    8.7180244445187495e-03 -1.5968719422671316e+00
    8.8580819943686728e-03 -1.6543403837370225e+00
    8.7180244445187495e-03 -1.5968719422671316e+00
    9.0145485264530433e-03 -1.7159383568311675e+00
    8.2901734757753667e-03 -1.3994046353122220e+00
    8.0781134463101603e-03 -1.2765694770084508e+00
    7.9389965381110334e-03 -1.1690451944500122e+00
    7.9069196532434508e-03 -1.1359236684941296e+00
    7.9780090410488131e-03 -8.3094896983881650e-01
    1.2402319069138648e-02 -3.5634832254989918e-01
    1.0464091762392323e-02 -4.5098761680169730e-01
    1.4098920600576536e-02 -3.0382181012510001e-01
    1.2402319069138648e-02 -3.5634832254989918e-01
    9.3859196539000378e-03 -5.3935988997059370e-01
    8.0781134463101603e-03 -7.8334945180064020e-01
    8.1400156040260224e-03 -7.6011695006609192e-01
    7.9389965381110334e-03 -8.5539892276830154e-01
    7.9069196532434508e-03 -8.8034084308295035e-01
    7.8815362180653225e-03 -1.1039701082909807e+00
    8.3797995775388382e-03 -1.4446302370292308e+00
    8.2104932447040757e-03 -1.3564659966250536e+00
    8.0781134463101603e-03 -1.2765694770084508e+00
    8.0242587562746447e-03 -1.2392393980641052e+00
    7.8501480558542478e-03 -9.5860258653882158e-01
    7.8501480558542495e-03 -1.0431851677040120e+00
    7.9069196532434508e-03 -1.1359236684941296e+00
    7.8501480558542478e-03 -9.5860258653882158e-01
    7.8815362180653242e-03 -9.0582162731567673e-01
    7.8815362180653242e-03 -9.0582162731567673e-01
    7.8501480558542478e-03 -9.5860258653882158e-01
    7.8626582598957367e-03 -1.0730867399773194e+00
    7.9069196532434508e-03 -1.1359236684941296e+00
    7.8501480558542495e-03 -1.0431851677040120e+00
    7.8501480558542478e-03 -9.5860258653882158e-01
    7.8501480558542495e-03 -1.0431851677040120e+00
    7.8439153053234869e-03 -1.0141851056742199e+00
    8.0781134463101603e-03 -1.2765694770084508e+00
    8.2901734757753667e-03 -1.3994046353122220e+00
    8.2104932447040757e-03 -1.3564659966250536e+00
    8.2901734757753667e-03 -1.3994046353122220e+00
    7.9780090410488131e-03 -1.2034433356286307e+00
    8.8580819943686728e-03 -1.6543403837370225e+00
    8.2104932447040757e-03 -1.3564659966250536e+00
    8.3797995775388382e-03 -1.4446302370292308e+00
    8.4802525833324038e-03 -1.4924050144892731e+00
    8.0242587562746447e-03 -1.2392393980641052e+00
    7.9780090410488131e-03 -1.2034433356286307e+00
    7.9069196532434508e-03 -1.1359236684941296e+00
    7.8626582598957367e-03 -9.3189111629609322e-01
    1.0464091762392323e-02 -4.5098761680169730e-01
    1.0464091762392323e-02 -4.5098761680169730e-01
    1.5327142612543452e-02 -2.7524094128159016e-01
    1.3154645874340752e-02 -3.3071891388307384e-01
    9.1896046472344940e-03 -5.6108360768678212e-01
    8.4802525833324038e-03 -6.7005939426048999e-01
    8.1400156040260224e-03 -7.6011695006609192e-01
    7.9069196532434508e-03 -8.8034084308295035e-01
    7.8501480558542478e-03 -9.5860258653882158e-01
    7.8815362180653225e-03 -1.1039701082909807e+00
    7.9389965381110334e-03 -1.1690451944500122e+00
    8.0242587562746447e-03 -1.2392393980641052e+00
    7.8439153053234869e-03 -9.8601329718326924e-01
    7.8439153053234869e-03 -9.8601329718326924e-01
    7.8439153053234869e-03 -9.8601329718326924e-01
    8.0242587562746447e-03 -1.2392393980641052e+00
    7.9069196532434508e-03 -1.1359236684941296e+00
    8.0242587562746447e-03 -8.0694658478592907e-01
    7.9780090410488131e-03 -8.3094896983881650e-01
    7.9069196532434508e-03 -8.8034084308295035e-01
    7.9069196532434508e-03 -8.8034084308295035e-01
    7.8439153053234869e-03 -9.8601329718326924e-01
    7.8439153053234869e-03 -1.0141851056742199e+00
    7.8439153053234869e-03 -1.0141851056742199e+00
    7.8626582598957367e-03 -9.3189111629609322e-01
    7.8626582598957367e-03 -9.3189111629609322e-01
    7.8626582598957367e-03 -9.3189111629609322e-01
    7.9780090410488131e-03 -1.2034433356286307e+00
    7.8626582598957367e-03 -1.0730867399773194e+00
    8.1400156040260241e-03 -1.3155870289605440e+00
    8.1400156040260241e-03 -1.3155870289605440e+00
    7.9780090410488131e-03 -1.2034433356286307e+00
    8.3797995775388382e-03 -1.4446302370292308e+00
    8.2104932447040757e-03 -1.3564659966250536e+00
    8.2104932447040757e-03 -1.3564659966250536e+00
    8.5925787037713919e-03 -1.5430334996209190e+00
    7.8501480558542495e-03 -1.0431851677040120e+00
    7.9069196532434508e-03 -1.1359236684941296e+00
    7.9069196532434508e-03 -1.1359236684941296e+00
    7.9069196532434508e-03 -8.8034084308295035e-01
    8.8580819943686710e-03 -6.0447052482698882e-01
    1.0837926477542770e-02 -4.2817441928883765e-01
    1.7007903037838570e-02 -2.4433888871261045e-01
    1.4098920600576536e-02 -3.0382181012510001e-01
    9.6067950418249320e-03 -5.1754916950676566e-01
    8.4802525833324038e-03 -6.7005939426048999e-01
    8.2104932447040757e-03 -7.3720978077448562e-01
    7.9389965381110334e-03 -8.5539892276830154e-01
    7.8815362180653225e-03 -1.1039701082909807e+00
    7.8815362180653225e-03 -1.1039701082909807e+00
    7.9389965381110334e-03 -1.1690451944500122e+00
    7.8815362180653225e-03 -1.1039701082909807e+00
    7.8626582598957367e-03 -1.0730867399773194e+00
    7.8501480558542495e-03 -1.0431851677040120e+00
    7.9780090410488131e-03 -1.2034433356286307e+00
    7.9780090410488131e-03 -8.3094896983881650e-01
    7.8815362180653225e-03 -1.1039701082909807e+00
    7.8815362180653242e-03 -9.0582162731567673e-01
    7.9389965381110334e-03 -8.5539892276830154e-01
    8.0242587562746447e-03 -8.0694658478592907e-01
    7.9069196532434508e-03 -8.8034084308295035e-01
    7.9069196532434508e-03 -8.8034084308295035e-01
    7.9780090410488131e-03 -8.3094896983881650e-01
    8.1400156040260224e-03 -7.6011695006609192e-01
    7.9389965381110334e-03 -8.5539892276830154e-01
    7.9069196532434508e-03 -8.8034084308295035e-01
    7.9069196532434508e-03 -8.8034084308295035e-01
    7.9389965381110334e-03 -1.1690451944500122e+00
    8.2104932447040757e-03 -1.3564659966250536e+00
    8.1400156040260241e-03 -1.3155870289605440e+00
    8.1400156040260241e-03 -1.3155870289605440e+00
    8.0242587562746447e-03 -1.2392393980641052e+00
    7.8815362180653225e-03 -1.1039701082909807e+00
    8.2104932447040757e-03 -1.3564659966250536e+00
    8.0781134463101603e-03 -1.2765694770084508e+00
    8.1400156040260241e-03 -1.3155870289605440e+00
    7.8501480558542495e-03 -1.0431851677040120e+00
    7.8626582598957367e-03 -1.0730867399773194e+00
    7.8626582598957367e-03 -1.0730867399773194e+00
    7.9389965381110334e-03 -8.5539892276830154e-01
    9.0145485264530398e-03 -5.8277151741435851e-01
    1.0837926477542770e-02 -4.2817441928883765e-01
    2.3701652425047511e-02 -1.7025130615174974e-01
    1.2402319069138648e-02 -3.5634832254989918e-01
    9.6067950418249320e-03 -5.1754916950676566e-01
    8.4802525833324038e-03 -6.7005939426048999e-01
    8.3797995775388382e-03 -6.9221865524317305e-01
    8.0781134463101603e-03 -7.8334945180064020e-01
    7.8501480558542478e-03 -9.5860258653882158e-01
    7.8501480558542495e-03 -1.0431851677040120e+00
    7.8815362180653225e-03 -1.1039701082909807e+00
    7.9780090410488131e-03 -1.2034433356286307e+00
    7.8501480558542495e-03 -1.0431851677040120e+00
    7.9389965381110334e-03 -1.1690451944500122e+00
    7.9389965381110334e-03 -1.1690451944500122e+00
    7.9069196532434508e-03 -1.1359236684941296e+00
    7.8626582598957367e-03 -9.3189111629609322e-01
    7.8439153053234869e-03 -9.8601329718326924e-01
    7.8626582598957367e-03 -9.3189111629609322e-01
    7.9069196532434508e-03 -8.8034084308295035e-01
    7.8815362180653242e-03 -9.0582162731567673e-01
    7.9069196532434508e-03 -8.8034084308295035e-01
    8.0242587562746447e-03 -8.0694658478592907e-01
    8.0242587562746447e-03 -8.0694658478592907e-01
    8.0781134463101603e-03 -7.8334945180064020e-01
    7.8439153053234869e-03 -9.8601329718326924e-01
    7.8501480558542495e-03 -1.0431851677040120e+00
    7.9389965381110334e-03 -1.1690451944500122e+00
    7.9780090410488131e-03 -1.2034433356286307e+00
    8.2104932447040757e-03 -1.3564659966250536e+00
    7.9389965381110334e-03 -1.1690451944500122e+00
    7.9780090410488131e-03 -1.2034433356286307e+00
    8.2104932447040757e-03 -1.3564659966250536e+00
    7.8626582598957367e-03 -1.0730867399773194e+00
    8.0781134463101603e-03 -1.2765694770084508e+00
    8.2901734757753667e-03 -1.3994046353122220e+00
    7.8815362180653225e-03 -1.1039701082909807e+00
    7.8815362180653225e-03 -1.1039701082909807e+00
    7.8439153053234869e-03 -1.0141851056742199e+00
    7.9389965381110334e-03 -8.5539892276830154e-01
    9.0145485264530398e-03 -5.8277151741435851e-01
    1.0464091762392323e-02 -4.5098761680169730e-01
    2.3701652425047511e-02 -1.7025130615174974e-01
    1.1786939891520949e-02 -3.8100038100057154e-01
    1.0464091762392323e-02 -4.5098761680169730e-01
    8.8580819943686710e-03 -6.0447052482698882e-01
    8.2104932447040757e-03 -7.3720978077448562e-01
    8.0781134463101603e-03 -7.8334945180064020e-01
    7.8501480558542478e-03 -9.5860258653882158e-01
    7.8439153053234869e-03 -1.0141851056742199e+00
    7.9069196532434508e-03 -8.8034084308295035e-01
    7.8439153053234869e-03 -9.8601329718326924e-01
    7.8626582598957367e-03 -1.0730867399773194e+00
    8.0242587562746447e-03 -1.2392393980641052e+00
    7.8439153053234869e-03 -1.0141851056742199e+00
    7.8439153053234869e-03 -1.0141851056742199e+00
    7.8501480558542495e-03 -1.0431851677040120e+00
    7.9069196532434508e-03 -1.1359236684941296e+00
    7.8439153053234869e-03 -9.8601329718326924e-01
    7.8626582598957367e-03 -1.0730867399773194e+00
    7.8815362180653242e-03 -9.0582162731567673e-01
    7.9389965381110334e-03 -8.5539892276830154e-01
    7.8626582598957367e-03 -9.3189111629609322e-01
    7.9389965381110334e-03 -8.5539892276830154e-01
    7.8815362180653242e-03 -9.0582162731567673e-01
    7.8501480558542478e-03 -9.5860258653882158e-01
    7.8815362180653225e-03 -1.1039701082909807e+00
    7.8501480558542478e-03 -9.5860258653882158e-01
    8.0242587562746447e-03 -1.2392393980641052e+00
    7.9069196532434508e-03 -1.1359236684941296e+00
    7.8501480558542478e-03 -9.5860258653882158e-01
    7.8501480558542495e-03 -1.0431851677040120e+00
    7.9389965381110334e-03 -1.1690451944500122e+00
    8.0242587562746447e-03 -1.2392393980641052e+00
    8.2104932447040757e-03 -1.3564659966250536e+00
    8.0242587562746447e-03 -1.2392393980641052e+00
    7.8501480558542495e-03 -1.0431851677040120e+00
    7.8815362180653225e-03 -1.1039701082909807e+00
    7.8439153053234869e-03 -1.0141851056742199e+00
    7.9780090410488131e-03 -8.3094896983881650e-01
    8.5925787037713936e-03 -6.4807406984078608e-01
    9.3859196539000378e-03 -5.3935988997059370e-01
    1.7007903037838570e-02 -2.4433888871261045e-01
    1.2402319069138648e-02 -3.5634832254989918e-01
    9.8563637458313723e-03 -4.9559462778335212e-01
    9.0145485264530398e-03 -5.8277151741435851e-01
    8.2901734757753667e-03 -7.1458960101049640e-01
    8.1400156040260224e-03 -7.6011695006609192e-01
    7.8626582598957367e-03 -9.3189111629609322e-01
    7.8501480558542495e-03 -1.0431851677040120e+00
    7.8501480558542495e-03 -1.0431851677040120e+00
    7.9389965381110334e-03 -8.5539892276830154e-01
    7.9389965381110334e-03 -1.1690451944500122e+00
    7.9780090410488131e-03 -1.2034433356286307e+00
    7.9069196532434508e-03 -1.1359236684941296e+00
    7.8501480558542495e-03 -1.0431851677040120e+00
    7.8501480558542495e-03 -1.0431851677040120e+00
    7.8815362180653225e-03 -1.1039701082909807e+00
    7.8626582598957367e-03 -1.0730867399773194e+00
    7.8815362180653225e-03 -1.1039701082909807e+00
    7.8501480558542495e-03 -1.0431851677040120e+00
    7.8439153053234869e-03 -9.8601329718326924e-01
    7.8626582598957367e-03 -9.3189111629609322e-01
    7.9069196532434508e-03 -8.8034084308295035e-01
    7.8626582598957367e-03 -1.0730867399773194e+00
    7.8501480558542495e-03 -1.0431851677040120e+00
    7.9069196532434508e-03 -1.1359236684941296e+00
    7.9389965381110334e-03 -1.1690451944500122e+00
    7.8439153053234869e-03 -1.0141851056742199e+00
    7.8501480558542478e-03 -9.5860258653882158e-01
    8.0242587562746447e-03 -1.2392393980641052e+00
    8.0242587562746447e-03 -1.2392393980641052e+00
    7.9069196532434508e-03 -1.1359236684941296e+00
    7.9069196532434508e-03 -1.1359236684941296e+00
    8.2104932447040757e-03 -1.3564659966250536e+00
    7.9780090410488131e-03 -1.2034433356286307e+00
    7.9389965381110334e-03 -1.1690451944500122e+00
    7.8501480558542478e-03 -9.5860258653882158e-01
    7.8501480558542478e-03 -9.5860258653882158e-01
    7.9069196532434508e-03 -8.8034084308295035e-01
    9.3859196539000378e-03 -5.3935988997059370e-01
    9.8563637458313723e-03 -4.9559462778335212e-01
    2.3701652425047511e-02 -1.7025130615174974e-01
    1.1273356753471185e-02 -4.0488816508945807e-01
    1.0464091762392323e-02 -4.5098761680169730e-01
    9.3859196539000378e-03 -5.3935988997059370e-01
    8.4802525833324038e-03 -6.7005939426048999e-01
    8.2104932447040757e-03 -7.3720978077448562e-01
    8.1400156040260224e-03 -7.6011695006609192e-01
    7.9069196532434508e-03 -8.8034084308295035e-01
    7.9069196532434508e-03 -8.8034084308295035e-01
    7.8501480558542478e-03 -9.5860258653882158e-01
    7.9069196532434508e-03 -8.8034084308295035e-01
    7.8626582598957367e-03 -1.0730867399773194e+00
    7.9069196532434508e-03 -1.1359236684941296e+00
    7.8439153053234869e-03 -1.0141851056742199e+00
    7.8815362180653225e-03 -1.1039701082909807e+00
    7.9389965381110334e-03 -1.1690451944500122e+00
    7.8439153053234869e-03 -9.8601329718326924e-01
    7.8439153053234869e-03 -1.0141851056742199e+00
    7.8439153053234869e-03 -9.8601329718326924e-01
    7.9069196532434508e-03 -1.1359236684941296e+00
    7.8815362180653225e-03 -1.1039701082909807e+00
    7.8439153053234869e-03 -1.0141851056742199e+00
    7.8815362180653225e-03 -1.1039701082909807e+00
    7.9069196532434508e-03 -1.1359236684941296e+00
    7.8626582598957367e-03 -9.3189111629609322e-01
    7.8626582598957367e-03 -1.0730867399773194e+00
    7.8626582598957367e-03 -9.3189111629609322e-01
    8.0781134463101603e-03 -1.2765694770084508e+00
    8.0242587562746447e-03 -1.2392393980641052e+00
    7.8626582598957367e-03 -1.0730867399773194e+00
    7.9780090410488131e-03 -1.2034433356286307e+00
    7.9389965381110334e-03 -1.1690451944500122e+00
    8.2104932447040757e-03 -1.3564659966250536e+00
    7.8815362180653225e-03 -1.1039701082909807e+00
    7.9069196532434508e-03 -1.1359236684941296e+00
    7.8439153053234869e-03 -9.8601329718326924e-01
    7.8439153053234869e-03 -9.8601329718326924e-01
    8.2901734757753667e-03 -7.1458960101049640e-01
    8.7180244445187495e-03 -6.2622429108514965e-01
    1.0139872527799082e-02 -4.7343207647399937e-01
    1.4098920600576536e-02 -3.0382181012510001e-01
    1.2402319069138648e-02 -3.5634832254989918e-01
    1.0464091762392323e-02 -4.5098761680169730e-01
    1.0464091762392323e-02 -4.5098761680169730e-01
    8.2104932447040757e-03 -7.3720978077448562e-01
    8.3797995775388382e-03 -6.9221865524317305e-01
    8.2104932447040757e-03 -7.3720978077448562e-01
    8.0242587562746447e-03 -8.0694658478592907e-01
    7.9069196532434508e-03 -8.8034084308295035e-01
    7.8626582598957367e-03 -9.3189111629609322e-01
    7.8626582598957367e-03 -1.0730867399773194e+00
    7.8815362180653225e-03 -1.1039701082909807e+00
    7.9069196532434508e-03 -8.8034084308295035e-01
    7.8501480558542478e-03 -9.5860258653882158e-01
    7.9069196532434508e-03 -1.1359236684941296e+00
    7.9389965381110334e-03 -8.5539892276830154e-01
    7.9069196532434508e-03 -1.1359236684941296e+00
    7.9389965381110334e-03 -1.1690451944500122e+00
    7.8439153053234869e-03 -1.0141851056742199e+00
    7.9069196532434508e-03 -8.8034084308295035e-01
    7.9069196532434508e-03 -1.1359236684941296e+00
    7.8815362180653225e-03 -1.1039701082909807e+00
    7.8439153053234869e-03 -9.8601329718326924e-01
    7.8815362180653225e-03 -1.1039701082909807e+00
    7.8501480558542495e-03 -1.0431851677040120e+00
    7.9780090410488131e-03 -1.2034433356286307e+00
    7.8501480558542495e-03 -1.0431851677040120e+00
    7.8815362180653225e-03 -1.1039701082909807e+00
    7.8626582598957367e-03 -9.3189111629609322e-01
    7.8439153053234869e-03 -1.0141851056742199e+00
    7.9389965381110334e-03 -1.1690451944500122e+00
    8.4802525833324038e-03 -1.4924050144892731e+00
    8.5925787037713919e-03 -1.5430334996209190e+00
    7.9389965381110334e-03 -1.1690451944500122e+00
    7.8626582598957367e-03 -9.3189111629609322e-01
    7.8501480558542495e-03 -1.0431851677040120e+00
    7.8439153053234869e-03 -9.8601329718326924e-01
    8.5925787037713936e-03 -6.4807406984078608e-01
    8.8580819943686710e-03 -6.0447052482698882e-01
    1.4098920600576536e-02 -3.0382181012510001e-01
    1.4098920600576536e-02 -3.0382181012510001e-01
    1.2402319069138648e-02 -3.5634832254989918e-01
    1.0139872527799082e-02 -4.7343207647399937e-01
    1.0139872527799082e-02 -4.7343207647399937e-01
    9.3859196539000378e-03 -5.3935988997059370e-01
    8.4802525833324038e-03 -6.7005939426048999e-01
    8.2104932447040757e-03 -7.3720978077448562e-01
    8.1400156040260224e-03 -7.6011695006609192e-01
    7.9389965381110334e-03 -8.5539892276830154e-01
    7.8626582598957367e-03 -9.3189111629609322e-01
    7.8815362180653242e-03 -9.0582162731567673e-01
    7.8626582598957367e-03 -1.0730867399773194e+00
    7.9780090410488131e-03 -1.2034433356286307e+00
    7.9389965381110334e-03 -1.1690451944500122e+00
    7.9069196532434508e-03 -1.1359236684941296e+00
    7.9069196532434508e-03 -1.1359236684941296e+00
    7.8501480558542495e-03 -1.0431851677040120e+00
    7.9069196532434508e-03 -1.1359236684941296e+00
    7.9780090410488131e-03 -1.2034433356286307e+00
    7.9780090410488131e-03 -1.2034433356286307e+00
    7.8815362180653225e-03 -1.1039701082909807e+00
    7.8439153053234869e-03 -9.8601329718326924e-01
    7.8626582598957367e-03 -1.0730867399773194e+00
    7.8626582598957367e-03 -1.0730867399773194e+00
    7.8815362180653225e-03 -1.1039701082909807e+00
    7.9389965381110334e-03 -1.1690451944500122e+00
    7.9780090410488131e-03 -1.2034433356286307e+00
    7.8815362180653225e-03 -1.1039701082909807e+00
    7.9389965381110334e-03 -1.1690451944500122e+00
    7.8501480558542495e-03 -1.0431851677040120e+00
    8.2104932447040757e-03 -1.3564659966250536e+00
    8.7180244445187495e-03 -1.5968719422671316e+00
    7.9389965381110334e-03 -1.1690451944500122e+00
    7.9069196532434508e-03 -1.1359236684941296e+00
    7.8439153053234869e-03 -1.0141851056742199e+00
    7.8439153053234869e-03 -9.8601329718326924e-01
    7.8815362180653242e-03 -9.0582162731567673e-01
    8.2104932447040757e-03 -7.3720978077448562e-01
    8.7180244445187495e-03 -6.2622429108514965e-01
    1.4098920600576536e-02 -3.0382181012510001e-01
    1.5327142612543452e-02 -2.7524094128159016e-01
    1.4098920600576536e-02 -3.0382181012510001e-01
    1.1786939891520949e-02 -3.8100038100057154e-01
    1.0837926477542770e-02 -4.2817441928883765e-01
    1.0464091762392323e-02 -4.5098761680169730e-01
    9.3859196539000378e-03 -5.3935988997059370e-01
    8.5925787037713936e-03 -6.4807406984078608e-01
    8.1400156040260224e-03 -7.6011695006609192e-01
    8.1400156040260224e-03 -7.6011695006609192e-01
    7.9389965381110334e-03 -8.5539892276830154e-01
    7.8439153053234869e-03 -9.8601329718326924e-01
    7.8439153053234869e-03 -1.0141851056742199e+00
    8.0781134463101603e-03 -1.2765694770084508e+00
    8.2104932447040757e-03 -1.3564659966250536e+00
    7.8439153053234869e-03 -1.0141851056742199e+00
    7.8815362180653225e-03 -1.1039701082909807e+00
    7.8439153053234869e-03 -9.8601329718326924e-01
    7.8439153053234869e-03 -9.8601329718326924e-01
    7.8626582598957367e-03 -1.0730867399773194e+00
    7.9389965381110334e-03 -1.1690451944500122e+00
    7.8439153053234869e-03 -9.8601329718326924e-01
    7.9069196532434508e-03 -1.1359236684941296e+00
    7.8815362180653225e-03 -1.1039701082909807e+00
    7.8501480558542495e-03 -1.0431851677040120e+00
    7.8439153053234869e-03 -9.8601329718326924e-01
    7.8439153053234869e-03 -1.0141851056742199e+00
    7.8439153053234869e-03 -1.0141851056742199e+00
    7.8626582598957367e-03 -1.0730867399773194e+00
    7.9069196532434508e-03 -1.1359236684941296e+00
    7.8439153053234869e-03 -1.0141851056742199e+00
    8.2104932447040757e-03 -1.3564659966250536e+00
    7.9780090410488131e-03 -1.2034433356286307e+00
    7.9389965381110334e-03 -1.1690451944500122e+00
    7.8439153053234869e-03 -1.0141851056742199e+00
    7.8626582598957367e-03 -9.3189111629609322e-01
    7.9389965381110334e-03 -8.5539892276830154e-01
    7.8815362180653242e-03 -9.0582162731567673e-01
    8.2104932447040757e-03 -7.3720978077448562e-01
    1.0464091762392323e-02 -4.5098761680169730e-01
    1.4098920600576536e-02 -3.0382181012510001e-01
    1.7007903037838570e-02 -2.4433888871261045e-01
    1.7007903037838570e-02 -2.4433888871261045e-01
    1.4098920600576536e-02 -3.0382181012510001e-01
    1.0837926477542770e-02 -4.2817441928883765e-01
    1.0837926477542770e-02 -4.2817441928883765e-01
    1.0837926477542770e-02 -4.2817441928883765e-01
    1.0837926477542770e-02 -4.2817441928883765e-01
    8.7180244445187495e-03 -6.2622429108514965e-01
    8.7180244445187495e-03 -6.2622429108514965e-01
    7.9069196532434508e-03 -8.8034084308295035e-01
    7.8501480558542495e-03 -1.0431851677040120e+00
    8.0242587562746447e-03 -8.0694658478592907e-01
    7.8626582598957367e-03 -1.0730867399773194e+00
    8.1400156040260241e-03 -1.3155870289605440e+00
    8.2901734757753667e-03 -1.3994046353122220e+00
    8.2901734757753667e-03 -1.3994046353122220e+00
    7.9389965381110334e-03 -1.1690451944500122e+00
    7.9069196532434508e-03 -1.1359236684941296e+00
    7.8439153053234869e-03 -1.0141851056742199e+00
    7.8501480558542495e-03 -1.0431851677040120e+00
    7.8439153053234869e-03 -9.8601329718326924e-01
    7.8815362180653225e-03 -1.1039701082909807e+00
    7.8626582598957367e-03 -1.0730867399773194e+00
    7.8439153053234869e-03 -1.0141851056742199e+00
    7.8626582598957367e-03 -9.3189111629609322e-01
    7.8501480558542495e-03 -1.0431851677040120e+00
    7.8626582598957367e-03 -1.0730867399773194e+00
    7.8626582598957367e-03 -9.3189111629609322e-01
    7.8626582598957367e-03 -1.0730867399773194e+00
    7.9389965381110334e-03 -8.5539892276830154e-01
    8.7180244445187495e-03 -1.5968719422671316e+00
    7.9069196532434508e-03 -1.1359236684941296e+00
    7.8626582598957367e-03 -1.0730867399773194e+00
    7.8626582598957367e-03 -1.0730867399773194e+00
    7.8626582598957367e-03 -9.3189111629609322e-01
    7.9780090410488131e-03 -8.3094896983881650e-01
    8.2104932447040757e-03 -7.3720978077448562e-01
    8.8580819943686710e-03 -6.0447052482698882e-01
    1.1786939891520949e-02 -3.8100038100057154e-01
    1.7007903037838570e-02 -2.4433888871261045e-01
    1.7007903037838570e-02 -2.4433888871261045e-01
    1.7007903037838570e-02 -2.4433888871261045e-01
    1.4098920600576536e-02 -3.0382181012510001e-01
    1.2402319069138648e-02 -3.5634832254989918e-01
    1.0837926477542770e-02 -4.2817441928883765e-01
    1.2402319069138648e-02 -3.5634832254989918e-01
    1.1273356753471185e-02 -4.0488816508945807e-01
    1.0139872527799082e-02 -4.7343207647399937e-01
    8.7180244445187495e-03 -6.2622429108514965e-01
    8.3797995775388382e-03 -6.9221865524317305e-01
    8.0781134463101603e-03 -7.8334945180064020e-01
    8.1400156040260224e-03 -7.6011695006609192e-01
    7.8815362180653242e-03 -9.0582162731567673e-01
    7.8501480558542478e-03 -9.5860258653882158e-01
    7.8815362180653225e-03 -1.1039701082909807e+00
    8.0781134463101603e-03 -1.2765694770084508e+00
    8.2104932447040757e-03 -1.3564659966250536e+00
    8.2104932447040757e-03 -1.3564659966250536e+00
    7.9389965381110334e-03 -1.1690451944500122e+00
    8.0781134463101603e-03 -1.2765694770084508e+00
    8.0242587562746447e-03 -1.2392393980641052e+00
    8.0242587562746447e-03 -1.2392393980641052e+00
    7.8815362180653225e-03 -1.1039701082909807e+00
    7.8815362180653225e-03 -1.1039701082909807e+00
    7.9069196532434508e-03 -8.8034084308295035e-01
    7.9069196532434508e-03 -8.8034084308295035e-01
    7.8626582598957367e-03 -9.3189111629609322e-01
    7.8815362180653225e-03 -1.1039701082909807e+00
    8.0781134463101603e-03 -1.2765694770084508e+00
    7.9389965381110334e-03 -1.1690451944500122e+00
    8.2901734757753667e-03 -1.3994046353122220e+00
    7.8439153053234869e-03 -1.0141851056742199e+00
    7.8439153053234869e-03 -9.8601329718326924e-01
    7.8815362180653242e-03 -9.0582162731567673e-01
    7.8501480558542478e-03 -9.5860258653882158e-01
    7.8815362180653242e-03 -9.0582162731567673e-01
    8.7180244445187495e-03 -6.2622429108514965e-01
    9.1896046472344940e-03 -5.6108360768678212e-01
    1.5327142612543452e-02 -2.7524094128159016e-01
    1.5327142612543452e-02 -2.7524094128159016e-01
    1.9494095287448762e-02 -2.1004201260420147e-01
    1.7007903037838570e-02 -2.4433888871261045e-01
    1.4098920600576536e-02 -3.0382181012510001e-01
    1.1786939891520949e-02 -3.8100038100057154e-01
    1.1786939891520949e-02 -3.8100038100057154e-01
    1.0837926477542770e-02 -4.2817441928883765e-01
    9.8563637458313723e-03 -4.9559462778335212e-01
    9.6067950418249320e-03 -5.1754916950676566e-01
    9.1896046472344940e-03 -5.6108360768678212e-01
    8.4802525833324038e-03 -6.7005939426048999e-01
    8.4802525833324038e-03 -6.7005939426048999e-01
    8.2104932447040757e-03 -7.3720978077448562e-01
    8.0242587562746447e-03 -8.0694658478592907e-01
    7.8439153053234869e-03 -1.0141851056742199e+00
    7.8501480558542495e-03 -1.0431851677040120e+00
    7.8439153053234869e-03 -9.8601329718326924e-01
    7.8626582598957367e-03 -1.0730867399773194e+00
    7.8815362180653225e-03 -1.1039701082909807e+00
    7.9069196532434508e-03 -1.1359236684941296e+00
    7.8815362180653225e-03 -1.1039701082909807e+00
    7.9780090410488131e-03 -1.2034433356286307e+00
    7.9069196532434508e-03 -1.1359236684941296e+00
    7.8501480558542478e-03 -9.5860258653882158e-01
    7.8501480558542495e-03 -1.0431851677040120e+00
    7.9389965381110334e-03 -8.5539892276830154e-01
    7.9069196532434508e-03 -8.8034084308295035e-01
    8.0781134463101603e-03 -7.8334945180064020e-01
    7.9780090410488131e-03 -1.2034433356286307e+00
    7.9389965381110334e-03 -1.1690451944500122e+00
    7.9389965381110334e-03 -1.1690451944500122e+00
    7.8626582598957367e-03 -1.0730867399773194e+00
    7.8501480558542495e-03 -1.0431851677040120e+00
    7.8815362180653242e-03 -9.0582162731567673e-01
    7.8501480558542478e-03 -9.5860258653882158e-01
    7.8501480558542478e-03 -9.5860258653882158e-01
    8.4802525833324038e-03 -6.7005939426048999e-01
    8.7180244445187495e-03 -6.2622429108514965e-01
    9.8563637458313723e-03 -4.9559462778335212e-01
    1.3154645874340752e-02 -3.3071891388307384e-01
    1.5327142612543452e-02 -2.7524094128159016e-01
    1.7007903037838570e-02 -2.4433888871261045e-01
    1.7007903037838570e-02 -2.4433888871261045e-01
    1.2402319069138648e-02 -3.5634832254989918e-01
    1.1786939891520949e-02 -3.8100038100057154e-01
    1.1786939891520949e-02 -3.8100038100057154e-01
    1.1273356753471185e-02 -4.0488816508945807e-01
    1.0139872527799082e-02 -4.7343207647399937e-01
    9.3859196539000378e-03 -5.3935988997059370e-01
    9.1896046472344940e-03 -5.6108360768678212e-01
    9.1896046472344940e-03 -5.6108360768678212e-01
    8.3797995775388382e-03 -6.9221865524317305e-01
    8.2901734757753667e-03 -7.1458960101049640e-01
    7.8815362180653242e-03 -9.0582162731567673e-01
    7.8626582598957367e-03 -9.3189111629609322e-01
    7.8815362180653242e-03 -9.0582162731567673e-01
    7.9780090410488131e-03 -8.3094896983881650e-01
    7.8815362180653225e-03 -1.1039701082909807e+00
    7.8626582598957367e-03 -1.0730867399773194e+00
    7.8439153053234869e-03 -1.0141851056742199e+00
    7.8815362180653225e-03 -1.1039701082909807e+00
    7.9780090410488131e-03 -1.2034433356286307e+00
    7.9780090410488131e-03 -1.2034433356286307e+00
    7.9069196532434508e-03 -1.1359236684941296e+00
    7.8439153053234869e-03 -9.8601329718326924e-01
    7.8439153053234869e-03 -9.8601329718326924e-01
    7.9389965381110334e-03 -1.1690451944500122e+00
    7.9389965381110334e-03 -1.1690451944500122e+00
    8.2104932447040757e-03 -1.3564659966250536e+00
    7.9069196532434508e-03 -1.1359236684941296e+00
    7.8626582598957367e-03 -1.0730867399773194e+00
    7.9069196532434508e-03 -8.8034084308295035e-01
    7.8439153053234869e-03 -9.8601329718326924e-01
    7.8501480558542478e-03 -9.5860258653882158e-01
    7.8501480558542478e-03 -9.5860258653882158e-01
    8.2901734757753667e-03 -7.1458960101049640e-01
    8.8580819943686710e-03 -6.0447052482698882e-01
    8.7180244445187495e-03 -6.2622429108514965e-01
    1.0139872527799082e-02 -4.7343207647399937e-01
    1.3154645874340752e-02 -3.3071891388307384e-01
    1.7007903037838570e-02 -2.4433888871261045e-01
    1.9494095287448762e-02 -2.1004201260420147e-01
    1.7007903037838570e-02 -2.4433888871261045e-01
    1.1273356753471185e-02 -4.0488816508945807e-01
    1.0837926477542770e-02 -4.2817441928883765e-01
    1.0464091762392323e-02 -4.5098761680169730e-01
    1.0464091762392323e-02 -4.5098761680169730e-01
    1.0837926477542770e-02 -4.2817441928883765e-01
    9.8563637458313723e-03 -4.9559462778335212e-01
    9.8563637458313723e-03 -4.9559462778335212e-01
    9.6067950418249320e-03 -5.1754916950676566e-01
    9.3859196539000378e-03 -5.3935988997059370e-01
    8.0781134463101603e-03 -7.8334945180064020e-01
    8.3797995775388382e-03 -6.9221865524317305e-01
    8.2901734757753667e-03 -7.1458960101049640e-01
    8.0781134463101603e-03 -7.8334945180064020e-01
    7.8439153053234869e-03 -9.8601329718326924e-01
    7.8626582598957367e-03 -9.3189111629609322e-01
    7.9780090410488131e-03 -1.2034433356286307e+00
    7.9389965381110334e-03 -1.1690451944500122e+00
    8.0781134463101603e-03 -1.2765694770084508e+00
    7.8501480558542495e-03 -1.0431851677040120e+00
    7.8439153053234869e-03 -9.8601329718326924e-01
    7.9389965381110334e-03 -1.1690451944500122e+00
    7.9780090410488131e-03 -1.2034433356286307e+00
    7.8439153053234869e-03 -1.0141851056742199e+00
    7.8815362180653225e-03 -1.1039701082909807e+00
    7.8815362180653225e-03 -1.1039701082909807e+00
    7.9780090410488131e-03 -1.2034433356286307e+00
    7.9389965381110334e-03 -1.1690451944500122e+00
    7.9069196532434508e-03 -1.1359236684941296e+00
    7.9389965381110334e-03 -8.5539892276830154e-01
    7.8815362180653242e-03 -9.0582162731567673e-01
    7.8626582598957367e-03 -9.3189111629609322e-01
    8.0781134463101603e-03 -7.8334945180064020e-01
    8.4802525833324038e-03 -6.7005939426048999e-01
    8.5925787037713936e-03 -6.4807406984078608e-01
    8.8580819943686710e-03 -6.0447052482698882e-01
    1.1273356753471185e-02 -4.0488816508945807e-01
    1.4098920600576536e-02 -3.0382181012510001e-01
    1.4098920600576536e-02 -3.0382181012510001e-01
    2.3701652425047511e-02 -1.7025130615174974e-01
    1.5327142612543452e-02 -2.7524094128159016e-01
    1.2402319069138648e-02 -3.5634832254989918e-01
    1.1273356753471185e-02 -4.0488816508945807e-01
    1.0139872527799082e-02 -4.7343207647399937e-01
    1.0139872527799082e-02 -4.7343207647399937e-01
    9.8563637458313723e-03 -4.9559462778335212e-01
    1.0139872527799082e-02 -4.7343207647399937e-01
    9.6067950418249320e-03 -5.1754916950676566e-01
    1.0139872527799082e-02 -4.7343207647399937e-01
    1.0139872527799082e-02 -4.7343207647399937e-01
    8.8580819943686710e-03 -6.0447052482698882e-01
    8.0242587562746447e-03 -8.0694658478592907e-01
    8.0781134463101603e-03 -7.8334945180064020e-01
    7.9389965381110334e-03 -8.5539892276830154e-01
    7.9069196532434508e-03 -8.8034084308295035e-01
    7.8815362180653242e-03 -9.0582162731567673e-01
    7.8815362180653242e-03 -9.0582162731567673e-01
    8.0242587562746447e-03 -1.2392393980641052e+00
    8.0242587562746447e-03 -1.2392393980641052e+00
    7.8626582598957367e-03 -1.0730867399773194e+00
    7.8439153053234869e-03 -1.0141851056742199e+00
    7.9069196532434508e-03 -8.8034084308295035e-01
    7.8439153053234869e-03 -1.0141851056742199e+00
    8.2104932447040757e-03 -1.3564659966250536e+00
    8.0781134463101603e-03 -1.2765694770084508e+00
    7.9780090410488131e-03 -1.2034433356286307e+00
    7.8501480558542478e-03 -9.5860258653882158e-01
    7.9780090410488131e-03 -8.3094896983881650e-01
    7.8815362180653242e-03 -9.0582162731567673e-01
    7.9069196532434508e-03 -8.8034084308295035e-01
    8.2104932447040757e-03 -7.3720978077448562e-01
    8.2901734757753667e-03 -7.1458960101049640e-01
    8.2104932447040757e-03 -7.3720978077448562e-01
    8.7180244445187495e-03 -6.2622429108514965e-01
    8.8580819943686710e-03 -6.0447052482698882e-01
    1.0464091762392323e-02 -4.5098761680169730e-01
    1.0837926477542770e-02 -4.2817441928883765e-01
    1.4098920600576536e-02 -3.0382181012510001e-01
    1.5327142612543452e-02 -2.7524094128159016e-01
    1.7007903037838570e-02 -2.4433888871261045e-01
    1.4098920600576536e-02 -3.0382181012510001e-01
    1.3154645874340752e-02 -3.3071891388307384e-01
    1.0837926477542770e-02 -4.2817441928883765e-01
    1.0837926477542770e-02 -4.2817441928883765e-01
    1.0837926477542770e-02 -4.2817441928883765e-01
    1.1273356753471185e-02 -4.0488816508945807e-01
    1.0837926477542770e-02 -4.2817441928883765e-01
    1.0837926477542770e-02 -4.2817441928883765e-01
    1.0464091762392323e-02 -4.5098761680169730e-01
    1.1273356753471185e-02 -4.0488816508945807e-01
    1.0464091762392323e-02 -4.5098761680169730e-01
    9.8563637458313723e-03 -4.9559462778335212e-01
    8.3797995775388382e-03 -6.9221865524317305e-01
    8.0781134463101603e-03 -7.8334945180064020e-01
    7.8815362180653242e-03 -9.0582162731567673e-01
    7.9389965381110334e-03 -8.5539892276830154e-01
    7.9069196532434508e-03 -8.8034084308295035e-01
    7.8439153053234869e-03 -1.0141851056742199e+00
    7.9389965381110334e-03 -1.1690451944500122e+00
    7.8626582598957367e-03 -1.0730867399773194e+00
    7.8501480558542478e-03 -9.5860258653882158e-01
    7.8815362180653242e-03 -9.0582162731567673e-01
    8.0242587562746447e-03 -1.2392393980641052e+00
    7.9389965381110334e-03 -1.1690451944500122e+00
    8.0781134463101603e-03 -1.2765694770084508e+00
    7.9069196532434508e-03 -8.8034084308295035e-01
    7.8439153053234869e-03 -9.8601329718326924e-01
    7.8815362180653242e-03 -9.0582162731567673e-01
    7.9069196532434508e-03 -8.8034084308295035e-01
    8.2104932447040757e-03 -7.3720978077448562e-01
    8.2901734757753667e-03 -7.1458960101049640e-01
    9.1896046472344940e-03 -5.6108360768678212e-01
    9.0145485264530398e-03 -5.8277151741435851e-01
    9.1896046472344940e-03 -5.6108360768678212e-01
    1.0139872527799082e-02 -4.7343207647399937e-01
    1.1786939891520949e-02 -3.8100038100057154e-01
    1.1786939891520949e-02 -3.8100038100057154e-01
    1.4098920600576536e-02 -3.0382181012510001e-01
    2.3701652425047511e-02 -1.7025130615174974e-01
    1.9494095287448762e-02 -2.1004201260420147e-01
    1.5327142612543452e-02 -2.7524094128159016e-01
    1.4098920600576536e-02 -3.0382181012510001e-01
    1.1786939891520949e-02 -3.8100038100057154e-01
    1.1273356753471185e-02 -4.0488816508945807e-01
    1.1786939891520949e-02 -3.8100038100057154e-01
    1.2402319069138648e-02 -3.5634832254989918e-01
    1.1786939891520949e-02 -3.8100038100057154e-01
    1.2402319069138648e-02 -3.5634832254989918e-01
    1.4098920600576536e-02 -3.0382181012510001e-01
    1.2402319069138648e-02 -3.5634832254989918e-01
    1.1786939891520949e-02 -3.8100038100057154e-01
    1.0837926477542770e-02 -4.2817441928883765e-01
    9.8563637458313723e-03 -4.9559462778335212e-01
    9.3859196539000378e-03 -5.3935988997059370e-01
    8.5925787037713936e-03 -6.4807406984078608e-01
    8.4802525833324038e-03 -6.7005939426048999e-01
    8.1400156040260224e-03 -7.6011695006609192e-01
    8.0242587562746447e-03 -8.0694658478592907e-01
    7.8439153053234869e-03 -1.0141851056742199e+00
    7.8501480558542495e-03 -1.0431851677040120e+00
    7.8626582598957367e-03 -1.0730867399773194e+00
    7.8439153053234869e-03 -9.8601329718326924e-01
    7.9780090410488131e-03 -1.2034433356286307e+00
    8.0242587562746447e-03 -1.2392393980641052e+00
    7.8501480558542495e-03 -1.0431851677040120e+00
    7.8501480558542478e-03 -9.5860258653882158e-01
    7.8501480558542478e-03 -9.5860258653882158e-01
    7.9780090410488131e-03 -8.3094896983881650e-01
    8.1400156040260224e-03 -7.6011695006609192e-01
    8.4802525833324038e-03 -6.7005939426048999e-01
    8.4802525833324038e-03 -6.7005939426048999e-01
    9.3859196539000378e-03 -5.3935988997059370e-01
    9.6067950418249320e-03 -5.1754916950676566e-01
    1.1786939891520949e-02 -3.8100038100057154e-01
    1.4098920600576536e-02 -3.0382181012510001e-01
    1.3154645874340752e-02 -3.3071891388307384e-01
    1.3154645874340752e-02 -3.3071891388307384e-01
    1.5327142612543452e-02 -2.7524094128159016e-01
    1.7007903037838570e-02 -2.4433888871261045e-01 1. 0.
    1.9494095287448762e-02 -2.1004201260420147e-01
    1.7007903037838570e-02 -2.4433888871261045e-01
    1.5327142612543452e-02 -2.7524094128159016e-01
    1.5327142612543452e-02 -2.7524094128159016e-01
    1.5327142612543452e-02 -2.7524094128159016e-01
    1.5327142612543452e-02 -2.7524094128159016e-01
    1.5327142612543452e-02 -2.7524094128159016e-01
    1.5327142612543452e-02 -2.7524094128159016e-01
    1.4098920600576536e-02 -3.0382181012510001e-01
    1.5327142612543452e-02 -2.7524094128159016e-01
    1.4098920600576536e-02 -3.0382181012510001e-01
    1.3154645874340752e-02 -3.3071891388307384e-01
    1.1786939891520949e-02 -3.8100038100057154e-01
    1.1273356753471185e-02 -4.0488816508945807e-01
    1.0837926477542770e-02 -4.2817441928883765e-01
    9.1896046472344940e-03 -5.6108360768678212e-01
    8.3797995775388382e-03 -6.9221865524317305e-01
    7.9069196532434508e-03 -8.8034084308295035e-01
    8.2104932447040757e-03 -7.3720978077448562e-01
    8.3797995775388382e-03 -6.9221865524317305e-01
    7.8815362180653242e-03 -9.0582162731567673e-01
    8.1400156040260224e-03 -7.6011695006609192e-01
    7.8501480558542495e-03 -1.0431851677040120e+00
    8.2104932447040757e-03 -7.3720978077448562e-01
    7.8501480558542478e-03 -9.5860258653882158e-01
    8.1400156040260224e-03 -7.6011695006609192e-01
    8.0242587562746447e-03 -8.0694658478592907e-01
    8.2104932447040757e-03 -7.3720978077448562e-01
    8.3797995775388382e-03 -6.9221865524317305e-01
    8.5925787037713936e-03 -6.4807406984078608e-01
    9.8563637458313723e-03 -4.9559462778335212e-01
    1.0837926477542770e-02 -4.2817441928883765e-01
    1.5327142612543452e-02 -2.7524094128159016e-01
    1.5327142612543452e-02 -2.7524094128159016e-01
    1.5327142612543452e-02 -2.7524094128159016e-01
    1.7007903037838570e-02 -2.4433888871261045e-01
    1.7007903037838570e-02 -2.4433888871261045e-01
    1.7007903037838570e-02 -2.4433888871261045e-01
    1.7007903037838570e-02 -2.4433888871261045e-01
    3.3278914220683117e-02 -1.1952286093343936e-01
    1.7007903037838570e-02 -2.4433888871261045e-01
    1.7007903037838570e-02 -2.4433888871261045e-01
    1.7007903037838570e-02 -2.4433888871261045e-01
    1.9494095287448762e-02 -2.1004201260420147e-01
    2.3701652425047511e-02 -1.7025130615174974e-01
    1.9494095287448762e-02 -2.1004201260420147e-01
    1.9494095287448762e-02 -2.1004201260420147e-01
    1.9494095287448762e-02 -2.1004201260420147e-01
    1.5327142612543452e-02 -2.7524094128159016e-01
    1.7007903037838570e-02 -2.4433888871261045e-01
    1.7007903037838570e-02 -2.4433888871261045e-01
    1.5327142612543452e-02 -2.7524094128159016e-01
    1.7007903037838570e-02 -2.4433888871261045e-01
    1.7007903037838570e-02 -2.4433888871261045e-01
    1.5327142612543452e-02 -2.7524094128159016e-01
    1.0139872527799082e-02 -4.7343207647399937e-01
    1.0837926477542770e-02 -4.2817441928883765e-01
    1.0464091762392323e-02 -4.5098761680169730e-01
    1.0464091762392323e-02 -4.5098761680169730e-01
    8.4802525833324038e-03 -6.7005939426048999e-01
    8.7180244445187495e-03 -6.2622429108514965e-01
    1.1786939891520949e-02 -3.8100038100057154e-01
    9.3859196539000378e-03 -5.3935988997059370e-01
    8.1400156040260224e-03 -7.6011695006609192e-01
    8.5925787037713936e-03 -6.4807406984078608e-01
    8.2901734757753667e-03 -7.1458960101049640e-01
    8.2901734757753667e-03 -7.1458960101049640e-01
    8.3797995775388382e-03 -6.9221865524317305e-01
    8.7180244445187495e-03 -6.2622429108514965e-01
    9.6067950418249320e-03 -5.1754916950676566e-01
    1.2402319069138648e-02 -3.5634832254989918e-01
    1.5327142612543452e-02 -2.7524094128159016e-01
    1.5327142612543452e-02 -2.7524094128159016e-01
    1.5327142612543452e-02 -2.7524094128159016e-01
    1.7007903037838570e-02 -2.4433888871261045e-01
    1.9494095287448762e-02 -2.1004201260420147e-01
    1.9494095287448762e-02 -2.1004201260420147e-01
    1.9494095287448762e-02 -2.1004201260420147e-01
    1.7007903037838570e-02 -2.4433888871261045e-01</input_scale>
  <output_scale>
    1.0526315789473684e+00 0.</output_scale>
  <inv_output_scale>
    9.4999999999999996e-01 0.</inv_output_scale>
  <weights>
    <_>
      -1.1719048386403424e-03 -2.2903224389177911e-04
      -9.9637750405231888e-04 -5.5088375721748159e-04
      2.2039270841974236e-04 1.2144499427915077e-03
      9.9728247011042037e-04 2.0453599492093418e-04
      -7.2831549546728146e-04 -4.2920232853557353e-04
      -1.1054717958401724e-03 -1.2409612586460942e-04
      -2.1397120762249158e-05 -7.8018402384446585e-04
      6.7194088742161514e-04 -1.1208781013474275e-03
      1.1037170489498088e-03 1.0083693640301039e-03
      -2.5698247005999147e-04 -3.4383640164285737e-05
      3.0002183913935715e-04 -7.7645728251324352e-04
      -6.5397802009701264e-04 9.5527311481024093e-04
      -1.0954164450422850e-03 -3.1663012947851025e-04
      6.1523554708813478e-04 -6.3403300196013517e-04
      1.0630743572223426e-03 -2.4215284090006096e-04
      1.2150750992007805e-03 -3.7732545206526025e-04
      2.2581237915161135e-04 8.1166924113520002e-04
      1.1322676431532379e-03 5.1786688077618958e-04
      8.1904968067006900e-04 5.2277548999592920e-04
      1.2256443938238879e-03 -1.5902424652943092e-04
      -4.6752770111297126e-01 -2.5647400511055633e-02
      -2.3708391496665336e-02 3.1604570081496266e-03
      2.0395429745084206e-02 3.8930445707628616e-02
      -1.4745608294523600e-02 1.9437522315208355e-02
      -5.1904402965350982e-02 -2.8427916232801487e-02
      1.6288440872324318e-02 -1.7398035086565383e-02
      1.8165369908458500e-02 1.1050017201709774e-02
      -4.9546212330644483e-02 2.9533703333013327e-02
      -5.0539066156875430e-02 -1.6131476865872716e-02
      2.9281447636318955e-02 -2.6998611446488505e-02
      1.8221872927565774e-02 4.6408175138408496e-02
      4.9926921604680770e-02 -2.1942220307626686e-02
      2.7428742753856782e-02 -4.8923593198751857e-02
      -2.6865154165446742e-02 2.6562515154265356e-02
      3.1272332627075312e-03 2.1977906791197401e-02
      2.4395994679057266e-02 2.6966397245521426e-02
      -2.8689825856238572e-02 1.2587184047839202e-03
      -1.4269470129578566e-02 4.6419391612675984e-02
      -2.1735531765353956e-02 -8.0913573968712758e-03
      2.3913524562935246e-02 2.0896851722020212e-02
      1.8689921511090943e-01 9.0131984286432806e-03
      1.1661468202277614e-02 8.1956125548425483e-03
      -9.8026703226742045e-03 9.6093765534058743e-03
      -8.5076859169361044e-03 -1.0502373106387387e-02
      1.9185744631501585e-02 3.9542243213383805e-03
      7.1977780436074728e-03 8.9943313003351469e-03
      8.8481641723648675e-03 -1.0441166770778373e-02
      2.4791255822498727e-02 7.4222964197939124e-03
      1.7165637805354052e-02 1.0655117633684440e-02
      -4.3333301120653473e-03 3.0994478366389165e-03
      -8.6392537779800757e-03 6.8841332481132606e-03
      -1.9955206493387084e-02 1.2733953638017877e-02
      8.0163360863507189e-03 -1.0054966416731884e-03
      8.6393454871924302e-03 -8.5304697566115119e-03
      9.8408415588144837e-03 7.7251635049530630e-03
      -1.2112093788801062e-02 -9.3069383580164020e-03
      3.6888654108547360e-03 8.1545312356156273e-03
      1.0570659895373927e-02 5.9007052070319992e-03
      1.1503982071055281e-02 9.6179116912445076e-03
      -1.1343654687503186e-02 -1.0487410981690730e-02
      3.5042856421757508e-02 -3.2132251019632322e-03
      7.9325550821966861e-03 8.7526002139268980e-03
      -8.8227501076499418e-03 9.9865575698018065e-03
      -7.4969191280636390e-03 -9.4704795705755629e-03
      -1.2380528951631050e-02 1.4925844475035310e-02
      8.2252283364159830e-03 9.3527912994516241e-03
      8.7606714631032184e-03 -8.0171301344943661e-03
      -1.2558313008032443e-02 9.5858080404535983e-03
      -1.2461301190635571e-02 8.4775079858890705e-03
      -1.0959478901773574e-02 1.5843914817957442e-02
      -7.5901439219361756e-03 1.0612889944221689e-02
      1.4175743943443347e-02 6.9180239946734483e-03
      1.0104742858321336e-02 -1.1227437868166443e-02
      -2.7235877413309059e-03 9.8577059184891541e-03
      9.1500258608751463e-03 8.8613899701830718e-03
      -3.4256876893751969e-03 2.9237635950421456e-03
      1.0299050850410904e-02 7.9244964514429157e-03
      7.6435161869701134e-03 1.1509426612277131e-02
      7.2582378954212101e-03 7.9950308050571323e-03
      -5.6885104591727377e-05 -9.3648075434954372e-03
      7.4700214292954398e-02 9.9126951553039893e-03
      1.6107513182912744e-02 1.3389620593903445e-02
      -1.7804643205853957e-02 1.7767232775477721e-02
      -1.2886391461997970e-02 -1.4546115995024086e-02
      -5.5661689915843899e-03 3.9040892741301582e-03
      1.2920783629439636e-02 1.4725750881982866e-02
      1.4118761645950594e-02 -1.2781610214847623e-02
      -5.5026800050450983e-03 1.4347390924163315e-02
      -5.4652185670756546e-03 1.3210599607011301e-02
      3.2763252848953963e-04 4.9199934910341223e-03
      -1.4723647064776194e-02 1.6002521866854150e-02
      5.1993956536543805e-03 1.7278603285271164e-02
      1.5406340475192829e-02 -1.3733234813960280e-02
      8.0048927655945387e-03 9.9432839696732170e-04
      1.1397801773261466e-02 1.3280189296683377e-02
      -1.2929652029183517e-02 -8.2081813856314002e-03
      -4.5196126919940958e-03 1.3743623299150871e-02
      1.0689801665600901e-02 1.6760761514497572e-02
      1.5531719251070339e-02 1.2905406118498358e-02
      -1.2138245215560893e-02 -1.6305414971103105e-02
      7.5125978458921078e-02 8.5417025028509241e-03
      1.6958280253067018e-02 1.4019549247713581e-02
      -1.6660556987103874e-02 1.6417831752685127e-02
      -1.3397219525563116e-02 -1.5003626573150304e-02
      -5.4133038412621992e-03 4.1182635261217152e-03
      1.1680159298750825e-02 1.4317471898134345e-02
      1.4312636656812599e-02 -1.3187807613748777e-02
      -3.9031027334832458e-03 1.4805689144596103e-02
      -6.1649620542144849e-03 1.1813005724670967e-02
      -1.5959849864569688e-03 4.7681994026882047e-03
      -1.4714062786288300e-02 1.7393106354002281e-02
      6.6269668152169328e-03 1.7391447511348329e-02
      1.3415940861358619e-02 -1.4428549249861923e-02
      9.6064652948249039e-03 2.3793927266069385e-04
      1.1891738471126378e-02 1.3555024210714122e-02
      -1.3576635676197530e-02 -8.3068484042467979e-03
      -3.0425753193148047e-03 1.4642644059193067e-02
      1.1899543201552320e-02 1.6666935245563671e-02
      1.6310612184248063e-02 1.2892199390488808e-02
      -1.1082594659372903e-02 -1.7731067526086851e-02
      3.5823111510158497e-02 -4.6419165640715181e-03
      8.3989810253380943e-03 9.4794460924312873e-03
      -1.0557043032704473e-02 9.8268994782058396e-03
      -9.1906589455860391e-03 -9.9873044745095556e-03
      -1.1937652169886709e-02 1.5729564117039612e-02
      7.7324695974893996e-03 9.2275311101694575e-03
      8.2008729000836167e-03 -7.1460196023946498e-03
      -1.1452200159312156e-02 9.9641243119417966e-03
      -1.4167997037179681e-02 6.5512097365569011e-03
      -1.0602763671556915e-02 1.7806148239870284e-02
      -8.1326174706407225e-03 1.2219628218167815e-02
      1.4165948385074305e-02 6.6693985406583913e-03
      7.8421973722652399e-03 -1.0163672724175980e-02
      -2.3676176431566553e-03 1.1833357549149368e-02
      7.2762252076239856e-03 8.7759016545888389e-03
      -3.3091648924451445e-03 2.5219403396805570e-03
      9.6407669011567085e-03 7.8703317174245273e-03
      7.9809916497885977e-03 1.2500635938195228e-02
      5.8280053802903971e-03 8.2354599542884509e-03
      -1.6494686192172958e-03 -8.5416119371051671e-03
      3.6016667771198059e-02 -4.6594595918322164e-03
      6.1704054934006748e-03 8.1882442789304680e-03
      -1.0438430272477095e-02 1.1387348389448198e-02
      -7.6012762674340928e-03 -8.6508698221746186e-03
      -1.1536125799776455e-02 1.5466610802276190e-02
      9.2236698361067761e-03 9.9834804877452343e-03
      7.2547549850120775e-03 -6.6176593239603105e-03
      -1.1266543071935531e-02 8.2011538853934904e-03
      -1.4394160074639648e-02 7.9259080088581752e-03
      -1.0888016201011166e-02 1.7443250043224303e-02
      -7.6945242039757507e-03 1.0583588513377441e-02
      1.3809445153455132e-02 7.7657719498253810e-03
      8.9428242796177043e-03 -1.2383700634463491e-02
      -3.6005085917989394e-03 1.0037472031467421e-02
      8.5789559531381804e-03 8.3350234198400399e-03
      -5.0453634682034090e-03 1.3696297286125497e-03
      9.9312354086670430e-03 8.2417538270590576e-03
      7.2628326029387834e-03 1.2175325160307979e-02
      7.1210003206416536e-03 7.0109437330492163e-03
      2.9013734491195093e-04 -8.1250557369622872e-03
      -1.5077937585800498e-02 -3.8977512079160703e-03
      4.6835351750617801e-03 1.0049051386927006e-02
      -7.6790582236966861e-03 1.9839101512096370e-02
      -1.0870273234642900e-02 -6.9000550739582965e-03
      -2.5552387880058178e-02 1.0842155495722205e-02
      9.1350744771445651e-03 6.9358788063787116e-03
      9.9836884170924917e-03 -7.2674651379044360e-03
      -2.3722622140487894e-02 1.3080385383412439e-02
      -2.5307488436880615e-02 4.6219341421159989e-03
      -7.5829563475303605e-03 1.2128102428209268e-02
      -5.3522652359247625e-03 2.0374466503485671e-02
      2.5968856222478107e-02 4.4292081396550076e-03
      1.2713421109154173e-02 -2.3145265432704513e-02
      -1.4264786083166088e-03 6.9976015992180007e-03
      6.7431928356737015e-03 1.2446244598625693e-02
      -4.0103322283030251e-03 1.4749003426453760e-03
      5.1116721540327903e-03 8.8467365353962109e-03
      3.9570954329868980e-03 2.1918510562342938e-02
      4.9947859328000237e-03 5.5075424207146392e-03
      -2.0202409655280984e-03 -5.6380451762208369e-03
      3.5982460236356158e-02 -4.9881937316331015e-03
      7.8031684874358574e-03 8.0844447166658982e-03
      -9.7178142801723141e-03 1.0611698997091350e-02
      -8.6530299341634163e-03 -9.2830401901108257e-03
      -1.3901116226848843e-02 1.5847081678479709e-02
      8.2238884684549540e-03 9.7649047137902296e-03
      7.5603999691480888e-03 -6.8239936492481479e-03
      -1.0798644096053160e-02 8.1853466767061941e-03
      -1.2651104901968940e-02 8.8880732171029032e-03
      -1.0098465237940814e-02 1.7718492360679745e-02
      -8.0575328830092986e-03 1.1472594230137941e-02
      1.1966460555909206e-02 7.1197190795199133e-03
      1.0038626304972676e-02 -1.0761493740444600e-02
      -2.5121882174246705e-03 1.1337803738598221e-02
      7.3226885419364887e-03 8.6086247109112852e-03
      -4.0046081999256435e-03 1.2675696979992774e-03
      9.1678905380566163e-03 8.7682942252267498e-03
      7.1309839838195515e-03 1.0136204160191536e-02
      6.9609929234006815e-03 8.1198002633157337e-03
      -1.8022985211741571e-03 -8.8738456834704001e-03
      -1.4532480417081772e-02 -4.8768350017611688e-03
      4.9645708394248185e-03 9.2669922742803362e-03
      -5.6363254444375330e-03 1.9782502423207823e-02
      -1.0929574800682627e-02 -6.6760149870758179e-03
      -2.4620580409708392e-02 1.1570443514567263e-02
      1.0903972872070207e-02 5.7396919782202582e-03
      1.0978289144796226e-02 -5.2340866134066672e-03
      -2.3534538799381294e-02 1.2948386928745002e-02
      -2.5493598512500885e-02 4.0926966715232830e-03
      -7.5561768024767721e-03 1.1346114356621665e-02
      -6.4070800827755120e-03 2.2112993470304813e-02
      2.5886334268130508e-02 5.9905002253212054e-03
      1.2982696300047397e-02 -2.1857298264526693e-02
      -2.7478559194286890e-03 6.8477459076252203e-03
      7.4905028654250654e-03 1.1628627055412436e-02
      -3.6261888787928005e-03 1.6010726511138467e-03
      5.0762128099730427e-03 8.4092841077008599e-03
      3.6346665758128418e-03 2.0916755788774687e-02
      4.8074277901975172e-03 6.9522197971017283e-03
      -1.7135427540390111e-03 -6.1035702479971038e-03
      -1.5961487863048927e-02 -3.8063559558028075e-03
      5.5838318329302812e-03 8.9670173672552634e-03
      -7.7837768381778553e-03 1.8578368206814116e-02
      -1.0384856861280873e-02 -5.1638817598552147e-03
      -2.5224622200622927e-02 1.0227087531667012e-02
      1.0307853922240630e-02 5.6618486878545413e-03
      1.1162456923413224e-02 -7.2375989557935741e-03
      -2.3943362913682133e-02 1.4748662596783290e-02
      -2.5907072317667496e-02 6.0110169727115494e-03
      -6.3145930382252973e-03 1.3545721170048496e-02
      -5.1688331005064264e-03 2.1427522127632000e-02
      2.3760704310262781e-02 6.2425998932591790e-03
      1.3691867612302464e-02 -2.1723269276972972e-02
      -2.1166135891763438e-03 6.2980827373124992e-03
      8.3434169171800864e-03 1.0579719449249724e-02
      -3.0055435890879991e-03 2.1966756277395408e-03
      5.8977686572401766e-03 8.1291196390064890e-03
      5.8003956988402555e-03 2.1555169959726013e-02
      4.7175052004543045e-03 4.9944207124444934e-03
      -3.5564107826586744e-04 -5.8649563800739317e-03
      -1.4445880045344556e-02 -5.9058919301367314e-03
      4.2512549840307001e-03 1.0232748152296665e-02
      -5.7656143275238844e-03 1.8254762547927145e-02
      -9.7794787519420324e-03 -5.5858277595350996e-03
      -2.4203913869922572e-02 1.0355648723390287e-02
      8.8035238511744319e-03 7.4936856738938851e-03
      9.4769795015028843e-03 -5.8660723468470753e-03
      -2.3026241922285570e-02 1.4455617583676554e-02
      -2.5865900358271767e-02 5.8176755803985708e-03
      -7.5092442364998024e-03 1.2136271907806188e-02
      -5.1787549334870904e-03 2.0122805971059955e-02
      2.5199796180839704e-02 5.9632121788151769e-03
      1.2222110834530285e-02 -2.2621189846757660e-02
      -2.3616867799761418e-03 7.3250804373952618e-03
      7.4230102824432613e-03 1.1007541602159441e-02
      -4.1914738487947171e-03 1.5609048485411606e-03
      6.3599222894632941e-03 8.6792278230349885e-03
      4.7130011169413105e-03 2.1291916665156271e-02
      3.1763071378825983e-03 5.8212811417955243e-03
      -1.6552786669313014e-04 -7.4438351701425357e-03
      1.2826078057188656e-01 1.3691509176716018e-02
      2.3175027855832524e-02 1.0329477259099256e-02
      -2.2330209273629838e-02 2.3198619962028822e-03
      -8.8501112899380154e-03 -1.8017958611907189e-02
      -4.9377667015245682e-03 4.7768956622821823e-02
      7.6312176045357531e-03 1.9922934160015383e-02
      8.6794775253921236e-03 -1.7526972576914369e-02
      -3.4328790246346132e-03 3.9355082020033289e-03
      -5.5866307543106812e-03 1.7133290053622907e-02
      -5.1071673537191879e-02 5.2379834155605098e-02
      -2.0754861568794306e-02 2.2580938497580249e-03
      4.5440943327932281e-03 2.4095564347000508e-02
      5.4575200351879728e-03 -1.0847274597781829e-03
      1.9043221922543901e-02 -1.3884263716148241e-02
      1.0742256345798860e-02 6.4653247235032371e-03
      -2.3422913483401937e-02 -1.8107900457125552e-02
      4.1974019320048225e-02 1.1916684674106164e-02
      1.5908229312385402e-02 6.7166681014868860e-04
      2.0591208776564559e-02 1.4167307695822954e-02
      -2.1079088285497156e-02 -2.3292871207856669e-02
      -7.5357017418310232e-02 9.5456684802623665e-03
      4.7725689275888803e-03 5.0467725412945341e-04
      -3.8763888906078719e-03 1.3053727035306506e-03
      8.7268916630827743e-04 -9.9889935301736071e-04
      -9.9301530114548793e-03 2.1377107816182087e-03
      -1.8362628978157246e-04 1.7132277134038725e-03
      3.1521190951958923e-04 1.5664815081732589e-03
      -1.3480114403741614e-02 -1.1069385999880495e-03
      -1.0371349486032435e-02 -2.6801161050898406e-05
      -4.7177978966993434e-03 1.5875038579381505e-03
      -4.6669209384147365e-04 7.8551440774558053e-04
      1.1360462928521511e-02 6.1111450021174027e-03
      -8.1333741508524159e-04 -2.1183738349730267e-03
      9.5578182837910038e-03 -8.1533557661563269e-03
      -1.1346231437618594e-03 -6.8858183476053615e-04
      -6.2222497274569853e-03 -8.7517922141643906e-03
      1.2572424525946427e-03 2.5358343119521364e-04
      1.9752988025204649e-04 -1.9108401753803532e-04
      4.9256358090957776e-03 6.7534171473689389e-04
      -8.2559180164519189e-03 -4.8509937218670545e-03
      5.6466461455779896e-02 5.5152461681137958e-02
      4.1964710565697803e-02 1.4491069655959499e-02
      -3.6934599234312318e-02 6.4416819865845227e-03
      -1.3769379634769763e-02 -3.1679442701112219e-02
      -1.0380399359326758e-02 6.3292123327250718e-02
      1.3048931722133445e-02 2.9479191114611482e-02
      1.4172719791556536e-02 -2.0452719836254046e-02
      -1.7287074225912375e-02 1.0590207972753696e-02
      -1.1292476734986137e-02 2.4648017253987395e-02
      -6.0759275391018136e-02 6.3073892542888116e-02
      -2.8747075910138725e-02 4.4349809373920527e-03
      1.3307894135964275e-02 4.3478501568798664e-02
      1.1603682216921509e-02 -6.2396839792716917e-03
      6.0104924693913854e-02 -6.3277926640797053e-02
      1.5524178350517552e-02 1.1202688813651152e-02
      -4.7948697972391895e-02 -5.9200146349778479e-02
      6.6440002955529473e-02 1.6417525521515652e-02
      2.1905309901221533e-02 2.4781651566351637e-03
      4.2261358002034434e-02 1.8558927514190970e-02
      -5.2338712426899470e-02 -3.9344857555578511e-02
      5.5687932986924746e-02 5.5448605385961212e-02
      4.3115625468864292e-02 1.6222511073841501e-02
      -3.6537431763364520e-02 4.5789151501209905e-03
      -1.3879962207530482e-02 -3.2423668407948088e-02
      -9.6999345857782734e-03 6.2701632239878596e-02
      1.1674596919060238e-02 3.1625434374470296e-02
      1.3805298547910089e-02 -1.8972891588178033e-02
      -1.8801473512283996e-02 1.1883572631562389e-02
      -1.0833992278528402e-02 2.6570656457157518e-02
      -5.9014324261617089e-02 6.4598136252914773e-02
      -2.8691003704466068e-02 2.4419649822335081e-03
      1.3379494585349275e-02 4.3314570126383789e-02
      1.2229819134137294e-02 -6.6248591974217954e-03
      5.9469422212129731e-02 -6.3038456787882322e-02
      1.3697073286420208e-02 1.2490182226606937e-02
      -4.7990109948203498e-02 -5.7058532095904030e-02
      6.5863454889317510e-02 1.5177958058799828e-02
      2.2451399036641236e-02 3.5558443041751324e-03
