<?xml version="1.0"?>
<opencv_storage>
<shapeML type_id="opencv-ml-ann-mlp">
  <layer_sizes type_id="opencv-matrix">
    <rows>1</rows>
    <cols>3</cols>
    <dt>i</dt>
    <data>
      1600 40 1</data></layer_sizes>
  <activation_function>SIGMOID_SYM</activation_function>
  <f_param1>5.9999999999999998e-01</f_param1>
  <f_param2>1.</f_param2>
  <min_val>-9.4999999999999996e-01</min_val>
  <max_val>9.4999999999999996e-01</max_val>
  <min_val1>-9.7999999999999998e-01</min_val1>
  <max_val1>9.7999999999999998e-01</max_val1>
  <training_params>
    <train_method>BACKPROP</train_method>
    <dw_scale>1.0000000000000001e-01</dw_scale>
    <moment_scale>1.0000000000000001e-01</moment_scale>
    <term_criteria><epsilon>9.9999999747524271e-07</epsilon>
      <iterations>4000</iterations></term_criteria></training_params>
  <input_scale>
    5.0678754796397184e-02 -7.7849894416152296e-02
    2.5572924984088644e-02 -1.5713484026367722e-01
    5.0678754796397184e-02 -7.7849894416152296e-02
    5.0678754796397184e-02 -7.7849894416152296e-02
    2.9438350922846405e-02 -1.3566468949384036e-01
    2.9438350922846405e-02 -1.3566468949384036e-01
    2.2944044030811777e-02 -1.7622684421256032e-01
    2.5572924984088644e-02 -1.5713484026367722e-01
    2.1010301812759188e-02 -1.9364916731037082e-01
    1.9512832899766665e-02 -2.0982172726556322e-01
    1.8310254073894115e-02 -2.2501758018520479e-01
    1.6481836758420455e-02 -2.5318484177091660e-01
    1.9512832899766665e-02 -2.0982172726556322e-01
    1.8310254073894115e-02 -2.2501758018520479e-01
    1.7317963767532717e-02 -2.3942606534028665e-01
    1.5765426201885518e-02 -2.6639771383306554e-01
    1.5143174404524134e-02 -2.7914526311954124e-01
    2.1010301812759188e-02 -1.9364916731037082e-01
    1.8310254073894115e-02 -2.2501758018520479e-01
    1.1797072790646713e-02 -3.8056219755369364e-01
    1.0626215652437784e-02 -4.4073189618695269e-01
    1.2317779903237942e-02 -3.5951592548908329e-01
    1.4596559974299067e-02 -2.9149154406506872e-01
    1.5765426201885518e-02 -2.6639771383306554e-01
    2.9438350922846405e-02 -1.3566468949384036e-01
    2.9438350922846405e-02 -1.3566468949384036e-01
    2.5572924984088644e-02 -1.5713484026367722e-01
    2.1010301812759188e-02 -1.9364916731037082e-01
    2.5572924984088644e-02 -1.5713484026367722e-01
    1.9512832899766665e-02 -2.0982172726556322e-01
    1.7317963767532717e-02 -2.3942606534028665e-01
    2.1010301812759188e-02 -1.9364916731037082e-01
    1.8310254073894115e-02 -2.2501758018520479e-01
    2.2944044030811777e-02 -1.7622684421256032e-01
    1.8310254073894115e-02 -2.2501758018520479e-01
    1.8310254073894115e-02 -2.2501758018520479e-01
    3.5944379075342210e-02 -1.1043152607484655e-01
    3.5944379075342210e-02 -1.1043152607484655e-01
    5.0678754796397184e-02 -7.7849894416152296e-02
    2.9438350922846405e-02 -1.3566468949384036e-01
    2.5572924984088644e-02 -1.5713484026367722e-01
    2.2944044030811777e-02 -1.7622684421256032e-01
    5.0678754796397184e-02 -7.7849894416152296e-02
    3.5944379075342210e-02 -1.1043152607484655e-01
    2.2944044030811777e-02 -1.7622684421256032e-01
    2.2944044030811777e-02 -1.7622684421256032e-01
    1.9512832899766665e-02 -2.0982172726556322e-01
    1.8310254073894115e-02 -2.2501758018520479e-01
    1.7317963767532717e-02 -2.3942606534028665e-01
    1.6481836758420455e-02 -2.5318484177091660e-01
    1.3288081611176719e-02 -3.2659863237109044e-01
    1.2612488909460130e-02 -3.4874291623145781e-01
    1.2934519881649001e-02 -3.3777797401776155e-01
    1.1351048279453126e-02 -4.0104757927103968e-01
    1.0626215652437784e-02 -4.4073189618695269e-01
    1.0062830940678160e-02 -4.7919685895217384e-01
    1.0626215652437784e-02 -4.4073189618695269e-01
    9.7172076518043469e-03 -5.0751921892255236e-01
    9.5157928892135209e-03 -5.2623481158421759e-01
    1.0062830940678160e-02 -4.7919685895217384e-01
    9.2498298419117515e-03 -5.5415396251694204e-01
    1.0062830940678160e-02 -4.7919685895217384e-01
    9.7172076518043469e-03 -5.0751921892255236e-01
    1.0327819165828261e-02 -4.6008567910421683e-01
    1.1565790495108278e-02 -3.9086797998528577e-01
    1.3288081611176719e-02 -3.2659863237109044e-01
    1.6481836758420455e-02 -2.5318484177091660e-01
    1.5143174404524134e-02 -2.7914526311954124e-01
    1.5143174404524134e-02 -2.7914526311954124e-01
    1.4596559974299067e-02 -2.9149154406506872e-01
    1.5143174404524134e-02 -2.7914526311954124e-01
    1.5765426201885518e-02 -2.6639771383306554e-01
    1.5143174404524134e-02 -2.7914526311954124e-01
    1.5143174404524134e-02 -2.7914526311954124e-01
    1.4596559974299067e-02 -2.9149154406506872e-01
    1.5765426201885518e-02 -2.6639771383306554e-01
    2.9438350922846405e-02 -1.3566468949384036e-01
    3.5944379075342210e-02 -1.1043152607484655e-01
    2.5572924984088644e-02 -1.5713484026367722e-01
    2.1010301812759188e-02 -1.9364916731037082e-01
    5.0678754796397184e-02 -7.7849894416152296e-02
    2.2944044030811777e-02 -1.7622684421256032e-01
    2.2944044030811777e-02 -1.7622684421256032e-01
    2.5572924984088644e-02 -1.5713484026367722e-01
    2.1010301812759188e-02 -1.9364916731037082e-01
    1.8310254073894115e-02 -2.2501758018520479e-01
    1.5765426201885518e-02 -2.6639771383306554e-01
    1.5143174404524134e-02 -2.7914526311954124e-01
    1.2934519881649001e-02 -3.3777797401776155e-01
    1.2046932636549261e-02 -3.7011660509880256e-01
    1.1151110375624534e-02 -4.1111322589651894e-01
    1.0626215652437784e-02 -4.4073189618695269e-01
    1.0327819165828261e-02 -4.6008567910421683e-01
    9.3340715251257981e-03 -5.4486236794258425e-01
    9.4226311387273515e-03 -5.3555737827646122e-01
    8.8850863737072495e-03 -6.0054619947587551e-01
    9.0205375733954010e-03 -5.8198769524737792e-01
    8.8850863737072495e-03 -6.0054619947587551e-01
    8.7045334379903371e-03 -6.2845682683321802e-01
    9.0205375733954010e-03 -5.8198769524737792e-01
    8.5477913155740954e-03 -6.5653216429861272e-01
    8.7619015432995571e-03 -6.1913918736689044e-01
    9.1696474696035136e-03 -5.6343616981901101e-01
    9.3340715251257981e-03 -5.4486236794258425e-01
    9.0932885566862732e-03 -5.7271284253105414e-01
    9.0932885566862732e-03 -5.7271284253105414e-01
    1.0789894933909619e-02 -4.3094580368566732e-01
    1.1565790495108278e-02 -3.9086797998528577e-01
    1.1565790495108278e-02 -3.9086797998528577e-01
    1.2612488909460130e-02 -3.4874291623145781e-01
    1.3288081611176719e-02 -3.2659863237109044e-01
    1.3678352904417759e-02 -3.1517891481565019e-01
    1.2934519881649001e-02 -3.3777797401776155e-01
    1.2612488909460130e-02 -3.4874291623145781e-01
    1.3288081611176719e-02 -3.2659863237109044e-01
    1.3288081611176719e-02 -3.2659863237109044e-01
    1.5765426201885518e-02 -2.6639771383306554e-01
    1.7317963767532717e-02 -2.3942606534028665e-01
    1.8310254073894115e-02 -2.2501758018520479e-01
    2.5572924984088644e-02 -1.5713484026367722e-01 1. 0.
    5.0678754796397184e-02 -7.7849894416152296e-02
    2.1010301812759188e-02 -1.9364916731037082e-01
    1.8310254073894115e-02 -2.2501758018520479e-01
    1.5765426201885518e-02 -2.6639771383306554e-01
    1.5765426201885518e-02 -2.6639771383306554e-01
    1.3678352904417759e-02 -3.1517891481565019e-01
    1.0789894933909619e-02 -4.3094580368566732e-01
    1.0789894933909619e-02 -4.3094580368566732e-01
    1.0191493364719100e-02 -4.6966821831386218e-01
    1.0789894933909619e-02 -4.3094580368566732e-01
    9.0932885566862732e-03 -5.7271284253105414e-01
    9.0932885566862732e-03 -5.7271284253105414e-01
    8.7045334379903371e-03 -6.2845682683321802e-01
    8.7045334379903371e-03 -6.2845682683321802e-01
    8.4118351113381378e-03 -6.8485512969719842e-01
    8.2942582135927291e-03 -7.1350606801267569e-01
    8.2251160283724149e-03 -7.3282810879293991e-01
    8.3707046057866861e-03 -6.9436507482941368e-01
    8.6498043699170402e-03 -6.3779280414328055e-01
    8.2942582135927291e-03 -7.1350606801267569e-01
    8.2251160283724149e-03 -7.3282810879293991e-01
    8.1931331523805873e-03 -7.4256438721425266e-01
    8.2251160283724149e-03 -7.3282810879293991e-01
    8.4550038583703687e-03 -6.7538163350597047e-01
    9.0205375733954010e-03 -5.8198769524737792e-01
    9.2498298419117515e-03 -5.5415396251694204e-01
    8.7619015432995571e-03 -6.1913918736689044e-01
    1.0626215652437784e-02 -4.4073189618695269e-01
    1.0789894933909619e-02 -4.3094580368566732e-01
    1.1565790495108278e-02 -3.9086797998528577e-01
    1.2046932636549261e-02 -3.7011660509880256e-01
    1.4596559974299067e-02 -2.9149154406506872e-01
    1.3678352904417759e-02 -3.1517891481565019e-01
    1.3678352904417759e-02 -3.1517891481565019e-01
    1.2934519881649001e-02 -3.3777797401776155e-01
    1.3288081611176719e-02 -3.2659863237109044e-01
    1.5765426201885518e-02 -2.6639771383306554e-01
    2.1010301812759188e-02 -1.9364916731037082e-01
    2.2944044030811777e-02 -1.7622684421256032e-01
    5.0678754796397184e-02 -7.7849894416152296e-02
    2.5572924984088644e-02 -1.5713484026367722e-01
    2.5572924984088644e-02 -1.5713484026367722e-01
    1.4596559974299067e-02 -2.9149154406506872e-01
    1.2934519881649001e-02 -3.3777797401776155e-01
    1.2934519881649001e-02 -3.3777797401776155e-01
    1.0789894933909619e-02 -4.3094580368566732e-01
    1.0062830940678160e-02 -4.7919685895217384e-01
    9.7172076518043469e-03 -5.0751921892255236e-01
    9.7172076518043469e-03 -5.0751921892255236e-01
    9.0932885566862732e-03 -5.7271284253105414e-01
    8.8850863737072495e-03 -6.0054619947587551e-01
    8.6498043699170402e-03 -6.3779280414328055e-01
    8.3707046057866861e-03 -6.9436507482941368e-01
    8.3707046057866861e-03 -6.9436507482941368e-01
    8.4550038583703687e-03 -6.7538163350597047e-01
    7.9930569804904390e-03 -8.2265890669686237e-01
    8.1628036458368802e-03 -7.5235479386327875e-01
    8.3707046057866861e-03 -6.9436507482941368e-01
    8.5002930692438736e-03 -6.6594163473202761e-01
    8.2588053568231068e-03 -7.2314298711701119e-01
    8.5002930692438736e-03 -6.6594163473202761e-01
    8.2942582135927291e-03 -7.1350606801267569e-01
    8.4550038583703687e-03 -6.7538163350597047e-01
    8.5975940778140088e-03 -6.4715022892943397e-01
    8.4118351113381378e-03 -6.8485512969719842e-01
    8.4118351113381378e-03 -6.8485512969719842e-01
    8.5477913155740954e-03 -6.5653216429861272e-01
    9.0205375733954010e-03 -5.8198769524737792e-01
    9.5157928892135209e-03 -5.2623481158421759e-01
    1.0472475396722806e-02 -4.5044261646145078e-01
    1.1151110375624534e-02 -4.1111322589651894e-01
    1.1797072790646713e-02 -3.8056219755369364e-01
    1.2934519881649001e-02 -3.3777797401776155e-01
    1.3678352904417759e-02 -3.1517891481565019e-01
    1.1565790495108278e-02 -3.9086797998528577e-01
    1.3288081611176719e-02 -3.2659863237109044e-01
    1.6481836758420455e-02 -2.5318484177091660e-01
    1.9512832899766665e-02 -2.0982172726556322e-01
    1.9512832899766665e-02 -2.0982172726556322e-01
    3.5944379075342210e-02 -1.1043152607484655e-01
    2.1010301812759188e-02 -1.9364916731037082e-01
    1.8310254073894115e-02 -2.2501758018520479e-01
    1.4596559974299067e-02 -2.9149154406506872e-01
    1.2317779903237942e-02 -3.5951592548908329e-01
    1.0626215652437784e-02 -4.4073189618695269e-01
    9.7172076518043469e-03 -5.0751921892255236e-01
    9.7172076518043469e-03 -5.0751921892255236e-01
    9.0932885566862732e-03 -5.7271284253105414e-01
    8.7619015432995571e-03 -6.1913918736689044e-01
    9.0205375733954010e-03 -5.8198769524737792e-01
    8.7619015432995571e-03 -6.1913918736689044e-01
    8.4118351113381378e-03 -6.8485512969719842e-01
    8.5975940778140088e-03 -6.4715022892943397e-01
    8.2942582135927291e-03 -7.1350606801267569e-01
    8.1340781480228296e-03 -7.6220232284635603e-01
    7.8482655372831764e-03 -9.6448564434082407e-01
    7.9571490856148435e-03 -8.4340986844212751e-01
    7.9129374472714040e-03 -8.7518994898736735e-01
    8.1069107755093305e-03 -7.7210999614941267e-01
    8.0570829477513688e-03 -7.9211803438133943e-01
    8.0812589001412107e-03 -7.8208086886005146e-01
    8.2942582135927291e-03 -7.1350606801267569e-01
    8.2588053568231068e-03 -7.2314298711701119e-01
    8.0130147068898944e-03 -8.1240384046359593e-01
    7.9930569804904390e-03 -8.2265890669686237e-01
    7.9744440150298218e-03 -8.3299312783504276e-01
    8.2251160283724149e-03 -7.3282810879293991e-01
    8.8220388417103984e-03 -6.0983672113630616e-01
    9.0932885566862732e-03 -5.7271284253105414e-01
    9.8261890893315742e-03 -4.9811675413689882e-01
    9.8261890893315742e-03 -4.9811675413689882e-01
    1.0626215652437784e-02 -4.4073189618695269e-01
    1.0327819165828261e-02 -4.6008567910421683e-01
    1.1351048279453126e-02 -4.0104757927103968e-01
    1.0789894933909619e-02 -4.3094580368566732e-01
    1.3678352904417759e-02 -3.1517891481565019e-01
    1.7317963767532717e-02 -2.3942606534028665e-01
    1.9512832899766665e-02 -2.0982172726556322e-01
    1.6481836758420455e-02 -2.5318484177091660e-01
    3.5944379075342210e-02 -1.1043152607484655e-01
    1.6481836758420455e-02 -2.5318484177091660e-01
    1.5143174404524134e-02 -2.7914526311954124e-01
    1.1151110375624534e-02 -4.1111322589651894e-01
    1.0964487756630757e-02 -4.2107596053325946e-01
    1.0327819165828261e-02 -4.6008567910421683e-01
    9.4226311387273515e-03 -5.3555737827646122e-01
    9.7172076518043469e-03 -5.0751921892255236e-01
    8.7619015432995571e-03 -6.1913918736689044e-01
    8.7619015432995571e-03 -6.1913918736689044e-01
    8.8850863737072495e-03 -6.0054619947587551e-01
    8.5002930692438736e-03 -6.6594163473202761e-01
    8.1931331523805873e-03 -7.4256438721425266e-01
    8.0812589001412107e-03 -7.8208086886005146e-01
    7.8896572042722983e-03 -8.9685440629288105e-01
    7.8896572042722983e-03 -8.9685440629288105e-01
    7.8711802299517609e-03 -9.1893658347268148e-01
    7.8798251312173495e-03 -9.0784129900320365e-01
    7.8482655372831764e-03 -9.6448564434082407e-01
    7.8454152500864755e-03 -9.7618706018395274e-01
    7.8798251312173495e-03 -9.0784129900320365e-01
    8.0343462156151225e-03 -8.0222462966157027e-01
    8.1069107755093305e-03 -7.7210999614941267e-01
    7.9930569804904390e-03 -8.2265890669686237e-01
    8.0812589001412107e-03 -7.8208086886005146e-01
    7.8896572042722983e-03 -8.9685440629288105e-01
    7.8896572042722983e-03 -8.9685440629288105e-01
    7.9571490856148435e-03 -8.4340986844212751e-01
    8.2251160283724149e-03 -7.3282810879293991e-01
    8.2942582135927291e-03 -7.1350606801267569e-01
    8.7619015432995571e-03 -6.1913918736689044e-01
    8.9511971815888214e-03 -5.9126431985615313e-01
    9.0205375733954010e-03 -5.8198769524737792e-01
    9.5157928892135209e-03 -5.2623481158421759e-01
    1.0327819165828261e-02 -4.6008567910421683e-01
    1.2317779903237942e-02 -3.5951592548908329e-01
    1.2046932636549261e-02 -3.7011660509880256e-01
    1.4111789700098423e-02 -3.0348848933344197e-01
    1.5143174404524134e-02 -2.7914526311954124e-01
    1.9512832899766665e-02 -2.0982172726556322e-01
    2.2944044030811777e-02 -1.7622684421256032e-01
    1.5143174404524134e-02 -2.7914526311954124e-01
    1.3678352904417759e-02 -3.1517891481565019e-01
    1.0789894933909619e-02 -4.3094580368566732e-01
    1.0626215652437784e-02 -4.4073189618695269e-01
    1.1565790495108278e-02 -3.9086797998528577e-01
    8.9511971815888214e-03 -5.9126431985615313e-01
    8.3707046057866861e-03 -6.9436507482941368e-01
    8.4118351113381378e-03 -6.8485512969719842e-01
    8.5477913155740954e-03 -6.5653216429861272e-01
    8.4118351113381378e-03 -6.8485512969719842e-01
    8.0130147068898944e-03 -8.1240384046359593e-01
    7.9264172601227565e-03 -8.6450472587061755e-01
    7.8482655372831764e-03 -9.6448564434082407e-01
    7.8711802299517609e-03 -9.1893658347268148e-01
    7.9129374472714040e-03 -8.7518994898736735e-01
    7.9006896649978994e-03 -8.8597191634901151e-01
    7.9006896649978994e-03 -8.8597191634901151e-01
    7.8637109525302520e-03 -9.3014436477669582e-01
    7.8431372549019607e-03 -1. 7.8522611634746723e-03
    -9.5291446468793539e-01 7.8896572042722983e-03
    -8.9685440629288105e-01 7.8437065676639269e-03
    -1.0121216546949476e+00 7.8431372549019607e-03 -1.
    7.8454152500864755e-03 -9.7618706018395274e-01
    7.9264172601227565e-03 -8.6450472587061755e-01
    7.8896572042722983e-03 -8.9685440629288105e-01
    7.9264172601227565e-03 -8.6450472587061755e-01
    8.2251160283724149e-03 -7.3282810879293991e-01
    8.2942582135927291e-03 -7.1350606801267569e-01
    8.1340781480228296e-03 -7.6220232284635603e-01
    8.4118351113381378e-03 -6.8485512969719842e-01
    8.7045334379903371e-03 -6.2845682683321802e-01
    8.7045334379903371e-03 -6.2845682683321802e-01
    1.0327819165828261e-02 -4.6008567910421683e-01
    1.1151110375624534e-02 -4.1111322589651894e-01
    1.2046932636549261e-02 -3.7011660509880256e-01
    1.4596559974299067e-02 -2.9149154406506872e-01
    1.7317963767532717e-02 -2.3942606534028665e-01
    1.8310254073894115e-02 -2.2501758018520479e-01
    1.9512832899766665e-02 -2.0982172726556322e-01
    1.4596559974299067e-02 -2.9149154406506872e-01
    1.3678352904417759e-02 -3.1517891481565019e-01
    1.1797072790646713e-02 -3.8056219755369364e-01
    1.1151110375624534e-02 -4.1111322589651894e-01
    1.0327819165828261e-02 -4.6008567910421683e-01
    8.9511971815888214e-03 -5.9126431985615313e-01
    8.1931331523805873e-03 -7.4256438721425266e-01
    8.0570829477513688e-03 -7.9211803438133943e-01
    8.1340781480228296e-03 -7.6220232284635603e-01
    8.0130147068898944e-03 -8.1240384046359593e-01
    7.8482655372831764e-03 -9.6448564434082407e-01
    7.8711802299517609e-03 -9.1893658347268148e-01
    7.8798251312173495e-03 -9.0784129900320365e-01
    7.9571490856148435e-03 -8.4340986844212751e-01
    7.9930569804904390e-03 -8.2265890669686237e-01
    7.8896572042722983e-03 -8.9685440629288105e-01
    7.8574073756033751e-03 -9.4146887169127191e-01
    7.8896572042722983e-03 -8.9685440629288105e-01
    7.8896572042722983e-03 -8.9685440629288105e-01
    7.9930569804904390e-03 -8.2265890669686237e-01
    7.8437065676639269e-03 -9.8802352005935368e-01
    7.8437065676639269e-03 -1.0121216546949476e+00
    7.8574073756033751e-03 -9.4146887169127191e-01
    7.9571490856148435e-03 -8.4340986844212751e-01
    7.8637109525302520e-03 -9.3014436477669582e-01
    7.9006896649978994e-03 -8.8597191634901151e-01
    8.0812589001412107e-03 -7.8208086886005146e-01
    8.0570829477513688e-03 -7.9211803438133943e-01
    8.0343462156151225e-03 -8.0222462966157027e-01
    8.1340781480228296e-03 -7.6220232284635603e-01
    8.0343462156151225e-03 -8.0222462966157027e-01
    8.0570829477513688e-03 -7.9211803438133943e-01
    8.7045334379903371e-03 -6.2845682683321802e-01
    9.4226311387273515e-03 -5.3555737827646122e-01
    1.0789894933909619e-02 -4.3094580368566732e-01
    1.0789894933909619e-02 -4.3094580368566732e-01
    1.3678352904417759e-02 -3.1517891481565019e-01
    1.5765426201885518e-02 -2.6639771383306554e-01
    1.9512832899766665e-02 -2.0982172726556322e-01
    2.1010301812759188e-02 -1.9364916731037082e-01
    1.4596559974299067e-02 -2.9149154406506872e-01
    1.3288081611176719e-02 -3.2659863237109044e-01
    1.1351048279453126e-02 -4.0104757927103968e-01
    9.7172076518043469e-03 -5.0751921892255236e-01
    8.7045334379903371e-03 -6.2845682683321802e-01
    8.4118351113381378e-03 -6.8485512969719842e-01
    8.1931331523805873e-03 -7.4256438721425266e-01
    7.9411476524243376e-03 -8.5391256382996639e-01
    7.9930569804904390e-03 -8.2265890669686237e-01
    7.9411476524243376e-03 -8.5391256382996639e-01
    7.8711802299517609e-03 -9.1893658347268148e-01
    7.8896572042722983e-03 -8.9685440629288105e-01
    7.8637109525302520e-03 -9.3014436477669582e-01
    7.9006896649978994e-03 -8.8597191634901151e-01
    7.8454152500864755e-03 -9.7618706018395274e-01
    7.8798251312173495e-03 -9.0784129900320365e-01
    7.8711802299517609e-03 -9.1893658347268148e-01
    8.0812589001412107e-03 -7.8208086886005146e-01
    7.9129374472714040e-03 -8.7518994898736735e-01
    7.8522611634746723e-03 -9.5291446468793539e-01
    7.8431372549019607e-03 -1. 7.8482655372831764e-03
    -1.0368220676663857e+00 7.8637109525302520e-03
    -9.3014436477669582e-01 7.8454152500864755e-03
    -9.7618706018395274e-01 7.8437065676639269e-03
    -9.8802352005935368e-01 7.9571490856148435e-03
    -8.4340986844212751e-01 7.8574073756033751e-03
    -9.4146887169127191e-01 7.8574073756033751e-03
    -9.4146887169127191e-01 7.9264172601227565e-03
    -8.6450472587061755e-01 7.9129374472714040e-03
    -8.7518994898736735e-01 7.9744440150298218e-03
    -8.3299312783504276e-01 8.0570829477513688e-03
    -7.9211803438133943e-01 8.2942582135927291e-03
    -7.1350606801267569e-01 8.7045334379903371e-03
    -6.2845682683321802e-01 9.3340715251257981e-03
    -5.4486236794258425e-01 1.0327819165828261e-02
    -4.6008567910421683e-01 1.2612488909460130e-02
    -3.4874291623145781e-01 1.4111789700098423e-02
    -3.0348848933344197e-01 1.6481836758420455e-02
    -2.5318484177091660e-01 1.8310254073894115e-02
    -2.2501758018520479e-01 1.3288081611176719e-02
    -3.2659863237109044e-01 1.2317779903237942e-02
    -3.5951592548908329e-01 1.0191493364719100e-02
    -4.6966821831386218e-01 8.5002930692438736e-03
    -6.6594163473202761e-01 8.4550038583703687e-03
    -6.7538163350597047e-01 8.5975940778140088e-03
    -6.4715022892943397e-01 8.3315359664242142e-03
    -7.0391440921144333e-01 8.1628036458368802e-03
    -7.5235479386327875e-01 7.8896572042722983e-03
    -8.9685440629288105e-01 7.8454152500864755e-03
    -1.0243938285880985e+00 7.8522611634746723e-03
    -9.5291446468793539e-01 7.8798251312173495e-03
    -9.0784129900320365e-01 7.8482655372831764e-03
    -9.6448564434082407e-01 7.8437065676639269e-03
    -9.8802352005935368e-01 7.8437065676639269e-03
    -1.0121216546949476e+00 7.8437065676639269e-03
    -1.0121216546949476e+00 7.9264172601227565e-03
    -8.6450472587061755e-01 8.0343462156151225e-03
    -8.0222462966157027e-01 7.8637109525302520e-03
    -9.3014436477669582e-01 7.8482655372831764e-03
    -9.6448564434082407e-01 7.8574073756033751e-03
    -9.4146887169127191e-01 7.8637109525302520e-03
    -1.0751019281185186e+00 7.8437065676639269e-03
    -9.8802352005935368e-01 7.8437065676639269e-03
    -9.8802352005935368e-01 7.8437065676639269e-03
    -1.0121216546949476e+00 7.8437065676639269e-03
    -9.8802352005935368e-01 7.9264172601227565e-03
    -1.1567316754606853e+00 7.8454152500864755e-03
    -1.0243938285880985e+00 7.8711802299517609e-03
    -1.0882143751650175e+00 7.8637109525302520e-03
    -9.3014436477669582e-01 7.9930569804904390e-03
    -8.2265890669686237e-01 7.9930569804904390e-03
    -8.2265890669686237e-01 8.0812589001412107e-03
    -7.8208086886005146e-01 8.2942582135927291e-03
    -7.1350606801267569e-01 8.8220388417103984e-03
    -6.0983672113630616e-01 9.9412390995816998e-03
    -4.8867777742522089e-01 1.1565790495108278e-02
    -3.9086797998528577e-01 1.2317779903237942e-02
    -3.5951592548908329e-01 1.4111789700098423e-02
    -3.0348848933344197e-01 2.2944044030811777e-02
    -1.7622684421256032e-01 1.3288081611176719e-02
    -3.2659863237109044e-01 1.1565790495108278e-02
    -3.9086797998528577e-01 8.8850863737072495e-03
    -6.0054619947587551e-01 8.2588053568231068e-03
    -7.2314298711701119e-01 8.5477913155740954e-03
    -6.5653216429861272e-01 8.5975940778140088e-03
    -6.4715022892943397e-01 8.1340781480228296e-03
    -7.6220232284635603e-01 8.0130147068898944e-03
    -8.1240384046359593e-01 7.9129374472714040e-03
    -8.7518994898736735e-01 7.8454152500864755e-03
    -9.7618706018395274e-01 7.8522611634746723e-03
    -9.5291446468793539e-01 7.8798251312173495e-03
    -9.0784129900320365e-01 7.9264172601227565e-03
    -8.6450472587061755e-01 7.8437065676639269e-03
    -9.8802352005935368e-01 7.8574073756033733e-03
    -1.0621700090875885e+00 7.8437065676639269e-03
    -9.8802352005935368e-01 7.9264172601227565e-03
    -8.6450472587061755e-01 7.8798251312173495e-03
    -9.0784129900320365e-01 7.8431372549019607e-03 -1.
    7.8574073756033751e-03 -9.4146887169127191e-01
    7.8798251312173495e-03 -9.0784129900320365e-01
    7.8798251312173495e-03 -9.0784129900320365e-01
    7.8482655372831764e-03 -9.6448564434082407e-01
    7.8574073756033751e-03 -9.4146887169127191e-01
    7.8482655372831764e-03 -9.6448564434082407e-01
    7.8574073756033733e-03 -1.0621700090875885e+00
    7.9744440150298218e-03 -1.2004900959975617e+00
    7.9930569804904390e-03 -1.2155706233281995e+00
    7.9264172601227565e-03 -1.1567316754606853e+00
    7.8574073756033733e-03 -1.0621700090875885e+00
    7.8896572042722983e-03 -8.9685440629288105e-01
    7.8637109525302520e-03 -9.3014436477669582e-01
    7.9129374472714040e-03 -8.7518994898736735e-01
    7.9930569804904390e-03 -8.2265890669686237e-01
    8.3707046057866861e-03 -6.9436507482941368e-01
    9.3340715251257981e-03 -5.4486236794258425e-01
    1.0191493364719100e-02 -4.6966821831386218e-01
    1.3288081611176719e-02 -3.2659863237109044e-01
    1.4111789700098423e-02 -3.0348848933344197e-01
    1.9512832899766665e-02 -2.0982172726556322e-01
    1.3288081611176719e-02 -3.2659863237109044e-01
    1.0626215652437784e-02 -4.4073189618695269e-01
    8.8850863737072495e-03 -6.0054619947587551e-01
    8.1931331523805873e-03 -7.4256438721425266e-01
    8.0812589001412107e-03 -7.8208086886005146e-01
    7.9930569804904390e-03 -8.2265890669686237e-01
    8.1340781480228296e-03 -7.6220232284635603e-01
    7.9129374472714040e-03 -8.7518994898736735e-01
    7.8482655372831764e-03 -9.6448564434082407e-01
    7.8896572042722983e-03 -8.9685440629288105e-01
    7.8437065676639269e-03 -1.0121216546949476e+00
    7.8522611634746723e-03 -9.5291446468793539e-01
    7.8437065676639269e-03 -9.8802352005935368e-01
    7.8798251312173478e-03 -1.1015141094572201e+00
    7.8574073756033733e-03 -1.0621700090875885e+00
    7.8522611634746723e-03 -9.5291446468793539e-01
    7.8482655372831764e-03 -9.6448564434082407e-01
    7.8454152500864755e-03 -9.7618706018395274e-01
    7.8482655372831764e-03 -9.6448564434082407e-01
    7.8574073756033751e-03 -9.4146887169127191e-01
    7.8711802299517609e-03 -9.1893658347268148e-01
    7.8711802299517609e-03 -9.1893658347268148e-01
    7.8431372549019607e-03 -1. 7.8431372549019607e-03 -1.
    7.8454152500864755e-03 -1.0243938285880985e+00
    8.1340781480228296e-03 -1.3119876048994654e+00
    8.1069107755093305e-03 -1.2951522516054665e+00
    8.0812589001412107e-03 -1.2786401506759570e+00
    7.8482655372831764e-03 -1.0368220676663857e+00
    7.8454152500864755e-03 -1.0243938285880985e+00
    7.8522611634746723e-03 -9.5291446468793539e-01
    7.8574073756033751e-03 -9.4146887169127191e-01
    7.8454152500864755e-03 -9.7618706018395274e-01
    7.9411476524243376e-03 -8.5391256382996639e-01
    8.3315359664242142e-03 -7.0391440921144333e-01
    8.8850863737072495e-03 -6.0054619947587551e-01
    1.0062830940678160e-02 -4.7919685895217384e-01
    1.2934519881649001e-02 -3.3777797401776155e-01
    1.5765426201885518e-02 -2.6639771383306554e-01
    1.7317963767532717e-02 -2.3942606534028665e-01
    1.1797072790646713e-02 -3.8056219755369364e-01
    9.1696474696035136e-03 -5.6343616981901101e-01
    8.5975940778140088e-03 -6.4715022892943397e-01
    8.0570829477513688e-03 -7.9211803438133943e-01
    7.9571490856148435e-03 -8.4340986844212751e-01
    7.9930569804904390e-03 -8.2265890669686237e-01
    7.9006896649978994e-03 -8.8597191634901151e-01
    7.8522611634746723e-03 -9.5291446468793539e-01
    7.8637109525302520e-03 -9.3014436477669582e-01
    7.8437065676639269e-03 -9.8802352005935368e-01
    7.8437065676639269e-03 -9.8802352005935368e-01
    7.8637109525302520e-03 -1.0751019281185186e+00
    7.8482655372831764e-03 -1.0368220676663857e+00
    7.8454152500864755e-03 -9.7618706018395274e-01
    7.8437065676639269e-03 -9.8802352005935368e-01
    7.8637109525302520e-03 -9.3014436477669582e-01
    7.8637109525302520e-03 -9.3014436477669582e-01
    7.8437065676639269e-03 -9.8802352005935368e-01
    7.8522611634746723e-03 -9.5291446468793539e-01
    7.8522611634746723e-03 -9.5291446468793539e-01
    7.8896572042722983e-03 -8.9685440629288105e-01
    7.8896572042722983e-03 -8.9685440629288105e-01
    7.8711802299517609e-03 -1.0882143751650175e+00
    7.8711802299517609e-03 -1.0882143751650175e+00
    7.9571490856148452e-03 -1.1856631483896578e+00
    8.1340781480228296e-03 -1.3119876048994654e+00
    8.0130147068898944e-03 -1.2309149097933272e+00
    7.9744440150298218e-03 -1.2004900959975617e+00
    7.9129374472714040e-03 -1.1426091000668408e+00
    7.8574073756033733e-03 -1.0621700090875885e+00
    7.8522611634746723e-03 -1.0494121319981062e+00
    7.9006896649978994e-03 -8.8597191634901151e-01
    8.0812589001412107e-03 -7.8208086886005146e-01
    7.9264172601227565e-03 -8.6450472587061755e-01
    8.1628036458368802e-03 -7.5235479386327875e-01
    9.0205375733954010e-03 -5.8198769524737792e-01
    9.8261890893315742e-03 -4.9811675413689882e-01
    1.0062830940678160e-02 -4.7919685895217384e-01
    1.4111789700098423e-02 -3.0348848933344197e-01
    1.2612488909460130e-02 -3.4874291623145781e-01
    1.0789894933909619e-02 -4.3094580368566732e-01
    9.2498298419117515e-03 -5.5415396251694204e-01
    8.4118351113381378e-03 -6.8485512969719842e-01
    7.8896572042722983e-03 -8.9685440629288105e-01
    7.9744440150298218e-03 -8.3299312783504276e-01
    7.8711802299517609e-03 -9.1893658347268148e-01
    7.8454152500864755e-03 -9.7618706018395274e-01
    7.8522611634746723e-03 -9.5291446468793539e-01
    7.8574073756033751e-03 -9.4146887169127191e-01
    7.8431372549019607e-03 -1. 7.8454152500864755e-03
    -1.0243938285880985e+00 7.8637109525302520e-03
    -1.0751019281185186e+00 7.9006896649978994e-03
    -1.1287039482254528e+00 7.8431372549019607e-03 -1.
    7.9006896649978994e-03 -8.8597191634901151e-01
    7.8574073756033751e-03 -9.4146887169127191e-01
    7.8798251312173495e-03 -9.0784129900320365e-01
    7.8482655372831764e-03 -9.6448564434082407e-01
    7.8574073756033751e-03 -9.4146887169127191e-01
    7.9411476524243376e-03 -8.5391256382996639e-01
    7.9411476524243376e-03 -8.5391256382996639e-01
    7.8454152500864755e-03 -9.7618706018395274e-01
    7.8454152500864755e-03 -1.0243938285880985e+00
    7.8431372549019607e-03 -1. 8.0130147068898944e-03
    -1.2309149097933272e+00 7.9744440150298218e-03
    -1.2004900959975617e+00 7.8798251312173478e-03
    -1.1015141094572201e+00 7.9264172601227565e-03
    -1.1567316754606853e+00 7.9411476524243359e-03
    -1.1710800875382392e+00 8.0343462156151225e-03
    -1.2465336553202861e+00 7.8711802299517609e-03
    -1.0882143751650175e+00 7.8437065676639269e-03
    -9.8802352005935368e-01 7.9129374472714040e-03
    -8.7518994898736735e-01 7.9571490856148435e-03
    -8.4340986844212751e-01 7.9744440150298218e-03
    -8.3299312783504276e-01 8.3707046057866861e-03
    -6.9436507482941368e-01 9.2498298419117515e-03
    -5.5415396251694204e-01 9.9412390995816998e-03
    -4.8867777742522089e-01 1.2317779903237942e-02
    -3.5951592548908329e-01 1.2612488909460130e-02
    -3.4874291623145781e-01 1.0327819165828261e-02
    -4.6008567910421683e-01 8.5002930692438736e-03
    -6.6594163473202761e-01 8.2588053568231068e-03
    -7.2314298711701119e-01 7.8522611634746723e-03
    -9.5291446468793539e-01 7.8798251312173495e-03
    -9.0784129900320365e-01 7.8482655372831764e-03
    -9.6448564434082407e-01 7.8574073756033733e-03
    -1.0621700090875885e+00 7.8637109525302520e-03
    -1.0751019281185186e+00 7.8574073756033751e-03
    -9.4146887169127191e-01 7.8454152500864755e-03
    -9.7618706018395274e-01 7.8437065676639269e-03
    -9.8802352005935368e-01 7.8482655372831764e-03
    -1.0368220676663857e+00 7.8454152500864755e-03
    -9.7618706018395274e-01 7.8454152500864755e-03
    -9.7618706018395274e-01 7.8637109525302520e-03
    -9.3014436477669582e-01 7.8711802299517609e-03
    -9.1893658347268148e-01 7.9411476524243376e-03
    -8.5391256382996639e-01 7.8637109525302520e-03
    -9.3014436477669582e-01 7.8522611634746723e-03
    -9.5291446468793539e-01 7.9006896649978994e-03
    -8.8597191634901151e-01 7.9264172601227565e-03
    -8.6450472587061755e-01 7.8637109525302520e-03
    -9.3014436477669582e-01 7.8431372549019607e-03 -1.
    7.8637109525302520e-03 -1.0751019281185186e+00
    7.8637109525302520e-03 -1.0751019281185186e+00
    7.9411476524243359e-03 -1.1710800875382392e+00
    7.9571490856148452e-03 -1.1856631483896578e+00
    7.8454152500864755e-03 -1.0243938285880985e+00
    7.9411476524243359e-03 -1.1710800875382392e+00
    7.9264172601227565e-03 -1.1567316754606853e+00
    7.8896572042723000e-03 -1.1150081807965553e+00
    7.8482655372831764e-03 -1.0368220676663857e+00
    7.8574073756033751e-03 -9.4146887169127191e-01
    7.9129374472714040e-03 -8.7518994898736735e-01
    7.9411476524243376e-03 -8.5391256382996639e-01
    8.1628036458368802e-03 -7.5235479386327875e-01
    8.5002930692438736e-03 -6.6594163473202761e-01
    9.3340715251257981e-03 -5.4486236794258425e-01
    1.1351048279453126e-02 -4.0104757927103968e-01
    1.4596559974299067e-02 -2.9149154406506872e-01
    9.5157928892135209e-03 -5.2623481158421759e-01
    8.7619015432995571e-03 -6.1913918736689044e-01
    8.2588053568231068e-03 -7.2314298711701119e-01
    7.9264172601227565e-03 -8.6450472587061755e-01
    7.8896572042722983e-03 -8.9685440629288105e-01
    7.8574073756033751e-03 -9.4146887169127191e-01
    7.8637109525302520e-03 -1.0751019281185186e+00
    7.9129374472714040e-03 -1.1426091000668408e+00
    7.8637109525302520e-03 -1.0751019281185186e+00
    7.8798251312173478e-03 -1.1015141094572201e+00
    7.8574073756033733e-03 -1.0621700090875885e+00
    7.8454152500864755e-03 -9.7618706018395274e-01
    7.8482655372831764e-03 -1.0368220676663857e+00
    7.8482655372831764e-03 -9.6448564434082407e-01
    7.8798251312173495e-03 -9.0784129900320365e-01
    7.8896572042722983e-03 -8.9685440629288105e-01
    7.9571490856148435e-03 -8.4340986844212751e-01
    7.9264172601227565e-03 -8.6450472587061755e-01
    7.9264172601227565e-03 -8.6450472587061755e-01
    7.9411476524243376e-03 -8.5391256382996639e-01
    7.8896572042722983e-03 -8.9685440629288105e-01
    7.8896572042722983e-03 -8.9685440629288105e-01
    7.8482655372831764e-03 -9.6448564434082407e-01
    7.8437065676639269e-03 -9.8802352005935368e-01
    7.8431372549019607e-03 -1. 7.8454152500864755e-03
    -9.7618706018395274e-01 7.8711802299517609e-03
    -1.0882143751650175e+00 7.9411476524243359e-03
    -1.1710800875382392e+00 7.9930569804904390e-03
    -1.2155706233281995e+00 7.8711802299517609e-03
    -1.0882143751650175e+00 7.8711802299517609e-03
    -1.0882143751650175e+00 7.8522611634746723e-03
    -1.0494121319981062e+00 7.8454152500864755e-03
    -9.7618706018395274e-01 7.9264172601227565e-03
    -8.6450472587061755e-01 7.8896572042722983e-03
    -8.9685440629288105e-01 7.9571490856148435e-03
    -8.4340986844212751e-01 8.5002930692438736e-03
    -6.6594163473202761e-01 9.2498298419117515e-03
    -5.5415396251694204e-01 1.0327819165828261e-02
    -4.6008567910421683e-01 1.2317779903237942e-02
    -3.5951592548908329e-01 9.5157928892135209e-03
    -5.2623481158421759e-01 8.9511971815888214e-03
    -5.9126431985615313e-01 8.0812589001412107e-03
    -7.8208086886005146e-01 7.8637109525302520e-03
    -9.3014436477669582e-01 7.8711802299517609e-03
    -9.1893658347268148e-01 7.8798251312173495e-03
    -9.0784129900320365e-01 7.8454152500864755e-03
    -9.7618706018395274e-01 7.8482655372831764e-03
    -1.0368220676663857e+00 7.8454152500864755e-03
    -1.0243938285880985e+00 7.9264172601227565e-03
    -1.1567316754606853e+00 7.9006896649978994e-03
    -1.1287039482254528e+00 7.8574073756033733e-03
    -1.0621700090875885e+00 7.8454152500864755e-03
    -1.0243938285880985e+00 7.8482655372831764e-03
    -1.0368220676663857e+00 7.8896572042722983e-03
    -8.9685440629288105e-01 7.8896572042722983e-03
    -8.9685440629288105e-01 7.9264172601227565e-03
    -8.6450472587061755e-01 7.9129374472714040e-03
    -8.7518994898736735e-01 7.8711802299517609e-03
    -9.1893658347268148e-01 7.9264172601227565e-03
    -8.6450472587061755e-01 7.9744440150298218e-03
    -8.3299312783504276e-01 7.8522611634746723e-03
    -9.5291446468793539e-01 7.8431372549019607e-03 -1.
    7.8431372549019607e-03 -1. 7.8482655372831764e-03
    -9.6448564434082407e-01 7.8482655372831764e-03
    -9.6448564434082407e-01 7.8482655372831764e-03
    -1.0368220676663857e+00 7.9571490856148452e-03
    -1.1856631483896578e+00 7.9129374472714040e-03
    -1.1426091000668408e+00 8.0130147068898944e-03
    -1.2309149097933272e+00 8.0343462156151225e-03
    -1.2465336553202861e+00 7.9264172601227565e-03
    -1.1567316754606853e+00 7.8798251312173478e-03
    -1.1015141094572201e+00 7.8482655372831764e-03
    -1.0368220676663857e+00 7.8637109525302520e-03
    -9.3014436477669582e-01 7.8637109525302520e-03
    -9.3014436477669582e-01 8.2942582135927291e-03
    -7.1350606801267569e-01 9.8261890893315742e-03
    -4.9811675413689882e-01 1.0964487756630757e-02
    -4.2107596053325946e-01 1.2046932636549261e-02
    -3.7011660509880256e-01 1.0191493364719100e-02
    -4.6966821831386218e-01 8.6498043699170402e-03
    -6.3779280414328055e-01 8.3707046057866861e-03
    -6.9436507482941368e-01 8.0570829477513688e-03
    -7.9211803438133943e-01 7.9744440150298218e-03
    -8.3299312783504276e-01 7.8574073756033751e-03
    -9.4146887169127191e-01 7.8896572042722983e-03
    -8.9685440629288105e-01 7.8454152500864755e-03
    -1.0243938285880985e+00 7.8437065676639269e-03
    -9.8802352005935368e-01 7.8454152500864755e-03
    -1.0243938285880985e+00 7.9571490856148452e-03
    -1.1856631483896578e+00 7.8798251312173478e-03
    -1.1015141094572201e+00 7.8482655372831764e-03
    -1.0368220676663857e+00 7.8437065676639269e-03
    -1.0121216546949476e+00 7.8522611634746723e-03
    -9.5291446468793539e-01 7.8574073756033751e-03
    -9.4146887169127191e-01 7.8522611634746723e-03
    -9.5291446468793539e-01 7.9006896649978994e-03
    -8.8597191634901151e-01 7.8798251312173495e-03
    -9.0784129900320365e-01 7.8522611634746723e-03
    -9.5291446468793539e-01 7.8798251312173495e-03
    -9.0784129900320365e-01 7.8637109525302520e-03
    -9.3014436477669582e-01 7.8454152500864755e-03
    -9.7618706018395274e-01 7.8574073756033751e-03
    -9.4146887169127191e-01 7.9411476524243376e-03
    -8.5391256382996639e-01 7.8798251312173495e-03
    -9.0784129900320365e-01 7.8522611634746723e-03
    -9.5291446468793539e-01 7.8437065676639269e-03
    -9.8802352005935368e-01 7.8454152500864755e-03
    -1.0243938285880985e+00 7.8798251312173478e-03
    -1.1015141094572201e+00 7.8711802299517609e-03
    -1.0882143751650175e+00 7.9571490856148452e-03
    -1.1856631483896578e+00 7.8896572042723000e-03
    -1.1150081807965553e+00 7.8437065676639269e-03
    -9.8802352005935368e-01 7.8482655372831764e-03
    -1.0368220676663857e+00 7.8711802299517609e-03
    -9.1893658347268148e-01 8.1931331523805873e-03
    -7.4256438721425266e-01 9.8261890893315742e-03
    -4.9811675413689882e-01 9.9412390995816998e-03
    -4.8867777742522089e-01 1.1797072790646713e-02
    -3.8056219755369364e-01 9.8261890893315742e-03
    -4.9811675413689882e-01 8.8220388417103984e-03
    -6.0983672113630616e-01 8.1628036458368802e-03
    -7.5235479386327875e-01 8.0130147068898944e-03
    -8.1240384046359593e-01 7.9264172601227565e-03
    -8.6450472587061755e-01 7.8711802299517609e-03
    -9.1893658347268148e-01 7.8431372549019607e-03 -1.
    7.8454152500864755e-03 -9.7618706018395274e-01
    7.8437065676639269e-03 -1.0121216546949476e+00
    7.9006896649978994e-03 -1.1287039482254528e+00
    7.9411476524243359e-03 -1.1710800875382392e+00
    7.9411476524243359e-03 -1.1710800875382392e+00
    7.8574073756033733e-03 -1.0621700090875885e+00
    7.8711802299517609e-03 -1.0882143751650175e+00
    7.8437065676639269e-03 -9.8802352005935368e-01
    7.8574073756033751e-03 -9.4146887169127191e-01
    7.8798251312173495e-03 -9.0784129900320365e-01
    7.8437065676639269e-03 -1.0121216546949476e+00
    7.8454152500864755e-03 -1.0243938285880985e+00
    7.8482655372831764e-03 -9.6448564434082407e-01
    7.8798251312173495e-03 -9.0784129900320365e-01
    7.8798251312173495e-03 -9.0784129900320365e-01
    7.8574073756033751e-03 -9.4146887169127191e-01
    7.8574073756033751e-03 -9.4146887169127191e-01
    7.8711802299517609e-03 -9.1893658347268148e-01
    7.8454152500864755e-03 -9.7618706018395274e-01
    7.8437065676639269e-03 -1.0121216546949476e+00
    7.8454152500864755e-03 -1.0243938285880985e+00
    7.9571490856148452e-03 -1.1856631483896578e+00
    7.8896572042723000e-03 -1.1150081807965553e+00
    7.8711802299517609e-03 -1.0882143751650175e+00
    7.9264172601227565e-03 -1.1567316754606853e+00
    7.8574073756033733e-03 -1.0621700090875885e+00
    7.8454152500864755e-03 -9.7618706018395274e-01
    7.8454152500864755e-03 -1.0243938285880985e+00
    7.8522611634746723e-03 -9.5291446468793539e-01
    8.1069107755093305e-03 -7.7210999614941267e-01
    9.7172076518043469e-03 -5.0751921892255236e-01
    1.0191493364719100e-02 -4.6966821831386218e-01
    1.3288081611176719e-02 -3.2659863237109044e-01
    1.0062830940678160e-02 -4.7919685895217384e-01
    8.5477913155740954e-03 -6.5653216429861272e-01
    8.0343462156151225e-03 -8.0222462966157027e-01
    8.0812589001412107e-03 -7.8208086886005146e-01
    7.9744440150298218e-03 -8.3299312783504276e-01
    7.9129374472714040e-03 -8.7518994898736735e-01
    7.8522611634746723e-03 -9.5291446468793539e-01
    7.8522611634746723e-03 -1.0494121319981062e+00
    7.8574073756033733e-03 -1.0621700090875885e+00
    7.9744440150298218e-03 -1.2004900959975617e+00
    7.9744440150298218e-03 -1.2004900959975617e+00
    7.8574073756033733e-03 -1.0621700090875885e+00
    7.8574073756033733e-03 -1.0621700090875885e+00
    7.8798251312173478e-03 -1.1015141094572201e+00
    7.8454152500864755e-03 -9.7618706018395274e-01
    7.8482655372831764e-03 -9.6448564434082407e-01
    7.8637109525302520e-03 -9.3014436477669582e-01
    7.8574073756033751e-03 -9.4146887169127191e-01
    7.9006896649978994e-03 -1.1287039482254528e+00
    7.9264172601227565e-03 -1.1567316754606853e+00
    7.8711802299517609e-03 -9.1893658347268148e-01
    7.9571490856148435e-03 -8.4340986844212751e-01
    7.8522611634746723e-03 -9.5291446468793539e-01
    7.8711802299517609e-03 -9.1893658347268148e-01
    7.8431372549019607e-03 -1. 7.8522611634746723e-03
    -1.0494121319981062e+00 7.8574073756033733e-03
    -1.0621700090875885e+00 7.8482655372831764e-03
    -1.0368220676663857e+00 7.8522611634746723e-03
    -1.0494121319981062e+00 7.9411476524243359e-03
    -1.1710800875382392e+00 7.8798251312173478e-03
    -1.1015141094572201e+00 7.8711802299517609e-03
    -1.0882143751650175e+00 7.8896572042723000e-03
    -1.1150081807965553e+00 7.8482655372831764e-03
    -1.0368220676663857e+00 7.8437065676639269e-03
    -9.8802352005935368e-01 7.8482655372831764e-03
    -9.6448564434082407e-01 8.0130147068898944e-03
    -8.1240384046359593e-01 9.1696474696035136e-03
    -5.6343616981901101e-01 1.0062830940678160e-02
    -4.7919685895217384e-01 1.3288081611176719e-02
    -3.2659863237109044e-01 1.0626215652437784e-02
    -4.4073189618695269e-01 8.7045334379903371e-03
    -6.2845682683321802e-01 8.2251160283724149e-03
    -7.3282810879293991e-01 7.9571490856148435e-03
    -8.4340986844212751e-01 7.9264172601227565e-03
    -8.6450472587061755e-01 7.9411476524243376e-03
    -8.5391256382996639e-01 7.8896572042722983e-03
    -8.9685440629288105e-01 7.8637109525302520e-03
    -9.3014436477669582e-01 7.8454152500864755e-03
    -1.0243938285880985e+00 7.8437065676639269e-03
    -9.8802352005935368e-01 7.8454152500864755e-03
    -9.7618706018395274e-01 7.8454152500864755e-03
    -1.0243938285880985e+00 7.8574073756033733e-03
    -1.0621700090875885e+00 7.8482655372831764e-03
    -1.0368220676663857e+00 7.8896572042722983e-03
    -8.9685440629288105e-01 7.9006896649978994e-03
    -8.8597191634901151e-01 7.9129374472714040e-03
    -8.7518994898736735e-01 7.9006896649978994e-03
    -8.8597191634901151e-01 7.8437065676639269e-03
    -9.8802352005935368e-01 7.8637109525302520e-03
    -1.0751019281185186e+00 7.8522611634746723e-03
    -9.5291446468793539e-01 7.9930569804904390e-03
    -8.2265890669686237e-01 7.9264172601227565e-03
    -8.6450472587061755e-01 7.9571490856148435e-03
    -8.4340986844212751e-01 7.8574073756033751e-03
    -9.4146887169127191e-01 7.8637109525302520e-03
    -9.3014436477669582e-01 7.8574073756033751e-03
    -9.4146887169127191e-01 7.8437065676639269e-03
    -1.0121216546949476e+00 7.8431372549019607e-03 -1.
    7.8574073756033733e-03 -1.0621700090875885e+00
    7.8454152500864755e-03 -1.0243938285880985e+00
    7.8522611634746723e-03 -9.5291446468793539e-01
    7.8437065676639269e-03 -1.0121216546949476e+00
    7.9411476524243376e-03 -8.5391256382996639e-01
    7.9129374472714040e-03 -8.7518994898736735e-01
    7.8896572042722983e-03 -8.9685440629288105e-01
    8.1931331523805873e-03 -7.4256438721425266e-01
    8.8220388417103984e-03 -6.0983672113630616e-01
    1.0964487756630757e-02 -4.2107596053325946e-01
    1.4596559974299067e-02 -2.9149154406506872e-01
    1.0789894933909619e-02 -4.3094580368566732e-01
    9.0932885566862732e-03 -5.7271284253105414e-01
    8.2251160283724149e-03 -7.3282810879293991e-01
    8.1069107755093305e-03 -7.7210999614941267e-01
    8.0343462156151225e-03 -8.0222462966157027e-01
    7.9006896649978994e-03 -8.8597191634901151e-01
    7.9129374472714040e-03 -8.7518994898736735e-01
    7.8454152500864755e-03 -9.7618706018395274e-01
    7.8482655372831764e-03 -9.6448564434082407e-01
    7.8454152500864755e-03 -9.7618706018395274e-01
    7.8437065676639269e-03 -9.8802352005935368e-01
    7.8522611634746723e-03 -1.0494121319981062e+00
    7.8896572042722983e-03 -8.9685440629288105e-01
    7.8637109525302520e-03 -1.0751019281185186e+00
    7.8522611634746723e-03 -9.5291446468793539e-01
    7.8574073756033751e-03 -9.4146887169127191e-01
    7.8896572042722983e-03 -8.9685440629288105e-01
    7.9129374472714040e-03 -8.7518994898736735e-01
    7.8574073756033751e-03 -9.4146887169127191e-01
    7.8798251312173495e-03 -9.0784129900320365e-01
    7.9930569804904390e-03 -8.2265890669686237e-01
    7.8896572042722983e-03 -8.9685440629288105e-01
    7.9264172601227565e-03 -8.6450472587061755e-01
    7.9571490856148435e-03 -8.4340986844212751e-01
    7.8522611634746723e-03 -9.5291446468793539e-01
    7.8437065676639269e-03 -1.0121216546949476e+00
    7.8798251312173495e-03 -9.0784129900320365e-01
    7.8431372549019607e-03 -1. 7.8522611634746723e-03
    -9.5291446468793539e-01 7.9744440150298218e-03
    -8.3299312783504276e-01 7.8637109525302520e-03
    -9.3014436477669582e-01 7.8637109525302520e-03
    -9.3014436477669582e-01 7.8482655372831764e-03
    -9.6448564434082407e-01 7.9129374472714040e-03
    -8.7518994898736735e-01 7.9129374472714040e-03
    -8.7518994898736735e-01 7.8798251312173495e-03
    -9.0784129900320365e-01 8.0812589001412107e-03
    -7.8208086886005146e-01 8.7045334379903371e-03
    -6.2845682683321802e-01 1.0472475396722806e-02
    -4.5044261646145078e-01 1.5143174404524134e-02
    -2.7914526311954124e-01 1.1151110375624534e-02
    -4.1111322589651894e-01 9.2498298419117515e-03
    -5.5415396251694204e-01 8.4118351113381378e-03
    -6.8485512969719842e-01 8.3707046057866861e-03
    -6.9436507482941368e-01 8.1069107755093305e-03
    -7.7210999614941267e-01 8.0130147068898944e-03
    -8.1240384046359593e-01 7.8637109525302520e-03
    -9.3014436477669582e-01 7.8574073756033751e-03
    -9.4146887169127191e-01 7.8454152500864755e-03
    -1.0243938285880985e+00 7.8798251312173495e-03
    -9.0784129900320365e-01 7.8482655372831764e-03
    -9.6448564434082407e-01 7.8437065676639269e-03
    -9.8802352005935368e-01 7.8437065676639269e-03
    -1.0121216546949476e+00 7.8522611634746723e-03
    -9.5291446468793539e-01 7.8522611634746723e-03
    -9.5291446468793539e-01 7.8574073756033751e-03
    -9.4146887169127191e-01 7.8637109525302520e-03
    -9.3014436477669582e-01 7.8522611634746723e-03
    -9.5291446468793539e-01 7.8798251312173495e-03
    -9.0784129900320365e-01 7.8574073756033751e-03
    -9.4146887169127191e-01 7.9264172601227565e-03
    -8.6450472587061755e-01 7.9264172601227565e-03
    -8.6450472587061755e-01 7.8637109525302520e-03
    -9.3014436477669582e-01 7.8637109525302520e-03
    -9.3014436477669582e-01 7.8711802299517609e-03
    -9.1893658347268148e-01 7.8482655372831764e-03
    -9.6448564434082407e-01 7.8437065676639269e-03
    -9.8802352005935368e-01 7.8637109525302520e-03
    -9.3014436477669582e-01 7.8482655372831764e-03
    -9.6448564434082407e-01 7.8437065676639269e-03
    -1.0121216546949476e+00 7.8711802299517609e-03
    -9.1893658347268148e-01 7.8522611634746723e-03
    -9.5291446468793539e-01 7.8574073756033751e-03
    -9.4146887169127191e-01 7.9264172601227565e-03
    -8.6450472587061755e-01 7.9744440150298218e-03
    -8.3299312783504276e-01 7.9264172601227565e-03
    -8.6450472587061755e-01 8.1628036458368802e-03
    -7.5235479386327875e-01 8.8220388417103984e-03
    -6.0983672113630616e-01 1.0472475396722806e-02
    -4.5044261646145078e-01 1.7317963767532717e-02
    -2.3942606534028665e-01 1.0789894933909619e-02
    -4.3094580368566732e-01 9.4226311387273515e-03
    -5.3555737827646122e-01 8.8220388417103984e-03
    -6.0983672113630616e-01 8.4550038583703687e-03
    -6.7538163350597047e-01 8.1069107755093305e-03
    -7.7210999614941267e-01 7.9264172601227565e-03
    -8.6450472587061755e-01 7.8637109525302520e-03
    -9.3014436477669582e-01 7.8896572042722983e-03
    -8.9685440629288105e-01 7.8454152500864755e-03
    -9.7618706018395274e-01 7.8896572042722983e-03
    -8.9685440629288105e-01 7.8482655372831764e-03
    -9.6448564434082407e-01 7.8482655372831764e-03
    -9.6448564434082407e-01 7.8454152500864755e-03
    -9.7618706018395274e-01 7.8454152500864755e-03
    -1.0243938285880985e+00 7.8798251312173478e-03
    -1.1015141094572201e+00 7.8437065676639269e-03
    -9.8802352005935368e-01 7.8437065676639269e-03
    -9.8802352005935368e-01 7.8637109525302520e-03
    -9.3014436477669582e-01 7.8798251312173495e-03
    -9.0784129900320365e-01 7.8574073756033751e-03
    -9.4146887169127191e-01 7.9129374472714040e-03
    -8.7518994898736735e-01 7.8637109525302520e-03
    -9.3014436477669582e-01 7.9006896649978994e-03
    -8.8597191634901151e-01 7.8522611634746723e-03
    -9.5291446468793539e-01 7.9264172601227565e-03
    -8.6450472587061755e-01 7.8482655372831764e-03
    -1.0368220676663857e+00 7.8482655372831764e-03
    -1.0368220676663857e+00 7.9264172601227565e-03
    -8.6450472587061755e-01 7.8896572042722983e-03
    -8.9685440629288105e-01 7.8798251312173495e-03
    -9.0784129900320365e-01 7.8574073756033751e-03
    -9.4146887169127191e-01 7.8482655372831764e-03
    -9.6448564434082407e-01 7.8574073756033751e-03
    -9.4146887169127191e-01 7.9264172601227565e-03
    -8.6450472587061755e-01 7.8711802299517609e-03
    -9.1893658347268148e-01 7.9006896649978994e-03
    -8.8597191634901151e-01 8.0812589001412107e-03
    -7.8208086886005146e-01 8.5477913155740954e-03
    -6.5653216429861272e-01 9.9412390995816998e-03
    -4.8867777742522089e-01 1.7317963767532717e-02
    -2.3942606534028665e-01 1.2317779903237942e-02
    -3.5951592548908329e-01 9.7172076518043469e-03
    -5.0751921892255236e-01 9.3340715251257981e-03
    -5.4486236794258425e-01 8.5975940778140088e-03
    -6.4715022892943397e-01 8.4550038583703687e-03
    -6.7538163350597047e-01 7.9129374472714040e-03
    -8.7518994898736735e-01 7.8482655372831764e-03
    -9.6448564434082407e-01 7.8482655372831764e-03
    -9.6448564434082407e-01 7.8798251312173495e-03
    -9.0784129900320365e-01 7.8574073756033733e-03
    -1.0621700090875885e+00 7.9006896649978994e-03
    -1.1287039482254528e+00 7.9006896649978994e-03
    -1.1287039482254528e+00 7.8454152500864755e-03
    -1.0243938285880985e+00 7.8454152500864755e-03
    -1.0243938285880985e+00 7.8482655372831764e-03
    -1.0368220676663857e+00 7.8454152500864755e-03
    -1.0243938285880985e+00 7.8437065676639269e-03
    -1.0121216546949476e+00 7.8437065676639269e-03
    -9.8802352005935368e-01 7.8574073756033751e-03
    -9.4146887169127191e-01 7.9264172601227565e-03
    -8.6450472587061755e-01 7.9930569804904390e-03
    -8.2265890669686237e-01 7.8574073756033751e-03
    -9.4146887169127191e-01 7.9129374472714040e-03
    -8.7518994898736735e-01 7.8574073756033751e-03
    -9.4146887169127191e-01 7.8522611634746723e-03
    -9.5291446468793539e-01 7.9006896649978994e-03
    -8.8597191634901151e-01 7.8637109525302520e-03
    -9.3014436477669582e-01 7.8522611634746723e-03
    -9.5291446468793539e-01 7.8431372549019607e-03 -1.
    7.8522611634746723e-03 -9.5291446468793539e-01
    7.8574073756033751e-03 -9.4146887169127191e-01
    7.8454152500864755e-03 -9.7618706018395274e-01
    7.8522611634746723e-03 -9.5291446468793539e-01
    7.8711802299517609e-03 -9.1893658347268148e-01
    7.9264172601227565e-03 -8.6450472587061755e-01
    8.0343462156151225e-03 -8.0222462966157027e-01
    8.0812589001412107e-03 -7.8208086886005146e-01
    8.7045334379903371e-03 -6.2845682683321802e-01
    9.9412390995816998e-03 -4.8867777742522089e-01
    1.9512832899766665e-02 -2.0982172726556322e-01
    1.3288081611176719e-02 -3.2659863237109044e-01
    1.0062830940678160e-02 -4.7919685895217384e-01
    8.9511971815888214e-03 -5.9126431985615313e-01
    8.4118351113381378e-03 -6.8485512969719842e-01
    8.3315359664242142e-03 -7.0391440921144333e-01
    8.0812589001412107e-03 -7.8208086886005146e-01
    7.9411476524243376e-03 -8.5391256382996639e-01
    7.8798251312173495e-03 -9.0784129900320365e-01
    7.8437065676639269e-03 -9.8802352005935368e-01
    7.8522611634746723e-03 -9.5291446468793539e-01
    7.8522611634746723e-03 -1.0494121319981062e+00
    7.8454152500864755e-03 -1.0243938285880985e+00
    7.8454152500864755e-03 -9.7618706018395274e-01
    7.8574073756033733e-03 -1.0621700090875885e+00
    7.8637109525302520e-03 -1.0751019281185186e+00
    7.8482655372831764e-03 -9.6448564434082407e-01
    7.8454152500864755e-03 -9.7618706018395274e-01
    7.8637109525302520e-03 -9.3014436477669582e-01
    7.8454152500864755e-03 -9.7618706018395274e-01
    7.8437065676639269e-03 -9.8802352005935368e-01
    7.8711802299517609e-03 -9.1893658347268148e-01
    7.8522611634746723e-03 -9.5291446468793539e-01
    7.8522611634746723e-03 -9.5291446468793539e-01
    7.8896572042722983e-03 -8.9685440629288105e-01
    7.8637109525302520e-03 -9.3014436477669582e-01
    7.8798251312173495e-03 -9.0784129900320365e-01
    7.8798251312173478e-03 -1.1015141094572201e+00
    7.8711802299517609e-03 -1.0882143751650175e+00
    7.8431372549019607e-03 -1. 7.8431372549019607e-03 -1.
    7.8522611634746723e-03 -1.0494121319981062e+00
    7.8437065676639269e-03 -1.0121216546949476e+00
    7.9129374472714040e-03 -8.7518994898736735e-01
    7.9006896649978994e-03 -8.8597191634901151e-01
    7.9930569804904390e-03 -8.2265890669686237e-01
    7.9930569804904390e-03 -8.2265890669686237e-01
    8.3315359664242142e-03 -7.0391440921144333e-01
    8.7045334379903371e-03 -6.2845682683321802e-01
    1.0472475396722806e-02 -4.5044261646145078e-01
    1.4111789700098423e-02 -3.0348848933344197e-01
    1.2046932636549261e-02 -3.7011660509880256e-01
    1.0191493364719100e-02 -4.6966821831386218e-01
    9.7172076518043469e-03 -5.0751921892255236e-01
    8.4118351113381378e-03 -6.8485512969719842e-01
    8.4118351113381378e-03 -6.8485512969719842e-01
    8.0343462156151225e-03 -8.0222462966157027e-01
    7.9264172601227565e-03 -8.6450472587061755e-01
    7.8482655372831764e-03 -9.6448564434082407e-01
    7.8437065676639269e-03 -1.0121216546949476e+00
    7.8574073756033733e-03 -1.0621700090875885e+00
    7.8437065676639269e-03 -1.0121216546949476e+00
    7.9264172601227565e-03 -8.6450472587061755e-01
    7.8896572042722983e-03 -8.9685440629288105e-01
    7.8431372549019607e-03 -1. 7.8711802299517609e-03
    -9.1893658347268148e-01 7.8482655372831764e-03
    -9.6448564434082407e-01 7.8896572042722983e-03
    -8.9685440629288105e-01 7.8522611634746723e-03
    -9.5291446468793539e-01 7.9006896649978994e-03
    -8.8597191634901151e-01 7.8574073756033751e-03
    -9.4146887169127191e-01 7.8574073756033751e-03
    -9.4146887169127191e-01 7.8896572042722983e-03
    -8.9685440629288105e-01 7.8522611634746723e-03
    -9.5291446468793539e-01 7.8482655372831764e-03
    -9.6448564434082407e-01 7.8454152500864755e-03
    -1.0243938285880985e+00 7.8482655372831764e-03
    -1.0368220676663857e+00 7.8454152500864755e-03
    -1.0243938285880985e+00 7.8522611634746723e-03
    -9.5291446468793539e-01 7.8482655372831764e-03
    -9.6448564434082407e-01 7.8454152500864755e-03
    -1.0243938285880985e+00 7.8798251312173478e-03
    -1.1015141094572201e+00 7.8522611634746723e-03
    -1.0494121319981062e+00 7.8711802299517609e-03
    -9.1893658347268148e-01 7.9744440150298218e-03
    -8.3299312783504276e-01 7.8896572042722983e-03
    -8.9685440629288105e-01 8.0130147068898944e-03
    -8.1240384046359593e-01 8.5477913155740954e-03
    -6.5653216429861272e-01 9.2498298419117515e-03
    -5.5415396251694204e-01 1.2612488909460130e-02
    -3.4874291623145781e-01 1.4111789700098423e-02
    -3.0348848933344197e-01 1.2046932636549261e-02
    -3.7011660509880256e-01 1.0062830940678160e-02
    -4.7919685895217384e-01 9.8261890893315742e-03
    -4.9811675413689882e-01 9.0932885566862732e-03
    -5.7271284253105414e-01 8.5002930692438736e-03
    -6.6594163473202761e-01 8.0812589001412107e-03
    -7.8208086886005146e-01 7.9571490856148435e-03
    -8.4340986844212751e-01 7.8522611634746723e-03
    -9.5291446468793539e-01 7.8574073756033751e-03
    -9.4146887169127191e-01 7.8574073756033751e-03
    -9.4146887169127191e-01 7.8437065676639269e-03
    -9.8802352005935368e-01 7.8711802299517609e-03
    -1.0882143751650175e+00 7.8711802299517609e-03
    -1.0882143751650175e+00 7.8482655372831764e-03
    -1.0368220676663857e+00 7.8522611634746723e-03
    -1.0494121319981062e+00 7.8637109525302520e-03
    -9.3014436477669582e-01 7.8711802299517609e-03
    -9.1893658347268148e-01 7.8454152500864755e-03
    -9.7618706018395274e-01 7.8454152500864755e-03
    -9.7618706018395274e-01 7.8522611634746723e-03
    -9.5291446468793539e-01 7.8896572042722983e-03
    -8.9685440629288105e-01 7.8454152500864755e-03
    -9.7618706018395274e-01 7.8454152500864755e-03
    -9.7618706018395274e-01 7.8522611634746723e-03
    -1.0494121319981062e+00 7.8482655372831764e-03
    -1.0368220676663857e+00 7.8437065676639269e-03
    -9.8802352005935368e-01 7.8437065676639269e-03
    -9.8802352005935368e-01 7.8574073756033733e-03
    -1.0621700090875885e+00 7.8454152500864755e-03
    -9.7618706018395274e-01 7.8637109525302520e-03
    -1.0751019281185186e+00 7.8798251312173478e-03
    -1.1015141094572201e+00 7.8482655372831764e-03
    -9.6448564434082407e-01 7.8574073756033751e-03
    -9.4146887169127191e-01 7.9129374472714040e-03
    -8.7518994898736735e-01 8.0570829477513688e-03
    -7.9211803438133943e-01 8.1628036458368802e-03
    -7.5235479386327875e-01 8.5477913155740954e-03
    -6.5653216429861272e-01 9.0932885566862732e-03
    -5.7271284253105414e-01 1.3288081611176719e-02
    -3.2659863237109044e-01 1.8310254073894115e-02
    -2.2501758018520479e-01 1.4111789700098423e-02
    -3.0348848933344197e-01 1.0626215652437784e-02
    -4.4073189618695269e-01 9.7172076518043469e-03
    -5.0751921892255236e-01 9.7172076518043469e-03
    -5.0751921892255236e-01 8.7045334379903371e-03
    -6.2845682683321802e-01 8.1628036458368802e-03
    -7.5235479386327875e-01 8.1628036458368802e-03
    -7.5235479386327875e-01 7.9930569804904390e-03
    -8.2265890669686237e-01 7.9411476524243376e-03
    -8.5391256382996639e-01 7.8437065676639269e-03
    -1.0121216546949476e+00 7.8431372549019607e-03 -1.
    7.8798251312173478e-03 -1.1015141094572201e+00
    7.8798251312173478e-03 -1.1015141094572201e+00
    7.8574073756033751e-03 -9.4146887169127191e-01
    7.8482655372831764e-03 -1.0368220676663857e+00
    7.8454152500864755e-03 -9.7618706018395274e-01
    7.8798251312173495e-03 -9.0784129900320365e-01
    7.8798251312173495e-03 -9.0784129900320365e-01
    7.8522611634746723e-03 -9.5291446468793539e-01
    7.9006896649978994e-03 -8.8597191634901151e-01
    7.8454152500864755e-03 -9.7618706018395274e-01
    7.8437065676639269e-03 -9.8802352005935368e-01
    7.8454152500864755e-03 -1.0243938285880985e+00
    7.8454152500864755e-03 -9.7618706018395274e-01
    7.8454152500864755e-03 -9.7618706018395274e-01
    7.8454152500864755e-03 -9.7618706018395274e-01
    7.8437065676639269e-03 -1.0121216546949476e+00
    7.8437065676639269e-03 -1.0121216546949476e+00
    7.8437065676639269e-03 -9.8802352005935368e-01
    7.8437065676639269e-03 -1.0121216546949476e+00
    7.8482655372831764e-03 -9.6448564434082407e-01
    7.8522611634746723e-03 -9.5291446468793539e-01
    7.9264172601227565e-03 -8.6450472587061755e-01
    8.1069107755093305e-03 -7.7210999614941267e-01
    8.1340781480228296e-03 -7.6220232284635603e-01
    8.2251160283724149e-03 -7.3282810879293991e-01
    8.5975940778140088e-03 -6.4715022892943397e-01
    1.0062830940678160e-02 -4.7919685895217384e-01
    1.2612488909460130e-02 -3.4874291623145781e-01
    1.5765426201885518e-02 -2.6639771383306554e-01
    1.4596559974299067e-02 -2.9149154406506872e-01
    1.2612488909460130e-02 -3.4874291623145781e-01
    9.9412390995816998e-03 -4.8867777742522089e-01
    9.7172076518043469e-03 -5.0751921892255236e-01
    9.2498298419117515e-03 -5.5415396251694204e-01
    8.8850863737072495e-03 -6.0054619947587551e-01
    8.5002930692438736e-03 -6.6594163473202761e-01
    8.5002930692438736e-03 -6.6594163473202761e-01
    7.9129374472714040e-03 -8.7518994898736735e-01
    7.8896572042722983e-03 -8.9685440629288105e-01
    8.1069107755093305e-03 -7.7210999614941267e-01
    7.8637109525302520e-03 -9.3014436477669582e-01
    7.8574073756033733e-03 -1.0621700090875885e+00
    7.9411476524243359e-03 -1.1710800875382392e+00
    7.9411476524243359e-03 -1.1710800875382392e+00
    7.9006896649978994e-03 -1.1287039482254528e+00
    7.8711802299517609e-03 -1.0882143751650175e+00
    7.8437065676639269e-03 -9.8802352005935368e-01
    7.8482655372831764e-03 -9.6448564434082407e-01
    7.8482655372831764e-03 -9.6448564434082407e-01
    7.8454152500864755e-03 -1.0243938285880985e+00
    7.8482655372831764e-03 -9.6448564434082407e-01
    7.8574073756033751e-03 -9.4146887169127191e-01
    7.8711802299517609e-03 -9.1893658347268148e-01
    7.8454152500864755e-03 -1.0243938285880985e+00
    7.8574073756033733e-03 -1.0621700090875885e+00
    7.8574073756033751e-03 -9.4146887169127191e-01
    7.8482655372831764e-03 -1.0368220676663857e+00
    7.8798251312173495e-03 -9.0784129900320365e-01
    7.9411476524243359e-03 -1.1710800875382392e+00
    7.8431372549019607e-03 -1. 7.8637109525302520e-03
    -9.3014436477669582e-01 7.8896572042722983e-03
    -8.9685440629288105e-01 8.1931331523805873e-03
    -7.4256438721425266e-01 8.4118351113381378e-03
    -6.8485512969719842e-01 8.5002930692438736e-03
    -6.6594163473202761e-01 9.1696474696035136e-03
    -5.6343616981901101e-01 1.1351048279453126e-02
    -4.0104757927103968e-01 1.4111789700098423e-02
    -3.0348848933344197e-01 1.8310254073894115e-02
    -2.2501758018520479e-01 1.5765426201885518e-02
    -2.6639771383306554e-01 1.3288081611176719e-02
    -3.2659863237109044e-01 1.0964487756630757e-02
    -4.2107596053325946e-01 1.0062830940678160e-02
    -4.7919685895217384e-01 9.9412390995816998e-03
    -4.8867777742522089e-01 9.5157928892135209e-03
    -5.2623481158421759e-01 9.5157928892135209e-03
    -5.2623481158421759e-01 8.5975940778140088e-03
    -6.4715022892943397e-01 8.2588053568231068e-03
    -7.2314298711701119e-01 8.2251160283724149e-03
    -7.3282810879293991e-01 8.2942582135927291e-03
    -7.1350606801267569e-01 7.9006896649978994e-03
    -8.8597191634901151e-01 7.8637109525302520e-03
    -9.3014436477669582e-01 7.8437065676639269e-03
    -1.0121216546949476e+00 7.9129374472714040e-03
    -1.1426091000668408e+00 7.9571490856148452e-03
    -1.1856631483896578e+00 7.8574073756033733e-03
    -1.0621700090875885e+00 7.8437065676639269e-03
    -9.8802352005935368e-01 7.8637109525302520e-03
    -1.0751019281185186e+00 7.8482655372831764e-03
    -1.0368220676663857e+00 7.8437065676639269e-03
    -1.0121216546949476e+00 7.8454152500864755e-03
    -1.0243938285880985e+00 7.8711802299517609e-03
    -9.1893658347268148e-01 7.9129374472714040e-03
    -8.7518994898736735e-01 7.8437065676639269e-03
    -9.8802352005935368e-01 7.8454152500864755e-03
    -9.7618706018395274e-01 7.8454152500864755e-03
    -1.0243938285880985e+00 7.8437065676639269e-03
    -1.0121216546949476e+00 7.8437065676639269e-03
    -9.8802352005935368e-01 7.8522611634746723e-03
    -1.0494121319981062e+00 7.8574073756033751e-03
    -9.4146887169127191e-01 7.8896572042722983e-03
    -8.9685440629288105e-01 8.0570829477513688e-03
    -7.9211803438133943e-01 8.1069107755093305e-03
    -7.7210999614941267e-01 8.5975940778140088e-03
    -6.4715022892943397e-01 9.1696474696035136e-03
    -5.6343616981901101e-01 9.7172076518043469e-03
    -5.0751921892255236e-01 1.2934519881649001e-02
    -3.3777797401776155e-01 1.4111789700098423e-02
    -3.0348848933344197e-01 1.9512832899766665e-02
    -2.0982172726556322e-01 1.5765426201885518e-02
    -2.6639771383306554e-01 1.3678352904417759e-02
    -3.1517891481565019e-01 1.0327819165828261e-02
    -4.6008567910421683e-01 1.0191493364719100e-02
    -4.6966821831386218e-01 9.8261890893315742e-03
    -4.9811675413689882e-01 9.3340715251257981e-03
    -5.4486236794258425e-01 9.5157928892135209e-03
    -5.2623481158421759e-01 8.5002930692438736e-03
    -6.6594163473202761e-01 8.2588053568231068e-03
    -7.2314298711701119e-01 8.4118351113381378e-03
    -6.8485512969719842e-01 8.1340781480228296e-03
    -7.6220232284635603e-01 8.1340781480228296e-03
    -7.6220232284635603e-01 7.9006896649978994e-03
    -8.8597191634901151e-01 7.8711802299517609e-03
    -9.1893658347268148e-01 7.8711802299517609e-03
    -9.1893658347268148e-01 7.8798251312173495e-03
    -9.0784129900320365e-01 7.9006896649978994e-03
    -8.8597191634901151e-01 7.9006896649978994e-03
    -8.8597191634901151e-01 7.8437065676639269e-03
    -9.8802352005935368e-01 7.8574073756033733e-03
    -1.0621700090875885e+00 7.8437065676639269e-03
    -1.0121216546949476e+00 7.8431372549019607e-03 -1.
    7.8437065676639269e-03 -9.8802352005935368e-01
    7.8798251312173495e-03 -9.0784129900320365e-01
    7.9930569804904390e-03 -8.2265890669686237e-01
    7.9930569804904390e-03 -8.2265890669686237e-01
    7.8437065676639269e-03 -1.0121216546949476e+00
    7.8711802299517609e-03 -9.1893658347268148e-01
    7.8896572042722983e-03 -8.9685440629288105e-01
    7.9264172601227565e-03 -8.6450472587061755e-01
    7.9930569804904390e-03 -8.2265890669686237e-01
    8.1340781480228296e-03 -7.6220232284635603e-01
    8.1628036458368802e-03 -7.5235479386327875e-01
    8.4118351113381378e-03 -6.8485512969719842e-01
    9.0205375733954010e-03 -5.8198769524737792e-01
    9.1696474696035136e-03 -5.6343616981901101e-01
    1.0626215652437784e-02 -4.4073189618695269e-01
    1.2612488909460130e-02 -3.4874291623145781e-01
    1.5765426201885518e-02 -2.6639771383306554e-01
    1.8310254073894115e-02 -2.2501758018520479e-01
    1.7317963767532717e-02 -2.3942606534028665e-01
    1.2612488909460130e-02 -3.4874291623145781e-01
    1.0626215652437784e-02 -4.4073189618695269e-01
    1.0327819165828261e-02 -4.6008567910421683e-01
    1.0327819165828261e-02 -4.6008567910421683e-01
    9.9412390995816998e-03 -4.8867777742522089e-01
    9.5157928892135209e-03 -5.2623481158421759e-01
    8.8850863737072495e-03 -6.0054619947587551e-01
    8.8850863737072495e-03 -6.0054619947587551e-01
    8.5975940778140088e-03 -6.4715022892943397e-01
    8.4118351113381378e-03 -6.8485512969719842e-01
    8.0812589001412107e-03 -7.8208086886005146e-01
    7.9930569804904390e-03 -8.2265890669686237e-01
    8.1069107755093305e-03 -7.7210999614941267e-01
    8.1931331523805873e-03 -7.4256438721425266e-01
    7.9129374472714040e-03 -8.7518994898736735e-01
    7.9264172601227565e-03 -8.6450472587061755e-01
    7.9129374472714040e-03 -8.7518994898736735e-01
    7.8574073756033751e-03 -9.4146887169127191e-01
    7.8637109525302520e-03 -9.3014436477669582e-01
    7.8431372549019607e-03 -1. 7.8431372549019607e-03 -1.
    7.8798251312173495e-03 -9.0784129900320365e-01
    7.8896572042722983e-03 -8.9685440629288105e-01
    7.8522611634746723e-03 -9.5291446468793539e-01
    7.8574073756033751e-03 -9.4146887169127191e-01
    7.8431372549019607e-03 -1. 7.9129374472714040e-03
    -8.7518994898736735e-01 7.9744440150298218e-03
    -8.3299312783504276e-01 8.2942582135927291e-03
    -7.1350606801267569e-01 8.2251160283724149e-03
    -7.3282810879293991e-01 8.2942582135927291e-03
    -7.1350606801267569e-01 8.2942582135927291e-03
    -7.1350606801267569e-01 8.7619015432995571e-03
    -6.1913918736689044e-01 9.1696474696035136e-03
    -5.6343616981901101e-01 9.4226311387273515e-03
    -5.3555737827646122e-01 1.1151110375624534e-02
    -4.1111322589651894e-01 1.4111789700098423e-02
    -3.0348848933344197e-01 1.5765426201885518e-02
    -2.6639771383306554e-01 2.1010301812759188e-02
    -1.9364916731037082e-01 1.8310254073894115e-02
    -2.2501758018520479e-01 1.2317779903237942e-02
    -3.5951592548908329e-01 1.1565790495108278e-02
    -3.9086797998528577e-01 1.1351048279453126e-02
    -4.0104757927103968e-01 1.0327819165828261e-02
    -4.6008567910421683e-01 1.0191493364719100e-02
    -4.6966821831386218e-01 9.8261890893315742e-03
    -4.9811675413689882e-01 9.7172076518043469e-03
    -5.0751921892255236e-01 9.9412390995816998e-03
    -4.8867777742522089e-01 9.7172076518043469e-03
    -5.0751921892255236e-01 8.4550038583703687e-03
    -6.7538163350597047e-01 8.7619015432995571e-03
    -6.1913918736689044e-01 8.7045334379903371e-03
    -6.2845682683321802e-01 8.4550038583703687e-03
    -6.7538163350597047e-01 8.0343462156151225e-03
    -8.0222462966157027e-01 8.0130147068898944e-03
    -8.1240384046359593e-01 7.8454152500864755e-03
    -9.7618706018395274e-01 7.8896572042722983e-03
    -8.9685440629288105e-01 7.8437065676639269e-03
    -9.8802352005935368e-01 7.8637109525302520e-03
    -9.3014436477669582e-01 7.9006896649978994e-03
    -8.8597191634901151e-01 7.8522611634746723e-03
    -9.5291446468793539e-01 7.8711802299517609e-03
    -9.1893658347268148e-01 7.9571490856148435e-03
    -8.4340986844212751e-01 7.9129374472714040e-03
    -8.7518994898736735e-01 8.0570829477513688e-03
    -7.9211803438133943e-01 7.9744440150298218e-03
    -8.3299312783504276e-01 7.9744440150298218e-03
    -8.3299312783504276e-01 7.9571490856148435e-03
    -8.4340986844212751e-01 8.3707046057866861e-03
    -6.9436507482941368e-01 8.2942582135927291e-03
    -7.1350606801267569e-01 8.4118351113381378e-03
    -6.8485512969719842e-01 8.7045334379903371e-03
    -6.2845682683321802e-01 9.2498298419117515e-03
    -5.5415396251694204e-01 9.2498298419117515e-03
    -5.5415396251694204e-01 1.0062830940678160e-02
    -4.7919685895217384e-01 1.2612488909460130e-02
    -3.4874291623145781e-01 1.3288081611176719e-02
    -3.2659863237109044e-01 1.5765426201885518e-02
    -2.6639771383306554e-01 2.1010301812759188e-02
    -1.9364916731037082e-01 1.4596559974299067e-02
    -2.9149154406506872e-01 1.3678352904417759e-02
    -3.1517891481565019e-01 1.2934519881649001e-02
    -3.3777797401776155e-01 1.1351048279453126e-02
    -4.0104757927103968e-01 1.0327819165828261e-02
    -4.6008567910421683e-01 9.9412390995816998e-03
    -4.8867777742522089e-01 1.0964487756630757e-02
    -4.2107596053325946e-01 1.0626215652437784e-02
    -4.4073189618695269e-01 1.0327819165828261e-02
    -4.6008567910421683e-01 1.0789894933909619e-02
    -4.3094580368566732e-01 9.4226311387273515e-03
    -5.3555737827646122e-01 8.7045334379903371e-03
    -6.2845682683321802e-01 8.7045334379903371e-03
    -6.2845682683321802e-01 8.6498043699170402e-03
    -6.3779280414328055e-01 8.3707046057866861e-03
    -6.9436507482941368e-01 8.2942582135927291e-03
    -7.1350606801267569e-01 8.0812589001412107e-03
    -7.8208086886005146e-01 7.8798251312173495e-03
    -9.0784129900320365e-01 7.8711802299517609e-03
    -9.1893658347268148e-01 7.8454152500864755e-03
    -9.7618706018395274e-01 7.8711802299517609e-03
    -9.1893658347268148e-01 8.0130147068898944e-03
    -8.1240384046359593e-01 7.9411476524243376e-03
    -8.5391256382996639e-01 7.9264172601227565e-03
    -8.6450472587061755e-01 8.0343462156151225e-03
    -8.0222462966157027e-01 8.0812589001412107e-03
    -7.8208086886005146e-01 8.3707046057866861e-03
    -6.9436507482941368e-01 8.4118351113381378e-03
    -6.8485512969719842e-01 8.3707046057866861e-03
    -6.9436507482941368e-01 8.3315359664242142e-03
    -7.0391440921144333e-01 8.7045334379903371e-03
    -6.2845682683321802e-01 9.0205375733954010e-03
    -5.8198769524737792e-01 9.2498298419117515e-03
    -5.5415396251694204e-01 9.4226311387273515e-03
    -5.3555737827646122e-01 9.6138698308130544e-03
    -5.1689029060244884e-01 1.0626215652437784e-02
    -4.4073189618695269e-01 1.1565790495108278e-02
    -3.9086797998528577e-01 1.4111789700098423e-02
    -3.0348848933344197e-01 1.6481836758420455e-02
    -2.5318484177091660e-01 2.1010301812759188e-02
    -1.9364916731037082e-01 1.8310254073894115e-02
    -2.2501758018520479e-01 1.6481836758420455e-02
    -2.5318484177091660e-01 1.4111789700098423e-02
    -3.0348848933344197e-01 1.2612488909460130e-02
    -3.4874291623145781e-01 1.1797072790646713e-02
    -3.8056219755369364e-01 1.1351048279453126e-02
    -4.0104757927103968e-01 1.1797072790646713e-02
    -3.8056219755369364e-01 1.2046932636549261e-02
    -3.7011660509880256e-01 1.0789894933909619e-02
    -4.3094580368566732e-01 1.0964487756630757e-02
    -4.2107596053325946e-01 1.1351048279453126e-02
    -4.0104757927103968e-01 1.1151110375624534e-02
    -4.1111322589651894e-01 9.6138698308130544e-03
    -5.1689029060244884e-01 9.5157928892135209e-03
    -5.2623481158421759e-01 8.8850863737072495e-03
    -6.0054619947587551e-01 8.8220388417103984e-03
    -6.0983672113630616e-01 8.5477913155740954e-03
    -6.5653216429861272e-01 8.1931331523805873e-03
    -7.4256438721425266e-01 7.9006896649978994e-03
    -8.8597191634901151e-01 7.9129374472714040e-03
    -8.7518994898736735e-01 7.9264172601227565e-03
    -8.6450472587061755e-01 8.1340781480228296e-03
    -7.6220232284635603e-01 8.0130147068898944e-03
    -8.1240384046359593e-01 8.1340781480228296e-03
    -7.6220232284635603e-01 8.0812589001412107e-03
    -7.8208086886005146e-01 8.5477913155740954e-03
    -6.5653216429861272e-01 8.5477913155740954e-03
    -6.5653216429861272e-01 8.5002930692438736e-03
    -6.6594163473202761e-01 8.4550038583703687e-03
    -6.7538163350597047e-01 8.7045334379903371e-03
    -6.2845682683321802e-01 8.8220388417103984e-03
    -6.0983672113630616e-01 9.7172076518043469e-03
    -5.0751921892255236e-01 9.9412390995816998e-03
    -4.8867777742522089e-01 9.9412390995816998e-03
    -4.8867777742522089e-01 1.0626215652437784e-02
    -4.4073189618695269e-01 1.1565790495108278e-02
    -3.9086797998528577e-01 1.2317779903237942e-02
    -3.5951592548908329e-01 1.5765426201885518e-02
    -2.6639771383306554e-01 2.2944044030811777e-02
    -1.7622684421256032e-01 2.5572924984088644e-02
    -1.5713484026367722e-01 1.9512832899766665e-02
    -2.0982172726556322e-01 1.9512832899766665e-02
    -2.0982172726556322e-01 1.5143174404524134e-02
    -2.7914526311954124e-01 1.3288081611176719e-02
    -3.2659863237109044e-01 1.4111789700098423e-02
    -3.0348848933344197e-01 1.3288081611176719e-02
    -3.2659863237109044e-01 1.2612488909460130e-02
    -3.4874291623145781e-01 1.2934519881649001e-02
    -3.3777797401776155e-01 1.3288081611176719e-02
    -3.2659863237109044e-01 1.2317779903237942e-02
    -3.5951592548908329e-01 1.2612488909460130e-02
    -3.4874291623145781e-01 1.2046932636549261e-02
    -3.7011660509880256e-01 1.1565790495108278e-02
    -3.9086797998528577e-01 1.1797072790646713e-02
    -3.8056219755369364e-01 1.0191493364719100e-02
    -4.6966821831386218e-01 9.8261890893315742e-03
    -4.9811675413689882e-01 8.5975940778140088e-03
    -6.4715022892943397e-01 8.5002930692438736e-03
    -6.6594163473202761e-01 8.1069107755093305e-03
    -7.7210999614941267e-01 8.0130147068898944e-03
    -8.1240384046359593e-01 7.9930569804904390e-03
    -8.2265890669686237e-01 8.1931331523805873e-03
    -7.4256438721425266e-01 8.2588053568231068e-03
    -7.2314298711701119e-01 8.2942582135927291e-03
    -7.1350606801267569e-01 8.4550038583703687e-03
    -6.7538163350597047e-01 8.6498043699170402e-03
    -6.3779280414328055e-01 8.8220388417103984e-03
    -6.0983672113630616e-01 9.2498298419117515e-03
    -5.5415396251694204e-01 9.3340715251257981e-03
    -5.4486236794258425e-01 9.2498298419117515e-03
    -5.5415396251694204e-01 9.2498298419117515e-03
    -5.5415396251694204e-01 1.0191493364719100e-02
    -4.6966821831386218e-01 1.0964487756630757e-02
    -4.2107596053325946e-01 1.2046932636549261e-02
    -3.7011660509880256e-01 1.4596559974299067e-02
    -2.9149154406506872e-01 1.4111789700098423e-02
    -3.0348848933344197e-01 1.4596559974299067e-02
    -2.9149154406506872e-01 1.7317963767532717e-02
    -2.3942606534028665e-01 2.5572924984088644e-02
    -1.5713484026367722e-01 5.0678754796397184e-02
    -7.7849894416152296e-02 2.5572924984088644e-02
    -1.5713484026367722e-01 1.8310254073894115e-02
    -2.2501758018520479e-01 1.8310254073894115e-02
    -2.2501758018520479e-01 1.7317963767532717e-02
    -2.3942606534028665e-01 1.7317963767532717e-02
    -2.3942606534028665e-01 1.7317963767532717e-02
    -2.3942606534028665e-01 1.6481836758420455e-02
    -2.5318484177091660e-01 1.5143174404524134e-02
    -2.7914526311954124e-01 1.4596559974299067e-02
    -2.9149154406506872e-01 1.4596559974299067e-02
    -2.9149154406506872e-01 1.3678352904417759e-02
    -3.1517891481565019e-01 1.3678352904417759e-02
    -3.1517891481565019e-01 1.3288081611176719e-02
    -3.2659863237109044e-01 1.4111789700098423e-02
    -3.0348848933344197e-01 1.2317779903237942e-02
    -3.5951592548908329e-01 1.0626215652437784e-02
    -4.4073189618695269e-01 9.6138698308130544e-03
    -5.1689029060244884e-01 8.9511971815888214e-03
    -5.9126431985615313e-01 8.8220388417103984e-03
    -6.0983672113630616e-01 8.9511971815888214e-03
    -5.9126431985615313e-01 8.5002930692438736e-03
    -6.6594163473202761e-01 9.2498298419117515e-03
    -5.5415396251694204e-01 8.7045334379903371e-03
    -6.2845682683321802e-01 9.8261890893315742e-03
    -4.9811675413689882e-01 8.8850863737072495e-03
    -6.0054619947587551e-01 9.5157928892135209e-03
    -5.2623481158421759e-01 9.5157928892135209e-03
    -5.2623481158421759e-01 9.7172076518043469e-03
    -5.0751921892255236e-01 1.0472475396722806e-02
    -4.5044261646145078e-01 9.8261890893315742e-03
    -4.9811675413689882e-01 1.0472475396722806e-02
    -4.5044261646145078e-01 1.2046932636549261e-02
    -3.7011660509880256e-01 1.4596559974299067e-02
    -2.9149154406506872e-01 1.5765426201885518e-02
    -2.6639771383306554e-01 1.7317963767532717e-02
    -2.3942606534028665e-01 1.9512832899766665e-02
    -2.0982172726556322e-01 1.8310254073894115e-02
    -2.2501758018520479e-01 1.8310254073894115e-02
    -2.2501758018520479e-01 2.1010301812759188e-02
    -1.9364916731037082e-01 2.5572924984088644e-02
    -1.5713484026367722e-01 1.9512832899766665e-02
    -2.0982172726556322e-01 1.9512832899766665e-02
    -2.0982172726556322e-01 2.1010301812759188e-02
    -1.9364916731037082e-01 2.9438350922846405e-02
    -1.3566468949384036e-01 2.9438350922846405e-02
    -1.3566468949384036e-01 2.2944044030811777e-02
    -1.7622684421256032e-01 2.1010301812759188e-02
    -1.9364916731037082e-01 1.9512832899766665e-02
    -2.0982172726556322e-01 1.5765426201885518e-02
    -2.6639771383306554e-01 1.5765426201885518e-02
    -2.6639771383306554e-01 1.5143174404524134e-02
    -2.7914526311954124e-01 1.6481836758420455e-02
    -2.5318484177091660e-01 1.8310254073894115e-02
    -2.2501758018520479e-01 2.1010301812759188e-02
    -1.9364916731037082e-01 1.7317963767532717e-02
    -2.3942606534028665e-01 1.2317779903237942e-02
    -3.5951592548908329e-01 1.2612488909460130e-02
    -3.4874291623145781e-01 1.2317779903237942e-02
    -3.5951592548908329e-01 1.1351048279453126e-02
    -4.0104757927103968e-01 9.6138698308130544e-03
    -5.1689029060244884e-01 9.9412390995816998e-03
    -4.8867777742522089e-01 1.3678352904417759e-02
    -3.1517891481565019e-01 1.1797072790646713e-02
    -3.8056219755369364e-01 1.0191493364719100e-02
    -4.6966821831386218e-01 1.0789894933909619e-02
    -4.3094580368566732e-01 1.0327819165828261e-02
    -4.6008567910421683e-01 1.0062830940678160e-02
    -4.7919685895217384e-01 1.0191493364719100e-02
    -4.6966821831386218e-01 1.0964487756630757e-02
    -4.2107596053325946e-01 1.1797072790646713e-02
    -3.8056219755369364e-01 1.2934519881649001e-02
    -3.3777797401776155e-01 1.5765426201885518e-02
    -2.6639771383306554e-01 1.6481836758420455e-02
    -2.5318484177091660e-01 1.7317963767532717e-02
    -2.3942606534028665e-01 2.1010301812759188e-02
    -1.9364916731037082e-01 2.5572924984088644e-02
    -1.5713484026367722e-01 2.5572924984088644e-02
    -1.5713484026367722e-01 2.2944044030811777e-02
    -1.7622684421256032e-01 1.9512832899766665e-02
    -2.0982172726556322e-01</input_scale>
  <output_scale>
    1.0526315789473684e+00 0.</output_scale>
  <inv_output_scale>
    9.4999999999999996e-01 0.</inv_output_scale>
  <weights>
    <_>
      2.6617418515811114e-01 7.3209568925880056e-02
      5.7136684288483529e-02 1.7272632873157244e-02
      -5.1436108514173941e-02 5.7644101973407472e-03
      -1.4493297776003868e-02 -4.3171427907129745e-02
      2.7393817989873328e-03 8.6207812708813794e-02
      1.2440630840303420e-02 4.3901987612303496e-02
      1.4956079095564319e-02 -2.7067273269517449e-02
      -1.3463585846720241e-02 1.0350205861464436e-02
      1.6947490262446626e-03 3.6349667884929653e-02
      -8.9668521944204063e-02 8.8897019885889147e-02
      -3.9861904794710606e-02 1.9760736876578435e-04
      -1.7650336649110956e-03 6.0680071656860478e-02
      9.7764070624805147e-03 -3.3601938365672270e-03
      7.9564271405408366e-02 -8.1199283365611469e-02
      1.7697148607758589e-02 1.1010023999638689e-02
      -6.2380644570256050e-02 -7.6682226637470208e-02
      9.2677818990530417e-02 1.9557720910181323e-02
      2.9795278787838379e-02 3.6833348901652270e-03
      5.8853111763257304e-02 2.3457819130929883e-02
      -6.7118110452141971e-02 -5.4126231222769029e-02
      2.2836969173328189e-01 7.8004894615388417e-03
      1.3725278474812342e-03 -1.9364958633859390e-02
      -8.7229950351902052e-04 -3.4954281198691102e-02
      2.0386867781837840e-02 4.8687376038735377e-03
      4.2382254275382329e-02 5.9155114093895431e-03
      -2.2977917149940116e-02 -1.0463671085267487e-03
      -2.0602147553700590e-02 1.3763630984368773e-02
      -3.7267440377170287e-02 -2.6161047571698237e-02
      3.2523129933634196e-02 -7.8514059291673998e-03
      -1.1249991159176945e-02 9.8733500093277516e-03
      5.1861295961870713e-03 -3.5471191916895843e-02
      -3.2731519187380702e-02 5.5599164391641961e-03
      -2.9113069108581004e-02 2.5847751458053233e-02
      8.9543740176377829e-03 -9.0378498427490135e-03
      -1.9827939195081096e-02 -3.0082281282987115e-02
      -4.4858510157494008e-03 -7.7295364246622996e-03
      8.3713457613513523e-03 -1.8755583172355653e-02
      -1.3539574390151214e-02 -2.8913266130946823e-02
      3.6990114594178591e-03 -1.5980401584325451e-02
      -7.7034258679340370e-03 -1.2094017072175789e-03
      1.2356785087500264e-02 3.9456386892869092e-03
      3.4297150819745784e-03 3.8289847919107359e-03
      -3.0897299033580076e-03 5.1134035224129765e-03
      -4.3647568006077147e-03 -5.3952739382291367e-03
      -5.8854440732676741e-03 8.5438266113852506e-03
      2.2955275802457268e-03 3.1700207518412255e-03
      4.2843480600575452e-03 -6.1877903709050023e-03
      2.9031608773139555e-03 2.3881356543473892e-03
      -2.5496881902198443e-03 6.8094848505121167e-03
      -1.0695213771723501e-02 1.0074045272579487e-02
      -4.7111407750724124e-03 5.0905204517845562e-03
      2.6892601443677601e-03 3.3800032903401837e-03
      3.4589783606964108e-03 -1.9211730426669236e-03
      5.8165056954038712e-03 -7.4208576817417190e-03
      6.2161038407237646e-03 3.3004827887621749e-03
      -1.7061988885908584e-03 -5.9126026107301994e-03
      8.2666793048735733e-03 4.4139761348727146e-03
      6.9463466859192302e-03 4.3972939092768101e-03
      1.9124076359560975e-03 5.9443477382862689e-03
      -3.8137339708027317e-03 -3.2980284908895466e-03
      -6.5014703018600337e-02 -1.7324254073060621e-02
      -1.5277062506498051e-02 -1.0050913998704836e-02
      1.5445067332122983e-02 -8.9007033134423097e-03
      1.0455095416479330e-02 1.3933967035648956e-02
      1.2787168552526897e-02 -1.6220826661922507e-02
      -7.9166489423592775e-03 -1.3246289282012057e-02
      -8.3685474339555751e-03 1.1738480007166853e-02
      -6.9592024191174259e-03 -6.7339486009118914e-03
      9.1924876709445647e-03 -1.2638752506815348e-02
      2.1212258685265266e-02 -2.1395915194173536e-02
      1.4157721771595112e-02 -9.9326965271537924e-03
      -7.6979416693759885e-03 -1.6340348293833344e-02
      -6.0368993700621884e-03 7.3117955830693778e-03
      -1.9726546070069469e-02 1.8942319134839198e-02
      -8.6779749090702199e-03 -6.8747888135434034e-03
      1.7472351128503077e-02 1.9990109810237223e-02
      -1.9499157826647972e-02 -1.1691674955795374e-02
      -1.2917466240481760e-02 -7.5262957790863108e-03
      -1.4635132224062994e-02 -1.0788043976138336e-02
      1.8424416237001213e-02 1.4581599720889736e-02
      -5.5602538128251354e-02 -2.0693989407728271e-02
      -1.8521986242187399e-02 -1.2634138290015536e-02
      1.6220430232374197e-02 -9.1969563181536346e-03
      1.2254250956773483e-02 1.7277245555387639e-02
      9.8962117234730335e-03 -2.0637210094690779e-02
      -1.0720039281629502e-02 -1.6409693614509904e-02
      -1.0237118111105552e-02 1.3344464373369900e-02
      -4.1222825305865969e-03 -1.1394288912096168e-02
      9.7194992264117413e-03 -1.4934669978712001e-02
      2.3990086341316615e-02 -2.3178426486288452e-02
      1.4760152335567388e-02 -1.0650726399141618e-02
      -9.6156806638026861e-03 -1.7901271663255083e-02
      -9.6088813613589789e-03 8.9061926864444987e-03
      -2.2813039826310829e-02 2.3488940926244543e-02
      -1.2917722572447388e-02 -1.0532472458834199e-02
      2.0805908959566997e-02 2.2719914518706603e-02
      -2.3712753246131566e-02 -1.2888782211018888e-02
      -1.6104239449723834e-02 -7.9784987528030635e-03
      -1.8459130911018504e-02 -1.2162291685980911e-02
      2.0308445929779106e-02 1.8461640534229665e-02
      -5.5176773962284743e-02 -2.2064982060181343e-02
      -1.7671219172033119e-02 -1.2004209636205406e-02
      1.7364516451124221e-02 -1.0546357340946246e-02
      1.1743422893208318e-02 1.6819734977261368e-02
      1.0049076873795228e-02 -2.0423035842699225e-02
      -1.1960663612318321e-02 -1.6817972598358391e-02
      -1.0043243100243541e-02 1.2938266974468751e-02
      -2.5227052590246907e-03 -1.0935990691663389e-02
      9.0197557392729198e-03 -1.6332263861052417e-02
      2.2066468826370117e-02 -2.3330220574634370e-02
      1.4769736614055290e-02 -9.2601419119935219e-03
      -8.1881095022401148e-03 -1.7788427437177928e-02
      -1.1599280975193195e-02 8.2108782505428621e-03
      -2.1211467297080431e-02 2.2732551801937912e-02
      -1.2423785874582476e-02 -1.0257637544803451e-02
      2.0158925312552974e-02 2.2621247500091209e-02
      -2.2235715873452310e-02 -1.1989761450976695e-02
      -1.4894497913772500e-02 -8.0723250217369612e-03
      -1.7680237977840737e-02 -1.2175498413990462e-02
      2.1364096485967096e-02 1.7035987979245909e-02
      1.6985268010294499e-01 6.0431971338605860e-02
      5.2208081627765308e-02 2.1039001368689612e-02
      -4.6904772216382638e-02 1.3838016501238835e-02
      -1.9604811422341085e-02 -4.1201397035368022e-02
      -9.7895933443776853e-03 7.9339982678478124e-02
      1.8951283840112656e-02 4.0170545579507333e-02
      1.9107232512067706e-02 -2.5677148033894356e-02
      -4.6677947122266139e-03 1.8927429422969363e-02
      -9.9700237307371632e-03 3.2428925969160520e-02
      -7.8770435670173819e-02 7.8869231677483595e-02
      -3.7365986477496706e-02 1.3726809172783282e-02
      9.4399358893506469e-03 4.8714880814319760e-02
      1.7224055885424291e-02 -9.2684437807197106e-03
      6.7098305045287798e-02 -6.8332650625187258e-02
      1.8616708185400215e-02 2.0145371897430386e-02
      -5.2512823309169704e-02 -6.3604523393220355e-02
      8.1964280227992917e-02 1.9761820339197624e-02
      2.8692564278332319e-02 1.2228098147637451e-02
      4.9478419204405662e-02 2.4417684863356316e-02
      -5.6534613287235490e-02 -4.8098091496656815e-02
      4.3001893597334154e-02 8.8544427145013441e-03
      6.6140083405317211e-03 -5.4129665549927045e-03
      -7.4739590176840249e-03 -5.2855269199682314e-03
      6.2661086813652336e-03 -2.0845088110379223e-03
      1.1612382626349239e-02 1.4124220657708556e-02
      -1.6735315574446332e-03 5.7057925382113794e-03
      -4.9934372508948100e-03 4.7539931593683308e-03
      -1.0889202876237082e-02 -4.8120019087446678e-03
      6.6415142994902436e-03 -4.2572409114755242e-05
      -1.2442843591159601e-02 1.2654479733566235e-02
      -1.9808854794463337e-03 -8.0651820670301494e-03
      -7.5765124351171720e-03 7.8091764486090147e-03
      -4.1259909026953572e-03 4.6062814756007630e-03
      9.1265645549531878e-03 -1.0870708263532876e-02
      -5.3240658639246360e-03 -3.7526559402190100e-03
      -8.7214951960162459e-03 -1.0219088065067824e-02
      1.3889926190486648e-02 -6.5258240940342391e-03
      -4.7066541713091260e-03 -5.2431220297680312e-03
      8.4061389337973524e-03 -4.8987071143013735e-03
      -7.1017980337029652e-03 -6.5356383408737865e-03
      1.1643995740813243e-01 2.3841149681585908e-02
      1.7151828632347366e-02 -5.1238016735223740e-03
      -1.4973956539034387e-02 -1.4750921279452029e-02
      6.5344210392404732e-03 -8.7906475592802926e-03
      2.0921045372017107e-02 3.1695344035603874e-02
      -7.0579581324597069e-03 1.1004009710869449e-02
      -6.5325005394735441e-03 7.4066113328300973e-04
      -2.1409587858376013e-02 -1.0871579930833902e-02
      1.6685436416459580e-02 3.1636785044830006e-03
      -3.1007111197204607e-02 3.0977516750850091e-02
      -7.3601147661165626e-03 -1.8494208627574546e-02
      -1.6027969480502741e-02 1.6170745660762247e-02
      -1.1663229138779530e-02 1.2596906371300388e-02
      2.6085309708614918e-02 -2.6310818451960472e-02
      -8.8740860489378917e-03 -9.5549448254194265e-03
      -1.9623986351490985e-02 -2.4135121449983078e-02
      3.2151360101315370e-02 -6.9603007249703711e-03
      -3.2269816252295954e-03 -1.4045142807705163e-02
      1.8029583500282734e-02 -4.3876340062809112e-03
      -2.1635995772017597e-02 -1.4283925043344331e-02
      4.3925370850696997e-02 9.9221209192590139e-03
      9.2473414795454217e-03 -4.5532033536868936e-03
      -8.0018800557573651e-03 -6.1335240194705975e-03
      4.7552210434040091e-03 -5.5810668586789213e-03
      6.6291959529130714e-03 1.5546134426568719e-02
      -3.1886761453140009e-03 6.5884709247855926e-03
      -4.4709880395772429e-03 2.0422094593021385e-03
      -7.6717524750851349e-03 -5.5789470320812325e-03
      7.8587111691769442e-03 3.7822219507792441e-03
      -1.5583911640983879e-02 1.4828118601453501e-02
      -4.4856382535916894e-03 -6.6497923965196668e-03
      -8.7450885444630578e-03 7.8490638290936963e-03
      -3.6154480782874137e-03 6.5111063409184523e-03
      1.2214440532938253e-02 -1.1624749800133364e-02
      -5.8874791469055486e-03 -4.0345323328840887e-03
      -8.6821653247123442e-03 -1.2215790312950016e-02
      1.4135985923927898e-02 -4.8352845957621848e-03
      -1.6884585798029584e-03 -7.4606078638419287e-03
      9.0579625660625260e-03 -1.8821741602541469e-03
      -9.9473049782063411e-03 -8.5460149420753355e-03
      -5.3878170005416309e-02 -9.7198544665360979e-03
      -6.3720263431043646e-03 -4.2828175594392844e-03
      7.0178332978116011e-03 3.0235883513418882e-04
      3.1976966032041076e-03 4.1477039407921620e-03
      -1.8013986462789924e-03 -5.6942128753112442e-03
      -1.7168145735240185e-03 -6.2472043978315630e-03
      -2.5900763027809004e-03 5.5725755744489387e-03
      2.2850522407864803e-03 -4.0172289510955273e-03
      -9.3761476426868287e-04 -5.4527363183585744e-03
      8.3531401409620964e-03 -1.0014274299097094e-02
      3.8220990466694945e-03 1.6531879198872167e-03
      1.8033847021079975e-03 -8.4179590003921455e-03
      -3.0227309179784892e-03 9.3648281147153134e-04
      -1.0244509777972317e-02 9.5710942657726717e-03
      -5.2892175926259090e-03 -2.0523844691496423e-03
      8.7125862409053682e-03 9.7021144366139719e-03
      -1.0074912886057408e-02 -5.6247109934029786e-03
      -6.4521379330443260e-03 -1.1976313306364820e-03
      -6.5459424753502270e-03 -3.9997024670929198e-03
      9.3250243544607536e-03 6.3248029712996466e-03
      1.0696767851806824e-01 3.4365158911349378e-02
      2.8142215713749093e-02 4.8824327925912504e-03
      -2.4935831771695019e-02 -1.8305322351998799e-03
      -4.1759256569257981e-03 -1.9246913367150523e-02
      3.5658742162457805e-03 4.5871869641618608e-02
      4.1883519021439063e-03 1.9074502408385277e-02
      5.1670776474679733e-03 -1.1328730242221184e-02
      -9.1466418627645721e-03 2.0359799775977847e-03
      2.4080919626928241e-03 1.6664138052833035e-02
      -4.4001198425898079e-02 4.6425939077657366e-02
      -1.8107060290960802e-02 -2.1570002079015875e-03
      -4.3528160249144124e-03 2.6596254516679133e-02
      1.2887322222858420e-03 2.3281117141279663e-03
      3.6916162315730063e-02 -3.9094848437387184e-02
      4.1784571637148550e-03 7.8202911930722421e-04
      -2.8049590334057108e-02 -3.4616055797695597e-02
      4.7017045419584846e-02 4.1460296071578724e-03
      1.1951424304242697e-02 -1.9461167372127124e-03
      2.7090711036901360e-02 6.7733260472266094e-03
      -2.9266040246201649e-02 -2.4695413678376112e-02
      1.7800841953050112e-01 2.2037892042774247e-03
      3.1070266742398382e-03 -1.4131961109712193e-02
      -1.8247020371589297e-03 -4.2742170622118075e-02
      1.8776596733925250e-02 3.6799660084264559e-04
      5.0876058599528762e-02 9.3277886687198313e-03
      -2.0815057669933079e-02 2.3426948613660208e-03
      -1.8196102018515219e-02 8.4830834491149733e-03
      -4.0859252124120823e-02 -3.0292027527877314e-02
      3.9684468274018642e-02 -2.1146287408199361e-03
      -5.9582360246404091e-03 6.9240591735645280e-03
      4.1410166155711968e-04 -4.5732533550797247e-02
      -3.9854913431654169e-02 2.8015725716745050e-03
      -3.6105102070031203e-02 3.3270072127028920e-02
      3.1391617834848804e-03 -3.3849749623145057e-03
      -1.8542864124269594e-02 -3.6537356142492844e-02
      -3.8150861475341833e-03 -3.2885287369470001e-03
      7.2993144567153898e-03 -1.6151440200057429e-02
      -8.5683957427995314e-03 -3.6517641352850197e-02
      2.2731180109678939e-03 -1.1233798542001438e-02
      -1.7566794388890119e-03 -4.1643591395002831e-03
      -1.3450168505571081e-01 -8.3169291958933925e-03
      -5.4771603236102705e-03 -3.1550034816236233e-03
      4.7821806025946595e-03 1.3982451105414351e-02
      -1.5326949841899692e-04 6.9610605524752954e-03
      -1.7797053665606792e-02 -7.4818832214212320e-03
      4.7371624696011215e-03 -5.9242039128356251e-03
      3.0754403011433703e-03 6.1018385138103285e-03
      1.6150904299694936e-02 8.2423519950567230e-03
      -1.4796632205958915e-02 -7.0082658660409313e-03
      8.8166796250896268e-03 -8.2240700169457451e-03
      4.0456623469351536e-03 1.6326918697021322e-02
      1.3534065857888893e-02 -6.2769475598495527e-03
      1.0280370189541456e-02 -1.2360218358239488e-02
      -7.8431066824749054e-03 9.5624419621701401e-03
      -3.3490262578158439e-03 1.0526983164775001e-02
      6.4948525227171679e-03 8.2024971423798766e-03
      -1.0668317911757014e-02 -5.1783776685596101e-03
      -8.8912113626227040e-03 1.2327533647093207e-02
      -6.9239952442097553e-03 -6.9237718944434356e-03
      6.7115170193959746e-03 5.8992644865575594e-03
      2.7934299077607253e-02 2.6037182450385086e-02
      2.2539694013489823e-02 1.1806402671755260e-02
      -2.1731904173047038e-02 1.4905904392413767e-02
      -1.1112541889176887e-02 -1.7550999270639672e-02
      -1.1247221232527025e-02 3.3302358682007122e-02
      1.2190012260412308e-02 1.8394670322928200e-02
      1.2426279438449593e-02 -1.0549387881757608e-02
      -2.3513067593163231e-05 1.2198735207595339e-02
      -1.1557561283107259e-02 1.4751618448305000e-02
      -2.8851747885790119e-02 3.1380691450742453e-02
      -1.6300780500177234e-02 1.3744769738223842e-02
      1.1765825440509815e-02 2.2317004924145432e-02
      1.3289830783092494e-02 -1.0719109336205790e-02
      2.6593981540317540e-02 -2.6528645067957681e-02
      1.0326355686337102e-02 1.4865575407154481e-02
      -2.3099476244934632e-02 -2.5793266346651463e-02
      3.1752102976997945e-02 1.1700241733323083e-02
      1.2256552783346149e-02 1.0957366425620216e-02
      2.2057910843572903e-02 1.2334204394576786e-02
      -2.4431662792356128e-02 -2.3224960607333200e-02
      -2.3262203739159906e-01 1.2394616328706061e-02
      6.7610035752550491e-03 -1.7113022481636858e-03
      -5.6758600212713289e-03 2.6457923004429756e-02
      -2.2934471530348002e-03 -1.1857368390546536e-03
      -2.1030100347202482e-02 1.5306038458618583e-02
      1.9974092139698137e-02 2.2788759474114957e-03
      5.4445599426742805e-03 3.3298133375988261e-03
      1.2234262451141759e-02 2.6162800725712091e-02
      -2.1572901737775957e-02 -2.1323796589787784e-03
      -1.6188225542057989e-02 1.5550227762464616e-02
      -1.2478995811583276e-03 2.5284495292996052e-02
      2.0561481244635974e-02 8.8292799268424853e-03
      2.7345440156665714e-02 -2.2852644439910905e-02
      1.4484151965050525e-02 -1.4385239654558450e-02
      -8.8108220140094377e-05 3.1724066456327374e-02
      -9.8630643506983952e-03 -1.3980820846010246e-02
      1.6852892605877190e-02 -2.2026226087852123e-03
      -5.3004411990006531e-03 2.2866310085803549e-02
      7.6514514182958850e-03 -3.0444251409269900e-03
      -1.1997907445953838e-02 -6.1371152323786279e-03
      -2.7445928786637680e-01 6.5604449336111098e-03
      2.7633366250744253e-03 4.2648419214080836e-03
      -8.6776190673093956e-04 3.1697842622710859e-02
      -7.0893105072464668e-03 3.9481275437722873e-04
      -3.0880273059978397e-02 7.2743956162266586e-03
      2.2472502030051689e-02 1.0973190974099154e-03
      9.3972200905860209e-03 2.2520369447283340e-03
      2.0454077356875152e-02 3.2197931990170570e-02
      -2.8529571146748152e-02 -1.3669416792555565e-04
      -7.0862372014083835e-03 9.6113817931643766e-03
      6.9015652947532885e-04 3.1409806171889244e-02
      2.8195335090203857e-02 3.4415564609967431e-03
      3.3370530113622295e-02 -2.8819270319587573e-02
      7.3151251821901853e-03 -7.3592156955227779e-03
      2.7681687004266443e-03 3.8320552396600899e-02
      -4.3374041383992751e-03 -5.4638792247260664e-03
      8.5502092261212515e-03 1.2207855517303388e-03
      -1.7239311567263044e-03 3.0066925238071186e-02
      2.7883529923099755e-03 -1.6413424457020309e-03
