<?xml version="1.0"?>
<opencv_storage>
<shapeML type_id="opencv-ml-ann-mlp">
  <layer_sizes type_id="opencv-matrix">
    <rows>1</rows>
    <cols>3</cols>
    <dt>i</dt>
    <data>
      1600 40 1</data></layer_sizes>
  <activation_function>SIGMOID_SYM</activation_function>
  <f_param1>5.9999999999999998e-01</f_param1>
  <f_param2>1.</f_param2>
  <min_val>-9.4999999999999996e-01</min_val>
  <max_val>9.4999999999999996e-01</max_val>
  <min_val1>-9.7999999999999998e-01</min_val1>
  <max_val1>9.7999999999999998e-01</max_val1>
  <training_params>
    <train_method>BACKPROP</train_method>
    <dw_scale>1.0000000000000001e-01</dw_scale>
    <moment_scale>1.0000000000000001e-01</moment_scale>
    <term_criteria><epsilon>9.9999999747524271e-07</epsilon>
      <iterations>4000</iterations></term_criteria></training_params>
  <input_scale>
    5.0221527378390966e-02 -7.8567420131838636e-02
    2.5346550680795589e-02 -1.5861031714362886e-01
    5.0221527378390966e-02 -7.8567420131838636e-02
    5.0221527378390966e-02 -7.8567420131838636e-02
    2.9176070873641199e-02 -1.3693063937629152e-01
    2.9176070873641199e-02 -1.3693063937629152e-01
    2.2742273512797190e-02 -1.7789201674120500e-01
    2.5346550680795589e-02 -1.5861031714362886e-01
    2.0826772476377483e-02 -1.9549056373532239e-01
    1.9343546632355841e-02 -2.1182963643408084e-01
    1.8152505682798345e-02 -2.2718473369882591e-01
    1.6341868389819787e-02 -2.5565499628245675e-01
    1.9343546632355841e-02 -2.1182963643408084e-01
    1.8152505682798345e-02 -2.2718473369882591e-01
    1.7169822632174769e-02 -2.4174688920761409e-01
    1.5632530598285590e-02 -2.6901379342448517e-01
    1.5016486406822580e-02 -2.8190459144096375e-01
    2.0826772476377483e-02 -1.9549056373532239e-01
    1.8152505682798345e-02 -2.2718473369882591e-01
    1.1705597977199646e-02 -3.8456120961904355e-01
    1.0548630686614243e-02 -4.4556639433950346e-01
    1.2220511314020121e-02 -3.6324157862838946e-01
    1.4475384828672087e-02 -2.9439202887759486e-01
    1.5632530598285590e-02 -2.6901379342448517e-01
    2.9176070873641199e-02 -1.3693063937629152e-01
    2.9176070873641199e-02 -1.3693063937629152e-01
    2.5346550680795589e-02 -1.5861031714362886e-01
    2.0826772476377483e-02 -1.9549056373532239e-01
    2.5346550680795589e-02 -1.5861031714362886e-01
    1.9343546632355841e-02 -2.1182963643408084e-01
    1.7169822632174769e-02 -2.4174688920761409e-01
    2.0826772476377483e-02 -1.9549056373532239e-01
    1.8152505682798345e-02 -2.2718473369882591e-01
    2.2742273512797190e-02 -1.7789201674120500e-01
    1.9343546632355841e-02 -2.1182963643408084e-01
    1.8152505682798345e-02 -2.2718473369882591e-01
    3.5622097509718634e-02 -1.1145564251507058e-01
    3.5622097509718634e-02 -1.1145564251507058e-01
    5.0221527378390966e-02 -7.8567420131838636e-02
    2.9176070873641199e-02 -1.3693063937629152e-01
    2.5346550680795589e-02 -1.5861031714362886e-01
    2.2742273512797190e-02 -1.7789201674120500e-01
    5.0221527378390966e-02 -7.8567420131838636e-02
    3.5622097509718634e-02 -1.1145564251507058e-01
    2.2742273512797190e-02 -1.7789201674120500e-01
    2.2742273512797190e-02 -1.7789201674120500e-01
    1.9343546632355841e-02 -2.1182963643408084e-01
    1.8152505682798345e-02 -2.2718473369882591e-01
    1.7169822632174769e-02 -2.4174688920761409e-01
    1.6341868389819787e-02 -2.5565499628245675e-01
    1.3180405305029272e-02 -3.2991443953692901e-01
    1.2512012520378649e-02 -3.5233213170882210e-01
    1.2830587282578739e-02 -3.4123064950907261e-01
    1.1264696316332290e-02 -4.0532174168888885e-01
    1.0548630686614243e-02 -4.4556639433950346e-01
    9.9926255015056614e-03 -4.8461168459755982e-01
    1.0548630686614243e-02 -4.4556639433950346e-01
    9.6519065920518832e-03 -5.1338668805576582e-01
    9.4535366689429117e-03 -5.3241390564966828e-01
    9.9926255015056614e-03 -4.8461168459755982e-01
    9.1918785580899290e-03 -5.6081737582947444e-01
    9.9926255015056614e-03 -4.8461168459755982e-01
    9.6519065920518832e-03 -5.1338668805576582e-01
    1.0254064049763024e-02 -4.6520738434354331e-01
    1.1476950994045710e-02 -3.9500426427359780e-01
    1.3180405305029272e-02 -3.2991443953692901e-01
    1.6341868389819787e-02 -2.5565499628245675e-01
    1.5016486406822580e-02 -2.8190459144096375e-01
    1.5016486406822580e-02 -2.8190459144096375e-01
    1.4475384828672087e-02 -2.9439202887759486e-01
    1.5016486406822580e-02 -2.8190459144096375e-01
    1.5632530598285590e-02 -2.6901379342448517e-01
    1.5016486406822580e-02 -2.8190459144096375e-01
    1.5016486406822580e-02 -2.8190459144096375e-01
    1.5016486406822580e-02 -2.8190459144096375e-01
    1.5632530598285590e-02 -2.6901379342448517e-01
    2.9176070873641199e-02 -1.3693063937629152e-01
    3.5622097509718634e-02 -1.1145564251507058e-01
    2.5346550680795589e-02 -1.5861031714362886e-01
    2.0826772476377483e-02 -1.9549056373532239e-01
    5.0221527378390966e-02 -7.8567420131838636e-02
    2.2742273512797190e-02 -1.7789201674120500e-01
    2.2742273512797190e-02 -1.7789201674120500e-01
    2.5346550680795589e-02 -1.5861031714362886e-01
    2.0826772476377483e-02 -1.9549056373532239e-01
    1.8152505682798345e-02 -2.2718473369882591e-01
    1.5632530598285590e-02 -2.6901379342448517e-01
    1.5632530598285590e-02 -2.6901379342448517e-01
    1.2830587282578739e-02 -3.4123064950907261e-01
    1.1952655636970864e-02 -3.7397879600338285e-01
    1.1067114495441600e-02 -4.1552601663866623e-01
    1.0548630686614243e-02 -4.4556639433950346e-01
    1.0254064049763024e-02 -4.6520738434354331e-01
    9.2747159817985810e-03 -5.5136195008360889e-01
    9.3618416146000957e-03 -5.4189555603528772e-01
    8.8338008656974002e-03 -6.0806899210506038e-01
    8.9666474309522213e-03 -5.8915824530980543e-01
    8.8338008656974002e-03 -6.0806899210506038e-01
    8.6570415189730875e-03 -6.3653154972326664e-01
    8.9666474309522213e-03 -5.8915824530980543e-01
    8.5039989924510975e-03 -6.6519010523773914e-01
    8.7131577567224529e-03 -6.2702662875064030e-01
    9.1130734909302714e-03 -5.7026594851220103e-01
    9.2747159817985810e-03 -5.5136195008360889e-01
    9.0380674953365117e-03 -5.7971162983891544e-01
    9.0380674953365117e-03 -5.7971162983891544e-01
    1.0710271161847449e-02 -4.3563863682851889e-01
    1.1476950994045710e-02 -3.9500426427359780e-01
    1.1476950994045710e-02 -3.9500426427359780e-01
    1.2512012520378649e-02 -3.5233213170882210e-01
    1.3180405305029272e-02 -3.2991443953692901e-01
    1.3566597387532440e-02 -3.1835726998350661e-01
    1.3180405305029272e-02 -3.2991443953692901e-01
    1.2830587282578739e-02 -3.4123064950907261e-01
    1.3180405305029272e-02 -3.2991443953692901e-01
    1.3180405305029272e-02 -3.2991443953692901e-01
    1.5632530598285590e-02 -2.6901379342448517e-01
    1.8152505682798345e-02 -2.2718473369882591e-01
    1.9343546632355841e-02 -2.1182963643408084e-01
    2.9176070873641199e-02 -1.3693063937629152e-01 1. 0.
    5.0221527378390966e-02 -7.8567420131838636e-02
    2.0826772476377483e-02 -1.9549056373532239e-01
    1.8152505682798345e-02 -2.2718473369882591e-01
    1.5632530598285590e-02 -2.6901379342448517e-01
    1.6341868389819787e-02 -2.5565499628245675e-01
    1.3995559725581076e-02 -3.0652851668910702e-01
    1.0882730550092238e-02 -4.2562826537937432e-01
    1.0710271161847449e-02 -4.3563863682851889e-01
    1.0119544770430635e-02 -4.7493569014597764e-01
    1.0710271161847449e-02 -4.3563863682851889e-01
    9.0380674953365117e-03 -5.7971162983891544e-01
    9.0380674953365117e-03 -5.7971162983891544e-01
    8.6570415189730875e-03 -6.3653154972326664e-01
    8.6570415189730875e-03 -6.3653154972326664e-01
    8.3716901611484498e-03 -6.9413124250258473e-01
    8.2577460255484989e-03 -7.2343934506032248e-01
    8.1910349244100518e-03 -7.4322335295720654e-01
    8.3317704301922452e-03 -7.0385569830519767e-01
    8.6035539250471551e-03 -6.4605828246979868e-01
    8.2577460255484989e-03 -7.2343934506032248e-01
    8.1910349244100518e-03 -7.4322335295720654e-01
    8.1602741327128376e-03 -7.5319830875254379e-01
    8.1910349244100518e-03 -7.4322335295720654e-01
    8.4136465312061766e-03 -6.8444756444045329e-01
    8.9666474309522213e-03 -5.8915824530980543e-01
    9.1918785580899290e-03 -5.6081737582947444e-01
    8.7131577567224529e-03 -6.2702662875064030e-01
    1.0548630686614243e-02 -4.4556639433950346e-01
    1.0710271161847449e-02 -4.3563863682851889e-01
    1.1476950994045710e-02 -3.9500426427359780e-01
    1.1952655636970864e-02 -3.7397879600338285e-01
    1.5016486406822580e-02 -2.8190459144096375e-01
    1.3995559725581076e-02 -3.0652851668910702e-01
    1.3566597387532440e-02 -3.1835726998350661e-01
    1.2830587282578739e-02 -3.4123064950907261e-01
    1.3180405305029272e-02 -3.2991443953692901e-01
    1.6341868389819787e-02 -2.5565499628245675e-01
    2.2742273512797190e-02 -1.7789201674120500e-01
    2.5346550680795589e-02 -1.5861031714362886e-01
    5.0221527378390966e-02 -7.8567420131838636e-02
    2.5346550680795589e-02 -1.5861031714362886e-01
    2.5346550680795589e-02 -1.5861031714362886e-01
    1.4475384828672087e-02 -2.9439202887759486e-01
    1.3180405305029272e-02 -3.2991443953692901e-01
    1.3180405305029272e-02 -3.2991443953692901e-01
    1.0882730550092238e-02 -4.2562826537937432e-01
    1.0119544770430635e-02 -4.7493569014597764e-01
    9.7593024605932225e-03 -5.0383147365577896e-01
    9.6519065920518832e-03 -5.1338668805576582e-01
    9.0380674953365117e-03 -5.7971162983891544e-01
    8.8338008656974002e-03 -6.0806899210506038e-01
    8.6570415189730875e-03 -6.3653154972326664e-01
    8.3716901611484498e-03 -6.9413124250258473e-01
    8.3716901611484498e-03 -6.9413124250258473e-01
    8.4136465312061766e-03 -6.8444756444045329e-01
    7.9702951855658895e-03 -8.3541406899014248e-01
    8.1311727219911620e-03 -7.6323277697217651e-01
    8.3317704301922452e-03 -7.0385569830519767e-01
    8.4577204133400967e-03 -6.7480155813182796e-01
    8.2235069444031132e-03 -7.3330474501165188e-01
    8.4577204133400967e-03 -6.7480155813182796e-01
    8.2577460255484989e-03 -7.2343934506032248e-01
    8.4136465312061766e-03 -6.8444756444045329e-01
    8.5525763186451598e-03 -6.5561006810718570e-01
    8.3716901611484498e-03 -6.9413124250258473e-01
    8.3716901611484498e-03 -6.9413124250258473e-01
    8.5039989924510975e-03 -6.6519010523773914e-01
    8.9666474309522213e-03 -5.8915824530980543e-01
    9.4535366689429117e-03 -5.3241390564966828e-01
    1.0396843914419014e-02 -4.5542003404264886e-01
    1.1067114495441600e-02 -4.1552601663866623e-01
    1.1952655636970864e-02 -3.7397879600338285e-01
    1.3180405305029272e-02 -3.2991443953692901e-01
    1.3566597387532440e-02 -3.1835726998350661e-01
    1.1476950994045710e-02 -3.9500426427359780e-01
    1.3180405305029272e-02 -3.2991443953692901e-01
    1.7169822632174769e-02 -2.4174688920761409e-01
    2.0826772476377483e-02 -1.9549056373532239e-01
    2.0826772476377483e-02 -1.9549056373532239e-01
    3.5622097509718634e-02 -1.1145564251507058e-01
    2.0826772476377483e-02 -1.9549056373532239e-01
    1.8152505682798345e-02 -2.2718473369882591e-01
    1.4475384828672087e-02 -2.9439202887759486e-01
    1.2512012520378649e-02 -3.5233213170882210e-01
    1.0710271161847449e-02 -4.3563863682851889e-01
    9.7593024605932225e-03 -5.0383147365577896e-01
    9.7593024605932225e-03 -5.0383147365577896e-01
    9.1130734909302714e-03 -5.7026594851220103e-01
    8.7720311139605732e-03 -6.1754022719446366e-01
    8.9666474309522213e-03 -5.8915824530980543e-01
    8.7131577567224529e-03 -6.2702662875064030e-01
    8.3716901611484498e-03 -6.9413124250258473e-01
    8.6035539250471551e-03 -6.4605828246979868e-01
    8.2938122809364870e-03 -7.1362403214806280e-01
    8.1311727219911620e-03 -7.6323277697217651e-01
    7.8444659871403921e-03 -9.8176138734763185e-01
    7.9370469958154072e-03 -8.5676283368939932e-01
    7.8969698441672884e-03 -8.8949917999332162e-01
    8.0777590089540219e-03 -7.8349306706480415e-01
    8.0304492101593902e-03 -8.0403025220736968e-01
    8.0533606667325536e-03 -7.9372539331937719e-01
    8.2577460255484989e-03 -7.2343934506032248e-01
    8.2235069444031132e-03 -7.3330474501165188e-01
    7.9889479028276578e-03 -8.2487112395453666e-01
    7.9702951855658895e-03 -8.3541406899014248e-01
    7.9530033423853563e-03 -8.4604342304884705e-01
    8.1910349244100518e-03 -7.4322335295720654e-01
    8.7720311139605732e-03 -6.1754022719446366e-01
    9.0380674953365117e-03 -5.7971162983891544e-01
    9.7593024605932225e-03 -5.0383147365577896e-01
    9.7593024605932225e-03 -5.0383147365577896e-01
    1.0710271161847449e-02 -4.3563863682851889e-01
    1.0396843914419014e-02 -4.5542003404264886e-01
    1.1264696316332290e-02 -4.0532174168888885e-01
    1.0710271161847449e-02 -4.3563863682851889e-01
    1.3566597387532440e-02 -3.1835726998350661e-01
    1.8152505682798345e-02 -2.2718473369882591e-01
    2.0826772476377483e-02 -1.9549056373532239e-01
    1.7169822632174769e-02 -2.4174688920761409e-01
    3.5622097509718634e-02 -1.1145564251507058e-01
    1.6341868389819787e-02 -2.5565499628245675e-01
    1.5016486406822580e-02 -2.8190459144096375e-01
    1.1264696316332290e-02 -4.0532174168888885e-01
    1.1067114495441600e-02 -4.1552601663866623e-01
    1.0396843914419014e-02 -4.5542003404264886e-01
    9.4535366689429117e-03 -5.3241390564966828e-01
    9.7593024605932225e-03 -5.0383147365577896e-01
    8.7720311139605732e-03 -6.1754022719446366e-01
    8.7720311139605732e-03 -6.1754022719446366e-01
    8.8986181923060622e-03 -5.9860949986893230e-01
    8.4577204133400967e-03 -6.7480155813182796e-01
    8.1602741327128376e-03 -7.5319830875254379e-01
    8.0777590089540219e-03 -7.8349306706480415e-01
    7.8765595497033575e-03 -9.1184465461903286e-01
    7.8765595497033575e-03 -9.1184465461903286e-01
    7.8610580171328374e-03 -9.3464603909223554e-01
    7.8682011880906802e-03 -9.2318618234499550e-01
    7.8444659871403921e-03 -9.8176138734763185e-01
    7.8432848584749377e-03 -9.9388373467361857e-01
    7.8682011880906802e-03 -9.2318618234499550e-01
    8.0089891959129276e-03 -8.1441101792795567e-01
    8.0777590089540219e-03 -7.8349306706480415e-01
    7.9702951855658895e-03 -8.3541406899014248e-01
    8.0533606667325536e-03 -7.9372539331937719e-01
    7.8765595497033575e-03 -9.1184465461903286e-01
    7.8765595497033575e-03 -9.1184465461903286e-01
    7.9370469958154072e-03 -8.5676283368939932e-01
    8.1910349244100518e-03 -7.4322335295720654e-01
    8.2577460255484989e-03 -7.2343934506032248e-01
    8.7720311139605732e-03 -6.1754022719446366e-01
    8.9666474309522213e-03 -5.8915824530980543e-01
    9.0380674953365117e-03 -5.7971162983891544e-01
    9.5501109471326558e-03 -5.2291251658379723e-01
    1.0254064049763024e-02 -4.6520738434354331e-01
    1.2220511314020121e-02 -3.6324157862838946e-01
    1.1952655636970864e-02 -3.7397879600338285e-01
    1.4475384828672087e-02 -2.9439202887759486e-01
    1.5632530598285590e-02 -2.6901379342448517e-01
    2.0826772476377483e-02 -1.9549056373532239e-01
    2.2742273512797190e-02 -1.7789201674120500e-01
    1.5016486406822580e-02 -2.8190459144096375e-01
    1.3566597387532440e-02 -3.1835726998350661e-01
    1.0882730550092238e-02 -4.2562826537937432e-01
    1.0710271161847449e-02 -4.3563863682851889e-01
    1.1705597977199646e-02 -3.8456120961904355e-01
    8.8986181923060622e-03 -5.9860949986893230e-01
    8.3317704301922452e-03 -7.0385569830519767e-01
    8.4136465312061766e-03 -6.8444756444045329e-01
    8.5525763186451598e-03 -6.5561006810718570e-01
    8.4136465312061766e-03 -6.8444756444045329e-01
    8.0089891959129276e-03 -8.1441101792795567e-01
    7.9224029851942355e-03 -8.6757603242771231e-01
    7.8468298461625997e-03 -9.6978151687696668e-01
    7.8610580171328374e-03 -9.3464603909223554e-01
    7.8969698441672884e-03 -8.8949917999332162e-01
    7.8861446576607621e-03 -9.0061707240708644e-01
    7.8861446576607621e-03 -9.0061707240708644e-01
    7.8551202128131544e-03 -9.4622874465390361e-01
    7.8444659871403921e-03 -1.0185774393731681e+00
    7.8468298461625997e-03 -9.6978151687696668e-01
    7.8765595497033575e-03 -9.1184465461903286e-01
    7.8468298461625997e-03 -1.0311600938944960e+00
    7.8444659871403921e-03 -1.0185774393731681e+00
    7.8432848584749377e-03 -9.9388373467361857e-01
    7.9090502701435108e-03 -8.7848684135551081e-01
    7.8765595497033575e-03 -9.1184465461903286e-01
    7.9090502701435108e-03 -8.7848684135551081e-01
    8.1910349244100518e-03 -7.4322335295720654e-01
    8.2577460255484989e-03 -7.2343934506032248e-01
    8.1311727219911620e-03 -7.6323277697217651e-01
    8.4136465312061766e-03 -6.8444756444045329e-01
    8.7131577567224529e-03 -6.2702662875064030e-01
    8.7131577567224529e-03 -6.2702662875064030e-01
    1.0254064049763024e-02 -4.6520738434354331e-01
    1.1067114495441600e-02 -4.1552601663866623e-01
    1.1952655636970864e-02 -3.7397879600338285e-01
    1.5016486406822580e-02 -2.8190459144096375e-01
    1.8152505682798345e-02 -2.2718473369882591e-01
    1.9343546632355841e-02 -2.1182963643408084e-01
    1.9343546632355841e-02 -2.1182963643408084e-01
    1.4475384828672087e-02 -2.9439202887759486e-01
    1.3995559725581076e-02 -3.0652851668910702e-01
    1.1952655636970864e-02 -3.7397879600338285e-01
    1.1264696316332290e-02 -4.0532174168888885e-01
    1.0396843914419014e-02 -4.5542003404264886e-01
    8.8986181923060622e-03 -5.9860949986893230e-01
    8.1602741327128376e-03 -7.5319830875254379e-01
    8.0304492101593902e-03 -8.0403025220736968e-01
    8.1036825640709385e-03 -7.7332995266333404e-01
    8.0089891959129276e-03 -8.1441101792795567e-01
    7.8468298461625997e-03 -9.6978151687696668e-01
    7.8610580171328374e-03 -9.3464603909223554e-01
    7.8765595497033575e-03 -9.1184465461903286e-01
    7.9370469958154072e-03 -8.5676283368939932e-01
    7.9702951855658895e-03 -8.3541406899014248e-01
    7.8765595497033575e-03 -9.1184465461903286e-01
    7.8503796449626642e-03 -9.5793896403869561e-01
    7.8765595497033575e-03 -9.1184465461903286e-01
    7.8765595497033575e-03 -9.1184465461903286e-01
    7.9702951855658895e-03 -8.3541406899014248e-01
    7.8432848584749394e-03 -1.0061539042374907e+00
    7.8468298461625997e-03 -1.0311600938944960e+00
    7.8503796449626642e-03 -9.5793896403869561e-01
    7.9370469958154072e-03 -8.5676283368939932e-01
    7.8551202128131544e-03 -9.4622874465390361e-01
    7.8861446576607621e-03 -9.0061707240708644e-01
    8.0533606667325536e-03 -7.9372539331937719e-01
    8.0304492101593902e-03 -8.0403025220736968e-01
    8.0089891959129276e-03 -8.1441101792795567e-01
    8.1311727219911620e-03 -7.6323277697217651e-01
    8.0304492101593902e-03 -8.0403025220736968e-01
    8.0533606667325536e-03 -7.9372539331937719e-01
    8.7131577567224529e-03 -6.2702662875064030e-01
    9.3618416146000957e-03 -5.4189555603528772e-01
    1.0710271161847449e-02 -4.3563863682851889e-01
    1.0710271161847449e-02 -4.3563863682851889e-01
    1.3995559725581076e-02 -3.0652851668910702e-01
    1.6341868389819787e-02 -2.5565499628245675e-01
    2.0826772476377483e-02 -1.9549056373532239e-01
    2.0826772476377483e-02 -1.9549056373532239e-01
    1.4475384828672087e-02 -2.9439202887759486e-01
    1.3566597387532440e-02 -3.1835726998350661e-01
    1.1476950994045710e-02 -3.9500426427359780e-01
    9.7593024605932225e-03 -5.0383147365577896e-01
    8.7131577567224529e-03 -6.2702662875064030e-01
    8.4136465312061766e-03 -6.8444756444045329e-01
    8.1910349244100518e-03 -7.4322335295720654e-01
    7.9370469958154072e-03 -8.5676283368939932e-01
    7.9889479028276578e-03 -8.2487112395453666e-01
    7.9370469958154072e-03 -8.5676283368939932e-01
    7.8682011880906802e-03 -9.2318618234499550e-01
    7.8765595497033575e-03 -9.1184465461903286e-01
    7.8610580171328374e-03 -9.3464603909223554e-01
    7.8861446576607621e-03 -9.0061707240708644e-01
    7.8432848584749377e-03 -9.9388373467361857e-01
    7.8682011880906802e-03 -9.2318618234499550e-01
    7.8610580171328374e-03 -9.3464603909223554e-01
    8.0533606667325536e-03 -7.9372539331937719e-01
    7.8969698441672884e-03 -8.8949917999332162e-01
    7.8468298461625997e-03 -9.6978151687696668e-01
    7.8444659871403921e-03 -1.0185774393731681e+00
    7.8551202128131527e-03 -1.0568269096134504e+00
    7.8551202128131544e-03 -9.4622874465390361e-01
    7.8432848584749377e-03 -9.9388373467361857e-01
    7.8432848584749394e-03 -1.0061539042374907e+00
    7.9370469958154072e-03 -8.5676283368939932e-01
    7.8503796449626642e-03 -9.5793896403869561e-01
    7.8503796449626642e-03 -9.5793896403869561e-01
    7.9090502701435108e-03 -8.7848684135551081e-01
    7.9090502701435108e-03 -8.7848684135551081e-01
    7.9702951855658895e-03 -8.3541406899014248e-01
    8.0533606667325536e-03 -7.9372539331937719e-01
    8.2938122809364870e-03 -7.1362403214806280e-01
    8.6570415189730875e-03 -6.3653154972326664e-01
    9.2747159817985810e-03 -5.5136195008360889e-01
    1.0254064049763024e-02 -4.6520738434354331e-01
    1.2830587282578739e-02 -3.4123064950907261e-01
    1.4475384828672087e-02 -2.9439202887759486e-01
    1.7169822632174769e-02 -2.4174688920761409e-01
    1.8152505682798345e-02 -2.2718473369882591e-01
    1.3566597387532440e-02 -3.1835726998350661e-01
    1.2512012520378649e-02 -3.5233213170882210e-01
    1.0254064049763024e-02 -4.6520738434354331e-01
    8.5039989924510975e-03 -6.6519010523773914e-01
    8.4577204133400967e-03 -6.7480155813182796e-01
    8.6035539250471551e-03 -6.4605828246979868e-01
    8.3317704301922452e-03 -7.0385569830519767e-01
    8.1602741327128376e-03 -7.5319830875254379e-01
    7.8861446576607621e-03 -9.0061707240708644e-01
    7.8468298461625997e-03 -1.0311600938944960e+00
    7.8503796449626642e-03 -9.5793896403869561e-01
    7.8765595497033575e-03 -9.1184465461903286e-01
    7.8444659871403921e-03 -9.8176138734763185e-01
    7.8432848584749377e-03 -9.9388373467361857e-01
    7.8468298461625997e-03 -1.0311600938944960e+00
    7.8468298461625997e-03 -1.0311600938944960e+00
    7.9090502701435108e-03 -8.7848684135551081e-01
    8.0089891959129276e-03 -8.1441101792795567e-01
    7.8551202128131544e-03 -9.4622874465390361e-01
    7.8444659871403921e-03 -9.8176138734763185e-01
    7.8503796449626642e-03 -9.5793896403869561e-01
    7.8765595497033575e-03 -1.0966780305553232e+00
    7.8432848584749394e-03 -1.0061539042374907e+00
    7.8432848584749394e-03 -1.0061539042374907e+00
    7.8468298461625997e-03 -1.0311600938944960e+00
    7.8432848584749377e-03 -9.9388373467361857e-01
    7.9370469958154072e-03 -1.1671841502435296e+00
    7.8468298461625997e-03 -1.0311600938944960e+00
    7.8765595497033575e-03 -1.0966780305553232e+00
    7.8610580171328374e-03 -9.3464603909223554e-01
    7.9889479028276578e-03 -8.2487112395453666e-01
    7.9702951855658895e-03 -8.3541406899014248e-01
    8.0533606667325536e-03 -7.9372539331937719e-01
    8.2577460255484989e-03 -7.2343934506032248e-01
    8.7720311139605732e-03 -6.1754022719446366e-01
    9.8727192454980527e-03 -4.9424165057217245e-01
    1.1705597977199646e-02 -3.8456120961904355e-01
    1.2512012520378649e-02 -3.5233213170882210e-01
    1.4475384828672087e-02 -2.9439202887759486e-01
    2.2742273512797190e-02 -1.7789201674120500e-01
    1.3566597387532440e-02 -3.1835726998350661e-01
    1.1705597977199646e-02 -3.8456120961904355e-01
    8.8986181923060622e-03 -5.9860949986893230e-01
    8.2577460255484989e-03 -7.2343934506032248e-01
    8.5525763186451598e-03 -6.5561006810718570e-01
    8.6035539250471551e-03 -6.4605828246979868e-01
    8.1311727219911620e-03 -7.6323277697217651e-01
    8.0089891959129276e-03 -8.1441101792795567e-01
    7.8969698441672884e-03 -8.8949917999332162e-01
    7.8444659871403921e-03 -9.8176138734763185e-01
    7.8468298461625997e-03 -9.6978151687696668e-01
    7.8765595497033575e-03 -9.1184465461903286e-01
    7.9224029851942355e-03 -8.6757603242771231e-01
    7.8432848584749377e-03 -9.9388373467361857e-01
    7.8682011880906819e-03 -1.0832051206181283e+00
    7.8432848584749394e-03 -1.0061539042374907e+00
    7.9090502701435108e-03 -8.7848684135551081e-01
    7.8682011880906802e-03 -9.2318618234499550e-01
    7.8444659871403921e-03 -1.0185774393731681e+00
    7.8503796449626642e-03 -9.5793896403869561e-01
    7.8682011880906802e-03 -9.2318618234499550e-01
    7.8682011880906802e-03 -9.2318618234499550e-01
    7.8444659871403921e-03 -9.8176138734763185e-01
    7.8503796449626642e-03 -9.5793896403869561e-01
    7.8444659871403921e-03 -9.8176138734763185e-01
    7.8610580171328374e-03 -1.0699237552766381e+00
    7.9889479028276596e-03 -1.2123105912665164e+00
    8.0089891959129276e-03 -1.2278812270298409e+00
    7.9370469958154072e-03 -1.1671841502435296e+00
    7.8610580171328374e-03 -1.0699237552766381e+00
    7.8861446576607621e-03 -9.0061707240708644e-01
    7.8551202128131544e-03 -9.4622874465390361e-01
    7.8969698441672884e-03 -8.8949917999332162e-01
    7.9702951855658895e-03 -8.3541406899014248e-01
    8.3317704301922452e-03 -7.0385569830519767e-01
    9.2747159817985810e-03 -5.5136195008360889e-01
    1.0254064049763024e-02 -4.6520738434354331e-01
    1.3566597387532440e-02 -3.1835726998350661e-01
    1.4475384828672087e-02 -2.9439202887759486e-01
    1.9343546632355841e-02 -2.1182963643408084e-01
    1.3566597387532440e-02 -3.1835726998350661e-01
    1.0710271161847449e-02 -4.3563863682851889e-01
    8.8986181923060622e-03 -5.9860949986893230e-01
    8.1910349244100518e-03 -7.4322335295720654e-01
    8.0777590089540219e-03 -7.8349306706480415e-01
    7.9889479028276578e-03 -8.2487112395453666e-01
    8.1311727219911620e-03 -7.6323277697217651e-01
    7.9090502701435108e-03 -8.7848684135551081e-01
    7.8468298461625997e-03 -9.6978151687696668e-01
    7.8861446576607621e-03 -9.0061707240708644e-01
    7.8444659871403921e-03 -1.0185774393731681e+00
    7.8503796449626642e-03 -9.5793896403869561e-01
    7.8432848584749377e-03 -9.9388373467361857e-01
    7.8861446576607621e-03 -1.1103498152964080e+00
    7.8610580171328374e-03 -1.0699237552766381e+00
    7.8468298461625997e-03 -9.6978151687696668e-01
    7.8444659871403921e-03 -9.8176138734763185e-01
    7.8432848584749377e-03 -9.9388373467361857e-01
    7.8444659871403921e-03 -9.8176138734763185e-01
    7.8503796449626642e-03 -9.5793896403869561e-01
    7.8610580171328374e-03 -9.3464603909223554e-01
    7.8610580171328374e-03 -9.3464603909223554e-01
    7.8444659871403921e-03 -1.0185774393731681e+00
    7.8432848584749394e-03 -1.0061539042374907e+00
    7.8468298461625997e-03 -1.0311600938944960e+00
    8.1602741327128376e-03 -1.3276715950892297e+00
    8.1311727219911620e-03 -1.3102162671355697e+00
    8.1036825640709367e-03 -1.2931091011747549e+00
    7.8503796449626642e-03 -1.0439078454267838e+00
    7.8503796449626642e-03 -1.0439078454267838e+00
    7.8468298461625997e-03 -9.6978151687696668e-01
    7.8503796449626642e-03 -9.5793896403869561e-01
    7.8432848584749377e-03 -9.9388373467361857e-01
    7.9224029851942355e-03 -8.6757603242771231e-01
    8.2938122809364870e-03 -7.1362403214806280e-01
    8.8338008656974002e-03 -6.0806899210506038e-01
    1.0119544770430635e-02 -4.7493569014597764e-01
    1.3180405305029272e-02 -3.2991443953692901e-01
    1.6341868389819787e-02 -2.5565499628245675e-01
    1.7169822632174769e-02 -2.4174688920761409e-01
    1.1705597977199646e-02 -3.8456120961904355e-01
    9.1130734909302714e-03 -5.7026594851220103e-01
    8.6035539250471551e-03 -6.4605828246979868e-01
    8.0533606667325536e-03 -7.9372539331937719e-01
    7.9530033423853563e-03 -8.4604342304884705e-01
    7.9702951855658895e-03 -8.3541406899014248e-01
    7.8861446576607621e-03 -9.0061707240708644e-01
    7.8503796449626642e-03 -9.5793896403869561e-01
    7.8610580171328374e-03 -9.3464603909223554e-01
    7.8432848584749377e-03 -9.9388373467361857e-01
    7.8432848584749377e-03 -9.9388373467361857e-01
    7.8682011880906819e-03 -1.0832051206181283e+00
    7.8503796449626642e-03 -1.0439078454267838e+00
    7.8444659871403921e-03 -9.8176138734763185e-01
    7.8432848584749377e-03 -9.9388373467361857e-01
    7.8551202128131544e-03 -9.4622874465390361e-01
    7.8551202128131544e-03 -9.4622874465390361e-01
    7.8432848584749394e-03 -1.0061539042374907e+00
    7.8468298461625997e-03 -9.6978151687696668e-01
    7.8468298461625997e-03 -9.6978151687696668e-01
    7.8765595497033575e-03 -9.1184465461903286e-01
    7.8765595497033575e-03 -9.1184465461903286e-01
    7.8861446576607621e-03 -1.1103498152964080e+00
    7.8765595497033575e-03 -1.0966780305553232e+00
    7.9702951855658913e-03 -1.1970112033291596e+00
    8.1602741327128376e-03 -1.3276715950892297e+00
    8.0304492101593919e-03 -1.2437342963832752e+00
    7.9889479028276596e-03 -1.2123105912665164e+00
    7.9224029851942337e-03 -1.1526367287968173e+00
    7.8682011880906819e-03 -1.0832051206181283e+00
    7.8610580171328374e-03 -1.0699237552766381e+00
    7.8861446576607621e-03 -9.0061707240708644e-01
    8.0533606667325536e-03 -7.9372539331937719e-01
    7.9090502701435108e-03 -8.7848684135551081e-01
    8.1311727219911620e-03 -7.6323277697217651e-01
    8.9666474309522213e-03 -5.8915824530980543e-01
    9.8727192454980527e-03 -4.9424165057217245e-01
    1.0119544770430635e-02 -4.7493569014597764e-01
    1.4475384828672087e-02 -2.9439202887759486e-01
    1.2512012520378649e-02 -3.5233213170882210e-01
    1.0710271161847449e-02 -4.3563863682851889e-01
    9.1918785580899290e-03 -5.6081737582947444e-01
    8.4136465312061766e-03 -6.8444756444045329e-01
    7.8861446576607621e-03 -9.0061707240708644e-01
    7.9702951855658895e-03 -8.3541406899014248e-01
    7.8610580171328374e-03 -9.3464603909223554e-01
    7.8432848584749377e-03 -9.9388373467361857e-01
    7.8503796449626642e-03 -9.5793896403869561e-01
    7.8551202128131544e-03 -9.4622874465390361e-01
    7.8444659871403921e-03 -1.0185774393731681e+00
    7.8503796449626642e-03 -1.0439078454267838e+00
    7.8765595497033575e-03 -1.0966780305553232e+00
    7.9090502701435125e-03 -1.1383209775310847e+00
    7.8432848584749394e-03 -1.0061539042374907e+00
    7.8969698441672884e-03 -8.8949917999332162e-01
    7.8551202128131544e-03 -9.4622874465390361e-01
    7.8765595497033575e-03 -9.1184465461903286e-01
    7.8503796449626642e-03 -9.5793896403869561e-01
    7.8610580171328374e-03 -9.3464603909223554e-01
    7.9370469958154072e-03 -8.5676283368939932e-01
    7.9370469958154072e-03 -8.5676283368939932e-01
    7.8444659871403921e-03 -9.8176138734763185e-01
    7.8468298461625997e-03 -1.0311600938944960e+00
    7.8432848584749394e-03 -1.0061539042374907e+00
    8.0304492101593919e-03 -1.2437342963832752e+00
    7.9889479028276596e-03 -1.2123105912665164e+00
    7.8861446576607621e-03 -1.1103498152964080e+00
    7.9530033423853546e-03 -1.1819724292594185e+00
    7.9702951855658913e-03 -1.1970112033291596e+00
    8.0777590089540236e-03 -1.2763354802184717e+00
    7.8861446576607621e-03 -1.1103498152964080e+00
    7.8432848584749394e-03 -1.0061539042374907e+00
    7.9090502701435108e-03 -8.7848684135551081e-01
    7.9530033423853563e-03 -8.4604342304884705e-01
    7.9702951855658895e-03 -8.3541406899014248e-01
    8.3716901611484498e-03 -6.9413124250258473e-01
    9.2747159817985810e-03 -5.5136195008360889e-01
    9.9926255015056614e-03 -4.8461168459755982e-01
    1.2512012520378649e-02 -3.5233213170882210e-01
    1.2512012520378649e-02 -3.5233213170882210e-01
    1.0396843914419014e-02 -4.5542003404264886e-01
    8.5039989924510975e-03 -6.6519010523773914e-01
    8.2577460255484989e-03 -7.2343934506032248e-01
    7.8503796449626642e-03 -9.5793896403869561e-01
    7.8765595497033575e-03 -9.1184465461903286e-01
    7.8444659871403921e-03 -9.8176138734763185e-01
    7.8682011880906819e-03 -1.0832051206181283e+00
    7.8682011880906819e-03 -1.0832051206181283e+00
    7.8551202128131544e-03 -9.4622874465390361e-01
    7.8432848584749377e-03 -9.9388373467361857e-01
    7.8432848584749394e-03 -1.0061539042374907e+00
    7.8551202128131527e-03 -1.0568269096134504e+00
    7.8444659871403921e-03 -9.8176138734763185e-01
    7.8432848584749377e-03 -9.9388373467361857e-01
    7.8610580171328374e-03 -9.3464603909223554e-01
    7.8682011880906802e-03 -9.2318618234499550e-01
    7.9370469958154072e-03 -8.5676283368939932e-01
    7.8682011880906802e-03 -9.2318618234499550e-01
    7.8551202128131544e-03 -9.4622874465390361e-01
    7.9090502701435108e-03 -8.7848684135551081e-01
    7.9224029851942355e-03 -8.6757603242771231e-01
    7.8610580171328374e-03 -9.3464603909223554e-01
    7.8432848584749394e-03 -1.0061539042374907e+00
    7.8682011880906819e-03 -1.0832051206181283e+00
    7.8682011880906819e-03 -1.0832051206181283e+00
    7.9530033423853546e-03 -1.1819724292594185e+00
    7.9702951855658913e-03 -1.1970112033291596e+00
    7.8503796449626642e-03 -1.0439078454267838e+00
    7.9702951855658913e-03 -1.1970112033291596e+00
    7.9530033423853546e-03 -1.1819724292594185e+00
    7.9090502701435125e-03 -1.1383209775310847e+00
    7.8551202128131527e-03 -1.0568269096134504e+00
    7.8551202128131544e-03 -9.4622874465390361e-01
    7.9090502701435108e-03 -8.7848684135551081e-01
    7.9370469958154072e-03 -8.5676283368939932e-01
    8.1602741327128376e-03 -7.5319830875254379e-01
    8.5039989924510975e-03 -6.6519010523773914e-01
    9.3618416146000957e-03 -5.4189555603528772e-01
    1.1476950994045710e-02 -3.9500426427359780e-01
    1.4475384828672087e-02 -2.9439202887759486e-01
    9.4535366689429117e-03 -5.3241390564966828e-01
    8.7720311139605732e-03 -6.1754022719446366e-01
    8.2577460255484989e-03 -7.2343934506032248e-01
    7.9224029851942355e-03 -8.6757603242771231e-01
    7.8861446576607621e-03 -9.0061707240708644e-01
    7.8503796449626642e-03 -9.5793896403869561e-01
    7.8765595497033575e-03 -1.0966780305553232e+00
    7.9224029851942337e-03 -1.1526367287968173e+00
    7.8682011880906819e-03 -1.0832051206181283e+00
    7.8861446576607621e-03 -1.1103498152964080e+00
    7.8610580171328374e-03 -1.0699237552766381e+00
    7.8444659871403921e-03 -9.8176138734763185e-01
    7.8503796449626642e-03 -1.0439078454267838e+00
    7.8468298461625997e-03 -9.6978151687696668e-01
    7.8765595497033575e-03 -9.1184465461903286e-01
    7.8969698441672884e-03 -8.8949917999332162e-01
    7.9702951855658895e-03 -8.3541406899014248e-01
    7.9370469958154072e-03 -8.5676283368939932e-01
    7.9370469958154072e-03 -8.5676283368939932e-01
    7.9224029851942355e-03 -8.6757603242771231e-01
    7.8765595497033575e-03 -9.1184465461903286e-01
    7.8765595497033575e-03 -9.1184465461903286e-01
    7.8444659871403921e-03 -9.8176138734763185e-01
    7.8432848584749394e-03 -1.0061539042374907e+00
    7.8444659871403921e-03 -1.0185774393731681e+00
    7.8432848584749377e-03 -9.9388373467361857e-01
    7.8861446576607621e-03 -1.1103498152964080e+00
    7.9702951855658913e-03 -1.1970112033291596e+00
    8.0304492101593919e-03 -1.2437342963832752e+00
    7.8861446576607621e-03 -1.1103498152964080e+00
    7.8861446576607621e-03 -1.1103498152964080e+00
    7.8610580171328374e-03 -1.0699237552766381e+00
    7.8444659871403921e-03 -9.8176138734763185e-01
    7.9224029851942355e-03 -8.6757603242771231e-01
    7.8861446576607621e-03 -9.0061707240708644e-01
    7.9530033423853563e-03 -8.4604342304884705e-01
    8.5039989924510975e-03 -6.6519010523773914e-01
    9.2747159817985810e-03 -5.5136195008360889e-01
    1.0396843914419014e-02 -4.5542003404264886e-01
    1.2220511314020121e-02 -3.6324157862838946e-01
    9.4535366689429117e-03 -5.3241390564966828e-01
    8.9666474309522213e-03 -5.8915824530980543e-01
    8.0777590089540219e-03 -7.8349306706480415e-01
    7.8610580171328374e-03 -9.3464603909223554e-01
    7.8682011880906802e-03 -9.2318618234499550e-01
    7.8765595497033575e-03 -9.1184465461903286e-01
    7.8432848584749377e-03 -9.9388373467361857e-01
    7.8503796449626642e-03 -1.0439078454267838e+00
    7.8468298461625997e-03 -1.0311600938944960e+00
    7.9370469958154072e-03 -1.1671841502435296e+00
    7.9090502701435125e-03 -1.1383209775310847e+00
    7.8610580171328374e-03 -1.0699237552766381e+00
    7.8468298461625997e-03 -1.0311600938944960e+00
    7.8503796449626642e-03 -1.0439078454267838e+00
    7.8861446576607621e-03 -9.0061707240708644e-01
    7.8969698441672884e-03 -8.8949917999332162e-01
    7.9370469958154072e-03 -8.5676283368939932e-01
    7.9224029851942355e-03 -8.6757603242771231e-01
    7.8765595497033575e-03 -9.1184465461903286e-01
    7.9090502701435108e-03 -8.7848684135551081e-01
    7.9530033423853563e-03 -8.4604342304884705e-01
    7.8468298461625997e-03 -9.6978151687696668e-01
    7.8444659871403921e-03 -1.0185774393731681e+00
    7.8444659871403921e-03 -1.0185774393731681e+00
    7.8444659871403921e-03 -9.8176138734763185e-01
    7.8444659871403921e-03 -9.8176138734763185e-01
    7.8551202128131527e-03 -1.0568269096134504e+00
    7.9889479028276596e-03 -1.2123105912665164e+00
    7.9370469958154072e-03 -1.1671841502435296e+00
    8.0533606667325518e-03 -1.2598815766974236e+00
    8.0777590089540236e-03 -1.2763354802184717e+00
    7.9530033423853546e-03 -1.1819724292594185e+00
    7.8861446576607621e-03 -1.1103498152964080e+00
    7.8503796449626642e-03 -1.0439078454267838e+00
    7.8610580171328374e-03 -9.3464603909223554e-01
    7.8610580171328374e-03 -9.3464603909223554e-01
    8.2938122809364870e-03 -7.1362403214806280e-01
    9.8727192454980527e-03 -4.9424165057217245e-01
    1.1067114495441600e-02 -4.1552601663866623e-01
    1.1952655636970864e-02 -3.7397879600338285e-01
    1.0254064049763024e-02 -4.6520738434354331e-01
    8.6570415189730875e-03 -6.3653154972326664e-01
    8.3716901611484498e-03 -6.9413124250258473e-01
    8.0533606667325536e-03 -7.9372539331937719e-01
    7.9702951855658895e-03 -8.3541406899014248e-01
    7.8551202128131544e-03 -9.4622874465390361e-01
    7.8861446576607621e-03 -9.0061707240708644e-01
    7.8468298461625997e-03 -1.0311600938944960e+00
    7.8432848584749377e-03 -9.9388373467361857e-01
    7.8468298461625997e-03 -1.0311600938944960e+00
    7.9702951855658913e-03 -1.1970112033291596e+00
    7.8765595497033575e-03 -1.0966780305553232e+00
    7.8468298461625997e-03 -1.0311600938944960e+00
    7.8432848584749394e-03 -1.0061539042374907e+00
    7.8551202128131544e-03 -9.4622874465390361e-01
    7.8610580171328374e-03 -9.3464603909223554e-01
    7.8551202128131544e-03 -9.4622874465390361e-01
    7.8969698441672884e-03 -8.8949917999332162e-01
    7.8765595497033575e-03 -9.1184465461903286e-01
    7.8468298461625997e-03 -9.6978151687696668e-01
    7.8682011880906802e-03 -9.2318618234499550e-01
    7.8551202128131544e-03 -9.4622874465390361e-01
    7.8432848584749377e-03 -9.9388373467361857e-01
    7.8503796449626642e-03 -9.5793896403869561e-01
    7.9224029851942355e-03 -8.6757603242771231e-01
    7.8682011880906802e-03 -9.2318618234499550e-01
    7.8468298461625997e-03 -9.6978151687696668e-01
    7.8432848584749394e-03 -1.0061539042374907e+00
    7.8503796449626642e-03 -1.0439078454267838e+00
    7.8969698441672866e-03 -1.1242281302693367e+00
    7.8861446576607621e-03 -1.1103498152964080e+00
    7.9889479028276596e-03 -1.2123105912665164e+00
    7.8969698441672866e-03 -1.1242281302693367e+00
    7.8432848584749377e-03 -9.9388373467361857e-01
    7.8503796449626642e-03 -1.0439078454267838e+00
    7.8682011880906802e-03 -9.2318618234499550e-01
    8.1910349244100518e-03 -7.4322335295720654e-01
    9.8727192454980527e-03 -4.9424165057217245e-01
    9.9926255015056614e-03 -4.8461168459755982e-01
    1.1952655636970864e-02 -3.7397879600338285e-01
    9.8727192454980527e-03 -4.9424165057217245e-01
    8.8338008656974002e-03 -6.0806899210506038e-01
    8.1602741327128376e-03 -7.5319830875254379e-01
    8.0089891959129276e-03 -8.1441101792795567e-01
    7.9224029851942355e-03 -8.6757603242771231e-01
    7.8682011880906802e-03 -9.2318618234499550e-01
    7.8432848584749394e-03 -1.0061539042374907e+00
    7.8444659871403921e-03 -9.8176138734763185e-01
    7.8444659871403921e-03 -1.0185774393731681e+00
    7.9090502701435125e-03 -1.1383209775310847e+00
    7.9530033423853546e-03 -1.1819724292594185e+00
    7.9370469958154072e-03 -1.1671841502435296e+00
    7.8551202128131527e-03 -1.0568269096134504e+00
    7.8682011880906819e-03 -1.0832051206181283e+00
    7.8444659871403921e-03 -9.8176138734763185e-01
    7.8610580171328374e-03 -9.3464603909223554e-01
    7.8861446576607621e-03 -9.0061707240708644e-01
    7.8444659871403921e-03 -1.0185774393731681e+00
    7.8468298461625997e-03 -1.0311600938944960e+00
    7.8444659871403921e-03 -9.8176138734763185e-01
    7.8682011880906802e-03 -9.2318618234499550e-01
    7.8682011880906802e-03 -9.2318618234499550e-01
    7.8503796449626642e-03 -9.5793896403869561e-01
    7.8503796449626642e-03 -9.5793896403869561e-01
    7.8610580171328374e-03 -9.3464603909223554e-01
    7.8432848584749377e-03 -9.9388373467361857e-01
    7.8468298461625997e-03 -1.0311600938944960e+00
    7.8503796449626642e-03 -1.0439078454267838e+00
    7.9889479028276596e-03 -1.2123105912665164e+00
    7.9090502701435125e-03 -1.1383209775310847e+00
    7.8861446576607621e-03 -1.1103498152964080e+00
    7.9530033423853546e-03 -1.1819724292594185e+00
    7.8610580171328374e-03 -1.0699237552766381e+00
    7.8444659871403921e-03 -9.8176138734763185e-01
    7.8468298461625997e-03 -1.0311600938944960e+00
    7.8503796449626642e-03 -9.5793896403869561e-01
    8.1036825640709385e-03 -7.7332995266333404e-01
    9.7593024605932225e-03 -5.0383147365577896e-01
    1.0254064049763024e-02 -4.6520738434354331e-01
    1.3180405305029272e-02 -3.2991443953692901e-01
    1.0119544770430635e-02 -4.7493569014597764e-01
    8.5525763186451598e-03 -6.5561006810718570e-01
    8.0304492101593902e-03 -8.0403025220736968e-01
    8.0777590089540219e-03 -7.8349306706480415e-01
    7.9702951855658895e-03 -8.3541406899014248e-01
    7.9090502701435108e-03 -8.7848684135551081e-01
    7.8503796449626642e-03 -9.5793896403869561e-01
    7.8551202128131527e-03 -1.0568269096134504e+00
    7.8610580171328374e-03 -1.0699237552766381e+00
    7.9702951855658913e-03 -1.1970112033291596e+00
    7.9702951855658913e-03 -1.1970112033291596e+00
    7.8551202128131527e-03 -1.0568269096134504e+00
    7.8551202128131527e-03 -1.0568269096134504e+00
    7.8765595497033575e-03 -1.0966780305553232e+00
    7.8468298461625997e-03 -9.6978151687696668e-01
    7.8468298461625997e-03 -9.6978151687696668e-01
    7.8610580171328374e-03 -9.3464603909223554e-01
    7.8503796449626642e-03 -9.5793896403869561e-01
    7.9224029851942337e-03 -1.1526367287968173e+00
    7.9530033423853546e-03 -1.1819724292594185e+00
    7.8610580171328374e-03 -9.3464603909223554e-01
    7.9370469958154072e-03 -8.5676283368939932e-01
    7.8468298461625997e-03 -9.6978151687696668e-01
    7.8610580171328374e-03 -9.3464603909223554e-01
    7.8444659871403921e-03 -1.0185774393731681e+00
    7.8610580171328374e-03 -1.0699237552766381e+00
    7.8682011880906819e-03 -1.0832051206181283e+00
    7.8551202128131527e-03 -1.0568269096134504e+00
    7.8610580171328374e-03 -1.0699237552766381e+00
    7.9702951855658913e-03 -1.1970112033291596e+00
    7.8969698441672866e-03 -1.1242281302693367e+00
    7.8861446576607621e-03 -1.1103498152964080e+00
    7.8969698441672866e-03 -1.1242281302693367e+00
    7.8503796449626642e-03 -1.0439078454267838e+00
    7.8432848584749377e-03 -9.9388373467361857e-01
    7.8468298461625997e-03 -9.6978151687696668e-01
    8.0089891959129276e-03 -8.1441101792795567e-01
    9.1918785580899290e-03 -5.6081737582947444e-01
    1.0119544770430635e-02 -4.7493569014597764e-01
    1.3180405305029272e-02 -3.2991443953692901e-01
    1.0710271161847449e-02 -4.3563863682851889e-01
    8.7131577567224529e-03 -6.2702662875064030e-01
    8.2235069444031132e-03 -7.3330474501165188e-01
    7.9530033423853563e-03 -8.4604342304884705e-01
    7.9090502701435108e-03 -8.7848684135551081e-01
    7.9224029851942355e-03 -8.6757603242771231e-01
    7.8861446576607621e-03 -9.0061707240708644e-01
    7.8682011880906802e-03 -9.2318618234499550e-01
    7.8444659871403921e-03 -1.0185774393731681e+00
    7.8444659871403921e-03 -9.8176138734763185e-01
    7.8468298461625997e-03 -9.6978151687696668e-01
    7.8468298461625997e-03 -1.0311600938944960e+00
    7.8610580171328374e-03 -1.0699237552766381e+00
    7.8503796449626642e-03 -1.0439078454267838e+00
    7.8861446576607621e-03 -9.0061707240708644e-01
    7.8969698441672884e-03 -8.8949917999332162e-01
    7.8969698441672884e-03 -8.8949917999332162e-01
    7.8861446576607621e-03 -9.0061707240708644e-01
    7.8432848584749394e-03 -1.0061539042374907e+00
    7.8765595497033575e-03 -1.0966780305553232e+00
    7.8468298461625997e-03 -9.6978151687696668e-01
    7.9702951855658895e-03 -8.3541406899014248e-01
    7.9090502701435108e-03 -8.7848684135551081e-01
    7.9370469958154072e-03 -8.5676283368939932e-01
    7.8503796449626642e-03 -9.5793896403869561e-01
    7.8610580171328374e-03 -9.3464603909223554e-01
    7.8551202128131544e-03 -9.4622874465390361e-01
    7.8444659871403921e-03 -1.0185774393731681e+00
    7.8432848584749394e-03 -1.0061539042374907e+00
    7.8610580171328374e-03 -1.0699237552766381e+00
    7.8468298461625997e-03 -1.0311600938944960e+00
    7.8503796449626642e-03 -9.5793896403869561e-01
    7.8444659871403921e-03 -1.0185774393731681e+00
    7.9370469958154072e-03 -8.5676283368939932e-01
    7.9090502701435108e-03 -8.7848684135551081e-01
    7.8861446576607621e-03 -9.0061707240708644e-01
    8.1602741327128376e-03 -7.5319830875254379e-01
    8.7720311139605732e-03 -6.1754022719446366e-01
    1.0882730550092238e-02 -4.2562826537937432e-01
    1.4475384828672087e-02 -2.9439202887759486e-01
    1.0882730550092238e-02 -4.2562826537937432e-01
    9.1130734909302714e-03 -5.7026594851220103e-01
    8.2235069444031132e-03 -7.3330474501165188e-01
    8.0777590089540219e-03 -7.8349306706480415e-01
    8.0089891959129276e-03 -8.1441101792795567e-01
    7.8861446576607621e-03 -9.0061707240708644e-01
    7.9090502701435108e-03 -8.7848684135551081e-01
    7.8468298461625997e-03 -9.6978151687696668e-01
    7.8503796449626642e-03 -9.5793896403869561e-01
    7.8468298461625997e-03 -9.6978151687696668e-01
    7.8444659871403921e-03 -9.8176138734763185e-01
    7.8551202128131527e-03 -1.0568269096134504e+00
    7.8861446576607621e-03 -9.0061707240708644e-01
    7.8682011880906819e-03 -1.0832051206181283e+00
    7.8503796449626642e-03 -9.5793896403869561e-01
    7.8551202128131544e-03 -9.4622874465390361e-01
    7.8861446576607621e-03 -9.0061707240708644e-01
    7.8969698441672884e-03 -8.8949917999332162e-01
    7.8503796449626642e-03 -9.5793896403869561e-01
    7.8682011880906802e-03 -9.2318618234499550e-01
    7.9702951855658895e-03 -8.3541406899014248e-01
    7.8765595497033575e-03 -9.1184465461903286e-01
    7.9090502701435108e-03 -8.7848684135551081e-01
    7.9370469958154072e-03 -8.5676283368939932e-01
    7.8468298461625997e-03 -9.6978151687696668e-01
    7.8444659871403921e-03 -1.0185774393731681e+00
    7.8765595497033575e-03 -9.1184465461903286e-01
    7.8432848584749394e-03 -1.0061539042374907e+00
    7.8503796449626642e-03 -9.5793896403869561e-01
    7.9702951855658895e-03 -8.3541406899014248e-01
    7.8610580171328374e-03 -9.3464603909223554e-01
    7.8610580171328374e-03 -9.3464603909223554e-01
    7.8468298461625997e-03 -9.6978151687696668e-01
    7.9090502701435108e-03 -8.7848684135551081e-01
    7.9090502701435108e-03 -8.7848684135551081e-01
    7.8765595497033575e-03 -9.1184465461903286e-01
    8.0533606667325536e-03 -7.9372539331937719e-01
    8.6570415189730875e-03 -6.3653154972326664e-01
    1.0396843914419014e-02 -4.5542003404264886e-01
    1.5016486406822580e-02 -2.8190459144096375e-01
    1.1264696316332290e-02 -4.0532174168888885e-01
    9.2747159817985810e-03 -5.5136195008360889e-01
    8.4136465312061766e-03 -6.8444756444045329e-01
    8.3317704301922452e-03 -7.0385569830519767e-01
    8.0777590089540219e-03 -7.8349306706480415e-01
    7.9889479028276578e-03 -8.2487112395453666e-01
    7.8610580171328374e-03 -9.3464603909223554e-01
    7.8610580171328374e-03 -9.3464603909223554e-01
    7.8444659871403921e-03 -1.0185774393731681e+00
    7.8765595497033575e-03 -9.1184465461903286e-01
    7.8468298461625997e-03 -9.6978151687696668e-01
    7.8432848584749377e-03 -9.9388373467361857e-01
    7.8444659871403921e-03 -1.0185774393731681e+00
    7.8503796449626642e-03 -9.5793896403869561e-01
    7.8503796449626642e-03 -9.5793896403869561e-01
    7.8551202128131544e-03 -9.4622874465390361e-01
    7.8610580171328374e-03 -9.3464603909223554e-01
    7.8468298461625997e-03 -9.6978151687696668e-01
    7.8682011880906802e-03 -9.2318618234499550e-01
    7.8503796449626642e-03 -9.5793896403869561e-01
    7.9090502701435108e-03 -8.7848684135551081e-01
    7.9090502701435108e-03 -8.7848684135551081e-01
    7.8551202128131544e-03 -9.4622874465390361e-01
    7.8610580171328374e-03 -9.3464603909223554e-01
    7.8610580171328374e-03 -9.3464603909223554e-01
    7.8468298461625997e-03 -9.6978151687696668e-01
    7.8432848584749377e-03 -9.9388373467361857e-01
    7.8610580171328374e-03 -9.3464603909223554e-01
    7.8468298461625997e-03 -9.6978151687696668e-01
    7.8444659871403921e-03 -1.0185774393731681e+00
    7.8682011880906802e-03 -9.2318618234499550e-01
    7.8503796449626642e-03 -9.5793896403869561e-01
    7.8551202128131544e-03 -9.4622874465390361e-01
    7.9224029851942355e-03 -8.6757603242771231e-01
    7.9702951855658895e-03 -8.3541406899014248e-01
    7.9224029851942355e-03 -8.6757603242771231e-01
    8.1311727219911620e-03 -7.6323277697217651e-01
    8.7720311139605732e-03 -6.1754022719446366e-01
    1.0396843914419014e-02 -4.5542003404264886e-01
    1.8152505682798345e-02 -2.2718473369882591e-01
    1.0882730550092238e-02 -4.2562826537937432e-01
    9.4535366689429117e-03 -5.3241390564966828e-01
    8.8338008656974002e-03 -6.0806899210506038e-01
    8.4577204133400967e-03 -6.7480155813182796e-01
    8.1036825640709385e-03 -7.7332995266333404e-01
    7.9224029851942355e-03 -8.6757603242771231e-01
    7.8610580171328374e-03 -9.3464603909223554e-01
    7.8969698441672884e-03 -8.8949917999332162e-01
    7.8468298461625997e-03 -9.6978151687696668e-01
    7.8861446576607621e-03 -9.0061707240708644e-01
    7.8468298461625997e-03 -9.6978151687696668e-01
    7.8444659871403921e-03 -9.8176138734763185e-01
    7.8432848584749377e-03 -9.9388373467361857e-01
    7.8503796449626642e-03 -1.0439078454267838e+00
    7.8861446576607621e-03 -1.1103498152964080e+00
    7.8432848584749377e-03 -9.9388373467361857e-01
    7.8432848584749377e-03 -9.9388373467361857e-01
    7.8551202128131544e-03 -9.4622874465390361e-01
    7.8682011880906802e-03 -9.2318618234499550e-01
    7.8503796449626642e-03 -9.5793896403869561e-01
    7.8969698441672884e-03 -8.8949917999332162e-01
    7.8551202128131544e-03 -9.4622874465390361e-01
    7.8861446576607621e-03 -9.0061707240708644e-01
    7.8503796449626642e-03 -9.5793896403869561e-01
    7.9090502701435108e-03 -8.7848684135551081e-01
    7.8503796449626642e-03 -1.0439078454267838e+00
    7.8503796449626642e-03 -1.0439078454267838e+00
    7.9370469958154072e-03 -8.5676283368939932e-01
    7.8861446576607621e-03 -9.0061707240708644e-01
    7.8765595497033575e-03 -9.1184465461903286e-01
    7.8551202128131544e-03 -9.4622874465390361e-01
    7.8468298461625997e-03 -9.6978151687696668e-01
    7.8551202128131544e-03 -9.4622874465390361e-01
    7.9224029851942355e-03 -8.6757603242771231e-01
    7.8682011880906802e-03 -9.2318618234499550e-01
    7.8969698441672884e-03 -8.8949917999332162e-01
    8.0533606667325536e-03 -7.9372539331937719e-01
    8.5039989924510975e-03 -6.6519010523773914e-01
    9.8727192454980527e-03 -4.9424165057217245e-01
    1.7169822632174769e-02 -2.4174688920761409e-01
    1.2512012520378649e-02 -3.5233213170882210e-01
    9.7593024605932225e-03 -5.0383147365577896e-01
    9.3618416146000957e-03 -5.4189555603528772e-01
    8.6035539250471551e-03 -6.4605828246979868e-01
    8.4577204133400967e-03 -6.7480155813182796e-01
    7.9090502701435108e-03 -8.7848684135551081e-01
    7.8468298461625997e-03 -9.6978151687696668e-01
    7.8503796449626642e-03 -9.5793896403869561e-01
    7.8861446576607621e-03 -9.0061707240708644e-01
    7.8610580171328374e-03 -1.0699237552766381e+00
    7.9090502701435125e-03 -1.1383209775310847e+00
    7.9224029851942337e-03 -1.1526367287968173e+00
    7.8503796449626642e-03 -1.0439078454267838e+00
    7.8468298461625997e-03 -1.0311600938944960e+00
    7.8503796449626642e-03 -1.0439078454267838e+00
    7.8468298461625997e-03 -1.0311600938944960e+00
    7.8444659871403921e-03 -1.0185774393731681e+00
    7.8432848584749394e-03 -1.0061539042374907e+00
    7.8503796449626642e-03 -9.5793896403869561e-01
    7.9090502701435108e-03 -8.7848684135551081e-01
    7.9889479028276578e-03 -8.2487112395453666e-01
    7.8610580171328374e-03 -9.3464603909223554e-01
    7.9224029851942355e-03 -8.6757603242771231e-01
    7.8610580171328374e-03 -9.3464603909223554e-01
    7.8503796449626642e-03 -9.5793896403869561e-01
    7.8969698441672884e-03 -8.8949917999332162e-01
    7.8682011880906802e-03 -9.2318618234499550e-01
    7.8551202128131544e-03 -9.4622874465390361e-01
    7.8432848584749377e-03 -9.9388373467361857e-01
    7.8503796449626642e-03 -9.5793896403869561e-01
    7.8551202128131544e-03 -9.4622874465390361e-01
    7.8444659871403921e-03 -9.8176138734763185e-01
    7.8468298461625997e-03 -9.6978151687696668e-01
    7.8610580171328374e-03 -9.3464603909223554e-01
    7.9090502701435108e-03 -8.7848684135551081e-01
    8.0089891959129276e-03 -8.1441101792795567e-01
    8.0533606667325536e-03 -7.9372539331937719e-01
    8.6570415189730875e-03 -6.3653154972326664e-01
    9.8727192454980527e-03 -4.9424165057217245e-01
    1.9343546632355841e-02 -2.1182963643408084e-01
    1.3180405305029272e-02 -3.2991443953692901e-01
    9.9926255015056614e-03 -4.8461168459755982e-01
    8.9666474309522213e-03 -5.8915824530980543e-01
    8.4136465312061766e-03 -6.8444756444045329e-01
    8.3317704301922452e-03 -7.0385569830519767e-01
    8.0777590089540219e-03 -7.8349306706480415e-01
    7.9370469958154072e-03 -8.5676283368939932e-01
    7.8861446576607621e-03 -9.0061707240708644e-01
    7.8444659871403921e-03 -9.8176138734763185e-01
    7.8503796449626642e-03 -9.5793896403869561e-01
    7.8551202128131527e-03 -1.0568269096134504e+00
    7.8468298461625997e-03 -1.0311600938944960e+00
    7.8432848584749377e-03 -9.9388373467361857e-01
    7.8682011880906819e-03 -1.0832051206181283e+00
    7.8765595497033575e-03 -1.0966780305553232e+00
    7.8444659871403921e-03 -9.8176138734763185e-01
    7.8444659871403921e-03 -9.8176138734763185e-01
    7.8551202128131544e-03 -9.4622874465390361e-01
    7.8432848584749377e-03 -9.9388373467361857e-01
    7.8432848584749377e-03 -9.9388373467361857e-01
    7.8682011880906802e-03 -9.2318618234499550e-01
    7.8551202128131544e-03 -9.4622874465390361e-01
    7.8551202128131544e-03 -9.4622874465390361e-01
    7.8969698441672884e-03 -8.8949917999332162e-01
    7.8610580171328374e-03 -9.3464603909223554e-01
    7.8765595497033575e-03 -9.1184465461903286e-01
    7.8765595497033575e-03 -1.0966780305553232e+00
    7.8682011880906819e-03 -1.0832051206181283e+00
    7.8432848584749377e-03 -9.9388373467361857e-01
    7.8432848584749377e-03 -9.9388373467361857e-01
    7.8551202128131527e-03 -1.0568269096134504e+00
    7.8444659871403921e-03 -1.0185774393731681e+00
    7.8969698441672884e-03 -8.8949917999332162e-01
    7.8861446576607621e-03 -9.0061707240708644e-01
    7.9702951855658895e-03 -8.3541406899014248e-01
    7.9702951855658895e-03 -8.3541406899014248e-01
    8.2938122809364870e-03 -7.1362403214806280e-01
    8.6570415189730875e-03 -6.3653154972326664e-01
    1.0396843914419014e-02 -4.5542003404264886e-01
    1.3995559725581076e-02 -3.0652851668910702e-01
    1.1952655636970864e-02 -3.7397879600338285e-01
    1.0119544770430635e-02 -4.7493569014597764e-01
    9.6519065920518832e-03 -5.1338668805576582e-01
    8.4136465312061766e-03 -6.8444756444045329e-01
    8.4136465312061766e-03 -6.8444756444045329e-01
    8.0304492101593902e-03 -8.0403025220736968e-01
    7.9224029851942355e-03 -8.6757603242771231e-01
    7.8503796449626642e-03 -9.5793896403869561e-01
    7.8432848584749394e-03 -1.0061539042374907e+00
    7.8610580171328374e-03 -1.0699237552766381e+00
    7.8444659871403921e-03 -1.0185774393731681e+00
    7.9224029851942355e-03 -8.6757603242771231e-01
    7.8765595497033575e-03 -9.1184465461903286e-01
    7.8444659871403921e-03 -1.0185774393731681e+00
    7.8610580171328374e-03 -9.3464603909223554e-01
    7.8444659871403921e-03 -9.8176138734763185e-01
    7.8765595497033575e-03 -9.1184465461903286e-01
    7.8503796449626642e-03 -9.5793896403869561e-01
    7.8969698441672884e-03 -8.8949917999332162e-01
    7.8551202128131544e-03 -9.4622874465390361e-01
    7.8551202128131544e-03 -9.4622874465390361e-01
    7.8969698441672884e-03 -8.8949917999332162e-01
    7.8551202128131544e-03 -9.4622874465390361e-01
    7.8503796449626642e-03 -9.5793896403869561e-01
    7.8444659871403921e-03 -1.0185774393731681e+00
    7.8468298461625997e-03 -1.0311600938944960e+00
    7.8444659871403921e-03 -1.0185774393731681e+00
    7.8503796449626642e-03 -9.5793896403869561e-01
    7.8468298461625997e-03 -9.6978151687696668e-01
    7.8444659871403921e-03 -1.0185774393731681e+00
    7.8765595497033575e-03 -1.0966780305553232e+00
    7.8551202128131527e-03 -1.0568269096134504e+00
    7.8610580171328374e-03 -9.3464603909223554e-01
    7.9530033423853563e-03 -8.4604342304884705e-01
    7.8765595497033575e-03 -9.1184465461903286e-01
    7.9889479028276578e-03 -8.2487112395453666e-01
    8.5039989924510975e-03 -6.6519010523773914e-01
    9.1918785580899290e-03 -5.6081737582947444e-01
    1.2512012520378649e-02 -3.5233213170882210e-01
    1.3995559725581076e-02 -3.0652851668910702e-01
    1.1952655636970864e-02 -3.7397879600338285e-01
    9.9926255015056614e-03 -4.8461168459755982e-01
    9.7593024605932225e-03 -5.0383147365577896e-01
    9.0380674953365117e-03 -5.7971162983891544e-01
    8.5039989924510975e-03 -6.6519010523773914e-01
    8.0777590089540219e-03 -7.8349306706480415e-01
    7.9530033423853563e-03 -8.4604342304884705e-01
    7.8551202128131544e-03 -9.4622874465390361e-01
    7.8610580171328374e-03 -9.3464603909223554e-01
    7.8551202128131544e-03 -9.4622874465390361e-01
    7.8432848584749377e-03 -9.9388373467361857e-01
    7.8765595497033575e-03 -1.0966780305553232e+00
    7.8765595497033575e-03 -1.0966780305553232e+00
    7.8551202128131527e-03 -1.0568269096134504e+00
    7.8551202128131527e-03 -1.0568269096134504e+00
    7.8610580171328374e-03 -9.3464603909223554e-01
    7.8682011880906802e-03 -9.2318618234499550e-01
    7.8468298461625997e-03 -9.6978151687696668e-01
    7.8468298461625997e-03 -9.6978151687696668e-01
    7.8551202128131544e-03 -9.4622874465390361e-01
    7.8969698441672884e-03 -8.8949917999332162e-01
    7.8468298461625997e-03 -9.6978151687696668e-01
    7.8468298461625997e-03 -9.6978151687696668e-01
    7.8503796449626642e-03 -1.0439078454267838e+00
    7.8468298461625997e-03 -1.0311600938944960e+00
    7.8444659871403921e-03 -9.8176138734763185e-01
    7.8432848584749377e-03 -9.9388373467361857e-01
    7.8610580171328374e-03 -1.0699237552766381e+00
    7.8444659871403921e-03 -9.8176138734763185e-01
    7.8682011880906819e-03 -1.0832051206181283e+00
    7.8861446576607621e-03 -1.1103498152964080e+00
    7.8468298461625997e-03 -9.6978151687696668e-01
    7.8551202128131544e-03 -9.4622874465390361e-01
    7.9090502701435108e-03 -8.7848684135551081e-01
    8.0304492101593902e-03 -8.0403025220736968e-01
    8.1311727219911620e-03 -7.6323277697217651e-01
    8.5039989924510975e-03 -6.6519010523773914e-01
    9.0380674953365117e-03 -5.7971162983891544e-01
    1.3180405305029272e-02 -3.2991443953692901e-01
    1.8152505682798345e-02 -2.2718473369882591e-01
    1.3995559725581076e-02 -3.0652851668910702e-01
    1.0548630686614243e-02 -4.4556639433950346e-01
    9.6519065920518832e-03 -5.1338668805576582e-01
    9.6519065920518832e-03 -5.1338668805576582e-01
    8.7131577567224529e-03 -6.2702662875064030e-01
    8.1602741327128376e-03 -7.5319830875254379e-01
    8.1602741327128376e-03 -7.5319830875254379e-01
    8.0089891959129276e-03 -8.1441101792795567e-01
    7.9530033423853563e-03 -8.4604342304884705e-01
    7.8444659871403921e-03 -1.0185774393731681e+00
    7.8432848584749394e-03 -1.0061539042374907e+00
    7.8861446576607621e-03 -1.1103498152964080e+00
    7.8861446576607621e-03 -1.1103498152964080e+00
    7.8551202128131544e-03 -9.4622874465390361e-01
    7.8468298461625997e-03 -1.0311600938944960e+00
    7.8444659871403921e-03 -9.8176138734763185e-01
    7.8861446576607621e-03 -9.0061707240708644e-01
    7.8861446576607621e-03 -9.0061707240708644e-01
    7.8551202128131544e-03 -9.4622874465390361e-01
    7.9090502701435108e-03 -8.7848684135551081e-01
    7.8468298461625997e-03 -9.6978151687696668e-01
    7.8444659871403921e-03 -9.8176138734763185e-01
    7.8444659871403921e-03 -1.0185774393731681e+00
    7.8468298461625997e-03 -9.6978151687696668e-01
    7.8468298461625997e-03 -9.6978151687696668e-01
    7.8468298461625997e-03 -9.6978151687696668e-01
    7.8444659871403921e-03 -1.0185774393731681e+00
    7.8444659871403921e-03 -1.0185774393731681e+00
    7.8444659871403921e-03 -9.8176138734763185e-01
    7.8444659871403921e-03 -1.0185774393731681e+00
    7.8468298461625997e-03 -9.6978151687696668e-01
    7.8503796449626642e-03 -9.5793896403869561e-01
    7.9224029851942355e-03 -8.6757603242771231e-01
    8.1036825640709385e-03 -7.7332995266333404e-01
    8.1311727219911620e-03 -7.6323277697217651e-01
    8.2235069444031132e-03 -7.3330474501165188e-01
    8.5525763186451598e-03 -6.5561006810718570e-01
    9.9926255015056614e-03 -4.8461168459755982e-01
    1.2512012520378649e-02 -3.5233213170882210e-01
    1.5632530598285590e-02 -2.6901379342448517e-01
    1.4475384828672087e-02 -2.9439202887759486e-01
    1.2512012520378649e-02 -3.5233213170882210e-01
    9.8727192454980527e-03 -4.9424165057217245e-01
    9.6519065920518832e-03 -5.1338668805576582e-01
    9.1918785580899290e-03 -5.6081737582947444e-01
    8.8338008656974002e-03 -6.0806899210506038e-01
    8.4577204133400967e-03 -6.7480155813182796e-01
    8.5525763186451598e-03 -6.5561006810718570e-01
    7.9224029851942355e-03 -8.6757603242771231e-01
    7.8861446576607621e-03 -9.0061707240708644e-01
    8.1036825640709385e-03 -7.7332995266333404e-01
    7.8610580171328374e-03 -9.3464603909223554e-01
    7.8610580171328374e-03 -1.0699237552766381e+00
    7.9530033423853546e-03 -1.1819724292594185e+00
    7.9370469958154072e-03 -1.1671841502435296e+00
    7.8969698441672866e-03 -1.1242281302693367e+00
    7.8682011880906819e-03 -1.0832051206181283e+00
    7.8444659871403921e-03 -9.8176138734763185e-01
    7.8503796449626642e-03 -9.5793896403869561e-01
    7.8503796449626642e-03 -9.5793896403869561e-01
    7.8444659871403921e-03 -1.0185774393731681e+00
    7.8503796449626642e-03 -9.5793896403869561e-01
    7.8610580171328374e-03 -9.3464603909223554e-01
    7.8765595497033575e-03 -9.1184465461903286e-01
    7.8444659871403921e-03 -1.0185774393731681e+00
    7.8551202128131527e-03 -1.0568269096134504e+00
    7.8610580171328374e-03 -9.3464603909223554e-01
    7.8468298461625997e-03 -1.0311600938944960e+00
    7.8861446576607621e-03 -9.0061707240708644e-01
    7.9530033423853546e-03 -1.1819724292594185e+00
    7.8432848584749394e-03 -1.0061539042374907e+00
    7.8610580171328374e-03 -9.3464603909223554e-01
    7.8861446576607621e-03 -9.0061707240708644e-01
    8.1910349244100518e-03 -7.4322335295720654e-01
    8.4136465312061766e-03 -6.8444756444045329e-01
    8.5039989924510975e-03 -6.6519010523773914e-01
    9.1918785580899290e-03 -5.6081737582947444e-01
    1.1476950994045710e-02 -3.9500426427359780e-01
    1.4475384828672087e-02 -2.9439202887759486e-01
    1.8152505682798345e-02 -2.2718473369882591e-01
    1.5632530598285590e-02 -2.6901379342448517e-01
    1.3180405305029272e-02 -3.2991443953692901e-01
    1.0882730550092238e-02 -4.2562826537937432e-01
    9.9926255015056614e-03 -4.8461168459755982e-01
    9.8727192454980527e-03 -4.9424165057217245e-01
    9.4535366689429117e-03 -5.3241390564966828e-01
    9.4535366689429117e-03 -5.3241390564966828e-01
    8.6035539250471551e-03 -6.4605828246979868e-01
    8.2577460255484989e-03 -7.2343934506032248e-01
    8.2235069444031132e-03 -7.3330474501165188e-01
    8.3317704301922452e-03 -7.0385569830519767e-01
    7.8969698441672884e-03 -8.8949917999332162e-01
    7.8610580171328374e-03 -9.3464603909223554e-01
    7.8444659871403921e-03 -1.0185774393731681e+00
    7.9090502701435125e-03 -1.1383209775310847e+00
    7.9530033423853546e-03 -1.1819724292594185e+00
    7.8551202128131527e-03 -1.0568269096134504e+00
    7.8444659871403921e-03 -9.8176138734763185e-01
    7.8610580171328374e-03 -1.0699237552766381e+00
    7.8468298461625997e-03 -1.0311600938944960e+00
    7.8432848584749394e-03 -1.0061539042374907e+00
    7.8444659871403921e-03 -1.0185774393731681e+00
    7.8765595497033575e-03 -9.1184465461903286e-01
    7.9224029851942355e-03 -8.6757603242771231e-01
    7.8444659871403921e-03 -9.8176138734763185e-01
    7.8468298461625997e-03 -9.6978151687696668e-01
    7.8444659871403921e-03 -1.0185774393731681e+00
    7.8432848584749394e-03 -1.0061539042374907e+00
    7.8444659871403921e-03 -9.8176138734763185e-01
    7.8551202128131527e-03 -1.0568269096134504e+00
    7.8551202128131544e-03 -9.4622874465390361e-01
    7.8861446576607621e-03 -9.0061707240708644e-01
    8.0533606667325536e-03 -7.9372539331937719e-01
    8.1036825640709385e-03 -7.7332995266333404e-01
    8.6035539250471551e-03 -6.4605828246979868e-01
    9.1918785580899290e-03 -5.6081737582947444e-01
    9.7593024605932225e-03 -5.0383147365577896e-01
    1.3180405305029272e-02 -3.2991443953692901e-01
    1.4475384828672087e-02 -2.9439202887759486e-01
    2.0826772476377483e-02 -1.9549056373532239e-01
    1.6341868389819787e-02 -2.5565499628245675e-01
    1.3995559725581076e-02 -3.0652851668910702e-01
    1.0396843914419014e-02 -4.5542003404264886e-01
    1.0254064049763024e-02 -4.6520738434354331e-01
    9.8727192454980527e-03 -4.9424165057217245e-01
    9.3618416146000957e-03 -5.4189555603528772e-01
    9.5501109471326558e-03 -5.2291251658379723e-01
    8.5525763186451598e-03 -6.5561006810718570e-01
    8.2938122809364870e-03 -7.1362403214806280e-01
    8.4577204133400967e-03 -6.7480155813182796e-01
    8.1910349244100518e-03 -7.4322335295720654e-01
    8.1602741327128376e-03 -7.5319830875254379e-01
    7.9090502701435108e-03 -8.7848684135551081e-01
    7.8765595497033575e-03 -9.1184465461903286e-01
    7.8765595497033575e-03 -9.1184465461903286e-01
    7.8861446576607621e-03 -9.0061707240708644e-01
    7.9090502701435108e-03 -8.7848684135551081e-01
    7.9090502701435108e-03 -8.7848684135551081e-01
    7.8444659871403921e-03 -9.8176138734763185e-01
    7.8551202128131527e-03 -1.0568269096134504e+00
    7.8432848584749394e-03 -1.0061539042374907e+00
    7.8432848584749394e-03 -1.0061539042374907e+00
    7.8432848584749377e-03 -9.9388373467361857e-01
    7.8765595497033575e-03 -9.1184465461903286e-01
    7.9889479028276578e-03 -8.2487112395453666e-01
    7.9889479028276578e-03 -8.2487112395453666e-01
    7.8444659871403921e-03 -1.0185774393731681e+00
    7.8682011880906802e-03 -9.2318618234499550e-01
    7.8861446576607621e-03 -9.0061707240708644e-01
    7.9224029851942355e-03 -8.6757603242771231e-01
    7.9889479028276578e-03 -8.2487112395453666e-01
    8.1311727219911620e-03 -7.6323277697217651e-01
    8.1602741327128376e-03 -7.5319830875254379e-01
    8.4136465312061766e-03 -6.8444756444045329e-01
    9.0380674953365117e-03 -5.7971162983891544e-01
    9.1918785580899290e-03 -5.6081737582947444e-01
    1.0710271161847449e-02 -4.3563863682851889e-01
    1.2830587282578739e-02 -3.4123064950907261e-01
    1.6341868389819787e-02 -2.5565499628245675e-01
    1.9343546632355841e-02 -2.1182963643408084e-01
    1.8152505682798345e-02 -2.2718473369882591e-01
    1.2830587282578739e-02 -3.4123064950907261e-01
    1.0710271161847449e-02 -4.3563863682851889e-01
    1.0396843914419014e-02 -4.5542003404264886e-01
    1.0396843914419014e-02 -4.5542003404264886e-01
    9.9926255015056614e-03 -4.8461168459755982e-01
    9.5501109471326558e-03 -5.2291251658379723e-01
    8.9666474309522213e-03 -5.8915824530980543e-01
    8.9666474309522213e-03 -5.8915824530980543e-01
    8.6570415189730875e-03 -6.3653154972326664e-01
    8.4577204133400967e-03 -6.7480155813182796e-01
    8.0777590089540219e-03 -7.8349306706480415e-01
    8.0089891959129276e-03 -8.1441101792795567e-01
    8.1311727219911620e-03 -7.6323277697217651e-01
    8.2235069444031132e-03 -7.3330474501165188e-01
    7.9224029851942355e-03 -8.6757603242771231e-01
    7.9370469958154072e-03 -8.5676283368939932e-01
    7.9224029851942355e-03 -8.6757603242771231e-01
    7.8610580171328374e-03 -9.3464603909223554e-01
    7.8682011880906802e-03 -9.2318618234499550e-01
    7.8432848584749377e-03 -9.9388373467361857e-01
    7.8432848584749394e-03 -1.0061539042374907e+00
    7.8765595497033575e-03 -9.1184465461903286e-01
    7.8861446576607621e-03 -9.0061707240708644e-01
    7.8503796449626642e-03 -9.5793896403869561e-01
    7.8551202128131544e-03 -9.4622874465390361e-01
    7.8432848584749394e-03 -1.0061539042374907e+00
    7.9090502701435108e-03 -8.7848684135551081e-01
    7.9702951855658895e-03 -8.3541406899014248e-01
    8.2938122809364870e-03 -7.1362403214806280e-01
    8.2235069444031132e-03 -7.3330474501165188e-01
    8.2938122809364870e-03 -7.1362403214806280e-01
    8.2938122809364870e-03 -7.1362403214806280e-01
    8.7720311139605732e-03 -6.1754022719446366e-01
    9.1918785580899290e-03 -5.6081737582947444e-01
    9.4535366689429117e-03 -5.3241390564966828e-01
    1.1264696316332290e-02 -4.0532174168888885e-01
    1.4475384828672087e-02 -2.9439202887759486e-01
    1.6341868389819787e-02 -2.5565499628245675e-01
    2.2742273512797190e-02 -1.7789201674120500e-01
    1.9343546632355841e-02 -2.1182963643408084e-01
    1.2512012520378649e-02 -3.5233213170882210e-01
    1.1705597977199646e-02 -3.8456120961904355e-01
    1.1476950994045710e-02 -3.9500426427359780e-01
    1.0396843914419014e-02 -4.5542003404264886e-01
    1.0254064049763024e-02 -4.6520738434354331e-01
    9.8727192454980527e-03 -4.9424165057217245e-01
    9.8727192454980527e-03 -4.9424165057217245e-01
    1.0119544770430635e-02 -4.7493569014597764e-01
    9.8727192454980527e-03 -4.9424165057217245e-01
    8.5039989924510975e-03 -6.6519010523773914e-01
    8.7720311139605732e-03 -6.1754022719446366e-01
    8.7720311139605732e-03 -6.1754022719446366e-01
    8.5039989924510975e-03 -6.6519010523773914e-01
    8.0533606667325536e-03 -7.9372539331937719e-01
    8.0304492101593902e-03 -8.0403025220736968e-01
    7.8468298461625997e-03 -9.6978151687696668e-01
    7.8969698441672884e-03 -8.8949917999332162e-01
    7.8444659871403921e-03 -9.8176138734763185e-01
    7.8682011880906802e-03 -9.2318618234499550e-01
    7.9090502701435108e-03 -8.7848684135551081e-01
    7.8503796449626642e-03 -9.5793896403869561e-01
    7.8682011880906802e-03 -9.2318618234499550e-01
    7.9530033423853563e-03 -8.4604342304884705e-01
    7.9090502701435108e-03 -8.7848684135551081e-01
    8.0533606667325536e-03 -7.9372539331937719e-01
    7.9702951855658895e-03 -8.3541406899014248e-01
    7.9702951855658895e-03 -8.3541406899014248e-01
    7.9530033423853563e-03 -8.4604342304884705e-01
    8.3716901611484498e-03 -6.9413124250258473e-01
    8.2938122809364870e-03 -7.1362403214806280e-01
    8.4136465312061766e-03 -6.8444756444045329e-01
    8.7131577567224529e-03 -6.2702662875064030e-01
    9.2747159817985810e-03 -5.5136195008360889e-01
    9.2747159817985810e-03 -5.5136195008360889e-01
    1.0119544770430635e-02 -4.7493569014597764e-01
    1.2830587282578739e-02 -3.4123064950907261e-01
    1.3566597387532440e-02 -3.1835726998350661e-01
    1.6341868389819787e-02 -2.5565499628245675e-01
    2.2742273512797190e-02 -1.7789201674120500e-01
    1.5016486406822580e-02 -2.8190459144096375e-01
    1.3995559725581076e-02 -3.0652851668910702e-01
    1.3180405305029272e-02 -3.2991443953692901e-01
    1.1476950994045710e-02 -3.9500426427359780e-01
    1.0396843914419014e-02 -4.5542003404264886e-01
    9.9926255015056614e-03 -4.8461168459755982e-01
    1.1067114495441600e-02 -4.1552601663866623e-01
    1.0882730550092238e-02 -4.2562826537937432e-01
    1.0548630686614243e-02 -4.4556639433950346e-01
    1.1067114495441600e-02 -4.1552601663866623e-01
    9.5501109471326558e-03 -5.2291251658379723e-01
    8.7131577567224529e-03 -6.2702662875064030e-01
    8.7131577567224529e-03 -6.2702662875064030e-01
    8.7131577567224529e-03 -6.2702662875064030e-01
    8.4136465312061766e-03 -6.8444756444045329e-01
    8.3317704301922452e-03 -7.0385569830519767e-01
    8.1036825640709385e-03 -7.7332995266333404e-01
    7.8861446576607621e-03 -9.0061707240708644e-01
    7.8765595497033575e-03 -9.1184465461903286e-01
    7.8468298461625997e-03 -9.6978151687696668e-01
    7.8765595497033575e-03 -9.1184465461903286e-01
    8.0089891959129276e-03 -8.1441101792795567e-01
    7.9370469958154072e-03 -8.5676283368939932e-01
    7.9224029851942355e-03 -8.6757603242771231e-01
    8.0304492101593902e-03 -8.0403025220736968e-01
    8.0777590089540219e-03 -7.8349306706480415e-01
    8.3716901611484498e-03 -6.9413124250258473e-01
    8.4136465312061766e-03 -6.8444756444045329e-01
    8.3716901611484498e-03 -6.9413124250258473e-01
    8.3317704301922452e-03 -7.0385569830519767e-01
    8.7131577567224529e-03 -6.2702662875064030e-01
    9.0380674953365117e-03 -5.7971162983891544e-01
    9.2747159817985810e-03 -5.5136195008360889e-01
    9.4535366689429117e-03 -5.3241390564966828e-01
    9.6519065920518832e-03 -5.1338668805576582e-01
    1.0710271161847449e-02 -4.3563863682851889e-01
    1.1705597977199646e-02 -3.8456120961904355e-01
    1.4475384828672087e-02 -2.9439202887759486e-01
    1.7169822632174769e-02 -2.4174688920761409e-01
    2.0826772476377483e-02 -1.9549056373532239e-01
    1.8152505682798345e-02 -2.2718473369882591e-01
    1.6341868389819787e-02 -2.5565499628245675e-01
    1.3995559725581076e-02 -3.0652851668910702e-01
    1.2830587282578739e-02 -3.4123064950907261e-01
    1.1952655636970864e-02 -3.7397879600338285e-01
    1.1476950994045710e-02 -3.9500426427359780e-01
    1.1952655636970864e-02 -3.7397879600338285e-01
    1.2220511314020121e-02 -3.6324157862838946e-01
    1.0882730550092238e-02 -4.2562826537937432e-01
    1.1067114495441600e-02 -4.1552601663866623e-01
    1.1476950994045710e-02 -3.9500426427359780e-01
    1.1067114495441600e-02 -4.1552601663866623e-01
    9.5501109471326558e-03 -5.2291251658379723e-01
    9.4535366689429117e-03 -5.3241390564966828e-01
    8.8986181923060622e-03 -5.9860949986893230e-01
    8.8338008656974002e-03 -6.0806899210506038e-01
    8.5525763186451598e-03 -6.5561006810718570e-01
    8.1910349244100518e-03 -7.4322335295720654e-01
    7.8969698441672884e-03 -8.8949917999332162e-01
    7.9090502701435108e-03 -8.7848684135551081e-01
    7.9224029851942355e-03 -8.6757603242771231e-01
    8.1311727219911620e-03 -7.6323277697217651e-01
    8.0089891959129276e-03 -8.1441101792795567e-01
    8.1311727219911620e-03 -7.6323277697217651e-01
    8.0777590089540219e-03 -7.8349306706480415e-01
    8.5525763186451598e-03 -6.5561006810718570e-01
    8.5525763186451598e-03 -6.5561006810718570e-01
    8.5039989924510975e-03 -6.6519010523773914e-01
    8.4577204133400967e-03 -6.7480155813182796e-01
    8.7131577567224529e-03 -6.2702662875064030e-01
    8.8338008656974002e-03 -6.0806899210506038e-01
    9.7593024605932225e-03 -5.0383147365577896e-01
    9.8727192454980527e-03 -4.9424165057217245e-01
    9.9926255015056614e-03 -4.8461168459755982e-01
    1.0710271161847449e-02 -4.3563863682851889e-01
    1.1705597977199646e-02 -3.8456120961904355e-01
    1.2512012520378649e-02 -3.5233213170882210e-01
    1.6341868389819787e-02 -2.5565499628245675e-01
    2.5346550680795589e-02 -1.5861031714362886e-01
    2.5346550680795589e-02 -1.5861031714362886e-01
    1.9343546632355841e-02 -2.1182963643408084e-01
    1.9343546632355841e-02 -2.1182963643408084e-01
    1.5016486406822580e-02 -2.8190459144096375e-01
    1.3566597387532440e-02 -3.1835726998350661e-01
    1.4475384828672087e-02 -2.9439202887759486e-01
    1.3566597387532440e-02 -3.1835726998350661e-01
    1.2830587282578739e-02 -3.4123064950907261e-01
    1.3180405305029272e-02 -3.2991443953692901e-01
    1.3566597387532440e-02 -3.1835726998350661e-01
    1.2512012520378649e-02 -3.5233213170882210e-01
    1.2830587282578739e-02 -3.4123064950907261e-01
    1.1952655636970864e-02 -3.7397879600338285e-01
    1.1476950994045710e-02 -3.9500426427359780e-01
    1.1705597977199646e-02 -3.8456120961904355e-01
    1.0254064049763024e-02 -4.6520738434354331e-01
    9.8727192454980527e-03 -4.9424165057217245e-01
    8.6035539250471551e-03 -6.4605828246979868e-01
    8.5039989924510975e-03 -6.6519010523773914e-01
    8.1036825640709385e-03 -7.7332995266333404e-01
    8.0089891959129276e-03 -8.1441101792795567e-01
    7.9889479028276578e-03 -8.2487112395453666e-01
    8.1910349244100518e-03 -7.4322335295720654e-01
    8.2235069444031132e-03 -7.3330474501165188e-01
    8.2577460255484989e-03 -7.2343934506032248e-01
    8.4577204133400967e-03 -6.7480155813182796e-01
    8.6570415189730875e-03 -6.3653154972326664e-01
    8.8338008656974002e-03 -6.0806899210506038e-01
    9.2747159817985810e-03 -5.5136195008360889e-01
    9.2747159817985810e-03 -5.5136195008360889e-01
    9.1918785580899290e-03 -5.6081737582947444e-01
    9.1918785580899290e-03 -5.6081737582947444e-01
    1.0119544770430635e-02 -4.7493569014597764e-01
    1.0882730550092238e-02 -4.2562826537937432e-01
    1.1952655636970864e-02 -3.7397879600338285e-01
    1.4475384828672087e-02 -2.9439202887759486e-01
    1.3995559725581076e-02 -3.0652851668910702e-01
    1.4475384828672087e-02 -2.9439202887759486e-01
    1.7169822632174769e-02 -2.4174688920761409e-01
    2.5346550680795589e-02 -1.5861031714362886e-01
    5.0221527378390966e-02 -7.8567420131838636e-02
    2.5346550680795589e-02 -1.5861031714362886e-01
    1.8152505682798345e-02 -2.2718473369882591e-01
    1.8152505682798345e-02 -2.2718473369882591e-01
    1.8152505682798345e-02 -2.2718473369882591e-01
    1.8152505682798345e-02 -2.2718473369882591e-01
    1.8152505682798345e-02 -2.2718473369882591e-01
    1.7169822632174769e-02 -2.4174688920761409e-01
    1.5632530598285590e-02 -2.6901379342448517e-01
    1.5016486406822580e-02 -2.8190459144096375e-01
    1.5016486406822580e-02 -2.8190459144096375e-01
    1.3995559725581076e-02 -3.0652851668910702e-01
    1.3566597387532440e-02 -3.1835726998350661e-01
    1.3180405305029272e-02 -3.2991443953692901e-01
    1.3995559725581076e-02 -3.0652851668910702e-01
    1.2220511314020121e-02 -3.6324157862838946e-01
    1.0548630686614243e-02 -4.4556639433950346e-01
    9.6519065920518832e-03 -5.1338668805576582e-01
    8.9666474309522213e-03 -5.8915824530980543e-01
    8.8338008656974002e-03 -6.0806899210506038e-01
    8.9666474309522213e-03 -5.8915824530980543e-01
    8.5039989924510975e-03 -6.6519010523773914e-01
    9.2747159817985810e-03 -5.5136195008360889e-01
    8.6570415189730875e-03 -6.3653154972326664e-01
    9.7593024605932225e-03 -5.0383147365577896e-01
    8.8338008656974002e-03 -6.0806899210506038e-01
    9.4535366689429117e-03 -5.3241390564966828e-01
    9.4535366689429117e-03 -5.3241390564966828e-01
    9.6519065920518832e-03 -5.1338668805576582e-01
    1.0396843914419014e-02 -4.5542003404264886e-01
    9.7593024605932225e-03 -5.0383147365577896e-01
    1.0396843914419014e-02 -4.5542003404264886e-01
    1.1952655636970864e-02 -3.7397879600338285e-01
    1.4475384828672087e-02 -2.9439202887759486e-01
    1.5632530598285590e-02 -2.6901379342448517e-01
    1.7169822632174769e-02 -2.4174688920761409e-01
    1.9343546632355841e-02 -2.1182963643408084e-01
    1.8152505682798345e-02 -2.2718473369882591e-01
    1.8152505682798345e-02 -2.2718473369882591e-01
    2.0826772476377483e-02 -1.9549056373532239e-01
    2.5346550680795589e-02 -1.5861031714362886e-01
    1.9343546632355841e-02 -2.1182963643408084e-01
    1.9343546632355841e-02 -2.1182963643408084e-01
    2.0826772476377483e-02 -1.9549056373532239e-01
    2.9176070873641199e-02 -1.3693063937629152e-01
    2.9176070873641199e-02 -1.3693063937629152e-01
    2.5346550680795589e-02 -1.5861031714362886e-01
    2.2742273512797190e-02 -1.7789201674120500e-01
    2.0826772476377483e-02 -1.9549056373532239e-01
    1.6341868389819787e-02 -2.5565499628245675e-01
    1.6341868389819787e-02 -2.5565499628245675e-01
    1.5632530598285590e-02 -2.6901379342448517e-01
    1.6341868389819787e-02 -2.5565499628245675e-01
    1.8152505682798345e-02 -2.2718473369882591e-01
    2.0826772476377483e-02 -1.9549056373532239e-01
    1.7169822632174769e-02 -2.4174688920761409e-01
    1.2220511314020121e-02 -3.6324157862838946e-01
    1.2512012520378649e-02 -3.5233213170882210e-01
    1.2220511314020121e-02 -3.6324157862838946e-01
    1.1476950994045710e-02 -3.9500426427359780e-01
    9.6519065920518832e-03 -5.1338668805576582e-01
    9.9926255015056614e-03 -4.8461168459755982e-01
    1.3995559725581076e-02 -3.0652851668910702e-01
    1.1705597977199646e-02 -3.8456120961904355e-01
    1.0119544770430635e-02 -4.7493569014597764e-01
    1.0710271161847449e-02 -4.3563863682851889e-01
    1.0254064049763024e-02 -4.6520738434354331e-01
    9.9926255015056614e-03 -4.8461168459755982e-01
    1.0119544770430635e-02 -4.7493569014597764e-01
    1.0882730550092238e-02 -4.2562826537937432e-01
    1.1705597977199646e-02 -3.8456120961904355e-01
    1.2830587282578739e-02 -3.4123064950907261e-01
    1.5632530598285590e-02 -2.6901379342448517e-01
    1.6341868389819787e-02 -2.5565499628245675e-01
    1.7169822632174769e-02 -2.4174688920761409e-01
    2.0826772476377483e-02 -1.9549056373532239e-01
    2.5346550680795589e-02 -1.5861031714362886e-01
    2.5346550680795589e-02 -1.5861031714362886e-01
    2.2742273512797190e-02 -1.7789201674120500e-01
    1.9343546632355841e-02 -2.1182963643408084e-01</input_scale>
  <output_scale>
    1.0526315789473684e+00 0.</output_scale>
  <inv_output_scale>
    9.4999999999999996e-01 0.</inv_output_scale>
  <weights>
    <_>
      4.0709337422611007e-02 1.6572734213436996e-02
      1.3129511188626441e-02 7.5207297984200292e-03
      -1.2149095066531012e-02 4.5112262792322251e-03
      -6.6720304445387017e-03 -1.0736635141499203e-02
      3.6437015246849951e-04 1.4150593063130231e-02
      5.9933240919403151e-03 1.0556171445618663e-02
      7.4414903267454729e-03 -9.7819921767651093e-03
      2.0983416988399131e-03 5.4399822346092360e-03
      2.3626872392859656e-03 1.0679572950224243e-02
      -1.8189058364762256e-02 1.7131955482907784e-02
      -1.0095167749770083e-02 -6.9493547201746715e-04
      -1.7779643599728958e-03 1.4824925886077539e-02
      5.2958807642932435e-03 -2.0130126897238045e-04
      1.8946643178370533e-02 -1.6681419787205134e-02
      8.8980852301367812e-03 6.3868775506553295e-03
      -1.3554378507270306e-02 -1.7356097734427419e-02
      1.9665012444255111e-02 9.2937847007977976e-03
      1.0489908711986948e-02 1.4532952324616262e-03
      1.4608922145706913e-02 9.4963798493593998e-03
      -1.4391489236596057e-02 -1.3402322782825937e-02
      -9.5694445461612612e-02 -4.2059970087663649e-02
      -3.5862378689964398e-02 8.2685093950679456e-05
      3.1666374538181108e-02 3.1358111484098533e-02
      -1.1796050649527868e-02 2.8370939955536342e-02
      -3.5453578102041049e-02 -5.2551815805709431e-02
      1.7361162917364337e-02 -2.6756516435396734e-02
      1.4982279182367456e-02 1.5097401400803342e-02
      -3.6773304040432005e-02 2.2254946869431996e-02
      -3.6314710058214489e-02 -2.2123548466385517e-02
      4.9150511341314602e-02 -4.9850413424018233e-02
      2.6082380658124273e-02 3.5776812074958073e-02
      3.6618542637377058e-02 -3.4369171340740121e-02
      2.3345630443026261e-02 -3.6294747704893965e-02
      -4.3553606673715294e-02 4.5967045524873199e-02
      5.7998740924869530e-03 2.1798139282928695e-02
      3.8207946550925770e-02 4.3758350307186840e-02
      -5.1938264953074166e-02 -3.1171445602170135e-03
      -1.7844118474701486e-02 3.5264574562406351e-02
      -3.4090342230430240e-02 -1.0639329720664783e-02
      3.8911731114757729e-02 3.2675132092818873e-02
      -7.0936547393583238e-02 -2.4542200133940133e-02
      -2.0182334007215641e-02 -1.4935061313245070e-02
      1.8074109889451913e-02 -2.4620336011950347e-02
      1.6128725940855276e-02 1.4792669078608415e-02
      2.5734142720116163e-02 -2.7654461716294560e-02
      -1.8440104656578821e-02 -1.5767358336858439e-02
      -1.6414873622056007e-02 1.1130527387818438e-02
      2.5337319128124768e-02 -1.8631190059784419e-02
      2.8241102065962191e-02 -1.1663454767109813e-02
      2.7288287983792115e-02 -2.5268673823292519e-02
      1.4306476227921425e-02 -2.6678053188078553e-02
      -2.7121138883567295e-02 -1.9161084935998687e-02
      -1.8893640830844285e-02 2.8087165208502751e-02
      -2.5803104621894217e-02 2.5919199408072822e-02
      -1.4029486512407931e-02 -1.8601334716757602e-02
      2.2947467719850918e-02 2.4604233025065220e-02
      -1.7579600590698543e-02 -1.4444108141306002e-02
      -1.1162802107733866e-02 -2.6203513445539679e-02
      -2.0813806410809297e-02 -1.2355673512625752e-02
      2.1918640096435092e-02 1.8991350863143866e-02
      -4.7809265511090548e-02 -1.7592876185391938e-02
      -1.1819377182066338e-02 -1.0320371689941371e-02
      8.3124952013146260e-03 -2.0101649891986423e-03
      1.0277886797977412e-02 5.7616605153644352e-03
      -2.5154970206662250e-03 -2.7810228715816482e-02
      -7.7613267888960238e-03 -5.7933272980488781e-03
      -8.3928557271955358e-03 8.1132343816505848e-03
      -3.3450492774592562e-03 -5.7986650761419423e-03
      -1.7277536296913659e-03 -6.0259237189079183e-03
      2.5671742883829316e-02 -2.8688942870262156e-02
      6.3161267245968192e-03 3.4145285063496395e-04
      3.7133170595972775e-03 -1.1724618468487435e-02
      -4.7448200739840319e-03 -1.2615165272920107e-03
      -2.1914046983435652e-02 2.2229938077157653e-02
      -8.5916613678110963e-03 -5.9574008532860207e-03
      1.3646363087621965e-02 2.1539824802175776e-02
      -2.7641982839402942e-02 -1.0967412245075716e-02
      -7.5201935154808244e-03 1.1353439468619747e-03
      -1.0948297581711522e-02 -9.0914988821530970e-03
      1.7370130979385806e-02 9.6729157429172440e-03
      2.9096319535689405e-02 3.1480915544346735e-03
      3.7743493455592841e-03 1.2918528558888188e-03
      -6.2077008301156481e-03 1.0441705822668519e-02
      -2.9078453462459855e-03 -4.1227720205375060e-03
      -1.2585371852187489e-02 3.4127096662317741e-04
      5.5103386841441719e-03 4.1313232632429996e-03
      5.2313652682419243e-03 -3.0741716418193235e-03
      -1.2685672830982344e-02 5.6964836345340742e-03
      -1.0438976298730578e-02 4.1577797666415145e-03
      -1.2116122368052466e-03 9.5254970296587672e-04
      -5.7168520984561639e-03 1.0295137847354498e-02
      1.0957740036927647e-02 5.0249868078188660e-03
      7.7724114872277554e-03 -1.0313733775458146e-02
      1.6390344117821502e-03 -8.6741350339890441e-04
      1.6006882305935788e-03 6.7052395141981233e-03
      -2.9768769856677270e-03 -1.4168701267461494e-03
      5.9614059251692202e-04 1.5041276906637723e-03
      1.8692921816338510e-03 1.1484807874881191e-02
      3.6721354509244705e-03 2.9761093769137773e-03
      -3.0391809232986609e-03 -3.5647436757443030e-03
      2.9522083701656078e-02 1.7770989019816291e-03
      4.6251164157135333e-03 1.9217815096989569e-03
      -5.0636146113655859e-03 9.0923047998759856e-03
      -3.4186734098111565e-03 -4.5802825986637624e-03
      -1.2432506701865284e-02 5.5544521861472333e-04
      4.2697143534553032e-03 3.7230442793944741e-03
      5.4252402791039192e-03 -3.4803690407204766e-03
      -1.1086095559420386e-02 6.1547818549668723e-03
      -1.1138719785869406e-02 2.7601858843011372e-03
      -3.1352297517517279e-03 8.0075561461995183e-04
      -5.7072678199682680e-03 1.1685722334502635e-02
      1.2385311198490189e-02 5.1378310338960204e-03
      5.7820118733935407e-03 -1.1009048211359786e-02
      3.2406069410125522e-03 -1.6238026277055331e-03
      2.0946249284584995e-03 6.9800744282288770e-03
      -3.6238606326817460e-03 -1.5155371453615457e-03
      2.0731779651961828e-03 2.4031484507059629e-03
      3.0790337175852925e-03 1.1390981605947315e-02
      4.4510283841022614e-03 2.9629026489042271e-03
      -1.9835303671106893e-03 -4.9903962307280966e-03
      -8.3356201334066474e-02 -3.3918742820553245e-02
      -2.4788604538457625e-02 -1.6990479556454142e-02
      2.0294063900490423e-02 -2.6860123817626747e-02
      2.1242930087928553e-02 1.7150129228533650e-02
      2.4852663574231975e-02 -4.4408466369062802e-02
      -2.5262679100940318e-02 -1.7793357739716131e-02
      -2.3570462346308638e-02 1.3454512942351008e-02
      2.4018176140273430e-02 -2.4888858177558405e-02
      2.4241949450062403e-02 -1.6403103758929553e-02
      4.2276568749291053e-02 -4.2901299953734678e-02
      1.6674079158578645e-02 -2.5587143502759362e-02
      -2.3560672773401355e-02 -2.6472060709752717e-02
      -2.7475768739907310e-02 2.6699389901691670e-02
      -3.6136933690641707e-02 4.0251126833405204e-02
      -2.0442224185524046e-02 -2.5956514901577347e-02
      2.9272701158152580e-02 3.6082084740556068e-02
      -4.3654301686427685e-02 -1.6032878643736186e-02
      -1.2879894547423361e-02 -2.4546757457572829e-02
      -2.6073418996347891e-02 -1.2367372992662287e-02
      3.0413954452578332e-02 2.3620048511710096e-02
      -3.8428665117389418e-02 -1.8201449878596676e-02
      -1.2242845486216855e-02 -5.7856481956229328e-03
      6.3086153247541386e-03 -1.2011539817885833e-03
      5.5445492824670647e-03 6.0711584109221896e-03
      2.0151449296020485e-03 -2.7210990957808056e-02
      -2.9509695035371242e-03 -4.5780262530235602e-03
      -5.5168035487748466e-03 5.5686132025841882e-03
      1.4181649639707973e-03 -3.9218928810811991e-03
      2.9560846250098591e-04 -4.8717738644048318e-03
      2.4881214515707378e-02 -2.5493218874938724e-02
      5.7236132643973805e-03 -2.7536131324648904e-03
      -2.6534532635091342e-04 -1.0570093511310592e-02
      -2.9700889257519561e-03 5.4894500661787000e-04
      -2.1972761858058611e-02 2.2864235433230129e-02
      -4.3490882809513725e-03 -3.2120732966242106e-03
      1.1588916173680368e-02 1.9602119162206867e-02
      -2.5152654688299837e-02 -5.3806942733469814e-03
      -4.7225659984548385e-03 -8.0381619745322527e-04
      -9.9011960677689841e-03 -5.0880774089594486e-03
      1.6815504136183511e-02 9.6318758709737391e-03
      -1.8378834724898017e-02 -9.9703905361020542e-03
      -6.9185188888306161e-03 4.0873700248365998e-04
      3.4372613305972315e-03 5.9588900443041486e-03
      -1.6591175463149541e-03 2.4599447230576662e-03
      -7.8231016824452139e-03 -1.6336760609051388e-02
      8.2996506895128153e-04 -2.8199913652697060e-03
      8.2003252288738004e-04 5.7203477486102213e-06
      -8.3409433243227266e-03 1.9362756074244483e-03
      -7.1423160587129374e-03 -2.9064056459259242e-03
      1.3835767261646603e-02 -1.4997138466765352e-02
      3.0222003309064395e-03 4.8259738343243456e-03
      8.7647496804181546e-03 -8.1239545054628895e-03
      2.5097740129893255e-03 -7.0946184534537533e-03
      -1.1787005084090115e-02 1.4691105861217064e-02
      -1.2652626572541787e-03 3.7899831863548407e-03
      7.1483104445692952e-03 1.2637182389621299e-02
      -1.4750436557524586e-02 -5.0293225360816202e-04
      -2.2976835062774614e-03 6.4105739682637436e-03
      -5.6222195929436216e-03 -1.4521717051272991e-03
      8.7290918869518952e-03 6.5532570050902822e-03
      -3.4402175523353416e-02 -1.5521853463411594e-02
      -8.4640637918026573e-03 -2.9082617670731148e-03
      5.0777001632748252e-03 2.4347819957795747e-03
      1.4191825019879954e-03 3.8236631773594003e-03
      -5.6342417385112104e-03 -2.9396823748642678e-02
      -6.3677661376177711e-04 -3.3964137209807834e-03
      -2.0301343316122028e-03 2.7258856926944603e-03
      -3.2138602868442947e-03 -5.0624710591217414e-04
      -3.3334050257427215e-03 -2.1025927870909509e-03
      2.6645750263358369e-02 -2.8356617975153323e-02
      3.7941556789761691e-03 3.0670114526122776e-03
      3.2234953097678501e-03 -9.0217136043368867e-03
      1.7490225314304522e-03 -2.8407685905861998e-03
      -1.9951105161902124e-02 2.2709186469995580e-02
      -2.6134586678578115e-03 5.9511482879779265e-04
      1.0524593310221366e-02 1.6907020829193788e-02
      -3.1200002959065689e-02 -1.8987736656976230e-03
      -2.4287670066084639e-03 2.0138192116981703e-03
      -8.0141427120843239e-03 -1.0513462598532076e-03
      1.2087491263564908e-02 6.7990572481115641e-03
      -7.8357627964096538e-02 -3.0291405101148309e-02
      -2.3660219380141619e-02 -8.0513530319150459e-03
      2.0991282168343246e-02 -1.0998635959609693e-03
      7.0801301847579715e-03 1.6509246468441936e-02
      2.0058439937154547e-03 -4.2937793662632603e-02
      -6.3269906368546716e-03 -1.7844548891144348e-02
      -6.8158972777228564e-03 1.0863239721341629e-02
      2.8676845502710943e-04 -6.4247662238339099e-03
      1.2250491577477682e-03 -1.4924575088300375e-02
      4.0406302480385216e-02 -4.4585175287065383e-02
      1.4757760504440241e-02 -1.1933442608465493e-03
      -4.6311610696945610e-04 -2.3359980917512808e-02
      -5.1737789225842238e-03 2.4742493122982862e-03
      -3.5429090238371888e-02 3.6251959477386984e-02
      -8.6613546532075848e-03 -5.0954415869100310e-03
      2.5892562902335329e-02 3.2661881010153590e-02
      -4.6622277352956890e-02 -8.4690156830239567e-03
      -1.2335111296255398e-02 -2.9130480975826860e-03
      -2.2770988849846522e-02 -7.9866935976889517e-03
      2.7580538558748976e-02 2.2246677214044053e-02
      -2.5349566833231901e-02 -9.1494121269126653e-03
      -6.8567572481908184e-03 -4.2504460515199098e-04
      4.6735728554735635e-03 3.0407163919187684e-03
      -1.1860213340856021e-04 5.6415822980281768e-03
      -2.0637695848613772e-03 -2.0531487201721717e-02
      5.9075325136313860e-04 -5.7671401027671858e-03
      1.0018837768803173e-03 -2.8312243336669042e-04
      -3.1961491907055686e-03 2.4613797222424560e-03
      -2.6954545432316145e-03 -2.4191482956894953e-03
      1.7107513315217423e-02 -1.7638843562982377e-02
      4.4456905080401624e-03 2.2775568118260357e-03
      8.8684837623911048e-04 -6.9902552582698559e-03
      2.5364617472002659e-03 -1.4001183368560694e-03
      -1.2714064671648061e-02 1.3653928585682712e-02
      4.1184811572323384e-06 9.9585843592261080e-04
      9.0566402151441988e-03 1.2321893949006259e-02
      -1.9473418512031136e-02 -5.9391495272576630e-04
      -4.6442985560750215e-04 2.1397815601396763e-03
      -6.9376871157566843e-03 -1.2068505219577745e-03
      1.0283675415660019e-02 7.4334634086022939e-03
      -4.1375287821180440e-02 -2.5558691932411740e-02
      -2.0312493244953465e-02 7.9672828629735477e-03
      1.6485498404150388e-02 1.8052938560636445e-02
      -9.0649681806410799e-03 1.2091878155226641e-02
      -2.2472379836456689e-02 -2.6340980234022721e-02
      8.9909130189574898e-03 -1.0529410858923916e-02
      9.2481549502924903e-03 2.2019030929320096e-03
      -2.5498168146569061e-02 1.2227262379257788e-02
      -2.3046248762555996e-02 -6.5375696739790644e-03
      2.3983510611151209e-02 -2.5601651203487778e-02
      9.8454033632471762e-03 1.8736651245559306e-02
      2.3976749841191705e-02 -1.7265508313709189e-02
      1.1472552643016025e-02 -2.1267855093074498e-02
      -2.2589055071065813e-02 2.6077269818889203e-02
      7.4819670079336849e-03 1.1423763325192560e-02
      1.8800639595606575e-02 2.5166043306534089e-02
      -2.6194303337485864e-02 4.8199449355317758e-03
      -3.7136810318912018e-03 1.9741330459075390e-02
      -1.8908169651398323e-02 3.7682563622943953e-04
      2.3021789125013663e-02 1.5968523425832114e-02
      -8.2092369170484764e-02 -2.6447868124796114e-02
      -1.9299765955636740e-02 -1.2693582508780986e-02
      1.5490814936885170e-02 -1.6223936953120112e-02
      1.5533417466698686e-02 1.5132942312857360e-02
      1.4826051412221080e-02 -3.8881185895535915e-02
      -1.8590558015775908e-02 -1.4622594754802822e-02
      -1.5922805455926236e-02 8.1034155117326347e-03
      1.4594221253755143e-02 -1.9186300445325915e-02
      1.4371290892908749e-02 -1.2318710537340840e-02
      3.5338371927366170e-02 -3.7479905679245126e-02
      1.1443704760584601e-02 -1.5339690577687521e-02
      -1.5578957839089897e-02 -1.9532782923358388e-02
      -1.8253032212037192e-02 1.5317031612714199e-02
      -2.9424191512897952e-02 3.1975637193152488e-02
      -1.4274844299624575e-02 -1.8713608480989626e-02
      2.1463824450659634e-02 2.8002461484328309e-02
      -4.1203423057803619e-02 -9.8815240016002850e-03
      -9.8999951539296260e-03 -1.6355752478389697e-02
      -2.0485359886797450e-02 -9.5980469070088021e-03
      2.3362355133639254e-02 1.8342128979247765e-02
      9.5514162209633172e-02 3.2901521556688552e-02
      2.6005565856849978e-02 1.2781875260704673e-02
      -2.5008111775063971e-02 6.3160675764210115e-03
      -1.0029587592940186e-02 -2.0692133126653814e-02
      3.9094994948378672e-03 2.9402227842407036e-02
      1.0175919595477537e-02 2.1177897645734686e-02
      1.1435064323408807e-02 -1.5061971818893880e-02
      3.9414079064511789e-03 9.8741157735639257e-03
      2.5454150302642916e-03 1.8116952430234930e-02
      -3.2010864467413427e-02 3.0051233014316982e-02
      -1.9235246773243016e-02 9.1364756860354713e-04
      -3.1269116314162552e-03 2.7468609303073911e-02
      1.0051298442467427e-02 1.0035110831187312e-03
      3.2095161179357991e-02 -3.2827396876474561e-02
      1.0273842853087455e-02 1.0754220617687518e-02
      -2.8617939231547301e-02 -3.2795142993889768e-02
      3.0316574171612872e-02 1.3787729381223496e-02
      1.7601238542345646e-02 -2.2095032998794228e-04
      2.6015041881270275e-02 1.6518493375819267e-02
      -3.1032342894277382e-02 -2.6431837149885708e-02
      -8.9528219472909787e-02 -3.5902194679770523e-02
      -2.9649222910941915e-02 -8.4098798362059798e-03
      2.5920621950549245e-02 -3.7650261351648484e-03
      7.3827935536657629e-03 2.1948250925900432e-02
      8.0243019118819581e-03 -4.2401720516683956e-02
      -7.0804186346103259e-03 -2.2699984183164584e-02
      -6.3004496701815488e-03 1.0714133631321064e-02
      1.0029922823267218e-02 -6.5924153523099285e-03
      8.7178973978281737e-03 -1.7949099517219704e-02
      4.3182037065373859e-02 -4.2633042973906105e-02
      1.9912865163729261e-02 -5.7497360866426020e-03
      -9.9248514917569235e-03 -2.8547065864765277e-02
      -5.7886442524569797e-03 6.8463395915053047e-03
      -3.7301107808437185e-02 3.9832059674746886e-02
      -6.7932728139041736e-03 -6.2214355891410224e-03
      3.0769265626988257e-02 3.6187047642332264e-02
      -4.1887934749267504e-02 -6.8318408320323341e-03
      -1.3467270688786110e-02 -7.1169732003124380e-03
      -2.8533468104859117e-02 -8.3006675650898250e-03
      3.2463725037633208e-02 2.7060211363902176e-02
      -1.1890101699051477e-02 -1.2982415631533328e-02
      -9.9114367774829661e-03 -3.2768426757252264e-04
      9.6152214523879745e-03 -6.5436009855227295e-03
      1.8469930108653172e-03 6.3893481639247726e-03
      1.4324071361402853e-02 -1.4968790196535093e-02
      -3.6687242657434294e-03 -5.9710440797341741e-03
      -1.4159543342654197e-03 2.7554966882992749e-03
      1.5501982467278907e-02 -1.6284288528612121e-03
