<?xml version="1.0"?>
<opencv_storage>
<shapeML type_id="opencv-ml-ann-mlp">
  <layer_sizes type_id="opencv-matrix">
    <rows>1</rows>
    <cols>3</cols>
    <dt>i</dt>
    <data>
      1600 40 1</data></layer_sizes>
  <activation_function>SIGMOID_SYM</activation_function>
  <f_param1>5.9999999999999998e-01</f_param1>
  <f_param2>1.</f_param2>
  <min_val>-9.4999999999999996e-01</min_val>
  <max_val>9.4999999999999996e-01</max_val>
  <min_val1>-9.7999999999999998e-01</min_val1>
  <max_val1>9.7999999999999998e-01</max_val1>
  <training_params>
    <train_method>BACKPROP</train_method>
    <dw_scale>1.0000000000000001e-01</dw_scale>
    <moment_scale>1.0000000000000001e-01</moment_scale>
    <term_criteria><epsilon>9.9999999747524271e-07</epsilon>
      <iterations>4000</iterations></term_criteria></training_params>
  <input_scale>
    1. 0. 3.3737774527201288e-02 -1.1785113019775793e-01
    3.3737774527201288e-02 -1.1785113019775793e-01
    3.3737774527201288e-02 -1.1785113019775793e-01
    1.9754817973330140e-02 -2.0701966780270628e-01
    1.9754817973330140e-02 -2.0701966780270628e-01
    3.3737774527201288e-02 -1.1785113019775793e-01
    3.3737774527201288e-02 -1.1785113019775793e-01
    2.4023623198297376e-02 -1.6783627165933784e-01
    3.3737774527201288e-02 -1.1785113019775793e-01
    2.4023623198297376e-02 -1.6783627165933784e-01
    2.4023623198297376e-02 -1.6783627165933784e-01
    2.4023623198297376e-02 -1.6783627165933784e-01
    1.7231700539727748e-02 -2.4077170617153840e-01
    1.9754817973330140e-02 -2.0701966780270628e-01
    1.2553967727335909e-02 -3.5082320772281173e-01
    1.2553967727335909e-02 -3.5082320772281173e-01
    3.3737774527201288e-02 -1.1785113019775793e-01
    1.9754817973330140e-02 -2.0701966780270628e-01
    9.7056148557488550e-03 -5.0854762771560780e-01
    8.7928516723291064e-03 -6.1429511683395133e-01
    1.0250271726446785e-02 -4.6547466812563143e-01
    1.2553967727335909e-02 -3.5082320772281173e-01
    1.3318695560605564e-02 -3.2566947363946486e-01 1. 0.
    3.3737774527201288e-02 -1.1785113019775793e-01
    2.4023623198297376e-02 -1.6783627165933784e-01
    1.7231700539727748e-02 -2.4077170617153840e-01
    1.9754817973330140e-02 -2.0701966780270628e-01
    1.9754817973330140e-02 -2.0701966780270628e-01
    1.5525415118394021e-02 -2.7116307227332026e-01
    2.4023623198297376e-02 -1.6783627165933784e-01
    1.9754817973330140e-02 -2.0701966780270628e-01
    2.4023623198297376e-02 -1.6783627165933784e-01
    1.7231700539727748e-02 -2.4077170617153840e-01
    1.7231700539727748e-02 -2.4077170617153840e-01
    3.3737774527201288e-02 -1.1785113019775793e-01
    3.3737774527201288e-02 -1.1785113019775793e-01
    3.3737774527201288e-02 -1.1785113019775793e-01
    3.3737774527201288e-02 -1.1785113019775793e-01
    3.3737774527201288e-02 -1.1785113019775793e-01
    2.4023623198297376e-02 -1.6783627165933784e-01
    3.3737774527201288e-02 -1.1785113019775793e-01
    2.4023623198297376e-02 -1.6783627165933784e-01
    1.7231700539727748e-02 -2.4077170617153840e-01
    1.7231700539727748e-02 -2.4077170617153840e-01
    1.7231700539727748e-02 -2.4077170617153840e-01
    1.7231700539727748e-02 -2.4077170617153840e-01
    1.7231700539727748e-02 -2.4077170617153840e-01
    1.7231700539727748e-02 -2.4077170617153840e-01
    1.1405449474694214e-02 -3.9840953644479793e-01
    1.1405449474694214e-02 -3.9840953644479793e-01
    1.0962017532926725e-02 -4.2121176958711593e-01
    9.7056148557488550e-03 -5.0854762771560780e-01
    9.0984011784219932e-03 -5.7207755354735546e-01
    8.6630607617299172e-03 -6.3548890930224256e-01
    8.6630607617299172e-03 -6.3548890930224256e-01
    8.1231015353449218e-03 -7.6613087768287380e-01
    8.0648706660368264e-03 -7.8881063774661564e-01
    8.4417747445548960e-03 -6.7823299831252692e-01
    8.0141477058386992e-03 -8.1184414088598877e-01
    8.5464597419484013e-03 -6.5678957742918542e-01
    8.5464597419484013e-03 -6.5678957742918542e-01
    8.9373548033285840e-03 -5.9317101400173966e-01
    9.4794962809557053e-03 -5.2981294282601754e-01
    1.0250271726446785e-02 -4.6547466812563143e-01
    1.3318695560605564e-02 -3.2566947363946486e-01
    1.3318695560605564e-02 -3.2566947363946486e-01
    1.2553967727335909e-02 -3.5082320772281173e-01
    1.2553967727335909e-02 -3.5082320772281173e-01
    1.3318695560605564e-02 -3.2566947363946486e-01
    1.3318695560605564e-02 -3.2566947363946486e-01
    1.3318695560605564e-02 -3.2566947363946486e-01
    1.3318695560605564e-02 -3.2566947363946486e-01
    1.3318695560605564e-02 -3.2566947363946486e-01
    1.4278074810952394e-02 -2.9925280083228989e-01
    2.4023623198297376e-02 -1.6783627165933784e-01
    2.4023623198297376e-02 -1.6783627165933784e-01
    2.4023623198297376e-02 -1.6783627165933784e-01
    1.9754817973330140e-02 -2.0701966780270628e-01 1. 0.
    2.4023623198297376e-02 -1.6783627165933784e-01
    2.4023623198297376e-02 -1.6783627165933784e-01
    2.4023623198297376e-02 -1.6783627165933784e-01
    1.7231700539727748e-02 -2.4077170617153840e-01
    1.4278074810952394e-02 -2.9925280083228989e-01
    1.3318695560605564e-02 -3.2566947363946486e-01
    1.4278074810952394e-02 -2.9925280083228989e-01
    1.0581010348957611e-02 -4.4353276257274371e-01
    1.0962017532926725e-02 -4.2121176958711593e-01
    9.2782101606486284e-03 -5.5097316501933979e-01
    9.2782101606486284e-03 -5.5097316501933979e-01
    8.4417747445548960e-03 -6.7823299831252692e-01
    8.0648706660368264e-03 -7.8881063774661564e-01
    8.1231015353449218e-03 -7.6613087768287380e-01
    7.8794465543357197e-03 -9.0829510622924770e-01
    7.8794465543357197e-03 -9.0829510622924770e-01
    7.8794465543357197e-03 -9.0829510622924770e-01
    7.8497686840817600e-03 -9.5971486993739330e-01
    8.1893055767481345e-03 -7.4376843799781012e-01
    7.9034327484939198e-03 -8.8345220859877249e-01
    8.0141477058386992e-03 -8.1184414088598877e-01
    8.4417747445548960e-03 -6.7823299831252692e-01
    8.4417747445548960e-03 -6.7823299831252692e-01
    8.0141477058386992e-03 -8.1184414088598877e-01
    8.0141477058386992e-03 -8.1184414088598877e-01
    8.9373548033285840e-03 -5.9317101400173966e-01
    9.7056148557488550e-03 -5.0854762771560780e-01
    9.7056148557488550e-03 -5.0854762771560780e-01
    1.0962017532926725e-02 -4.2121176958711593e-01
    1.1405449474694214e-02 -3.9840953644479793e-01
    1.1928104575163398e-02 -3.7500000000000000e-01
    1.0962017532926725e-02 -4.2121176958711593e-01
    1.1405449474694214e-02 -3.9840953644479793e-01
    1.1928104575163398e-02 -3.7500000000000000e-01
    1.1928104575163398e-02 -3.7500000000000000e-01
    1.7231700539727748e-02 -2.4077170617153840e-01
    1.7231700539727748e-02 -2.4077170617153840e-01
    2.4023623198297376e-02 -1.6783627165933784e-01
    3.3737774527201288e-02 -1.1785113019775793e-01 1. 0.
    3.3737774527201288e-02 -1.1785113019775793e-01
    2.4023623198297376e-02 -1.6783627165933784e-01
    1.9754817973330140e-02 -2.0701966780270628e-01
    1.4278074810952394e-02 -2.9925280083228989e-01
    1.4278074810952394e-02 -2.9925280083228989e-01
    1.3318695560605564e-02 -3.2566947363946486e-01
    9.7056148557488550e-03 -5.0854762771560780e-01
    9.7056148557488550e-03 -5.0854762771560780e-01
    8.9373548033285840e-03 -5.9317101400173966e-01
    8.7928516723291064e-03 -6.1429511683395133e-01
    7.9337258175646297e-03 -8.5912469298422467e-01
    8.0648706660368264e-03 -7.8881063774661564e-01
    7.9034327484939198e-03 -8.8345220859877249e-01
    7.8794465543357197e-03 -9.0829510622924770e-01
    7.8438732505170475e-03 -9.8639392383214386e-01
    7.9705414483232200e-03 -1.1972189997378644e+00
    7.9337258175646297e-03 -1.1639753904947561e+00
    7.8438732505170458e-03 -1.0137937550497031e+00
    7.8794465543357197e-03 -9.0829510622924770e-01
    7.8794465543357197e-03 -1.1009637651263608e+00
    7.8615995403567736e-03 -1.0710083209431247e+00
    7.8497686840817600e-03 -1.0419761445034557e+00
    7.8497686840817600e-03 -9.5971486993739330e-01
    7.8794465543357197e-03 -9.0829510622924770e-01
    7.9705414483232217e-03 -8.3526906958455682e-01
    8.1893055767481345e-03 -7.4376843799781012e-01
    7.9034327484939198e-03 -8.8345220859877249e-01
    9.4794962809557053e-03 -5.2981294282601754e-01
    9.7056148557488550e-03 -5.0854762771560780e-01
    9.4794962809557053e-03 -5.2981294282601754e-01
    9.4794962809557053e-03 -5.2981294282601754e-01
    1.1405449474694214e-02 -3.9840953644479793e-01
    1.1928104575163398e-02 -3.7500000000000000e-01
    1.0962017532926725e-02 -4.2121176958711593e-01
    1.1405449474694214e-02 -3.9840953644479793e-01
    1.2553967727335909e-02 -3.5082320772281173e-01
    1.5525415118394021e-02 -2.7116307227332026e-01
    2.4023623198297376e-02 -1.6783627165933784e-01
    3.3737774527201288e-02 -1.1785113019775793e-01 1. 0.
    3.3737774527201288e-02 -1.1785113019775793e-01
    3.3737774527201288e-02 -1.1785113019775793e-01
    1.4278074810952394e-02 -2.9925280083228989e-01
    1.2553967727335909e-02 -3.5082320772281173e-01
    1.3318695560605564e-02 -3.2566947363946486e-01
    9.9607641267966951e-03 -4.8712230044745486e-01
    9.7056148557488550e-03 -5.0854762771560780e-01
    9.0984011784219932e-03 -5.7207755354735546e-01
    8.6630607617299172e-03 -6.3548890930224256e-01
    7.9705414483232217e-03 -8.3526906958455682e-01
    7.8794465543357197e-03 -9.0829510622924770e-01
    7.9034327484939198e-03 -8.8345220859877249e-01
    7.8497686840817600e-03 -9.5971486993739330e-01
    7.8497686840817600e-03 -9.5971486993739330e-01
    7.9034327484939198e-03 -8.8345220859877249e-01
    8.0141477058386992e-03 -1.2317635241028797e+00
    7.8497686840817600e-03 -1.0419761445034557e+00
    7.8615995403567753e-03 -9.3369956184785263e-01
    7.8615995403567753e-03 -9.3369956184785263e-01
    7.8615995403567736e-03 -1.0710083209431247e+00
    7.8497686840817600e-03 -9.5971486993739330e-01
    7.8497686840817600e-03 -9.5971486993739330e-01
    7.8794465543357197e-03 -9.0829510622924770e-01
    8.0648706660368264e-03 -7.8881063774661564e-01
    7.8794465543357197e-03 -9.0829510622924770e-01
    7.8497686840817600e-03 -9.5971486993739330e-01
    7.8497686840817600e-03 -9.5971486993739330e-01
    8.0141477058386992e-03 -8.1184414088598877e-01
    8.3479342307736706e-03 -6.9985421222376532e-01
    8.7928516723291064e-03 -6.1429511683395133e-01
    9.4794962809557053e-03 -5.2981294282601754e-01
    9.4794962809557053e-03 -5.2981294282601754e-01
    1.0962017532926725e-02 -4.2121176958711593e-01
    1.0962017532926725e-02 -4.2121176958711593e-01
    1.0250271726446785e-02 -4.6547466812563143e-01
    1.3318695560605564e-02 -3.2566947363946486e-01
    1.4278074810952394e-02 -2.9925280083228989e-01
    2.4023623198297376e-02 -1.6783627165933784e-01
    3.3737774527201288e-02 -1.1785113019775793e-01 1. 0.
    3.3737774527201288e-02 -1.1785113019775793e-01
    1.7231700539727748e-02 -2.4077170617153840e-01
    1.5525415118394021e-02 -2.7116307227332026e-01
    1.3318695560605564e-02 -3.2566947363946486e-01
    9.9607641267966951e-03 -4.8712230044745486e-01
    9.0984011784219932e-03 -5.7207755354735546e-01
    9.0984011784219932e-03 -5.7207755354735546e-01
    8.2640332648711134e-03 -7.2168783648703216e-01
    7.9337258175646297e-03 -8.5912469298422467e-01
    7.9705414483232217e-03 -8.3526906958455682e-01
    7.9034327484939198e-03 -8.8345220859877249e-01
    7.8497686840817600e-03 -9.5971486993739330e-01
    8.1893055767481345e-03 -7.4376843799781012e-01
    7.9705414483232217e-03 -8.3526906958455682e-01
    7.8497686840817600e-03 -1.0419761445034557e+00
    8.3479342307736671e-03 -1.4288690166235201e+00
    7.9337258175646297e-03 -1.1639753904947561e+00
    8.1231015353449218e-03 -1.3052600138300814e+00
    7.8438732505170458e-03 -1.0137937550497031e+00
    7.8497686840817600e-03 -1.0419761445034557e+00
    8.1231015353449218e-03 -1.3052600138300814e+00
    7.8615995403567753e-03 -9.3369956184785263e-01
    7.8615995403567753e-03 -9.3369956184785263e-01
    7.8794465543357197e-03 -1.1009637651263608e+00
    7.9337258175646297e-03 -1.1639753904947561e+00
    7.9034327484939181e-03 -1.1319231422671769e+00
    7.8615995403567736e-03 -1.0710083209431247e+00
    7.9705414483232217e-03 -8.3526906958455682e-01
    8.1231015353449218e-03 -7.6613087768287380e-01
    8.4417747445548960e-03 -6.7823299831252692e-01
    8.4417747445548960e-03 -6.7823299831252692e-01
    9.4794962809557053e-03 -5.2981294282601754e-01
    9.2782101606486284e-03 -5.5097316501933979e-01
    9.9607641267966951e-03 -4.8712230044745486e-01
    1.0581010348957611e-02 -4.4353276257274371e-01
    1.2553967727335909e-02 -3.5082320772281173e-01
    1.4278074810952394e-02 -2.9925280083228989e-01
    1.7231700539727748e-02 -2.4077170617153840e-01
    2.4023623198297376e-02 -1.6783627165933784e-01 1. 0.
    2.4023623198297376e-02 -1.6783627165933784e-01
    1.7231700539727748e-02 -2.4077170617153840e-01
    1.0250271726446785e-02 -4.6547466812563143e-01
    1.0250271726446785e-02 -4.6547466812563143e-01
    9.7056148557488550e-03 -5.0854762771560780e-01
    9.0984011784219932e-03 -5.7207755354735546e-01
    8.7928516723291064e-03 -6.1429511683395133e-01
    8.0141477058386992e-03 -8.1184414088598877e-01
    8.0141477058386992e-03 -8.1184414088598877e-01
    8.0648706660368264e-03 -7.8881063774661564e-01
    7.8438732505170475e-03 -9.8639392383214386e-01
    7.8615995403567736e-03 -1.0710083209431247e+00
    7.8497686840817600e-03 -1.0419761445034557e+00
    8.3479342307736671e-03 -1.4288690166235201e+00
    8.1231015353449218e-03 -1.3052600138300814e+00
    8.0648706660368247e-03 -1.2677313820927747e+00
    8.2640332648711151e-03 -1.3856406460551021e+00
    8.4417747445548960e-03 -1.4744195615489717e+00
    8.1231015353449218e-03 -1.3052600138300814e+00
    8.0648706660368247e-03 -1.2677313820927747e+00
    7.9034327484939181e-03 -1.1319231422671769e+00
    7.8497686840817600e-03 -1.0419761445034557e+00
    7.8615995403567736e-03 -1.0710083209431247e+00
    7.8497686840817600e-03 -9.5971486993739330e-01
    7.9337258175646297e-03 -1.1639753904947561e+00
    7.9705414483232200e-03 -1.1972189997378644e+00
    7.8615995403567736e-03 -1.0710083209431247e+00
    7.8497686840817600e-03 -1.0419761445034557e+00
    7.9337258175646297e-03 -1.1639753904947561e+00
    8.0141477058386992e-03 -8.1184414088598877e-01
    8.1893055767481345e-03 -7.4376843799781012e-01
    8.4417747445548960e-03 -6.7823299831252692e-01
    9.0984011784219932e-03 -5.7207755354735546e-01
    9.0984011784219932e-03 -5.7207755354735546e-01
    1.1928104575163398e-02 -3.7500000000000000e-01
    1.1928104575163398e-02 -3.7500000000000000e-01
    1.2553967727335909e-02 -3.5082320772281173e-01
    1.5525415118394021e-02 -2.7116307227332026e-01
    2.4023623198297376e-02 -1.6783627165933784e-01 1. 0.
    1.9754817973330140e-02 -2.0701966780270628e-01
    1.7231700539727748e-02 -2.4077170617153840e-01
    9.9607641267966951e-03 -4.8712230044745486e-01
    9.7056148557488550e-03 -5.0854762771560780e-01
    1.1928104575163398e-02 -3.7500000000000000e-01
    8.5464597419484013e-03 -6.5678957742918542e-01
    7.9034327484939198e-03 -8.8345220859877249e-01
    7.9034327484939198e-03 -8.8345220859877249e-01
    8.0648706660368264e-03 -7.8881063774661564e-01
    7.8615995403567753e-03 -9.3369956184785263e-01
    8.0648706660368247e-03 -1.2677313820927747e+00
    8.1893055767481345e-03 -1.3445044840729643e+00
    8.6630607617299189e-03 -1.5735915849388866e+00
    8.5464597419483996e-03 -1.5225576567676566e+00
    8.0648706660368247e-03 -1.2677313820927747e+00
    7.9034327484939181e-03 -1.1319231422671769e+00
    8.1231015353449218e-03 -1.3052600138300814e+00
    8.1231015353449218e-03 -1.3052600138300814e+00
    8.1893055767481345e-03 -1.3445044840729643e+00
    8.0141477058386992e-03 -1.2317635241028797e+00
    7.9034327484939181e-03 -1.1319231422671769e+00
    8.5464597419483996e-03 -1.5225576567676566e+00
    8.4417747445548960e-03 -1.4744195615489717e+00
    8.1231015353449218e-03 -1.3052600138300814e+00
    7.8794465543357197e-03 -1.1009637651263608e+00
    7.9705414483232200e-03 -1.1972189997378644e+00
    7.9705414483232200e-03 -1.1972189997378644e+00
    7.8497686840817600e-03 -9.5971486993739330e-01
    7.8438732505170475e-03 -9.8639392383214386e-01
    7.8497686840817600e-03 -1.0419761445034557e+00
    7.9705414483232217e-03 -8.3526906958455682e-01
    8.2640332648711134e-03 -7.2168783648703216e-01
    8.3479342307736706e-03 -6.9985421222376532e-01
    9.4794962809557053e-03 -5.2981294282601754e-01
    1.0250271726446785e-02 -4.6547466812563143e-01
    1.1928104575163398e-02 -3.7500000000000000e-01
    1.3318695560605564e-02 -3.2566947363946486e-01
    1.5525415118394021e-02 -2.7116307227332026e-01
    1.7231700539727748e-02 -2.4077170617153840e-01
    3.3737774527201288e-02 -1.1785113019775793e-01
    1.9754817973330140e-02 -2.0701966780270628e-01
    1.5525415118394021e-02 -2.7116307227332026e-01
    1.1928104575163398e-02 -3.7500000000000000e-01
    1.0962017532926725e-02 -4.2121176958711593e-01
    9.7056148557488550e-03 -5.0854762771560780e-01
    8.0648706660368264e-03 -7.8881063774661564e-01
    7.8497686840817600e-03 -9.5971486993739330e-01
    7.8615995403567753e-03 -9.3369956184785263e-01
    7.8497686840817600e-03 -9.5971486993739330e-01
    7.8438732505170458e-03 -1.0137937550497031e+00
    8.1231015353449218e-03 -1.3052600138300814e+00
    8.0648706660368247e-03 -1.2677313820927747e+00
    8.1231015353449218e-03 -1.3052600138300814e+00
    7.9034327484939181e-03 -1.1319231422671769e+00
    7.8794465543357197e-03 -1.1009637651263608e+00
    7.9034327484939181e-03 -1.1319231422671769e+00
    8.0648706660368247e-03 -1.2677313820927747e+00
    7.9705414483232200e-03 -1.1972189997378644e+00
    8.0141477058386992e-03 -1.2317635241028797e+00
    7.8615995403567753e-03 -9.3369956184785263e-01
    8.1893055767481345e-03 -1.3445044840729643e+00
    8.1231015353449218e-03 -1.3052600138300814e+00
    8.1893055767481345e-03 -1.3445044840729643e+00
    8.0648706660368247e-03 -1.2677313820927747e+00
    8.3479342307736671e-03 -1.4288690166235201e+00
    8.2640332648711151e-03 -1.3856406460551021e+00
    7.8438732505170458e-03 -1.0137937550497031e+00
    7.8497686840817600e-03 -1.0419761445034557e+00
    7.8794465543357197e-03 -1.1009637651263608e+00
    7.8497686840817600e-03 -1.0419761445034557e+00
    7.8615995403567736e-03 -1.0710083209431247e+00
    7.8438732505170475e-03 -9.8639392383214386e-01
    8.0141477058386992e-03 -8.1184414088598877e-01
    8.4417747445548960e-03 -6.7823299831252692e-01
    1.0250271726446785e-02 -4.6547466812563143e-01
    9.9607641267966951e-03 -4.8712230044745486e-01
    1.3318695560605564e-02 -3.2566947363946486e-01
    1.5525415118394021e-02 -2.7116307227332026e-01
    1.7231700539727748e-02 -2.4077170617153840e-01 1. 0.
    1.7231700539727748e-02 -2.4077170617153840e-01
    1.5525415118394021e-02 -2.7116307227332026e-01
    1.2553967727335909e-02 -3.5082320772281173e-01
    9.4794962809557053e-03 -5.2981294282601754e-01
    8.0141477058386992e-03 -8.1184414088598877e-01
    8.0648706660368264e-03 -7.8881063774661564e-01
    7.9705414483232217e-03 -8.3526906958455682e-01
    7.8497686840817600e-03 -9.5971486993739330e-01
    7.9034327484939198e-03 -8.8345220859877249e-01
    7.8615995403567736e-03 -1.0710083209431247e+00
    7.8438732505170458e-03 -1.0137937550497031e+00
    7.9337258175646297e-03 -1.1639753904947561e+00
    8.0141477058386992e-03 -1.2317635241028797e+00
    7.9337258175646297e-03 -1.1639753904947561e+00
    8.1231015353449218e-03 -1.3052600138300814e+00
    7.9034327484939181e-03 -1.1319231422671769e+00
    8.0141477058386992e-03 -1.2317635241028797e+00
    7.8438732505170475e-03 -9.8639392383214386e-01
    7.8794465543357197e-03 -1.1009637651263608e+00
    8.0648706660368247e-03 -1.2677313820927747e+00
    7.9337258175646297e-03 -1.1639753904947561e+00
    8.1893055767481345e-03 -1.3445044840729643e+00
    8.0141477058386992e-03 -1.2317635241028797e+00
    8.1231015353449218e-03 -1.3052600138300814e+00
    8.5464597419483996e-03 -1.5225576567676566e+00
    8.0648706660368247e-03 -1.2677313820927747e+00
    8.3479342307736671e-03 -1.4288690166235201e+00
    7.9337258175646297e-03 -1.1639753904947561e+00
    7.9337258175646297e-03 -1.1639753904947561e+00
    7.8794465543357197e-03 -1.1009637651263608e+00
    7.8615995403567736e-03 -1.0710083209431247e+00
    7.8497686840817600e-03 -1.0419761445034557e+00
    7.8497686840817600e-03 -9.5971486993739330e-01
    8.0141477058386992e-03 -8.1184414088598877e-01
    8.6630607617299172e-03 -6.3548890930224256e-01
    9.9607641267966951e-03 -4.8712230044745486e-01
    1.3318695560605564e-02 -3.2566947363946486e-01
    1.4278074810952394e-02 -2.9925280083228989e-01
    1.5525415118394021e-02 -2.7116307227332026e-01
    2.4023623198297376e-02 -1.6783627165933784e-01
    1.5525415118394021e-02 -2.7116307227332026e-01
    1.5525415118394021e-02 -2.7116307227332026e-01
    9.4794962809557053e-03 -5.2981294282601754e-01
    8.2640332648711134e-03 -7.2168783648703216e-01
    8.1231015353449218e-03 -7.6613087768287380e-01
    8.6630607617299172e-03 -6.3548890930224256e-01
    8.0141477058386992e-03 -8.1184414088598877e-01
    8.0648706660368264e-03 -7.8881063774661564e-01
    7.8438732505170475e-03 -9.8639392383214386e-01
    7.9337258175646297e-03 -1.1639753904947561e+00
    7.8438732505170458e-03 -1.0137937550497031e+00
    7.8438732505170458e-03 -1.0137937550497031e+00
    7.8794465543357197e-03 -1.1009637651263608e+00
    8.0141477058386992e-03 -1.2317635241028797e+00
    7.9337258175646297e-03 -1.1639753904947561e+00
    8.0648706660368247e-03 -1.2677313820927747e+00
    7.8615995403567736e-03 -1.0710083209431247e+00
    7.8438732505170475e-03 -9.8639392383214386e-01
    7.9337258175646297e-03 -1.1639753904947561e+00
    7.9034327484939181e-03 -1.1319231422671769e+00
    7.8497686840817600e-03 -1.0419761445034557e+00
    8.0141477058386992e-03 -1.2317635241028797e+00
    8.0141477058386992e-03 -1.2317635241028797e+00
    7.9705414483232200e-03 -1.1972189997378644e+00
    8.1893055767481345e-03 -1.3445044840729643e+00
    8.1893055767481345e-03 -1.3445044840729643e+00
    8.5464597419483996e-03 -1.5225576567676566e+00
    8.1893055767481345e-03 -1.3445044840729643e+00
    8.4417747445548960e-03 -1.4744195615489717e+00
    8.0648706660368247e-03 -1.2677313820927747e+00
    7.8794465543357197e-03 -1.1009637651263608e+00
    7.8615995403567736e-03 -1.0710083209431247e+00
    7.8615995403567736e-03 -1.0710083209431247e+00
    7.8794465543357197e-03 -9.0829510622924770e-01
    8.4417747445548960e-03 -6.7823299831252692e-01
    9.4794962809557053e-03 -5.2981294282601754e-01
    1.2553967727335909e-02 -3.5082320772281173e-01
    1.4278074810952394e-02 -2.9925280083228989e-01
    1.7231700539727748e-02 -2.4077170617153840e-01
    2.4023623198297376e-02 -1.6783627165933784e-01
    1.4278074810952394e-02 -2.9925280083228989e-01
    1.3318695560605564e-02 -3.2566947363946486e-01
    8.5464597419484013e-03 -6.5678957742918542e-01
    8.1231015353449218e-03 -7.6613087768287380e-01
    8.5464597419484013e-03 -6.5678957742918542e-01
    8.6630607617299172e-03 -6.3548890930224256e-01
    7.9705414483232217e-03 -8.3526906958455682e-01
    7.8615995403567753e-03 -9.3369956184785263e-01
    7.8497686840817600e-03 -1.0419761445034557e+00
    7.9337258175646297e-03 -1.1639753904947561e+00
    7.9034327484939181e-03 -1.1319231422671769e+00
    7.8497686840817600e-03 -9.5971486993739330e-01
    8.0648706660368264e-03 -7.8881063774661564e-01
    7.8497686840817600e-03 -9.5971486993739330e-01
    8.0648706660368247e-03 -1.2677313820927747e+00
    7.9034327484939181e-03 -1.1319231422671769e+00
    7.8438732505170475e-03 -9.8639392383214386e-01
    7.9034327484939181e-03 -1.1319231422671769e+00
    7.9337258175646297e-03 -1.1639753904947561e+00
    7.8497686840817600e-03 -1.0419761445034557e+00
    7.8615995403567753e-03 -9.3369956184785263e-01
    7.8438732505170475e-03 -9.8639392383214386e-01
    7.9705414483232200e-03 -1.1972189997378644e+00
    7.9034327484939181e-03 -1.1319231422671769e+00
    7.9705414483232200e-03 -1.1972189997378644e+00
    7.9705414483232200e-03 -1.1972189997378644e+00
    8.4417747445548960e-03 -1.4744195615489717e+00
    8.9373548033285840e-03 -1.6858544608470494e+00
    8.7928516723291047e-03 -1.6278820596099706e+00
    8.4417747445548960e-03 -1.4744195615489717e+00
    7.9034327484939181e-03 -1.1319231422671769e+00
    7.9034327484939181e-03 -1.1319231422671769e+00
    7.8497686840817600e-03 -1.0419761445034557e+00
    7.8497686840817600e-03 -1.0419761445034557e+00
    8.0648706660368264e-03 -7.8881063774661564e-01
    9.4794962809557053e-03 -5.2981294282601754e-01
    9.7056148557488550e-03 -5.0854762771560780e-01
    1.4278074810952394e-02 -2.9925280083228989e-01
    1.5525415118394021e-02 -2.7116307227332026e-01
    2.4023623198297376e-02 -1.6783627165933784e-01
    1.4278074810952394e-02 -2.9925280083228989e-01
    1.0250271726446785e-02 -4.6547466812563143e-01
    8.4417747445548960e-03 -6.7823299831252692e-01
    8.1231015353449218e-03 -7.6613087768287380e-01
    8.0141477058386992e-03 -8.1184414088598877e-01
    7.9337258175646297e-03 -8.5912469298422467e-01
    8.0648706660368264e-03 -7.8881063774661564e-01
    7.8497686840817600e-03 -1.0419761445034557e+00
    7.9705414483232200e-03 -1.1972189997378644e+00
    7.8497686840817600e-03 -9.5971486993739330e-01
    7.8794465543357197e-03 -1.1009637651263608e+00
    7.9034327484939181e-03 -1.1319231422671769e+00
    7.9337258175646297e-03 -1.1639753904947561e+00
    8.0141477058386992e-03 -1.2317635241028797e+00
    7.8615995403567736e-03 -1.0710083209431247e+00
    7.8497686840817600e-03 -1.0419761445034557e+00
    7.8615995403567736e-03 -1.0710083209431247e+00
    7.8497686840817600e-03 -1.0419761445034557e+00
    7.8794465543357197e-03 -1.1009637651263608e+00
    7.8438732505170475e-03 -9.8639392383214386e-01
    7.8615995403567753e-03 -9.3369956184785263e-01
    7.8497686840817600e-03 -9.5971486993739330e-01
    7.8794465543357197e-03 -1.1009637651263608e+00
    8.0648706660368247e-03 -1.2677313820927747e+00
    7.8615995403567736e-03 -1.0710083209431247e+00
    8.7928516723291047e-03 -1.6278820596099706e+00
    8.7928516723291047e-03 -1.6278820596099706e+00
    9.4794962809557053e-03 -1.8874586088176872e+00
    8.5464597419483996e-03 -1.5225576567676566e+00
    8.6630607617299189e-03 -1.5735915849388866e+00
    8.1893055767481345e-03 -1.3445044840729643e+00
    7.9337258175646297e-03 -1.1639753904947561e+00
    7.9337258175646297e-03 -1.1639753904947561e+00
    7.8438732505170458e-03 -1.0137937550497031e+00
    7.9034327484939198e-03 -8.8345220859877249e-01
    8.7928516723291064e-03 -6.1429511683395133e-01
    9.4794962809557053e-03 -5.2981294282601754e-01
    1.3318695560605564e-02 -3.2566947363946486e-01
    1.7231700539727748e-02 -2.4077170617153840e-01
    2.4023623198297376e-02 -1.6783627165933784e-01
    1.4278074810952394e-02 -2.9925280083228989e-01
    8.7928516723291064e-03 -6.1429511683395133e-01
    8.2640332648711134e-03 -7.2168783648703216e-01
    7.8794465543357197e-03 -9.0829510622924770e-01
    7.8794465543357197e-03 -9.0829510622924770e-01
    7.9034327484939198e-03 -8.8345220859877249e-01
    7.8794465543357197e-03 -1.1009637651263608e+00
    7.9337258175646297e-03 -1.1639753904947561e+00
    7.8438732505170458e-03 -1.0137937550497031e+00
    7.8497686840817600e-03 -1.0419761445034557e+00
    7.8497686840817600e-03 -1.0419761445034557e+00
    7.9705414483232200e-03 -1.1972189997378644e+00
    7.9337258175646297e-03 -1.1639753904947561e+00
    7.8794465543357197e-03 -9.0829510622924770e-01
    7.8497686840817600e-03 -9.5971486993739330e-01
    7.8497686840817600e-03 -9.5971486993739330e-01
    7.9337258175646297e-03 -8.5912469298422467e-01
    7.8615995403567736e-03 -1.0710083209431247e+00
    7.8497686840817600e-03 -9.5971486993739330e-01
    7.8438732505170458e-03 -1.0137937550497031e+00
    7.8615995403567753e-03 -9.3369956184785263e-01
    7.8794465543357197e-03 -9.0829510622924770e-01
    8.1231015353449218e-03 -1.3052600138300814e+00
    8.1231015353449218e-03 -1.3052600138300814e+00
    8.2640332648711151e-03 -1.3856406460551021e+00
    8.6630607617299189e-03 -1.5735915849388866e+00
    8.5464597419483996e-03 -1.5225576567676566e+00
    8.6630607617299189e-03 -1.5735915849388866e+00
    8.3479342307736671e-03 -1.4288690166235201e+00
    8.7928516723291047e-03 -1.6278820596099706e+00
    8.5464597419483996e-03 -1.5225576567676566e+00
    8.0648706660368247e-03 -1.2677313820927747e+00
    7.8438732505170475e-03 -9.8639392383214386e-01
    7.8794465543357197e-03 -1.1009637651263608e+00
    7.8615995403567753e-03 -9.3369956184785263e-01
    8.3479342307736706e-03 -6.9985421222376532e-01
    9.4794962809557053e-03 -5.2981294282601754e-01
    9.0984011784219932e-03 -5.7207755354735546e-01
    1.4278074810952394e-02 -2.9925280083228989e-01
    1.7231700539727748e-02 -2.4077170617153840e-01
    1.1928104575163398e-02 -3.7500000000000000e-01
    8.7928516723291064e-03 -6.1429511683395133e-01
    8.1893055767481345e-03 -7.4376843799781012e-01
    7.8497686840817600e-03 -9.5971486993739330e-01
    7.8794465543357197e-03 -9.0829510622924770e-01
    7.8438732505170458e-03 -1.0137937550497031e+00
    7.9337258175646297e-03 -1.1639753904947561e+00
    7.9705414483232200e-03 -1.1972189997378644e+00
    7.8794465543357197e-03 -1.1009637651263608e+00
    7.8615995403567736e-03 -1.0710083209431247e+00
    7.8794465543357197e-03 -1.1009637651263608e+00
    8.0141477058386992e-03 -1.2317635241028797e+00
    8.0648706660368247e-03 -1.2677313820927747e+00
    7.8497686840817600e-03 -9.5971486993739330e-01
    7.8615995403567753e-03 -9.3369956184785263e-01
    7.8615995403567753e-03 -9.3369956184785263e-01
    7.8497686840817600e-03 -9.5971486993739330e-01
    7.8615995403567753e-03 -9.3369956184785263e-01
    7.8794465543357197e-03 -9.0829510622924770e-01
    7.9034327484939198e-03 -8.8345220859877249e-01
    8.0141477058386992e-03 -8.1184414088598877e-01
    7.8497686840817600e-03 -9.5971486993739330e-01
    7.8438732505170458e-03 -1.0137937550497031e+00
    7.8438732505170458e-03 -1.0137937550497031e+00
    7.9337258175646297e-03 -1.1639753904947561e+00
    8.0648706660368247e-03 -1.2677313820927747e+00
    8.0141477058386992e-03 -1.2317635241028797e+00
    8.5464597419483996e-03 -1.5225576567676566e+00
    8.6630607617299189e-03 -1.5735915849388866e+00
    9.7056148557488602e-03 -1.9663841605003514e+00
    9.4794962809557053e-03 -1.8874586088176872e+00
    8.5464597419483996e-03 -1.5225576567676566e+00
    7.9034327484939181e-03 -1.1319231422671769e+00
    7.8615995403567753e-03 -9.3369956184785263e-01
    7.8497686840817600e-03 -9.5971486993739330e-01
    7.9705414483232217e-03 -8.3526906958455682e-01
    8.9373548033285840e-03 -5.9317101400173966e-01
    9.4794962809557053e-03 -5.2981294282601754e-01
    1.2553967727335909e-02 -3.5082320772281173e-01
    2.4023623198297376e-02 -1.6783627165933784e-01
    1.2553967727335909e-02 -3.5082320772281173e-01
    8.4417747445548960e-03 -6.7823299831252692e-01
    8.3479342307736706e-03 -6.9985421222376532e-01
    7.8438732505170458e-03 -1.0137937550497031e+00
    7.8794465543357197e-03 -9.0829510622924770e-01
    7.8497686840817600e-03 -1.0419761445034557e+00
    8.1231015353449218e-03 -1.3052600138300814e+00
    8.0648706660368247e-03 -1.2677313820927747e+00
    7.8497686840817600e-03 -1.0419761445034557e+00
    7.8497686840817600e-03 -1.0419761445034557e+00
    7.8497686840817600e-03 -1.0419761445034557e+00
    7.9705414483232200e-03 -1.1972189997378644e+00
    7.8615995403567736e-03 -1.0710083209431247e+00
    7.8438732505170475e-03 -9.8639392383214386e-01
    7.8438732505170475e-03 -9.8639392383214386e-01
    7.8497686840817600e-03 -9.5971486993739330e-01
    7.8794465543357197e-03 -9.0829510622924770e-01
    7.8438732505170475e-03 -9.8639392383214386e-01
    7.8615995403567753e-03 -9.3369956184785263e-01
    7.8794465543357197e-03 -9.0829510622924770e-01
    7.9034327484939198e-03 -8.8345220859877249e-01
    7.8615995403567753e-03 -9.3369956184785263e-01
    7.8497686840817600e-03 -9.5971486993739330e-01
    7.9034327484939181e-03 -1.1319231422671769e+00
    7.8497686840817600e-03 -1.0419761445034557e+00
    7.9034327484939181e-03 -1.1319231422671769e+00
    8.3479342307736671e-03 -1.4288690166235201e+00
    8.1231015353449218e-03 -1.3052600138300814e+00
    8.5464597419483996e-03 -1.5225576567676566e+00
    8.7928516723291047e-03 -1.6278820596099706e+00
    9.9607641267966899e-03 -2.0528725518857014e+00
    8.9373548033285840e-03 -1.6858544608470494e+00
    8.0648706660368247e-03 -1.2677313820927747e+00
    7.8497686840817600e-03 -1.0419761445034557e+00
    7.8615995403567736e-03 -1.0710083209431247e+00
    7.9337258175646297e-03 -8.5912469298422467e-01
    8.0141477058386992e-03 -8.1184414088598877e-01
    8.9373548033285840e-03 -5.9317101400173966e-01
    1.1928104575163398e-02 -3.7500000000000000e-01
    1.9754817973330140e-02 -2.0701966780270628e-01
    1.1405449474694214e-02 -3.9840953644479793e-01
    9.2782101606486284e-03 -5.5097316501933979e-01
    8.1893055767481345e-03 -7.4376843799781012e-01
    7.8438732505170475e-03 -9.8639392383214386e-01
    7.8497686840817600e-03 -9.5971486993739330e-01
    7.8497686840817600e-03 -1.0419761445034557e+00
    8.1231015353449218e-03 -1.3052600138300814e+00
    8.1893055767481345e-03 -1.3445044840729643e+00
    7.9337258175646297e-03 -1.1639753904947561e+00
    7.8615995403567736e-03 -1.0710083209431247e+00
    7.8497686840817600e-03 -1.0419761445034557e+00
    7.8497686840817600e-03 -9.5971486993739330e-01
    7.8615995403567736e-03 -1.0710083209431247e+00
    7.8794465543357197e-03 -9.0829510622924770e-01
    7.8438732505170458e-03 -1.0137937550497031e+00
    7.8615995403567753e-03 -9.3369956184785263e-01
    7.8794465543357197e-03 -9.0829510622924770e-01
    7.8497686840817600e-03 -9.5971486993739330e-01
    7.8615995403567753e-03 -9.3369956184785263e-01
    7.8615995403567753e-03 -9.3369956184785263e-01
    7.8497686840817600e-03 -9.5971486993739330e-01
    7.8497686840817600e-03 -9.5971486993739330e-01
    7.8615995403567753e-03 -9.3369956184785263e-01
    7.8438732505170475e-03 -9.8639392383214386e-01
    7.8794465543357197e-03 -9.0829510622924770e-01
    7.8497686840817600e-03 -9.5971486993739330e-01
    7.9034327484939181e-03 -1.1319231422671769e+00
    8.4417747445548960e-03 -1.4744195615489717e+00
    8.5464597419483996e-03 -1.5225576567676566e+00
    8.4417747445548960e-03 -1.4744195615489717e+00
    8.6630607617299189e-03 -1.5735915849388866e+00
    8.7928516723291047e-03 -1.6278820596099706e+00
    7.9705414483232200e-03 -1.1972189997378644e+00
    7.9337258175646297e-03 -1.1639753904947561e+00
    8.0141477058386992e-03 -1.2317635241028797e+00
    7.9034327484939181e-03 -1.1319231422671769e+00
    8.3479342307736706e-03 -6.9985421222376532e-01
    9.0984011784219932e-03 -5.7207755354735546e-01
    1.0250271726446785e-02 -4.6547466812563143e-01
    1.5525415118394021e-02 -2.7116307227332026e-01
    1.1928104575163398e-02 -3.7500000000000000e-01
    9.4794962809557053e-03 -5.2981294282601754e-01
    8.0141477058386992e-03 -8.1184414088598877e-01
    7.8438732505170475e-03 -9.8639392383214386e-01
    7.8794465543357197e-03 -9.0829510622924770e-01
    7.8438732505170475e-03 -9.8639392383214386e-01
    8.0141477058386992e-03 -1.2317635241028797e+00
    8.3479342307736671e-03 -1.4288690166235201e+00
    7.9705414483232200e-03 -1.1972189997378644e+00
    8.0141477058386992e-03 -1.2317635241028797e+00
    7.9705414483232200e-03 -1.1972189997378644e+00
    7.8615995403567736e-03 -1.0710083209431247e+00
    7.8794465543357197e-03 -1.1009637651263608e+00
    7.8438732505170458e-03 -1.0137937550497031e+00
    7.8794465543357197e-03 -9.0829510622924770e-01
    7.9034327484939198e-03 -8.8345220859877249e-01
    7.9705414483232217e-03 -8.3526906958455682e-01
    7.8794465543357197e-03 -9.0829510622924770e-01
    7.8438732505170458e-03 -1.0137937550497031e+00
    7.8794465543357197e-03 -9.0829510622924770e-01
    7.9705414483232217e-03 -8.3526906958455682e-01
    7.8497686840817600e-03 -1.0419761445034557e+00
    7.8438732505170475e-03 -9.8639392383214386e-01
    7.8438732505170475e-03 -9.8639392383214386e-01
    7.8438732505170458e-03 -1.0137937550497031e+00
    7.8497686840817600e-03 -9.5971486993739330e-01
    7.8615995403567736e-03 -1.0710083209431247e+00
    8.4417747445548960e-03 -1.4744195615489717e+00
    8.5464597419483996e-03 -1.5225576567676566e+00
    9.0984011784219915e-03 -1.7480147469502525e+00
    8.7928516723291047e-03 -1.6278820596099706e+00
    8.9373548033285840e-03 -1.6858544608470494e+00
    8.6630607617299189e-03 -1.5735915849388866e+00
    8.1231015353449218e-03 -1.3052600138300814e+00
    7.9034327484939181e-03 -1.1319231422671769e+00
    7.9337258175646297e-03 -1.1639753904947561e+00
    8.1893055767481345e-03 -7.4376843799781012e-01
    9.9607641267966951e-03 -4.8712230044745486e-01
    1.0962017532926725e-02 -4.2121176958711593e-01
    1.3318695560605564e-02 -3.2566947363946486e-01
    1.1928104575163398e-02 -3.7500000000000000e-01
    9.2782101606486284e-03 -5.5097316501933979e-01
    8.6630607617299172e-03 -6.3548890930224256e-01
    8.1893055767481345e-03 -7.4376843799781012e-01
    8.0141477058386992e-03 -8.1184414088598877e-01
    7.8438732505170458e-03 -1.0137937550497031e+00
    7.8438732505170475e-03 -9.8639392383214386e-01
    8.4417747445548960e-03 -1.4744195615489717e+00
    7.9034327484939181e-03 -1.1319231422671769e+00
    7.8497686840817600e-03 -1.0419761445034557e+00
    7.9705414483232200e-03 -1.1972189997378644e+00
    8.0141477058386992e-03 -1.2317635241028797e+00
    7.8794465543357197e-03 -1.1009637651263608e+00
    7.9034327484939181e-03 -1.1319231422671769e+00
    7.8438732505170475e-03 -9.8639392383214386e-01
    7.8497686840817600e-03 -9.5971486993739330e-01
    7.8794465543357197e-03 -9.0829510622924770e-01
    7.8794465543357197e-03 -9.0829510622924770e-01
    7.9337258175646297e-03 -8.5912469298422467e-01
    7.8497686840817600e-03 -1.0419761445034557e+00
    7.9034327484939198e-03 -8.8345220859877249e-01
    7.8438732505170458e-03 -1.0137937550497031e+00
    7.8438732505170475e-03 -9.8639392383214386e-01
    7.8497686840817600e-03 -9.5971486993739330e-01
    8.0141477058386992e-03 -8.1184414088598877e-01
    7.8794465543357197e-03 -9.0829510622924770e-01
    7.8497686840817600e-03 -1.0419761445034557e+00
    8.0648706660368247e-03 -1.2677313820927747e+00
    8.3479342307736671e-03 -1.4288690166235201e+00
    8.3479342307736671e-03 -1.4288690166235201e+00
    8.1231015353449218e-03 -1.3052600138300814e+00
    8.6630607617299189e-03 -1.5735915849388866e+00
    8.5464597419483996e-03 -1.5225576567676566e+00
    8.0141477058386992e-03 -1.2317635241028797e+00
    8.0141477058386992e-03 -1.2317635241028797e+00
    7.9337258175646297e-03 -1.1639753904947561e+00
    7.9705414483232217e-03 -8.3526906958455682e-01
    1.1928104575163398e-02 -3.7500000000000000e-01
    1.0581010348957611e-02 -4.4353276257274371e-01
    1.2553967727335909e-02 -3.5082320772281173e-01
    1.1405449474694214e-02 -3.9840953644479793e-01
    9.2782101606486284e-03 -5.5097316501933979e-01
    8.4417747445548960e-03 -6.7823299831252692e-01
    8.0648706660368264e-03 -7.8881063774661564e-01
    7.9034327484939198e-03 -8.8345220859877249e-01
    7.8438732505170458e-03 -1.0137937550497031e+00
    7.8615995403567736e-03 -1.0710083209431247e+00
    8.1231015353449218e-03 -1.3052600138300814e+00
    8.0648706660368247e-03 -1.2677313820927747e+00
    7.9705414483232200e-03 -1.1972189997378644e+00
    7.9705414483232200e-03 -1.1972189997378644e+00
    7.8615995403567736e-03 -1.0710083209431247e+00
    7.8438732505170458e-03 -1.0137937550497031e+00
    7.9337258175646297e-03 -1.1639753904947561e+00
    7.8497686840817600e-03 -9.5971486993739330e-01
    7.8497686840817600e-03 -9.5971486993739330e-01
    8.0141477058386992e-03 -8.1184414088598877e-01
    7.8438732505170458e-03 -1.0137937550497031e+00
    7.8497686840817600e-03 -1.0419761445034557e+00
    7.8438732505170458e-03 -1.0137937550497031e+00
    7.8794465543357197e-03 -9.0829510622924770e-01
    7.8497686840817600e-03 -1.0419761445034557e+00
    7.8794465543357197e-03 -1.1009637651263608e+00
    7.8497686840817600e-03 -1.0419761445034557e+00
    7.8497686840817600e-03 -1.0419761445034557e+00
    7.9034327484939181e-03 -1.1319231422671769e+00
    8.1893055767481345e-03 -1.3445044840729643e+00
    7.9705414483232200e-03 -1.1972189997378644e+00
    8.5464597419483996e-03 -1.5225576567676566e+00
    8.6630607617299189e-03 -1.5735915849388866e+00
    8.5464597419483996e-03 -1.5225576567676566e+00
    8.7928516723291047e-03 -1.6278820596099706e+00
    8.1893055767481345e-03 -1.3445044840729643e+00
    8.0141477058386992e-03 -1.2317635241028797e+00
    7.9034327484939181e-03 -1.1319231422671769e+00
    7.8794465543357197e-03 -1.1009637651263608e+00
    8.0141477058386992e-03 -8.1184414088598877e-01
    1.2553967727335909e-02 -3.5082320772281173e-01
    1.0581010348957611e-02 -4.4353276257274371e-01
    1.4278074810952394e-02 -2.9925280083228989e-01
    1.2553967727335909e-02 -3.5082320772281173e-01
    9.2782101606486284e-03 -5.5097316501933979e-01
    8.0648706660368264e-03 -7.8881063774661564e-01
    8.1893055767481345e-03 -7.4376843799781012e-01
    7.9705414483232217e-03 -8.3526906958455682e-01
    7.9034327484939198e-03 -8.8345220859877249e-01
    7.8794465543357197e-03 -1.1009637651263608e+00
    8.3479342307736671e-03 -1.4288690166235201e+00
    8.1893055767481345e-03 -1.3445044840729643e+00
    8.0648706660368247e-03 -1.2677313820927747e+00
    7.9705414483232200e-03 -1.1972189997378644e+00
    7.8615995403567753e-03 -9.3369956184785263e-01
    7.8497686840817600e-03 -1.0419761445034557e+00
    7.9034327484939181e-03 -1.1319231422671769e+00
    7.8497686840817600e-03 -9.5971486993739330e-01
    7.9034327484939198e-03 -8.8345220859877249e-01
    7.9034327484939198e-03 -8.8345220859877249e-01
    7.8615995403567753e-03 -9.3369956184785263e-01
    7.8615995403567736e-03 -1.0710083209431247e+00
    7.9034327484939181e-03 -1.1319231422671769e+00
    7.8438732505170458e-03 -1.0137937550497031e+00
    7.8615995403567753e-03 -9.3369956184785263e-01
    7.8438732505170458e-03 -1.0137937550497031e+00
    7.8438732505170475e-03 -9.8639392383214386e-01
    8.0141477058386992e-03 -1.2317635241028797e+00
    8.1893055767481345e-03 -1.3445044840729643e+00
    8.1231015353449218e-03 -1.3052600138300814e+00
    8.1893055767481345e-03 -1.3445044840729643e+00
    7.9337258175646297e-03 -1.1639753904947561e+00
    8.6630607617299189e-03 -1.5735915849388866e+00
    8.1231015353449218e-03 -1.3052600138300814e+00
    8.2640332648711151e-03 -1.3856406460551021e+00
    8.3479342307736671e-03 -1.4288690166235201e+00
    7.9705414483232200e-03 -1.1972189997378644e+00
    7.9337258175646297e-03 -1.1639753904947561e+00
    7.8794465543357197e-03 -1.1009637651263608e+00
    7.8794465543357197e-03 -9.0829510622924770e-01
    1.0581010348957611e-02 -4.4353276257274371e-01
    1.0581010348957611e-02 -4.4353276257274371e-01
    1.5525415118394021e-02 -2.7116307227332026e-01
    1.3318695560605564e-02 -3.2566947363946486e-01
    9.2782101606486284e-03 -5.5097316501933979e-01
    8.4417747445548960e-03 -6.7823299831252692e-01
    8.1231015353449218e-03 -7.6613087768287380e-01
    7.9337258175646297e-03 -8.5912469298422467e-01
    7.8497686840817600e-03 -9.5971486993739330e-01
    7.8794465543357197e-03 -1.1009637651263608e+00
    7.9337258175646297e-03 -1.1639753904947561e+00
    8.0141477058386992e-03 -1.2317635241028797e+00
    7.8438732505170475e-03 -9.8639392383214386e-01
    7.8497686840817600e-03 -9.5971486993739330e-01
    7.8497686840817600e-03 -9.5971486993739330e-01
    7.9705414483232200e-03 -1.1972189997378644e+00
    7.9034327484939181e-03 -1.1319231422671769e+00
    8.0141477058386992e-03 -8.1184414088598877e-01
    8.0141477058386992e-03 -8.1184414088598877e-01
    7.9337258175646297e-03 -8.5912469298422467e-01
    7.9337258175646297e-03 -8.5912469298422467e-01
    7.8497686840817600e-03 -9.5971486993739330e-01
    7.8438732505170475e-03 -9.8639392383214386e-01
    7.8438732505170475e-03 -9.8639392383214386e-01
    7.8794465543357197e-03 -9.0829510622924770e-01
    7.8794465543357197e-03 -9.0829510622924770e-01
    7.8794465543357197e-03 -9.0829510622924770e-01
    7.9337258175646297e-03 -1.1639753904947561e+00
    7.8497686840817600e-03 -1.0419761445034557e+00
    8.0648706660368247e-03 -1.2677313820927747e+00
    8.0648706660368247e-03 -1.2677313820927747e+00
    7.9337258175646297e-03 -1.1639753904947561e+00
    8.2640332648711151e-03 -1.3856406460551021e+00
    8.1231015353449218e-03 -1.3052600138300814e+00
    8.1231015353449218e-03 -1.3052600138300814e+00
    8.4417747445548960e-03 -1.4744195615489717e+00
    7.8438732505170458e-03 -1.0137937550497031e+00
    7.8794465543357197e-03 -1.1009637651263608e+00
    7.8794465543357197e-03 -1.1009637651263608e+00
    7.9337258175646297e-03 -8.5912469298422467e-01
    8.9373548033285840e-03 -5.9317101400173966e-01
    1.0962017532926725e-02 -4.2121176958711593e-01
    1.7231700539727748e-02 -2.4077170617153840e-01
    1.4278074810952394e-02 -2.9925280083228989e-01
    9.7056148557488550e-03 -5.0854762771560780e-01
    8.4417747445548960e-03 -6.7823299831252692e-01
    8.1893055767481345e-03 -7.4376843799781012e-01
    7.9337258175646297e-03 -8.5912469298422467e-01
    7.8794465543357197e-03 -1.1009637651263608e+00
    7.8794465543357197e-03 -1.1009637651263608e+00
    7.9337258175646297e-03 -1.1639753904947561e+00
    7.8794465543357197e-03 -1.1009637651263608e+00
    7.8615995403567736e-03 -1.0710083209431247e+00
    7.8497686840817600e-03 -1.0419761445034557e+00
    7.9705414483232200e-03 -1.1972189997378644e+00
    7.9705414483232217e-03 -8.3526906958455682e-01
    7.8794465543357197e-03 -1.1009637651263608e+00
    7.8794465543357197e-03 -9.0829510622924770e-01
    7.9337258175646297e-03 -8.5912469298422467e-01
    8.0648706660368264e-03 -7.8881063774661564e-01
    7.9337258175646297e-03 -8.5912469298422467e-01
    7.9337258175646297e-03 -8.5912469298422467e-01
    8.0141477058386992e-03 -8.1184414088598877e-01
    8.1893055767481345e-03 -7.4376843799781012e-01
    7.9705414483232217e-03 -8.3526906958455682e-01
    7.9337258175646297e-03 -8.5912469298422467e-01
    7.9337258175646297e-03 -8.5912469298422467e-01
    7.9034327484939181e-03 -1.1319231422671769e+00
    8.1231015353449218e-03 -1.3052600138300814e+00
    8.0648706660368247e-03 -1.2677313820927747e+00
    8.0648706660368247e-03 -1.2677313820927747e+00
    7.9705414483232200e-03 -1.1972189997378644e+00
    7.8615995403567736e-03 -1.0710083209431247e+00
    8.1231015353449218e-03 -1.3052600138300814e+00
    8.0141477058386992e-03 -1.2317635241028797e+00
    8.0648706660368247e-03 -1.2677313820927747e+00
    7.8438732505170458e-03 -1.0137937550497031e+00
    7.8497686840817600e-03 -1.0419761445034557e+00
    7.8497686840817600e-03 -1.0419761445034557e+00
    7.9705414483232217e-03 -8.3526906958455682e-01
    9.0984011784219932e-03 -5.7207755354735546e-01
    1.0962017532926725e-02 -4.2121176958711593e-01
    2.4023623198297376e-02 -1.6783627165933784e-01
    1.2553967727335909e-02 -3.5082320772281173e-01
    9.7056148557488550e-03 -5.0854762771560780e-01
    8.5464597419484013e-03 -6.5678957742918542e-01
    8.4417747445548960e-03 -6.7823299831252692e-01
    8.0648706660368264e-03 -7.8881063774661564e-01
    7.8438732505170475e-03 -9.8639392383214386e-01
    7.8615995403567736e-03 -1.0710083209431247e+00
    7.8794465543357197e-03 -1.1009637651263608e+00
    7.9705414483232200e-03 -1.1972189997378644e+00
    7.8438732505170458e-03 -1.0137937550497031e+00
    7.9337258175646297e-03 -1.1639753904947561e+00
    7.9337258175646297e-03 -1.1639753904947561e+00
    7.8794465543357197e-03 -1.1009637651263608e+00
    7.8794465543357197e-03 -9.0829510622924770e-01
    7.8438732505170475e-03 -9.8639392383214386e-01
    7.8615995403567753e-03 -9.3369956184785263e-01
    7.9337258175646297e-03 -8.5912469298422467e-01
    7.9034327484939198e-03 -8.8345220859877249e-01
    7.9337258175646297e-03 -8.5912469298422467e-01
    8.0648706660368264e-03 -7.8881063774661564e-01
    8.0648706660368264e-03 -7.8881063774661564e-01
    8.1231015353449218e-03 -7.6613087768287380e-01
    7.8497686840817600e-03 -9.5971486993739330e-01
    7.8438732505170458e-03 -1.0137937550497031e+00
    7.9034327484939181e-03 -1.1319231422671769e+00
    7.9337258175646297e-03 -1.1639753904947561e+00
    8.1231015353449218e-03 -1.3052600138300814e+00
    7.9034327484939181e-03 -1.1319231422671769e+00
    7.9337258175646297e-03 -1.1639753904947561e+00
    8.1231015353449218e-03 -1.3052600138300814e+00
    7.8497686840817600e-03 -1.0419761445034557e+00
    8.0141477058386992e-03 -1.2317635241028797e+00
    8.1893055767481345e-03 -1.3445044840729643e+00
    7.8615995403567736e-03 -1.0710083209431247e+00
    7.8615995403567736e-03 -1.0710083209431247e+00
    7.8438732505170475e-03 -9.8639392383214386e-01
    7.9705414483232217e-03 -8.3526906958455682e-01
    9.0984011784219932e-03 -5.7207755354735546e-01
    1.0581010348957611e-02 -4.4353276257274371e-01
    2.4023623198297376e-02 -1.6783627165933784e-01
    1.1928104575163398e-02 -3.7500000000000000e-01
    1.0581010348957611e-02 -4.4353276257274371e-01
    8.9373548033285840e-03 -5.9317101400173966e-01
    8.2640332648711134e-03 -7.2168783648703216e-01
    8.0648706660368264e-03 -7.8881063774661564e-01
    7.8438732505170475e-03 -9.8639392383214386e-01
    7.8438732505170458e-03 -1.0137937550497031e+00
    7.8794465543357197e-03 -9.0829510622924770e-01
    7.8438732505170475e-03 -9.8639392383214386e-01
    7.8615995403567736e-03 -1.0710083209431247e+00
    8.0141477058386992e-03 -1.2317635241028797e+00
    7.8438732505170458e-03 -1.0137937550497031e+00
    7.8438732505170475e-03 -9.8639392383214386e-01
    7.8438732505170458e-03 -1.0137937550497031e+00
    7.8794465543357197e-03 -1.1009637651263608e+00
    7.8497686840817600e-03 -9.5971486993739330e-01
    7.8497686840817600e-03 -1.0419761445034557e+00
    7.9034327484939198e-03 -8.8345220859877249e-01
    7.9705414483232217e-03 -8.3526906958455682e-01
    7.8794465543357197e-03 -9.0829510622924770e-01
    7.9705414483232217e-03 -8.3526906958455682e-01
    7.9034327484939198e-03 -8.8345220859877249e-01
    7.8615995403567753e-03 -9.3369956184785263e-01
    7.8615995403567736e-03 -1.0710083209431247e+00
    7.8615995403567753e-03 -9.3369956184785263e-01
    7.9705414483232200e-03 -1.1972189997378644e+00
    7.8794465543357197e-03 -1.1009637651263608e+00
    7.8615995403567753e-03 -9.3369956184785263e-01
    7.8438732505170458e-03 -1.0137937550497031e+00
    7.9034327484939181e-03 -1.1319231422671769e+00
    7.9705414483232200e-03 -1.1972189997378644e+00
    8.1231015353449218e-03 -1.3052600138300814e+00
    7.9705414483232200e-03 -1.1972189997378644e+00
    7.8438732505170458e-03 -1.0137937550497031e+00
    7.8615995403567736e-03 -1.0710083209431247e+00
    7.8438732505170475e-03 -9.8639392383214386e-01
    8.0141477058386992e-03 -8.1184414088598877e-01
    8.6630607617299172e-03 -6.3548890930224256e-01
    9.4794962809557053e-03 -5.2981294282601754e-01
    1.7231700539727748e-02 -2.4077170617153840e-01
    1.2553967727335909e-02 -3.5082320772281173e-01
    9.9607641267966951e-03 -4.8712230044745486e-01
    9.0984011784219932e-03 -5.7207755354735546e-01
    8.3479342307736706e-03 -6.9985421222376532e-01
    8.1893055767481345e-03 -7.4376843799781012e-01
    7.8497686840817600e-03 -9.5971486993739330e-01
    7.8497686840817600e-03 -1.0419761445034557e+00
    7.8615995403567736e-03 -1.0710083209431247e+00
    7.9337258175646297e-03 -8.5912469298422467e-01
    7.9337258175646297e-03 -1.1639753904947561e+00
    7.9705414483232200e-03 -1.1972189997378644e+00
    7.9034327484939181e-03 -1.1319231422671769e+00
    7.8438732505170458e-03 -1.0137937550497031e+00
    7.8438732505170458e-03 -1.0137937550497031e+00
    7.8615995403567736e-03 -1.0710083209431247e+00
    7.8497686840817600e-03 -1.0419761445034557e+00
    7.8615995403567736e-03 -1.0710083209431247e+00
    7.8438732505170458e-03 -1.0137937550497031e+00
    7.8497686840817600e-03 -9.5971486993739330e-01
    7.8794465543357197e-03 -9.0829510622924770e-01
    7.9337258175646297e-03 -8.5912469298422467e-01
    7.8497686840817600e-03 -1.0419761445034557e+00
    7.8438732505170458e-03 -1.0137937550497031e+00
    7.8794465543357197e-03 -1.1009637651263608e+00
    7.9034327484939181e-03 -1.1319231422671769e+00
    7.8438732505170475e-03 -9.8639392383214386e-01
    7.8615995403567753e-03 -9.3369956184785263e-01
    7.9705414483232200e-03 -1.1972189997378644e+00
    7.9705414483232200e-03 -1.1972189997378644e+00
    7.8794465543357197e-03 -1.1009637651263608e+00
    7.8794465543357197e-03 -1.1009637651263608e+00
    8.1231015353449218e-03 -1.3052600138300814e+00
    7.9337258175646297e-03 -1.1639753904947561e+00
    7.9034327484939181e-03 -1.1319231422671769e+00
    7.8615995403567753e-03 -9.3369956184785263e-01
    7.8615995403567753e-03 -9.3369956184785263e-01
    7.9337258175646297e-03 -8.5912469298422467e-01
    9.4794962809557053e-03 -5.2981294282601754e-01
    9.9607641267966951e-03 -4.8712230044745486e-01
    2.4023623198297376e-02 -1.6783627165933784e-01
    1.1405449474694214e-02 -3.9840953644479793e-01
    1.0581010348957611e-02 -4.4353276257274371e-01
    9.4794962809557053e-03 -5.2981294282601754e-01
    8.5464597419484013e-03 -6.5678957742918542e-01
    8.2640332648711134e-03 -7.2168783648703216e-01
    8.0648706660368264e-03 -7.8881063774661564e-01
    7.9034327484939198e-03 -8.8345220859877249e-01
    7.9034327484939198e-03 -8.8345220859877249e-01
    7.8497686840817600e-03 -9.5971486993739330e-01
    7.9337258175646297e-03 -8.5912469298422467e-01
    7.8497686840817600e-03 -1.0419761445034557e+00
    7.9034327484939181e-03 -1.1319231422671769e+00
    7.8438732505170458e-03 -1.0137937550497031e+00
    7.8794465543357197e-03 -1.1009637651263608e+00
    7.9337258175646297e-03 -1.1639753904947561e+00
    7.8497686840817600e-03 -9.5971486993739330e-01
    7.8438732505170475e-03 -9.8639392383214386e-01
    7.8497686840817600e-03 -9.5971486993739330e-01
    7.8794465543357197e-03 -1.1009637651263608e+00
    7.8615995403567736e-03 -1.0710083209431247e+00
    7.8438732505170475e-03 -9.8639392383214386e-01
    7.8615995403567736e-03 -1.0710083209431247e+00
    7.8794465543357197e-03 -1.1009637651263608e+00
    7.8794465543357197e-03 -9.0829510622924770e-01
    7.8497686840817600e-03 -1.0419761445034557e+00
    7.8794465543357197e-03 -9.0829510622924770e-01
    8.0141477058386992e-03 -1.2317635241028797e+00
    7.9705414483232200e-03 -1.1972189997378644e+00
    7.8497686840817600e-03 -1.0419761445034557e+00
    7.9337258175646297e-03 -1.1639753904947561e+00
    7.9034327484939181e-03 -1.1319231422671769e+00
    8.1231015353449218e-03 -1.3052600138300814e+00
    7.8615995403567736e-03 -1.0710083209431247e+00
    7.8794465543357197e-03 -1.1009637651263608e+00
    7.8497686840817600e-03 -9.5971486993739330e-01
    7.8497686840817600e-03 -9.5971486993739330e-01
    8.3479342307736706e-03 -6.9985421222376532e-01
    8.7928516723291064e-03 -6.1429511683395133e-01
    1.0250271726446785e-02 -4.6547466812563143e-01
    1.4278074810952394e-02 -2.9925280083228989e-01
    1.2553967727335909e-02 -3.5082320772281173e-01
    1.0581010348957611e-02 -4.4353276257274371e-01
    1.0581010348957611e-02 -4.4353276257274371e-01
    8.2640332648711134e-03 -7.2168783648703216e-01
    8.4417747445548960e-03 -6.7823299831252692e-01
    8.1231015353449218e-03 -7.6613087768287380e-01
    7.9705414483232217e-03 -8.3526906958455682e-01
    7.9034327484939198e-03 -8.8345220859877249e-01
    7.8615995403567753e-03 -9.3369956184785263e-01
    7.8615995403567736e-03 -1.0710083209431247e+00
    7.8615995403567736e-03 -1.0710083209431247e+00
    7.9034327484939198e-03 -8.8345220859877249e-01
    7.8497686840817600e-03 -9.5971486993739330e-01
    7.9034327484939181e-03 -1.1319231422671769e+00
    7.9705414483232217e-03 -8.3526906958455682e-01
    7.8794465543357197e-03 -1.1009637651263608e+00
    7.9034327484939181e-03 -1.1319231422671769e+00
    7.8438732505170475e-03 -9.8639392383214386e-01
    7.9337258175646297e-03 -8.5912469298422467e-01
    7.8794465543357197e-03 -1.1009637651263608e+00
    7.8615995403567736e-03 -1.0710083209431247e+00
    7.8438732505170475e-03 -9.8639392383214386e-01
    7.8794465543357197e-03 -1.1009637651263608e+00
    7.8438732505170458e-03 -1.0137937550497031e+00
    7.9337258175646297e-03 -1.1639753904947561e+00
    7.8438732505170458e-03 -1.0137937550497031e+00
    7.8615995403567736e-03 -1.0710083209431247e+00
    7.8794465543357197e-03 -9.0829510622924770e-01
    7.8438732505170475e-03 -9.8639392383214386e-01
    7.9034327484939181e-03 -1.1319231422671769e+00
    8.3479342307736671e-03 -1.4288690166235201e+00
    8.4417747445548960e-03 -1.4744195615489717e+00
    7.9034327484939181e-03 -1.1319231422671769e+00
    7.8794465543357197e-03 -9.0829510622924770e-01
    7.8438732505170458e-03 -1.0137937550497031e+00
    7.8497686840817600e-03 -9.5971486993739330e-01
    8.6630607617299172e-03 -6.3548890930224256e-01
    8.9373548033285840e-03 -5.9317101400173966e-01
    1.4278074810952394e-02 -2.9925280083228989e-01
    1.4278074810952394e-02 -2.9925280083228989e-01
    1.2553967727335909e-02 -3.5082320772281173e-01
    1.0250271726446785e-02 -4.6547466812563143e-01
    1.0250271726446785e-02 -4.6547466812563143e-01
    9.4794962809557053e-03 -5.2981294282601754e-01
    8.5464597419484013e-03 -6.5678957742918542e-01
    8.1231015353449218e-03 -7.6613087768287380e-01
    8.0648706660368264e-03 -7.8881063774661564e-01
    7.9034327484939198e-03 -8.8345220859877249e-01
    7.8615995403567753e-03 -9.3369956184785263e-01
    7.8794465543357197e-03 -9.0829510622924770e-01
    7.8615995403567736e-03 -1.0710083209431247e+00
    7.9705414483232200e-03 -1.1972189997378644e+00
    7.9337258175646297e-03 -1.1639753904947561e+00
    7.9034327484939181e-03 -1.1319231422671769e+00
    7.9034327484939181e-03 -1.1319231422671769e+00
    7.8497686840817600e-03 -1.0419761445034557e+00
    7.9034327484939181e-03 -1.1319231422671769e+00
    7.9705414483232200e-03 -1.1972189997378644e+00
    7.9705414483232200e-03 -1.1972189997378644e+00
    7.8794465543357197e-03 -1.1009637651263608e+00
    7.8438732505170475e-03 -9.8639392383214386e-01
    7.8615995403567736e-03 -1.0710083209431247e+00
    7.8615995403567736e-03 -1.0710083209431247e+00
    7.8794465543357197e-03 -1.1009637651263608e+00
    7.9337258175646297e-03 -1.1639753904947561e+00
    7.9705414483232200e-03 -1.1972189997378644e+00
    7.8615995403567736e-03 -1.0710083209431247e+00
    7.9034327484939181e-03 -1.1319231422671769e+00
    7.8438732505170458e-03 -1.0137937550497031e+00
    8.1231015353449218e-03 -1.3052600138300814e+00
    8.5464597419483996e-03 -1.5225576567676566e+00
    7.9034327484939181e-03 -1.1319231422671769e+00
    7.8794465543357197e-03 -1.1009637651263608e+00
    7.8438732505170475e-03 -9.8639392383214386e-01
    7.8497686840817600e-03 -9.5971486993739330e-01
    7.9034327484939198e-03 -8.8345220859877249e-01
    8.2640332648711134e-03 -7.2168783648703216e-01
    8.7928516723291064e-03 -6.1429511683395133e-01
    1.4278074810952394e-02 -2.9925280083228989e-01
    1.5525415118394021e-02 -2.7116307227332026e-01
    1.4278074810952394e-02 -2.9925280083228989e-01
    1.1928104575163398e-02 -3.7500000000000000e-01
    1.0962017532926725e-02 -4.2121176958711593e-01
    1.0581010348957611e-02 -4.4353276257274371e-01
    9.4794962809557053e-03 -5.2981294282601754e-01
    8.5464597419484013e-03 -6.5678957742918542e-01
    8.1231015353449218e-03 -7.6613087768287380e-01
    8.1231015353449218e-03 -7.6613087768287380e-01
    7.9705414483232217e-03 -8.3526906958455682e-01
    7.8497686840817600e-03 -9.5971486993739330e-01
    7.8438732505170458e-03 -1.0137937550497031e+00
    8.1231015353449218e-03 -1.3052600138300814e+00
    8.1893055767481345e-03 -1.3445044840729643e+00
    7.8438732505170458e-03 -1.0137937550497031e+00
    7.8794465543357197e-03 -1.1009637651263608e+00
    7.8438732505170475e-03 -9.8639392383214386e-01
    7.8438732505170475e-03 -9.8639392383214386e-01
    7.8615995403567736e-03 -1.0710083209431247e+00
    7.9337258175646297e-03 -1.1639753904947561e+00
    7.8438732505170475e-03 -9.8639392383214386e-01
    7.9034327484939181e-03 -1.1319231422671769e+00
    7.8794465543357197e-03 -1.1009637651263608e+00
    7.8497686840817600e-03 -1.0419761445034557e+00
    7.8438732505170475e-03 -9.8639392383214386e-01
    7.8438732505170458e-03 -1.0137937550497031e+00
    7.8438732505170458e-03 -1.0137937550497031e+00
    7.8615995403567736e-03 -1.0710083209431247e+00
    7.8794465543357197e-03 -1.1009637651263608e+00
    7.8438732505170475e-03 -9.8639392383214386e-01
    8.1231015353449218e-03 -1.3052600138300814e+00
    7.9337258175646297e-03 -1.1639753904947561e+00
    7.9034327484939181e-03 -1.1319231422671769e+00
    7.8438732505170475e-03 -9.8639392383214386e-01
    7.8794465543357197e-03 -9.0829510622924770e-01
    7.9705414483232217e-03 -8.3526906958455682e-01
    7.9034327484939198e-03 -8.8345220859877249e-01
    8.2640332648711134e-03 -7.2168783648703216e-01
    1.0581010348957611e-02 -4.4353276257274371e-01
    1.4278074810952394e-02 -2.9925280083228989e-01
    1.7231700539727748e-02 -2.4077170617153840e-01
    1.7231700539727748e-02 -2.4077170617153840e-01
    1.4278074810952394e-02 -2.9925280083228989e-01
    1.0962017532926725e-02 -4.2121176958711593e-01
    1.0962017532926725e-02 -4.2121176958711593e-01
    1.0962017532926725e-02 -4.2121176958711593e-01
    1.0962017532926725e-02 -4.2121176958711593e-01
    8.7928516723291064e-03 -6.1429511683395133e-01
    8.6630607617299172e-03 -6.3548890930224256e-01
    7.9034327484939198e-03 -8.8345220859877249e-01
    7.8497686840817600e-03 -1.0419761445034557e+00
    7.9705414483232217e-03 -8.3526906958455682e-01
    7.8794465543357197e-03 -1.1009637651263608e+00
    8.1893055767481345e-03 -1.3445044840729643e+00
    8.3479342307736671e-03 -1.4288690166235201e+00
    8.2640332648711151e-03 -1.3856406460551021e+00
    7.9034327484939181e-03 -1.1319231422671769e+00
    7.8794465543357197e-03 -1.1009637651263608e+00
    7.8438732505170475e-03 -9.8639392383214386e-01
    7.8438732505170458e-03 -1.0137937550497031e+00
    7.8497686840817600e-03 -9.5971486993739330e-01
    7.8615995403567736e-03 -1.0710083209431247e+00
    7.8497686840817600e-03 -1.0419761445034557e+00
    7.8438732505170475e-03 -9.8639392383214386e-01
    7.8794465543357197e-03 -9.0829510622924770e-01
    7.8438732505170458e-03 -1.0137937550497031e+00
    7.8497686840817600e-03 -1.0419761445034557e+00
    7.8615995403567753e-03 -9.3369956184785263e-01
    7.8497686840817600e-03 -1.0419761445034557e+00
    7.9705414483232217e-03 -8.3526906958455682e-01
    8.5464597419483996e-03 -1.5225576567676566e+00
    7.8794465543357197e-03 -1.1009637651263608e+00
    7.8497686840817600e-03 -1.0419761445034557e+00
    7.8497686840817600e-03 -1.0419761445034557e+00
    7.8794465543357197e-03 -9.0829510622924770e-01
    8.0141477058386992e-03 -8.1184414088598877e-01
    8.2640332648711134e-03 -7.2168783648703216e-01
    8.9373548033285840e-03 -5.9317101400173966e-01
    1.1928104575163398e-02 -3.7500000000000000e-01
    1.7231700539727748e-02 -2.4077170617153840e-01
    1.7231700539727748e-02 -2.4077170617153840e-01
    1.7231700539727748e-02 -2.4077170617153840e-01
    1.4278074810952394e-02 -2.9925280083228989e-01
    1.2553967727335909e-02 -3.5082320772281173e-01
    1.0962017532926725e-02 -4.2121176958711593e-01
    1.2553967727335909e-02 -3.5082320772281173e-01
    1.1405449474694214e-02 -3.9840953644479793e-01
    1.0250271726446785e-02 -4.6547466812563143e-01
    8.7928516723291064e-03 -6.1429511683395133e-01
    8.3479342307736706e-03 -6.9985421222376532e-01
    8.0648706660368264e-03 -7.8881063774661564e-01
    8.0648706660368264e-03 -7.8881063774661564e-01
    7.8615995403567753e-03 -9.3369956184785263e-01
    7.8438732505170475e-03 -9.8639392383214386e-01
    7.9034327484939181e-03 -1.1319231422671769e+00
    8.0648706660368247e-03 -1.2677313820927747e+00
    8.1893055767481345e-03 -1.3445044840729643e+00
    8.1231015353449218e-03 -1.3052600138300814e+00
    7.9034327484939181e-03 -1.1319231422671769e+00
    8.0141477058386992e-03 -1.2317635241028797e+00
    7.9705414483232200e-03 -1.1972189997378644e+00
    7.9705414483232200e-03 -1.1972189997378644e+00
    7.8615995403567736e-03 -1.0710083209431247e+00
    7.8615995403567736e-03 -1.0710083209431247e+00
    7.9337258175646297e-03 -8.5912469298422467e-01
    7.9337258175646297e-03 -8.5912469298422467e-01
    7.8794465543357197e-03 -9.0829510622924770e-01
    7.8615995403567736e-03 -1.0710083209431247e+00
    8.0648706660368247e-03 -1.2677313820927747e+00
    7.9337258175646297e-03 -1.1639753904947561e+00
    8.2640332648711151e-03 -1.3856406460551021e+00
    7.8438732505170475e-03 -9.8639392383214386e-01
    7.8497686840817600e-03 -9.5971486993739330e-01
    7.9034327484939198e-03 -8.8345220859877249e-01
    7.8615995403567753e-03 -9.3369956184785263e-01
    7.9034327484939198e-03 -8.8345220859877249e-01
    8.7928516723291064e-03 -6.1429511683395133e-01
    9.2782101606486284e-03 -5.5097316501933979e-01
    1.5525415118394021e-02 -2.7116307227332026e-01
    1.5525415118394021e-02 -2.7116307227332026e-01
    1.9754817973330140e-02 -2.0701966780270628e-01
    1.7231700539727748e-02 -2.4077170617153840e-01
    1.4278074810952394e-02 -2.9925280083228989e-01
    1.1928104575163398e-02 -3.7500000000000000e-01
    1.1928104575163398e-02 -3.7500000000000000e-01
    1.0962017532926725e-02 -4.2121176958711593e-01
    9.9607641267966951e-03 -4.8712230044745486e-01
    9.7056148557488550e-03 -5.0854762771560780e-01
    9.2782101606486284e-03 -5.5097316501933979e-01
    8.5464597419484013e-03 -6.5678957742918542e-01
    8.4417747445548960e-03 -6.7823299831252692e-01
    8.1893055767481345e-03 -7.4376843799781012e-01
    8.0141477058386992e-03 -8.1184414088598877e-01
    7.8497686840817600e-03 -1.0419761445034557e+00
    7.8497686840817600e-03 -1.0419761445034557e+00
    7.8438732505170475e-03 -9.8639392383214386e-01
    7.8497686840817600e-03 -1.0419761445034557e+00
    7.8615995403567736e-03 -1.0710083209431247e+00
    7.8794465543357197e-03 -1.1009637651263608e+00
    7.8615995403567736e-03 -1.0710083209431247e+00
    7.9337258175646297e-03 -1.1639753904947561e+00
    7.8794465543357197e-03 -1.1009637651263608e+00
    7.8615995403567753e-03 -9.3369956184785263e-01
    7.8438732505170458e-03 -1.0137937550497031e+00
    7.9705414483232217e-03 -8.3526906958455682e-01
    7.9337258175646297e-03 -8.5912469298422467e-01
    8.1231015353449218e-03 -7.6613087768287380e-01
    7.9705414483232200e-03 -1.1972189997378644e+00
    7.9337258175646297e-03 -1.1639753904947561e+00
    7.9337258175646297e-03 -1.1639753904947561e+00
    7.8615995403567736e-03 -1.0710083209431247e+00
    7.8438732505170458e-03 -1.0137937550497031e+00
    7.9034327484939198e-03 -8.8345220859877249e-01
    7.8615995403567753e-03 -9.3369956184785263e-01
    7.8615995403567753e-03 -9.3369956184785263e-01
    8.5464597419484013e-03 -6.5678957742918542e-01
    8.7928516723291064e-03 -6.1429511683395133e-01
    9.9607641267966951e-03 -4.8712230044745486e-01
    1.3318695560605564e-02 -3.2566947363946486e-01
    1.5525415118394021e-02 -2.7116307227332026e-01
    1.7231700539727748e-02 -2.4077170617153840e-01
    1.7231700539727748e-02 -2.4077170617153840e-01
    1.2553967727335909e-02 -3.5082320772281173e-01
    1.1928104575163398e-02 -3.7500000000000000e-01
    1.1928104575163398e-02 -3.7500000000000000e-01
    1.1405449474694214e-02 -3.9840953644479793e-01
    1.0250271726446785e-02 -4.6547466812563143e-01
    9.4794962809557053e-03 -5.2981294282601754e-01
    9.2782101606486284e-03 -5.5097316501933979e-01
    9.2782101606486284e-03 -5.5097316501933979e-01
    8.3479342307736706e-03 -6.9985421222376532e-01
    8.2640332648711134e-03 -7.2168783648703216e-01
    7.8794465543357197e-03 -9.0829510622924770e-01
    7.8497686840817600e-03 -9.5971486993739330e-01
    7.8615995403567753e-03 -9.3369956184785263e-01
    7.9337258175646297e-03 -8.5912469298422467e-01
    7.8615995403567736e-03 -1.0710083209431247e+00
    7.8497686840817600e-03 -1.0419761445034557e+00
    7.8438732505170475e-03 -9.8639392383214386e-01
    7.8615995403567736e-03 -1.0710083209431247e+00
    7.9337258175646297e-03 -1.1639753904947561e+00
    7.9337258175646297e-03 -1.1639753904947561e+00
    7.8794465543357197e-03 -1.1009637651263608e+00
    7.8497686840817600e-03 -9.5971486993739330e-01
    7.8497686840817600e-03 -9.5971486993739330e-01
    7.9337258175646297e-03 -1.1639753904947561e+00
    7.9337258175646297e-03 -1.1639753904947561e+00
    8.1893055767481345e-03 -1.3445044840729643e+00
    7.9034327484939181e-03 -1.1319231422671769e+00
    7.8615995403567736e-03 -1.0710083209431247e+00
    7.9034327484939198e-03 -8.8345220859877249e-01
    7.8438732505170475e-03 -9.8639392383214386e-01
    7.8497686840817600e-03 -9.5971486993739330e-01
    7.8615995403567753e-03 -9.3369956184785263e-01
    8.3479342307736706e-03 -6.9985421222376532e-01
    8.9373548033285840e-03 -5.9317101400173966e-01
    8.7928516723291064e-03 -6.1429511683395133e-01
    1.0250271726446785e-02 -4.6547466812563143e-01
    1.3318695560605564e-02 -3.2566947363946486e-01
    1.7231700539727748e-02 -2.4077170617153840e-01
    1.9754817973330140e-02 -2.0701966780270628e-01
    1.7231700539727748e-02 -2.4077170617153840e-01
    1.1405449474694214e-02 -3.9840953644479793e-01
    1.0962017532926725e-02 -4.2121176958711593e-01
    1.0581010348957611e-02 -4.4353276257274371e-01
    1.0581010348957611e-02 -4.4353276257274371e-01
    1.0962017532926725e-02 -4.2121176958711593e-01
    9.9607641267966951e-03 -4.8712230044745486e-01
    9.9607641267966951e-03 -4.8712230044745486e-01
    9.7056148557488550e-03 -5.0854762771560780e-01
    9.4794962809557053e-03 -5.2981294282601754e-01
    8.1231015353449218e-03 -7.6613087768287380e-01
    8.3479342307736706e-03 -6.9985421222376532e-01
    8.2640332648711134e-03 -7.2168783648703216e-01
    8.0648706660368264e-03 -7.8881063774661564e-01
    7.8438732505170475e-03 -9.8639392383214386e-01
    7.8497686840817600e-03 -9.5971486993739330e-01
    8.0141477058386992e-03 -1.2317635241028797e+00
    7.9034327484939181e-03 -1.1319231422671769e+00
    8.0141477058386992e-03 -1.2317635241028797e+00
    7.8438732505170458e-03 -1.0137937550497031e+00
    7.8497686840817600e-03 -9.5971486993739330e-01
    7.9337258175646297e-03 -1.1639753904947561e+00
    7.9337258175646297e-03 -1.1639753904947561e+00
    7.8438732505170475e-03 -9.8639392383214386e-01
    7.8794465543357197e-03 -1.1009637651263608e+00
    7.8615995403567736e-03 -1.0710083209431247e+00
    7.9337258175646297e-03 -1.1639753904947561e+00
    7.9034327484939181e-03 -1.1319231422671769e+00
    7.9034327484939181e-03 -1.1319231422671769e+00
    7.9337258175646297e-03 -8.5912469298422467e-01
    7.8794465543357197e-03 -9.0829510622924770e-01
    7.8615995403567753e-03 -9.3369956184785263e-01
    8.0648706660368264e-03 -7.8881063774661564e-01
    8.4417747445548960e-03 -6.7823299831252692e-01
    8.6630607617299172e-03 -6.3548890930224256e-01
    8.9373548033285840e-03 -5.9317101400173966e-01
    1.1405449474694214e-02 -3.9840953644479793e-01
    1.4278074810952394e-02 -2.9925280083228989e-01
    1.4278074810952394e-02 -2.9925280083228989e-01
    2.4023623198297376e-02 -1.6783627165933784e-01
    1.5525415118394021e-02 -2.7116307227332026e-01
    1.2553967727335909e-02 -3.5082320772281173e-01
    1.1405449474694214e-02 -3.9840953644479793e-01
    1.0250271726446785e-02 -4.6547466812563143e-01
    1.0250271726446785e-02 -4.6547466812563143e-01
    9.9607641267966951e-03 -4.8712230044745486e-01
    1.0250271726446785e-02 -4.6547466812563143e-01
    9.7056148557488550e-03 -5.0854762771560780e-01
    1.0250271726446785e-02 -4.6547466812563143e-01
    1.0250271726446785e-02 -4.6547466812563143e-01
    8.9373548033285840e-03 -5.9317101400173966e-01
    8.0648706660368264e-03 -7.8881063774661564e-01
    8.1231015353449218e-03 -7.6613087768287380e-01
    7.9337258175646297e-03 -8.5912469298422467e-01
    7.8794465543357197e-03 -9.0829510622924770e-01
    7.8615995403567753e-03 -9.3369956184785263e-01
    7.8615995403567753e-03 -9.3369956184785263e-01
    8.0648706660368247e-03 -1.2677313820927747e+00
    8.0141477058386992e-03 -1.2317635241028797e+00
    7.8615995403567736e-03 -1.0710083209431247e+00
    7.8438732505170458e-03 -1.0137937550497031e+00
    7.9034327484939198e-03 -8.8345220859877249e-01
    7.8438732505170458e-03 -1.0137937550497031e+00
    8.1231015353449218e-03 -1.3052600138300814e+00
    8.0141477058386992e-03 -1.2317635241028797e+00
    7.9337258175646297e-03 -1.1639753904947561e+00
    7.8615995403567753e-03 -9.3369956184785263e-01
    8.0141477058386992e-03 -8.1184414088598877e-01
    7.9034327484939198e-03 -8.8345220859877249e-01
    7.9034327484939198e-03 -8.8345220859877249e-01
    8.1893055767481345e-03 -7.4376843799781012e-01
    8.2640332648711134e-03 -7.2168783648703216e-01
    8.1893055767481345e-03 -7.4376843799781012e-01
    8.6630607617299172e-03 -6.3548890930224256e-01
    8.9373548033285840e-03 -5.9317101400173966e-01
    1.0581010348957611e-02 -4.4353276257274371e-01
    1.0962017532926725e-02 -4.2121176958711593e-01
    1.4278074810952394e-02 -2.9925280083228989e-01
    1.5525415118394021e-02 -2.7116307227332026e-01
    1.7231700539727748e-02 -2.4077170617153840e-01
    1.4278074810952394e-02 -2.9925280083228989e-01
    1.3318695560605564e-02 -3.2566947363946486e-01
    1.0962017532926725e-02 -4.2121176958711593e-01
    1.0962017532926725e-02 -4.2121176958711593e-01
    1.0962017532926725e-02 -4.2121176958711593e-01
    1.1405449474694214e-02 -3.9840953644479793e-01
    1.0962017532926725e-02 -4.2121176958711593e-01
    1.0962017532926725e-02 -4.2121176958711593e-01
    1.0581010348957611e-02 -4.4353276257274371e-01
    1.1405449474694214e-02 -3.9840953644479793e-01
    1.0581010348957611e-02 -4.4353276257274371e-01
    9.9607641267966951e-03 -4.8712230044745486e-01
    8.4417747445548960e-03 -6.7823299831252692e-01
    8.0648706660368264e-03 -7.8881063774661564e-01
    7.8794465543357197e-03 -9.0829510622924770e-01
    7.9337258175646297e-03 -8.5912469298422467e-01
    7.9034327484939198e-03 -8.8345220859877249e-01
    7.8438732505170458e-03 -1.0137937550497031e+00
    7.9034327484939181e-03 -1.1319231422671769e+00
    7.8497686840817600e-03 -1.0419761445034557e+00
    7.8615995403567753e-03 -9.3369956184785263e-01
    7.9034327484939198e-03 -8.8345220859877249e-01
    7.9705414483232200e-03 -1.1972189997378644e+00
    7.9034327484939181e-03 -1.1319231422671769e+00
    8.0141477058386992e-03 -1.2317635241028797e+00
    7.9337258175646297e-03 -8.5912469298422467e-01
    7.8497686840817600e-03 -9.5971486993739330e-01
    7.9034327484939198e-03 -8.8345220859877249e-01
    7.9034327484939198e-03 -8.8345220859877249e-01
    8.1893055767481345e-03 -7.4376843799781012e-01
    8.2640332648711134e-03 -7.2168783648703216e-01
    9.2782101606486284e-03 -5.5097316501933979e-01
    8.9373548033285840e-03 -5.9317101400173966e-01
    9.0984011784219932e-03 -5.7207755354735546e-01
    1.0250271726446785e-02 -4.6547466812563143e-01
    1.1928104575163398e-02 -3.7500000000000000e-01
    1.1928104575163398e-02 -3.7500000000000000e-01
    1.4278074810952394e-02 -2.9925280083228989e-01
    2.4023623198297376e-02 -1.6783627165933784e-01
    1.9754817973330140e-02 -2.0701966780270628e-01
    1.5525415118394021e-02 -2.7116307227332026e-01
    1.4278074810952394e-02 -2.9925280083228989e-01
    1.1928104575163398e-02 -3.7500000000000000e-01
    1.1405449474694214e-02 -3.9840953644479793e-01
    1.1928104575163398e-02 -3.7500000000000000e-01
    1.2553967727335909e-02 -3.5082320772281173e-01
    1.1928104575163398e-02 -3.7500000000000000e-01
    1.2553967727335909e-02 -3.5082320772281173e-01
    1.4278074810952394e-02 -2.9925280083228989e-01
    1.2553967727335909e-02 -3.5082320772281173e-01
    1.1928104575163398e-02 -3.7500000000000000e-01
    1.0962017532926725e-02 -4.2121176958711593e-01
    9.9607641267966951e-03 -4.8712230044745486e-01
    9.4794962809557053e-03 -5.2981294282601754e-01
    8.5464597419484013e-03 -6.5678957742918542e-01
    8.4417747445548960e-03 -6.7823299831252692e-01
    8.1231015353449218e-03 -7.6613087768287380e-01
    8.0141477058386992e-03 -8.1184414088598877e-01
    7.8438732505170458e-03 -1.0137937550497031e+00
    7.8438732505170458e-03 -1.0137937550497031e+00
    7.8497686840817600e-03 -1.0419761445034557e+00
    7.8497686840817600e-03 -9.5971486993739330e-01
    7.9337258175646297e-03 -1.1639753904947561e+00
    7.9705414483232200e-03 -1.1972189997378644e+00
    7.8438732505170458e-03 -1.0137937550497031e+00
    7.8615995403567753e-03 -9.3369956184785263e-01
    7.8615995403567753e-03 -9.3369956184785263e-01
    8.0141477058386992e-03 -8.1184414088598877e-01
    8.1231015353449218e-03 -7.6613087768287380e-01
    8.4417747445548960e-03 -6.7823299831252692e-01
    8.5464597419484013e-03 -6.5678957742918542e-01
    9.4794962809557053e-03 -5.2981294282601754e-01
    9.7056148557488550e-03 -5.0854762771560780e-01
    1.1928104575163398e-02 -3.7500000000000000e-01
    1.4278074810952394e-02 -2.9925280083228989e-01
    1.3318695560605564e-02 -3.2566947363946486e-01
    1.3318695560605564e-02 -3.2566947363946486e-01
    1.5525415118394021e-02 -2.7116307227332026e-01
    1.7231700539727748e-02 -2.4077170617153840e-01 1. 0.
    1.9754817973330140e-02 -2.0701966780270628e-01
    1.7231700539727748e-02 -2.4077170617153840e-01
    1.5525415118394021e-02 -2.7116307227332026e-01
    1.5525415118394021e-02 -2.7116307227332026e-01
    1.5525415118394021e-02 -2.7116307227332026e-01
    1.5525415118394021e-02 -2.7116307227332026e-01
    1.5525415118394021e-02 -2.7116307227332026e-01
    1.5525415118394021e-02 -2.7116307227332026e-01
    1.4278074810952394e-02 -2.9925280083228989e-01
    1.5525415118394021e-02 -2.7116307227332026e-01
    1.4278074810952394e-02 -2.9925280083228989e-01
    1.3318695560605564e-02 -3.2566947363946486e-01
    1.1928104575163398e-02 -3.7500000000000000e-01
    1.1405449474694214e-02 -3.9840953644479793e-01
    1.0962017532926725e-02 -4.2121176958711593e-01
    9.0984011784219932e-03 -5.7207755354735546e-01
    8.3479342307736706e-03 -6.9985421222376532e-01
    7.9034327484939198e-03 -8.8345220859877249e-01
    8.1893055767481345e-03 -7.4376843799781012e-01
    8.3479342307736706e-03 -6.9985421222376532e-01
    7.8794465543357197e-03 -9.0829510622924770e-01
    8.1231015353449218e-03 -7.6613087768287380e-01
    7.8438732505170458e-03 -1.0137937550497031e+00
    8.2640332648711134e-03 -7.2168783648703216e-01
    7.8615995403567753e-03 -9.3369956184785263e-01
    8.1893055767481345e-03 -7.4376843799781012e-01
    8.0141477058386992e-03 -8.1184414088598877e-01
    8.1893055767481345e-03 -7.4376843799781012e-01
    8.3479342307736706e-03 -6.9985421222376532e-01
    8.5464597419484013e-03 -6.5678957742918542e-01
    9.9607641267966951e-03 -4.8712230044745486e-01
    1.0962017532926725e-02 -4.2121176958711593e-01
    1.5525415118394021e-02 -2.7116307227332026e-01
    1.5525415118394021e-02 -2.7116307227332026e-01
    1.5525415118394021e-02 -2.7116307227332026e-01
    1.7231700539727748e-02 -2.4077170617153840e-01
    1.7231700539727748e-02 -2.4077170617153840e-01
    1.7231700539727748e-02 -2.4077170617153840e-01
    1.7231700539727748e-02 -2.4077170617153840e-01
    3.3737774527201288e-02 -1.1785113019775793e-01
    1.7231700539727748e-02 -2.4077170617153840e-01
    1.7231700539727748e-02 -2.4077170617153840e-01
    1.7231700539727748e-02 -2.4077170617153840e-01
    1.9754817973330140e-02 -2.0701966780270628e-01
    2.4023623198297376e-02 -1.6783627165933784e-01
    1.9754817973330140e-02 -2.0701966780270628e-01
    1.9754817973330140e-02 -2.0701966780270628e-01
    1.9754817973330140e-02 -2.0701966780270628e-01
    1.5525415118394021e-02 -2.7116307227332026e-01
    1.7231700539727748e-02 -2.4077170617153840e-01
    1.7231700539727748e-02 -2.4077170617153840e-01
    1.5525415118394021e-02 -2.7116307227332026e-01
    1.7231700539727748e-02 -2.4077170617153840e-01
    1.7231700539727748e-02 -2.4077170617153840e-01
    1.5525415118394021e-02 -2.7116307227332026e-01
    9.9607641267966951e-03 -4.8712230044745486e-01
    1.0581010348957611e-02 -4.4353276257274371e-01
    1.0250271726446785e-02 -4.6547466812563143e-01
    1.0250271726446785e-02 -4.6547466812563143e-01
    8.4417747445548960e-03 -6.7823299831252692e-01
    8.6630607617299172e-03 -6.3548890930224256e-01
    1.1405449474694214e-02 -3.9840953644479793e-01
    9.4794962809557053e-03 -5.2981294282601754e-01
    8.1231015353449218e-03 -7.6613087768287380e-01
    8.5464597419484013e-03 -6.5678957742918542e-01
    8.2640332648711134e-03 -7.2168783648703216e-01
    8.2640332648711134e-03 -7.2168783648703216e-01
    8.3479342307736706e-03 -6.9985421222376532e-01
    8.6630607617299172e-03 -6.3548890930224256e-01
    9.4794962809557053e-03 -5.2981294282601754e-01
    1.2553967727335909e-02 -3.5082320772281173e-01
    1.5525415118394021e-02 -2.7116307227332026e-01
    1.5525415118394021e-02 -2.7116307227332026e-01
    1.5525415118394021e-02 -2.7116307227332026e-01
    1.7231700539727748e-02 -2.4077170617153840e-01
    1.9754817973330140e-02 -2.0701966780270628e-01
    1.9754817973330140e-02 -2.0701966780270628e-01
    1.9754817973330140e-02 -2.0701966780270628e-01
    1.7231700539727748e-02 -2.4077170617153840e-01</input_scale>
  <output_scale>
    1.0526315789473684e+00 0.</output_scale>
  <inv_output_scale>
    9.4999999999999996e-01 0.</inv_output_scale>
  <weights>
    <_>
      -1.1719048386403424e-03 -2.2903224389177911e-04
      -9.9637750405231888e-04 -5.5088375721748159e-04
      2.2039270841974236e-04 1.2144499427915077e-03
      9.9728247011042037e-04 2.0453599492093418e-04
      -7.2831549546728146e-04 -4.2920232853557353e-04
      -1.1054717958401724e-03 -1.2409612586460942e-04
      -2.1397120762249158e-05 -7.8018402384446585e-04
      6.7194088742161514e-04 -1.1208781013474275e-03
      1.1037170489498088e-03 1.0083693640301039e-03
      -2.5698247005999147e-04 -3.4383640164285737e-05
      3.0002183913935715e-04 -7.7645728251324352e-04
      -6.5397802009701264e-04 9.5527311481024093e-04
      -1.0954164450422850e-03 -3.1663012947851025e-04
      6.1523554708813478e-04 -6.3403300196013517e-04
      1.0630743572223426e-03 -2.4215284090006096e-04
      1.2150750992007805e-03 -3.7732545206526025e-04
      2.2581237915161135e-04 8.1166924113520002e-04
      1.1322676431532379e-03 5.1786688077618958e-04
      8.1904968067006900e-04 5.2277548999592920e-04
      1.2256443938238879e-03 -1.5902424652943092e-04
      -6.5164462998232775e-01 -1.9380475147190823e-02
      -2.2908478565477720e-02 6.7294071520215843e-03
      2.3607550520487474e-02 2.2378107817271582e-02
      -1.2730172719398485e-02 2.6364185774941609e-02
      -2.3171259814841201e-02 -2.1839987003979603e-02
      1.3475473808558767e-02 -2.3964306476444156e-02
      1.3598074223197759e-02 2.6614882072949014e-02
      -2.2883387891060758e-02 1.7992773040785663e-02
      -2.3917378147850828e-02 -2.9683877343701107e-02
      2.1015208979726117e-02 -2.0842530663114676e-02
      2.8285673242098935e-02 2.5239900879889771e-02
      2.2876007614803386e-02 -2.0588492871071569e-02
      1.6952908300607888e-02 -2.6384185884839904e-02
      -2.0308614624883072e-02 2.0404709748719566e-02
      8.0302859612897300e-03 1.4916914235772235e-02
      2.0200222028369436e-02 2.0618510363317636e-02
      -2.3195082922672996e-02 2.0874638497003148e-03
      -3.0334782152594920e-02 2.4981586177674004e-02
      -2.0220930122487730e-02 -2.2796159098458373e-02
      1.8181504266888693e-02 2.2106627830505939e-02
      3.5985875500130327e-01 4.8030777429369037e-02
      3.6391188469550174e-02 1.7191865993358389e-02
      -3.1659182150948789e-02 1.5940921572137074e-02
      -1.8115984288848710e-02 -2.7987814728575259e-02
      -1.2206341327997210e-03 4.9281189977604410e-02
      1.6727275030427789e-02 2.6359541419804615e-02
      1.8491600989795191e-02 -2.1213073093485302e-02
      9.3704876930653519e-03 1.6511888425397799e-02
      -4.1783967512860828e-03 2.4838183742334839e-02
      -6.0430687428127995e-02 5.5765751248541058e-02
      -2.4761716288939570e-02 1.2912188747302494e-02
      -5.8173838146954892e-04 3.8144131564200871e-02
      1.7003598699575143e-02 -9.4289795576168282e-03
      5.2274191169728687e-02 -5.5414937545857926e-02
      1.8841448581728350e-02 1.6697559418890246e-02
      -4.1756384480092369e-02 -5.2529690565552178e-02
      5.8052615102648891e-02 1.6771555361433564e-02
      2.3199412246552465e-02 1.3233126101382348e-02
      3.5125866805788164e-02 1.8863567731814242e-02
      -4.7671114112116539e-02 -3.3072569347156744e-02
      -1.7801924023906870e-01 -1.8171898745886768e-02
      -1.3715362767669728e-02 -7.8124124967013106e-03
      1.4680009298391005e-02 -1.3931518631465087e-03
      7.3210857026259528e-03 1.1888918517343127e-02
      -1.9116812210398211e-03 -2.1484654456014773e-02
      -5.0496159852866755e-03 -1.2112275658592289e-02
      -5.4179973380759578e-03 8.9483559956001803e-03
      -3.6529963560016769e-03 -3.6253673336416156e-03
      -9.1240788267863782e-04 -9.9757446280288892e-03
      2.1086138284712078e-02 -2.2733533986822131e-02
      1.2527694984988331e-02 -3.2220644462038436e-04
      3.0631948254043694e-03 -1.5299019035355693e-02
      -2.8925372201061405e-03 -2.7151036026901198e-04
      -2.0628778173743950e-02 2.0243101232642800e-02
      -6.0662154533187521e-03 -4.0116045611543819e-03
      1.9105080374969063e-02 2.1148504635005866e-02
      -2.0934952586980925e-02 -9.3229833744936513e-03
      -8.8833746730915264e-03 4.8607322353380546e-04
      -1.4133674682400510e-02 -8.5671652130817500e-03
      1.9520236438285318e-02 1.3647674565005581e-02
      5.7624363803323635e-02 1.2867207428443377e-02
      7.0340271804830937e-03 4.3021763887048457e-03
      -6.1123331304034625e-03 1.0980630314352407e-02
      -6.0382676047839139e-03 -2.6331810666136266e-03
      -1.4103903119598155e-03 4.2293097609028777e-03
      7.6595738597383112e-03 2.8035789407886251e-03
      8.1349513977496801e-03 -9.3613653985119268e-04
      2.0395328649545881e-03 7.8777276949841130e-03
      -2.2590312519879334e-03 1.1787270329985792e-03
      -1.1457503841095153e-02 8.5523410479856881e-03
      -2.7078078175397325e-03 8.4626711567224316e-03
      -5.3474095837100768e-04 8.4862362902495478e-03
      9.5072599086336203e-03 -7.7314358908650641e-03
      1.2913003567711311e-02 -1.3471046447923326e-02
      4.0581328627936359e-03 7.7862733063959527e-03
      -9.2978251031312752e-03 -1.3062737990611063e-02
      1.0239728470209505e-02 3.4559534822505779e-03
      -9.0366612179830117e-04 9.8951802811003929e-03
      6.5388851975139136e-03 1.8513416393907565e-03
      -1.3087245957185738e-02 -4.8104941984569551e-03
      5.8050127969290315e-02 1.1496214775990313e-02
      7.8847942506373152e-03 4.9321050425149733e-03
      -4.9682469116534029e-03 9.6312292915598022e-03
      -6.5490956683490684e-03 -3.0906916447398756e-03
      -1.2575251616376174e-03 4.4434840128944348e-03
      6.4189495290494988e-03 2.3952999569401365e-03
      8.3288264086116767e-03 -1.3423339387523348e-03
      3.6391101365165161e-03 8.3360259154168555e-03
      -2.9587747391267541e-03 -2.1886684934178529e-04
      -1.3381121356041602e-02 8.4005469596397670e-03
      -2.6982235390518314e-03 9.8532556438705576e-03
      8.9283020319154784e-04 8.5990805163267021e-03
      7.5168602947994385e-03 -8.4267503267667077e-03
      1.4514576096941663e-02 -1.4227435572230000e-02
      4.5520695606585627e-03 8.0611082204266986e-03
      -9.9448087501452943e-03 -1.3161405009226454e-02
      1.1716765842888740e-02 4.3549742422927520e-03
      3.0607541415311615e-04 9.8013540121665091e-03
      7.3177781306916654e-03 1.8381349113812115e-03
      -1.2031595400997715e-02 -6.2361467534406741e-03
      -1.7723898515066774e-01 -1.9600590207995063e-02
      -1.3248936824528355e-02 -7.0855666181969534e-03
      1.2945716373336478e-02 -1.5528099547424741e-03
      5.6273458851035475e-03 1.1372093613409134e-02
      -1.4688044392954791e-03 -2.0680934814010538e-02
      -5.5423747242132615e-03 -1.2237535847874457e-02
      -5.9777959010955603e-03 9.8194665276998654e-03
      -2.5468835072813907e-03 -3.2470510621534312e-03
      -2.6191037292227471e-03 -1.1902042877361069e-02
      2.1442853514928729e-02 -2.0771300564909289e-02
      1.1985221436283723e-02 1.2845318293257663e-03
      3.0533992670353275e-03 -1.5547644489370762e-02
      -5.1550827061622555e-03 7.9225478372143556e-04
      -2.0272808075569720e-02 2.2218752863303007e-02
      -7.9400161065699415e-03 -4.0970928767486252e-03
      1.9221603171899120e-02 2.0746681379644277e-02
      -2.1593236536235114e-02 -9.3771481085120276e-03
      -8.5458992102730828e-03 1.4772825494519125e-03
      -1.5563907197531420e-02 -8.3267360638504210e-03
      1.7927652923659724e-02 1.4470870171395792e-02
      -1.7704542888962813e-01 -1.9618133235755758e-02
      -1.5477512356465967e-02 -8.3767684316977398e-03
      1.3064329133563856e-02 7.6389564998910955e-06
      7.2167285632554834e-03 1.2708528265744061e-02
      -1.0672780691852203e-03 -2.0943888128773867e-02
      -4.0511744855958719e-03 -1.1481586470298675e-02
      -6.9239138161671203e-03 1.0347826806134202e-02
      -2.3612264199047604e-03 -5.0100214887017326e-03
      -2.8452667666827107e-03 -1.0527344605059772e-02
      2.1157600985474482e-02 -2.1134198761555274e-02
      1.2423314702948751e-02 -3.5150787546463550e-04
      2.6968960354161547e-03 -1.4451271080203667e-02
      -4.0544557988097824e-03 -1.4277731265660654e-03
      -2.1505699024211952e-02 2.0422867345621064e-02
      -6.6372853610557163e-03 -4.5379711114974224e-03
      1.7485404596140907e-02 1.9594370768576251e-02
      -2.1302768028724776e-02 -9.0057259988775128e-03
      -9.2640582571228390e-03 1.1519717715646558e-03
      -1.4270912257180090e-02 -9.5512522850896061e-03
      1.9867258887788997e-02 1.4887426371538686e-02
      -3.0504587978609665e-01 -2.6342694087820882e-02
      -2.5738661287064660e-02 -1.0467364229920662e-02
      2.4002124814802062e-02 -5.3383005484949450e-05
      8.2680742129518786e-03 2.1922190872419086e-02
      -4.6326144289964288e-03 -3.0466009110170549e-02
      -8.4723681235455307e-03 -2.2057641599857427e-02
      -8.7528890046526687e-03 1.5427149733978360e-02
      -6.1397951484512730e-03 -6.8629833112600512e-03
      -3.7697309782591640e-03 -2.0626171707212641e-02
      3.0383958749484491e-02 -3.1171748231523067e-02
      2.2140661842340113e-02 1.4771907393316494e-04
      5.2031777481734640e-03 -2.7084330020845343e-02
      -6.5397360917246582e-03 -2.5646991386208693e-03
      -2.8267609904283689e-02 2.9972490723598949e-02
      -1.1965216319190751e-02 -5.6137870466138797e-03
      2.6800132587522434e-02 2.8637797619741841e-02
      -3.2083154169605443e-02 -1.2515543113827684e-02
      -1.8263311312628532e-02 1.6195590517235454e-03
      -2.4501488290803706e-02 -1.5913238381369810e-02
      2.5762126743655203e-02 2.6337788195174364e-02
      -1.7707963642447003e-01 -1.9946867375556645e-02
      -1.3844749362430603e-02 -8.4805679939622992e-03
      1.3784945125868631e-02 -7.6801043585697092e-04
      6.1649748965261634e-03 1.2076357897807857e-02
      -3.4322684962576002e-03 -2.0563417252570430e-02
      -5.0509558532477062e-03 -1.1700162244253682e-02
      -6.6182688320310951e-03 1.0141492480846382e-02
      -1.8933274440223954e-03 -5.0258286973890341e-03
      -1.1022115940120009e-03 -9.5651793968150618e-03
      2.1947151948544824e-02 -2.0858956444099824e-02
      1.2060306023915149e-02 5.3749784129587233e-04
      8.5391143787021963e-04 -1.5097323950509183e-02
      -2.9586537734547988e-03 1.9443376745283125e-04
      -2.0417378649837732e-02 2.1723199052751857e-02
      -7.8935527722574401e-03 -4.2643698204261667e-03
      1.8526159864418672e-02 1.9492310737962988e-02
      -2.2066112899335192e-02 -8.4791856007098224e-03
      -9.3959068762420675e-03 -8.8714922855179647e-04
      -1.4430919654421080e-02 -8.4423957548231485e-03
      1.7774823021702853e-02 1.4138636425030620e-02
      -3.0450042261737792e-01 -2.7321777881665954e-02
      -2.5457625622701631e-02 -1.1249423342567341e-02
      2.6044857594061253e-02 -1.0998209437349356e-04
      8.2087726469121675e-03 2.2146230959301565e-02
      -3.7008069586466482e-03 -2.9737721091325532e-02
      -6.7034697286199501e-03 -2.3253828428015905e-02
      -7.7582882769489520e-03 1.7460528258476118e-02
      -5.9517118073446678e-03 -6.9949817659274863e-03
      -3.9558410538794459e-03 -2.1155409177805357e-02
      3.0410738294538071e-02 -3.1953736303110852e-02
      2.1085846995489363e-02 1.8862460407523568e-03
      5.1206557938258549e-03 -2.5523037935179148e-02
      -6.2704609008313915e-03 -1.2767319704430227e-03
      -2.9588987215395754e-02 2.9822635032006169e-02
      -1.1217906289439403e-02 -6.4314045898271307e-03
      2.7184275937032657e-02 2.8763969928210311e-02
      -3.2118613513665191e-02 -1.2952995541523033e-02
      -1.8585740169802578e-02 6.1780427815529221e-04
      -2.4688846433406218e-02 -1.4468561004982651e-02
      2.6068824955144322e-02 2.5872263123398100e-02
      -3.0592943006334516e-01 -2.6251298835707617e-02
      -2.4838364629196155e-02 -1.1549398249592422e-02
      2.3897406200320877e-02 -1.3141163107672623e-03
      8.7534905863139289e-03 2.3658364186522153e-02
      -4.3048487495611822e-03 -3.1081077074225756e-02
      -7.2995886784495310e-03 -2.3331671718381627e-02
      -7.5741204983319705e-03 1.5457015916089225e-02
      -6.3605359216455113e-03 -5.1947060978891511e-03
      -4.3693148590460487e-03 -1.9237088876617129e-02
      3.1652322058789484e-02 -2.9754129489683829e-02
      2.2324093977758454e-02 1.2007746980795279e-03
      2.9950258359581513e-03 -2.5270938267241194e-02
      -5.5612895885763566e-03 -1.1427029828892958e-03
      -2.8957744885143410e-02 2.9272971861693444e-02
      -1.0364992237684372e-02 -7.4803121959898583e-03
      2.7804921226737490e-02 2.9359572904836002e-02
      -3.1297057666398079e-02 -1.3233160010217387e-02
      -1.6420011046775179e-02 1.2562184491066114e-03
      -2.4778769023149440e-02 -1.6426360089639928e-02
      2.7426726630917483e-02 2.6110876991321273e-02
      -3.0441382224564073e-01 -2.8350834810041498e-02
      -2.6170941478095754e-02 -1.0283667464551002e-02
      2.5915568710974907e-02 -1.6377219696542904e-03
      9.3588686956527344e-03 2.3236418186842259e-02
      -3.2841404188608168e-03 -3.0952515882502474e-02
      -8.8039187495156466e-03 -2.1499834732342300e-02
      -9.2595979202422605e-03 1.6828542525035746e-02
      -5.4434149302489783e-03 -5.4877511109958947e-03
      -4.3281428996503118e-03 -1.9430430268930095e-02
      3.0457670860515037e-02 -3.1163578751926147e-02
      2.2314172144777787e-02 -1.0394145849252796e-04
      4.4341177065350462e-03 -2.5550325981685176e-02
      -7.0310463663485461e-03 -2.0406235526740073e-03
      -2.9202818075943205e-02 3.0299969561776208e-02
      -1.1285398872421207e-02 -7.0524900430801226e-03
      2.6618990967030749e-02 2.8723802125637625e-02
      -3.0834904034174826e-02 -1.2683051826188913e-02
      -1.7507405628674137e-02 9.9296515453686676e-04
      -2.6319967085721173e-02 -1.5599499660288837e-02
      2.7616839842490214e-02 2.4531998201252670e-02
      -4.8683349106118733e-02 4.5193521008181570e-04
      1.4782551406661185e-02 -5.0917995378602495e-03
      -7.2457106902856297e-03 -1.0238001481009715e-02
      6.8660361474696813e-03 -2.8151213924595935e-05
      2.9910697821790952e-03 -5.1217312281796870e-03
      -8.5196469623411136e-03 2.0753896671318597e-03
      -7.1160177834196552e-03 -1.8735505579443065e-03
      1.7424150437109179e-03 -1.0168882272120048e-02
      3.4697171609803391e-03 -1.0518369691821002e-03
      5.6792180557637753e-03 -6.0481041229987079e-03
      -1.3660994293942207e-03 -7.5379545110571588e-03
      -3.3253563517304536e-03 1.2996316630292421e-02
      -9.0178628867665887e-03 7.4465639268363835e-03
      2.3812671034921710e-04 2.2560487059164734e-03
      -5.1346539062865921e-03 -8.7085069228441496e-03
      -6.8224955342066620e-03 -1.2837791953555322e-03
      -1.1355313356696213e-02 -2.1019895651445486e-03
      -7.0218357846791015e-05 -8.9456253442247308e-03
      1.0967156286690977e-02 8.5072069445614440e-04
      -4.2907814625728702e-03 -1.3202020382994823e-02
      -1.9489051379644906e-01 3.9237268712417322e-03
      4.6733280300614985e-03 -2.1621843159523924e-03
      -8.8584532875453492e-03 8.3228582848507654e-04
      2.4626264875055653e-03 -8.2240779908666472e-03
      -3.6759176430643001e-03 9.1836661281773264e-03
      -1.4338326698634411e-03 8.0714838742873603e-03
      -9.5653752851967240e-04 -1.8110332210304531e-03
      -6.2774868281418490e-03 -2.1003957663171956e-03
      -3.7407149146476766e-03 6.8549086939114256e-03
      -6.3307192542745366e-03 8.0347818383953145e-03
      -7.6458215270484844e-03 1.0728358513658906e-03
      4.4736796423960421e-03 4.8868284799809675e-03
      -2.0018293872700321e-03 -1.5649948052643687e-03
      4.4457635699384681e-03 -4.5185803274131455e-03
      -3.5513033468538313e-03 -1.7034228716118526e-03
      -8.9366717965212489e-04 -3.3437005041879559e-03
      8.5940867858526858e-03 -2.5120595356520189e-03
      5.8243824478987150e-03 4.2361883591095185e-04
      3.5891248969363277e-03 2.0825481629168324e-03
      -2.4696471602587331e-03 -7.1300944951647478e-03
      4.2664462509877987e-01 -8.3616582276242815e-03
      -2.0289212008233429e-02 -1.6560243008602225e-02
      1.5936607706945233e-02 -2.1405983627364185e-02
      1.9488428210654201e-02 1.3644836031664354e-02
      1.4231978256113692e-02 -2.0889573004125475e-03
      -2.0672658116897835e-02 -1.4424129206017414e-02
      -1.9691004191453435e-02 8.1550132400614074e-03
      1.3822647043300591e-02 -2.3443744655523107e-02
      1.6392308619995671e-02 -1.0781659146082152e-02
      4.2184574124694502e-03 -4.2108977571147675e-03
      1.1150693961283738e-02 -1.9372907718577335e-02
      -1.5933355066203161e-02 -1.9189114626811155e-02
      -2.2968425028020101e-02 1.8180807824397766e-02
      -6.6809621035501133e-03 7.1761997751590111e-03
      -1.5683931413301020e-02 -2.2389104152656304e-02
      1.4071174777800117e-02 7.4018367812853118e-03
      -2.4541348759502782e-03 -1.0724211522726261e-02
      -9.2793790985905220e-03 -2.0497532253436226e-02
      -1.8500819421158703e-02 -6.5774692171227606e-03
      9.5942782607790732e-03 1.8853516198521447e-02
      4.2586609662992470e-01 -8.0655145228010310e-03
      -1.9138297105066940e-02 -1.4828801590720269e-02
      1.6333775177893087e-02 -2.3268750463827662e-02
      1.9377845637893489e-02 1.2900610324828555e-02
      1.4912443029662222e-02 -2.6794483877846755e-03
      -2.2046992919970997e-02 -1.2277885946158426e-02
      -2.0058425435099905e-02 9.6348414881373811e-03
      1.2308247756929023e-02 -2.2150379996714414e-02
      1.6850793076453398e-02 -8.8590199429121261e-03
      5.9634085418704737e-03 -2.6866540470881447e-03
      1.1206766166956402e-02 -2.1365923673735892e-02
      -1.5861754616818175e-02 -1.9353046069226019e-02
      -2.2342288110804312e-02 1.7795632606247634e-02
      -7.3164645853342359e-03 7.4156696280737351e-03
      -1.7511036477398326e-02 -2.1101610739700502e-02
