<?xml version="1.0"?>
<opencv_storage>
<shapeML type_id="opencv-ml-ann-mlp">
  <layer_sizes type_id="opencv-matrix">
    <rows>1</rows>
    <cols>3</cols>
    <dt>i</dt>
    <data>
      1600 40 1</data></layer_sizes>
  <activation_function>SIGMOID_SYM</activation_function>
  <f_param1>5.9999999999999998e-01</f_param1>
  <f_param2>1.</f_param2>
  <min_val>-9.4999999999999996e-01</min_val>
  <max_val>9.4999999999999996e-01</max_val>
  <min_val1>-9.7999999999999998e-01</min_val1>
  <max_val1>9.7999999999999998e-01</max_val1>
  <training_params>
    <train_method>BACKPROP</train_method>
    <dw_scale>1.0000000000000001e-01</dw_scale>
    <moment_scale>1.0000000000000001e-01</moment_scale>
    <term_criteria><epsilon>9.9999999747524271e-07</epsilon>
      <iterations>4000</iterations></term_criteria></training_params>
  <input_scale>
    4.9760099496040412e-02 -7.9305158571814402e-02
    2.5118141773347001e-02 -1.6012815380508713e-01
    4.9760099496040412e-02 -7.9305158571814402e-02
    4.9760099496040412e-02 -7.9305158571814402e-02
    2.8911415064099853e-02 -1.3823270327522744e-01
    2.8911415064099853e-02 -1.3823270327522744e-01
    2.2538704568065868e-02 -1.7960530202677488e-01
    2.5118141773347001e-02 -1.6012815380508713e-01
    2.0641621802659420e-02 -1.9738550848793071e-01
    1.9172779022812263e-02 -2.1389631597324932e-01
    1.7993390891808767e-02 -2.2941573387056177e-01
    1.6200714650802268e-02 -2.5819888974716115e-01
    2.0641621802659420e-02 -1.9738550848793071e-01
    1.7993390891808767e-02 -2.2941573387056177e-01
    1.7020412209592876e-02 -2.4413653763134782e-01
    1.5498523474617693e-02 -2.7170848966439143e-01
    1.4888752874549003e-02 -2.8474739872574967e-01
    2.0641621802659420e-02 -1.9738550848793071e-01
    1.7993390891808767e-02 -2.2941573387056177e-01
    1.1613490118041584e-02 -3.8868899738820428e-01
    1.0470612796272080e-02 -4.5056355688958294e-01
    1.2122534964830045e-02 -3.6708551190375982e-01
    1.4353223870483999e-02 -2.9738085706659034e-01
    1.5498523474617693e-02 -2.7170848966439143e-01
    2.8911415064099853e-02 -1.3823270327522744e-01
    2.8911415064099853e-02 -1.3823270327522744e-01
    2.5118141773347001e-02 -1.6012815380508713e-01
    2.2538704568065868e-02 -1.7960530202677488e-01
    2.8911415064099853e-02 -1.3823270327522744e-01
    1.9172779022812263e-02 -2.1389631597324932e-01
    1.7020412209592876e-02 -2.4413653763134782e-01
    2.2538704568065868e-02 -1.7960530202677488e-01
    1.7993390891808767e-02 -2.2941573387056177e-01
    2.2538704568065868e-02 -1.7960530202677488e-01
    1.9172779022812263e-02 -2.1389631597324932e-01
    1.7993390891808767e-02 -2.2941573387056177e-01
    3.5296875323169379e-02 -1.1250879009260240e-01
    3.5296875323169379e-02 -1.1250879009260240e-01
    4.9760099496040412e-02 -7.9305158571814402e-02
    2.8911415064099853e-02 -1.3823270327522744e-01
    2.5118141773347001e-02 -1.6012815380508713e-01
    2.2538704568065868e-02 -1.7960530202677488e-01
    4.9760099496040412e-02 -7.9305158571814402e-02
    3.5296875323169379e-02 -1.1250879009260240e-01
    2.2538704568065868e-02 -1.7960530202677488e-01
    2.2538704568065868e-02 -1.7960530202677488e-01
    1.9172779022812263e-02 -2.1389631597324932e-01
    1.7993390891808767e-02 -2.2941573387056177e-01
    1.7020412209592876e-02 -2.4413653763134782e-01
    1.6200714650802268e-02 -2.5819888974716115e-01
    1.3071895424836602e-02 -3.3333333333333337e-01
    1.2410788582419381e-02 -3.5603449745815596e-01
    1.3071895424836602e-02 -3.3333333333333337e-01
    1.1177781107073584e-02 -4.0973553870616608e-01
    1.0470612796272080e-02 -4.5056355688958294e-01
    9.9221114321795360e-03 -4.9021431794612019e-01
    1.0470612796272080e-02 -4.5056355688958294e-01
    9.6921688568588054e-03 -5.0974750581541783e-01
    9.4861671657217820e-03 -5.2915026221291817e-01
    9.9221114321795360e-03 -4.9021431794612019e-01
    9.1338697357625457e-03 -5.6772709076349070e-01
    9.9221114321795360e-03 -4.9021431794612019e-01
    9.5863895114061317e-03 -5.1946248164931974e-01
    1.0179938526640534e-02 -4.7050403377816719e-01
    1.1387513861029454e-02 -3.9927470475234522e-01
    1.3071895424836602e-02 -3.3333333333333337e-01
    1.6200714650802268e-02 -2.5819888974716115e-01
    1.5498523474617693e-02 -2.7170848966439143e-01
    1.5498523474617693e-02 -2.7170848966439143e-01
    1.4353223870483999e-02 -2.9738085706659034e-01
    1.4888752874549003e-02 -2.8474739872574967e-01
    1.5498523474617693e-02 -2.7170848966439143e-01
    1.4888752874549003e-02 -2.8474739872574967e-01
    1.4888752874549003e-02 -2.8474739872574967e-01
    1.4888752874549003e-02 -2.8474739872574967e-01
    1.5498523474617693e-02 -2.7170848966439143e-01
    2.8911415064099853e-02 -1.3823270327522744e-01
    3.5296875323169379e-02 -1.1250879009260240e-01
    2.5118141773347001e-02 -1.6012815380508713e-01
    2.0641621802659420e-02 -1.9738550848793071e-01
    4.9760099496040412e-02 -7.9305158571814402e-02
    2.2538704568065868e-02 -1.7960530202677488e-01
    2.2538704568065868e-02 -1.7960530202677488e-01
    2.5118141773347001e-02 -1.6012815380508713e-01
    2.0641621802659420e-02 -1.9738550848793071e-01
    1.7993390891808767e-02 -2.2941573387056177e-01
    1.5498523474617693e-02 -2.7170848966439143e-01
    1.5498523474617693e-02 -2.7170848966439143e-01
    1.2725865322585673e-02 -3.4479141358380555e-01
    1.1857708957152227e-02 -3.7796447300922725e-01
    1.0982588894337331e-02 -4.2008402520840293e-01
    1.0470612796272080e-02 -4.5056355688958294e-01
    1.0320810901329710e-02 -4.6056618647183833e-01
    9.2152705168007318e-03 -5.5809982067374431e-01
    9.3009301849924612e-03 -5.4846422684627416e-01
    8.7826276228369308e-03 -6.1588176205143974e-01
    8.9828550775546308e-03 -5.8697343647396039e-01
    8.8461162758235509e-03 -6.0623540602753268e-01
    8.6097720137201812e-03 -6.4492573490272731e-01
    8.9127998388570367e-03 -5.9660053921349288e-01
    8.4605472936563706e-03 -6.7419986246324204e-01
    8.6645988496644299e-03 -6.3522340316602355e-01
    9.0564748108176597e-03 -5.7735026918962584e-01
    9.2152705168007318e-03 -5.5809982067374431e-01
    8.9828550775546308e-03 -5.8697343647396039e-01
    8.9828550775546308e-03 -5.8697343647396039e-01
    1.0630182707007016e-02 -4.4048819592160321e-01
    1.1613490118041584e-02 -3.8868899738820428e-01
    1.1613490118041584e-02 -3.8868899738820428e-01
    1.2725865322585673e-02 -3.4479141358380555e-01
    1.3071895424836602e-02 -3.3333333333333337e-01
    1.3878398594629297e-02 -3.0966176864266620e-01
    1.3453961221493895e-02 -3.2163376045133840e-01
    1.2725865322585673e-02 -3.4479141358380555e-01
    1.3071895424836602e-02 -3.3333333333333337e-01
    1.3071895424836602e-02 -3.3333333333333337e-01
    1.5498523474617693e-02 -2.7170848966439143e-01
    1.7993390891808767e-02 -2.2941573387056177e-01
    1.9172779022812263e-02 -2.1389631597324932e-01
    2.8911415064099853e-02 -1.3823270327522744e-01 1. 0.
    4.9760099496040412e-02 -7.9305158571814402e-02
    2.0641621802659420e-02 -1.9738550848793071e-01
    1.7993390891808767e-02 -2.2941573387056177e-01
    1.5498523474617693e-02 -2.7170848966439143e-01
    1.6200714650802268e-02 -2.5819888974716115e-01
    1.3878398594629297e-02 -3.0966176864266620e-01
    1.0800476433868177e-02 -4.3033148291193518e-01
    1.0630182707007016e-02 -4.4048819592160321e-01
    1.0047256709338800e-02 -4.8038446141526142e-01
    1.0630182707007016e-02 -4.4048819592160321e-01
    8.9828550775546308e-03 -5.8697343647396039e-01
    9.0564748108176597e-03 -5.7735026918962584e-01
    8.6097720137201812e-03 -6.4492573490272731e-01
    8.6097720137201812e-03 -6.4492573490272731e-01
    8.3320137615741485e-03 -7.0379478742296631e-01
    8.2566487210637678e-03 -7.2374686445574588e-01
    8.1888659532056429e-03 -7.4390729143652512e-01
    8.2933499160067359e-03 -7.1374642714632974e-01
    8.5575643229800942e-03 -6.5465367070797720e-01
    8.2218418566424971e-03 -7.3379938570534287e-01
    8.1576622351740187e-03 -7.5407390286389830e-01
    8.1281761994577185e-03 -7.6430256825525855e-01
    8.1576622351740187e-03 -7.5407390286389830e-01
    8.3727139244490004e-03 -6.9388866648871095e-01
    8.9127998388570367e-03 -5.9660053921349288e-01
    9.2152705168007318e-03 -5.5809982067374431e-01
    8.7221715684005132e-03 -6.2554324217122426e-01
    1.0630182707007016e-02 -4.4048819592160321e-01
    1.0800476433868177e-02 -4.3033148291193518e-01
    1.1613490118041584e-02 -3.8868899738820428e-01
    1.2122534964830045e-02 -3.6708551190375982e-01
    1.4888752874549003e-02 -2.8474739872574967e-01
    1.3878398594629297e-02 -3.0966176864266620e-01
    1.3453961221493895e-02 -3.2163376045133840e-01
    1.2725865322585673e-02 -3.4479141358380555e-01
    1.3071895424836602e-02 -3.3333333333333337e-01
    1.6200714650802268e-02 -2.5819888974716115e-01
    2.2538704568065868e-02 -1.7960530202677488e-01
    2.5118141773347001e-02 -1.6012815380508713e-01
    4.9760099496040412e-02 -7.9305158571814402e-02
    2.5118141773347001e-02 -1.6012815380508713e-01
    2.5118141773347001e-02 -1.6012815380508713e-01
    1.4353223870483999e-02 -2.9738085706659034e-01
    1.3071895424836602e-02 -3.3333333333333337e-01
    1.3071895424836602e-02 -3.3333333333333337e-01
    1.0800476433868177e-02 -4.3033148291193518e-01
    1.0047256709338800e-02 -4.8038446141526142e-01
    9.6921688568588054e-03 -5.0974750581541783e-01
    9.5863895114061317e-03 -5.1946248164931974e-01
    8.9828550775546308e-03 -5.8697343647396039e-01
    8.7826276228369308e-03 -6.1588176205143974e-01
    8.6645988496644299e-03 -6.3522340316602355e-01
    8.3727139244490004e-03 -6.9388866648871095e-01
    8.3320137615741485e-03 -7.0379478742296631e-01
    8.4155298582193599e-03 -6.8402478628839236e-01
    7.9660661352004003e-03 -8.3793058159639211e-01
    8.1281761994577185e-03 -7.6430256825525855e-01
    8.2933499160067359e-03 -7.1374642714632974e-01
    8.4155298582193599e-03 -6.8402478628839236e-01
    8.1888659532056429e-03 -7.4390729143652512e-01
    8.4155298582193599e-03 -6.8402478628839236e-01
    8.2218418566424971e-03 -7.3379938570534287e-01
    8.3727139244490004e-03 -6.9388866648871095e-01
    8.5078587854565731e-03 -6.6441059702674921e-01
    8.3320137615741485e-03 -7.0379478742296631e-01
    8.3727139244490004e-03 -6.9388866648871095e-01
    8.5078587854565731e-03 -6.6441059702674921e-01
    8.9828550775546308e-03 -5.8697343647396039e-01
    9.3911269033607782e-03 -5.3881590608032470e-01
    1.0320810901329710e-02 -4.6056618647183833e-01
    1.1177781107073584e-02 -4.0973553870616608e-01
    1.1857708957152227e-02 -3.7796447300922725e-01
    1.3071895424836602e-02 -3.3333333333333337e-01
    1.3453961221493895e-02 -3.2163376045133840e-01
    1.1387513861029454e-02 -3.9927470475234522e-01
    1.3071895424836602e-02 -3.3333333333333337e-01
    1.7020412209592876e-02 -2.4413653763134782e-01
    2.0641621802659420e-02 -1.9738550848793071e-01
    2.0641621802659420e-02 -1.9738550848793071e-01
    3.5296875323169379e-02 -1.1250879009260240e-01
    2.0641621802659420e-02 -1.9738550848793071e-01
    1.7993390891808767e-02 -2.2941573387056177e-01
    1.4353223870483999e-02 -2.9738085706659034e-01
    1.2410788582419381e-02 -3.5603449745815596e-01
    1.0630182707007016e-02 -4.4048819592160321e-01
    9.6921688568588054e-03 -5.0974750581541783e-01
    9.6921688568588054e-03 -5.0974750581541783e-01
    9.0564748108176597e-03 -5.7735026918962584e-01
    8.7221715684005132e-03 -6.2554324217122426e-01
    8.9127998388570367e-03 -5.9660053921349288e-01
    8.6645988496644299e-03 -6.3522340316602355e-01
    8.3320137615741485e-03 -7.0379478742296631e-01
    8.6097720137201812e-03 -6.4492573490272731e-01
    8.2933499160067359e-03 -7.1374642714632974e-01
    8.1281761994577185e-03 -7.6430256825525855e-01
    7.8437500718154165e-03 -9.8757715747950980e-01
    7.9328899988105675e-03 -8.5972695362109530e-01
    7.8932457519430080e-03 -8.9317008961830102e-01
    8.0741588128855728e-03 -7.8495962709021927e-01
    8.0264528779433863e-03 -8.0590603427600316e-01
    8.0264528779433863e-03 -8.0590603427600316e-01
    8.2218418566424971e-03 -7.3379938570534287e-01
    8.1888659532056429e-03 -7.4390729143652512e-01
    7.9660661352004003e-03 -8.3793058159639211e-01
    7.9487882271087121e-03 -8.4878154287595220e-01
    7.9487882271087121e-03 -8.4878154287595220e-01
    8.1888659532056429e-03 -7.4390729143652512e-01
    8.7826276228369308e-03 -6.1588176205143974e-01
    8.9828550775546308e-03 -5.8697343647396039e-01
    9.8039215686274508e-03 -5.0000000000000000e-01
    9.8039215686274508e-03 -5.0000000000000000e-01
    1.0800476433868177e-02 -4.3033148291193518e-01
    1.0320810901329710e-02 -4.6056618647183833e-01
    1.1177781107073584e-02 -4.0973553870616608e-01
    1.0630182707007016e-02 -4.4048819592160321e-01
    1.3453961221493895e-02 -3.2163376045133840e-01
    1.7993390891808767e-02 -2.2941573387056177e-01
    2.0641621802659420e-02 -1.9738550848793071e-01
    1.7020412209592876e-02 -2.4413653763134782e-01
    3.5296875323169379e-02 -1.1250879009260240e-01
    1.6200714650802268e-02 -2.5819888974716115e-01
    1.4888752874549003e-02 -2.8474739872574967e-01
    1.1177781107073584e-02 -4.0973553870616608e-01
    1.0982588894337331e-02 -4.2008402520840293e-01
    1.0320810901329710e-02 -4.6056618647183833e-01
    9.3911269033607782e-03 -5.3881590608032470e-01
    9.8039215686274508e-03 -5.0000000000000000e-01
    8.7221715684005132e-03 -6.2554324217122426e-01
    8.7221715684005132e-03 -6.2554324217122426e-01
    8.8461162758235509e-03 -6.0623540602753268e-01
    8.4155298582193599e-03 -6.8402478628839236e-01
    8.1281761994577185e-03 -7.6430256825525855e-01
    8.0495373457378106e-03 -7.9539490897571741e-01
    7.8652895774729437e-03 -9.2761258954321535e-01
    7.8733352784794985e-03 -9.1601335130559913e-01
    7.8585009077352091e-03 -9.3933643662772426e-01
    7.8652895774729437e-03 -9.2761258954321535e-01
    7.8437500718154165e-03 -9.8757715747950980e-01
    7.8431372549019607e-03 -1. 7.8652895774729437e-03
    -9.2761258954321535e-01 8.0048684404679018e-03
    -8.1649658092772603e-01 8.0741588128855728e-03
    -7.8495962709021927e-01 7.9487882271087121e-03
    -8.4878154287595220e-01 8.0264528779433863e-03
    -8.0590603427600316e-01 7.8733352784794985e-03
    -9.1601335130559913e-01 7.8652895774729437e-03
    -9.2761258954321535e-01 7.9328899988105675e-03
    -8.5972695362109530e-01 8.1888659532056429e-03
    -7.4390729143652512e-01 8.2218418566424971e-03
    -7.3379938570534287e-01 8.7221715684005132e-03
    -6.2554324217122426e-01 8.9828550775546308e-03
    -5.8697343647396039e-01 9.0564748108176597e-03
    -5.7735026918962584e-01 9.4861671657217820e-03
    -5.2915026221291817e-01 1.0179938526640534e-02
    -4.7050403377816719e-01 1.2122534964830045e-02
    -3.6708551190375982e-01 1.1857708957152227e-02
    -3.7796447300922725e-01 1.4353223870483999e-02
    -2.9738085706659034e-01 1.5498523474617693e-02
    -2.7170848966439143e-01 2.0641621802659420e-02
    -1.9738550848793071e-01 2.2538704568065868e-02
    -1.7960530202677488e-01 1.4888752874549003e-02
    -2.8474739872574967e-01 1.3453961221493895e-02
    -3.2163376045133840e-01 1.0800476433868177e-02
    -4.3033148291193518e-01 1.0630182707007016e-02
    -4.4048819592160321e-01 1.1613490118041584e-02
    -3.8868899738820428e-01 8.8461162758235509e-03
    -6.0623540602753268e-01 8.3320137615741485e-03
    -7.0379478742296631e-01 8.3727139244490004e-03
    -6.9388866648871095e-01 8.5078587854565731e-03
    -6.6441059702674921e-01 8.3727139244490004e-03
    -6.9388866648871095e-01 7.9847499667548578e-03
    -8.2717019186851104e-01 7.9051393047681520e-03
    -8.8191710368819698e-01 7.8437500718154165e-03
    -9.8757715747950980e-01 7.8529595972040601e-03
    -9.5118973121134176e-01 7.8826495314448016e-03
    -9.0453403373329100e-01 7.8733352784794985e-03
    -9.1601335130559913e-01 7.8733352784794985e-03
    -9.1601335130559913e-01 7.8486577839000371e-03
    -9.6317747241798268e-01 7.8486577839000371e-03
    -1.0382302624765267e+00 7.8455893847898875e-03
    -9.7530483039669291e-01 7.8733352784794985e-03
    -9.1601335130559913e-01 7.8486577839000371e-03
    -1.0382302624765267e+00 7.8455893847898875e-03
    -1.0253204627247283e+00 7.8431372549019607e-03 -1.
    7.9051393047681520e-03 -8.8191710368819698e-01
    7.8733352784794985e-03 -9.1601335130559913e-01
    7.9051393047681520e-03 -8.8191710368819698e-01
    8.1888659532056429e-03 -7.4390729143652512e-01
    8.2218418566424971e-03 -7.3379938570534287e-01
    8.1003573254011339e-03 -7.7459666924148340e-01
    8.4155298582193599e-03 -6.8402478628839236e-01
    8.7221715684005132e-03 -6.2554324217122426e-01
    8.7221715684005132e-03 -6.2554324217122426e-01
    1.0179938526640534e-02 -4.7050403377816719e-01
    1.0982588894337331e-02 -4.2008402520840293e-01
    1.1857708957152227e-02 -3.7796447300922725e-01
    1.4888752874549003e-02 -2.8474739872574967e-01
    1.7993390891808767e-02 -2.2941573387056177e-01
    1.9172779022812263e-02 -2.1389631597324932e-01
    1.9172779022812263e-02 -2.1389631597324932e-01
    1.4353223870483999e-02 -2.9738085706659034e-01
    1.3878398594629297e-02 -3.0966176864266620e-01
    1.1857708957152227e-02 -3.7796447300922725e-01
    1.1177781107073584e-02 -4.0973553870616608e-01
    1.0320810901329710e-02 -4.6056618647183833e-01
    8.9127998388570367e-03 -5.9660053921349288e-01
    8.1576622351740187e-03 -7.5407390286389830e-01
    8.0264528779433863e-03 -8.0590603427600316e-01
    8.0741588128855728e-03 -7.8495962709021927e-01
    7.9847499667548578e-03 -8.2717019186851104e-01
    7.8437500718154165e-03 -9.8757715747950980e-01
    7.8529595972040601e-03 -9.5118973121134176e-01
    7.8652895774729437e-03 -9.2761258954321535e-01
    7.9183475667855326e-03 -8.7077078398494656e-01
    7.9487882271087121e-03 -8.4878154287595220e-01
    7.8652895774729437e-03 -9.2761258954321535e-01
    7.8455893847898875e-03 -9.7530483039669291e-01
    7.8652895774729437e-03 -9.2761258954321535e-01
    7.8652895774729437e-03 -9.2761258954321535e-01
    7.9487882271087121e-03 -8.4878154287595220e-01
    7.8455893847898875e-03 -1.0253204627247283e+00
    7.8529595972040601e-03 -1.0513149660756935e+00
    7.8486577839000371e-03 -9.6317747241798268e-01
    7.9328899988105675e-03 -8.5972695362109530e-01
    7.8486577839000371e-03 -9.6317747241798268e-01
    7.8826495314448016e-03 -9.0453403373329100e-01
    8.0495373457378106e-03 -7.9539490897571741e-01
    8.0264528779433863e-03 -8.0590603427600316e-01
    7.9847499667548578e-03 -8.2717019186851104e-01
    8.1281761994577185e-03 -7.6430256825525855e-01
    8.0264528779433863e-03 -8.0590603427600316e-01
    8.0264528779433863e-03 -8.0590603427600316e-01
    8.7221715684005132e-03 -6.2554324217122426e-01
    9.3911269033607782e-03 -5.3881590608032470e-01
    1.0630182707007016e-02 -4.4048819592160321e-01
    1.0630182707007016e-02 -4.4048819592160321e-01
    1.3878398594629297e-02 -3.0966176864266620e-01
    1.6200714650802268e-02 -2.5819888974716115e-01
    2.0641621802659420e-02 -1.9738550848793071e-01
    2.0641621802659420e-02 -1.9738550848793071e-01
    1.4353223870483999e-02 -2.9738085706659034e-01
    1.3453961221493895e-02 -3.2163376045133840e-01
    1.1387513861029454e-02 -3.9927470475234522e-01
    9.6921688568588054e-03 -5.0974750581541783e-01
    8.6645988496644299e-03 -6.3522340316602355e-01
    8.4155298582193599e-03 -6.8402478628839236e-01
    8.1888659532056429e-03 -7.4390729143652512e-01
    7.9328899988105675e-03 -8.5972695362109530e-01
    7.9660661352004003e-03 -8.3793058159639211e-01
    7.9183475667855326e-03 -8.7077078398494656e-01
    7.8585009077352091e-03 -9.3933643662772426e-01
    7.8652895774729437e-03 -9.2761258954321535e-01
    7.8529595972040601e-03 -9.5118973121134176e-01
    7.8733352784794985e-03 -9.1601335130559913e-01
    7.8437500718154165e-03 -1.0125791108334214e+00
    7.8585009077352091e-03 -9.3933643662772426e-01
    7.8529595972040601e-03 -9.5118973121134176e-01
    8.0264528779433863e-03 -8.0590603427600316e-01
    7.8826495314448016e-03 -9.0453403373329100e-01
    7.8437500718154165e-03 -9.8757715747950980e-01
    7.8486577839000371e-03 -1.0382302624765267e+00
    7.8652895774729437e-03 -1.0780362527123855e+00
    7.8486577839000371e-03 -9.6317747241798268e-01
    7.8431372549019607e-03 -1. 7.8455893847898875e-03
    -1.0253204627247283e+00 7.9328899988105675e-03
    -8.5972695362109530e-01 7.8486577839000371e-03
    -9.6317747241798268e-01 7.8486577839000371e-03
    -9.6317747241798268e-01 7.9051393047681520e-03
    -8.8191710368819698e-01 7.9051393047681520e-03
    -8.8191710368819698e-01 7.9487882271087121e-03
    -8.4878154287595220e-01 8.0264528779433863e-03
    -8.0590603427600316e-01 8.2566487210637678e-03
    -7.2374686445574588e-01 8.6645988496644299e-03
    -6.3522340316602355e-01 9.2152705168007318e-03
    -5.5809982067374431e-01 1.0179938526640534e-02
    -4.7050403377816719e-01 1.2725865322585673e-02
    -3.4479141358380555e-01 1.4353223870483999e-02
    -2.9738085706659034e-01 1.7020412209592876e-02
    -2.4413653763134782e-01 1.7993390891808767e-02
    -2.2941573387056177e-01 1.3453961221493895e-02
    -3.2163376045133840e-01 1.2410788582419381e-02
    -3.5603449745815596e-01 1.0179938526640534e-02
    -4.7050403377816719e-01 8.4605472936563706e-03
    -6.7419986246324204e-01 8.4155298582193599e-03
    -6.8402478628839236e-01 8.6097720137201812e-03
    -6.4492573490272731e-01 8.3320137615741485e-03
    -7.0379478742296631e-01 8.1576622351740187e-03
    -7.5407390286389830e-01 7.8826495314448016e-03
    -9.0453403373329100e-01 7.8529595972040601e-03
    -1.0513149660756935e+00 7.8455893847898875e-03
    -9.7530483039669291e-01 7.8652895774729437e-03
    -9.2761258954321535e-01 7.8431372549019607e-03 -1.
    7.8437500718154165e-03 -1.0125791108334214e+00
    7.8529595972040601e-03 -1.0513149660756935e+00
    7.8529595972040601e-03 -1.0513149660756935e+00
    7.8932457519430080e-03 -8.9317008961830102e-01
    7.9847499667548578e-03 -8.2717019186851104e-01
    7.8486577839000371e-03 -9.6317747241798268e-01
    7.8431372549019607e-03 -1. 7.8455893847898875e-03
    -9.7530483039669291e-01 7.8932457519430080e-03
    -1.1196075771271661e+00 7.8455893847898875e-03
    -1.0253204627247283e+00 7.8437500718154165e-03
    -1.0125791108334214e+00 7.8455893847898875e-03
    -1.0253204627247283e+00 7.8431372549019607e-03 -1.
    7.9487882271087121e-03 -1.1781594550367693e+00
    7.8486577839000371e-03 -1.0382302624765267e+00
    7.8826495314448016e-03 -1.1055415967851334e+00
    7.8585009077352091e-03 -9.3933643662772426e-01
    7.9660661352004003e-03 -8.3793058159639211e-01
    7.9660661352004003e-03 -8.3793058159639211e-01
    8.0495373457378106e-03 -7.9539490897571741e-01
    8.2566487210637678e-03 -7.2374686445574588e-01
    8.7221715684005132e-03 -6.2554324217122426e-01
    9.8039215686274508e-03 -5.0000000000000000e-01
    1.1613490118041584e-02 -3.8868899738820428e-01
    1.2410788582419381e-02 -3.5603449745815596e-01
    1.4353223870483999e-02 -2.9738085706659034e-01
    2.2538704568065868e-02 -1.7960530202677488e-01
    1.3453961221493895e-02 -3.2163376045133840e-01
    1.1613490118041584e-02 -3.8868899738820428e-01
    8.8461162758235509e-03 -6.0623540602753268e-01
    8.2218418566424971e-03 -7.3379938570534287e-01
    8.5078587854565731e-03 -6.6441059702674921e-01
    8.5575643229800942e-03 -6.5465367070797720e-01
    8.1281761994577185e-03 -7.6430256825525855e-01
    8.0048684404679018e-03 -8.1649658092772603e-01
    7.8932457519430080e-03 -8.9317008961830102e-01
    7.8431372549019607e-03 -1. 7.8437500718154165e-03
    -9.8757715747950980e-01 7.8652895774729437e-03
    -9.2761258954321535e-01 7.9051393047681520e-03
    -8.8191710368819698e-01 7.8437500718154165e-03
    -1.0125791108334214e+00 7.8826495314448016e-03
    -1.1055415967851334e+00 7.8455893847898875e-03
    -1.0253204627247283e+00 7.8932457519430080e-03
    -8.9317008961830102e-01 7.8585009077352091e-03
    -9.3933643662772426e-01 7.8455893847898875e-03
    -1.0253204627247283e+00 7.8486577839000371e-03
    -9.6317747241798268e-01 7.8652895774729437e-03
    -9.2761258954321535e-01 7.8585009077352091e-03
    -9.3933643662772426e-01 7.8431372549019607e-03 -1.
    7.8486577839000371e-03 -9.6317747241798268e-01
    7.8437500718154165e-03 -9.8757715747950980e-01
    7.8585009077352091e-03 -1.0645812948447542e+00
    7.9847499667548578e-03 -1.2089410496539776e+00
    8.0495373457378106e-03 -1.2572371141874243e+00
    7.9660661352004003e-03 -1.1934162828797099e+00
    7.8652895774729437e-03 -1.0780362527123855e+00
    7.8826495314448016e-03 -9.0453403373329100e-01
    7.8529595972040601e-03 -9.5118973121134176e-01
    7.8932457519430080e-03 -8.9317008961830102e-01
    7.9660661352004003e-03 -8.3793058159639211e-01
    8.2933499160067359e-03 -7.1374642714632974e-01
    9.2152705168007318e-03 -5.5809982067374431e-01
    1.0179938526640534e-02 -4.7050403377816719e-01
    1.3453961221493895e-02 -3.2163376045133840e-01
    1.4353223870483999e-02 -2.9738085706659034e-01
    1.9172779022812263e-02 -2.1389631597324932e-01
    1.3453961221493895e-02 -3.2163376045133840e-01
    1.0630182707007016e-02 -4.4048819592160321e-01
    8.8461162758235509e-03 -6.0623540602753268e-01
    8.1576622351740187e-03 -7.5407390286389830e-01
    8.0495373457378106e-03 -7.9539490897571741e-01
    7.9660661352004003e-03 -8.3793058159639211e-01
    8.1281761994577185e-03 -7.6430256825525855e-01
    7.9051393047681520e-03 -8.8191710368819698e-01
    7.8455893847898875e-03 -9.7530483039669291e-01
    7.8733352784794985e-03 -9.1601335130559913e-01
    7.8486577839000371e-03 -1.0382302624765267e+00
    7.8455893847898875e-03 -9.7530483039669291e-01
    7.8437500718154165e-03 -1.0125791108334214e+00
    7.9051393047681520e-03 -1.1338934190276817e+00
    7.8733352784794985e-03 -1.0916871447066729e+00
    7.8437500718154165e-03 -9.8757715747950980e-01
    7.8431372549019607e-03 -1. 7.8437500718154165e-03
    -1.0125791108334214e+00 7.8437500718154165e-03
    -9.8757715747950980e-01 7.8486577839000371e-03
    -9.6317747241798268e-01 7.8585009077352091e-03
    -9.3933643662772426e-01 7.8529595972040601e-03
    -9.5118973121134176e-01 7.8486577839000371e-03
    -1.0382302624765267e+00 7.8437500718154165e-03
    -1.0125791108334214e+00 7.8486577839000371e-03
    -1.0382302624765267e+00 8.1576622351740187e-03
    -1.3261299671054765e+00 8.1576622351740187e-03
    -1.3261299671054765e+00 8.1576622351740187e-03
    -1.3261299671054765e+00 7.8585009077352091e-03
    -1.0645812948447542e+00 7.8529595972040601e-03
    -1.0513149660756935e+00 7.8455893847898875e-03
    -9.7530483039669291e-01 7.8486577839000371e-03
    -9.6317747241798268e-01 7.8431372549019607e-03 -1.
    7.9051393047681520e-03 -8.8191710368819698e-01
    8.2566487210637678e-03 -7.2374686445574588e-01
    8.7826276228369308e-03 -6.1588176205143974e-01
    1.0047256709338800e-02 -4.8038446141526142e-01
    1.3071895424836602e-02 -3.3333333333333337e-01
    1.6200714650802268e-02 -2.5819888974716115e-01
    1.7020412209592876e-02 -2.4413653763134782e-01
    1.1613490118041584e-02 -3.8868899738820428e-01
    9.0564748108176597e-03 -5.7735026918962584e-01
    8.5575643229800942e-03 -6.5465367070797720e-01
    8.0264528779433863e-03 -8.0590603427600316e-01
    7.9328899988105675e-03 -8.5972695362109530e-01
    7.9487882271087121e-03 -8.4878154287595220e-01
    7.8826495314448016e-03 -9.0453403373329100e-01
    7.8486577839000371e-03 -9.6317747241798268e-01
    7.8585009077352091e-03 -9.3933643662772426e-01
    7.8437500718154165e-03 -1.0125791108334214e+00
    7.8437500718154165e-03 -1.0125791108334214e+00
    7.8826495314448016e-03 -1.1055415967851334e+00
    7.8585009077352091e-03 -1.0645812948447542e+00
    7.8431372549019607e-03 -1. 7.8437500718154165e-03
    -1.0125791108334214e+00 7.8486577839000371e-03
    -9.6317747241798268e-01 7.8486577839000371e-03
    -9.6317747241798268e-01 7.8455893847898875e-03
    -1.0253204627247283e+00 7.8455893847898875e-03
    -9.7530483039669291e-01 7.8437500718154165e-03
    -9.8757715747950980e-01 7.8733352784794985e-03
    -9.1601335130559913e-01 7.8652895774729437e-03
    -9.2761258954321535e-01 7.9051393047681520e-03
    -1.1338934190276817e+00 7.8826495314448016e-03
    -1.1055415967851334e+00 7.9847499667548578e-03
    -1.2089410496539776e+00 8.1888659532056429e-03
    -1.3442535266309139e+00 8.0495373457378106e-03
    -1.2572371141874243e+00 8.0048684404679018e-03
    -1.2247448713915889e+00 7.9328899988105675e-03
    -1.1631599960755994e+00 7.8733352784794985e-03
    -1.0916871447066729e+00 7.8652895774729437e-03
    -1.0780362527123855e+00 7.8826495314448016e-03
    -9.0453403373329100e-01 8.0264528779433863e-03
    -8.0590603427600316e-01 7.8932457519430080e-03
    -8.9317008961830102e-01 8.1003573254011339e-03
    -7.7459666924148340e-01 8.9127998388570367e-03
    -5.9660053921349288e-01 9.8039215686274508e-03
    -5.0000000000000000e-01 1.0047256709338800e-02
    -4.8038446141526142e-01 1.4353223870483999e-02
    -2.9738085706659034e-01 1.2410788582419381e-02
    -3.5603449745815596e-01 1.0630182707007016e-02
    -4.4048819592160321e-01 9.1338697357625457e-03
    -5.6772709076349070e-01 8.3727139244490004e-03
    -6.9388866648871095e-01 7.8733352784794985e-03
    -9.1601335130559913e-01 7.9487882271087121e-03
    -8.4878154287595220e-01 7.8529595972040601e-03
    -9.5118973121134176e-01 7.8431372549019607e-03 -1.
    7.8486577839000371e-03 -9.6317747241798268e-01
    7.8529595972040601e-03 -9.5118973121134176e-01
    7.8486577839000371e-03 -1.0382302624765267e+00
    7.8585009077352091e-03 -1.0645812948447542e+00
    7.8932457519430080e-03 -1.1196075771271661e+00
    7.9328899988105675e-03 -1.1631599960755994e+00
    7.8455893847898875e-03 -1.0253204627247283e+00
    7.8826495314448016e-03 -9.0453403373329100e-01
    7.8486577839000371e-03 -9.6317747241798268e-01
    7.8652895774729437e-03 -9.2761258954321535e-01
    7.8486577839000371e-03 -9.6317747241798268e-01
    7.8585009077352091e-03 -9.3933643662772426e-01
    7.9328899988105675e-03 -8.5972695362109530e-01
    7.9183475667855326e-03 -8.7077078398494656e-01
    7.8437500718154165e-03 -9.8757715747950980e-01
    7.8486577839000371e-03 -1.0382302624765267e+00
    7.8437500718154165e-03 -1.0125791108334214e+00
    8.0495373457378106e-03 -1.2572371141874243e+00
    8.0048684404679018e-03 -1.2247448713915889e+00
    7.8932457519430080e-03 -1.1196075771271661e+00
    7.9847499667548578e-03 -1.2089410496539776e+00
    8.0048684404679018e-03 -1.2247448713915889e+00
    8.1281761994577185e-03 -1.3083823626064597e+00
    7.8932457519430080e-03 -1.1196075771271661e+00
    7.8437500718154165e-03 -1.0125791108334214e+00
    7.9051393047681520e-03 -8.8191710368819698e-01
    7.9487882271087121e-03 -8.4878154287595220e-01
    7.9487882271087121e-03 -8.4878154287595220e-01
    8.3320137615741485e-03 -7.0379478742296631e-01
    9.2152705168007318e-03 -5.5809982067374431e-01
    9.9221114321795360e-03 -4.9021431794612019e-01
    1.2410788582419381e-02 -3.5603449745815596e-01
    1.2410788582419381e-02 -3.5603449745815596e-01
    1.0320810901329710e-02 -4.6056618647183833e-01
    8.4605472936563706e-03 -6.7419986246324204e-01
    8.2218418566424971e-03 -7.3379938570534287e-01
    7.8455893847898875e-03 -9.7530483039669291e-01
    7.8652895774729437e-03 -9.2761258954321535e-01
    7.8431372549019607e-03 -1. 7.8733352784794985e-03
    -1.0916871447066729e+00 7.8733352784794985e-03
    -1.0916871447066729e+00 7.8486577839000371e-03
    -9.6317747241798268e-01 7.8437500718154165e-03
    -1.0125791108334214e+00 7.8455893847898875e-03
    -1.0253204627247283e+00 7.8652895774729437e-03
    -1.0780362527123855e+00 7.8431372549019607e-03 -1.
    7.8437500718154165e-03 -1.0125791108334214e+00
    7.8529595972040601e-03 -9.5118973121134176e-01
    7.8585009077352091e-03 -9.3933643662772426e-01
    7.9328899988105675e-03 -8.5972695362109530e-01
    7.8652895774729437e-03 -9.2761258954321535e-01
    7.8529595972040601e-03 -9.5118973121134176e-01
    7.8932457519430080e-03 -8.9317008961830102e-01
    7.9051393047681520e-03 -8.8191710368819698e-01
    7.8585009077352091e-03 -9.3933643662772426e-01
    7.8437500718154165e-03 -1.0125791108334214e+00
    7.8733352784794985e-03 -1.0916871447066729e+00
    7.8652895774729437e-03 -1.0780362527123855e+00
    7.9660661352004003e-03 -1.1934162828797099e+00
    7.9847499667548578e-03 -1.2089410496539776e+00
    7.8585009077352091e-03 -1.0645812948447542e+00
    8.0048684404679018e-03 -1.2247448713915889e+00
    7.9847499667548578e-03 -1.2089410496539776e+00
    7.9183475667855326e-03 -1.1484078455453643e+00
    7.8585009077352091e-03 -1.0645812948447542e+00
    7.8529595972040601e-03 -9.5118973121134176e-01
    7.9051393047681520e-03 -8.8191710368819698e-01
    7.9183475667855326e-03 -8.7077078398494656e-01
    8.1281761994577185e-03 -7.6430256825525855e-01
    8.4605472936563706e-03 -6.7419986246324204e-01
    9.3009301849924612e-03 -5.4846422684627416e-01
    1.1387513861029454e-02 -3.9927470475234522e-01
    1.4353223870483999e-02 -2.9738085706659034e-01
    9.3911269033607782e-03 -5.3881590608032470e-01
    8.7221715684005132e-03 -6.2554324217122426e-01
    8.2218418566424971e-03 -7.3379938570534287e-01
    7.9051393047681520e-03 -8.8191710368819698e-01
    7.8733352784794985e-03 -9.1601335130559913e-01
    7.8486577839000371e-03 -9.6317747241798268e-01
    7.8826495314448016e-03 -1.1055415967851334e+00
    7.9328899988105675e-03 -1.1631599960755994e+00
    7.8826495314448016e-03 -1.1055415967851334e+00
    7.9051393047681520e-03 -1.1338934190276817e+00
    7.8733352784794985e-03 -1.0916871447066729e+00
    7.8431372549019607e-03 -1. 7.8585009077352091e-03
    -1.0645812948447542e+00 7.8437500718154165e-03
    -9.8757715747950980e-01 7.8652895774729437e-03
    -9.2761258954321535e-01 7.8826495314448016e-03
    -9.0453403373329100e-01 7.9660661352004003e-03
    -8.3793058159639211e-01 7.9183475667855326e-03
    -8.7077078398494656e-01 7.9328899988105675e-03
    -8.5972695362109530e-01 7.9051393047681520e-03
    -8.8191710368819698e-01 7.8733352784794985e-03
    -9.1601335130559913e-01 7.8733352784794985e-03
    -9.1601335130559913e-01 7.8431372549019607e-03 -1.
    7.8431372549019607e-03 -1. 7.8437500718154165e-03
    -1.0125791108334214e+00 7.8431372549019607e-03 -1.
    7.9051393047681520e-03 -1.1338934190276817e+00
    8.0048684404679018e-03 -1.2247448713915889e+00
    8.0741588128855728e-03 -1.2739508701956017e+00
    7.9051393047681520e-03 -1.1338934190276817e+00
    7.8932457519430080e-03 -1.1196075771271661e+00
    7.8733352784794985e-03 -1.0916871447066729e+00
    7.8437500718154165e-03 -9.8757715747950980e-01
    7.9051393047681520e-03 -8.8191710368819698e-01
    7.8733352784794985e-03 -9.1601335130559913e-01
    7.9328899988105675e-03 -8.5972695362109530e-01
    8.4605472936563706e-03 -6.7419986246324204e-01
    9.2152705168007318e-03 -5.5809982067374431e-01
    1.0320810901329710e-02 -4.6056618647183833e-01
    1.2122534964830045e-02 -3.6708551190375982e-01
    9.3911269033607782e-03 -5.3881590608032470e-01
    8.9127998388570367e-03 -5.9660053921349288e-01
    8.0495373457378106e-03 -7.9539490897571741e-01
    7.8529595972040601e-03 -9.5118973121134176e-01
    7.8585009077352091e-03 -9.3933643662772426e-01
    7.8733352784794985e-03 -9.1601335130559913e-01
    7.8437500718154165e-03 -1.0125791108334214e+00
    7.8585009077352091e-03 -1.0645812948447542e+00
    7.8529595972040601e-03 -1.0513149660756935e+00
    7.9660661352004003e-03 -1.1934162828797099e+00
    7.9328899988105675e-03 -1.1631599960755994e+00
    7.8733352784794985e-03 -1.0916871447066729e+00
    7.8529595972040601e-03 -1.0513149660756935e+00
    7.8585009077352091e-03 -1.0645812948447542e+00
    7.8733352784794985e-03 -9.1601335130559913e-01
    7.8826495314448016e-03 -9.0453403373329100e-01
    7.9328899988105675e-03 -8.5972695362109530e-01
    7.9183475667855326e-03 -8.7077078398494656e-01
    7.8733352784794985e-03 -9.1601335130559913e-01
    7.8932457519430080e-03 -8.9317008961830102e-01
    7.9487882271087121e-03 -8.4878154287595220e-01
    7.8455893847898875e-03 -9.7530483039669291e-01
    7.8455893847898875e-03 -1.0253204627247283e+00
    7.8437500718154165e-03 -1.0125791108334214e+00
    7.8437500718154165e-03 -9.8757715747950980e-01
    7.8437500718154165e-03 -9.8757715747950980e-01
    7.8585009077352091e-03 -1.0645812948447542e+00
    8.0264528779433863e-03 -1.2408394495995603e+00
    7.9660661352004003e-03 -1.1934162828797099e+00
    8.1003573254011339e-03 -1.2909944487358056e+00
    8.1003573254011339e-03 -1.2909944487358056e+00
    7.9847499667548578e-03 -1.2089410496539776e+00
    7.8932457519430080e-03 -1.1196075771271661e+00
    7.8529595972040601e-03 -1.0513149660756935e+00
    7.8529595972040601e-03 -9.5118973121134176e-01
    7.8529595972040601e-03 -9.5118973121134176e-01
    8.2566487210637678e-03 -7.2374686445574588e-01
    9.8039215686274508e-03 -5.0000000000000000e-01
    1.0982588894337331e-02 -4.2008402520840293e-01
    1.1857708957152227e-02 -3.7796447300922725e-01
    1.0179938526640534e-02 -4.7050403377816719e-01
    8.6097720137201812e-03 -6.4492573490272731e-01
    8.3727139244490004e-03 -6.9388866648871095e-01
    8.0495373457378106e-03 -7.9539490897571741e-01
    7.9660661352004003e-03 -8.3793058159639211e-01
    7.8529595972040601e-03 -9.5118973121134176e-01
    7.8733352784794985e-03 -9.1601335130559913e-01
    7.8529595972040601e-03 -1.0513149660756935e+00
    7.8437500718154165e-03 -1.0125791108334214e+00
    7.8529595972040601e-03 -1.0513149660756935e+00
    8.0048684404679018e-03 -1.2247448713915889e+00
    7.8932457519430080e-03 -1.1196075771271661e+00
    7.8529595972040601e-03 -1.0513149660756935e+00
    7.8455893847898875e-03 -1.0253204627247283e+00
    7.8486577839000371e-03 -9.6317747241798268e-01
    7.8529595972040601e-03 -9.5118973121134176e-01
    7.8529595972040601e-03 -9.5118973121134176e-01
    7.8826495314448016e-03 -9.0453403373329100e-01
    7.8733352784794985e-03 -9.1601335130559913e-01
    7.8455893847898875e-03 -9.7530483039669291e-01
    7.8585009077352091e-03 -9.3933643662772426e-01
    7.8486577839000371e-03 -9.6317747241798268e-01
    7.8437500718154165e-03 -1.0125791108334214e+00
    7.8486577839000371e-03 -9.6317747241798268e-01
    7.9183475667855326e-03 -8.7077078398494656e-01
    7.8652895774729437e-03 -9.2761258954321535e-01
    7.8455893847898875e-03 -9.7530483039669291e-01
    7.8455893847898875e-03 -1.0253204627247283e+00
    7.8585009077352091e-03 -1.0645812948447542e+00
    7.9183475667855326e-03 -1.1484078455453643e+00
    7.8932457519430080e-03 -1.1196075771271661e+00
    8.0048684404679018e-03 -1.2247448713915889e+00
    7.9051393047681520e-03 -1.1338934190276817e+00
    7.8437500718154165e-03 -1.0125791108334214e+00
    7.8585009077352091e-03 -1.0645812948447542e+00
    7.8585009077352091e-03 -9.3933643662772426e-01
    8.1576622351740187e-03 -7.5407390286389830e-01
    9.8039215686274508e-03 -5.0000000000000000e-01
    9.9221114321795360e-03 -4.9021431794612019e-01
    1.1857708957152227e-02 -3.7796447300922725e-01
    9.8039215686274508e-03 -5.0000000000000000e-01
    8.8461162758235509e-03 -6.0623540602753268e-01
    8.1576622351740187e-03 -7.5407390286389830e-01
    8.0048684404679018e-03 -8.1649658092772603e-01
    7.9183475667855326e-03 -8.7077078398494656e-01
    7.8652895774729437e-03 -9.2761258954321535e-01
    7.8455893847898875e-03 -1.0253204627247283e+00
    7.8431372549019607e-03 -1. 7.8486577839000371e-03
    -1.0382302624765267e+00 7.9328899988105675e-03
    -1.1631599960755994e+00 7.9847499667548578e-03
    -1.2089410496539776e+00 7.9660661352004003e-03
    -1.1934162828797099e+00 7.8652895774729437e-03
    -1.0780362527123855e+00 7.8826495314448016e-03
    -1.1055415967851334e+00 7.8431372549019607e-03 -1.
    7.8529595972040601e-03 -9.5118973121134176e-01
    7.8826495314448016e-03 -9.0453403373329100e-01
    7.8455893847898875e-03 -1.0253204627247283e+00
    7.8529595972040601e-03 -1.0513149660756935e+00
    7.8431372549019607e-03 -1. 7.8585009077352091e-03
    -9.3933643662772426e-01 7.8585009077352091e-03
    -9.3933643662772426e-01 7.8455893847898875e-03
    -9.7530483039669291e-01 7.8486577839000371e-03
    -9.6317747241798268e-01 7.8585009077352091e-03
    -9.3933643662772426e-01 7.8431372549019607e-03 -1.
    7.8529595972040601e-03 -1.0513149660756935e+00
    7.8585009077352091e-03 -1.0645812948447542e+00
    8.0264528779433863e-03 -1.2408394495995603e+00
    7.9328899988105675e-03 -1.1631599960755994e+00
    7.8932457519430080e-03 -1.1196075771271661e+00
    7.9660661352004003e-03 -1.1934162828797099e+00
    7.8652895774729437e-03 -1.0780362527123855e+00
    7.8431372549019607e-03 -1. 7.8529595972040601e-03
    -1.0513149660756935e+00 7.8455893847898875e-03
    -9.7530483039669291e-01 8.0741588128855728e-03
    -7.8495962709021927e-01 9.6921688568588054e-03
    -5.0974750581541783e-01 1.0179938526640534e-02
    -4.7050403377816719e-01 1.3071895424836602e-02
    -3.3333333333333337e-01 1.0047256709338800e-02
    -4.8038446141526142e-01 8.5575643229800942e-03
    -6.5465367070797720e-01 8.0264528779433863e-03
    -8.0590603427600316e-01 8.0495373457378106e-03
    -7.9539490897571741e-01 7.9487882271087121e-03
    -8.4878154287595220e-01 7.8932457519430080e-03
    -8.9317008961830102e-01 7.8455893847898875e-03
    -9.7530483039669291e-01 7.8652895774729437e-03
    -1.0780362527123855e+00 7.8733352784794985e-03
    -1.0916871447066729e+00 8.0048684404679018e-03
    -1.2247448713915889e+00 7.9847499667548578e-03
    -1.2089410496539776e+00 7.8585009077352091e-03
    -1.0645812948447542e+00 7.8652895774729437e-03
    -1.0780362527123855e+00 7.8826495314448016e-03
    -1.1055415967851334e+00 7.8455893847898875e-03
    -9.7530483039669291e-01 7.8455893847898875e-03
    -9.7530483039669291e-01 7.8529595972040601e-03
    -9.5118973121134176e-01 7.8455893847898875e-03
    -9.7530483039669291e-01 7.9487882271087121e-03
    -1.1781594550367693e+00 7.9847499667548578e-03
    -1.2089410496539776e+00 7.8529595972040601e-03
    -9.5118973121134176e-01 7.9183475667855326e-03
    -8.7077078398494656e-01 7.8437500718154165e-03
    -9.8757715747950980e-01 7.8585009077352091e-03
    -9.3933643662772426e-01 7.8486577839000371e-03
    -1.0382302624765267e+00 7.8652895774729437e-03
    -1.0780362527123855e+00 7.8826495314448016e-03
    -1.1055415967851334e+00 7.8652895774729437e-03
    -1.0780362527123855e+00 7.8733352784794985e-03
    -1.0916871447066729e+00 8.0048684404679018e-03
    -1.2247448713915889e+00 7.9051393047681520e-03
    -1.1338934190276817e+00 7.9051393047681520e-03
    -1.1338934190276817e+00 7.9051393047681520e-03
    -1.1338934190276817e+00 7.8585009077352091e-03
    -1.0645812948447542e+00 7.8437500718154165e-03
    -1.0125791108334214e+00 7.8437500718154165e-03
    -9.8757715747950980e-01 7.9847499667548578e-03
    -8.2717019186851104e-01 9.1338697357625457e-03
    -5.6772709076349070e-01 1.0047256709338800e-02
    -4.8038446141526142e-01 1.3071895424836602e-02
    -3.3333333333333337e-01 1.0630182707007016e-02
    -4.4048819592160321e-01 8.7221715684005132e-03
    -6.2554324217122426e-01 8.2218418566424971e-03
    -7.3379938570534287e-01 7.9328899988105675e-03
    -8.5972695362109530e-01 7.8932457519430080e-03
    -8.9317008961830102e-01 7.9051393047681520e-03
    -8.8191710368819698e-01 7.8826495314448016e-03
    -9.0453403373329100e-01 7.8585009077352091e-03
    -9.3933643662772426e-01 7.8486577839000371e-03
    -1.0382302624765267e+00 7.8431372549019607e-03 -1.
    7.8437500718154165e-03 -9.8757715747950980e-01
    7.8529595972040601e-03 -1.0513149660756935e+00
    7.8733352784794985e-03 -1.0916871447066729e+00
    7.8585009077352091e-03 -1.0645812948447542e+00
    7.8826495314448016e-03 -9.0453403373329100e-01
    7.8932457519430080e-03 -8.9317008961830102e-01
    7.8826495314448016e-03 -9.0453403373329100e-01
    7.8733352784794985e-03 -9.1601335130559913e-01
    7.8455893847898875e-03 -1.0253204627247283e+00
    7.8932457519430080e-03 -1.1196075771271661e+00
    7.8437500718154165e-03 -9.8757715747950980e-01
    7.9487882271087121e-03 -8.4878154287595220e-01
    7.8932457519430080e-03 -8.9317008961830102e-01
    7.9328899988105675e-03 -8.5972695362109530e-01
    7.8455893847898875e-03 -9.7530483039669291e-01
    7.8585009077352091e-03 -9.3933643662772426e-01
    7.8486577839000371e-03 -9.6317747241798268e-01
    7.8486577839000371e-03 -1.0382302624765267e+00
    7.8455893847898875e-03 -1.0253204627247283e+00
    7.8733352784794985e-03 -1.0916871447066729e+00
    7.8486577839000371e-03 -1.0382302624765267e+00
    7.8455893847898875e-03 -9.7530483039669291e-01
    7.8455893847898875e-03 -1.0253204627247283e+00
    7.9183475667855326e-03 -8.7077078398494656e-01
    7.8932457519430080e-03 -8.9317008961830102e-01
    7.8733352784794985e-03 -9.1601335130559913e-01
    8.1281761994577185e-03 -7.6430256825525855e-01
    8.7221715684005132e-03 -6.2554324217122426e-01
    1.0800476433868177e-02 -4.3033148291193518e-01
    1.4353223870483999e-02 -2.9738085706659034e-01
    1.0982588894337331e-02 -4.2008402520840293e-01
    9.1338697357625457e-03 -5.6772709076349070e-01
    8.2218418566424971e-03 -7.3379938570534287e-01
    8.0495373457378106e-03 -7.9539490897571741e-01
    7.9847499667548578e-03 -8.2717019186851104e-01
    7.8733352784794985e-03 -9.1601335130559913e-01
    7.8932457519430080e-03 -8.9317008961830102e-01
    7.8437500718154165e-03 -9.8757715747950980e-01
    7.8455893847898875e-03 -9.7530483039669291e-01
    7.8437500718154165e-03 -9.8757715747950980e-01
    7.8431372549019607e-03 -1. 7.8652895774729437e-03
    -1.0780362527123855e+00 7.8826495314448016e-03
    -9.0453403373329100e-01 7.8733352784794985e-03
    -1.0916871447066729e+00 7.8529595972040601e-03
    -9.5118973121134176e-01 7.8585009077352091e-03
    -9.3933643662772426e-01 7.8733352784794985e-03
    -9.1601335130559913e-01 7.8826495314448016e-03
    -9.0453403373329100e-01 7.8455893847898875e-03
    -9.7530483039669291e-01 7.8585009077352091e-03
    -9.3933643662772426e-01 7.9487882271087121e-03
    -8.4878154287595220e-01 7.8652895774729437e-03
    -9.2761258954321535e-01 7.8932457519430080e-03
    -8.9317008961830102e-01 7.9328899988105675e-03
    -8.5972695362109530e-01 7.8437500718154165e-03
    -9.8757715747950980e-01 7.8437500718154165e-03
    -1.0125791108334214e+00 7.8652895774729437e-03
    -9.2761258954321535e-01 7.8437500718154165e-03
    -1.0125791108334214e+00 7.8486577839000371e-03
    -9.6317747241798268e-01 7.9487882271087121e-03
    -8.4878154287595220e-01 7.8585009077352091e-03
    -9.3933643662772426e-01 7.8529595972040601e-03
    -9.5118973121134176e-01 7.8437500718154165e-03
    -9.8757715747950980e-01 7.8932457519430080e-03
    -8.9317008961830102e-01 7.8932457519430080e-03
    -8.9317008961830102e-01 7.8652895774729437e-03
    -9.2761258954321535e-01 8.0264528779433863e-03
    -8.0590603427600316e-01 8.6097720137201812e-03
    -6.4492573490272731e-01 1.0320810901329710e-02
    -4.6056618647183833e-01 1.5498523474617693e-02
    -2.7170848966439143e-01 1.1387513861029454e-02
    -3.9927470475234522e-01 9.3009301849924612e-03
    -5.4846422684627416e-01 8.4155298582193599e-03
    -6.8402478628839236e-01 8.2933499160067359e-03
    -7.1374642714632974e-01 8.0495373457378106e-03
    -7.9539490897571741e-01 7.9660661352004003e-03
    -8.3793058159639211e-01 7.8529595972040601e-03
    -9.5118973121134176e-01 7.8585009077352091e-03
    -9.3933643662772426e-01 7.8486577839000371e-03
    -1.0382302624765267e+00 7.8652895774729437e-03
    -9.2761258954321535e-01 7.8455893847898875e-03
    -9.7530483039669291e-01 7.8431372549019607e-03 -1.
    7.8455893847898875e-03 -1.0253204627247283e+00
    7.8455893847898875e-03 -9.7530483039669291e-01
    7.8529595972040601e-03 -9.5118973121134176e-01
    7.8585009077352091e-03 -9.3933643662772426e-01
    7.8529595972040601e-03 -9.5118973121134176e-01
    7.8437500718154165e-03 -9.8757715747950980e-01
    7.8585009077352091e-03 -9.3933643662772426e-01
    7.8455893847898875e-03 -9.7530483039669291e-01
    7.8932457519430080e-03 -8.9317008961830102e-01
    7.8932457519430080e-03 -8.9317008961830102e-01
    7.8486577839000371e-03 -9.6317747241798268e-01
    7.8585009077352091e-03 -9.3933643662772426e-01
    7.8529595972040601e-03 -9.5118973121134176e-01
    7.8455893847898875e-03 -9.7530483039669291e-01
    7.8437500718154165e-03 -1.0125791108334214e+00
    7.8585009077352091e-03 -9.3933643662772426e-01
    7.8455893847898875e-03 -9.7530483039669291e-01
    7.8455893847898875e-03 -1.0253204627247283e+00
    7.8652895774729437e-03 -9.2761258954321535e-01
    7.8486577839000371e-03 -9.6317747241798268e-01
    7.8486577839000371e-03 -9.6317747241798268e-01
    7.9051393047681520e-03 -8.8191710368819698e-01
    7.9487882271087121e-03 -8.4878154287595220e-01
    7.9051393047681520e-03 -8.8191710368819698e-01
    8.1003573254011339e-03 -7.7459666924148340e-01
    8.7221715684005132e-03 -6.2554324217122426e-01
    1.0320810901329710e-02 -4.6056618647183833e-01
    1.9172779022812263e-02 -2.1389631597324932e-01
    1.0982588894337331e-02 -4.2008402520840293e-01
    9.4861671657217820e-03 -5.2915026221291817e-01
    8.8461162758235509e-03 -6.0623540602753268e-01
    8.4155298582193599e-03 -6.8402478628839236e-01
    8.0741588128855728e-03 -7.8495962709021927e-01
    7.9051393047681520e-03 -8.8191710368819698e-01
    7.8585009077352091e-03 -9.3933643662772426e-01
    7.8932457519430080e-03 -8.9317008961830102e-01
    7.8455893847898875e-03 -9.7530483039669291e-01
    7.8826495314448016e-03 -9.0453403373329100e-01
    7.8455893847898875e-03 -9.7530483039669291e-01
    7.8455893847898875e-03 -9.7530483039669291e-01
    7.8437500718154165e-03 -1.0125791108334214e+00
    7.8529595972040601e-03 -1.0513149660756935e+00
    7.8826495314448016e-03 -1.1055415967851334e+00
    7.8431372549019607e-03 -1. 7.8437500718154165e-03
    -1.0125791108334214e+00 7.8486577839000371e-03
    -9.6317747241798268e-01 7.8585009077352091e-03
    -9.3933643662772426e-01 7.8455893847898875e-03
    -9.7530483039669291e-01 7.8826495314448016e-03
    -9.0453403373329100e-01 7.8529595972040601e-03
    -9.5118973121134176e-01 7.8826495314448016e-03
    -9.0453403373329100e-01 7.8529595972040601e-03
    -9.5118973121134176e-01 7.9183475667855326e-03
    -8.7077078398494656e-01 7.8486577839000371e-03
    -1.0382302624765267e+00 7.8529595972040601e-03
    -1.0513149660756935e+00 7.9183475667855326e-03
    -8.7077078398494656e-01 7.8733352784794985e-03
    -9.1601335130559913e-01 7.8652895774729437e-03
    -9.2761258954321535e-01 7.8486577839000371e-03
    -9.6317747241798268e-01 7.8455893847898875e-03
    -9.7530483039669291e-01 7.8486577839000371e-03
    -9.6317747241798268e-01 7.9051393047681520e-03
    -8.8191710368819698e-01 7.8585009077352091e-03
    -9.3933643662772426e-01 7.8826495314448016e-03
    -9.0453403373329100e-01 8.0264528779433863e-03
    -8.0590603427600316e-01 8.4605472936563706e-03
    -6.7419986246324204e-01 9.8039215686274508e-03
    -5.0000000000000000e-01 1.7993390891808767e-02
    -2.2941573387056177e-01 1.2725865322585673e-02
    -3.4479141358380555e-01 9.8039215686274508e-03
    -5.0000000000000000e-01 9.3911269033607782e-03
    -5.3881590608032470e-01 8.6097720137201812e-03
    -6.4492573490272731e-01 8.4605472936563706e-03
    -6.7419986246324204e-01 7.9051393047681520e-03
    -8.8191710368819698e-01 7.8455893847898875e-03
    -9.7530483039669291e-01 7.8455893847898875e-03
    -9.7530483039669291e-01 7.8826495314448016e-03
    -9.0453403373329100e-01 7.8585009077352091e-03
    -1.0645812948447542e+00 7.9051393047681520e-03
    -1.1338934190276817e+00 7.9183475667855326e-03
    -1.1484078455453643e+00 7.8529595972040601e-03
    -1.0513149660756935e+00 7.8486577839000371e-03
    -1.0382302624765267e+00 7.8486577839000371e-03
    -1.0382302624765267e+00 7.8486577839000371e-03
    -1.0382302624765267e+00 7.8455893847898875e-03
    -1.0253204627247283e+00 7.8455893847898875e-03
    -1.0253204627247283e+00 7.8455893847898875e-03
    -9.7530483039669291e-01 7.8932457519430080e-03
    -8.9317008961830102e-01 7.9660661352004003e-03
    -8.3793058159639211e-01 7.8585009077352091e-03
    -9.3933643662772426e-01 7.9183475667855326e-03
    -8.7077078398494656e-01 7.8652895774729437e-03
    -9.2761258954321535e-01 7.8455893847898875e-03
    -9.7530483039669291e-01 7.8826495314448016e-03
    -9.0453403373329100e-01 7.8585009077352091e-03
    -9.3933643662772426e-01 7.8486577839000371e-03
    -9.6317747241798268e-01 7.8437500718154165e-03
    -1.0125791108334214e+00 7.8455893847898875e-03
    -9.7530483039669291e-01 7.8529595972040601e-03
    -9.5118973121134176e-01 7.8437500718154165e-03
    -9.8757715747950980e-01 7.8437500718154165e-03
    -9.8757715747950980e-01 7.8529595972040601e-03
    -9.5118973121134176e-01 7.8932457519430080e-03
    -8.9317008961830102e-01 7.9847499667548578e-03
    -8.2717019186851104e-01 8.0264528779433863e-03
    -8.0590603427600316e-01 8.6097720137201812e-03
    -6.4492573490272731e-01 9.8039215686274508e-03
    -5.0000000000000000e-01 1.9172779022812263e-02
    -2.1389631597324932e-01 1.3453961221493895e-02
    -3.2163376045133840e-01 1.0047256709338800e-02
    -4.8038446141526142e-01 8.9828550775546308e-03
    -5.8697343647396039e-01 8.4155298582193599e-03
    -6.8402478628839236e-01 8.3320137615741485e-03
    -7.0379478742296631e-01 8.0741588128855728e-03
    -7.8495962709021927e-01 7.9487882271087121e-03
    -8.4878154287595220e-01 7.8826495314448016e-03
    -9.0453403373329100e-01 7.8437500718154165e-03
    -9.8757715747950980e-01 7.8486577839000371e-03
    -9.6317747241798268e-01 7.8529595972040601e-03
    -1.0513149660756935e+00 7.8529595972040601e-03
    -1.0513149660756935e+00 7.8437500718154165e-03
    -1.0125791108334214e+00 7.8826495314448016e-03
    -1.1055415967851334e+00 7.8826495314448016e-03
    -1.1055415967851334e+00 7.8455893847898875e-03
    -9.7530483039669291e-01 7.8437500718154165e-03
    -9.8757715747950980e-01 7.8486577839000371e-03
    -9.6317747241798268e-01 7.8431372549019607e-03 -1.
    7.8437500718154165e-03 -1.0125791108334214e+00
    7.8585009077352091e-03 -9.3933643662772426e-01
    7.8529595972040601e-03 -9.5118973121134176e-01
    7.8529595972040601e-03 -9.5118973121134176e-01
    7.8932457519430080e-03 -8.9317008961830102e-01
    7.8529595972040601e-03 -9.5118973121134176e-01
    7.8652895774729437e-03 -9.2761258954321535e-01
    7.8932457519430080e-03 -1.1196075771271661e+00
    7.8826495314448016e-03 -1.1055415967851334e+00
    7.8437500718154165e-03 -1.0125791108334214e+00
    7.8437500718154165e-03 -1.0125791108334214e+00
    7.8585009077352091e-03 -1.0645812948447542e+00
    7.8455893847898875e-03 -1.0253204627247283e+00
    7.8932457519430080e-03 -8.9317008961830102e-01
    7.8733352784794985e-03 -9.1601335130559913e-01
    7.9487882271087121e-03 -8.4878154287595220e-01
    7.9660661352004003e-03 -8.3793058159639211e-01
    8.2566487210637678e-03 -7.2374686445574588e-01
    8.6097720137201812e-03 -6.4492573490272731e-01
    1.0320810901329710e-02 -4.6056618647183833e-01
    1.3878398594629297e-02 -3.0966176864266620e-01
    1.2122534964830045e-02 -3.6708551190375982e-01
    1.0179938526640534e-02 -4.7050403377816719e-01
    9.6921688568588054e-03 -5.0974750581541783e-01
    8.4155298582193599e-03 -6.8402478628839236e-01
    8.4155298582193599e-03 -6.8402478628839236e-01
    8.0495373457378106e-03 -7.9539490897571741e-01
    7.9328899988105675e-03 -8.5972695362109530e-01
    7.8486577839000371e-03 -9.6317747241798268e-01
    7.8437500718154165e-03 -1.0125791108334214e+00
    7.8652895774729437e-03 -1.0780362527123855e+00
    7.8437500718154165e-03 -1.0125791108334214e+00
    7.9183475667855326e-03 -8.7077078398494656e-01
    7.8652895774729437e-03 -9.2761258954321535e-01
    7.8455893847898875e-03 -1.0253204627247283e+00
    7.8585009077352091e-03 -9.3933643662772426e-01
    7.8437500718154165e-03 -9.8757715747950980e-01
    7.8826495314448016e-03 -9.0453403373329100e-01
    7.8529595972040601e-03 -9.5118973121134176e-01
    7.8932457519430080e-03 -8.9317008961830102e-01
    7.8486577839000371e-03 -9.6317747241798268e-01
    7.8486577839000371e-03 -9.6317747241798268e-01
    7.8826495314448016e-03 -9.0453403373329100e-01
    7.8529595972040601e-03 -9.5118973121134176e-01
    7.8529595972040601e-03 -9.5118973121134176e-01
    7.8486577839000371e-03 -1.0382302624765267e+00
    7.8529595972040601e-03 -1.0513149660756935e+00
    7.8486577839000371e-03 -1.0382302624765267e+00
    7.8455893847898875e-03 -9.7530483039669291e-01
    7.8437500718154165e-03 -9.8757715747950980e-01
    7.8486577839000371e-03 -1.0382302624765267e+00
    7.8826495314448016e-03 -1.1055415967851334e+00
    7.8585009077352091e-03 -1.0645812948447542e+00
    7.8585009077352091e-03 -9.3933643662772426e-01
    7.9487882271087121e-03 -8.4878154287595220e-01
    7.8733352784794985e-03 -9.1601335130559913e-01
    7.9847499667548578e-03 -8.2717019186851104e-01
    8.5078587854565731e-03 -6.6441059702674921e-01
    9.2152705168007318e-03 -5.5809982067374431e-01
    1.2410788582419381e-02 -3.5603449745815596e-01
    1.3878398594629297e-02 -3.0966176864266620e-01
    1.2122534964830045e-02 -3.6708551190375982e-01
    1.0047256709338800e-02 -4.8038446141526142e-01
    9.6921688568588054e-03 -5.0974750581541783e-01
    9.0564748108176597e-03 -5.7735026918962584e-01
    8.5078587854565731e-03 -6.6441059702674921e-01
    8.0741588128855728e-03 -7.8495962709021927e-01
    7.9487882271087121e-03 -8.4878154287595220e-01
    7.8585009077352091e-03 -9.3933643662772426e-01
    7.8529595972040601e-03 -9.5118973121134176e-01
    7.8529595972040601e-03 -9.5118973121134176e-01
    7.8431372549019607e-03 -1. 7.8932457519430080e-03
    -1.1196075771271661e+00 7.8826495314448016e-03
    -1.1055415967851334e+00 7.8585009077352091e-03
    -1.0645812948447542e+00 7.8585009077352091e-03
    -1.0645812948447542e+00 7.8652895774729437e-03
    -9.2761258954321535e-01 7.8652895774729437e-03
    -9.2761258954321535e-01 7.8486577839000371e-03
    -9.6317747241798268e-01 7.8455893847898875e-03
    -9.7530483039669291e-01 7.8486577839000371e-03
    -9.6317747241798268e-01 7.8826495314448016e-03
    -9.0453403373329100e-01 7.8455893847898875e-03
    -9.7530483039669291e-01 7.8455893847898875e-03
    -9.7530483039669291e-01 7.8486577839000371e-03
    -1.0382302624765267e+00 7.8529595972040601e-03
    -1.0513149660756935e+00 7.8431372549019607e-03 -1.
    7.8437500718154165e-03 -1.0125791108334214e+00
    7.8652895774729437e-03 -1.0780362527123855e+00
    7.8431372549019607e-03 -1. 7.8826495314448016e-03
    -1.1055415967851334e+00 7.9051393047681520e-03
    -1.1338934190276817e+00 7.8437500718154165e-03
    -9.8757715747950980e-01 7.8486577839000371e-03
    -9.6317747241798268e-01 7.8932457519430080e-03
    -8.9317008961830102e-01 8.0264528779433863e-03
    -8.0590603427600316e-01 8.1281761994577185e-03
    -7.6430256825525855e-01 8.5078587854565731e-03
    -6.6441059702674921e-01 8.9828550775546308e-03
    -5.8697343647396039e-01 1.3071895424836602e-02
    -3.3333333333333337e-01 1.7993390891808767e-02
    -2.2941573387056177e-01 1.3878398594629297e-02
    -3.0966176864266620e-01 1.0630182707007016e-02
    -4.4048819592160321e-01 9.6921688568588054e-03
    -5.0974750581541783e-01 9.6921688568588054e-03
    -5.0974750581541783e-01 8.6645988496644299e-03
    -6.3522340316602355e-01 8.1281761994577185e-03
    -7.6430256825525855e-01 8.1281761994577185e-03
    -7.6430256825525855e-01 8.0048684404679018e-03
    -8.1649658092772603e-01 7.9487882271087121e-03
    -8.4878154287595220e-01 7.8455893847898875e-03
    -1.0253204627247283e+00 7.8455893847898875e-03
    -1.0253204627247283e+00 7.9051393047681520e-03
    -1.1338934190276817e+00 7.9051393047681520e-03
    -1.1338934190276817e+00 7.8486577839000371e-03
    -9.6317747241798268e-01 7.8529595972040601e-03
    -1.0513149660756935e+00 7.8431372549019607e-03 -1.
    7.8932457519430080e-03 -8.9317008961830102e-01
    7.8932457519430080e-03 -8.9317008961830102e-01
    7.8585009077352091e-03 -9.3933643662772426e-01
    7.9183475667855326e-03 -8.7077078398494656e-01
    7.8486577839000371e-03 -9.6317747241798268e-01
    7.8437500718154165e-03 -9.8757715747950980e-01
    7.8437500718154165e-03 -1.0125791108334214e+00
    7.8486577839000371e-03 -9.6317747241798268e-01
    7.8455893847898875e-03 -9.7530483039669291e-01
    7.8437500718154165e-03 -9.8757715747950980e-01
    7.8455893847898875e-03 -1.0253204627247283e+00
    7.8455893847898875e-03 -1.0253204627247283e+00
    7.8431372549019607e-03 -1. 7.8486577839000371e-03
    -1.0382302624765267e+00 7.8455893847898875e-03
    -9.7530483039669291e-01 7.8486577839000371e-03
    -9.6317747241798268e-01 7.9183475667855326e-03
    -8.7077078398494656e-01 8.1003573254011339e-03
    -7.7459666924148340e-01 8.1281761994577185e-03
    -7.6430256825525855e-01 8.2218418566424971e-03
    -7.3379938570534287e-01 8.5575643229800942e-03
    -6.5465367070797720e-01 9.9221114321795360e-03
    -4.9021431794612019e-01 1.2410788582419381e-02
    -3.5603449745815596e-01 1.5498523474617693e-02
    -2.7170848966439143e-01 1.4353223870483999e-02
    -2.9738085706659034e-01 1.2410788582419381e-02
    -3.5603449745815596e-01 9.8039215686274508e-03
    -5.0000000000000000e-01 9.5863895114061317e-03
    -5.1946248164931974e-01 9.1338697357625457e-03
    -5.6772709076349070e-01 8.7826276228369308e-03
    -6.1588176205143974e-01 8.4155298582193599e-03
    -6.8402478628839236e-01 8.5078587854565731e-03
    -6.6441059702674921e-01 7.9183475667855326e-03
    -8.7077078398494656e-01 7.8733352784794985e-03
    -9.1601335130559913e-01 8.0741588128855728e-03
    -7.8495962709021927e-01 7.8529595972040601e-03
    -9.5118973121134176e-01 7.8733352784794985e-03
    -1.0916871447066729e+00 7.9847499667548578e-03
    -1.2089410496539776e+00 7.9660661352004003e-03
    -1.1934162828797099e+00 7.9183475667855326e-03
    -1.1484078455453643e+00 7.8652895774729437e-03
    -1.0780362527123855e+00 7.8455893847898875e-03
    -9.7530483039669291e-01 7.8529595972040601e-03
    -9.5118973121134176e-01 7.8529595972040601e-03
    -9.5118973121134176e-01 7.8437500718154165e-03
    -1.0125791108334214e+00 7.8529595972040601e-03
    -9.5118973121134176e-01 7.8652895774729437e-03
    -9.2761258954321535e-01 7.8826495314448016e-03
    -9.0453403373329100e-01 7.8455893847898875e-03
    -1.0253204627247283e+00 7.8529595972040601e-03
    -1.0513149660756935e+00 7.8652895774729437e-03
    -9.2761258954321535e-01 7.8455893847898875e-03
    -1.0253204627247283e+00 7.8733352784794985e-03
    -9.1601335130559913e-01 7.9847499667548578e-03
    -1.2089410496539776e+00 7.8437500718154165e-03
    -1.0125791108334214e+00 7.8585009077352091e-03
    -9.3933643662772426e-01 7.8826495314448016e-03
    -9.0453403373329100e-01 8.1576622351740187e-03
    -7.5407390286389830e-01 8.3727139244490004e-03
    -6.9388866648871095e-01 8.4605472936563706e-03
    -6.7419986246324204e-01 9.1338697357625457e-03
    -5.6772709076349070e-01 1.1387513861029454e-02
    -3.9927470475234522e-01 1.4353223870483999e-02
    -2.9738085706659034e-01 1.7993390891808767e-02
    -2.2941573387056177e-01 1.5498523474617693e-02
    -2.7170848966439143e-01 1.3071895424836602e-02
    -3.3333333333333337e-01 1.0800476433868177e-02
    -4.3033148291193518e-01 9.9221114321795360e-03
    -4.9021431794612019e-01 9.8039215686274508e-03
    -5.0000000000000000e-01 9.3911269033607782e-03
    -5.3881590608032470e-01 9.3911269033607782e-03
    -5.3881590608032470e-01 8.5575643229800942e-03
    -6.5465367070797720e-01 8.2218418566424971e-03
    -7.3379938570534287e-01 8.1888659532056429e-03
    -7.4390729143652512e-01 8.2933499160067359e-03
    -7.1374642714632974e-01 7.8826495314448016e-03
    -9.0453403373329100e-01 7.8529595972040601e-03
    -9.5118973121134176e-01 7.8486577839000371e-03
    -1.0382302624765267e+00 7.9328899988105675e-03
    -1.1631599960755994e+00 7.9847499667548578e-03
    -1.2089410496539776e+00 7.8585009077352091e-03
    -1.0645812948447542e+00 7.8437500718154165e-03
    -9.8757715747950980e-01 7.8652895774729437e-03
    -1.0780362527123855e+00 7.8455893847898875e-03
    -1.0253204627247283e+00 7.8455893847898875e-03
    -1.0253204627247283e+00 7.8486577839000371e-03
    -1.0382302624765267e+00 7.8733352784794985e-03
    -9.1601335130559913e-01 7.9328899988105675e-03
    -8.5972695362109530e-01 7.8455893847898875e-03
    -9.7530483039669291e-01 7.8486577839000371e-03
    -9.6317747241798268e-01 7.8437500718154165e-03
    -1.0125791108334214e+00 7.8431372549019607e-03 -1.
    7.8437500718154165e-03 -9.8757715747950980e-01
    7.8585009077352091e-03 -1.0645812948447542e+00
    7.8585009077352091e-03 -9.3933643662772426e-01
    7.8826495314448016e-03 -9.0453403373329100e-01
    8.0495373457378106e-03 -7.9539490897571741e-01
    8.0741588128855728e-03 -7.8495962709021927e-01
    8.5575643229800942e-03 -6.5465367070797720e-01
    9.1338697357625457e-03 -5.6772709076349070e-01
    9.6921688568588054e-03 -5.0974750581541783e-01
    1.3071895424836602e-02 -3.3333333333333337e-01
    1.4353223870483999e-02 -2.9738085706659034e-01
    2.0641621802659420e-02 -1.9738550848793071e-01
    1.6200714650802268e-02 -2.5819888974716115e-01
    1.3878398594629297e-02 -3.0966176864266620e-01
    1.0320810901329710e-02 -4.6056618647183833e-01
    1.0179938526640534e-02 -4.7050403377816719e-01
    9.8039215686274508e-03 -5.0000000000000000e-01
    9.3009301849924612e-03 -5.4846422684627416e-01
    9.4861671657217820e-03 -5.2915026221291817e-01
    8.5078587854565731e-03 -6.6441059702674921e-01
    8.2566487210637678e-03 -7.2374686445574588e-01
    8.4155298582193599e-03 -6.8402478628839236e-01
    8.1576622351740187e-03 -7.5407390286389830e-01
    8.1281761994577185e-03 -7.6430256825525855e-01
    7.8932457519430080e-03 -8.9317008961830102e-01
    7.8652895774729437e-03 -9.2761258954321535e-01
    7.8652895774729437e-03 -9.2761258954321535e-01
    7.8733352784794985e-03 -9.1601335130559913e-01
    7.9051393047681520e-03 -8.8191710368819698e-01
    7.9051393047681520e-03 -8.8191710368819698e-01
    7.8437500718154165e-03 -9.8757715747950980e-01
    7.8529595972040601e-03 -1.0513149660756935e+00
    7.8437500718154165e-03 -1.0125791108334214e+00
    7.8437500718154165e-03 -1.0125791108334214e+00
    7.8431372549019607e-03 -1. 7.8826495314448016e-03
    -9.0453403373329100e-01 7.9847499667548578e-03
    -8.2717019186851104e-01 8.0048684404679018e-03
    -8.1649658092772603e-01 7.8437500718154165e-03
    -1.0125791108334214e+00 7.8652895774729437e-03
    -9.2761258954321535e-01 7.8826495314448016e-03
    -9.0453403373329100e-01 7.9183475667855326e-03
    -8.7077078398494656e-01 7.9847499667548578e-03
    -8.2717019186851104e-01 8.1003573254011339e-03
    -7.7459666924148340e-01 8.1281761994577185e-03
    -7.6430256825525855e-01 8.3727139244490004e-03
    -6.9388866648871095e-01 8.9828550775546308e-03
    -5.8697343647396039e-01 9.1338697357625457e-03
    -5.6772709076349070e-01 1.0630182707007016e-02
    -4.4048819592160321e-01 1.2725865322585673e-02
    -3.4479141358380555e-01 1.6200714650802268e-02
    -2.5819888974716115e-01 1.9172779022812263e-02
    -2.1389631597324932e-01 1.7993390891808767e-02
    -2.2941573387056177e-01 1.2725865322585673e-02
    -3.4479141358380555e-01 1.0630182707007016e-02
    -4.4048819592160321e-01 1.0320810901329710e-02
    -4.6056618647183833e-01 1.0320810901329710e-02
    -4.6056618647183833e-01 9.9221114321795360e-03
    -4.9021431794612019e-01 9.4861671657217820e-03
    -5.2915026221291817e-01 8.9127998388570367e-03
    -5.9660053921349288e-01 8.9127998388570367e-03
    -5.9660053921349288e-01 8.6097720137201812e-03
    -6.4492573490272731e-01 8.4155298582193599e-03
    -6.8402478628839236e-01 8.0495373457378106e-03
    -7.9539490897571741e-01 7.9847499667548578e-03
    -8.2717019186851104e-01 8.1003573254011339e-03
    -7.7459666924148340e-01 8.1888659532056429e-03
    -7.4390729143652512e-01 7.9051393047681520e-03
    -8.8191710368819698e-01 7.9328899988105675e-03
    -8.5972695362109530e-01 7.9183475667855326e-03
    -8.7077078398494656e-01 7.8585009077352091e-03
    -9.3933643662772426e-01 7.8733352784794985e-03
    -9.1601335130559913e-01 7.8431372549019607e-03 -1.
    7.8437500718154165e-03 -1.0125791108334214e+00
    7.8733352784794985e-03 -9.1601335130559913e-01
    7.8733352784794985e-03 -9.1601335130559913e-01
    7.8455893847898875e-03 -9.7530483039669291e-01
    7.8529595972040601e-03 -9.5118973121134176e-01
    7.8455893847898875e-03 -1.0253204627247283e+00
    7.8932457519430080e-03 -8.9317008961830102e-01
    7.9487882271087121e-03 -8.4878154287595220e-01
    8.2566487210637678e-03 -7.2374686445574588e-01
    8.2218418566424971e-03 -7.3379938570534287e-01
    8.2566487210637678e-03 -7.2374686445574588e-01
    8.2566487210637678e-03 -7.2374686445574588e-01
    8.7221715684005132e-03 -6.2554324217122426e-01
    9.1338697357625457e-03 -5.6772709076349070e-01
    9.3911269033607782e-03 -5.3881590608032470e-01
    1.1177781107073584e-02 -4.0973553870616608e-01
    1.4353223870483999e-02 -2.9738085706659034e-01
    1.6200714650802268e-02 -2.5819888974716115e-01
    2.2538704568065868e-02 -1.7960530202677488e-01
    1.9172779022812263e-02 -2.1389631597324932e-01
    1.2410788582419381e-02 -3.5603449745815596e-01
    1.1613490118041584e-02 -3.8868899738820428e-01
    1.1387513861029454e-02 -3.9927470475234522e-01
    1.0320810901329710e-02 -4.6056618647183833e-01
    1.0179938526640534e-02 -4.7050403377816719e-01
    9.8039215686274508e-03 -5.0000000000000000e-01
    9.8039215686274508e-03 -5.0000000000000000e-01
    1.0047256709338800e-02 -4.8038446141526142e-01
    9.8039215686274508e-03 -5.0000000000000000e-01
    8.4605472936563706e-03 -6.7419986246324204e-01
    8.7221715684005132e-03 -6.2554324217122426e-01
    8.7221715684005132e-03 -6.2554324217122426e-01
    8.4605472936563706e-03 -6.7419986246324204e-01
    8.0264528779433863e-03 -8.0590603427600316e-01
    8.0048684404679018e-03 -8.1649658092772603e-01
    7.8437500718154165e-03 -9.8757715747950980e-01
    7.8826495314448016e-03 -9.0453403373329100e-01
    7.8431372549019607e-03 -1. 7.8652895774729437e-03
    -9.2761258954321535e-01 7.8932457519430080e-03
    -8.9317008961830102e-01 7.8455893847898875e-03
    -9.7530483039669291e-01 7.8585009077352091e-03
    -9.3933643662772426e-01 7.9328899988105675e-03
    -8.5972695362109530e-01 7.8932457519430080e-03
    -8.9317008961830102e-01 8.0495373457378106e-03
    -7.9539490897571741e-01 7.9660661352004003e-03
    -8.3793058159639211e-01 7.9487882271087121e-03
    -8.4878154287595220e-01 7.9328899988105675e-03
    -8.5972695362109530e-01 8.3320137615741485e-03
    -7.0379478742296631e-01 8.2933499160067359e-03
    -7.1374642714632974e-01 8.3727139244490004e-03
    -6.9388866648871095e-01 8.6645988496644299e-03
    -6.3522340316602355e-01 9.2152705168007318e-03
    -5.5809982067374431e-01 9.2152705168007318e-03
    -5.5809982067374431e-01 1.0047256709338800e-02
    -4.8038446141526142e-01 1.2725865322585673e-02
    -3.4479141358380555e-01 1.3453961221493895e-02
    -3.2163376045133840e-01 1.6200714650802268e-02
    -2.5819888974716115e-01 2.2538704568065868e-02
    -1.7960530202677488e-01 1.4888752874549003e-02
    -2.8474739872574967e-01 1.3878398594629297e-02
    -3.0966176864266620e-01 1.3071895424836602e-02
    -3.3333333333333337e-01 1.1387513861029454e-02
    -3.9927470475234522e-01 1.0320810901329710e-02
    -4.6056618647183833e-01 9.9221114321795360e-03
    -4.9021431794612019e-01 1.0982588894337331e-02
    -4.2008402520840293e-01 1.0800476433868177e-02
    -4.3033148291193518e-01 1.0470612796272080e-02
    -4.5056355688958294e-01 1.0982588894337331e-02
    -4.2008402520840293e-01 9.4861671657217820e-03
    -5.2915026221291817e-01 8.6645988496644299e-03
    -6.3522340316602355e-01 8.6645988496644299e-03
    -6.3522340316602355e-01 8.6645988496644299e-03
    -6.3522340316602355e-01 8.3727139244490004e-03
    -6.9388866648871095e-01 8.2933499160067359e-03
    -7.1374642714632974e-01 8.0741588128855728e-03
    -7.8495962709021927e-01 7.8733352784794985e-03
    -9.1601335130559913e-01 7.8652895774729437e-03
    -9.2761258954321535e-01 7.8455893847898875e-03
    -9.7530483039669291e-01 7.8652895774729437e-03
    -9.2761258954321535e-01 7.9847499667548578e-03
    -8.2717019186851104e-01 7.9183475667855326e-03
    -8.7077078398494656e-01 7.9183475667855326e-03
    -8.7077078398494656e-01 8.0264528779433863e-03
    -8.0590603427600316e-01 8.0741588128855728e-03
    -7.8495962709021927e-01 8.3320137615741485e-03
    -7.0379478742296631e-01 8.3727139244490004e-03
    -6.9388866648871095e-01 8.3320137615741485e-03
    -7.0379478742296631e-01 8.2933499160067359e-03
    -7.1374642714632974e-01 8.7221715684005132e-03
    -6.2554324217122426e-01 8.9828550775546308e-03
    -5.8697343647396039e-01 9.2152705168007318e-03
    -5.5809982067374431e-01 9.3911269033607782e-03
    -5.3881590608032470e-01 9.5863895114061317e-03
    -5.1946248164931974e-01 1.0630182707007016e-02
    -4.4048819592160321e-01 1.1613490118041584e-02
    -3.8868899738820428e-01 1.4353223870483999e-02
    -2.9738085706659034e-01 1.7020412209592876e-02
    -2.4413653763134782e-01 2.0641621802659420e-02
    -1.9738550848793071e-01 1.7993390891808767e-02
    -2.2941573387056177e-01 1.6200714650802268e-02
    -2.5819888974716115e-01 1.3878398594629297e-02
    -3.0966176864266620e-01 1.2725865322585673e-02
    -3.4479141358380555e-01 1.1857708957152227e-02
    -3.7796447300922725e-01 1.1387513861029454e-02
    -3.9927470475234522e-01 1.1857708957152227e-02
    -3.7796447300922725e-01 1.2122534964830045e-02
    -3.6708551190375982e-01 1.0800476433868177e-02
    -4.3033148291193518e-01 1.0982588894337331e-02
    -4.2008402520840293e-01 1.1387513861029454e-02
    -3.9927470475234522e-01 1.0982588894337331e-02
    -4.2008402520840293e-01 9.4861671657217820e-03
    -5.2915026221291817e-01 9.3911269033607782e-03
    -5.3881590608032470e-01 8.8461162758235509e-03
    -6.0623540602753268e-01 8.7826276228369308e-03
    -6.1588176205143974e-01 8.5078587854565731e-03
    -6.6441059702674921e-01 8.1576622351740187e-03
    -7.5407390286389830e-01 7.8826495314448016e-03
    -9.0453403373329100e-01 7.9051393047681520e-03
    -8.8191710368819698e-01 7.9051393047681520e-03
    -8.8191710368819698e-01 8.1003573254011339e-03
    -7.7459666924148340e-01 7.9847499667548578e-03
    -8.2717019186851104e-01 8.1003573254011339e-03
    -7.7459666924148340e-01 8.0741588128855728e-03
    -7.8495962709021927e-01 8.5575643229800942e-03
    -6.5465367070797720e-01 8.5078587854565731e-03
    -6.6441059702674921e-01 8.5078587854565731e-03
    -6.6441059702674921e-01 8.4605472936563706e-03
    -6.7419986246324204e-01 8.7221715684005132e-03
    -6.2554324217122426e-01 8.8461162758235509e-03
    -6.0623540602753268e-01 9.6921688568588054e-03
    -5.0974750581541783e-01 9.8039215686274508e-03
    -5.0000000000000000e-01 9.9221114321795360e-03
    -4.9021431794612019e-01 1.0630182707007016e-02
    -4.4048819592160321e-01 1.1613490118041584e-02
    -3.8868899738820428e-01 1.2410788582419381e-02
    -3.5603449745815596e-01 1.6200714650802268e-02
    -2.5819888974716115e-01 2.5118141773347001e-02
    -1.6012815380508713e-01 2.5118141773347001e-02
    -1.6012815380508713e-01 1.9172779022812263e-02
    -2.1389631597324932e-01 1.9172779022812263e-02
    -2.1389631597324932e-01 1.4888752874549003e-02
    -2.8474739872574967e-01 1.3453961221493895e-02
    -3.2163376045133840e-01 1.4353223870483999e-02
    -2.9738085706659034e-01 1.3453961221493895e-02
    -3.2163376045133840e-01 1.2725865322585673e-02
    -3.4479141358380555e-01 1.3071895424836602e-02
    -3.3333333333333337e-01 1.3453961221493895e-02
    -3.2163376045133840e-01 1.2410788582419381e-02
    -3.5603449745815596e-01 1.2725865322585673e-02
    -3.4479141358380555e-01 1.1857708957152227e-02
    -3.7796447300922725e-01 1.1387513861029454e-02
    -3.9927470475234522e-01 1.1613490118041584e-02
    -3.8868899738820428e-01 1.0179938526640534e-02
    -4.7050403377816719e-01 9.8039215686274508e-03
    -5.0000000000000000e-01 8.5575643229800942e-03
    -6.5465367070797720e-01 8.4605472936563706e-03
    -6.7419986246324204e-01 8.0741588128855728e-03
    -7.8495962709021927e-01 8.0048684404679018e-03
    -8.1649658092772603e-01 7.9847499667548578e-03
    -8.2717019186851104e-01 8.1576622351740187e-03
    -7.5407390286389830e-01 8.1888659532056429e-03
    -7.4390729143652512e-01 8.2218418566424971e-03
    -7.3379938570534287e-01 8.4155298582193599e-03
    -6.8402478628839236e-01 8.6645988496644299e-03
    -6.3522340316602355e-01 8.8461162758235509e-03
    -6.0623540602753268e-01 9.3009301849924612e-03
    -5.4846422684627416e-01 9.2152705168007318e-03
    -5.5809982067374431e-01 9.1338697357625457e-03
    -5.6772709076349070e-01 9.1338697357625457e-03
    -5.6772709076349070e-01 1.0047256709338800e-02
    -4.8038446141526142e-01 1.0800476433868177e-02
    -4.3033148291193518e-01 1.1857708957152227e-02
    -3.7796447300922725e-01 1.4353223870483999e-02
    -2.9738085706659034e-01 1.3878398594629297e-02
    -3.0966176864266620e-01 1.4353223870483999e-02
    -2.9738085706659034e-01 1.7020412209592876e-02
    -2.4413653763134782e-01 2.5118141773347001e-02
    -1.6012815380508713e-01 4.9760099496040412e-02
    -7.9305158571814402e-02 2.5118141773347001e-02
    -1.6012815380508713e-01 1.7993390891808767e-02
    -2.2941573387056177e-01 1.7993390891808767e-02
    -2.2941573387056177e-01 1.7993390891808767e-02
    -2.2941573387056177e-01 1.7993390891808767e-02
    -2.2941573387056177e-01 1.7993390891808767e-02
    -2.2941573387056177e-01 1.7020412209592876e-02
    -2.4413653763134782e-01 1.5498523474617693e-02
    -2.7170848966439143e-01 1.4888752874549003e-02
    -2.8474739872574967e-01 1.4888752874549003e-02
    -2.8474739872574967e-01 1.3878398594629297e-02
    -3.0966176864266620e-01 1.3453961221493895e-02
    -3.2163376045133840e-01 1.3071895424836602e-02
    -3.3333333333333337e-01 1.3878398594629297e-02
    -3.0966176864266620e-01 1.2122534964830045e-02
    -3.6708551190375982e-01 1.0470612796272080e-02
    -4.5056355688958294e-01 9.5863895114061317e-03
    -5.1946248164931974e-01 8.9127998388570367e-03
    -5.9660053921349288e-01 8.7826276228369308e-03
    -6.1588176205143974e-01 8.9828550775546308e-03
    -5.8697343647396039e-01 8.5078587854565731e-03
    -6.6441059702674921e-01 9.2152705168007318e-03
    -5.5809982067374431e-01 8.6097720137201812e-03
    -6.4492573490272731e-01 9.6921688568588054e-03
    -5.0974750581541783e-01 8.7826276228369308e-03
    -6.1588176205143974e-01 9.4861671657217820e-03
    -5.2915026221291817e-01 9.3911269033607782e-03
    -5.3881590608032470e-01 9.5863895114061317e-03
    -5.1946248164931974e-01 1.0320810901329710e-02
    -4.6056618647183833e-01 9.6921688568588054e-03
    -5.0974750581541783e-01 1.0470612796272080e-02
    -4.5056355688958294e-01 1.1857708957152227e-02
    -3.7796447300922725e-01 1.4353223870483999e-02
    -2.9738085706659034e-01 1.5498523474617693e-02
    -2.7170848966439143e-01 1.7020412209592876e-02
    -2.4413653763134782e-01 1.9172779022812263e-02
    -2.1389631597324932e-01 1.7993390891808767e-02
    -2.2941573387056177e-01 1.7993390891808767e-02
    -2.2941573387056177e-01 2.0641621802659420e-02
    -1.9738550848793071e-01 2.5118141773347001e-02
    -1.6012815380508713e-01 1.9172779022812263e-02
    -2.1389631597324932e-01 1.9172779022812263e-02
    -2.1389631597324932e-01 2.0641621802659420e-02
    -1.9738550848793071e-01 2.8911415064099853e-02
    -1.3823270327522744e-01 2.8911415064099853e-02
    -1.3823270327522744e-01 2.5118141773347001e-02
    -1.6012815380508713e-01 2.2538704568065868e-02
    -1.7960530202677488e-01 2.0641621802659420e-02
    -1.9738550848793071e-01 1.6200714650802268e-02
    -2.5819888974716115e-01 1.6200714650802268e-02
    -2.5819888974716115e-01 1.5498523474617693e-02
    -2.7170848966439143e-01 1.6200714650802268e-02
    -2.5819888974716115e-01 1.7993390891808767e-02
    -2.2941573387056177e-01 2.0641621802659420e-02
    -1.9738550848793071e-01 1.7020412209592876e-02
    -2.4413653763134782e-01 1.2122534964830045e-02
    -3.6708551190375982e-01 1.2410788582419381e-02
    -3.5603449745815596e-01 1.2122534964830045e-02
    -3.6708551190375982e-01 1.1387513861029454e-02
    -3.9927470475234522e-01 9.6921688568588054e-03
    -5.0974750581541783e-01 1.0047256709338800e-02
    -4.8038446141526142e-01 1.3878398594629297e-02
    -3.0966176864266620e-01 1.1613490118041584e-02
    -3.8868899738820428e-01 1.0047256709338800e-02
    -4.8038446141526142e-01 1.0800476433868177e-02
    -4.3033148291193518e-01 1.0320810901329710e-02
    -4.6056618647183833e-01 9.9221114321795360e-03
    -4.9021431794612019e-01 1.0047256709338800e-02
    -4.8038446141526142e-01 1.0800476433868177e-02
    -4.3033148291193518e-01 1.1613490118041584e-02
    -3.8868899738820428e-01 1.3071895424836602e-02
    -3.3333333333333337e-01 1.5498523474617693e-02
    -2.7170848966439143e-01 1.6200714650802268e-02
    -2.5819888974716115e-01 1.7020412209592876e-02
    -2.4413653763134782e-01 2.0641621802659420e-02
    -1.9738550848793071e-01 2.5118141773347001e-02
    -1.6012815380508713e-01 2.5118141773347001e-02
    -1.6012815380508713e-01 2.2538704568065868e-02
    -1.7960530202677488e-01 1.9172779022812263e-02
    -2.1389631597324932e-01</input_scale>
  <output_scale>
    1.0526315789473684e+00 0.</output_scale>
  <inv_output_scale>
    9.4999999999999996e-01 0.</inv_output_scale>
  <weights>
    <_>
      -1.8026241406749105e-01 -2.0744445902991824e-02
      -1.9570473123889622e-02 -1.0957205176568697e-02
      1.4885629451477110e-02 -1.3140320280955270e-02
      1.2296659847763054e-02 1.1084018488859195e-02
      1.1831361962947217e-02 -2.4786760946037972e-02
      -1.3093500620489815e-02 -7.1190520405798718e-03
      -1.1850444768763966e-02 3.0143457972628355e-03
      1.2988474349951292e-02 -1.3426040296843975e-02
      1.5607265720240406e-02 -2.3139218003930978e-03
      2.5030869233174338e-02 -2.6009420872339095e-02
      5.7224339568387574e-03 -1.6011923911313248e-02
      -1.2846865796812141e-02 -1.5510078518160730e-02
      -1.3787553824486518e-02 1.5663123771260036e-02
      -1.3506239568723809e-02 1.9049750186230546e-02
      -9.6739153568783601e-03 -1.2596826394868435e-02
      2.0136099885918902e-02 1.5446434952571959e-02
      -2.7657875655897762e-02 -7.6435647084728041e-03
      -1.3099128289250628e-03 -1.4959282498906844e-02
      -1.6970489489714198e-02 -6.4195755969871787e-03
      2.1252999230812343e-02 1.6781407130457900e-02
      -1.0665888041506418e-01 -8.7756996376712304e-02
      -7.7281831943385768e-02 -2.2442338991586794e-02
      6.8154780178008745e-02 7.1434837558460125e-03
      1.1690206463057571e-02 6.0540505970875791e-02
      -1.6905758085615528e-02 -1.0501637659766265e-01
      -7.2206271211031686e-03 -5.6426108944874487e-02
      -8.9894157565616022e-03 3.9447489826679505e-02
      -2.0125996753601910e-02 -1.6684093500644445e-03
      -1.5894948186958614e-02 -4.8417829119910341e-02
      1.0351952446010920e-01 -1.0460982769647856e-01
      5.4809390184629637e-02 1.2837382596162933e-02
      1.7331672785826521e-02 -7.4631762671261592e-02
      -1.0972757979912223e-03 -1.4222356334920598e-02
      -8.9325829406243562e-02 9.3852912447826273e-02
      -1.6466992759276596e-02 -3.6400920096726929e-03
      8.1133963673007070e-02 8.8411667773843003e-02
      -1.1162562369967904e-01 -2.8263237371278449e-02
      -4.2583028981992996e-02 1.2183657065673106e-02
      -7.4751474967497969e-02 -3.5090797862378148e-02
      8.3283151976894135e-02 7.2077803648974564e-02
      3.0575806469730182e-02 1.2007704876404996e-02
      2.2005732725164609e-02 4.3153864897423665e-03
      -2.0261841722820150e-02 -3.5524992081979422e-03
      -2.6137663139321260e-03 -1.9066683505707293e-02
      5.3269199477635554e-03 4.4795204066429197e-03
      -1.2115496190331506e-04 1.7609003958020907e-02
      1.8561685804833036e-03 -1.3149292568258350e-02
      6.6064648994397478e-03 -1.9966092781312414e-03
      7.3996673501414449e-03 1.7371665184906338e-02
      -1.2565223795537477e-03 -1.2389468088539338e-03
      -1.7898175040457067e-02 -5.1868904260415740e-03
      -5.7465782963982311e-03 2.3560278396102391e-02
      -1.7488210065904409e-03 7.5028027366474273e-03
      1.9339960123732989e-02 -1.0054206627349351e-02
      5.0613201834219350e-03 -8.7593303505958378e-04
      -2.1201998773949533e-02 -1.9788236202495802e-02
      7.3414082278860666e-03 7.0044878814336953e-03
      1.4946477729185859e-02 -4.8988922590707234e-03
      2.0707882470374139e-02 1.0463797349352233e-02
      -2.0567909219036905e-02 -2.1531069506468194e-02
      6.8103828010197154e-02 6.0124218731832822e-03
      -1.0248912810243420e-03 5.4086615658670281e-03
      2.4724808756721056e-03 1.3157454059575982e-02
      -5.7826195071537020e-03 1.3215528142604355e-03
      -1.1675237410703462e-02 5.6477191940082130e-03
      8.2374552706255075e-03 -1.1171840420401017e-03
      8.0333871110160951e-03 -5.7712060556823009e-04
      -1.2453066822494962e-02 9.6635440526025556e-03
      -1.3312452600263666e-02 -1.2469331669506035e-03
      -8.9241648014250045e-04 1.4939503258926063e-03
      2.6003373367831087e-03 1.4572815461490862e-02
      1.2514586067403381e-02 -1.0040824193761218e-03
      1.0749800407903520e-02 -1.5623525301482572e-02
      6.2348410180298151e-03 -7.1855773023814682e-03
      7.2394962272357005e-03 9.4765465570558569e-03
      -9.1180717471036986e-05 -4.5089241197721203e-03
      1.0220299007083863e-02 2.7805260232661860e-03
      -6.8657470850978113e-04 1.5049160431613954e-02
      -7.7410927070612682e-04 2.6494241566730548e-03
      -1.7144624086395316e-03 1.8693651927766896e-03
      3.4073421937299897e-02 -3.6168613994889995e-03
      -6.4149074225343652e-03 1.4639368042411918e-03
      4.8488225474096194e-03 1.3671691579217979e-02
      -3.3592491029028108e-03 6.5465394386723837e-03
      -1.5672648716549963e-02 -5.1117894320536292e-03
      5.8334943128423838e-03 -5.9863595880701873e-03
      5.7677347825172828e-03 2.7021082726921076e-03
      -1.6465565638495362e-02 6.0974561566379849e-03
      -1.4405511232057076e-02 -4.8737325941508635e-03
      8.6150273568623512e-03 -8.1932856713671232e-03
      4.3275570933711746e-03 1.4095591876553869e-02
      1.3850015549237375e-02 -4.3362519385778424e-03
      8.3031930834309917e-03 -1.4538886684101077e-02
      -4.5341502331869192e-03 5.1836017877195514e-03
      1.8540185361127408e-03 6.7151416833424104e-03
      6.3488957206967586e-03 4.7616139130480500e-03
      -3.0792515809717467e-03 1.7472696412969846e-04
      -5.3554457015370493e-03 1.5507052671094947e-02
      -6.4823794155869814e-03 -4.2668856749241557e-04
      4.7263953420738098e-03 7.1622714184999235e-03
      3.4499186103266570e-02 -4.9878540519421180e-03
      -5.5641403523800943e-03 2.0938654580513337e-03
      5.9929087661596912e-03 1.2322290556425367e-02
      -3.8700771664679679e-03 6.0890288605461168e-03
      -1.5519783566227760e-02 -4.8976151800620791e-03
      4.5928699821535532e-03 -6.3946385719186602e-03
      5.9616097933793142e-03 2.2959108737909658e-03
      -1.4865988366933352e-02 6.5557543770707466e-03
      -1.5105254719195922e-02 -6.2713264764912577e-03
      6.6914098419157955e-03 -8.3450797597130408e-03
      4.3371413718590723e-03 1.5486176363701989e-02
      1.5277586710799974e-02 -4.2234077125006680e-03
      6.3127934695967692e-03 -1.5234201120002703e-02
      -2.9325777039565853e-03 4.4272126634128973e-03
      2.3479552339776412e-03 6.9899765973731667e-03
      5.7019120736827361e-03 4.6629468944326593e-03
      -1.6022142082925028e-03 1.0737477241718892e-03
      -4.1457041655856269e-03 1.5413226402161063e-02
      -5.7034864824091914e-03 -4.3989529550196956e-04
      5.7820458982617839e-03 5.7366188635161811e-03
      -3.8841089032993104e-01 -3.9039366372168788e-02
      -3.5668891580473122e-02 -2.1696153301508744e-02
      3.0840867969371594e-02 -3.1178402846774679e-02
      2.5871944189977254e-02 2.5762817913454552e-02
      3.1945661152873159e-02 -4.4578026207207605e-02
      -2.9292231006991361e-02 -2.4510495859320382e-02
      -2.8232715321229829e-02 1.5708038836262959e-02
      3.2235613595038078e-02 -2.8745008221572950e-02
      2.9743019338485562e-02 -2.0639443705774814e-02
      4.7478998736828093e-02 -4.6346012624664840e-02
      2.2916450442087184e-02 -2.9722420921121040e-02
      -3.0639558258715921e-02 -3.6198480601577473e-02
      -3.1427393662663131e-02 3.1614267527047935e-02
      -3.7074359058064332e-02 4.1335612394190778e-02
      -2.5592287184083101e-02 -2.9274914977399119e-02
      3.8662976077804508e-02 3.8012437369960232e-02
      -4.6932139852179082e-02 -1.7958391430630861e-02
      -1.5437883399068771e-02 -2.9512994590236541e-02
      -3.6596777961219178e-02 -1.5112602971549897e-02
      3.7710731366409324e-02 3.4872666975643063e-02
      -1.5902270834175408e-01 -2.9056128353262264e-02
      -3.0240718906413080e-02 -1.0418544534981637e-02
      2.4611604432636002e-02 -3.5721783098744343e-03
      9.7023218081330690e-03 2.2245246721424448e-02
      4.5088104285347045e-03 -3.1905171094775336e-02
      -7.0082905962036415e-03 -1.8549947546074849e-02
      -9.6123829751519844e-03 1.3111616464645448e-02
      3.7802002109136078e-03 -8.0189198314897826e-03
      2.0207276207238954e-03 -1.5781154464591066e-02
      3.4884042834577238e-02 -3.4321282361105362e-02
      1.8839022510046783e-02 -3.9907227067692268e-03
      -2.8945119318220082e-03 -2.6983716555762302e-02
      -7.0983619451380825e-03 1.8662571854115369e-03
      -2.6269323907514144e-02 2.7630954140443708e-02
      -8.7367146705445847e-03 -7.4405722814549448e-03
      2.8067656362755648e-02 2.5623684392158546e-02
      -3.2845876474432510e-02 -1.0677589847235415e-02
      -1.3245500390697544e-02 -2.6537478549903465e-03
      -2.7723445259872439e-02 -1.1769587089829947e-02
      3.0323019172368050e-02 2.8419540241735295e-02
      -1.2196066673982738e-01 -3.0850871760361193e-02
      -2.7903885397503266e-02 -7.8067353500468140e-03
      2.3911587652742528e-02 -7.2188886920850493e-04
      6.2112337851571746e-03 2.0527546907709863e-02
      -2.2287964104951053e-03 -4.0494213732302810e-02
      -6.9542037557687869e-03 -1.9151253778309559e-02
      -7.0926433317027929e-03 1.0656223597098596e-02
      -3.1094879285021868e-03 -5.8785300522755761e-03
      -1.6229693090860232e-03 -1.6420759099232553e-02
      4.3214564229340093e-02 -4.4704739270002194e-02
      1.8420217141136511e-02 -9.0475836442795729e-04
      3.0598135238669938e-03 -2.8302655724132188e-02
      -5.4999135528009200e-03 -1.2062424945018576e-03
      -2.8139449615197858e-02 3.4386038358326869e-02
      -9.2730991195306266e-03 -4.2482508918607470e-03
      2.8351413556912692e-02 3.0135310359977428e-02
      -3.8678531110328922e-02 -9.2232060244398142e-03
      -1.3861013775553816e-02 2.2264435470748168e-04
      -2.6575272927162743e-02 -1.1412489238493015e-02
      2.9325230367300215e-02 2.7635330870525759e-02
      2.4775694367890535e-02 2.5597269049981157e-02
      1.5659441416525949e-02 8.3518442548937161e-03
      -1.4142452457397914e-02 2.9262822035775447e-03
      -8.5591848892147965e-03 -1.2982845341834493e-02
      -7.2594682323544362e-05 3.4699117875032638e-02
      8.0017511190167579e-03 1.4612391155239246e-02
      7.5355538341763230e-03 -1.0583350179572234e-02
      3.3319843809958088e-03 6.1186509033205683e-03
      1.9152669532427958e-03 1.3519331364808958e-02
      -3.2639650599436493e-02 3.4818850481397171e-02
      -1.2832031523470455e-02 6.9862394543231208e-04
      -2.2214104314406853e-03 1.6250240459131610e-02
      7.9058699218239464e-03 1.0670843937689231e-03
      3.0876128075910621e-02 -3.1600449093693993e-02
      8.3933709477160365e-03 7.3690354072863994e-03
      -1.8730254371299070e-02 -3.0531025626133301e-02
      3.1663204918186257e-02 9.5871147208618258e-03
      1.1623644305664165e-02 -1.2230224495857988e-03
      1.5547979458055491e-02 1.1300203462611399e-02
      -2.2580974025340449e-02 -1.3555119803846346e-02
      3.9632938509403311e-02 1.8134575098568497e-02
      1.2579531143014187e-02 4.6926777860299305e-03
      -9.8749251487588088e-03 8.0684083891690856e-04
      -5.0589828267894174e-03 -9.6842300456513354e-03
      3.0646908470441016e-03 2.1770406850754546e-02
      4.5492277722827580e-03 8.0670752596454266e-03
      4.6189256205084669e-03 -5.0950966997778437e-03
      2.7388278303973044e-03 1.9526999311162607e-03
      1.8356640129153882e-03 5.7896943252228510e-03
      -2.1976369059553729e-02 2.1271782419320599e-02
      -8.9437375695842949e-03 -5.2936680392642866e-04
      -1.2985582692259683e-03 1.3460018710120307e-02
      2.5973214261248187e-03 2.3457758301161772e-03
      1.7816130575100338e-02 -2.0709749098145817e-02
      3.9500558704265529e-03 3.1543126174895437e-03
      -1.4071833715955854e-02 -1.8478604441617280e-02
      1.8464676994530142e-02 4.8800294864661435e-03
      5.0315667647824391e-03 -2.3569683919848379e-03
      1.2816706231916372e-02 6.6938995665837744e-03
      -1.6092529530720288e-02 -1.0651183006689357e-02
      -2.2275797507211852e-02 1.0660348213224981e-02
      8.9916416410234998e-03 1.3050521495427108e-03
      -8.9210122584640911e-03 -4.9075597471817936e-03
      -1.0604104004270673e-03 -6.2652198819819335e-03
      5.8736690877326638e-03 6.8591115388800432e-03
      2.7369084990473442e-04 7.1917772337849670e-03
      1.1237658991269464e-03 -6.9256306977279443e-03
      5.5262972369199883e-03 -1.0272439329510457e-04
      5.7717678434996023e-03 8.1062783966989842e-03
      -5.9920175094362879e-03 7.5456791326709129e-03
      -7.5808642396545849e-03 -6.0414718480923555e-03
      -6.5782739441226368e-03 9.7517074405754529e-03
      -7.3390472992517408e-04 7.5917719671770613e-03
      1.2267785158179135e-02 -1.0721005606254145e-02
      1.5659568571871273e-03 -1.7199474627182789e-03
      -8.3805006669647499e-03 -1.0605854017231860e-02
      8.2138229153606978e-03 2.3693350372774088e-03
      7.6684540996055173e-03 -6.5953541824313473e-03
      8.6196174686003647e-03 3.1336505823199999e-03
      -8.1411649303523466e-03 -6.8431708624828629e-03
      6.1525189762621973e-02 8.3497830083950359e-03
      7.2305401687221332e-03 7.0657078776638271e-03
      -5.1907332975938561e-03 5.9798927372464086e-03
      -6.3296061843432566e-03 -4.5352551447040597e-03
      -4.6431642744288607e-03 8.4407530554147844e-03
      5.5413441253954754e-03 5.6593823625397527e-03
      5.8296543620537673e-03 -4.1262213370114363e-03
      -5.0945668887526808e-03 7.1955395931799105e-03
      -6.9971032311151333e-03 4.3538976265562589e-03
      -6.8153991772797670e-03 5.9194811452871650e-03
      -3.8332055891402259e-03 5.7310850968690661e-03
      6.1255166524335786e-03 7.7358688581789271e-03
      5.5724252918511064e-03 -7.1052525387476683e-03
      1.0991913223353274e-02 -9.1627466719866046e-03
      5.5670443307686123e-03 6.2911236180174246e-03
      -9.2339339898690059e-03 -9.9232926346441638e-03
      1.5107856493608339e-02 5.4354087169335742e-03
      3.8319902761529919e-03 6.1511448866721783e-03
      6.4431617294253979e-03 4.9020837755398804e-03
      -8.0937261272345812e-03 -7.4201603709804160e-03
      -1.0020599127556350e-01 -1.4739164866287167e-03
      4.9480965316106064e-04 -9.1573213215801960e-03
      -7.7918559308046533e-04 -1.5494651736020900e-02
      1.1699071807471071e-02 1.5758622450677473e-03
      1.4713282528820981e-02 -3.5801037771702984e-03
      -1.4406139346816787e-02 -1.3224194939148587e-03
      -1.2694698933019740e-02 1.2035671115955295e-03
      1.5636640887808875e-02 -1.5703079046519793e-02
      1.3501847063809157e-02 -2.1449760359306589e-03
      -2.1017760355715936e-04 1.9090258327616033e-03
      -6.6502739857792468e-04 -1.4220227010720028e-02
      -1.4988381003484076e-02 -1.1968543819434864e-03
      -1.5134936356793418e-02 1.4717967943683592e-02
      -4.3135378001102377e-03 4.5932368421571093e-03
      -1.1284829193305023e-02 -1.4776586916561182e-02
      6.8351870103412749e-04 4.2849285771683022e-03
      -2.3775519511249192e-03 -4.2096782487149953e-03
      -1.9017157380518666e-03 -1.5236852917737536e-02
      -1.6718182407817141e-03 -3.7941826033294798e-03
      5.5872610405011841e-04 8.0647348375209637e-04
      -2.6543178732271053e-02 2.2843096064476084e-02
      2.1258308930524127e-02 1.7170849806257102e-04
      -2.0280176101261271e-02 -8.5430734260629436e-03
      2.3966651454664653e-03 -1.5992982458462150e-02
      1.0702959802001063e-02 2.3464155165314422e-02
      -3.0479092612860767e-03 1.7472363391126639e-02
      -1.8402445686541088e-03 -7.6204836784787905e-03
      9.8620185625937998e-03 -5.2735839127164216e-03
      1.1102396835682487e-02 1.4010453304317671e-02
      -2.7376364400428246e-02 2.8414594532024478e-02
      -1.6072178226829017e-02 -1.1059962348694516e-02
      -9.1086433160460639e-03 2.3193978388533605e-02
      -5.6292244208192531e-03 1.2313908644027455e-02
      1.8961542693693451e-02 -1.9564485196756014e-02
      -2.1134000418469956e-03 -4.5968805196116257e-03
      -2.2310528290901899e-02 -2.0420531266029489e-02
      2.5844889714481570e-02 2.7679588504526944e-03
      1.1790372417541495e-02 -1.2265256527251854e-02
      2.1380549105344631e-02 6.1700268020761246e-03
      -2.2936785929736653e-02 -2.2132857583155956e-02
      -2.7834018816611250e-01 -3.8322225957184257e-02
      -3.3185798423776128e-02 -1.1727930710414428e-02
      2.9291655114158009e-02 -4.3512252793206354e-03
      8.8733034119013437e-03 2.5471057129769773e-02
      7.3086977686169226e-04 -4.6631839573777346e-02
      -7.7167325473564150e-03 -2.5410685887088683e-02
      -7.8457228984727314e-03 1.5471870688094250e-02
      2.4370509022803711e-03 -8.0319149239078992e-03
      2.9321577648255487e-03 -2.1420673789948594e-02
      4.3841766260421015e-02 -4.4235208296703077e-02
      2.3038314133058211e-02 -3.1323054726770808e-03
      -2.5369896700737629e-03 -3.2521388342886773e-02
      -7.6182844459633421e-03 3.7109682305962732e-03
      -4.4330092836987196e-02 4.3162826559413670e-02
      -9.1727340473628551e-03 -7.9569159948074415e-03
      3.4576990985195878e-02 3.9455084625883902e-02
      -5.1910509280519483e-02 -1.0956167438147950e-02
      -1.7837682644588498e-02 -4.5657358404936352e-03
      -3.2442683051410952e-02 -1.3341669053635355e-02
      3.6071373014422384e-02 3.1016927965231138e-02
      -1.9793125423797103e-01 -9.3721861131908085e-03
      -8.0534443579927499e-03 6.4148127083878925e-05
      8.1240033653528394e-03 -2.0658277906638310e-03
      -4.1777751403632813e-04 5.6218242204879067e-03
      -2.3138533066855763e-04 -1.5216120956516605e-02
      -4.1377232531327433e-04 -4.5302503475818092e-03
      8.9790653134850205e-04 3.7187583794885937e-03
      -4.4434298058603130e-05 1.0733395433677084e-03
      2.1553313865185011e-03 -3.3405111928893321e-03
      1.2829762124697146e-02 -1.0148732296069083e-02
      5.3678577684533949e-03 -2.6715026790770312e-03
      -6.6421835108717870e-04 -8.8841820743664826e-03
      5.8571489649171678e-04 1.7108395576223062e-03
      -1.4829222447357529e-02 1.2418341746266492e-02
      -1.1785310968724216e-03 1.2297582321171697e-03
      8.6646806625556433e-03 1.2217885004791195e-02
      -2.1432845062974479e-02 -1.6355703383896406e-03
      -2.9804929484235263e-03 -1.2380193111314053e-03
      -8.5311041339803904e-03 -3.3911121315327629e-03
      9.0563611392775432e-03 8.4098325370924095e-03
      -5.4962255078936040e-02 1.7485923347656529e-02
      1.4461020196992714e-02 5.4002714783158454e-04
      -1.3339670175402983e-02 -1.0812359077392314e-02
      1.0254392306722178e-03 -1.4739051667929702e-02
