<?xml version="1.0"?>
<opencv_storage>
<shapeML type_id="opencv-ml-ann-mlp">
  <layer_sizes type_id="opencv-matrix">
    <rows>1</rows>
    <cols>3</cols>
    <dt>i</dt>
    <data>
      1600 40 1</data></layer_sizes>
  <activation_function>SIGMOID_SYM</activation_function>
  <f_param1>5.9999999999999998e-01</f_param1>
  <f_param2>1.</f_param2>
  <min_val>-9.4999999999999996e-01</min_val>
  <max_val>9.4999999999999996e-01</max_val>
  <min_val1>-9.7999999999999998e-01</min_val1>
  <max_val1>9.7999999999999998e-01</max_val1>
  <training_params>
    <train_method>BACKPROP</train_method>
    <dw_scale>1.0000000000000001e-01</dw_scale>
    <moment_scale>1.0000000000000001e-01</moment_scale>
    <term_criteria><epsilon>9.9999999747524271e-07</epsilon>
      <iterations>4000</iterations></term_criteria></training_params>
  <input_scale>
    1. 0. 3.3047096925505268e-02 -1.2038585308576918e-01
    3.3047096925505268e-02 -1.2038585308576918e-01
    3.3047096925505268e-02 -1.2038585308576918e-01
    1.9362428670628189e-02 -2.1160368475757951e-01
    1.9362428670628189e-02 -2.1160368475757951e-01
    3.3047096925505268e-02 -1.2038585308576918e-01
    3.3047096925505268e-02 -1.2038585308576918e-01
    2.3539021490148269e-02 -1.7149858514250882e-01
    3.3047096925505268e-02 -1.2038585308576918e-01
    2.3539021490148269e-02 -1.7149858514250882e-01
    2.3539021490148269e-02 -1.7149858514250882e-01
    2.3539021490148269e-02 -1.7149858514250882e-01
    1.6894910526575081e-02 -2.4618298195866548e-01
    1.9362428670628189e-02 -2.1160368475757951e-01
    1.3071895424836602e-02 -3.3333333333333337e-01
    1.3071895424836602e-02 -3.3333333333333337e-01 1. 0.
    2.3539021490148269e-02 -1.7149858514250882e-01
    9.8039215686274508e-03 -5.0000000000000000e-01
    8.6807622043837875e-03 -6.3245553203367599e-01
    1.0084369624695127e-02 -4.7756693294091918e-01
    1.2325854060661022e-02 -3.5921060405354976e-01
    1.3071895424836602e-02 -3.3333333333333337e-01 1. 0.
    3.3047096925505268e-02 -1.2038585308576918e-01
    2.3539021490148269e-02 -1.7149858514250882e-01
    1.6894910526575081e-02 -2.4618298195866548e-01
    1.9362428670628189e-02 -2.1160368475757951e-01
    2.3539021490148269e-02 -1.7149858514250882e-01
    1.6894910526575081e-02 -2.4618298195866548e-01
    3.3047096925505268e-02 -1.2038585308576918e-01
    2.3539021490148269e-02 -1.7149858514250882e-01
    3.3047096925505268e-02 -1.2038585308576918e-01
    1.9362428670628189e-02 -2.1160368475757951e-01
    1.9362428670628189e-02 -2.1160368475757951e-01
    3.3047096925505268e-02 -1.2038585308576918e-01
    3.3047096925505268e-02 -1.2038585308576918e-01
    3.3047096925505268e-02 -1.2038585308576918e-01
    3.3047096925505268e-02 -1.2038585308576918e-01
    3.3047096925505268e-02 -1.2038585308576918e-01
    2.3539021490148269e-02 -1.7149858514250882e-01
    3.3047096925505268e-02 -1.2038585308576918e-01
    2.3539021490148269e-02 -1.7149858514250882e-01
    1.6894910526575081e-02 -2.4618298195866548e-01
    1.6894910526575081e-02 -2.4618298195866548e-01
    1.6894910526575081e-02 -2.4618298195866548e-01
    1.6894910526575081e-02 -2.4618298195866548e-01
    1.6894910526575081e-02 -2.4618298195866548e-01
    1.6894910526575081e-02 -2.4618298195866548e-01
    1.1206815816655063e-02 -4.0824829046386302e-01
    1.1715792935036232e-02 -3.8411063979868787e-01
    1.1206815816655063e-02 -4.0824829046386302e-01
    9.5572046407049801e-03 -5.2223296786709361e-01
    9.1452475148419352e-03 -5.6635211395485419e-01
    8.6807622043837875e-03 -6.3245553203367599e-01
    8.6807622043837875e-03 -6.3245553203367599e-01
    8.1160524939677993e-03 -7.6870611478580719e-01
    8.0564135219338140e-03 -7.9240581569306157e-01
    8.4474552632875389e-03 -6.7700320038632988e-01
    7.9609873214905712e-03 -8.4102144632032527e-01
    8.4474552632875389e-03 -6.7700320038632988e-01
    8.4474552632875389e-03 -6.7700320038632988e-01
    8.8185254184757807e-03 -6.1036793789307364e-01
    9.3390131805458857e-03 -5.4433105395181736e-01
    1.0084369624695127e-02 -4.7756693294091918e-01
    1.3071895424836602e-02 -3.3333333333333337e-01
    1.3071895424836602e-02 -3.3333333333333337e-01
    1.2325854060661022e-02 -3.5921060405354976e-01
    1.3071895424836602e-02 -3.3333333333333337e-01
    1.4008519770818831e-02 -3.0618621784789729e-01
    1.4008519770818831e-02 -3.0618621784789729e-01
    1.4008519770818831e-02 -3.0618621784789729e-01
    1.4008519770818831e-02 -3.0618621784789729e-01
    1.4008519770818831e-02 -3.0618621784789729e-01
    1.5227064210104330e-02 -2.7735009811261457e-01
    2.3539021490148269e-02 -1.7149858514250882e-01
    2.3539021490148269e-02 -1.7149858514250882e-01
    2.3539021490148269e-02 -1.7149858514250882e-01
    1.9362428670628189e-02 -2.1160368475757951e-01 1. 0.
    2.3539021490148269e-02 -1.7149858514250882e-01
    2.3539021490148269e-02 -1.7149858514250882e-01
    2.3539021490148269e-02 -1.7149858514250882e-01
    1.6894910526575081e-02 -2.4618298195866548e-01
    1.4008519770818831e-02 -3.0618621784789729e-01
    1.3071895424836602e-02 -3.3333333333333337e-01
    1.4008519770818831e-02 -3.0618621784789729e-01
    1.0405267264808478e-02 -4.5485882614734208e-01
    1.0775452360494150e-02 -4.3178776958837267e-01
    9.3390131805458857e-03 -5.4433105395181736e-01
    9.3390131805458857e-03 -5.4433105395181736e-01
    8.4474552632875389e-03 -6.7700320038632988e-01
    8.0564135219338140e-03 -7.9240581569306157e-01
    8.1160524939677993e-03 -7.6870611478580719e-01
    7.8721085151663341e-03 -9.1766293548224698e-01
    7.8721085151663341e-03 -9.1766293548224698e-01
    7.8721085151663341e-03 -9.1766293548224698e-01
    7.8431372549019607e-03 -1. 8.1160524939677993e-03
    -7.6870611478580719e-01 7.8721085151663341e-03
    -9.1766293548224698e-01 7.9609873214905712e-03
    -8.4102144632032527e-01 8.3492028484457147e-03
    -6.9954392437334456e-01 8.3492028484457147e-03
    -6.9954392437334456e-01 7.9609873214905712e-03
    -8.4102144632032527e-01 7.9609873214905712e-03
    -8.4102144632032527e-01 8.8185254184757807e-03
    -6.1036793789307364e-01 9.8039215686274508e-03
    -5.0000000000000000e-01 9.8039215686274508e-03
    -5.0000000000000000e-01 1.1206815816655063e-02
    -4.0824829046386302e-01 1.1715792935036232e-02
    -3.8411063979868787e-01 1.2325854060661022e-02
    -3.5921060405354976e-01 1.1206815816655063e-02
    -4.0824829046386302e-01 1.1715792935036232e-02
    -3.8411063979868787e-01 1.2325854060661022e-02
    -3.5921060405354976e-01 1.2325854060661022e-02
    -3.5921060405354976e-01 1.9362428670628189e-02
    -2.1160368475757951e-01 1.6894910526575081e-02
    -2.4618298195866548e-01 2.3539021490148269e-02
    -1.7149858514250882e-01 3.3047096925505268e-02
    -1.2038585308576918e-01 1. 0. 3.3047096925505268e-02
    -1.2038585308576918e-01 2.3539021490148269e-02
    -1.7149858514250882e-01 1.9362428670628189e-02
    -2.1160368475757951e-01 1.4008519770818831e-02
    -3.0618621784789729e-01 1.4008519770818831e-02
    -3.0618621784789729e-01 1.3071895424836602e-02
    -3.3333333333333337e-01 9.5572046407049801e-03
    -5.2223296786709361e-01 9.5572046407049801e-03
    -5.2223296786709361e-01 8.8185254184757807e-03
    -6.1036793789307364e-01 8.8185254184757807e-03
    -6.1036793789307364e-01 7.9244154594654524e-03
    -8.6602540378443882e-01 8.0564135219338140e-03
    -7.9240581569306157e-01 7.8948650192183448e-03
    -8.9155582824172885e-01 7.8721085151663341e-03
    -9.1766293548224698e-01 7.8431372549019607e-03 -1.
    8.0048684404679018e-03 -1.2247448713915889e+00
    8.0048684404679018e-03 -1.2247448713915889e+00
    7.8559738220097975e-03 -1.0588730430094633e+00
    7.8559738220097975e-03 -9.4440028160303491e-01
    7.9244154594654524e-03 -1.1547005383792517e+00
    7.8948650192183466e-03 -1.1216347516589495e+00
    7.8721085151663341e-03 -1.0897247358851680e+00
    7.8431372549019607e-03 -1. 7.8559738220097975e-03
    -9.4440028160303491e-01 7.9244154594654524e-03
    -8.6602540378443882e-01 8.1160524939677993e-03
    -7.6870611478580719e-01 7.8948650192183448e-03
    -8.9155582824172885e-01 9.5572046407049801e-03
    -5.2223296786709361e-01 9.8039215686274508e-03
    -5.0000000000000000e-01 9.3390131805458857e-03
    -5.4433105395181736e-01 9.3390131805458857e-03
    -5.4433105395181736e-01 1.1206815816655063e-02
    -4.0824829046386302e-01 1.1715792935036232e-02
    -3.8411063979868787e-01 1.0775452360494150e-02
    -4.3178776958837267e-01 1.1715792935036232e-02
    -3.8411063979868787e-01 1.3071895424836602e-02
    -3.3333333333333337e-01 1.5227064210104330e-02
    -2.7735009811261457e-01 2.3539021490148269e-02
    -1.7149858514250882e-01 3.3047096925505268e-02
    -1.2038585308576918e-01 1. 0. 3.3047096925505268e-02
    -1.2038585308576918e-01 3.3047096925505268e-02
    -1.2038585308576918e-01 1.4008519770818831e-02
    -3.0618621784789729e-01 1.2325854060661022e-02
    -3.5921060405354976e-01 1.3071895424836602e-02
    -3.3333333333333337e-01 9.8039215686274508e-03
    -5.0000000000000000e-01 9.5572046407049801e-03
    -5.2223296786709361e-01 9.1452475148419352e-03
    -5.6635211395485419e-01 8.6807622043837875e-03
    -6.3245553203367599e-01 7.9609873214905712e-03
    -8.4102144632032527e-01 7.8721085151663341e-03
    -9.1766293548224698e-01 7.8948650192183448e-03
    -8.9155582824172885e-01 7.8463404967160921e-03
    -9.7182531580755027e-01 7.8463404967160921e-03
    -9.7182531580755027e-01 7.8948650192183448e-03
    -8.9155582824172885e-01 8.0564135219338105e-03
    -1.2619796324000605e+00 7.8721085151663341e-03
    -1.0897247358851680e+00 7.8463404967160921e-03
    -9.7182531580755027e-01 7.8463404967160921e-03
    -9.7182531580755027e-01 7.8948650192183466e-03
    -1.1216347516589495e+00 7.8431372549019607e-03 -1.
    7.8431372549019607e-03 -1. 7.8559738220097975e-03
    -9.4440028160303491e-01 8.0048684404679018e-03
    -8.1649658092772603e-01 7.8559738220097975e-03
    -9.4440028160303491e-01 7.8431372549019607e-03 -1.
    7.8463404967160921e-03 -9.7182531580755027e-01
    8.0048684404679018e-03 -8.1649658092772603e-01
    8.3492028484457147e-03 -6.9954392437334456e-01
    8.6807622043837875e-03 -6.3245553203367599e-01
    9.3390131805458857e-03 -5.4433105395181736e-01
    9.3390131805458857e-03 -5.4433105395181736e-01
    1.0775452360494150e-02 -4.3178776958837267e-01
    1.0775452360494150e-02 -4.3178776958837267e-01
    1.0405267264808478e-02 -4.5485882614734208e-01
    1.4008519770818831e-02 -3.0618621784789729e-01
    1.4008519770818831e-02 -3.0618621784789729e-01
    2.3539021490148269e-02 -1.7149858514250882e-01
    3.3047096925505268e-02 -1.2038585308576918e-01 1. 0.
    3.3047096925505268e-02 -1.2038585308576918e-01
    1.6894910526575081e-02 -2.4618298195866548e-01
    1.5227064210104330e-02 -2.7735009811261457e-01
    1.3071895424836602e-02 -3.3333333333333337e-01
    9.8039215686274508e-03 -5.0000000000000000e-01
    9.1452475148419352e-03 -5.6635211395485419e-01
    9.1452475148419352e-03 -5.6635211395485419e-01
    8.2617742313763169e-03 -7.2231511851461516e-01
    7.9244154594654524e-03 -8.6602540378443882e-01
    7.9609873214905712e-03 -8.4102144632032527e-01
    7.8948650192183448e-03 -8.9155582824172885e-01
    7.8431372549019607e-03 -1. 8.1160524939677993e-03
    -7.6870611478580719e-01 7.9244154594654524e-03
    -8.6602540378443882e-01 7.8559738220097975e-03
    -1.0588730430094633e+00 8.4474552632875406e-03
    -1.4770978917519928e+00 7.9609873214905712e-03
    -1.1890303206597703e+00 8.1843010941168755e-03
    -1.3416407864998734e+00 7.8463404967160904e-03
    -1.0289915108550529e+00 7.8559738220097975e-03
    -1.0588730430094633e+00 8.1843010941168755e-03
    -1.3416407864998734e+00 7.8559738220097975e-03
    -9.4440028160303491e-01 7.8559738220097975e-03
    -9.4440028160303491e-01 7.8948650192183466e-03
    -1.1216347516589495e+00 7.9609873214905712e-03
    -1.1890303206597703e+00 7.9244154594654524e-03
    -1.1547005383792517e+00 7.8721085151663341e-03
    -1.0897247358851680e+00 7.9609873214905712e-03
    -8.4102144632032527e-01 8.1160524939677993e-03
    -7.6870611478580719e-01 8.3492028484457147e-03
    -6.9954392437334456e-01 8.3492028484457147e-03
    -6.9954392437334456e-01 9.3390131805458857e-03
    -5.4433105395181736e-01 9.3390131805458857e-03
    -5.4433105395181736e-01 1.0084369624695127e-02
    -4.7756693294091918e-01 1.1206815816655063e-02
    -4.0824829046386302e-01 1.3071895424836602e-02
    -3.3333333333333337e-01 1.4008519770818831e-02
    -3.0618621784789729e-01 1.6894910526575081e-02
    -2.4618298195866548e-01 3.3047096925505268e-02
    -1.2038585308576918e-01 1. 0. 2.3539021490148269e-02
    -1.7149858514250882e-01 1.6894910526575081e-02
    -2.4618298195866548e-01 1.0084369624695127e-02
    -4.7756693294091918e-01 1.0084369624695127e-02
    -4.7756693294091918e-01 9.5572046407049801e-03
    -5.2223296786709361e-01 8.9726336337731250e-03
    -5.8834840541455202e-01 8.8185254184757807e-03
    -6.1036793789307364e-01 8.0048684404679018e-03
    -8.1649658092772603e-01 7.9609873214905712e-03
    -8.4102144632032527e-01 8.0564135219338140e-03
    -7.9240581569306157e-01 7.8431372549019607e-03 -1.
    7.8948650192183466e-03 -1.1216347516589495e+00
    7.8559738220097975e-03 -1.0588730430094633e+00
    8.4474552632875406e-03 -1.4770978917519928e+00
    8.1160524939677993e-03 -1.3008872711759816e+00
    8.1160524939677993e-03 -1.3008872711759816e+00
    8.3492028484457165e-03 -1.4295028019803131e+00
    8.5575643229800942e-03 -1.5275252316519468e+00
    8.1843010941168755e-03 -1.3416407864998734e+00
    8.1160524939677993e-03 -1.3008872711759816e+00
    7.9244154594654524e-03 -1.1547005383792517e+00
    7.8559738220097975e-03 -1.0588730430094633e+00
    7.8721085151663341e-03 -1.0897247358851680e+00
    7.8463404967160921e-03 -9.7182531580755027e-01
    7.9609873214905712e-03 -1.1890303206597703e+00
    8.0048684404679018e-03 -1.2247448713915889e+00
    7.8721085151663341e-03 -1.0897247358851680e+00
    7.8559738220097975e-03 -1.0588730430094633e+00
    8.0048684404679018e-03 -1.2247448713915889e+00
    8.0048684404679018e-03 -8.1649658092772603e-01
    8.1843010941168772e-03 -7.4535599249992990e-01
    8.4474552632875389e-03 -6.7700320038632988e-01
    9.1452475148419352e-03 -5.6635211395485419e-01
    9.1452475148419352e-03 -5.6635211395485419e-01
    1.1715792935036232e-02 -3.8411063979868787e-01
    1.3071895424836602e-02 -3.3333333333333337e-01
    1.3071895424836602e-02 -3.3333333333333337e-01
    1.6894910526575081e-02 -2.4618298195866548e-01
    2.3539021490148269e-02 -1.7149858514250882e-01 1. 0.
    1.9362428670628189e-02 -2.1160368475757951e-01
    1.6894910526575081e-02 -2.4618298195866548e-01
    9.8039215686274508e-03 -5.0000000000000000e-01
    9.5572046407049801e-03 -5.2223296786709361e-01
    1.1715792935036232e-02 -3.8411063979868787e-01
    8.4474552632875389e-03 -6.7700320038632988e-01
    7.8948650192183448e-03 -8.9155582824172885e-01
    7.8948650192183448e-03 -8.9155582824172885e-01
    8.0048684404679018e-03 -8.1649658092772603e-01
    7.8559738220097975e-03 -9.4440028160303491e-01
    8.1160524939677993e-03 -1.3008872711759816e+00
    8.2617742313763204e-03 -1.3844373104863463e+00
    8.6807622043837858e-03 -1.5811388300841895e+00
    8.5575643229800942e-03 -1.5275252316519468e+00
    8.1160524939677993e-03 -1.3008872711759816e+00
    7.9244154594654524e-03 -1.1547005383792517e+00
    8.1843010941168755e-03 -1.3416407864998734e+00
    8.1843010941168755e-03 -1.3416407864998734e+00
    8.2617742313763204e-03 -1.3844373104863463e+00
    8.0564135219338105e-03 -1.2619796324000605e+00
    7.9244154594654524e-03 -1.1547005383792517e+00
    8.6807622043837858e-03 -1.5811388300841895e+00
    8.5575643229800942e-03 -1.5275252316519468e+00
    8.1843010941168755e-03 -1.3416407864998734e+00
    7.8948650192183466e-03 -1.1216347516589495e+00
    8.0048684404679018e-03 -1.2247448713915889e+00
    8.0048684404679018e-03 -1.2247448713915889e+00
    7.8463404967160921e-03 -9.7182531580755027e-01
    7.8431372549019607e-03 -1. 7.8721085151663341e-03
    -1.0897247358851680e+00 7.9244154594654524e-03
    -8.6602540378443882e-01 8.1843010941168772e-03
    -7.4535599249992990e-01 8.2617742313763169e-03
    -7.2231511851461516e-01 9.3390131805458857e-03
    -5.4433105395181736e-01 1.0084369624695127e-02
    -4.7756693294091918e-01 1.2325854060661022e-02
    -3.5921060405354976e-01 1.3071895424836602e-02
    -3.3333333333333337e-01 1.5227064210104330e-02
    -2.7735009811261457e-01 1.6894910526575081e-02
    -2.4618298195866548e-01 3.3047096925505268e-02
    -1.2038585308576918e-01 1.9362428670628189e-02
    -2.1160368475757951e-01 1.5227064210104330e-02
    -2.7735009811261457e-01 1.1715792935036232e-02
    -3.8411063979868787e-01 1.0775452360494150e-02
    -4.3178776958837267e-01 9.5572046407049801e-03
    -5.2223296786709361e-01 8.0564135219338140e-03
    -7.9240581569306157e-01 7.8559738220097975e-03
    -9.4440028160303491e-01 7.8721085151663341e-03
    -9.1766293548224698e-01 7.8559738220097975e-03
    -9.4440028160303491e-01 7.8431372549019607e-03 -1.
    8.1160524939677993e-03 -1.3008872711759816e+00
    8.0564135219338105e-03 -1.2619796324000605e+00
    8.1160524939677993e-03 -1.3008872711759816e+00
    7.9244154594654524e-03 -1.1547005383792517e+00
    7.8948650192183466e-03 -1.1216347516589495e+00
    7.9244154594654524e-03 -1.1547005383792517e+00
    8.1160524939677993e-03 -1.3008872711759816e+00
    8.0048684404679018e-03 -1.2247448713915889e+00
    8.1160524939677993e-03 -1.3008872711759816e+00
    7.8463404967160921e-03 -9.7182531580755027e-01
    8.3492028484457165e-03 -1.4295028019803131e+00
    8.2617742313763204e-03 -1.3844373104863463e+00
    8.3492028484457165e-03 -1.4295028019803131e+00
    8.1843010941168755e-03 -1.3416407864998734e+00
    8.5575643229800942e-03 -1.5275252316519468e+00
    8.4474552632875406e-03 -1.4770978917519928e+00
    7.8559738220097975e-03 -1.0588730430094633e+00
    7.8721085151663341e-03 -1.0897247358851680e+00
    7.8948650192183466e-03 -1.1216347516589495e+00
    7.8721085151663341e-03 -1.0897247358851680e+00
    7.8948650192183466e-03 -1.1216347516589495e+00
    7.8463404967160904e-03 -1.0289915108550529e+00
    7.9609873214905712e-03 -8.4102144632032527e-01
    8.3492028484457147e-03 -6.9954392437334456e-01
    1.0084369624695127e-02 -4.7756693294091918e-01
    1.0084369624695127e-02 -4.7756693294091918e-01
    1.3071895424836602e-02 -3.3333333333333337e-01
    1.5227064210104330e-02 -2.7735009811261457e-01
    1.6894910526575081e-02 -2.4618298195866548e-01 1. 0.
    1.6894910526575081e-02 -2.4618298195866548e-01
    1.5227064210104330e-02 -2.7735009811261457e-01
    1.2325854060661022e-02 -3.5921060405354976e-01
    9.3390131805458857e-03 -5.4433105395181736e-01
    7.9609873214905712e-03 -8.4102144632032527e-01
    8.0564135219338140e-03 -7.9240581569306157e-01
    7.9609873214905712e-03 -8.4102144632032527e-01
    7.8559738220097975e-03 -9.4440028160303491e-01
    7.9244154594654524e-03 -8.6602540378443882e-01
    7.8721085151663341e-03 -1.0897247358851680e+00
    7.8463404967160904e-03 -1.0289915108550529e+00
    7.9609873214905712e-03 -1.1890303206597703e+00
    8.0048684404679018e-03 -1.2247448713915889e+00
    7.9609873214905712e-03 -1.1890303206597703e+00
    8.1843010941168755e-03 -1.3416407864998734e+00
    7.9609873214905712e-03 -1.1890303206597703e+00
    8.1160524939677993e-03 -1.3008872711759816e+00
    7.8463404967160904e-03 -1.0289915108550529e+00
    7.9244154594654524e-03 -1.1547005383792517e+00
    8.1843010941168755e-03 -1.3416407864998734e+00
    8.0048684404679018e-03 -1.2247448713915889e+00
    8.3492028484457165e-03 -1.4295028019803131e+00
    8.1160524939677993e-03 -1.3008872711759816e+00
    8.2617742313763204e-03 -1.3844373104863463e+00
    8.8185254184757790e-03 -1.6383560438182501e+00
    8.1843010941168755e-03 -1.3416407864998734e+00
    8.5575643229800942e-03 -1.5275252316519468e+00
    7.9609873214905712e-03 -1.1890303206597703e+00
    8.0048684404679018e-03 -1.2247448713915889e+00
    7.9244154594654524e-03 -1.1547005383792517e+00
    7.8948650192183466e-03 -1.1216347516589495e+00
    7.8721085151663341e-03 -1.0897247358851680e+00
    7.8431372549019607e-03 -1. 7.9609873214905712e-03
    -8.4102144632032527e-01 8.6807622043837875e-03
    -6.3245553203367599e-01 1.0084369624695127e-02
    -4.7756693294091918e-01 1.3071895424836602e-02
    -3.3333333333333337e-01 1.4008519770818831e-02
    -3.0618621784789729e-01 1.5227064210104330e-02
    -2.7735009811261457e-01 2.3539021490148269e-02
    -1.7149858514250882e-01 1.5227064210104330e-02
    -2.7735009811261457e-01 1.5227064210104330e-02
    -2.7735009811261457e-01 9.3390131805458857e-03
    -5.4433105395181736e-01 8.2617742313763169e-03
    -7.2231511851461516e-01 8.1160524939677993e-03
    -7.6870611478580719e-01 8.6807622043837875e-03
    -6.3245553203367599e-01 8.0048684404679018e-03
    -8.1649658092772603e-01 8.0564135219338140e-03
    -7.9240581569306157e-01 7.8431372549019607e-03 -1.
    8.0048684404679018e-03 -1.2247448713915889e+00
    7.8559738220097975e-03 -1.0588730430094633e+00
    7.8559738220097975e-03 -1.0588730430094633e+00
    7.9244154594654524e-03 -1.1547005383792517e+00
    8.1160524939677993e-03 -1.3008872711759816e+00
    8.0048684404679018e-03 -1.2247448713915889e+00
    8.1843010941168755e-03 -1.3416407864998734e+00
    7.8721085151663341e-03 -1.0897247358851680e+00
    7.8431372549019607e-03 -1. 7.9609873214905712e-03
    -1.1890303206597703e+00 7.9609873214905712e-03
    -1.1890303206597703e+00 7.8721085151663341e-03
    -1.0897247358851680e+00 8.1160524939677993e-03
    -1.3008872711759816e+00 8.1160524939677993e-03
    -1.3008872711759816e+00 8.0564135219338105e-03
    -1.2619796324000605e+00 8.3492028484457165e-03
    -1.4295028019803131e+00 8.3492028484457165e-03
    -1.4295028019803131e+00 8.6807622043837858e-03
    -1.5811388300841895e+00 8.3492028484457165e-03
    -1.4295028019803131e+00 8.6807622043837858e-03
    -1.5811388300841895e+00 8.1843010941168755e-03
    -1.3416407864998734e+00 7.9244154594654524e-03
    -1.1547005383792517e+00 7.8721085151663341e-03
    -1.0897247358851680e+00 7.8721085151663341e-03
    -1.0897247358851680e+00 7.8721085151663341e-03
    -9.1766293548224698e-01 8.4474552632875389e-03
    -6.7700320038632988e-01 9.3390131805458857e-03
    -5.4433105395181736e-01 1.2325854060661022e-02
    -3.5921060405354976e-01 1.4008519770818831e-02
    -3.0618621784789729e-01 1.6894910526575081e-02
    -2.4618298195866548e-01 2.3539021490148269e-02
    -1.7149858514250882e-01 1.4008519770818831e-02
    -3.0618621784789729e-01 1.3071895424836602e-02
    -3.3333333333333337e-01 8.4474552632875389e-03
    -6.7700320038632988e-01 8.1160524939677993e-03
    -7.6870611478580719e-01 8.5575643229800942e-03
    -6.5465367070797720e-01 8.6807622043837875e-03
    -6.3245553203367599e-01 7.9609873214905712e-03
    -8.4102144632032527e-01 7.8559738220097975e-03
    -9.4440028160303491e-01 7.8559738220097975e-03
    -1.0588730430094633e+00 7.9609873214905712e-03
    -1.1890303206597703e+00 7.9244154594654524e-03
    -1.1547005383792517e+00 7.8431372549019607e-03 -1.
    8.0048684404679018e-03 -8.1649658092772603e-01
    7.8431372549019607e-03 -1. 8.1160524939677993e-03
    -1.3008872711759816e+00 7.9244154594654524e-03
    -1.1547005383792517e+00 7.8431372549019607e-03 -1.
    7.9244154594654524e-03 -1.1547005383792517e+00
    7.9609873214905712e-03 -1.1890303206597703e+00
    7.8721085151663341e-03 -1.0897247358851680e+00
    7.8463404967160921e-03 -9.7182531580755027e-01
    7.8463404967160904e-03 -1.0289915108550529e+00
    8.0564135219338105e-03 -1.2619796324000605e+00
    7.9609873214905712e-03 -1.1890303206597703e+00
    8.0564135219338105e-03 -1.2619796324000605e+00
    8.0564135219338105e-03 -1.2619796324000605e+00
    8.5575643229800942e-03 -1.5275252316519468e+00
    9.3390131805458874e-03 -1.8371173070873839e+00
    9.1452475148419369e-03 -1.7656860023298397e+00
    8.6807622043837858e-03 -1.5811388300841895e+00
    7.9609873214905712e-03 -1.1890303206597703e+00
    7.9244154594654524e-03 -1.1547005383792517e+00
    7.8559738220097975e-03 -1.0588730430094633e+00
    7.8559738220097975e-03 -1.0588730430094633e+00
    8.0564135219338140e-03 -7.9240581569306157e-01
    9.3390131805458857e-03 -5.4433105395181736e-01
    9.5572046407049801e-03 -5.2223296786709361e-01
    1.4008519770818831e-02 -3.0618621784789729e-01
    1.5227064210104330e-02 -2.7735009811261457e-01
    2.3539021490148269e-02 -1.7149858514250882e-01
    1.4008519770818831e-02 -3.0618621784789729e-01
    1.0084369624695127e-02 -4.7756693294091918e-01
    8.3492028484457147e-03 -6.9954392437334456e-01
    8.1160524939677993e-03 -7.6870611478580719e-01
    8.0048684404679018e-03 -8.1649658092772603e-01
    7.9244154594654524e-03 -8.6602540378443882e-01
    8.0564135219338140e-03 -7.9240581569306157e-01
    7.8559738220097975e-03 -1.0588730430094633e+00
    8.0048684404679018e-03 -1.2247448713915889e+00
    7.8463404967160921e-03 -9.7182531580755027e-01
    7.8948650192183466e-03 -1.1216347516589495e+00
    7.9244154594654524e-03 -1.1547005383792517e+00
    7.9609873214905712e-03 -1.1890303206597703e+00
    8.1160524939677993e-03 -1.3008872711759816e+00
    7.8948650192183466e-03 -1.1216347516589495e+00
    7.8559738220097975e-03 -1.0588730430094633e+00
    7.8721085151663341e-03 -1.0897247358851680e+00
    7.8559738220097975e-03 -1.0588730430094633e+00
    7.9244154594654524e-03 -1.1547005383792517e+00
    7.8463404967160904e-03 -1.0289915108550529e+00
    7.8463404967160921e-03 -9.7182531580755027e-01
    7.8431372549019607e-03 -1. 7.9244154594654524e-03
    -1.1547005383792517e+00 8.1843010941168755e-03
    -1.3416407864998734e+00 7.8948650192183466e-03
    -1.1216347516589495e+00 8.9726336337731232e-03
    -1.6996731711975943e+00 8.9726336337731232e-03
    -1.6996731711975943e+00 1.0084369624695127e-02
    -2.0939473213563380e+00 8.8185254184757790e-03
    -1.6383560438182501e+00 8.9726336337731232e-03
    -1.6996731711975943e+00 8.3492028484457165e-03
    -1.4295028019803131e+00 7.9609873214905712e-03
    -1.1890303206597703e+00 7.9609873214905712e-03
    -1.1890303206597703e+00 7.8463404967160904e-03
    -1.0289915108550529e+00 7.8721085151663341e-03
    -9.1766293548224698e-01 8.6807622043837875e-03
    -6.3245553203367599e-01 9.3390131805458857e-03
    -5.4433105395181736e-01 1.3071895424836602e-02
    -3.3333333333333337e-01 1.6894910526575081e-02
    -2.4618298195866548e-01 2.3539021490148269e-02
    -1.7149858514250882e-01 1.4008519770818831e-02
    -3.0618621784789729e-01 8.6807622043837875e-03
    -6.3245553203367599e-01 8.1843010941168772e-03
    -7.4535599249992990e-01 7.8721085151663341e-03
    -9.1766293548224698e-01 7.8721085151663341e-03
    -9.1766293548224698e-01 7.8948650192183448e-03
    -8.9155582824172885e-01 7.8948650192183466e-03
    -1.1216347516589495e+00 7.9609873214905712e-03
    -1.1890303206597703e+00 7.8463404967160904e-03
    -1.0289915108550529e+00 7.8559738220097975e-03
    -1.0588730430094633e+00 7.8721085151663341e-03
    -1.0897247358851680e+00 8.0564135219338105e-03
    -1.2619796324000605e+00 8.0048684404679018e-03
    -1.2247448713915889e+00 7.8559738220097975e-03
    -9.4440028160303491e-01 7.8431372549019607e-03 -1.
    7.8431372549019607e-03 -1. 7.9244154594654524e-03
    -8.6602540378443882e-01 7.8948650192183466e-03
    -1.1216347516589495e+00 7.8431372549019607e-03 -1.
    7.8559738220097975e-03 -1.0588730430094633e+00
    7.8463404967160921e-03 -9.7182531580755027e-01
    7.8559738220097975e-03 -9.4440028160303491e-01
    8.1843010941168755e-03 -1.3416407864998734e+00
    8.1843010941168755e-03 -1.3416407864998734e+00
    8.3492028484457165e-03 -1.4295028019803131e+00
    8.8185254184757790e-03 -1.6383560438182501e+00
    8.8185254184757790e-03 -1.6383560438182501e+00
    8.9726336337731232e-03 -1.6996731711975943e+00
    8.5575643229800942e-03 -1.5275252316519468e+00
    8.9726336337731232e-03 -1.6996731711975943e+00
    8.6807622043837858e-03 -1.5811388300841895e+00
    8.1160524939677993e-03 -1.3008872711759816e+00
    7.8463404967160904e-03 -1.0289915108550529e+00
    7.9244154594654524e-03 -1.1547005383792517e+00
    7.8463404967160921e-03 -9.7182531580755027e-01
    8.2617742313763169e-03 -7.2231511851461516e-01
    9.3390131805458857e-03 -5.4433105395181736e-01
    8.9726336337731250e-03 -5.8834840541455202e-01
    1.4008519770818831e-02 -3.0618621784789729e-01
    1.6894910526575081e-02 -2.4618298195866548e-01
    1.1715792935036232e-02 -3.8411063979868787e-01
    8.6807622043837875e-03 -6.3245553203367599e-01
    8.1160524939677993e-03 -7.6870611478580719e-01
    7.8463404967160921e-03 -9.7182531580755027e-01
    7.8721085151663341e-03 -9.1766293548224698e-01
    7.8463404967160904e-03 -1.0289915108550529e+00
    7.9609873214905712e-03 -1.1890303206597703e+00
    8.0048684404679018e-03 -1.2247448713915889e+00
    7.8948650192183466e-03 -1.1216347516589495e+00
    7.8721085151663341e-03 -1.0897247358851680e+00
    7.9244154594654524e-03 -1.1547005383792517e+00
    8.0564135219338105e-03 -1.2619796324000605e+00
    8.1160524939677993e-03 -1.3008872711759816e+00
    7.8431372549019607e-03 -1. 7.8463404967160921e-03
    -9.7182531580755027e-01 7.8463404967160921e-03
    -9.7182531580755027e-01 7.8463404967160921e-03
    -9.7182531580755027e-01 7.8463404967160921e-03
    -9.7182531580755027e-01 7.8559738220097975e-03
    -9.4440028160303491e-01 7.8721085151663341e-03
    -9.1766293548224698e-01 7.9609873214905712e-03
    -8.4102144632032527e-01 7.8431372549019607e-03 -1.
    7.8463404967160904e-03 -1.0289915108550529e+00
    7.8463404967160904e-03 -1.0289915108550529e+00
    7.9609873214905712e-03 -1.1890303206597703e+00
    8.1160524939677993e-03 -1.3008872711759816e+00
    8.1160524939677993e-03 -1.3008872711759816e+00
    8.8185254184757790e-03 -1.6383560438182501e+00
    8.9726336337731232e-03 -1.6996731711975943e+00
    1.0084369624695127e-02 -2.0939473213563380e+00
    9.8039215686274508e-03 -2. 8.6807622043837858e-03
    -1.5811388300841895e+00 7.9609873214905712e-03
    -1.1890303206597703e+00 7.8463404967160921e-03
    -9.7182531580755027e-01 7.8431372549019607e-03 -1.
    7.9244154594654524e-03 -8.6602540378443882e-01
    8.8185254184757807e-03 -6.1036793789307364e-01
    9.3390131805458857e-03 -5.4433105395181736e-01
    1.2325854060661022e-02 -3.5921060405354976e-01
    3.3047096925505268e-02 -1.2038585308576918e-01
    1.3071895424836602e-02 -3.3333333333333337e-01
    8.4474552632875389e-03 -6.7700320038632988e-01
    8.3492028484457147e-03 -6.9954392437334456e-01
    7.8431372549019607e-03 -1. 7.8948650192183448e-03
    -8.9155582824172885e-01 7.8463404967160904e-03
    -1.0289915108550529e+00 8.1160524939677993e-03
    -1.3008872711759816e+00 8.0564135219338105e-03
    -1.2619796324000605e+00 7.8463404967160904e-03
    -1.0289915108550529e+00 7.8559738220097975e-03
    -1.0588730430094633e+00 7.8559738220097975e-03
    -1.0588730430094633e+00 7.9609873214905712e-03
    -1.1890303206597703e+00 7.8559738220097975e-03
    -1.0588730430094633e+00 7.8463404967160921e-03
    -9.7182531580755027e-01 7.8431372549019607e-03 -1.
    7.8463404967160921e-03 -9.7182531580755027e-01
    7.8721085151663341e-03 -9.1766293548224698e-01
    7.8431372549019607e-03 -1. 7.8463404967160921e-03
    -9.7182531580755027e-01 7.8559738220097975e-03
    -9.4440028160303491e-01 7.8721085151663341e-03
    -9.1766293548224698e-01 7.8463404967160921e-03
    -9.7182531580755027e-01 7.8463404967160921e-03
    -9.7182531580755027e-01 7.9244154594654524e-03
    -1.1547005383792517e+00 7.8721085151663341e-03
    -1.0897247358851680e+00 7.9609873214905712e-03
    -1.1890303206597703e+00 8.5575643229800942e-03
    -1.5275252316519468e+00 8.2617742313763204e-03
    -1.3844373104863463e+00 8.8185254184757790e-03
    -1.6383560438182501e+00 8.9726336337731232e-03
    -1.6996731711975943e+00 1.0405267264808477e-02
    -2.1984843263788196e+00 9.3390131805458874e-03
    -1.8371173070873839e+00 8.1843010941168755e-03
    -1.3416407864998734e+00 7.8721085151663341e-03
    -1.0897247358851680e+00 7.8948650192183466e-03
    -1.1216347516589495e+00 7.8948650192183448e-03
    -8.9155582824172885e-01 7.9609873214905712e-03
    -8.4102144632032527e-01 8.8185254184757807e-03
    -6.1036793789307364e-01 1.1715792935036232e-02
    -3.8411063979868787e-01 2.3539021490148269e-02
    -1.7149858514250882e-01 1.1715792935036232e-02
    -3.8411063979868787e-01 9.1452475148419352e-03
    -5.6635211395485419e-01 8.1160524939677993e-03
    -7.6870611478580719e-01 7.8431372549019607e-03 -1.
    7.8463404967160921e-03 -9.7182531580755027e-01
    7.8463404967160904e-03 -1.0289915108550529e+00
    8.1160524939677993e-03 -1.3008872711759816e+00
    8.1843010941168755e-03 -1.3416407864998734e+00
    7.8948650192183466e-03 -1.1216347516589495e+00
    7.8559738220097975e-03 -1.0588730430094633e+00
    7.8463404967160904e-03 -1.0289915108550529e+00
    7.8559738220097975e-03 -9.4440028160303491e-01
    7.8559738220097975e-03 -1.0588730430094633e+00
    7.8948650192183448e-03 -8.9155582824172885e-01
    7.8463404967160904e-03 -1.0289915108550529e+00
    7.8463404967160921e-03 -9.7182531580755027e-01
    7.8559738220097975e-03 -9.4440028160303491e-01
    7.8463404967160921e-03 -9.7182531580755027e-01
    7.8559738220097975e-03 -9.4440028160303491e-01
    7.8463404967160921e-03 -9.7182531580755027e-01
    7.8431372549019607e-03 -1. 7.8431372549019607e-03 -1.
    7.8559738220097975e-03 -9.4440028160303491e-01
    7.8463404967160904e-03 -1.0289915108550529e+00
    7.8559738220097975e-03 -9.4440028160303491e-01
    7.8431372549019607e-03 -1. 7.9609873214905712e-03
    -1.1890303206597703e+00 8.6807622043837858e-03
    -1.5811388300841895e+00 8.8185254184757790e-03
    -1.6383560438182501e+00 8.6807622043837858e-03
    -1.5811388300841895e+00 8.9726336337731232e-03
    -1.6996731711975943e+00 9.1452475148419369e-03
    -1.7656860023298397e+00 8.0564135219338105e-03
    -1.2619796324000605e+00 8.0048684404679018e-03
    -1.2247448713915889e+00 8.1160524939677993e-03
    -1.3008872711759816e+00 7.9609873214905712e-03
    -1.1890303206597703e+00 8.2617742313763169e-03
    -7.2231511851461516e-01 8.9726336337731250e-03
    -5.8834840541455202e-01 1.0084369624695127e-02
    -4.7756693294091918e-01 1.6894910526575081e-02
    -2.4618298195866548e-01 1.2325854060661022e-02
    -3.5921060405354976e-01 9.3390131805458857e-03
    -5.4433105395181736e-01 7.9609873214905712e-03
    -8.4102144632032527e-01 7.8431372549019607e-03 -1.
    7.8721085151663341e-03 -9.1766293548224698e-01
    7.8431372549019607e-03 -1. 8.0048684404679018e-03
    -1.2247448713915889e+00 8.3492028484457165e-03
    -1.4295028019803131e+00 7.9609873214905712e-03
    -1.1890303206597703e+00 8.0564135219338105e-03
    -1.2619796324000605e+00 8.0048684404679018e-03
    -1.2247448713915889e+00 7.8559738220097975e-03
    -1.0588730430094633e+00 7.8721085151663341e-03
    -1.0897247358851680e+00 7.8431372549019607e-03 -1.
    7.8559738220097975e-03 -9.4440028160303491e-01
    7.8721085151663341e-03 -9.1766293548224698e-01
    7.9609873214905712e-03 -8.4102144632032527e-01
    7.8721085151663341e-03 -9.1766293548224698e-01
    7.8463404967160904e-03 -1.0289915108550529e+00
    7.8721085151663341e-03 -9.1766293548224698e-01
    7.9244154594654524e-03 -8.6602540378443882e-01
    7.8559738220097975e-03 -1.0588730430094633e+00
    7.8431372549019607e-03 -1. 7.8463404967160904e-03
    -1.0289915108550529e+00 7.8559738220097975e-03
    -1.0588730430094633e+00 7.8431372549019607e-03 -1.
    7.8948650192183466e-03 -1.1216347516589495e+00
    8.6807622043837858e-03 -1.5811388300841895e+00
    8.8185254184757790e-03 -1.6383560438182501e+00
    9.5572046407049801e-03 -1.9148542155126764e+00
    9.1452475148419369e-03 -1.7656860023298397e+00
    9.3390131805458874e-03 -1.8371173070873839e+00
    8.9726336337731232e-03 -1.6996731711975943e+00
    8.2617742313763204e-03 -1.3844373104863463e+00
    7.9609873214905712e-03 -1.1890303206597703e+00
    8.0048684404679018e-03 -1.2247448713915889e+00
    8.1160524939677993e-03 -7.6870611478580719e-01
    9.8039215686274508e-03 -5.0000000000000000e-01
    1.0775452360494150e-02 -4.3178776958837267e-01
    1.4008519770818831e-02 -3.0618621784789729e-01
    1.2325854060661022e-02 -3.5921060405354976e-01
    9.3390131805458857e-03 -5.4433105395181736e-01
    8.5575643229800942e-03 -6.5465367070797720e-01
    8.1160524939677993e-03 -7.6870611478580719e-01
    7.9609873214905712e-03 -8.4102144632032527e-01
    7.8431372549019607e-03 -1. 7.8463404967160921e-03
    -9.7182531580755027e-01 8.4474552632875406e-03
    -1.4770978917519928e+00 7.9244154594654524e-03
    -1.1547005383792517e+00 7.8463404967160904e-03
    -1.0289915108550529e+00 7.9609873214905712e-03
    -1.1890303206597703e+00 8.0048684404679018e-03
    -1.2247448713915889e+00 7.8948650192183466e-03
    -1.1216347516589495e+00 7.9244154594654524e-03
    -1.1547005383792517e+00 7.8463404967160921e-03
    -9.7182531580755027e-01 7.8559738220097975e-03
    -9.4440028160303491e-01 7.8948650192183448e-03
    -8.9155582824172885e-01 7.8721085151663341e-03
    -9.1766293548224698e-01 7.9244154594654524e-03
    -8.6602540378443882e-01 7.8463404967160904e-03
    -1.0289915108550529e+00 7.8948650192183448e-03
    -8.9155582824172885e-01 7.8463404967160904e-03
    -1.0289915108550529e+00 7.8431372549019607e-03 -1.
    7.8431372549019607e-03 -1. 7.9609873214905712e-03
    -8.4102144632032527e-01 7.8559738220097975e-03
    -9.4440028160303491e-01 7.8721085151663341e-03
    -1.0897247358851680e+00 8.1843010941168755e-03
    -1.3416407864998734e+00 8.5575643229800942e-03
    -1.5275252316519468e+00 8.5575643229800942e-03
    -1.5275252316519468e+00 8.2617742313763204e-03
    -1.3844373104863463e+00 8.9726336337731232e-03
    -1.6996731711975943e+00 8.8185254184757790e-03
    -1.6383560438182501e+00 8.1160524939677993e-03
    -1.3008872711759816e+00 8.1160524939677993e-03
    -1.3008872711759816e+00 8.0048684404679018e-03
    -1.2247448713915889e+00 7.9244154594654524e-03
    -8.6602540378443882e-01 1.1715792935036232e-02
    -3.8411063979868787e-01 1.0405267264808478e-02
    -4.5485882614734208e-01 1.3071895424836602e-02
    -3.3333333333333337e-01 1.1715792935036232e-02
    -3.8411063979868787e-01 9.3390131805458857e-03
    -5.4433105395181736e-01 8.3492028484457147e-03
    -6.9954392437334456e-01 8.0048684404679018e-03
    -8.1649658092772603e-01 7.8721085151663341e-03
    -9.1766293548224698e-01 7.8463404967160904e-03
    -1.0289915108550529e+00 7.8721085151663341e-03
    -1.0897247358851680e+00 8.1843010941168755e-03
    -1.3416407864998734e+00 8.0564135219338105e-03
    -1.2619796324000605e+00 7.9609873214905712e-03
    -1.1890303206597703e+00 7.9609873214905712e-03
    -1.1890303206597703e+00 7.8721085151663341e-03
    -1.0897247358851680e+00 7.8431372549019607e-03 -1.
    7.9244154594654524e-03 -1.1547005383792517e+00
    7.8463404967160921e-03 -9.7182531580755027e-01
    7.8463404967160921e-03 -9.7182531580755027e-01
    8.0048684404679018e-03 -8.1649658092772603e-01
    7.8463404967160904e-03 -1.0289915108550529e+00
    7.8559738220097975e-03 -1.0588730430094633e+00
    7.8463404967160904e-03 -1.0289915108550529e+00
    7.8559738220097975e-03 -9.4440028160303491e-01
    7.8559738220097975e-03 -1.0588730430094633e+00
    7.9244154594654524e-03 -1.1547005383792517e+00
    7.8721085151663341e-03 -1.0897247358851680e+00
    7.8721085151663341e-03 -1.0897247358851680e+00
    7.9609873214905712e-03 -1.1890303206597703e+00
    8.3492028484457165e-03 -1.4295028019803131e+00
    8.0564135219338105e-03 -1.2619796324000605e+00
    8.8185254184757790e-03 -1.6383560438182501e+00
    8.9726336337731232e-03 -1.6996731711975943e+00
    8.8185254184757790e-03 -1.6383560438182501e+00
    9.1452475148419369e-03 -1.7656860023298397e+00
    8.3492028484457165e-03 -1.4295028019803131e+00
    8.1160524939677993e-03 -1.3008872711759816e+00
    7.9609873214905712e-03 -1.1890303206597703e+00
    7.9244154594654524e-03 -1.1547005383792517e+00
    7.9609873214905712e-03 -8.4102144632032527e-01
    1.2325854060661022e-02 -3.5921060405354976e-01
    1.0405267264808478e-02 -4.5485882614734208e-01
    1.4008519770818831e-02 -3.0618621784789729e-01
    1.2325854060661022e-02 -3.5921060405354976e-01
    9.3390131805458857e-03 -5.4433105395181736e-01
    8.0564135219338140e-03 -7.9240581569306157e-01
    8.1160524939677993e-03 -7.6870611478580719e-01
    7.9244154594654524e-03 -8.6602540378443882e-01
    7.8948650192183448e-03 -8.9155582824172885e-01
    7.8948650192183466e-03 -1.1216347516589495e+00
    8.4474552632875406e-03 -1.4770978917519928e+00
    8.1843010941168755e-03 -1.3416407864998734e+00
    8.0564135219338105e-03 -1.2619796324000605e+00
    8.0048684404679018e-03 -1.2247448713915889e+00
    7.8559738220097975e-03 -9.4440028160303491e-01
    7.8463404967160904e-03 -1.0289915108550529e+00
    7.8948650192183466e-03 -1.1216347516589495e+00
    7.8463404967160921e-03 -9.7182531580755027e-01
    7.8721085151663341e-03 -9.1766293548224698e-01
    7.8721085151663341e-03 -9.1766293548224698e-01
    7.8463404967160921e-03 -9.7182531580755027e-01
    7.8721085151663341e-03 -1.0897247358851680e+00
    7.9244154594654524e-03 -1.1547005383792517e+00
    7.8559738220097975e-03 -1.0588730430094633e+00
    7.8463404967160921e-03 -9.7182531580755027e-01
    7.8559738220097975e-03 -1.0588730430094633e+00
    7.8463404967160904e-03 -1.0289915108550529e+00
    8.1160524939677993e-03 -1.3008872711759816e+00
    8.3492028484457165e-03 -1.4295028019803131e+00
    8.2617742313763204e-03 -1.3844373104863463e+00
    8.3492028484457165e-03 -1.4295028019803131e+00
    8.0048684404679018e-03 -1.2247448713915889e+00
    8.9726336337731232e-03 -1.6996731711975943e+00
    8.2617742313763204e-03 -1.3844373104863463e+00
    8.4474552632875406e-03 -1.4770978917519928e+00
    8.5575643229800942e-03 -1.5275252316519468e+00
    8.0564135219338105e-03 -1.2619796324000605e+00
    8.0048684404679018e-03 -1.2247448713915889e+00
    7.9244154594654524e-03 -1.1547005383792517e+00
    7.8559738220097975e-03 -9.4440028160303491e-01
    1.0405267264808478e-02 -4.5485882614734208e-01
    1.0405267264808478e-02 -4.5485882614734208e-01
    1.5227064210104330e-02 -2.7735009811261457e-01
    1.3071895424836602e-02 -3.3333333333333337e-01
    9.1452475148419352e-03 -5.6635211395485419e-01
    8.4474552632875389e-03 -6.7700320038632988e-01
    8.1160524939677993e-03 -7.6870611478580719e-01
    7.8948650192183448e-03 -8.9155582824172885e-01
    7.8463404967160921e-03 -9.7182531580755027e-01
    7.8948650192183466e-03 -1.1216347516589495e+00
    7.9609873214905712e-03 -1.1890303206597703e+00
    8.0048684404679018e-03 -1.2247448713915889e+00
    7.8463404967160921e-03 -9.7182531580755027e-01
    7.8463404967160921e-03 -9.7182531580755027e-01
    7.8463404967160921e-03 -9.7182531580755027e-01
    8.0048684404679018e-03 -1.2247448713915889e+00
    7.8948650192183466e-03 -1.1216347516589495e+00
    8.0048684404679018e-03 -8.1649658092772603e-01
    7.9609873214905712e-03 -8.4102144632032527e-01
    7.8948650192183448e-03 -8.9155582824172885e-01
    7.8948650192183448e-03 -8.9155582824172885e-01
    7.8431372549019607e-03 -1. 7.8463404967160904e-03
    -1.0289915108550529e+00 7.8463404967160904e-03
    -1.0289915108550529e+00 7.8559738220097975e-03
    -9.4440028160303491e-01 7.8559738220097975e-03
    -9.4440028160303491e-01 7.8559738220097975e-03
    -9.4440028160303491e-01 8.0048684404679018e-03
    -1.2247448713915889e+00 7.8721085151663341e-03
    -1.0897247358851680e+00 8.1843010941168755e-03
    -1.3416407864998734e+00 8.1843010941168755e-03
    -1.3416407864998734e+00 8.0048684404679018e-03
    -1.2247448713915889e+00 8.4474552632875406e-03
    -1.4770978917519928e+00 8.2617742313763204e-03
    -1.3844373104863463e+00 8.2617742313763204e-03
    -1.3844373104863463e+00 8.6807622043837858e-03
    -1.5811388300841895e+00 7.8559738220097975e-03
    -1.0588730430094633e+00 7.9244154594654524e-03
    -1.1547005383792517e+00 7.9244154594654524e-03
    -1.1547005383792517e+00 7.8948650192183448e-03
    -8.9155582824172885e-01 8.8185254184757807e-03
    -6.1036793789307364e-01 1.0775452360494150e-02
    -4.3178776958837267e-01 1.6894910526575081e-02
    -2.4618298195866548e-01 1.4008519770818831e-02
    -3.0618621784789729e-01 9.5572046407049801e-03
    -5.2223296786709361e-01 8.4474552632875389e-03
    -6.7700320038632988e-01 8.1843010941168772e-03
    -7.4535599249992990e-01 7.9244154594654524e-03
    -8.6602540378443882e-01 7.8948650192183466e-03
    -1.1216347516589495e+00 7.8948650192183466e-03
    -1.1216347516589495e+00 7.9609873214905712e-03
    -1.1890303206597703e+00 7.8721085151663341e-03
    -1.0897247358851680e+00 7.8559738220097975e-03
    -1.0588730430094633e+00 7.8463404967160904e-03
    -1.0289915108550529e+00 7.9609873214905712e-03
    -1.1890303206597703e+00 8.0048684404679018e-03
    -8.1649658092772603e-01 7.8721085151663341e-03
    -1.0897247358851680e+00 7.8721085151663341e-03
    -9.1766293548224698e-01 7.9244154594654524e-03
    -8.6602540378443882e-01 8.0048684404679018e-03
    -8.1649658092772603e-01 7.8948650192183448e-03
    -8.9155582824172885e-01 7.8948650192183448e-03
    -8.9155582824172885e-01 7.9609873214905712e-03
    -8.4102144632032527e-01 8.1160524939677993e-03
    -7.6870611478580719e-01 7.9244154594654524e-03
    -8.6602540378443882e-01 7.8948650192183448e-03
    -8.9155582824172885e-01 7.8948650192183448e-03
    -8.9155582824172885e-01 7.9609873214905712e-03
    -1.1890303206597703e+00 8.2617742313763204e-03
    -1.3844373104863463e+00 8.1843010941168755e-03
    -1.3416407864998734e+00 8.1843010941168755e-03
    -1.3416407864998734e+00 8.0564135219338105e-03
    -1.2619796324000605e+00 7.8948650192183466e-03
    -1.1216347516589495e+00 8.2617742313763204e-03
    -1.3844373104863463e+00 8.1160524939677993e-03
    -1.3008872711759816e+00 8.1843010941168755e-03
    -1.3416407864998734e+00 7.8559738220097975e-03
    -1.0588730430094633e+00 7.8721085151663341e-03
    -1.0897247358851680e+00 7.8721085151663341e-03
    -1.0897247358851680e+00 7.9244154594654524e-03
    -8.6602540378443882e-01 8.9726336337731250e-03
    -5.8834840541455202e-01 1.0775452360494150e-02
    -4.3178776958837267e-01 2.3539021490148269e-02
    -1.7149858514250882e-01 1.2325854060661022e-02
    -3.5921060405354976e-01 9.5572046407049801e-03
    -5.2223296786709361e-01 8.4474552632875389e-03
    -6.7700320038632988e-01 8.3492028484457147e-03
    -6.9954392437334456e-01 8.0564135219338140e-03
    -7.9240581569306157e-01 7.8463404967160921e-03
    -9.7182531580755027e-01 7.8559738220097975e-03
    -1.0588730430094633e+00 7.8948650192183466e-03
    -1.1216347516589495e+00 7.9609873214905712e-03
    -1.1890303206597703e+00 7.8463404967160904e-03
    -1.0289915108550529e+00 7.9244154594654524e-03
    -1.1547005383792517e+00 7.9609873214905712e-03
    -1.1890303206597703e+00 7.9244154594654524e-03
    -1.1547005383792517e+00 7.8559738220097975e-03
    -9.4440028160303491e-01 7.8431372549019607e-03 -1.
    7.8559738220097975e-03 -9.4440028160303491e-01
    7.8948650192183448e-03 -8.9155582824172885e-01
    7.8721085151663341e-03 -9.1766293548224698e-01
    7.8948650192183448e-03 -8.9155582824172885e-01
    8.0048684404679018e-03 -8.1649658092772603e-01
    8.0048684404679018e-03 -8.1649658092772603e-01
    8.0564135219338140e-03 -7.9240581569306157e-01
    7.8431372549019607e-03 -1. 7.8559738220097975e-03
    -1.0588730430094633e+00 7.9609873214905712e-03
    -1.1890303206597703e+00 8.0048684404679018e-03
    -1.2247448713915889e+00 8.2617742313763204e-03
    -1.3844373104863463e+00 7.9609873214905712e-03
    -1.1890303206597703e+00 8.0048684404679018e-03
    -1.2247448713915889e+00 8.2617742313763204e-03
    -1.3844373104863463e+00 7.8721085151663341e-03
    -1.0897247358851680e+00 8.1160524939677993e-03
    -1.3008872711759816e+00 8.3492028484457165e-03
    -1.4295028019803131e+00 7.8948650192183466e-03
    -1.1216347516589495e+00 7.8948650192183466e-03
    -1.1216347516589495e+00 7.8463404967160904e-03
    -1.0289915108550529e+00 7.9244154594654524e-03
    -8.6602540378443882e-01 8.9726336337731250e-03
    -5.8834840541455202e-01 1.0405267264808478e-02
    -4.5485882614734208e-01 2.3539021490148269e-02
    -1.7149858514250882e-01 1.1715792935036232e-02
    -3.8411063979868787e-01 1.0405267264808478e-02
    -4.5485882614734208e-01 8.8185254184757807e-03
    -6.1036793789307364e-01 8.1843010941168772e-03
    -7.4535599249992990e-01 8.0564135219338140e-03
    -7.9240581569306157e-01 7.8463404967160921e-03
    -9.7182531580755027e-01 7.8463404967160904e-03
    -1.0289915108550529e+00 7.8948650192183448e-03
    -8.9155582824172885e-01 7.8463404967160921e-03
    -9.7182531580755027e-01 7.8559738220097975e-03
    -1.0588730430094633e+00 8.0048684404679018e-03
    -1.2247448713915889e+00 7.8463404967160904e-03
    -1.0289915108550529e+00 7.8463404967160904e-03
    -1.0289915108550529e+00 7.8559738220097975e-03
    -1.0588730430094633e+00 7.9244154594654524e-03
    -1.1547005383792517e+00 7.8431372549019607e-03 -1.
    7.8721085151663341e-03 -1.0897247358851680e+00
    7.8721085151663341e-03 -9.1766293548224698e-01
    7.9244154594654524e-03 -8.6602540378443882e-01
    7.8559738220097975e-03 -9.4440028160303491e-01
    7.9244154594654524e-03 -8.6602540378443882e-01
    7.8721085151663341e-03 -9.1766293548224698e-01
    7.8463404967160921e-03 -9.7182531580755027e-01
    7.8948650192183466e-03 -1.1216347516589495e+00
    7.8463404967160921e-03 -9.7182531580755027e-01
    8.0564135219338105e-03 -1.2619796324000605e+00
    7.9244154594654524e-03 -1.1547005383792517e+00
    7.8463404967160921e-03 -9.7182531580755027e-01
    7.8559738220097975e-03 -1.0588730430094633e+00
    7.9609873214905712e-03 -1.1890303206597703e+00
    8.0564135219338105e-03 -1.2619796324000605e+00
    8.2617742313763204e-03 -1.3844373104863463e+00
    8.0564135219338105e-03 -1.2619796324000605e+00
    7.8559738220097975e-03 -1.0588730430094633e+00
    7.8948650192183466e-03 -1.1216347516589495e+00
    7.8463404967160904e-03 -1.0289915108550529e+00
    7.9609873214905712e-03 -8.4102144632032527e-01
    8.5575643229800942e-03 -6.5465367070797720e-01
    9.3390131805458857e-03 -5.4433105395181736e-01
    1.6894910526575081e-02 -2.4618298195866548e-01
    1.2325854060661022e-02 -3.5921060405354976e-01
    9.8039215686274508e-03 -5.0000000000000000e-01
    8.9726336337731250e-03 -5.8834840541455202e-01
    8.2617742313763169e-03 -7.2231511851461516e-01
    8.1160524939677993e-03 -7.6870611478580719e-01
    7.8559738220097975e-03 -9.4440028160303491e-01
    7.8559738220097975e-03 -1.0588730430094633e+00
    7.8559738220097975e-03 -1.0588730430094633e+00
    7.9609873214905712e-03 -8.4102144632032527e-01
    7.9244154594654524e-03 -1.1547005383792517e+00
    7.9609873214905712e-03 -1.1890303206597703e+00
    7.9244154594654524e-03 -1.1547005383792517e+00
    7.8559738220097975e-03 -1.0588730430094633e+00
    7.8559738220097975e-03 -1.0588730430094633e+00
    7.8948650192183466e-03 -1.1216347516589495e+00
    7.8721085151663341e-03 -1.0897247358851680e+00
    7.8948650192183466e-03 -1.1216347516589495e+00
    7.8559738220097975e-03 -1.0588730430094633e+00
    7.8431372549019607e-03 -1. 7.8559738220097975e-03
    -9.4440028160303491e-01 7.8948650192183448e-03
    -8.9155582824172885e-01 7.8721085151663341e-03
    -1.0897247358851680e+00 7.8559738220097975e-03
    -1.0588730430094633e+00 7.9244154594654524e-03
    -1.1547005383792517e+00 7.9609873214905712e-03
    -1.1890303206597703e+00 7.8463404967160904e-03
    -1.0289915108550529e+00 7.8463404967160921e-03
    -9.7182531580755027e-01 8.0564135219338105e-03
    -1.2619796324000605e+00 8.0564135219338105e-03
    -1.2619796324000605e+00 7.9244154594654524e-03
    -1.1547005383792517e+00 7.9244154594654524e-03
    -1.1547005383792517e+00 8.2617742313763204e-03
    -1.3844373104863463e+00 8.0048684404679018e-03
    -1.2247448713915889e+00 7.9609873214905712e-03
    -1.1890303206597703e+00 7.8463404967160921e-03
    -9.7182531580755027e-01 7.8463404967160921e-03
    -9.7182531580755027e-01 7.8948650192183448e-03
    -8.9155582824172885e-01 9.3390131805458857e-03
    -5.4433105395181736e-01 9.8039215686274508e-03
    -5.0000000000000000e-01 2.3539021490148269e-02
    -1.7149858514250882e-01 1.1206815816655063e-02
    -4.0824829046386302e-01 1.0405267264808478e-02
    -4.5485882614734208e-01 9.3390131805458857e-03
    -5.4433105395181736e-01 8.4474552632875389e-03
    -6.7700320038632988e-01 8.1843010941168772e-03
    -7.4535599249992990e-01 8.1160524939677993e-03
    -7.6870611478580719e-01 7.8948650192183448e-03
    -8.9155582824172885e-01 7.8948650192183448e-03
    -8.9155582824172885e-01 7.8559738220097975e-03
    -9.4440028160303491e-01 7.9244154594654524e-03
    -8.6602540378443882e-01 7.8559738220097975e-03
    -1.0588730430094633e+00 7.9244154594654524e-03
    -1.1547005383792517e+00 7.8463404967160904e-03
    -1.0289915108550529e+00 7.8948650192183466e-03
    -1.1216347516589495e+00 7.9609873214905712e-03
    -1.1890303206597703e+00 7.8431372549019607e-03 -1.
    7.8463404967160904e-03 -1.0289915108550529e+00
    7.8431372549019607e-03 -1. 7.9244154594654524e-03
    -1.1547005383792517e+00 7.8948650192183466e-03
    -1.1216347516589495e+00 7.8463404967160904e-03
    -1.0289915108550529e+00 7.8948650192183466e-03
    -1.1216347516589495e+00 7.9244154594654524e-03
    -1.1547005383792517e+00 7.8559738220097975e-03
    -9.4440028160303491e-01 7.8721085151663341e-03
    -1.0897247358851680e+00 7.8559738220097975e-03
    -9.4440028160303491e-01 8.1160524939677993e-03
    -1.3008872711759816e+00 8.0564135219338105e-03
    -1.2619796324000605e+00 7.8721085151663341e-03
    -1.0897247358851680e+00 8.0048684404679018e-03
    -1.2247448713915889e+00 7.9609873214905712e-03
    -1.1890303206597703e+00 8.2617742313763204e-03
    -1.3844373104863463e+00 7.8948650192183466e-03
    -1.1216347516589495e+00 7.9244154594654524e-03
    -1.1547005383792517e+00 7.8431372549019607e-03 -1.
    7.8431372549019607e-03 -1. 8.2617742313763169e-03
    -7.2231511851461516e-01 8.6807622043837875e-03
    -6.3245553203367599e-01 1.0084369624695127e-02
    -4.7756693294091918e-01 1.4008519770818831e-02
    -3.0618621784789729e-01 1.2325854060661022e-02
    -3.5921060405354976e-01 1.0405267264808478e-02
    -4.5485882614734208e-01 1.0405267264808478e-02
    -4.5485882614734208e-01 8.1843010941168772e-03
    -7.4535599249992990e-01 8.3492028484457147e-03
    -6.9954392437334456e-01 8.1843010941168772e-03
    -7.4535599249992990e-01 8.0048684404679018e-03
    -8.1649658092772603e-01 7.8948650192183448e-03
    -8.9155582824172885e-01 7.8721085151663341e-03
    -9.1766293548224698e-01 7.8559738220097975e-03
    -1.0588730430094633e+00 7.8721085151663341e-03
    -1.0897247358851680e+00 7.8948650192183448e-03
    -8.9155582824172885e-01 7.8463404967160921e-03
    -9.7182531580755027e-01 7.9244154594654524e-03
    -1.1547005383792517e+00 7.9244154594654524e-03
    -8.6602540378443882e-01 7.9244154594654524e-03
    -1.1547005383792517e+00 7.9609873214905712e-03
    -1.1890303206597703e+00 7.8463404967160904e-03
    -1.0289915108550529e+00 7.8948650192183448e-03
    -8.9155582824172885e-01 7.9244154594654524e-03
    -1.1547005383792517e+00 7.8948650192183466e-03
    -1.1216347516589495e+00 7.8431372549019607e-03 -1.
    7.8948650192183466e-03 -1.1216347516589495e+00
    7.8559738220097975e-03 -1.0588730430094633e+00
    8.0048684404679018e-03 -1.2247448713915889e+00
    7.8559738220097975e-03 -1.0588730430094633e+00
    7.8948650192183466e-03 -1.1216347516589495e+00
    7.8559738220097975e-03 -9.4440028160303491e-01
    7.8463404967160904e-03 -1.0289915108550529e+00
    7.9609873214905712e-03 -1.1890303206597703e+00
    8.5575643229800942e-03 -1.5275252316519468e+00
    8.6807622043837858e-03 -1.5811388300841895e+00
    7.9609873214905712e-03 -1.1890303206597703e+00
    7.8559738220097975e-03 -9.4440028160303491e-01
    7.8559738220097975e-03 -1.0588730430094633e+00
    7.8431372549019607e-03 -1. 8.5575643229800942e-03
    -6.5465367070797720e-01 8.8185254184757807e-03
    -6.1036793789307364e-01 1.4008519770818831e-02
    -3.0618621784789729e-01 1.4008519770818831e-02
    -3.0618621784789729e-01 1.2325854060661022e-02
    -3.5921060405354976e-01 1.0084369624695127e-02
    -4.7756693294091918e-01 1.0084369624695127e-02
    -4.7756693294091918e-01 9.3390131805458857e-03
    -5.4433105395181736e-01 8.4474552632875389e-03
    -6.7700320038632988e-01 8.1843010941168772e-03
    -7.4535599249992990e-01 8.1160524939677993e-03
    -7.6870611478580719e-01 7.9244154594654524e-03
    -8.6602540378443882e-01 7.8721085151663341e-03
    -9.1766293548224698e-01 7.8948650192183448e-03
    -8.9155582824172885e-01 7.8559738220097975e-03
    -1.0588730430094633e+00 8.0048684404679018e-03
    -1.2247448713915889e+00 7.9609873214905712e-03
    -1.1890303206597703e+00 7.9244154594654524e-03
    -1.1547005383792517e+00 7.9244154594654524e-03
    -1.1547005383792517e+00 7.8559738220097975e-03
    -1.0588730430094633e+00 7.9244154594654524e-03
    -1.1547005383792517e+00 8.0048684404679018e-03
    -1.2247448713915889e+00 8.0048684404679018e-03
    -1.2247448713915889e+00 7.8948650192183466e-03
    -1.1216347516589495e+00 7.8431372549019607e-03 -1.
    7.8721085151663341e-03 -1.0897247358851680e+00
    7.8721085151663341e-03 -1.0897247358851680e+00
    7.8948650192183466e-03 -1.1216347516589495e+00
    7.9609873214905712e-03 -1.1890303206597703e+00
    8.0048684404679018e-03 -1.2247448713915889e+00
    7.8948650192183466e-03 -1.1216347516589495e+00
    7.9609873214905712e-03 -1.1890303206597703e+00
    7.8559738220097975e-03 -1.0588730430094633e+00
    8.2617742313763204e-03 -1.3844373104863463e+00
    8.8185254184757790e-03 -1.6383560438182501e+00
    7.9609873214905712e-03 -1.1890303206597703e+00
    7.9244154594654524e-03 -1.1547005383792517e+00
    7.8463404967160904e-03 -1.0289915108550529e+00
    7.8431372549019607e-03 -1. 7.8721085151663341e-03
    -9.1766293548224698e-01 8.1843010941168772e-03
    -7.4535599249992990e-01 8.6807622043837875e-03
    -6.3245553203367599e-01 1.4008519770818831e-02
    -3.0618621784789729e-01 1.5227064210104330e-02
    -2.7735009811261457e-01 1.4008519770818831e-02
    -3.0618621784789729e-01 1.1715792935036232e-02
    -3.8411063979868787e-01 1.0775452360494150e-02
    -4.3178776958837267e-01 1.0405267264808478e-02
    -4.5485882614734208e-01 9.3390131805458857e-03
    -5.4433105395181736e-01 8.5575643229800942e-03
    -6.5465367070797720e-01 8.1160524939677993e-03
    -7.6870611478580719e-01 8.1160524939677993e-03
    -7.6870611478580719e-01 7.9244154594654524e-03
    -8.6602540378443882e-01 7.8463404967160921e-03
    -9.7182531580755027e-01 7.8431372549019607e-03 -1.
    8.0564135219338105e-03 -1.2619796324000605e+00
    8.2617742313763204e-03 -1.3844373104863463e+00
    7.8463404967160904e-03 -1.0289915108550529e+00
    7.8948650192183466e-03 -1.1216347516589495e+00
    7.8431372549019607e-03 -1. 7.8431372549019607e-03 -1.
    7.8721085151663341e-03 -1.0897247358851680e+00
    7.9609873214905712e-03 -1.1890303206597703e+00
    7.8431372549019607e-03 -1. 7.9244154594654524e-03
    -1.1547005383792517e+00 7.8948650192183466e-03
    -1.1216347516589495e+00 7.8559738220097975e-03
    -1.0588730430094633e+00 7.8431372549019607e-03 -1.
    7.8463404967160904e-03 -1.0289915108550529e+00
    7.8463404967160904e-03 -1.0289915108550529e+00
    7.8721085151663341e-03 -1.0897247358851680e+00
    7.9244154594654524e-03 -1.1547005383792517e+00
    7.8463404967160904e-03 -1.0289915108550529e+00
    8.2617742313763204e-03 -1.3844373104863463e+00
    8.0048684404679018e-03 -1.2247448713915889e+00
    7.9609873214905712e-03 -1.1890303206597703e+00
    7.8463404967160904e-03 -1.0289915108550529e+00
    7.8559738220097975e-03 -9.4440028160303491e-01
    7.9244154594654524e-03 -8.6602540378443882e-01
    7.8721085151663341e-03 -9.1766293548224698e-01
    8.1843010941168772e-03 -7.4535599249992990e-01
    1.0405267264808478e-02 -4.5485882614734208e-01
    1.4008519770818831e-02 -3.0618621784789729e-01
    1.6894910526575081e-02 -2.4618298195866548e-01
    1.6894910526575081e-02 -2.4618298195866548e-01
    1.4008519770818831e-02 -3.0618621784789729e-01
    1.0775452360494150e-02 -4.3178776958837267e-01
    1.0775452360494150e-02 -4.3178776958837267e-01
    1.0775452360494150e-02 -4.3178776958837267e-01
    1.0775452360494150e-02 -4.3178776958837267e-01
    8.6807622043837875e-03 -6.3245553203367599e-01
    8.6807622043837875e-03 -6.3245553203367599e-01
    7.8948650192183448e-03 -8.9155582824172885e-01
    7.8559738220097975e-03 -1.0588730430094633e+00
    8.0048684404679018e-03 -8.1649658092772603e-01
    7.8559738220097975e-03 -1.0588730430094633e+00
    8.1160524939677993e-03 -1.3008872711759816e+00
    8.2617742313763204e-03 -1.3844373104863463e+00
    8.2617742313763204e-03 -1.3844373104863463e+00
    7.9244154594654524e-03 -1.1547005383792517e+00
    7.8948650192183466e-03 -1.1216347516589495e+00
    7.8431372549019607e-03 -1. 7.8463404967160904e-03
    -1.0289915108550529e+00 7.8463404967160921e-03
    -9.7182531580755027e-01 7.8721085151663341e-03
    -1.0897247358851680e+00 7.8559738220097975e-03
    -1.0588730430094633e+00 7.8463404967160904e-03
    -1.0289915108550529e+00 7.8559738220097975e-03
    -9.4440028160303491e-01 7.8559738220097975e-03
    -1.0588730430094633e+00 7.8721085151663341e-03
    -1.0897247358851680e+00 7.8559738220097975e-03
    -9.4440028160303491e-01 7.8721085151663341e-03
    -1.0897247358851680e+00 7.9244154594654524e-03
    -8.6602540378443882e-01 8.8185254184757790e-03
    -1.6383560438182501e+00 7.9244154594654524e-03
    -1.1547005383792517e+00 7.8721085151663341e-03
    -1.0897247358851680e+00 7.8721085151663341e-03
    -1.0897247358851680e+00 7.8559738220097975e-03
    -9.4440028160303491e-01 7.9609873214905712e-03
    -8.4102144632032527e-01 8.1843010941168772e-03
    -7.4535599249992990e-01 8.8185254184757807e-03
    -6.1036793789307364e-01 1.1715792935036232e-02
    -3.8411063979868787e-01 1.6894910526575081e-02
    -2.4618298195866548e-01 1.6894910526575081e-02
    -2.4618298195866548e-01 1.6894910526575081e-02
    -2.4618298195866548e-01 1.4008519770818831e-02
    -3.0618621784789729e-01 1.2325854060661022e-02
    -3.5921060405354976e-01 1.0775452360494150e-02
    -4.3178776958837267e-01 1.2325854060661022e-02
    -3.5921060405354976e-01 1.1206815816655063e-02
    -4.0824829046386302e-01 1.0084369624695127e-02
    -4.7756693294091918e-01 8.6807622043837875e-03
    -6.3245553203367599e-01 8.3492028484457147e-03
    -6.9954392437334456e-01 8.0564135219338140e-03
    -7.9240581569306157e-01 8.1160524939677993e-03
    -7.6870611478580719e-01 7.8948650192183448e-03
    -8.9155582824172885e-01 7.8559738220097975e-03
    -9.4440028160303491e-01 7.8721085151663341e-03
    -1.0897247358851680e+00 8.0564135219338105e-03
    -1.2619796324000605e+00 8.1843010941168755e-03
    -1.3416407864998734e+00 8.1843010941168755e-03
    -1.3416407864998734e+00 7.9244154594654524e-03
    -1.1547005383792517e+00 8.0564135219338105e-03
    -1.2619796324000605e+00 8.0048684404679018e-03
    -1.2247448713915889e+00 8.0048684404679018e-03
    -1.2247448713915889e+00 7.8721085151663341e-03
    -1.0897247358851680e+00 7.8948650192183466e-03
    -1.1216347516589495e+00 7.8948650192183448e-03
    -8.9155582824172885e-01 7.8948650192183448e-03
    -8.9155582824172885e-01 7.8559738220097975e-03
    -9.4440028160303491e-01 7.8948650192183466e-03
    -1.1216347516589495e+00 8.1160524939677993e-03
    -1.3008872711759816e+00 7.9609873214905712e-03
    -1.1890303206597703e+00 8.3492028484457165e-03
    -1.4295028019803131e+00 7.8463404967160904e-03
    -1.0289915108550529e+00 7.8431372549019607e-03 -1.
    7.8721085151663341e-03 -9.1766293548224698e-01
    7.8463404967160921e-03 -9.7182531580755027e-01
    7.8721085151663341e-03 -9.1766293548224698e-01
    8.6807622043837875e-03 -6.3245553203367599e-01
    9.1452475148419352e-03 -5.6635211395485419e-01
    1.5227064210104330e-02 -2.7735009811261457e-01
    1.5227064210104330e-02 -2.7735009811261457e-01
    1.9362428670628189e-02 -2.1160368475757951e-01
    1.6894910526575081e-02 -2.4618298195866548e-01
    1.4008519770818831e-02 -3.0618621784789729e-01
    1.1715792935036232e-02 -3.8411063979868787e-01
    1.1715792935036232e-02 -3.8411063979868787e-01
    1.0775452360494150e-02 -4.3178776958837267e-01
    9.8039215686274508e-03 -5.0000000000000000e-01
    9.5572046407049801e-03 -5.2223296786709361e-01
    9.1452475148419352e-03 -5.6635211395485419e-01
    8.4474552632875389e-03 -6.7700320038632988e-01
    8.4474552632875389e-03 -6.7700320038632988e-01
    8.1843010941168772e-03 -7.4535599249992990e-01
    8.0048684404679018e-03 -8.1649658092772603e-01
    7.8463404967160904e-03 -1.0289915108550529e+00
    7.8559738220097975e-03 -1.0588730430094633e+00
    7.8431372549019607e-03 -1. 7.8721085151663341e-03
    -1.0897247358851680e+00 7.8721085151663341e-03
    -1.0897247358851680e+00 7.8948650192183466e-03
    -1.1216347516589495e+00 7.8721085151663341e-03
    -1.0897247358851680e+00 7.9609873214905712e-03
    -1.1890303206597703e+00 7.8948650192183466e-03
    -1.1216347516589495e+00 7.8463404967160921e-03
    -9.7182531580755027e-01 7.8559738220097975e-03
    -1.0588730430094633e+00 7.9244154594654524e-03
    -8.6602540378443882e-01 7.8948650192183448e-03
    -8.9155582824172885e-01 8.0564135219338140e-03
    -7.9240581569306157e-01 8.0048684404679018e-03
    -1.2247448713915889e+00 7.9609873214905712e-03
    -1.1890303206597703e+00 7.9609873214905712e-03
    -1.1890303206597703e+00 7.8721085151663341e-03
    -1.0897247358851680e+00 7.8559738220097975e-03
    -1.0588730430094633e+00 7.8721085151663341e-03
    -9.1766293548224698e-01 7.8463404967160921e-03
    -9.7182531580755027e-01 7.8463404967160921e-03
    -9.7182531580755027e-01 8.4474552632875389e-03
    -6.7700320038632988e-01 8.6807622043837875e-03
    -6.3245553203367599e-01 9.8039215686274508e-03
    -5.0000000000000000e-01 1.3071895424836602e-02
    -3.3333333333333337e-01 1.5227064210104330e-02
    -2.7735009811261457e-01 1.6894910526575081e-02
    -2.4618298195866548e-01 1.6894910526575081e-02
    -2.4618298195866548e-01 1.2325854060661022e-02
    -3.5921060405354976e-01 1.1715792935036232e-02
    -3.8411063979868787e-01 1.1715792935036232e-02
    -3.8411063979868787e-01 1.1206815816655063e-02
    -4.0824829046386302e-01 1.0084369624695127e-02
    -4.7756693294091918e-01 9.3390131805458857e-03
    -5.4433105395181736e-01 9.1452475148419352e-03
    -5.6635211395485419e-01 9.1452475148419352e-03
    -5.6635211395485419e-01 8.3492028484457147e-03
    -6.9954392437334456e-01 8.2617742313763169e-03
    -7.2231511851461516e-01 7.8721085151663341e-03
    -9.1766293548224698e-01 7.8559738220097975e-03
    -9.4440028160303491e-01 7.8721085151663341e-03
    -9.1766293548224698e-01 7.9609873214905712e-03
    -8.4102144632032527e-01 7.8948650192183466e-03
    -1.1216347516589495e+00 7.8559738220097975e-03
    -1.0588730430094633e+00 7.8431372549019607e-03 -1.
    7.8721085151663341e-03 -1.0897247358851680e+00
    8.0048684404679018e-03 -1.2247448713915889e+00
    8.0048684404679018e-03 -1.2247448713915889e+00
    7.9244154594654524e-03 -1.1547005383792517e+00
    7.8431372549019607e-03 -1. 7.8431372549019607e-03 -1.
    7.9609873214905712e-03 -1.1890303206597703e+00
    7.9609873214905712e-03 -1.1890303206597703e+00
    8.2617742313763204e-03 -1.3844373104863463e+00
    7.9244154594654524e-03 -1.1547005383792517e+00
    7.8721085151663341e-03 -1.0897247358851680e+00
    7.8948650192183448e-03 -8.9155582824172885e-01
    7.8431372549019607e-03 -1. 7.8463404967160921e-03
    -9.7182531580755027e-01 7.8463404967160921e-03
    -9.7182531580755027e-01 8.2617742313763169e-03
    -7.2231511851461516e-01 8.8185254184757807e-03
    -6.1036793789307364e-01 8.6807622043837875e-03
    -6.3245553203367599e-01 1.0084369624695127e-02
    -4.7756693294091918e-01 1.3071895424836602e-02
    -3.3333333333333337e-01 1.6894910526575081e-02
    -2.4618298195866548e-01 1.9362428670628189e-02
    -2.1160368475757951e-01 1.6894910526575081e-02
    -2.4618298195866548e-01 1.1206815816655063e-02
    -4.0824829046386302e-01 1.0775452360494150e-02
    -4.3178776958837267e-01 1.0405267264808478e-02
    -4.5485882614734208e-01 1.0405267264808478e-02
    -4.5485882614734208e-01 1.0775452360494150e-02
    -4.3178776958837267e-01 9.8039215686274508e-03
    -5.0000000000000000e-01 9.8039215686274508e-03
    -5.0000000000000000e-01 9.5572046407049801e-03
    -5.2223296786709361e-01 9.3390131805458857e-03
    -5.4433105395181736e-01 8.0564135219338140e-03
    -7.9240581569306157e-01 8.3492028484457147e-03
    -6.9954392437334456e-01 8.2617742313763169e-03
    -7.2231511851461516e-01 8.0564135219338140e-03
    -7.9240581569306157e-01 7.8431372549019607e-03 -1.
    7.8559738220097975e-03 -9.4440028160303491e-01
    7.9609873214905712e-03 -1.1890303206597703e+00
    7.9244154594654524e-03 -1.1547005383792517e+00
    8.0564135219338105e-03 -1.2619796324000605e+00
    7.8559738220097975e-03 -1.0588730430094633e+00
    7.8431372549019607e-03 -1. 7.9609873214905712e-03
    -1.1890303206597703e+00 8.0048684404679018e-03
    -1.2247448713915889e+00 7.8463404967160904e-03
    -1.0289915108550529e+00 7.8948650192183466e-03
    -1.1216347516589495e+00 7.8948650192183466e-03
    -1.1216347516589495e+00 8.0048684404679018e-03
    -1.2247448713915889e+00 7.9609873214905712e-03
    -1.1890303206597703e+00 7.9244154594654524e-03
    -1.1547005383792517e+00 7.9244154594654524e-03
    -8.6602540378443882e-01 7.8721085151663341e-03
    -9.1766293548224698e-01 7.8559738220097975e-03
    -9.4440028160303491e-01 8.0564135219338140e-03
    -7.9240581569306157e-01 8.4474552632875389e-03
    -6.7700320038632988e-01 8.5575643229800942e-03
    -6.5465367070797720e-01 8.8185254184757807e-03
    -6.1036793789307364e-01 1.1206815816655063e-02
    -4.0824829046386302e-01 1.4008519770818831e-02
    -3.0618621784789729e-01 1.4008519770818831e-02
    -3.0618621784789729e-01 2.3539021490148269e-02
    -1.7149858514250882e-01 1.5227064210104330e-02
    -2.7735009811261457e-01 1.2325854060661022e-02
    -3.5921060405354976e-01 1.1206815816655063e-02
    -4.0824829046386302e-01 1.0084369624695127e-02
    -4.7756693294091918e-01 1.0084369624695127e-02
    -4.7756693294091918e-01 9.8039215686274508e-03
    -5.0000000000000000e-01 1.0084369624695127e-02
    -4.7756693294091918e-01 9.5572046407049801e-03
    -5.2223296786709361e-01 1.0084369624695127e-02
    -4.7756693294091918e-01 1.0084369624695127e-02
    -4.7756693294091918e-01 8.8185254184757807e-03
    -6.1036793789307364e-01 8.0048684404679018e-03
    -8.1649658092772603e-01 8.0564135219338140e-03
    -7.9240581569306157e-01 7.9244154594654524e-03
    -8.6602540378443882e-01 7.8948650192183448e-03
    -8.9155582824172885e-01 7.8721085151663341e-03
    -9.1766293548224698e-01 7.8948650192183448e-03
    -8.9155582824172885e-01 8.0048684404679018e-03
    -1.2247448713915889e+00 8.0048684404679018e-03
    -1.2247448713915889e+00 7.8559738220097975e-03
    -1.0588730430094633e+00 7.8431372549019607e-03 -1.
    7.8948650192183448e-03 -8.9155582824172885e-01
    7.8463404967160904e-03 -1.0289915108550529e+00
    8.2617742313763204e-03 -1.3844373104863463e+00
    8.1160524939677993e-03 -1.3008872711759816e+00
    8.0048684404679018e-03 -1.2247448713915889e+00
    7.8463404967160921e-03 -9.7182531580755027e-01
    7.9609873214905712e-03 -8.4102144632032527e-01
    7.8721085151663341e-03 -9.1766293548224698e-01
    7.8948650192183448e-03 -8.9155582824172885e-01
    8.1843010941168772e-03 -7.4535599249992990e-01
    8.2617742313763169e-03 -7.2231511851461516e-01
    8.1843010941168772e-03 -7.4535599249992990e-01
    8.6807622043837875e-03 -6.3245553203367599e-01
    8.8185254184757807e-03 -6.1036793789307364e-01
    1.0405267264808478e-02 -4.5485882614734208e-01
    1.0775452360494150e-02 -4.3178776958837267e-01
    1.4008519770818831e-02 -3.0618621784789729e-01
    1.5227064210104330e-02 -2.7735009811261457e-01
    1.6894910526575081e-02 -2.4618298195866548e-01
    1.4008519770818831e-02 -3.0618621784789729e-01
    1.3071895424836602e-02 -3.3333333333333337e-01
    1.0775452360494150e-02 -4.3178776958837267e-01
    1.0775452360494150e-02 -4.3178776958837267e-01
    1.0775452360494150e-02 -4.3178776958837267e-01
    1.1206815816655063e-02 -4.0824829046386302e-01
    1.0775452360494150e-02 -4.3178776958837267e-01
    1.0775452360494150e-02 -4.3178776958837267e-01
    1.0405267264808478e-02 -4.5485882614734208e-01
    1.1206815816655063e-02 -4.0824829046386302e-01
    1.0405267264808478e-02 -4.5485882614734208e-01
    9.8039215686274508e-03 -5.0000000000000000e-01
    8.3492028484457147e-03 -6.9954392437334456e-01
    8.0564135219338140e-03 -7.9240581569306157e-01
    7.8721085151663341e-03 -9.1766293548224698e-01
    7.9244154594654524e-03 -8.6602540378443882e-01
    7.9244154594654524e-03 -8.6602540378443882e-01
    7.8431372549019607e-03 -1. 7.9244154594654524e-03
    -1.1547005383792517e+00 7.8559738220097975e-03
    -1.0588730430094633e+00 7.8559738220097975e-03
    -9.4440028160303491e-01 7.8721085151663341e-03
    -9.1766293548224698e-01 8.0564135219338105e-03
    -1.2619796324000605e+00 7.9609873214905712e-03
    -1.1890303206597703e+00 8.1160524939677993e-03
    -1.3008872711759816e+00 7.8948650192183448e-03
    -8.9155582824172885e-01 7.8431372549019607e-03 -1.
    7.8721085151663341e-03 -9.1766293548224698e-01
    7.8948650192183448e-03 -8.9155582824172885e-01
    8.1843010941168772e-03 -7.4535599249992990e-01
    8.2617742313763169e-03 -7.2231511851461516e-01
    9.1452475148419352e-03 -5.6635211395485419e-01
    8.9726336337731250e-03 -5.8834840541455202e-01
    9.1452475148419352e-03 -5.6635211395485419e-01
    1.0084369624695127e-02 -4.7756693294091918e-01
    1.1715792935036232e-02 -3.8411063979868787e-01
    1.1715792935036232e-02 -3.8411063979868787e-01
    1.4008519770818831e-02 -3.0618621784789729e-01
    2.3539021490148269e-02 -1.7149858514250882e-01
    1.9362428670628189e-02 -2.1160368475757951e-01
    1.5227064210104330e-02 -2.7735009811261457e-01
    1.4008519770818831e-02 -3.0618621784789729e-01
    1.1715792935036232e-02 -3.8411063979868787e-01
    1.1206815816655063e-02 -4.0824829046386302e-01
    1.1715792935036232e-02 -3.8411063979868787e-01
    1.2325854060661022e-02 -3.5921060405354976e-01
    1.1715792935036232e-02 -3.8411063979868787e-01
    1.2325854060661022e-02 -3.5921060405354976e-01
    1.4008519770818831e-02 -3.0618621784789729e-01
    1.2325854060661022e-02 -3.5921060405354976e-01
    1.1715792935036232e-02 -3.8411063979868787e-01
    1.0775452360494150e-02 -4.3178776958837267e-01
    9.8039215686274508e-03 -5.0000000000000000e-01
    9.3390131805458857e-03 -5.4433105395181736e-01
    8.5575643229800942e-03 -6.5465367070797720e-01
    8.4474552632875389e-03 -6.7700320038632988e-01
    8.1843010941168772e-03 -7.4535599249992990e-01
    8.0564135219338140e-03 -7.9240581569306157e-01
    7.8431372549019607e-03 -1. 7.8463404967160904e-03
    -1.0289915108550529e+00 7.8559738220097975e-03
    -1.0588730430094633e+00 7.8431372549019607e-03 -1.
    8.0048684404679018e-03 -1.2247448713915889e+00
    8.0564135219338105e-03 -1.2619796324000605e+00
    7.8559738220097975e-03 -1.0588730430094633e+00
    7.8463404967160921e-03 -9.7182531580755027e-01
    7.8463404967160921e-03 -9.7182531580755027e-01
    7.9609873214905712e-03 -8.4102144632032527e-01
    8.1160524939677993e-03 -7.6870611478580719e-01
    8.4474552632875389e-03 -6.7700320038632988e-01
    8.4474552632875389e-03 -6.7700320038632988e-01
    9.3390131805458857e-03 -5.4433105395181736e-01
    9.5572046407049801e-03 -5.2223296786709361e-01
    1.1715792935036232e-02 -3.8411063979868787e-01
    1.4008519770818831e-02 -3.0618621784789729e-01
    1.3071895424836602e-02 -3.3333333333333337e-01
    1.3071895424836602e-02 -3.3333333333333337e-01
    1.5227064210104330e-02 -2.7735009811261457e-01
    1.6894910526575081e-02 -2.4618298195866548e-01 1. 0.
    1.9362428670628189e-02 -2.1160368475757951e-01
    1.6894910526575081e-02 -2.4618298195866548e-01
    1.5227064210104330e-02 -2.7735009811261457e-01
    1.5227064210104330e-02 -2.7735009811261457e-01
    1.5227064210104330e-02 -2.7735009811261457e-01
    1.5227064210104330e-02 -2.7735009811261457e-01
    1.5227064210104330e-02 -2.7735009811261457e-01
    1.5227064210104330e-02 -2.7735009811261457e-01
    1.4008519770818831e-02 -3.0618621784789729e-01
    1.5227064210104330e-02 -2.7735009811261457e-01
    1.4008519770818831e-02 -3.0618621784789729e-01
    1.3071895424836602e-02 -3.3333333333333337e-01
    1.1715792935036232e-02 -3.8411063979868787e-01
    1.1206815816655063e-02 -4.0824829046386302e-01
    1.0775452360494150e-02 -4.3178776958837267e-01
    9.3390131805458857e-03 -5.4433105395181736e-01
    8.4474552632875389e-03 -6.7700320038632988e-01
    7.9244154594654524e-03 -8.6602540378443882e-01
    8.2617742313763169e-03 -7.2231511851461516e-01
    8.3492028484457147e-03 -6.9954392437334456e-01
    7.8721085151663341e-03 -9.1766293548224698e-01
    8.1160524939677993e-03 -7.6870611478580719e-01
    7.8559738220097975e-03 -1.0588730430094633e+00
    8.1843010941168772e-03 -7.4535599249992990e-01
    7.8463404967160921e-03 -9.7182531580755027e-01
    8.1160524939677993e-03 -7.6870611478580719e-01
    8.0048684404679018e-03 -8.1649658092772603e-01
    8.1843010941168772e-03 -7.4535599249992990e-01
    8.3492028484457147e-03 -6.9954392437334456e-01
    8.5575643229800942e-03 -6.5465367070797720e-01
    9.8039215686274508e-03 -5.0000000000000000e-01
    1.0775452360494150e-02 -4.3178776958837267e-01
    1.5227064210104330e-02 -2.7735009811261457e-01
    1.5227064210104330e-02 -2.7735009811261457e-01
    1.5227064210104330e-02 -2.7735009811261457e-01
    1.6894910526575081e-02 -2.4618298195866548e-01
    1.6894910526575081e-02 -2.4618298195866548e-01
    1.6894910526575081e-02 -2.4618298195866548e-01
    1.6894910526575081e-02 -2.4618298195866548e-01
    3.3047096925505268e-02 -1.2038585308576918e-01
    1.6894910526575081e-02 -2.4618298195866548e-01
    1.6894910526575081e-02 -2.4618298195866548e-01
    1.6894910526575081e-02 -2.4618298195866548e-01
    1.9362428670628189e-02 -2.1160368475757951e-01
    2.3539021490148269e-02 -1.7149858514250882e-01
    1.9362428670628189e-02 -2.1160368475757951e-01
    1.9362428670628189e-02 -2.1160368475757951e-01
    1.9362428670628189e-02 -2.1160368475757951e-01
    1.5227064210104330e-02 -2.7735009811261457e-01
    1.6894910526575081e-02 -2.4618298195866548e-01
    1.6894910526575081e-02 -2.4618298195866548e-01
    1.5227064210104330e-02 -2.7735009811261457e-01
    1.6894910526575081e-02 -2.4618298195866548e-01
    1.6894910526575081e-02 -2.4618298195866548e-01
    1.5227064210104330e-02 -2.7735009811261457e-01
    1.0405267264808478e-02 -4.5485882614734208e-01
    1.1206815816655063e-02 -4.0824829046386302e-01
    1.0775452360494150e-02 -4.3178776958837267e-01
    1.0405267264808478e-02 -4.5485882614734208e-01
    8.4474552632875389e-03 -6.7700320038632988e-01
    8.6807622043837875e-03 -6.3245553203367599e-01
    1.1715792935036232e-02 -3.8411063979868787e-01
    9.3390131805458857e-03 -5.4433105395181736e-01
    8.1160524939677993e-03 -7.6870611478580719e-01
    8.5575643229800942e-03 -6.5465367070797720e-01
    8.2617742313763169e-03 -7.2231511851461516e-01
    8.2617742313763169e-03 -7.2231511851461516e-01
    8.3492028484457147e-03 -6.9954392437334456e-01
    8.6807622043837875e-03 -6.3245553203367599e-01
    9.5572046407049801e-03 -5.2223296786709361e-01
    1.2325854060661022e-02 -3.5921060405354976e-01
    1.5227064210104330e-02 -2.7735009811261457e-01
    1.5227064210104330e-02 -2.7735009811261457e-01
    1.5227064210104330e-02 -2.7735009811261457e-01
    1.6894910526575081e-02 -2.4618298195866548e-01
    1.9362428670628189e-02 -2.1160368475757951e-01
    1.9362428670628189e-02 -2.1160368475757951e-01
    1.9362428670628189e-02 -2.1160368475757951e-01
    1.6894910526575081e-02 -2.4618298195866548e-01</input_scale>
  <output_scale>
    1.0526315789473684e+00 0.</output_scale>
  <inv_output_scale>
    9.4999999999999996e-01 0.</inv_output_scale>
  <weights>
    <_>
      -1.1719048386403424e-03 -2.2903224389177911e-04
      -9.9637750405231888e-04 -5.5088375721748159e-04
      2.2039270841974236e-04 1.2144499427915077e-03
      9.9728247011042037e-04 2.0453599492093418e-04
      -7.2831549546728146e-04 -4.2920232853557353e-04
      -1.1054717958401724e-03 -1.2409612586460942e-04
      -2.1397120762249158e-05 -7.8018402384446585e-04
      6.7194088742161514e-04 -1.1208781013474275e-03
      1.1037170489498088e-03 1.0083693640301039e-03
      -2.5698247005999147e-04 -3.4383640164285737e-05
      3.0002183913935715e-04 -7.7645728251324352e-04
      -6.5397802009701264e-04 9.5527311481024093e-04
      -1.0954164450422850e-03 -3.1663012947851025e-04
      6.1523554708813478e-04 -6.3403300196013517e-04
      1.0630743572223426e-03 -2.4215284090006096e-04
      1.2150750992007805e-03 -3.7732545206526025e-04
      2.2581237915161135e-04 8.1166924113520002e-04
      1.1322676431532379e-03 5.1786688077618958e-04
      8.1904968067006900e-04 5.2277548999592920e-04
      1.2256443938238879e-03 -1.5902424652943092e-04
      -4.2678890839394024e-01 -2.9089643483834457e-02
      -2.5381243010908446e-02 1.3698901467299912e-02
      2.0166564105983137e-02 2.5909753620750597e-02
      -1.7245970990273543e-02 1.6298166588043974e-02
      -3.0186744002966830e-02 -2.5409527700874072e-02
      1.7310411265126148e-02 -1.4303934915987656e-02
      1.7227712101762317e-02 -4.2390278691878721e-03
      -3.1814330785636544e-02 2.0680204824852184e-02
      -3.1463117956443333e-02 -7.6730298533453515e-03
      2.4054034011541173e-02 -2.3884515370845530e-02
      1.3198245869141412e-02 3.0627335875547196e-02
      3.0886618903419597e-02 -2.3406144057398649e-02
      2.0404283460898939e-02 -3.2253460909331629e-02
      -2.9659455071827993e-02 2.5546618660207174e-02
      1.5213043586647431e-02 1.8709018454478296e-02
      2.7324429786557372e-02 2.9510954917810917e-02
      -2.5873305318066062e-02 1.2552186261671464e-02
      1.4343918223636498e-04 3.0596432205018738e-02
      -2.3542545309575221e-02 7.3644082381513062e-03
      2.7676741664808345e-02 2.1840269751744270e-02
      5.2249326640336458e-01 3.0880776628045229e-02
      4.0468187505310900e-02 2.2094438910980937e-02
      -3.5249763195034305e-02 -1.3546920620524405e-02
      -2.1666051947503571e-02 -3.2085883175510220e-02
      1.5347034700059790e-02 -1.8114810373075645e-02
      1.9423551831257359e-02 3.0336136003335856e-02
      2.1667380298855621e-02 -2.6343835530911464e-02
      1.6230490392873140e-02 1.7383419855659131e-02
      1.7042915099598818e-02 2.8831398586797913e-02
      1.3002935445920946e-02 -1.7401399843597135e-02
      -2.7815535678523417e-02 -1.5374526652546894e-02
      -1.6654165312238924e-02 4.2234510741328564e-02
      1.7495059855205785e-02 1.6676857677362256e-02
      2.8959200871594069e-02 -2.1245374882026522e-02
      2.3360805983525579e-02 1.8195334343615768e-02
      -4.5337891796175735e-02 -2.7395178396184206e-02
      -2.0705681920287697e-02 2.2137379137671550e-02
      2.7270598599466577e-02 -1.5085417338930570e-02
      3.9416732714397711e-02 2.4265138329585486e-02
      -5.0013147645424291e-02 -3.7432637460940325e-02
      5.8973128680192624e-02 3.4924936001718428e-02
      3.1929886577689859e-02 1.6370978871902014e-02
      -2.7989122993940949e-02 5.6743764416227593e-03
      -1.3385414004043941e-02 -2.6270890778590753e-02
      -1.7043973023238164e-03 1.8358258128576922e-02
      1.3178526698921901e-02 2.5725132068361651e-02
      1.5292930102130377e-02 -1.9610466952442444e-02
      -2.0174830244786236e-03 1.2129394370356860e-02
      -1.4498607972991790e-03 2.3086380377129023e-02
      -3.5029518215654608e-02 2.2918678041355160e-02
      -2.3601086865923885e-02 3.3798881266143845e-03
      3.2695421971279787e-03 3.1212808183038048e-02
      1.2406982761034625e-02 -3.2634006947194439e-03
      3.4735331358663663e-02 -4.2069446161122626e-02
      1.6621378444479643e-02 1.2538559530866116e-02
      -3.2702096402982897e-02 -3.2815827564901791e-02
      2.3624579297628137e-02 1.5141370980013634e-02
      2.0658940492619789e-02 3.5897965587144542e-03
      3.1540574810357165e-02 1.8128935059949051e-02
      -3.3840485323474390e-02 -3.0296949274325663e-02
      -1.9117737853137928e-01 -5.8724014620694828e-05
      2.9298091747673264e-04 2.2051539759835080e-03
      -9.5740520733917408e-04 6.7324847127849885e-03
      -2.5022413560993142e-03 1.1213844505597195e-03
      -8.0707050994885312e-03 -4.8448229114484076e-03
      3.6512074582419692e-03 -1.0730172709227748e-03
      4.8641808978801297e-03 -8.5272052801797641e-04
      -9.0398294338939287e-03 3.1676618830072840e-03
      -6.1010036222272288e-03 -1.8291048540821720e-05
      -1.0203561347797521e-03 -2.7837777124742496e-03
      -4.1570176562265391e-04 5.6967538473651361e-03
      6.6328024063850534e-03 1.0173597635724063e-03
      4.8453214008799626e-03 -6.1903729885524113e-03
      -1.9164011567589755e-03 -1.2978027680450482e-03
      1.7181414076818515e-03 3.8532316076016829e-03
      6.7170243984630666e-04 1.9835095422210832e-03
      -3.8237808288293573e-03 1.4808330209755780e-03
      -1.2088431892161601e-03 7.1668167985814851e-03
      -2.8470393522650976e-04 1.7057985487607345e-03
      -5.9427209777637225e-04 6.6506585329691907e-04
      -1.9075161436541260e-01 -1.4297166670737553e-03
      1.1437479876310018e-03 2.8350826297936604e-03
      1.8668101141089050e-04 5.3830836899923821e-03
      -3.0130694196644661e-03 6.6387387243346731e-04
      -7.9178399491663266e-03 -4.6306486594568643e-03
      2.4105831275531460e-03 -1.4812962547712622e-03
      5.0580559087421342e-03 -1.2589179269191335e-03
      -7.4402521623320745e-03 3.6259601034400717e-03
      -6.8007471093660538e-03 -1.4158849308811773e-03
      -2.9439736497262809e-03 -2.9355718008201776e-03
      -4.0611748713475696e-04 7.0873383345132343e-03
      8.0603735679475683e-03 1.1302039896495769e-03
      2.8549217870457314e-03 -6.8856874244540515e-03
      -3.1482862752855539e-04 -2.0541918923516742e-03
      2.2120781055467611e-03 4.1280665216324340e-03
      2.4718792832292452e-05 1.8848425236056847e-03
      -2.3467434561501525e-03 2.3798537810177556e-03
      8.9834673525444876e-07 7.0729905296476013e-03
      4.9418899795127685e-04 1.6925918207511843e-03
      4.6137845841161588e-04 -7.6058670168684009e-04
      5.9753383768593585e-02 3.3496244539610157e-02
      3.2396312520831243e-02 1.7097824750406374e-02
      -2.9723415918995497e-02 5.5147183500268010e-03
      -1.5079153821566330e-02 -2.6787715682524752e-02
      -1.2615205205794896e-03 1.9161977770581103e-02
      1.2685767959995322e-02 2.5599871879079489e-02
      1.4733131539110777e-02 -1.8739356420342763e-02
      -9.1137017575833735e-04 1.2507710641845046e-02
      -3.1565566438433051e-03 2.1160082127796832e-02
      -3.4672802985437963e-02 2.4880911463268006e-02
      -2.4143560414628489e-02 4.9866264005605457e-03
      3.2597466387589368e-03 3.0964182729022804e-02
      1.0144437274978494e-02 -2.1996355507289964e-03
      3.5091301456837899e-02 -4.0093794530462412e-02
      1.4747577791228563e-02 1.2453071215271873e-02
      -3.2585573606052839e-02 -3.3217650820263379e-02
      2.2966295348373952e-02 1.5087206245995247e-02
      2.0996415955438229e-02 4.5810058846325608e-03
      3.0110342295226494e-02 1.8369364209180367e-02
      -3.5433068838099976e-02 -2.9473753667935396e-02
      5.9946940029633189e-02 3.3478701511849451e-02
      3.0167736988893926e-02 1.5806622936905566e-02
      -2.9604803158768116e-02 7.0751672612691142e-03
      -1.3489771143414396e-02 -2.5451281030189801e-02
      -8.5999415046922507e-04 1.8899024455817814e-02
      1.4176968198612713e-02 2.6355821256655261e-02
      1.3787013624039234e-02 -1.8210996141908430e-02
      -7.2571308838170995e-04 1.0744740215296764e-02
      -3.3827196813032596e-03 2.2534780400098132e-02
      -3.4958055514892207e-02 2.4518013266622021e-02
      -2.3705467147963469e-02 3.3505866957701347e-03
      2.9032434071397692e-03 3.2060556138189762e-02
      1.1245064182330981e-02 -4.4196634610165044e-03
      3.3858410508195651e-02 -4.1889680048144369e-02
      1.6050308536742740e-02 1.2012192980523070e-02
      -3.4321772181811039e-02 -3.4369961431331399e-02
      2.3256763855884280e-02 1.5458628355629771e-02
      2.0278256908588473e-02 4.2556951067453039e-03
      3.1403337235577596e-02 1.7144847987941154e-02
      -3.3493462873970703e-02 -2.9057197467792513e-02
      -6.1013359882896571e-02 3.6582881240457617e-02
      3.3365500595732747e-02 2.3050845467746436e-02
      -3.1131508030736811e-02 1.9590412205976890e-02
      -2.2470704601526208e-02 -2.8177624323040946e-02
      -1.5944481869679478e-02 2.1886438573885982e-02
      2.0262055207375333e-02 2.7283656434678800e-02
      2.1861156624823880e-02 -2.3424286840913848e-02
      -1.5347508992244416e-02 1.9826845844674514e-02
      -1.6114572646434420e-02 2.3624176879356900e-02
      -3.3246998971103447e-02 2.3697879341227850e-02
      -2.5520690664188113e-02 1.6377130373114057e-02
      1.7032905468302877e-02 3.1886357668883883e-02
      1.9776490224962726e-02 -1.7420000125167406e-02
      3.2437313930441705e-02 -3.2826522423038233e-02
      2.0573605760477884e-02 2.1720272018366356e-02
      -3.5717834664845675e-02 -3.3841313083266072e-02
      1.9263687801306148e-02 2.1392837021430043e-02
      2.1913046238962810e-02 1.7197316979129223e-02
      3.3724558569737211e-02 2.0974654294413704e-02
      -3.8191520056693989e-02 -3.0399662209362653e-02
      5.9912732494791281e-02 3.3149967372048568e-02
      3.1800499982928991e-02 1.5702823374640990e-02
      -2.8884187166463321e-02 6.2995178689122973e-03
      -1.4541524810143716e-02 -2.6083451398126015e-02
      -3.2249845775415838e-03 1.9279495332021203e-02
      1.3177186830960872e-02 2.6137245482700258e-02
      1.4092658608175247e-02 -1.8417330467196246e-02
      -2.5781411249933920e-04 1.0728933006609471e-02
      -1.6396645086325359e-03 2.3496945608342850e-02
      -3.4168504551821861e-02 2.4793255584077467e-02
      -2.4068475826997063e-02 4.2395924125306628e-03
      1.0602588095938409e-03 3.1414503267884288e-02
      1.2340866207685965e-02 -2.7974565669976028e-03
      3.4946730882569887e-02 -4.0589348341013555e-02
      1.4794041125541064e-02 1.2285794271594330e-02
      -3.3281016913533287e-02 -3.4472021461944662e-02
      2.2493418985273878e-02 1.5985168753797505e-02
      2.0146408289469241e-02 2.2165741066288549e-03
      3.1243329838336671e-02 1.8253704518207653e-02
      -3.5585898740056840e-02 -2.9805987414300551e-02
      -6.0467902714177874e-02 3.5603797446612538e-02
      3.3646536260095769e-02 2.2268786355099799e-02
      -2.9088775251477444e-02 1.9533813117088340e-02
      -2.2530006167565935e-02 -2.7953584236158471e-02
      -1.5012674399329675e-02 2.2614726592731012e-02
      2.2030953602300909e-02 2.6087469606520312e-02
      2.2855757352527619e-02 -2.1390908316416067e-02
      -1.5159425651137813e-02 1.9694847390007073e-02
      -1.6300682722054684e-02 2.3094939408764181e-02
      -3.3220219426049864e-02 2.2915891269640234e-02
      -2.6575505511038846e-02 1.8115657339933269e-02
      1.6950383513955253e-02 3.3447649754550071e-02
      2.0045765415855937e-02 -1.6132032956989482e-02
      3.1115936619329560e-02 -3.2976378114631007e-02
      2.1320915790229232e-02 2.0902654475153121e-02
      -3.5333691315335460e-02 -3.3715140774797606e-02
      1.9228228457246400e-02 2.0955384593734687e-02
      2.1590617381788770e-02 1.6195562205560878e-02
      3.3537200427134699e-02 2.2419331670800763e-02
      -3.7884821845204864e-02 -3.0865187281138934e-02
      -6.1896910160144987e-02 3.6674276492570886e-02
      3.4265797253601238e-02 2.1968811448074773e-02
      -3.1236226645218086e-02 1.8329678900694559e-02
      -2.1985288228164156e-02 -2.6441451008937879e-02
      -1.5616716190244228e-02 2.1271370609830781e-02
      2.1434834652471320e-02 2.6009626316154590e-02
      2.3039925131144601e-02 -2.3394420658802983e-02
      -1.5568249765438668e-02 2.1495123058045372e-02
      -1.6714156527221274e-02 2.5013259709952464e-02
      -3.1978635661798344e-02 2.5115498083067105e-02
      -2.5337258528769776e-02 1.7430185997260487e-02
      1.4824753556087523e-02 3.3699749422488032e-02
      2.0754936728111007e-02 -1.5998003969435747e-02
      3.1747178949581997e-02 -3.3526041284943735e-02
      2.2173829841984249e-02 1.9853746868990423e-02
      -3.4713046025630641e-02 -3.3119537798171922e-02
      2.0049784304513506e-02 2.0675220125040313e-02
      2.3756346504816162e-02 1.6833976376512221e-02
      3.3447277837391480e-02 2.0461532586143551e-02
      -3.6526920169431723e-02 -3.0626573413215737e-02
      -6.0381302342440678e-02 3.4574740518236981e-02
      3.2933220404701660e-02 2.3234542233116048e-02
      -2.9218064134563803e-02 1.8006073241807547e-02
      -2.1379910118825365e-02 -2.6863397008617774e-02
      -1.4596007859543849e-02 2.1399931801554056e-02
      1.9930504581405214e-02 2.7841463302193937e-02
      2.1354447709234281e-02 -2.2022894049856474e-02
      -1.4651128774042123e-02 2.1202078044938646e-02
      -1.6672984567825545e-02 2.4819918317639491e-02
      -3.3173286860072898e-02 2.3706048820824770e-02
      -2.5347180361750439e-02 1.6125469840688338e-02
      1.6263845426664390e-02 3.3420361708044050e-02
      1.9285179950338873e-02 -1.6895924539220539e-02
      3.1502105758782234e-02 -3.2499043584860964e-02
      2.1253423207247428e-02 2.0281569021900106e-02
      -3.5898976285337371e-02 -3.3755308577370288e-02
      2.0511937936736616e-02 2.1225328309068814e-02
      2.2668951922917211e-02 1.6570723081942487e-02
      3.1906079774819747e-02 2.1288393015494594e-02
      -3.6336806957858993e-02 -3.2205452203284399e-02
      2.1465103817818573e-01 3.4776010918930227e-02
      3.3339847071767334e-02 5.7480966484090290e-03
      -3.1042460018557535e-02 7.6971797051432022e-04
      -3.7988505474882157e-03 -2.7064037115462628e-02
      4.2503099024661936e-03 3.1749053876664213e-02
      1.7537476033471484e-03 2.7262913740614271e-02
      4.3993853049508922e-03 -1.6221253383319038e-02
      6.7658342533034408e-03 8.3713698409806502e-04
      2.8612804549342941e-03 2.2793903073746413e-02
      -4.1455869948711463e-02 3.5184600053395937e-02
      -2.7744003810578819e-02 1.7395724379756691e-04
      -4.4821339053183334e-03 3.2930575856740911e-02
      1.2736528747697409e-03 2.2924190105359796e-03
      3.5266718520857436e-02 -3.7644946143852970e-02
      5.0415902239559895e-03 1.4955884992230689e-03
      -3.4386846702395522e-02 -3.5394444267146954e-02
      3.1659012434602070e-02 7.7896430765945672e-03
      1.8677028020383141e-02 -2.4833863670254011e-03
      3.1501820140254544e-02 1.1656493356034291e-02
      -3.6183312839599427e-02 -3.0898414540476486e-02
      -1.4487762710322619e-01 2.5718855078661344e-02
      1.8458431111286373e-02 4.2845704681173042e-03
      -1.6669450982511432e-02 8.4857192821300876e-03
      -3.4218457878818819e-03 -1.2186101553853763e-02
      -8.0894100463926085e-03 2.7714152081592832e-02
      4.5554702608426711e-03 1.2700741421814920e-02
      4.9991989651195405e-03 -3.1474941349766334e-03
      -8.9804414151846181e-03 4.3456267827063650e-03
      -8.5969829758137904e-03 8.7368808817657722e-03
      -2.6501478285526372e-02 2.7249521075053684e-02
      -1.0474269109324747e-02 7.6376992652264783e-03
      8.9745629971355809e-03 1.9689480790572610e-02
      4.4347659358260991e-03 -7.6729032715688828e-03
      2.6958211543711596e-02 -2.5997935221479248e-02
      2.6355628971062688e-03 4.3010146720336420e-03
      -2.0546185837006771e-02 -2.6151209858616433e-02
      2.6945811308290935e-02 3.6177325152386606e-03
      6.1028264237456709e-03 7.0804265014400760e-03
      1.8461427733541817e-02 4.3035244841581957e-03
      -2.2803073481635121e-02 -1.8289344276964246e-02
      2.1921714708509388e-01 -3.3290207232410614e-02
      -2.8668441522862360e-02 -6.0223170013603451e-03
      2.4583216688471639e-02 -4.6945067807751905e-04
      4.4229119293304978e-03 2.0758219429445918e-02
      1.1487390169651582e-03 -3.3020966664928139e-02
      -4.0935866866397847e-03 -2.1445356988811795e-02
      -3.6956810838989587e-03 8.6895269832553967e-03
      3.3509110123839678e-03 -4.9019077887720395e-03
      2.2916869757549541e-03 -1.5944359248715505e-02
      3.4930455114969283e-02 -3.4463086316097312e-02
      1.8356846731757654e-02 -2.7681566904342680e-04
      -2.8431623419073178e-03 -2.7895912162060259e-02
      -4.3483643790146404e-03 1.1842694376641126e-03
      -3.3899681299632556e-02 3.4465033499103674e-02
      -4.3139095568904655e-03 -4.8941885607049294e-03
      2.9921283602128847e-02 3.2889143164211418e-02
      -3.4434110436675373e-02 -5.1002784761753316e-03
      -1.1694857364254534e-02 -1.8792894082549695e-03
      -2.7758306282883727e-02 -7.1398128984100084e-03
      3.1444402286780401e-02 2.6255981458780858e-02
      2.1843861861623870e-01 -3.2994063527587353e-02
      -2.7517526619695875e-02 -4.2908755834783034e-03
      2.4980384159419451e-02 -2.3322175145409356e-03
      4.3123293565697877e-03 2.0013993722610118e-02
      1.8292037905136348e-03 -3.3611457752300275e-02
      -5.4679214897130051e-03 -1.9299113728952905e-02
      -4.0631023275454082e-03 1.0169355231331379e-02
      1.8365117260123597e-03 -3.6085431299633947e-03
      2.7501714322126954e-03 -1.4021720045545728e-02
      3.6675406244370330e-02 -3.2938842606070592e-02
      1.8412918937430311e-02 -2.2698316242019752e-03
      -2.7715618925223304e-03 -2.8059843604475141e-02
      -3.7222274617988568e-03 7.9909421951398487e-04
      -3.4535183781416762e-02 3.4704503352018405e-02
      -6.1410146209877657e-03 -3.6066951477491797e-03
      2.9879871626317223e-02 3.5030757418085846e-02
      -3.5010658502887336e-02 -6.3398459388913243e-03
      -1.1148768228834835e-02 -8.0161026071500418e-04
      -2.7487363742415921e-02 -9.1679053107468905e-03
      3.1350429177458700e-02 2.6130728542580223e-02
      -4.7349418343048427e-04 4.9407763717173691e-04
      -1.4947955601538998e-05 -6.0405998552800968e-04
      8.7587241765668482e-04 -1.1551985943962311e-03
      5.8375464454631099e-04 -1.2289870768915792e-03
      -5.2893152915763205e-04 -4.0594988705829391e-04
      -4.8612965124038922e-04 -7.9101746860447725e-04
      2.2229348581299566e-04 1.0747041817950815e-03
      8.2058340025619239e-04 -8.6859745154712947e-04
      3.0144024765250976e-04 1.1521363763472147e-03
      6.3380642539112965e-04 -5.9511656907647141e-04
      7.7257823735759202e-04 8.3627098218526190e-04
      -1.0957742459373478e-03 1.9387142677419216e-04
      -8.3048399593597336e-04 1.0834177606126149e-03
      -1.2219184550069577e-03 5.4154151553535865e-05
      8.8640926615739604e-04 -1.1897417104257050e-03
      8.1460266760867124e-04 -5.2555614364662806e-04
      -1.0467511008256298e-03 6.6281595458792940e-04
      1.0199272449838014e-03 8.6943051960598078e-04
      1.2015010382165057e-03 3.0089124071448672e-04
      1.1215983451558428e-03 1.0102593102785040e-03
      7.5883585055194908e-02 2.7039901892623279e-02
      2.0361713832244124e-02 3.1430422826611302e-03
      -1.7438488539608162e-02 -5.7540042976866020e-03
      1.5506565688102850e-03 -1.6242512017754326e-02
      9.6584630007767779e-04 3.7725561333396607e-02
      -2.2472027794273324e-03 1.5420067813293225e-02
      -1.6616860401323982e-03 -1.3817791701954631e-02
      -1.0273338436642956e-03 -4.2874221959610503e-03
