<?xml version="1.0"?>
<opencv_storage>
<shapeML type_id="opencv-ml-ann-mlp">
  <layer_sizes type_id="opencv-matrix">
    <rows>1</rows>
    <cols>3</cols>
    <dt>i</dt>
    <data>
      1600 40 1</data></layer_sizes>
  <activation_function>SIGMOID_SYM</activation_function>
  <f_param1>5.9999999999999998e-01</f_param1>
  <f_param2>1.</f_param2>
  <min_val>-9.4999999999999996e-01</min_val>
  <max_val>9.4999999999999996e-01</max_val>
  <min_val1>-9.7999999999999998e-01</min_val1>
  <max_val1>9.7999999999999998e-01</max_val1>
  <training_params>
    <train_method>BACKPROP</train_method>
    <dw_scale>1.0000000000000001e-01</dw_scale>
    <moment_scale>1.0000000000000001e-01</moment_scale>
    <term_criteria><epsilon>9.9999999747524271e-07</epsilon>
      <iterations>4000</iterations></term_criteria></training_params>
  <input_scale>
    5.0374397567852940e-02 -7.8326044998795738e-02
    2.5422232169981088e-02 -1.5811388300841897e-01
    5.0374397567852940e-02 -7.8326044998795738e-02
    5.0374397567852940e-02 -7.8326044998795738e-02
    2.9263758373215515e-02 -1.3650472655798701e-01
    2.9263758373215515e-02 -1.3650472655798701e-01
    2.2809727833261375e-02 -1.7733172553297716e-01
    2.5422232169981088e-02 -1.5811388300841897e-01
    2.0888126981119113e-02 -1.9487094073848929e-01
    1.9400138097001748e-02 -2.1115394209236660e-01
    1.8205238588207225e-02 -2.2645540682891915e-01
    1.6388654783484429e-02 -2.5482359571881275e-01
    1.9400138097001748e-02 -2.1115394209236660e-01
    1.8205238588207225e-02 -2.2645540682891915e-01
    1.7219342475818276e-02 -2.4096579867074966e-01
    1.5676951314620838e-02 -2.6813322217994789e-01
    1.5058830696019394e-02 -2.8097574347450821e-01
    2.0888126981119113e-02 -1.9487094073848929e-01
    1.8205238588207225e-02 -2.2645540682891915e-01
    1.1736159455950702e-02 -3.8321423101595131e-01
    1.0574540428939396e-02 -4.4393726130029115e-01
    1.2253012202610618e-02 -3.6198685440029538e-01
    1.4515884963461761e-02 -2.9341560154802282e-01
    1.5676951314620838e-02 -2.6813322217994789e-01
    2.9263758373215515e-02 -1.3650472655798701e-01
    2.9263758373215515e-02 -1.3650472655798701e-01
    2.5422232169981088e-02 -1.5811388300841897e-01
    2.0888126981119113e-02 -1.9487094073848929e-01
    2.5422232169981088e-02 -1.5811388300841897e-01
    1.9400138097001748e-02 -2.1115394209236660e-01
    1.7219342475818276e-02 -2.4096579867074966e-01
    2.0888126981119113e-02 -1.9487094073848929e-01
    1.8205238588207225e-02 -2.2645540682891915e-01
    2.2809727833261375e-02 -1.7733172553297716e-01
    1.8205238588207225e-02 -2.2645540682891915e-01
    1.8205238588207225e-02 -2.2645540682891915e-01
    3.5729847494553379e-02 -1.1111111111111112e-01
    3.5729847494553379e-02 -1.1111111111111112e-01
    5.0374397567852940e-02 -7.8326044998795738e-02
    2.9263758373215515e-02 -1.3650472655798701e-01
    2.5422232169981088e-02 -1.5811388300841897e-01
    2.2809727833261375e-02 -1.7733172553297716e-01
    5.0374397567852940e-02 -7.8326044998795738e-02
    3.5729847494553379e-02 -1.1111111111111112e-01
    2.2809727833261375e-02 -1.7733172553297716e-01
    2.2809727833261375e-02 -1.7733172553297716e-01
    1.9400138097001748e-02 -2.1115394209236660e-01
    1.8205238588207225e-02 -2.2645540682891915e-01
    1.7219342475818276e-02 -2.4096579867074966e-01
    1.6388654783484429e-02 -2.5482359571881275e-01
    1.3216389175528722e-02 -3.2879797461071458e-01
    1.2545587019715957e-02 -3.5112344158839170e-01
    1.2865318419080876e-02 -3.4006802040680245e-01
    1.1293542571132908e-02 -4.0388187304691775e-01
    1.0574540428939396e-02 -4.4393726130029115e-01
    1.0016061908453479e-02 -4.8278639869710216e-01
    1.0574540428939396e-02 -4.4393726130029115e-01
    9.6736981731151625e-03 -5.1140831195675895e-01
    9.4743065453099518e-03 -5.3033008588991071e-01
    1.0016061908453479e-02 -4.8278639869710216e-01
    9.2112030856836870e-03 -5.5856960175075776e-01
    1.0016061908453479e-02 -4.8278639869710216e-01
    9.6736981731151625e-03 -5.1140831195675895e-01
    1.0278690384784706e-02 -4.6348119143587135e-01
    1.1506630174723545e-02 -3.9361094683048226e-01
    1.3216389175528722e-02 -3.2879797461071458e-01
    1.6388654783484429e-02 -2.5482359571881275e-01
    1.5058830696019394e-02 -2.8097574347450821e-01
    1.5058830696019394e-02 -2.8097574347450821e-01
    1.4515884963461761e-02 -2.9341560154802282e-01
    1.5058830696019394e-02 -2.8097574347450821e-01
    1.5676951314620838e-02 -2.6813322217994789e-01
    1.5058830696019394e-02 -2.8097574347450821e-01
    1.5058830696019394e-02 -2.8097574347450821e-01
    1.4515884963461761e-02 -2.9341560154802282e-01
    1.5676951314620838e-02 -2.6813322217994789e-01
    2.9263758373215515e-02 -1.3650472655798701e-01
    3.5729847494553379e-02 -1.1111111111111112e-01
    2.5422232169981088e-02 -1.5811388300841897e-01
    2.0888126981119113e-02 -1.9487094073848929e-01
    5.0374397567852940e-02 -7.8326044998795738e-02
    2.2809727833261375e-02 -1.7733172553297716e-01
    2.2809727833261375e-02 -1.7733172553297716e-01
    2.5422232169981088e-02 -1.5811388300841897e-01
    2.0888126981119113e-02 -1.9487094073848929e-01
    1.8205238588207225e-02 -2.2645540682891915e-01
    1.5676951314620838e-02 -2.6813322217994789e-01
    1.5676951314620838e-02 -2.6813322217994789e-01
    1.2865318419080876e-02 -3.4006802040680245e-01
    1.1984155173528285e-02 -3.7267799624996495e-01
    1.1095171738445696e-02 -4.1403933560541262e-01
    1.0574540428939396e-02 -4.4393726130029115e-01
    1.0278690384784706e-02 -4.6348119143587135e-01
    9.2945120916310894e-03 -5.4916964736527596e-01
    9.3821191727056618e-03 -5.3975789264925567e-01
    8.8508851706236829e-03 -6.0553007081949839e-01
    8.9846074530633788e-03 -5.8673869403846823e-01
    8.8508851706236829e-03 -6.0553007081949839e-01
    8.6728494526985955e-03 -6.3380549201580894e-01
    8.9846074530633788e-03 -5.8673869403846823e-01
    8.5185610415163589e-03 -6.6226617853252190e-01
    8.7293870124368744e-03 -6.2436408326758874e-01
    9.1319353741684938e-03 -5.6796183424706481e-01
    9.2945120916310894e-03 -5.4916964736527596e-01
    9.0564748108176597e-03 -5.7735026918962584e-01
    9.0564748108176597e-03 -5.7735026918962584e-01
    1.0736863958847565e-02 -4.3405736614121559e-01
    1.1506630174723545e-02 -3.9361094683048226e-01
    1.1506630174723545e-02 -3.9361094683048226e-01
    1.2545587019715957e-02 -3.5112344158839170e-01
    1.3216389175528722e-02 -3.2879797461071458e-01
    1.3603946141586640e-02 -3.1728715848517625e-01
    1.2865318419080876e-02 -3.4006802040680245e-01
    1.2545587019715957e-02 -3.5112344158839170e-01
    1.3216389175528722e-02 -3.2879797461071458e-01
    1.3216389175528722e-02 -3.2879797461071458e-01
    1.5676951314620838e-02 -2.6813322217994789e-01
    1.8205238588207225e-02 -2.2645540682891915e-01
    1.9400138097001748e-02 -2.1115394209236660e-01
    2.9263758373215515e-02 -1.3650472655798701e-01 1. 0.
    5.0374397567852940e-02 -7.8326044998795738e-02
    2.0888126981119113e-02 -1.9487094073848929e-01
    1.8205238588207225e-02 -2.2645540682891915e-01
    1.5676951314620838e-02 -2.6813322217994789e-01
    1.6388654783484429e-02 -2.5482359571881275e-01
    1.4034405489687355e-02 -3.0550504633038938e-01
    1.0910037997452176e-02 -4.2409446483998553e-01
    1.0736863958847565e-02 -4.3405736614121559e-01
    1.0143565573700776e-02 -4.7316022340738378e-01
    1.0736863958847565e-02 -4.3405736614121559e-01
    9.0564748108176597e-03 -5.7735026918962584e-01
    9.0564748108176597e-03 -5.7735026918962584e-01
    8.6728494526985955e-03 -6.3380549201580894e-01
    8.6728494526985955e-03 -6.3380549201580894e-01
    8.3850227144969345e-03 -6.9099745113674427e-01
    8.2698527430663648e-03 -7.2008229982309568e-01
    8.2023205596889175e-03 -7.3970927486462867e-01
    8.3446945648686134e-03 -7.0064904974537079e-01
    8.6189439075195270e-03 -6.4326752090267691e-01
    8.2698527430663648e-03 -7.2008229982309568e-01
    8.2023205596889175e-03 -7.3970927486462867e-01
    8.1711467869087385e-03 -7.4960306956732903e-01
    8.2023205596889175e-03 -7.3970927486462867e-01
    8.4273879030585599e-03 -6.8138514386924698e-01
    8.9846074530633788e-03 -5.8673869403846823e-01
    9.2112030856836870e-03 -5.5856960175075776e-01
    8.7293870124368744e-03 -6.2436408326758874e-01
    1.0574540428939396e-02 -4.4393726130029115e-01
    1.0736863958847565e-02 -4.3405736614121559e-01
    1.1506630174723545e-02 -3.9361094683048226e-01
    1.1984155173528285e-02 -3.7267799624996495e-01
    1.4515884963461761e-02 -2.9341560154802282e-01
    1.3603946141586640e-02 -3.1728715848517625e-01
    1.3603946141586640e-02 -3.1728715848517625e-01
    1.2865318419080876e-02 -3.4006802040680245e-01
    1.3216389175528722e-02 -3.2879797461071458e-01
    1.6388654783484429e-02 -2.5482359571881275e-01
    2.2809727833261375e-02 -1.7733172553297716e-01
    2.5422232169981088e-02 -1.5811388300841897e-01
    5.0374397567852940e-02 -7.8326044998795738e-02
    2.5422232169981088e-02 -1.5811388300841897e-01
    2.5422232169981088e-02 -1.5811388300841897e-01
    1.4515884963461761e-02 -2.9341560154802282e-01
    1.3216389175528722e-02 -3.2879797461071458e-01
    1.3216389175528722e-02 -3.2879797461071458e-01
    1.0910037997452176e-02 -4.2409446483998553e-01
    1.0143565573700776e-02 -4.7316022340738378e-01
    9.7816259160534037e-03 -5.0190476880237433e-01
    9.6736981731151625e-03 -5.1140831195675895e-01
    9.0564748108176597e-03 -5.7735026918962584e-01
    8.8508851706236829e-03 -6.0553007081949839e-01
    8.6728494526985955e-03 -6.3380549201580894e-01
    8.3850227144969345e-03 -6.9099745113674427e-01
    8.3850227144969345e-03 -6.9099745113674427e-01
    8.4273879030585599e-03 -6.8138514386924698e-01
    7.9777495682680187e-03 -8.3109665471865302e-01
    8.1416302059667319e-03 -7.5955452531275003e-01
    8.3446945648686134e-03 -7.0064904974537079e-01
    8.4718714606604739e-03 -6.7180907527981382e-01
    8.2352037929966978e-03 -7.2987004348296947e-01
    8.4718714606604739e-03 -6.7180907527981382e-01
    8.2698527430663648e-03 -7.2008229982309568e-01
    8.4273879030585599e-03 -6.8138514386924698e-01
    8.5675511793507821e-03 -6.5275336576821963e-01
    8.3850227144969345e-03 -6.9099745113674427e-01
    8.3850227144969345e-03 -6.9099745113674427e-01
    8.5185610415163589e-03 -6.6226617853252190e-01
    8.9846074530633788e-03 -5.8673869403846823e-01
    9.4743065453099518e-03 -5.3033008588991071e-01
    1.0422099084564212e-02 -4.5374260648651510e-01
    1.1095171738445696e-02 -4.1403933560541262e-01
    1.1736159455950702e-02 -3.8321423101595131e-01
    1.2865318419080876e-02 -3.4006802040680245e-01
    1.3603946141586640e-02 -3.1728715848517625e-01
    1.1506630174723545e-02 -3.9361094683048226e-01
    1.3216389175528722e-02 -3.2879797461071458e-01
    1.7219342475818276e-02 -2.4096579867074966e-01
    2.0888126981119113e-02 -1.9487094073848929e-01
    2.0888126981119113e-02 -1.9487094073848929e-01
    3.5729847494553379e-02 -1.1111111111111112e-01
    2.0888126981119113e-02 -1.9487094073848929e-01
    1.8205238588207225e-02 -2.2645540682891915e-01
    1.4515884963461761e-02 -2.9341560154802282e-01
    1.2545587019715957e-02 -3.5112344158839170e-01
    1.0736863958847565e-02 -4.3405736614121559e-01
    9.7816259160534037e-03 -5.0190476880237433e-01
    9.7816259160534037e-03 -5.0190476880237433e-01
    9.1319353741684938e-03 -5.6796183424706481e-01
    8.7886856285809920e-03 -6.1494004626809073e-01
    8.9846074530633788e-03 -5.8673869403846823e-01
    8.7293870124368744e-03 -6.2436408326758874e-01
    8.3850227144969345e-03 -6.9099745113674427e-01
    8.6189439075195270e-03 -6.4326752090267691e-01
    8.3063279498512659e-03 -7.1034298473575608e-01
    8.1416302059667319e-03 -7.5955452531275003e-01
    7.8454711746842858e-03 -9.7590007294853309e-01
    7.9435991305026200e-03 -8.5224162622679023e-01
    7.9021179115696498e-03 -8.8465173692938270e-01
    8.0873779011537764e-03 -7.7964295498317815e-01
    8.0392156862745100e-03 -8.0000000000000004e-01
    8.0625552920859239e-03 -7.8978628516683147e-01
    8.2698527430663648e-03 -7.2008229982309568e-01
    8.2352037929966978e-03 -7.2987004348296947e-01
    7.9968446993653915e-03 -8.2065180664828985e-01
    7.9777495682680187e-03 -8.3109665471865302e-01
    7.9600096592242452e-03 -8.4162541153017323e-01
    8.2023205596889175e-03 -7.3970927486462867e-01
    8.7886856285809920e-03 -6.1494004626809073e-01
    9.0564748108176597e-03 -5.7735026918962584e-01
    9.7816259160534037e-03 -5.0190476880237433e-01
    9.7816259160534037e-03 -5.0190476880237433e-01
    1.0574540428939396e-02 -4.4393726130029115e-01
    1.0278690384784706e-02 -4.6348119143587135e-01
    1.1293542571132908e-02 -4.0388187304691775e-01
    1.0736863958847565e-02 -4.3405736614121559e-01
    1.3603946141586640e-02 -3.1728715848517625e-01
    1.8205238588207225e-02 -2.2645540682891915e-01
    2.0888126981119113e-02 -1.9487094073848929e-01
    1.7219342475818276e-02 -2.4096579867074966e-01
    3.5729847494553379e-02 -1.1111111111111112e-01
    1.6388654783484429e-02 -2.5482359571881275e-01
    1.5058830696019394e-02 -2.8097574347450821e-01
    1.1293542571132908e-02 -4.0388187304691775e-01
    1.1095171738445696e-02 -4.1403933560541262e-01
    1.0422099084564212e-02 -4.5374260648651510e-01
    9.4743065453099518e-03 -5.3033008588991071e-01
    9.7816259160534037e-03 -5.0190476880237433e-01
    8.7886856285809920e-03 -6.1494004626809073e-01
    8.7886856285809920e-03 -6.1494004626809073e-01
    8.9161374454713605e-03 -5.9613077493654554e-01
    8.4718714606604739e-03 -6.7180907527981382e-01
    8.1711467869087385e-03 -7.4960306956732903e-01
    8.0873779011537764e-03 -7.7964295498317815e-01
    7.8807318969532324e-03 -9.0676470058236280e-01
    7.8807318969532324e-03 -9.0676470058236280e-01
    7.8642178469902971e-03 -9.2932037728458516e-01
    7.8718721618341297e-03 -9.1798509204315681e-01
    7.8454711746842858e-03 -9.7590007294853309e-01
    7.8437205395682861e-03 -9.8787833990721308e-01
    7.8718721618341297e-03 -9.1798509204315681e-01
    8.0173232084385336e-03 -8.1028739134066274e-01
    8.0873779011537764e-03 -7.7964295498317815e-01
    7.9777495682680187e-03 -8.3109665471865302e-01
    8.0625552920859239e-03 -7.8978628516683147e-01
    7.8807318969532324e-03 -9.0676470058236280e-01
    7.8807318969532324e-03 -9.0676470058236280e-01
    7.9435991305026200e-03 -8.5224162622679023e-01
    8.2023205596889175e-03 -7.3970927486462867e-01
    8.2698527430663648e-03 -7.2008229982309568e-01
    8.7293870124368744e-03 -6.2436408326758874e-01
    8.9161374454713605e-03 -5.9613077493654554e-01
    8.9846074530633788e-03 -5.8673869403846823e-01
    9.4743065453099518e-03 -5.3033008588991071e-01
    1.0278690384784706e-02 -4.6348119143587135e-01
    1.2253012202610618e-02 -3.6198685440029538e-01
    1.1984155173528285e-02 -3.7267799624996495e-01
    1.4515884963461761e-02 -2.9341560154802282e-01
    1.5676951314620838e-02 -2.6813322217994789e-01
    2.0888126981119113e-02 -1.9487094073848929e-01
    2.2809727833261375e-02 -1.7733172553297716e-01
    1.5058830696019394e-02 -2.8097574347450821e-01
    1.3603946141586640e-02 -3.1728715848517625e-01
    1.0910037997452176e-02 -4.2409446483998553e-01
    1.0736863958847565e-02 -4.3405736614121559e-01
    1.1736159455950702e-02 -3.8321423101595131e-01
    8.9161374454713605e-03 -5.9613077493654554e-01
    8.3446945648686134e-03 -7.0064904974537079e-01
    8.4273879030585599e-03 -6.8138514386924698e-01
    8.5675511793507821e-03 -6.5275336576821963e-01
    8.4273879030585599e-03 -6.8138514386924698e-01
    8.0173232084385336e-03 -8.1028739134066274e-01
    7.9284943457188454e-03 -8.6294892726269146e-01
    7.8483915065087392e-03 -9.6406004206474716e-01
    7.8642178469902971e-03 -9.2932037728458516e-01
    7.9021179115696498e-03 -8.8465173692938270e-01
    7.8908091843261346e-03 -8.9565495711116461e-01
    7.8908091843261346e-03 -8.9565495711116461e-01
    7.8577585293936776e-03 -9.4077493124783451e-01
    7.8437205395682861e-03 -1.0122703976826999e+00
    7.8483915065087392e-03 -9.6406004206474716e-01
    7.8807318969532324e-03 -9.0676470058236280e-01
    7.8454711746842858e-03 -1.0246950765959599e+00
    7.8437205395682861e-03 -1.0122703976826999e+00
    7.8437205395682861e-03 -9.8787833990721308e-01
    7.9146737758906856e-03 -8.7375102873476129e-01
    7.8807318969532324e-03 -9.0676470058236280e-01
    7.9146737758906856e-03 -8.7375102873476129e-01
    8.2023205596889175e-03 -7.3970927486462867e-01
    8.2698527430663648e-03 -7.2008229982309568e-01
    8.1137222679062513e-03 -7.6956676754440079e-01
    8.3850227144969345e-03 -6.9099745113674427e-01
    8.6728494526985955e-03 -6.3380549201580894e-01
    8.6728494526985955e-03 -6.3380549201580894e-01
    1.0278690384784706e-02 -4.6348119143587135e-01
    1.1095171738445696e-02 -4.1403933560541262e-01
    1.1984155173528285e-02 -3.7267799624996495e-01
    1.5058830696019394e-02 -2.8097574347450821e-01
    1.8205238588207225e-02 -2.2645540682891915e-01
    1.9400138097001748e-02 -2.1115394209236660e-01
    1.9400138097001748e-02 -2.1115394209236660e-01
    1.4515884963461761e-02 -2.9341560154802282e-01
    1.4034405489687355e-02 -3.0550504633038938e-01
    1.1984155173528285e-02 -3.7267799624996495e-01
    1.1293542571132908e-02 -4.0388187304691775e-01
    1.0422099084564212e-02 -4.5374260648651510e-01
    8.9161374454713605e-03 -5.9613077493654554e-01
    8.1711467869087385e-03 -7.4960306956732903e-01
    8.0392156862745100e-03 -8.0000000000000004e-01
    8.1137222679062513e-03 -7.6956676754440079e-01
    8.0173232084385336e-03 -8.1028739134066274e-01
    7.8483915065087392e-03 -9.6406004206474716e-01
    7.8642178469902971e-03 -9.2932037728458516e-01
    7.8807318969532324e-03 -9.0676470058236280e-01
    7.9435991305026200e-03 -8.5224162622679023e-01
    7.9777495682680187e-03 -8.3109665471865302e-01
    7.8807318969532324e-03 -9.0676470058236280e-01
    7.8524854551865406e-03 -9.5235326648573349e-01
    7.8807318969532324e-03 -9.0676470058236280e-01
    7.8807318969532324e-03 -9.0676470058236280e-01
    7.9777495682680187e-03 -8.3109665471865302e-01
    7.8431372549019607e-03 -1. 7.8454711746842858e-03
    -1.0246950765959599e+00 7.8524854551865406e-03
    -9.5235326648573349e-01 7.9435991305026200e-03
    -8.5224162622679023e-01 7.8577585293936776e-03
    -9.4077493124783451e-01 7.8908091843261346e-03
    -8.9565495711116461e-01 8.0625552920859239e-03
    -7.8978628516683147e-01 8.0392156862745100e-03
    -8.0000000000000004e-01 8.0173232084385336e-03
    -8.1028739134066274e-01 8.1137222679062513e-03
    -7.6956676754440079e-01 8.0173232084385336e-03
    -8.1028739134066274e-01 8.0392156862745100e-03
    -8.0000000000000004e-01 8.6728494526985955e-03
    -6.3380549201580894e-01 9.3821191727056618e-03
    -5.3975789264925567e-01 1.0736863958847565e-02
    -4.3405736614121559e-01 1.0736863958847565e-02
    -4.3405736614121559e-01 1.4034405489687355e-02
    -3.0550504633038938e-01 1.6388654783484429e-02
    -2.5482359571881275e-01 2.0888126981119113e-02
    -1.9487094073848929e-01 2.0888126981119113e-02
    -1.9487094073848929e-01 1.4515884963461761e-02
    -2.9341560154802282e-01 1.3603946141586640e-02
    -3.1728715848517625e-01 1.1506630174723545e-02
    -3.9361094683048226e-01 9.7816259160534037e-03
    -5.0190476880237433e-01 8.7293870124368744e-03
    -6.2436408326758874e-01 8.4273879030585599e-03
    -6.8138514386924698e-01 8.2023205596889175e-03
    -7.3970927486462867e-01 7.9435991305026200e-03
    -8.5224162622679023e-01 7.9968446993653915e-03
    -8.2065180664828985e-01 7.9435991305026200e-03
    -8.5224162622679023e-01 7.8718721618341297e-03
    -9.1798509204315681e-01 7.8807318969532324e-03
    -9.0676470058236280e-01 7.8642178469902971e-03
    -9.2932037728458516e-01 7.8908091843261346e-03
    -8.9565495711116461e-01 7.8437205395682861e-03
    -9.8787833990721308e-01 7.8718721618341297e-03
    -9.1798509204315681e-01 7.8642178469902971e-03
    -9.2932037728458516e-01 8.0625552920859239e-03
    -7.8978628516683147e-01 7.9021179115696498e-03
    -8.8465173692938270e-01 7.8483915065087392e-03
    -9.6406004206474716e-01 7.8437205395682861e-03
    -1.0122703976826999e+00 7.8524854551865406e-03
    -1.0500305245868344e+00 7.8577585293936776e-03
    -9.4077493124783451e-01 7.8437205395682861e-03
    -9.8787833990721308e-01 7.8431372549019607e-03 -1.
    7.9435991305026200e-03 -8.5224162622679023e-01
    7.8524854551865406e-03 -9.5235326648573349e-01
    7.8524854551865406e-03 -9.5235326648573349e-01
    7.9146737758906856e-03 -8.7375102873476129e-01
    7.9021179115696498e-03 -8.8465173692938270e-01
    7.9600096592242452e-03 -8.4162541153017323e-01
    8.0392156862745100e-03 -8.0000000000000004e-01
    8.2698527430663648e-03 -7.2008229982309568e-01
    8.6728494526985955e-03 -6.3380549201580894e-01
    9.2945120916310894e-03 -5.4916964736527596e-01
    1.0278690384784706e-02 -4.6348119143587135e-01
    1.2865318419080876e-02 -3.4006802040680245e-01
    1.4515884963461761e-02 -2.9341560154802282e-01
    1.7219342475818276e-02 -2.4096579867074966e-01
    1.8205238588207225e-02 -2.2645540682891915e-01
    1.3603946141586640e-02 -3.1728715848517625e-01
    1.2545587019715957e-02 -3.5112344158839170e-01
    1.0278690384784706e-02 -4.6348119143587135e-01
    8.5185610415163589e-03 -6.6226617853252190e-01
    8.4718714606604739e-03 -6.7180907527981382e-01
    8.6189439075195270e-03 -6.4326752090267691e-01
    8.3446945648686134e-03 -7.0064904974537079e-01
    8.1711467869087385e-03 -7.4960306956732903e-01
    7.8908091843261346e-03 -8.9565495711116461e-01
    7.8454711746842858e-03 -1.0246950765959599e+00
    7.8524854551865406e-03 -9.5235326648573349e-01
    7.8807318969532324e-03 -9.0676470058236280e-01
    7.8454711746842858e-03 -9.7590007294853309e-01
    7.8437205395682861e-03 -9.8787833990721308e-01
    7.8454711746842858e-03 -1.0246950765959599e+00
    7.8454711746842858e-03 -1.0246950765959599e+00
    7.9146737758906856e-03 -8.7375102873476129e-01
    8.0173232084385336e-03 -8.1028739134066274e-01
    7.8577585293936776e-03 -9.4077493124783451e-01
    7.8454711746842858e-03 -9.7590007294853309e-01
    7.8524854551865406e-03 -9.5235326648573349e-01
    7.8718721618341297e-03 -1.0893423092245460e+00
    7.8431372549019607e-03 -1. 7.8431372549019607e-03 -1.
    7.8454711746842858e-03 -1.0246950765959599e+00
    7.8431372549019607e-03 -1. 7.9435991305026217e-03
    -1.1733761520513781e+00 7.8483915065087392e-03
    -1.0372797920949812e+00 7.8807318969532341e-03
    -1.1028219331407116e+00 7.8577585293936776e-03
    -9.4077493124783451e-01 7.9777495682680187e-03
    -8.3109665471865302e-01 7.9777495682680187e-03
    -8.3109665471865302e-01 8.0625552920859239e-03
    -7.8978628516683147e-01 8.2698527430663648e-03
    -7.2008229982309568e-01 8.7886856285809920e-03
    -6.1494004626809073e-01 9.8955904512796899e-03
    -4.9236596391733095e-01 1.1736159455950702e-02
    -3.8321423101595131e-01 1.2545587019715957e-02
    -3.5112344158839170e-01 1.4515884963461761e-02
    -2.9341560154802282e-01 2.2809727833261375e-02
    -1.7733172553297716e-01 1.3603946141586640e-02
    -3.1728715848517625e-01 1.1736159455950702e-02
    -3.8321423101595131e-01 8.9161374454713605e-03
    -5.9613077493654554e-01 8.2698527430663648e-03
    -7.2008229982309568e-01 8.5675511793507821e-03
    -6.5275336576821963e-01 8.6189439075195270e-03
    -6.4326752090267691e-01 8.1416302059667319e-03
    -7.5955452531275003e-01 8.0173232084385336e-03
    -8.1028739134066274e-01 7.9021179115696498e-03
    -8.8465173692938270e-01 7.8454711746842858e-03
    -9.7590007294853309e-01 7.8483915065087392e-03
    -9.6406004206474716e-01 7.8807318969532324e-03
    -9.0676470058236280e-01 7.9284943457188454e-03
    -8.6294892726269146e-01 7.8437205395682861e-03
    -9.8787833990721308e-01 7.8642178469902971e-03
    -1.0760551736979407e+00 7.8431372549019607e-03 -1.
    7.9146737758906856e-03 -8.7375102873476129e-01
    7.8718721618341297e-03 -9.1798509204315681e-01
    7.8437205395682861e-03 -1.0122703976826999e+00
    7.8524854551865406e-03 -9.5235326648573349e-01
    7.8718721618341297e-03 -9.1798509204315681e-01
    7.8718721618341297e-03 -9.1798509204315681e-01
    7.8454711746842858e-03 -9.7590007294853309e-01
    7.8524854551865406e-03 -9.5235326648573349e-01
    7.8454711746842858e-03 -9.7590007294853309e-01
    7.8642178469902971e-03 -1.0760551736979407e+00
    7.9968446993653915e-03 -1.2185435916898850e+00
    8.0173232084385353e-03 -1.2341300268111637e+00
    7.9435991305026217e-03 -1.1733761520513781e+00
    7.8642178469902971e-03 -1.0760551736979407e+00
    7.8807318969532324e-03 -9.0676470058236280e-01
    7.8577585293936776e-03 -9.4077493124783451e-01
    7.9021179115696498e-03 -8.8465173692938270e-01
    7.9777495682680187e-03 -8.3109665471865302e-01
    8.3446945648686134e-03 -7.0064904974537079e-01
    9.2945120916310894e-03 -5.4916964736527596e-01
    1.0278690384784706e-02 -4.6348119143587135e-01
    1.3603946141586640e-02 -3.1728715848517625e-01
    1.4515884963461761e-02 -2.9341560154802282e-01
    1.9400138097001748e-02 -2.1115394209236660e-01
    1.3603946141586640e-02 -3.1728715848517625e-01
    1.0736863958847565e-02 -4.3405736614121559e-01
    8.9161374454713605e-03 -5.9613077493654554e-01
    8.2023205596889175e-03 -7.3970927486462867e-01
    8.0873779011537764e-03 -7.7964295498317815e-01
    7.9968446993653915e-03 -8.2065180664828985e-01
    8.1416302059667319e-03 -7.5955452531275003e-01
    7.9146737758906856e-03 -8.7375102873476129e-01
    7.8483915065087392e-03 -9.6406004206474716e-01
    7.8908091843261346e-03 -8.9565495711116461e-01
    7.8437205395682861e-03 -1.0122703976826999e+00
    7.8524854551865406e-03 -9.5235326648573349e-01
    7.8437205395682861e-03 -9.8787833990721308e-01
    7.8807318969532341e-03 -1.1028219331407116e+00
    7.8577585293936776e-03 -1.0629534937475533e+00
    7.8483915065087392e-03 -9.6406004206474716e-01
    7.8454711746842858e-03 -9.7590007294853309e-01
    7.8437205395682861e-03 -9.8787833990721308e-01
    7.8454711746842858e-03 -9.7590007294853309e-01
    7.8524854551865406e-03 -9.5235326648573349e-01
    7.8642178469902971e-03 -9.2932037728458516e-01
    7.8642178469902971e-03 -9.2932037728458516e-01
    7.8437205395682861e-03 -1.0122703976826999e+00
    7.8437205395682861e-03 -1.0122703976826999e+00
    7.8483915065087392e-03 -1.0372797920949812e+00
    8.1711467869087367e-03 -1.3340393610943988e+00
    8.1416302059667319e-03 -1.3165611772087666e+00
    8.1137222679062513e-03 -1.2994324107716932e+00
    7.8524854551865406e-03 -1.0500305245868344e+00
    7.8483915065087392e-03 -1.0372797920949812e+00
    7.8483915065087392e-03 -9.6406004206474716e-01
    7.8524854551865406e-03 -9.5235326648573349e-01
    7.8437205395682861e-03 -9.8787833990721308e-01
    7.9284943457188454e-03 -8.6294892726269146e-01
    8.3063279498512659e-03 -7.1034298473575608e-01
    8.8508851706236829e-03 -6.0553007081949839e-01
    1.0143565573700776e-02 -4.7316022340738378e-01
    1.3216389175528722e-02 -3.2879797461071458e-01
    1.6388654783484429e-02 -2.5482359571881275e-01
    1.7219342475818276e-02 -2.4096579867074966e-01
    1.1736159455950702e-02 -3.8321423101595131e-01
    9.1319353741684938e-03 -5.6796183424706481e-01
    8.6189439075195270e-03 -6.4326752090267691e-01
    8.0625552920859239e-03 -7.8978628516683147e-01
    7.9600096592242452e-03 -8.4162541153017323e-01
    7.9777495682680187e-03 -8.3109665471865302e-01
    7.8908091843261346e-03 -8.9565495711116461e-01
    7.8524854551865406e-03 -9.5235326648573349e-01
    7.8642178469902971e-03 -9.2932037728458516e-01
    7.8437205395682861e-03 -9.8787833990721308e-01
    7.8437205395682861e-03 -9.8787833990721308e-01
    7.8642178469902971e-03 -1.0760551736979407e+00
    7.8483915065087392e-03 -1.0372797920949812e+00
    7.8454711746842858e-03 -9.7590007294853309e-01
    7.8437205395682861e-03 -9.8787833990721308e-01
    7.8577585293936776e-03 -9.4077493124783451e-01
    7.8577585293936776e-03 -9.4077493124783451e-01
    7.8431372549019607e-03 -1. 7.8483915065087392e-03
    -9.6406004206474716e-01 7.8483915065087392e-03
    -9.6406004206474716e-01 7.8807318969532324e-03
    -9.0676470058236280e-01 7.8807318969532324e-03
    -9.0676470058236280e-01 7.8807318969532341e-03
    -1.1028219331407116e+00 7.8807318969532341e-03
    -1.1028219331407116e+00 7.9777495682680187e-03
    -1.2032294851896916e+00 8.1711467869087367e-03
    -1.3340393610943988e+00 8.0392156862745100e-03
    -1.2500000000000002e+00 7.9968446993653915e-03
    -1.2185435916898850e+00 7.9284943457188454e-03
    -1.1588171308956141e+00 7.8642178469902971e-03
    -1.0760551736979407e+00 7.8577585293936776e-03
    -1.0629534937475533e+00 7.8908091843261346e-03
    -8.9565495711116461e-01 8.0625552920859239e-03
    -7.8978628516683147e-01 7.9146737758906856e-03
    -8.7375102873476129e-01 8.1416302059667319e-03
    -7.5955452531275003e-01 8.9846074530633788e-03
    -5.8673869403846823e-01 9.8955904512796899e-03
    -4.9236596391733095e-01 1.0143565573700776e-02
    -4.7316022340738378e-01 1.4515884963461761e-02
    -2.9341560154802282e-01 1.2545587019715957e-02
    -3.5112344158839170e-01 1.0736863958847565e-02
    -4.3405736614121559e-01 9.2112030856836870e-03
    -5.5856960175075776e-01 8.4273879030585599e-03
    -6.8138514386924698e-01 7.8908091843261346e-03
    -8.9565495711116461e-01 7.9777495682680187e-03
    -8.3109665471865302e-01 7.8642178469902971e-03
    -9.2932037728458516e-01 7.8437205395682861e-03
    -9.8787833990721308e-01 7.8524854551865406e-03
    -9.5235326648573349e-01 7.8577585293936776e-03
    -9.4077493124783451e-01 7.8437205395682861e-03
    -1.0122703976826999e+00 7.8483915065087392e-03
    -1.0372797920949812e+00 7.8718721618341297e-03
    -1.0893423092245460e+00 7.9021179115696498e-03
    -1.1303883305208779e+00 7.8431372549019607e-03 -1.
    7.9021179115696498e-03 -8.8465173692938270e-01
    7.8577585293936776e-03 -9.4077493124783451e-01
    7.8807318969532324e-03 -9.0676470058236280e-01
    7.8483915065087392e-03 -9.6406004206474716e-01
    7.8577585293936776e-03 -9.4077493124783451e-01
    7.9284943457188454e-03 -8.6294892726269146e-01
    7.9284943457188454e-03 -8.6294892726269146e-01
    7.8437205395682861e-03 -9.8787833990721308e-01
    7.8483915065087392e-03 -1.0372797920949812e+00
    7.8437205395682861e-03 -1.0122703976826999e+00
    8.0392156862745100e-03 -1.2500000000000002e+00
    7.9968446993653915e-03 -1.2185435916898850e+00
    7.8908091843261346e-03 -1.1165013848919998e+00
    7.9435991305026217e-03 -1.1733761520513781e+00
    7.9600096592242452e-03 -1.1881770515720094e+00
    8.0625552920859239e-03 -1.2661653143150791e+00
    7.8807318969532341e-03 -1.1028219331407116e+00
    7.8431372549019607e-03 -1. 7.9146737758906856e-03
    -8.7375102873476129e-01 7.9600096592242452e-03
    -8.4162541153017323e-01 7.9777495682680187e-03
    -8.3109665471865302e-01 8.3850227144969345e-03
    -6.9099745113674427e-01 9.2945120916310894e-03
    -5.4916964736527596e-01 1.0016061908453479e-02
    -4.8278639869710216e-01 1.2545587019715957e-02
    -3.5112344158839170e-01 1.2545587019715957e-02
    -3.5112344158839170e-01 1.0422099084564212e-02
    -4.5374260648651510e-01 8.5185610415163589e-03
    -6.6226617853252190e-01 8.2698527430663648e-03
    -7.2008229982309568e-01 7.8524854551865406e-03
    -9.5235326648573349e-01 7.8807318969532324e-03
    -9.0676470058236280e-01 7.8454711746842858e-03
    -9.7590007294853309e-01 7.8642178469902971e-03
    -1.0760551736979407e+00 7.8642178469902971e-03
    -1.0760551736979407e+00 7.8577585293936776e-03
    -9.4077493124783451e-01 7.8437205395682861e-03
    -9.8787833990721308e-01 7.8431372549019607e-03 -1.
    7.8524854551865406e-03 -1.0500305245868344e+00
    7.8454711746842858e-03 -9.7590007294853309e-01
    7.8437205395682861e-03 -9.8787833990721308e-01
    7.8642178469902971e-03 -9.2932037728458516e-01
    7.8718721618341297e-03 -9.1798509204315681e-01
    7.9435991305026200e-03 -8.5224162622679023e-01
    7.8642178469902971e-03 -9.2932037728458516e-01
    7.8524854551865406e-03 -9.5235326648573349e-01
    7.9021179115696498e-03 -8.8465173692938270e-01
    7.9146737758906856e-03 -8.7375102873476129e-01
    7.8577585293936776e-03 -9.4077493124783451e-01
    7.8437205395682861e-03 -1.0122703976826999e+00
    7.8718721618341297e-03 -1.0893423092245460e+00
    7.8718721618341297e-03 -1.0893423092245460e+00
    7.9600096592242452e-03 -1.1881770515720094e+00
    7.9777495682680187e-03 -1.2032294851896916e+00
    7.8483915065087392e-03 -1.0372797920949812e+00
    7.9600096592242452e-03 -1.1881770515720094e+00
    7.9435991305026217e-03 -1.1733761520513781e+00
    7.9021179115696498e-03 -1.1303883305208779e+00
    7.8524854551865406e-03 -1.0500305245868344e+00
    7.8577585293936776e-03 -9.4077493124783451e-01
    7.9146737758906856e-03 -8.7375102873476129e-01
    7.9435991305026200e-03 -8.5224162622679023e-01
    8.1711467869087385e-03 -7.4960306956732903e-01
    8.5185610415163589e-03 -6.6226617853252190e-01
    9.3821191727056618e-03 -5.3975789264925567e-01
    1.1506630174723545e-02 -3.9361094683048226e-01
    1.4515884963461761e-02 -2.9341560154802282e-01
    9.4743065453099518e-03 -5.3033008588991071e-01
    8.7886856285809920e-03 -6.1494004626809073e-01
    8.2698527430663648e-03 -7.2008229982309568e-01
    7.9284943457188454e-03 -8.6294892726269146e-01
    7.8908091843261346e-03 -8.9565495711116461e-01
    7.8524854551865406e-03 -9.5235326648573349e-01
    7.8718721618341297e-03 -1.0893423092245460e+00
    7.9146737758906838e-03 -1.1444907841173630e+00
    7.8642178469902971e-03 -1.0760551736979407e+00
    7.8807318969532341e-03 -1.1028219331407116e+00
    7.8577585293936776e-03 -1.0629534937475533e+00
    7.8454711746842858e-03 -9.7590007294853309e-01
    7.8483915065087392e-03 -1.0372797920949812e+00
    7.8483915065087392e-03 -9.6406004206474716e-01
    7.8807318969532324e-03 -9.0676470058236280e-01
    7.8908091843261346e-03 -8.9565495711116461e-01
    7.9600096592242452e-03 -8.4162541153017323e-01
    7.9284943457188454e-03 -8.6294892726269146e-01
    7.9284943457188454e-03 -8.6294892726269146e-01
    7.9284943457188454e-03 -8.6294892726269146e-01
    7.8807318969532324e-03 -9.0676470058236280e-01
    7.8807318969532324e-03 -9.0676470058236280e-01
    7.8454711746842858e-03 -9.7590007294853309e-01
    7.8431372549019607e-03 -1. 7.8437205395682861e-03
    -1.0122703976826999e+00 7.8437205395682861e-03
    -9.8787833990721308e-01 7.8807318969532341e-03
    -1.1028219331407116e+00 7.9600096592242452e-03
    -1.1881770515720094e+00 8.0173232084385353e-03
    -1.2341300268111637e+00 7.8807318969532341e-03
    -1.1028219331407116e+00 7.8807318969532341e-03
    -1.1028219331407116e+00 7.8577585293936776e-03
    -1.0629534937475533e+00 7.8454711746842858e-03
    -9.7590007294853309e-01 7.9284943457188454e-03
    -8.6294892726269146e-01 7.8908091843261346e-03
    -8.9565495711116461e-01 7.9600096592242452e-03
    -8.4162541153017323e-01 8.5185610415163589e-03
    -6.6226617853252190e-01 9.2945120916310894e-03
    -5.4916964736527596e-01 1.0422099084564212e-02
    -4.5374260648651510e-01 1.2253012202610618e-02
    -3.6198685440029538e-01 9.4743065453099518e-03
    -5.3033008588991071e-01 8.9846074530633788e-03
    -5.8673869403846823e-01 8.0873779011537764e-03
    -7.7964295498317815e-01 7.8642178469902971e-03
    -9.2932037728458516e-01 7.8718721618341297e-03
    -9.1798509204315681e-01 7.8807318969532324e-03
    -9.0676470058236280e-01 7.8437205395682861e-03
    -9.8787833990721308e-01 7.8483915065087392e-03
    -1.0372797920949812e+00 7.8454711746842858e-03
    -1.0246950765959599e+00 7.9284943457188454e-03
    -1.1588171308956141e+00 7.9021179115696498e-03
    -1.1303883305208779e+00 7.8577585293936776e-03
    -1.0629534937475533e+00 7.8454711746842858e-03
    -1.0246950765959599e+00 7.8483915065087392e-03
    -1.0372797920949812e+00 7.8908091843261346e-03
    -8.9565495711116461e-01 7.8908091843261346e-03
    -8.9565495711116461e-01 7.9284943457188454e-03
    -8.6294892726269146e-01 7.9146737758906856e-03
    -8.7375102873476129e-01 7.8718721618341297e-03
    -9.1798509204315681e-01 7.9146737758906856e-03
    -8.7375102873476129e-01 7.9600096592242452e-03
    -8.4162541153017323e-01 7.8483915065087392e-03
    -9.6406004206474716e-01 7.8437205395682861e-03
    -1.0122703976826999e+00 7.8437205395682861e-03
    -1.0122703976826999e+00 7.8454711746842858e-03
    -9.7590007294853309e-01 7.8454711746842858e-03
    -9.7590007294853309e-01 7.8524854551865406e-03
    -1.0500305245868344e+00 7.9777495682680187e-03
    -1.2032294851896916e+00 7.9284943457188454e-03
    -1.1588171308956141e+00 8.0392156862745100e-03
    -1.2500000000000002e+00 8.0625552920859239e-03
    -1.2661653143150791e+00 7.9435991305026217e-03
    -1.1733761520513781e+00 7.8807318969532341e-03
    -1.1028219331407116e+00 7.8483915065087392e-03
    -1.0372797920949812e+00 7.8642178469902971e-03
    -9.2932037728458516e-01 7.8642178469902971e-03
    -9.2932037728458516e-01 8.3063279498512659e-03
    -7.1034298473575608e-01 9.8955904512796899e-03
    -4.9236596391733095e-01 1.1095171738445696e-02
    -4.1403933560541262e-01 1.1984155173528285e-02
    -3.7267799624996495e-01 1.0278690384784706e-02
    -4.6348119143587135e-01 8.6728494526985955e-03
    -6.3380549201580894e-01 8.3850227144969345e-03
    -6.9099745113674427e-01 8.0625552920859239e-03
    -7.8978628516683147e-01 7.9777495682680187e-03
    -8.3109665471865302e-01 7.8577585293936776e-03
    -9.4077493124783451e-01 7.8908091843261346e-03
    -8.9565495711116461e-01 7.8454711746842858e-03
    -1.0246950765959599e+00 7.8437205395682861e-03
    -9.8787833990721308e-01 7.8454711746842858e-03
    -1.0246950765959599e+00 7.9600096592242452e-03
    -1.1881770515720094e+00 7.8807318969532341e-03
    -1.1028219331407116e+00 7.8483915065087392e-03
    -1.0372797920949812e+00 7.8437205395682861e-03
    -1.0122703976826999e+00 7.8524854551865406e-03
    -9.5235326648573349e-01 7.8577585293936776e-03
    -9.4077493124783451e-01 7.8524854551865406e-03
    -9.5235326648573349e-01 7.9021179115696498e-03
    -8.8465173692938270e-01 7.8807318969532324e-03
    -9.0676470058236280e-01 7.8483915065087392e-03
    -9.6406004206474716e-01 7.8718721618341297e-03
    -9.1798509204315681e-01 7.8577585293936776e-03
    -9.4077493124783451e-01 7.8437205395682861e-03
    -9.8787833990721308e-01 7.8524854551865406e-03
    -9.5235326648573349e-01 7.9284943457188454e-03
    -8.6294892726269146e-01 7.8718721618341297e-03
    -9.1798509204315681e-01 7.8483915065087392e-03
    -9.6406004206474716e-01 7.8431372549019607e-03 -1.
    7.8483915065087392e-03 -1.0372797920949812e+00
    7.8908091843261346e-03 -1.1165013848919998e+00
    7.8807318969532341e-03 -1.1028219331407116e+00
    7.9777495682680187e-03 -1.2032294851896916e+00
    7.8908091843261346e-03 -1.1165013848919998e+00
    7.8437205395682861e-03 -9.8787833990721308e-01
    7.8483915065087392e-03 -1.0372797920949812e+00
    7.8718721618341297e-03 -9.1798509204315681e-01
    8.2023205596889175e-03 -7.3970927486462867e-01
    9.8955904512796899e-03 -4.9236596391733095e-01
    1.0016061908453479e-02 -4.8278639869710216e-01
    1.1984155173528285e-02 -3.7267799624996495e-01
    9.8955904512796899e-03 -4.9236596391733095e-01
    8.8508851706236829e-03 -6.0553007081949839e-01
    8.1711467869087385e-03 -7.4960306956732903e-01
    8.0173232084385336e-03 -8.1028739134066274e-01
    7.9284943457188454e-03 -8.6294892726269146e-01
    7.8718721618341297e-03 -9.1798509204315681e-01
    7.8431372549019607e-03 -1. 7.8454711746842858e-03
    -9.7590007294853309e-01 7.8437205395682861e-03
    -1.0122703976826999e+00 7.9021179115696498e-03
    -1.1303883305208779e+00 7.9435991305026217e-03
    -1.1733761520513781e+00 7.9435991305026217e-03
    -1.1733761520513781e+00 7.8577585293936776e-03
    -1.0629534937475533e+00 7.8718721618341297e-03
    -1.0893423092245460e+00 7.8437205395682861e-03
    -9.8787833990721308e-01 7.8577585293936776e-03
    -9.4077493124783451e-01 7.8807318969532324e-03
    -9.0676470058236280e-01 7.8437205395682861e-03
    -1.0122703976826999e+00 7.8454711746842858e-03
    -1.0246950765959599e+00 7.8454711746842858e-03
    -9.7590007294853309e-01 7.8718721618341297e-03
    -9.1798509204315681e-01 7.8718721618341297e-03
    -9.1798509204315681e-01 7.8524854551865406e-03
    -9.5235326648573349e-01 7.8524854551865406e-03
    -9.5235326648573349e-01 7.8642178469902971e-03
    -9.2932037728458516e-01 7.8437205395682861e-03
    -9.8787833990721308e-01 7.8454711746842858e-03
    -1.0246950765959599e+00 7.8483915065087392e-03
    -1.0372797920949812e+00 7.9777495682680187e-03
    -1.2032294851896916e+00 7.9021179115696498e-03
    -1.1303883305208779e+00 7.8807318969532341e-03
    -1.1028219331407116e+00 7.9435991305026217e-03
    -1.1733761520513781e+00 7.8577585293936776e-03
    -1.0629534937475533e+00 7.8454711746842858e-03
    -9.7590007294853309e-01 7.8454711746842858e-03
    -1.0246950765959599e+00 7.8524854551865406e-03
    -9.5235326648573349e-01 8.1137222679062513e-03
    -7.6956676754440079e-01 9.7816259160534037e-03
    -5.0190476880237433e-01 1.0278690384784706e-02
    -4.6348119143587135e-01 1.3216389175528722e-02
    -3.2879797461071458e-01 1.0143565573700776e-02
    -4.7316022340738378e-01 8.5675511793507821e-03
    -6.5275336576821963e-01 8.0392156862745100e-03
    -8.0000000000000004e-01 8.0873779011537764e-03
    -7.7964295498317815e-01 7.9777495682680187e-03
    -8.3109665471865302e-01 7.9146737758906856e-03
    -8.7375102873476129e-01 7.8524854551865406e-03
    -9.5235326648573349e-01 7.8524854551865406e-03
    -1.0500305245868344e+00 7.8577585293936776e-03
    -1.0629534937475533e+00 7.9777495682680187e-03
    -1.2032294851896916e+00 7.9777495682680187e-03
    -1.2032294851896916e+00 7.8577585293936776e-03
    -1.0629534937475533e+00 7.8577585293936776e-03
    -1.0629534937475533e+00 7.8807318969532341e-03
    -1.1028219331407116e+00 7.8454711746842858e-03
    -9.7590007294853309e-01 7.8483915065087392e-03
    -9.6406004206474716e-01 7.8642178469902971e-03
    -9.2932037728458516e-01 7.8524854551865406e-03
    -9.5235326648573349e-01 7.9146737758906838e-03
    -1.1444907841173630e+00 7.9435991305026217e-03
    -1.1733761520513781e+00 7.8642178469902971e-03
    -9.2932037728458516e-01 7.9435991305026200e-03
    -8.5224162622679023e-01 7.8483915065087392e-03
    -9.6406004206474716e-01 7.8642178469902971e-03
    -9.2932037728458516e-01 7.8437205395682861e-03
    -1.0122703976826999e+00 7.8577585293936776e-03
    -1.0629534937475533e+00 7.8642178469902971e-03
    -1.0760551736979407e+00 7.8524854551865406e-03
    -1.0500305245868344e+00 7.8577585293936776e-03
    -1.0629534937475533e+00 7.9600096592242452e-03
    -1.1881770515720094e+00 7.8908091843261346e-03
    -1.1165013848919998e+00 7.8807318969532341e-03
    -1.1028219331407116e+00 7.8908091843261346e-03
    -1.1165013848919998e+00 7.8483915065087392e-03
    -1.0372797920949812e+00 7.8437205395682861e-03
    -9.8787833990721308e-01 7.8483915065087392e-03
    -9.6406004206474716e-01 8.0173232084385336e-03
    -8.1028739134066274e-01 9.2112030856836870e-03
    -5.5856960175075776e-01 1.0143565573700776e-02
    -4.7316022340738378e-01 1.3216389175528722e-02
    -3.2879797461071458e-01 1.0736863958847565e-02
    -4.3405736614121559e-01 8.7293870124368744e-03
    -6.2436408326758874e-01 8.2352037929966978e-03
    -7.2987004348296947e-01 7.9600096592242452e-03
    -8.4162541153017323e-01 7.9146737758906856e-03
    -8.7375102873476129e-01 7.9284943457188454e-03
    -8.6294892726269146e-01 7.8908091843261346e-03
    -8.9565495711116461e-01 7.8642178469902971e-03
    -9.2932037728458516e-01 7.8454711746842858e-03
    -1.0246950765959599e+00 7.8437205395682861e-03
    -9.8787833990721308e-01 7.8454711746842858e-03
    -9.7590007294853309e-01 7.8454711746842858e-03
    -1.0246950765959599e+00 7.8577585293936776e-03
    -1.0629534937475533e+00 7.8483915065087392e-03
    -1.0372797920949812e+00 7.8908091843261346e-03
    -8.9565495711116461e-01 7.9021179115696498e-03
    -8.8465173692938270e-01 7.9021179115696498e-03
    -8.8465173692938270e-01 7.8908091843261346e-03
    -8.9565495711116461e-01 7.8431372549019607e-03 -1.
    7.8718721618341297e-03 -1.0893423092245460e+00
    7.8483915065087392e-03 -9.6406004206474716e-01
    7.9777495682680187e-03 -8.3109665471865302e-01
    7.9146737758906856e-03 -8.7375102873476129e-01
    7.9435991305026200e-03 -8.5224162622679023e-01
    7.8524854551865406e-03 -9.5235326648573349e-01
    7.8642178469902971e-03 -9.2932037728458516e-01
    7.8577585293936776e-03 -9.4077493124783451e-01
    7.8437205395682861e-03 -1.0122703976826999e+00
    7.8431372549019607e-03 -1. 7.8577585293936776e-03
    -1.0629534937475533e+00 7.8454711746842858e-03
    -1.0246950765959599e+00 7.8524854551865406e-03
    -9.5235326648573349e-01 7.8437205395682861e-03
    -1.0122703976826999e+00 7.9435991305026200e-03
    -8.5224162622679023e-01 7.9146737758906856e-03
    -8.7375102873476129e-01 7.8908091843261346e-03
    -8.9565495711116461e-01 8.1711467869087385e-03
    -7.4960306956732903e-01 8.7886856285809920e-03
    -6.1494004626809073e-01 1.0910037997452176e-02
    -4.2409446483998553e-01 1.4515884963461761e-02
    -2.9341560154802282e-01 1.0910037997452176e-02
    -4.2409446483998553e-01 9.1319353741684938e-03
    -5.6796183424706481e-01 8.2352037929966978e-03
    -7.2987004348296947e-01 8.0873779011537764e-03
    -7.7964295498317815e-01 8.0173232084385336e-03
    -8.1028739134066274e-01 7.8908091843261346e-03
    -8.9565495711116461e-01 7.9146737758906856e-03
    -8.7375102873476129e-01 7.8454711746842858e-03
    -9.7590007294853309e-01 7.8483915065087392e-03
    -9.6406004206474716e-01 7.8454711746842858e-03
    -9.7590007294853309e-01 7.8437205395682861e-03
    -9.8787833990721308e-01 7.8524854551865406e-03
    -1.0500305245868344e+00 7.8908091843261346e-03
    -8.9565495711116461e-01 7.8642178469902971e-03
    -1.0760551736979407e+00 7.8524854551865406e-03
    -9.5235326648573349e-01 7.8577585293936776e-03
    -9.4077493124783451e-01 7.8908091843261346e-03
    -8.9565495711116461e-01 7.9021179115696498e-03
    -8.8465173692938270e-01 7.8524854551865406e-03
    -9.5235326648573349e-01 7.8718721618341297e-03
    -9.1798509204315681e-01 7.9777495682680187e-03
    -8.3109665471865302e-01 7.8807318969532324e-03
    -9.0676470058236280e-01 7.9146737758906856e-03
    -8.7375102873476129e-01 7.9435991305026200e-03
    -8.5224162622679023e-01 7.8483915065087392e-03
    -9.6406004206474716e-01 7.8437205395682861e-03
    -1.0122703976826999e+00 7.8807318969532324e-03
    -9.0676470058236280e-01 7.8431372549019607e-03 -1.
    7.8524854551865406e-03 -9.5235326648573349e-01
    7.9777495682680187e-03 -8.3109665471865302e-01
    7.8642178469902971e-03 -9.2932037728458516e-01
    7.8642178469902971e-03 -9.2932037728458516e-01
    7.8483915065087392e-03 -9.6406004206474716e-01
    7.9146737758906856e-03 -8.7375102873476129e-01
    7.9146737758906856e-03 -8.7375102873476129e-01
    7.8807318969532324e-03 -9.0676470058236280e-01
    8.0625552920859239e-03 -7.8978628516683147e-01
    8.6728494526985955e-03 -6.3380549201580894e-01
    1.0422099084564212e-02 -4.5374260648651510e-01
    1.5058830696019394e-02 -2.8097574347450821e-01
    1.1293542571132908e-02 -4.0388187304691775e-01
    9.2945120916310894e-03 -5.4916964736527596e-01
    8.4273879030585599e-03 -6.8138514386924698e-01
    8.3446945648686134e-03 -7.0064904974537079e-01
    8.0873779011537764e-03 -7.7964295498317815e-01
    7.9968446993653915e-03 -8.2065180664828985e-01
    7.8642178469902971e-03 -9.2932037728458516e-01
    7.8577585293936776e-03 -9.4077493124783451e-01
    7.8454711746842858e-03 -1.0246950765959599e+00
    7.8807318969532324e-03 -9.0676470058236280e-01
    7.8483915065087392e-03 -9.6406004206474716e-01
    7.8437205395682861e-03 -9.8787833990721308e-01
    7.8437205395682861e-03 -1.0122703976826999e+00
    7.8524854551865406e-03 -9.5235326648573349e-01
    7.8524854551865406e-03 -9.5235326648573349e-01
    7.8577585293936776e-03 -9.4077493124783451e-01
    7.8642178469902971e-03 -9.2932037728458516e-01
    7.8483915065087392e-03 -9.6406004206474716e-01
    7.8718721618341297e-03 -9.1798509204315681e-01
    7.8524854551865406e-03 -9.5235326648573349e-01
    7.9146737758906856e-03 -8.7375102873476129e-01
    7.9146737758906856e-03 -8.7375102873476129e-01
    7.8577585293936776e-03 -9.4077493124783451e-01
    7.8642178469902971e-03 -9.2932037728458516e-01
    7.8642178469902971e-03 -9.2932037728458516e-01
    7.8483915065087392e-03 -9.6406004206474716e-01
    7.8437205395682861e-03 -9.8787833990721308e-01
    7.8642178469902971e-03 -9.2932037728458516e-01
    7.8483915065087392e-03 -9.6406004206474716e-01
    7.8437205395682861e-03 -1.0122703976826999e+00
    7.8718721618341297e-03 -9.1798509204315681e-01
    7.8524854551865406e-03 -9.5235326648573349e-01
    7.8577585293936776e-03 -9.4077493124783451e-01
    7.9284943457188454e-03 -8.6294892726269146e-01
    7.9777495682680187e-03 -8.3109665471865302e-01
    7.9284943457188454e-03 -8.6294892726269146e-01
    8.1416302059667319e-03 -7.5955452531275003e-01
    8.7886856285809920e-03 -6.1494004626809073e-01
    1.0422099084564212e-02 -4.5374260648651510e-01
    1.8205238588207225e-02 -2.2645540682891915e-01
    1.0910037997452176e-02 -4.2409446483998553e-01
    9.4743065453099518e-03 -5.3033008588991071e-01
    8.8508851706236829e-03 -6.0553007081949839e-01
    8.4718714606604739e-03 -6.7180907527981382e-01
    8.1137222679062513e-03 -7.6956676754440079e-01
    7.9284943457188454e-03 -8.6294892726269146e-01
    7.8642178469902971e-03 -9.2932037728458516e-01
    7.8908091843261346e-03 -8.9565495711116461e-01
    7.8454711746842858e-03 -9.7590007294853309e-01
    7.8908091843261346e-03 -8.9565495711116461e-01
    7.8483915065087392e-03 -9.6406004206474716e-01
    7.8454711746842858e-03 -9.7590007294853309e-01
    7.8437205395682861e-03 -9.8787833990721308e-01
    7.8483915065087392e-03 -1.0372797920949812e+00
    7.8807318969532341e-03 -1.1028219331407116e+00
    7.8437205395682861e-03 -9.8787833990721308e-01
    7.8437205395682861e-03 -9.8787833990721308e-01
    7.8577585293936776e-03 -9.4077493124783451e-01
    7.8718721618341297e-03 -9.1798509204315681e-01
    7.8524854551865406e-03 -9.5235326648573349e-01
    7.9021179115696498e-03 -8.8465173692938270e-01
    7.8577585293936776e-03 -9.4077493124783451e-01
    7.8908091843261346e-03 -8.9565495711116461e-01
    7.8524854551865406e-03 -9.5235326648573349e-01
    7.9146737758906856e-03 -8.7375102873476129e-01
    7.8483915065087392e-03 -1.0372797920949812e+00
    7.8483915065087392e-03 -1.0372797920949812e+00
    7.9435991305026200e-03 -8.5224162622679023e-01
    7.8908091843261346e-03 -8.9565495711116461e-01
    7.8807318969532324e-03 -9.0676470058236280e-01
    7.8577585293936776e-03 -9.4077493124783451e-01
    7.8483915065087392e-03 -9.6406004206474716e-01
    7.8577585293936776e-03 -9.4077493124783451e-01
    7.9284943457188454e-03 -8.6294892726269146e-01
    7.8718721618341297e-03 -9.1798509204315681e-01
    7.9021179115696498e-03 -8.8465173692938270e-01
    8.0625552920859239e-03 -7.8978628516683147e-01
    8.5185610415163589e-03 -6.6226617853252190e-01
    9.8955904512796899e-03 -4.9236596391733095e-01
    1.7219342475818276e-02 -2.4096579867074966e-01
    1.2545587019715957e-02 -3.5112344158839170e-01
    9.7816259160534037e-03 -5.0190476880237433e-01
    9.3821191727056618e-03 -5.3975789264925567e-01
    8.6189439075195270e-03 -6.4326752090267691e-01
    8.4718714606604739e-03 -6.7180907527981382e-01
    7.9146737758906856e-03 -8.7375102873476129e-01
    7.8483915065087392e-03 -9.6406004206474716e-01
    7.8483915065087392e-03 -9.6406004206474716e-01
    7.8807318969532324e-03 -9.0676470058236280e-01
    7.8577585293936776e-03 -1.0629534937475533e+00
    7.9021179115696498e-03 -1.1303883305208779e+00
    7.9146737758906838e-03 -1.1444907841173630e+00
    7.8483915065087392e-03 -1.0372797920949812e+00
    7.8454711746842858e-03 -1.0246950765959599e+00
    7.8483915065087392e-03 -1.0372797920949812e+00
    7.8454711746842858e-03 -1.0246950765959599e+00
    7.8437205395682861e-03 -1.0122703976826999e+00
    7.8431372549019607e-03 -1. 7.8524854551865406e-03
    -9.5235326648573349e-01 7.9146737758906856e-03
    -8.7375102873476129e-01 7.9968446993653915e-03
    -8.2065180664828985e-01 7.8642178469902971e-03
    -9.2932037728458516e-01 7.9284943457188454e-03
    -8.6294892726269146e-01 7.8642178469902971e-03
    -9.2932037728458516e-01 7.8524854551865406e-03
    -9.5235326648573349e-01 7.9021179115696498e-03
    -8.8465173692938270e-01 7.8718721618341297e-03
    -9.1798509204315681e-01 7.8577585293936776e-03
    -9.4077493124783451e-01 7.8437205395682861e-03
    -9.8787833990721308e-01 7.8524854551865406e-03
    -9.5235326648573349e-01 7.8577585293936776e-03
    -9.4077493124783451e-01 7.8454711746842858e-03
    -9.7590007294853309e-01 7.8483915065087392e-03
    -9.6406004206474716e-01 7.8642178469902971e-03
    -9.2932037728458516e-01 7.9146737758906856e-03
    -8.7375102873476129e-01 8.0173232084385336e-03
    -8.1028739134066274e-01 8.0625552920859239e-03
    -7.8978628516683147e-01 8.6728494526985955e-03
    -6.3380549201580894e-01 9.8955904512796899e-03
    -4.9236596391733095e-01 1.9400138097001748e-02
    -2.1115394209236660e-01 1.3216389175528722e-02
    -3.2879797461071458e-01 1.0016061908453479e-02
    -4.8278639869710216e-01 8.9846074530633788e-03
    -5.8673869403846823e-01 8.4273879030585599e-03
    -6.8138514386924698e-01 8.3446945648686134e-03
    -7.0064904974537079e-01 8.0873779011537764e-03
    -7.7964295498317815e-01 7.9435991305026200e-03
    -8.5224162622679023e-01 7.8807318969532324e-03
    -9.0676470058236280e-01 7.8437205395682861e-03
    -9.8787833990721308e-01 7.8524854551865406e-03
    -9.5235326648573349e-01 7.8524854551865406e-03
    -1.0500305245868344e+00 7.8454711746842858e-03
    -1.0246950765959599e+00 7.8437205395682861e-03
    -9.8787833990721308e-01 7.8642178469902971e-03
    -1.0760551736979407e+00 7.8718721618341297e-03
    -1.0893423092245460e+00 7.8454711746842858e-03
    -9.7590007294853309e-01 7.8454711746842858e-03
    -9.7590007294853309e-01 7.8577585293936776e-03
    -9.4077493124783451e-01 7.8437205395682861e-03
    -9.8787833990721308e-01 7.8437205395682861e-03
    -9.8787833990721308e-01 7.8718721618341297e-03
    -9.1798509204315681e-01 7.8577585293936776e-03
    -9.4077493124783451e-01 7.8577585293936776e-03
    -9.4077493124783451e-01 7.9021179115696498e-03
    -8.8465173692938270e-01 7.8642178469902971e-03
    -9.2932037728458516e-01 7.8807318969532324e-03
    -9.0676470058236280e-01 7.8718721618341297e-03
    -1.0893423092245460e+00 7.8642178469902971e-03
    -1.0760551736979407e+00 7.8437205395682861e-03
    -9.8787833990721308e-01 7.8437205395682861e-03
    -9.8787833990721308e-01 7.8524854551865406e-03
    -1.0500305245868344e+00 7.8437205395682861e-03
    -1.0122703976826999e+00 7.9021179115696498e-03
    -8.8465173692938270e-01 7.8908091843261346e-03
    -8.9565495711116461e-01 7.9777495682680187e-03
    -8.3109665471865302e-01 7.9777495682680187e-03
    -8.3109665471865302e-01 8.3063279498512659e-03
    -7.1034298473575608e-01 8.6728494526985955e-03
    -6.3380549201580894e-01 1.0422099084564212e-02
    -4.5374260648651510e-01 1.4034405489687355e-02
    -3.0550504633038938e-01 1.1984155173528285e-02
    -3.7267799624996495e-01 1.0143565573700776e-02
    -4.7316022340738378e-01 9.6736981731151625e-03
    -5.1140831195675895e-01 8.4273879030585599e-03
    -6.8138514386924698e-01 8.4273879030585599e-03
    -6.8138514386924698e-01 8.0392156862745100e-03
    -8.0000000000000004e-01 7.9284943457188454e-03
    -8.6294892726269146e-01 7.8483915065087392e-03
    -9.6406004206474716e-01 7.8437205395682861e-03
    -1.0122703976826999e+00 7.8577585293936776e-03
    -1.0629534937475533e+00 7.8437205395682861e-03
    -1.0122703976826999e+00 7.9284943457188454e-03
    -8.6294892726269146e-01 7.8807318969532324e-03
    -9.0676470058236280e-01 7.8437205395682861e-03
    -1.0122703976826999e+00 7.8642178469902971e-03
    -9.2932037728458516e-01 7.8454711746842858e-03
    -9.7590007294853309e-01 7.8807318969532324e-03
    -9.0676470058236280e-01 7.8524854551865406e-03
    -9.5235326648573349e-01 7.9021179115696498e-03
    -8.8465173692938270e-01 7.8577585293936776e-03
    -9.4077493124783451e-01 7.8577585293936776e-03
    -9.4077493124783451e-01 7.9021179115696498e-03
    -8.8465173692938270e-01 7.8577585293936776e-03
    -9.4077493124783451e-01 7.8524854551865406e-03
    -9.5235326648573349e-01 7.8437205395682861e-03
    -1.0122703976826999e+00 7.8454711746842858e-03
    -1.0246950765959599e+00 7.8437205395682861e-03
    -1.0122703976826999e+00 7.8524854551865406e-03
    -9.5235326648573349e-01 7.8483915065087392e-03
    -9.6406004206474716e-01 7.8437205395682861e-03
    -1.0122703976826999e+00 7.8718721618341297e-03
    -1.0893423092245460e+00 7.8524854551865406e-03
    -1.0500305245868344e+00 7.8642178469902971e-03
    -9.2932037728458516e-01 7.9600096592242452e-03
    -8.4162541153017323e-01 7.8807318969532324e-03
    -9.0676470058236280e-01 7.9968446993653915e-03
    -8.2065180664828985e-01 8.5185610415163589e-03
    -6.6226617853252190e-01 9.2112030856836870e-03
    -5.5856960175075776e-01 1.2545587019715957e-02
    -3.5112344158839170e-01 1.4034405489687355e-02
    -3.0550504633038938e-01 1.1984155173528285e-02
    -3.7267799624996495e-01 1.0016061908453479e-02
    -4.8278639869710216e-01 9.7816259160534037e-03
    -5.0190476880237433e-01 9.0564748108176597e-03
    -5.7735026918962584e-01 8.5185610415163589e-03
    -6.6226617853252190e-01 8.0873779011537764e-03
    -7.7964295498317815e-01 7.9600096592242452e-03
    -8.4162541153017323e-01 7.8524854551865406e-03
    -9.5235326648573349e-01 7.8577585293936776e-03
    -9.4077493124783451e-01 7.8577585293936776e-03
    -9.4077493124783451e-01 7.8437205395682861e-03
    -9.8787833990721308e-01 7.8718721618341297e-03
    -1.0893423092245460e+00 7.8718721618341297e-03
    -1.0893423092245460e+00 7.8524854551865406e-03
    -1.0500305245868344e+00 7.8524854551865406e-03
    -1.0500305245868344e+00 7.8642178469902971e-03
    -9.2932037728458516e-01 7.8718721618341297e-03
    -9.1798509204315681e-01 7.8483915065087392e-03
    -9.6406004206474716e-01 7.8483915065087392e-03
    -9.6406004206474716e-01 7.8577585293936776e-03
    -9.4077493124783451e-01 7.9021179115696498e-03
    -8.8465173692938270e-01 7.8483915065087392e-03
    -9.6406004206474716e-01 7.8483915065087392e-03
    -9.6406004206474716e-01 7.8483915065087392e-03
    -1.0372797920949812e+00 7.8454711746842858e-03
    -1.0246950765959599e+00 7.8454711746842858e-03
    -9.7590007294853309e-01 7.8437205395682861e-03
    -9.8787833990721308e-01 7.8577585293936776e-03
    -1.0629534937475533e+00 7.8454711746842858e-03
    -9.7590007294853309e-01 7.8642178469902971e-03
    -1.0760551736979407e+00 7.8807318969532341e-03
    -1.1028219331407116e+00 7.8483915065087392e-03
    -9.6406004206474716e-01 7.8577585293936776e-03
    -9.4077493124783451e-01 7.9146737758906856e-03
    -8.7375102873476129e-01 8.0392156862745100e-03
    -8.0000000000000004e-01 8.1416302059667319e-03
    -7.5955452531275003e-01 8.5185610415163589e-03
    -6.6226617853252190e-01 9.0564748108176597e-03
    -5.7735026918962584e-01 1.3216389175528722e-02
    -3.2879797461071458e-01 1.8205238588207225e-02
    -2.2645540682891915e-01 1.4034405489687355e-02
    -3.0550504633038938e-01 1.0574540428939396e-02
    -4.4393726130029115e-01 9.6736981731151625e-03
    -5.1140831195675895e-01 9.6736981731151625e-03
    -5.1140831195675895e-01 8.7293870124368744e-03
    -6.2436408326758874e-01 8.1711467869087385e-03
    -7.4960306956732903e-01 8.1711467869087385e-03
    -7.4960306956732903e-01 7.9968446993653915e-03
    -8.2065180664828985e-01 7.9435991305026200e-03
    -8.5224162622679023e-01 7.8437205395682861e-03
    -1.0122703976826999e+00 7.8431372549019607e-03 -1.
    7.8807318969532341e-03 -1.1028219331407116e+00
    7.8807318969532341e-03 -1.1028219331407116e+00
    7.8577585293936776e-03 -9.4077493124783451e-01
    7.8454711746842858e-03 -1.0246950765959599e+00
    7.8454711746842858e-03 -9.7590007294853309e-01
    7.8908091843261346e-03 -8.9565495711116461e-01
    7.8908091843261346e-03 -8.9565495711116461e-01
    7.8577585293936776e-03 -9.4077493124783451e-01
    7.9146737758906856e-03 -8.7375102873476129e-01
    7.8483915065087392e-03 -9.6406004206474716e-01
    7.8454711746842858e-03 -9.7590007294853309e-01
    7.8437205395682861e-03 -1.0122703976826999e+00
    7.8483915065087392e-03 -9.6406004206474716e-01
    7.8483915065087392e-03 -9.6406004206474716e-01
    7.8483915065087392e-03 -9.6406004206474716e-01
    7.8437205395682861e-03 -1.0122703976826999e+00
    7.8437205395682861e-03 -1.0122703976826999e+00
    7.8454711746842858e-03 -9.7590007294853309e-01
    7.8437205395682861e-03 -1.0122703976826999e+00
    7.8483915065087392e-03 -9.6406004206474716e-01
    7.8524854551865406e-03 -9.5235326648573349e-01
    7.9284943457188454e-03 -8.6294892726269146e-01
    8.1137222679062513e-03 -7.6956676754440079e-01
    8.1416302059667319e-03 -7.5955452531275003e-01
    8.2352037929966978e-03 -7.2987004348296947e-01
    8.5675511793507821e-03 -6.5275336576821963e-01
    1.0016061908453479e-02 -4.8278639869710216e-01
    1.2545587019715957e-02 -3.5112344158839170e-01
    1.5676951314620838e-02 -2.6813322217994789e-01
    1.4515884963461761e-02 -2.9341560154802282e-01
    1.2545587019715957e-02 -3.5112344158839170e-01
    9.8955904512796899e-03 -4.9236596391733095e-01
    9.6736981731151625e-03 -5.1140831195675895e-01
    9.2112030856836870e-03 -5.5856960175075776e-01
    8.8508851706236829e-03 -6.0553007081949839e-01
    8.4718714606604739e-03 -6.7180907527981382e-01
    8.5185610415163589e-03 -6.6226617853252190e-01
    7.9146737758906856e-03 -8.7375102873476129e-01
    7.8908091843261346e-03 -8.9565495711116461e-01
    8.1137222679062513e-03 -7.6956676754440079e-01
    7.8642178469902971e-03 -9.2932037728458516e-01
    7.8577585293936776e-03 -1.0629534937475533e+00
    7.9435991305026217e-03 -1.1733761520513781e+00
    7.9284943457188454e-03 -1.1588171308956141e+00
    7.8908091843261346e-03 -1.1165013848919998e+00
    7.8642178469902971e-03 -1.0760551736979407e+00
    7.8454711746842858e-03 -9.7590007294853309e-01
    7.8524854551865406e-03 -9.5235326648573349e-01
    7.8524854551865406e-03 -9.5235326648573349e-01
    7.8437205395682861e-03 -1.0122703976826999e+00
    7.8524854551865406e-03 -9.5235326648573349e-01
    7.8642178469902971e-03 -9.2932037728458516e-01
    7.8807318969532324e-03 -9.0676470058236280e-01
    7.8437205395682861e-03 -1.0122703976826999e+00
    7.8524854551865406e-03 -1.0500305245868344e+00
    7.8642178469902971e-03 -9.2932037728458516e-01
    7.8454711746842858e-03 -1.0246950765959599e+00
    7.8908091843261346e-03 -8.9565495711116461e-01
    7.9435991305026217e-03 -1.1733761520513781e+00
    7.8431372549019607e-03 -1. 7.8642178469902971e-03
    -9.2932037728458516e-01 7.8908091843261346e-03
    -8.9565495711116461e-01 8.2023205596889175e-03
    -7.3970927486462867e-01 8.4273879030585599e-03
    -6.8138514386924698e-01 8.5185610415163589e-03
    -6.6226617853252190e-01 9.2112030856836870e-03
    -5.5856960175075776e-01 1.1506630174723545e-02
    -3.9361094683048226e-01 1.4515884963461761e-02
    -2.9341560154802282e-01 1.8205238588207225e-02
    -2.2645540682891915e-01 1.5676951314620838e-02
    -2.6813322217994789e-01 1.3216389175528722e-02
    -3.2879797461071458e-01 1.0910037997452176e-02
    -4.2409446483998553e-01 1.0016061908453479e-02
    -4.8278639869710216e-01 9.8955904512796899e-03
    -4.9236596391733095e-01 9.4743065453099518e-03
    -5.3033008588991071e-01 9.4743065453099518e-03
    -5.3033008588991071e-01 8.5675511793507821e-03
    -6.5275336576821963e-01 8.2352037929966978e-03
    -7.2987004348296947e-01 8.2023205596889175e-03
    -7.3970927486462867e-01 8.3063279498512659e-03
    -7.1034298473575608e-01 7.9021179115696498e-03
    -8.8465173692938270e-01 7.8642178469902971e-03
    -9.2932037728458516e-01 7.8437205395682861e-03
    -1.0122703976826999e+00 7.9021179115696498e-03
    -1.1303883305208779e+00 7.9435991305026217e-03
    -1.1733761520513781e+00 7.8524854551865406e-03
    -1.0500305245868344e+00 7.8454711746842858e-03
    -9.7590007294853309e-01 7.8577585293936776e-03
    -1.0629534937475533e+00 7.8454711746842858e-03
    -1.0246950765959599e+00 7.8431372549019607e-03 -1.
    7.8437205395682861e-03 -1.0122703976826999e+00
    7.8807318969532324e-03 -9.0676470058236280e-01
    7.9284943457188454e-03 -8.6294892726269146e-01
    7.8454711746842858e-03 -9.7590007294853309e-01
    7.8483915065087392e-03 -9.6406004206474716e-01
    7.8437205395682861e-03 -1.0122703976826999e+00
    7.8431372549019607e-03 -1. 7.8454711746842858e-03
    -9.7590007294853309e-01 7.8524854551865406e-03
    -1.0500305245868344e+00 7.8577585293936776e-03
    -9.4077493124783451e-01 7.8908091843261346e-03
    -8.9565495711116461e-01 8.0625552920859239e-03
    -7.8978628516683147e-01 8.1137222679062513e-03
    -7.6956676754440079e-01 8.6189439075195270e-03
    -6.4326752090267691e-01 9.2112030856836870e-03
    -5.5856960175075776e-01 9.7816259160534037e-03
    -5.0190476880237433e-01 1.3216389175528722e-02
    -3.2879797461071458e-01 1.4515884963461761e-02
    -2.9341560154802282e-01 2.0888126981119113e-02
    -1.9487094073848929e-01 1.6388654783484429e-02
    -2.5482359571881275e-01 1.4034405489687355e-02
    -3.0550504633038938e-01 1.0422099084564212e-02
    -4.5374260648651510e-01 1.0278690384784706e-02
    -4.6348119143587135e-01 9.8955904512796899e-03
    -4.9236596391733095e-01 9.3821191727056618e-03
    -5.3975789264925567e-01 9.5713851018001134e-03
    -5.2088178069247570e-01 8.5185610415163589e-03
    -6.6226617853252190e-01 8.2698527430663648e-03
    -7.2008229982309568e-01 8.4273879030585599e-03
    -6.8138514386924698e-01 8.1711467869087385e-03
    -7.4960306956732903e-01 8.1711467869087385e-03
    -7.4960306956732903e-01 7.9146737758906856e-03
    -8.7375102873476129e-01 7.8807318969532324e-03
    -9.0676470058236280e-01 7.8807318969532324e-03
    -9.0676470058236280e-01 7.8908091843261346e-03
    -8.9565495711116461e-01 7.9146737758906856e-03
    -8.7375102873476129e-01 7.9146737758906856e-03
    -8.7375102873476129e-01 7.8454711746842858e-03
    -9.7590007294853309e-01 7.8524854551865406e-03
    -1.0500305245868344e+00 7.8431372549019607e-03 -1.
    7.8431372549019607e-03 -1. 7.8437205395682861e-03
    -9.8787833990721308e-01 7.8807318969532324e-03
    -9.0676470058236280e-01 7.9968446993653915e-03
    -8.2065180664828985e-01 7.9968446993653915e-03
    -8.2065180664828985e-01 7.8437205395682861e-03
    -1.0122703976826999e+00 7.8718721618341297e-03
    -9.1798509204315681e-01 7.8908091843261346e-03
    -8.9565495711116461e-01 7.9284943457188454e-03
    -8.6294892726269146e-01 7.9968446993653915e-03
    -8.2065180664828985e-01 8.1416302059667319e-03
    -7.5955452531275003e-01 8.1711467869087385e-03
    -7.4960306956732903e-01 8.4273879030585599e-03
    -6.8138514386924698e-01 9.0564748108176597e-03
    -5.7735026918962584e-01 9.2112030856836870e-03
    -5.5856960175075776e-01 1.0736863958847565e-02
    -4.3405736614121559e-01 1.2865318419080876e-02
    -3.4006802040680245e-01 1.6388654783484429e-02
    -2.5482359571881275e-01 1.9400138097001748e-02
    -2.1115394209236660e-01 1.8205238588207225e-02
    -2.2645540682891915e-01 1.2865318419080876e-02
    -3.4006802040680245e-01 1.0736863958847565e-02
    -4.3405736614121559e-01 1.0422099084564212e-02
    -4.5374260648651510e-01 1.0422099084564212e-02
    -4.5374260648651510e-01 1.0016061908453479e-02
    -4.8278639869710216e-01 9.5713851018001134e-03
    -5.2088178069247570e-01 8.9161374454713605e-03
    -5.9613077493654554e-01 8.9161374454713605e-03
    -5.9613077493654554e-01 8.6189439075195270e-03
    -6.4326752090267691e-01 8.4273879030585599e-03
    -6.8138514386924698e-01 8.0873779011537764e-03
    -7.7964295498317815e-01 8.0173232084385336e-03
    -8.1028739134066274e-01 8.1416302059667319e-03
    -7.5955452531275003e-01 8.2352037929966978e-03
    -7.2987004348296947e-01 7.9284943457188454e-03
    -8.6294892726269146e-01 7.9435991305026200e-03
    -8.5224162622679023e-01 7.9284943457188454e-03
    -8.6294892726269146e-01 7.8642178469902971e-03
    -9.2932037728458516e-01 7.8718721618341297e-03
    -9.1798509204315681e-01 7.8437205395682861e-03
    -9.8787833990721308e-01 7.8431372549019607e-03 -1.
    7.8807318969532324e-03 -9.0676470058236280e-01
    7.8908091843261346e-03 -8.9565495711116461e-01
    7.8524854551865406e-03 -9.5235326648573349e-01
    7.8577585293936776e-03 -9.4077493124783451e-01
    7.8431372549019607e-03 -1. 7.9146737758906856e-03
    -8.7375102873476129e-01 7.9777495682680187e-03
    -8.3109665471865302e-01 8.3063279498512659e-03
    -7.1034298473575608e-01 8.2352037929966978e-03
    -7.2987004348296947e-01 8.3063279498512659e-03
    -7.1034298473575608e-01 8.3063279498512659e-03
    -7.1034298473575608e-01 8.7886856285809920e-03
    -6.1494004626809073e-01 9.2112030856836870e-03
    -5.5856960175075776e-01 9.4743065453099518e-03
    -5.3033008588991071e-01 1.1293542571132908e-02
    -4.0388187304691775e-01 1.4515884963461761e-02
    -2.9341560154802282e-01 1.6388654783484429e-02
    -2.5482359571881275e-01 2.2809727833261375e-02
    -1.7733172553297716e-01 1.9400138097001748e-02
    -2.1115394209236660e-01 1.2545587019715957e-02
    -3.5112344158839170e-01 1.1736159455950702e-02
    -3.8321423101595131e-01 1.1506630174723545e-02
    -3.9361094683048226e-01 1.0422099084564212e-02
    -4.5374260648651510e-01 1.0278690384784706e-02
    -4.6348119143587135e-01 9.8955904512796899e-03
    -4.9236596391733095e-01 9.7816259160534037e-03
    -5.0190476880237433e-01 1.0016061908453479e-02
    -4.8278639869710216e-01 9.7816259160534037e-03
    -5.0190476880237433e-01 8.4718714606604739e-03
    -6.7180907527981382e-01 8.7886856285809920e-03
    -6.1494004626809073e-01 8.7886856285809920e-03
    -6.1494004626809073e-01 8.5185610415163589e-03
    -6.6226617853252190e-01 8.0625552920859239e-03
    -7.8978628516683147e-01 8.0392156862745100e-03
    -8.0000000000000004e-01 7.8483915065087392e-03
    -9.6406004206474716e-01 7.9021179115696498e-03
    -8.8465173692938270e-01 7.8454711746842858e-03
    -9.7590007294853309e-01 7.8718721618341297e-03
    -9.1798509204315681e-01 7.9146737758906856e-03
    -8.7375102873476129e-01 7.8524854551865406e-03
    -9.5235326648573349e-01 7.8718721618341297e-03
    -9.1798509204315681e-01 7.9600096592242452e-03
    -8.4162541153017323e-01 7.9146737758906856e-03
    -8.7375102873476129e-01 8.0625552920859239e-03
    -7.8978628516683147e-01 7.9777495682680187e-03
    -8.3109665471865302e-01 7.9777495682680187e-03
    -8.3109665471865302e-01 7.9600096592242452e-03
    -8.4162541153017323e-01 8.3850227144969345e-03
    -6.9099745113674427e-01 8.3063279498512659e-03
    -7.1034298473575608e-01 8.4273879030585599e-03
    -6.8138514386924698e-01 8.7293870124368744e-03
    -6.2436408326758874e-01 9.2945120916310894e-03
    -5.4916964736527596e-01 9.2945120916310894e-03
    -5.4916964736527596e-01 1.0143565573700776e-02
    -4.7316022340738378e-01 1.2865318419080876e-02
    -3.4006802040680245e-01 1.3603946141586640e-02
    -3.1728715848517625e-01 1.6388654783484429e-02
    -2.5482359571881275e-01 2.2809727833261375e-02
    -1.7733172553297716e-01 1.5058830696019394e-02
    -2.8097574347450821e-01 1.4034405489687355e-02
    -3.0550504633038938e-01 1.3216389175528722e-02
    -3.2879797461071458e-01 1.1506630174723545e-02
    -3.9361094683048226e-01 1.0422099084564212e-02
    -4.5374260648651510e-01 1.0016061908453479e-02
    -4.8278639869710216e-01 1.1095171738445696e-02
    -4.1403933560541262e-01 1.0736863958847565e-02
    -4.3405736614121559e-01 1.0422099084564212e-02
    -4.5374260648651510e-01 1.0910037997452176e-02
    -4.2409446483998553e-01 9.4743065453099518e-03
    -5.3033008588991071e-01 8.7293870124368744e-03
    -6.2436408326758874e-01 8.7293870124368744e-03
    -6.2436408326758874e-01 8.7293870124368744e-03
    -6.2436408326758874e-01 8.4273879030585599e-03
    -6.8138514386924698e-01 8.3446945648686134e-03
    -7.0064904974537079e-01 8.1137222679062513e-03
    -7.6956676754440079e-01 7.8908091843261346e-03
    -8.9565495711116461e-01 7.8807318969532324e-03
    -9.0676470058236280e-01 7.8483915065087392e-03
    -9.6406004206474716e-01 7.8807318969532324e-03
    -9.0676470058236280e-01 8.0173232084385336e-03
    -8.1028739134066274e-01 7.9435991305026200e-03
    -8.5224162622679023e-01 7.9284943457188454e-03
    -8.6294892726269146e-01 8.0392156862745100e-03
    -8.0000000000000004e-01 8.0873779011537764e-03
    -7.7964295498317815e-01 8.3850227144969345e-03
    -6.9099745113674427e-01 8.4273879030585599e-03
    -6.8138514386924698e-01 8.3850227144969345e-03
    -6.9099745113674427e-01 8.3446945648686134e-03
    -7.0064904974537079e-01 8.7293870124368744e-03
    -6.2436408326758874e-01 9.0564748108176597e-03
    -5.7735026918962584e-01 9.2945120916310894e-03
    -5.4916964736527596e-01 9.4743065453099518e-03
    -5.3033008588991071e-01 9.6736981731151625e-03
    -5.1140831195675895e-01 1.0736863958847565e-02
    -4.3405736614121559e-01 1.1736159455950702e-02
    -3.8321423101595131e-01 1.4515884963461761e-02
    -2.9341560154802282e-01 1.7219342475818276e-02
    -2.4096579867074966e-01 2.0888126981119113e-02
    -1.9487094073848929e-01 1.8205238588207225e-02
    -2.2645540682891915e-01 1.6388654783484429e-02
    -2.5482359571881275e-01 1.4034405489687355e-02
    -3.0550504633038938e-01 1.2865318419080876e-02
    -3.4006802040680245e-01 1.1984155173528285e-02
    -3.7267799624996495e-01 1.1506630174723545e-02
    -3.9361094683048226e-01 1.1984155173528285e-02
    -3.7267799624996495e-01 1.1984155173528285e-02
    -3.7267799624996495e-01 1.0736863958847565e-02
    -4.3405736614121559e-01 1.0910037997452176e-02
    -4.2409446483998553e-01 1.1293542571132908e-02
    -4.0388187304691775e-01 1.1095171738445696e-02
    -4.1403933560541262e-01 9.5713851018001134e-03
    -5.2088178069247570e-01 9.4743065453099518e-03
    -5.3033008588991071e-01 8.9161374454713605e-03
    -5.9613077493654554e-01 8.8508851706236829e-03
    -6.0553007081949839e-01 8.5675511793507821e-03
    -6.5275336576821963e-01 8.2023205596889175e-03
    -7.3970927486462867e-01 7.9021179115696498e-03
    -8.8465173692938270e-01 7.9146737758906856e-03
    -8.7375102873476129e-01 7.9284943457188454e-03
    -8.6294892726269146e-01 8.1416302059667319e-03
    -7.5955452531275003e-01 8.0173232084385336e-03
    -8.1028739134066274e-01 8.1416302059667319e-03
    -7.5955452531275003e-01 8.0873779011537764e-03
    -7.7964295498317815e-01 8.5675511793507821e-03
    -6.5275336576821963e-01 8.5675511793507821e-03
    -6.5275336576821963e-01 8.5185610415163589e-03
    -6.6226617853252190e-01 8.4718714606604739e-03
    -6.7180907527981382e-01 8.7293870124368744e-03
    -6.2436408326758874e-01 8.8508851706236829e-03
    -6.0553007081949839e-01 9.7816259160534037e-03
    -5.0190476880237433e-01 9.8955904512796899e-03
    -4.9236596391733095e-01 1.0016061908453479e-02
    -4.8278639869710216e-01 1.0736863958847565e-02
    -4.3405736614121559e-01 1.1736159455950702e-02
    -3.8321423101595131e-01 1.2545587019715957e-02
    -3.5112344158839170e-01 1.6388654783484429e-02
    -2.5482359571881275e-01 2.5422232169981088e-02
    -1.5811388300841897e-01 2.5422232169981088e-02
    -1.5811388300841897e-01 1.9400138097001748e-02
    -2.1115394209236660e-01 1.9400138097001748e-02
    -2.1115394209236660e-01 1.5058830696019394e-02
    -2.8097574347450821e-01 1.3603946141586640e-02
    -3.1728715848517625e-01 1.4515884963461761e-02
    -2.9341560154802282e-01 1.3603946141586640e-02
    -3.1728715848517625e-01 1.2865318419080876e-02
    -3.4006802040680245e-01 1.2865318419080876e-02
    -3.4006802040680245e-01 1.3216389175528722e-02
    -3.2879797461071458e-01 1.2253012202610618e-02
    -3.6198685440029538e-01 1.2545587019715957e-02
    -3.5112344158839170e-01 1.1984155173528285e-02
    -3.7267799624996495e-01 1.1506630174723545e-02
    -3.9361094683048226e-01 1.1736159455950702e-02
    -3.8321423101595131e-01 1.0278690384784706e-02
    -4.6348119143587135e-01 9.8955904512796899e-03
    -4.9236596391733095e-01 8.6189439075195270e-03
    -6.4326752090267691e-01 8.5185610415163589e-03
    -6.6226617853252190e-01 8.1137222679062513e-03
    -7.6956676754440079e-01 8.0173232084385336e-03
    -8.1028739134066274e-01 7.9968446993653915e-03
    -8.2065180664828985e-01 8.2023205596889175e-03
    -7.3970927486462867e-01 8.2352037929966978e-03
    -7.2987004348296947e-01 8.2698527430663648e-03
    -7.2008229982309568e-01 8.4718714606604739e-03
    -6.7180907527981382e-01 8.6728494526985955e-03
    -6.3380549201580894e-01 8.8508851706236829e-03
    -6.0553007081949839e-01 9.2945120916310894e-03
    -5.4916964736527596e-01 9.2945120916310894e-03
    -5.4916964736527596e-01 9.2112030856836870e-03
    -5.5856960175075776e-01 9.2112030856836870e-03
    -5.5856960175075776e-01 1.0143565573700776e-02
    -4.7316022340738378e-01 1.0910037997452176e-02
    -4.2409446483998553e-01 1.1984155173528285e-02
    -3.7267799624996495e-01 1.4515884963461761e-02
    -2.9341560154802282e-01 1.4034405489687355e-02
    -3.0550504633038938e-01 1.4515884963461761e-02
    -2.9341560154802282e-01 1.7219342475818276e-02
    -2.4096579867074966e-01 2.5422232169981088e-02
    -1.5811388300841897e-01 5.0374397567852940e-02
    -7.8326044998795738e-02 2.5422232169981088e-02
    -1.5811388300841897e-01 1.8205238588207225e-02
    -2.2645540682891915e-01 1.8205238588207225e-02
    -2.2645540682891915e-01 1.8205238588207225e-02
    -2.2645540682891915e-01 1.8205238588207225e-02
    -2.2645540682891915e-01 1.8205238588207225e-02
    -2.2645540682891915e-01 1.7219342475818276e-02
    -2.4096579867074966e-01 1.5058830696019394e-02
    -2.8097574347450821e-01 1.4515884963461761e-02
    -2.9341560154802282e-01 1.4515884963461761e-02
    -2.9341560154802282e-01 1.3603946141586640e-02
    -3.1728715848517625e-01 1.3603946141586640e-02
    -3.1728715848517625e-01 1.3216389175528722e-02
    -3.2879797461071458e-01 1.4034405489687355e-02
    -3.0550504633038938e-01 1.2253012202610618e-02
    -3.6198685440029538e-01 1.0574540428939396e-02
    -4.4393726130029115e-01 9.6736981731151625e-03
    -5.1140831195675895e-01 8.9846074530633788e-03
    -5.8673869403846823e-01 8.8508851706236829e-03
    -6.0553007081949839e-01 8.9846074530633788e-03
    -5.8673869403846823e-01 8.5185610415163589e-03
    -6.6226617853252190e-01 9.2945120916310894e-03
    -5.4916964736527596e-01 8.6728494526985955e-03
    -6.3380549201580894e-01 9.7816259160534037e-03
    -5.0190476880237433e-01 8.8508851706236829e-03
    -6.0553007081949839e-01 9.4743065453099518e-03
    -5.3033008588991071e-01 9.4743065453099518e-03
    -5.3033008588991071e-01 9.6736981731151625e-03
    -5.1140831195675895e-01 1.0422099084564212e-02
    -4.5374260648651510e-01 9.7816259160534037e-03
    -5.0190476880237433e-01 1.0422099084564212e-02
    -4.5374260648651510e-01 1.1984155173528285e-02
    -3.7267799624996495e-01 1.4515884963461761e-02
    -2.9341560154802282e-01 1.5676951314620838e-02
    -2.6813322217994789e-01 1.7219342475818276e-02
    -2.4096579867074966e-01 1.9400138097001748e-02
    -2.1115394209236660e-01 1.8205238588207225e-02
    -2.2645540682891915e-01 1.8205238588207225e-02
    -2.2645540682891915e-01 2.0888126981119113e-02
    -1.9487094073848929e-01 2.5422232169981088e-02
    -1.5811388300841897e-01 1.9400138097001748e-02
    -2.1115394209236660e-01 1.9400138097001748e-02
    -2.1115394209236660e-01 2.0888126981119113e-02
    -1.9487094073848929e-01 2.9263758373215515e-02
    -1.3650472655798701e-01 2.9263758373215515e-02
    -1.3650472655798701e-01 2.2809727833261375e-02
    -1.7733172553297716e-01 2.0888126981119113e-02
    -1.9487094073848929e-01 1.9400138097001748e-02
    -2.1115394209236660e-01 1.5676951314620838e-02
    -2.6813322217994789e-01 1.5676951314620838e-02
    -2.6813322217994789e-01 1.5058830696019394e-02
    -2.8097574347450821e-01 1.6388654783484429e-02
    -2.5482359571881275e-01 1.8205238588207225e-02
    -2.2645540682891915e-01 2.0888126981119113e-02
    -1.9487094073848929e-01 1.7219342475818276e-02
    -2.4096579867074966e-01 1.2253012202610618e-02
    -3.6198685440029538e-01 1.2545587019715957e-02
    -3.5112344158839170e-01 1.2253012202610618e-02
    -3.6198685440029538e-01 1.1506630174723545e-02
    -3.9361094683048226e-01 9.6736981731151625e-03
    -5.1140831195675895e-01 1.0016061908453479e-02
    -4.8278639869710216e-01 1.4034405489687355e-02
    -3.0550504633038938e-01 1.1736159455950702e-02
    -3.8321423101595131e-01 1.0143565573700776e-02
    -4.7316022340738378e-01 1.0736863958847565e-02
    -4.3405736614121559e-01 1.0278690384784706e-02
    -4.6348119143587135e-01 1.0016061908453479e-02
    -4.8278639869710216e-01 1.0143565573700776e-02
    -4.7316022340738378e-01 1.0910037997452176e-02
    -4.2409446483998553e-01 1.1736159455950702e-02
    -3.8321423101595131e-01 1.2865318419080876e-02
    -3.4006802040680245e-01 1.5676951314620838e-02
    -2.6813322217994789e-01 1.6388654783484429e-02
    -2.5482359571881275e-01 1.7219342475818276e-02
    -2.4096579867074966e-01 2.0888126981119113e-02
    -1.9487094073848929e-01 2.5422232169981088e-02
    -1.5811388300841897e-01 2.5422232169981088e-02
    -1.5811388300841897e-01 2.2809727833261375e-02
    -1.7733172553297716e-01 1.9400138097001748e-02
    -2.1115394209236660e-01</input_scale>
  <output_scale>
    1.0526315789473684e+00 0.</output_scale>
  <inv_output_scale>
    9.4999999999999996e-01 0.</inv_output_scale>
  <weights>
    <_>
      1.9426529063449305e-01 6.7332731765145246e-02
      5.3330467777903380e-02 2.2879785137031251e-02
      -4.8185126546036051e-02 1.4079346611246815e-02
      -2.1811739004739691e-02 -4.1253792312176275e-02
      3.0889780916971499e-03 4.9580845902376471e-02
      2.0892969289889630e-02 4.1212968927393380e-02
      2.2262562232418310e-02 -2.8677402516450689e-02
      4.5374138059779048e-03 1.9784274154158437e-02
      4.5670488734001480e-03 3.5482200500231299e-02
      -6.1707753966664690e-02 5.1458297322308874e-02
      -3.8212546510006655e-02 8.0687648673195269e-04
      -2.6477630820772821e-03 5.6968978190421758e-02
      1.9695746162740280e-02 -7.5962353591668198e-04
      7.3483291103848533e-02 -7.1613116618228875e-02
      2.3580861085422507e-02 2.0683055741001207e-02
      -5.9780327468711349e-02 -7.2196677400991352e-02
      5.5497191348313477e-02 2.4620239297750018e-02
      3.0854019706256040e-02 4.0821595004261989e-03
      5.4407594225361573e-02 2.6406056685103260e-02
      -6.3259028566283473e-02 -5.0787561333453503e-02
      -2.5173199739661124e-02 3.2791028086949312e-03
      -2.1597619023205422e-04 3.2772659292130322e-03
      -3.9432849053424419e-04 2.6749542904844163e-02
      -1.4400823924641204e-02 2.4786150376433455e-03
      -2.3918444021523041e-02 -1.7899524986024665e-02
      1.9041919068157370e-02 -6.7205882466852380e-04
      1.5763903228617371e-02 2.3506630166499256e-03
      -2.4258842320451942e-02 2.1832058204970174e-02
      -2.4705843428189489e-02 -2.2355983724607403e-03
      9.7837957447197837e-03 -1.7217968809864898e-02
      2.2441949886331620e-03 2.5950919327600182e-02
      2.5352392948032956e-02 3.1714664019121168e-03
      2.1465925526640027e-02 -2.6257785117637263e-02
      4.4133183092847908e-03 -4.5587835924958435e-04
      6.8737803048600516e-03 2.0361828510799356e-02
      -3.3410608978234665e-03 -4.9719483574442126e-03
      -1.9030546034608117e-02 2.0958208849295910e-03
      -3.1199698918498732e-03 2.6352272816380525e-02
      1.0127627619911160e-03 -1.1317575693159682e-03
      -5.1544728496216424e-03 -1.0362675632937167e-05
      -6.8798654666932191e-02 -1.8696086949304098e-02
      -1.5788327272611345e-02 -9.3396596374411816e-03
      1.5020430043939494e-02 -6.4124777480522874e-03
      9.2714066994313074e-03 1.2938688618543163e-02
      1.3496609697187369e-03 -1.5219181775595246e-02
      -1.0550280716090208e-02 -1.4233750814249857e-02
      -8.8902742624857346e-03 9.3278380555239480e-03
      1.0951648489631349e-03 -1.0148671907524186e-02
      2.9851022819644235e-03 -1.0892755645736872e-02
      1.2166664869922832e-02 -1.1624213578926608e-02
      1.3437428148007594e-02 -4.6844389503362819e-03
      -2.5403582341054229e-03 -1.5202378734180819e-02
      -9.2925505631351046e-03 5.2560625518444249e-03
      -2.0106444456547405e-02 1.7928395282822838e-02
      -7.4802394286052837e-03 -9.6078437957336105e-03
      1.8252388898374838e-02 1.8901010517087646e-02
      -1.2392831545578733e-02 -9.6421527333226641e-03
      -9.8538427915115679e-03 -3.6144981341433222e-03
      -1.6503865824196121e-02 -9.1927985023202794e-03
      1.6662917533677282e-02 1.5272172570224648e-02
      -7.6633633698546172e-02 -1.9268430470384543e-02
      -1.8076430030674100e-02 -5.8158583752380040e-03
      1.7455400589487993e-02 7.7277588342621242e-03
      2.3102667754367145e-03 1.7064080146094996e-02
      -1.9668503183718114e-02 -3.3571871253626887e-02
      8.4658556825360309e-04 -1.6521455975399946e-02
      1.3315826792630194e-04 1.1811790295681922e-02
      -2.0820319318509872e-02 3.0756166416195962e-03
      -1.9048996961112830e-02 -1.4901304122974645e-02
      3.4066360992451319e-02 -3.6761326204971231e-02
      1.6695524623653757e-02 9.2481881734887920e-03
      2.1103604551601148e-02 -1.7523722614171851e-02
      3.8039292744253533e-03 -1.2908049443683955e-02
      -2.1670295358897827e-02 2.3918137048133555e-02
      -2.8186573279129924e-03 2.8949625931110278e-03
      1.8611508996105999e-02 2.1308010249366953e-02
      -3.8219498949185991e-02 -7.9770129263219778e-03
      -1.3664233208171747e-02 1.0953524896964519e-02
      -1.7689614490473637e-02 -9.3889472007698625e-03
      1.9322591109703528e-02 1.7860412491934090e-02
      1.0727125572337455e-01 2.6333202337825313e-02
      1.8547700025970799e-02 9.1021705676390327e-03
      -1.7176123923825490e-02 1.3940229625481174e-02
      -1.1646352164289176e-02 -1.0643872637633403e-02
      7.9007878658783597e-03 2.4188590857780124e-02
      1.2980904338333873e-02 1.1040775021529909e-02
      1.3715451090473337e-02 -8.0019662092588248e-03
      1.0439690342293946e-02 1.1744741045970340e-02
      6.6135546250975221e-03 9.0748600180012989e-03
      -2.2843585522450402e-02 2.2193328209409228e-02
      -1.1634806564399955e-02 9.9773544443421489e-03
      -9.0731860795814374e-03 2.0929316850927963e-02
      1.3021793518803646e-02 -8.9365537087532677e-03
      2.7489235036226130e-02 -2.5175376297446584e-02
      9.5909171189675346e-03 1.2686161312272591e-02
      -2.1820975634788041e-02 -2.7404110739798520e-02
      2.1060482934243178e-02 8.6146203683387709e-03
      6.1294755987716457e-03 1.1604027526626447e-02
      1.7864078582497306e-02 9.1974928549722820e-03
      -2.5151414765976696e-02 -1.5486932956895440e-02
      1.0769701988934112e-01 2.4962209685372251e-02
      1.9398467096125051e-02 9.7320992214491760e-03
      -1.6032037705075414e-02 1.2590828602688580e-02
      -1.2157180227854341e-02 -1.1101383215759653e-02
      8.0536530162006077e-03 2.4402765109771660e-02
      1.1740280007645050e-02 1.0632496037681420e-02
      1.3909326101335349e-02 -8.4081636081599874e-03
      1.2039267613855873e-02 1.2203039266403133e-02
      5.9138111379587128e-03 7.6772661356609767e-03
      -2.4767203037396886e-02 2.2041534121063303e-02
      -1.1625222285912055e-02 1.1367938931490231e-02
      -7.6456149180189276e-03 2.1042161077005121e-02
      1.1031393904969444e-02 -9.6318681446549356e-03
      2.9090807565456556e-02 -2.5931765421753208e-02
      1.0084853816832447e-02 1.2960996226303329e-02
      -2.2467959281802060e-02 -2.7502777758413911e-02
      2.2537520306922385e-02 9.5136411283809497e-03
      7.3392171347229883e-03 1.1510201257692559e-02
      1.8642971515675094e-02 9.1842861269627318e-03
      -2.4095764209788720e-02 -1.6912585511879071e-02
      1.6985198117675890e-02 -4.2562837837926623e-03
      -4.8574971659864604e-03 -2.4366407435244593e-03
      4.1734094752668748e-03 -2.7256953314798896e-02
      1.0796058624239085e-02 6.0369657390057351e-03
      2.8495805796358329e-02 -2.5218948169566883e-02
      -1.9463464071378452e-02 -6.0975392019086147e-03
      -1.3756377727540054e-02 3.6906024846341998e-03
      2.7240820396277881e-02 -2.0675068505801825e-02
      2.7376576273595504e-02 -7.0473284724569523e-03
      2.1726041029476780e-02 -2.6158842847226693e-02
      6.1407777858581659e-03 -2.9758359266983420e-02
      -2.6279712065534599e-02 -4.2132518375176588e-03
      -2.2942534375093863e-02 3.0541854692211611e-02
      -3.4414166343797589e-03 1.0664930694017331e-02
      -6.1523842117618783e-03 -2.1050862695915076e-02
      3.5772651686957497e-03 2.5463650313706553e-03
      -2.7455999604616695e-02 -3.1290555303636648e-03
      -4.0400256643633127e-03 -2.8445318505181380e-02
      -6.4766919680531165e-03 -1.4525414752604546e-03
      1.4521722048211393e-03 6.6547842461339851e-03
      4.0651445298985858e-02 1.4403610780644050e-02
      7.8572086733038927e-03 4.8879106675252682e-03
      -8.9134228327303732e-03 1.1778281815838586e-02
      -7.3609071560778311e-03 -3.1177279354486203e-03
      -4.8921848662801352e-03 -8.9094216564309398e-03
      1.0970955002371385e-02 5.1723903403306350e-03
      7.7141612196268451e-03 -1.2791985705372037e-03
      -4.1166448560324516e-03 9.7749107846485661e-03
      -7.2146530626112405e-03 2.0429742501567984e-03
      2.7696857490852539e-03 -1.0581357799258057e-02
      -3.0734529527558395e-03 5.8272932753707755e-03
      7.0096954944265663e-03 1.2510235423845956e-02
      1.0511138626668588e-02 -8.1863449284444775e-03
      1.5304615107472878e-02 -1.0856650678569241e-02
      6.6876009837266220e-03 1.0340587152401345e-02
      -1.5250762608025754e-02 -1.8487211047103123e-02
      -1.1605682396452382e-02 4.3468029605024765e-03
      9.6644388423432930e-04 8.3417873311666599e-03
      9.4997779989025553e-03 3.1582553164941599e-03
      -1.4658674105942645e-02 -6.6610178032231728e-03
      3.3065085327372318e-02 1.7893135963798577e-02
      1.1590238101014477e-02 7.8574820866562037e-03
      -1.0785577791922692e-02 1.7501278353913137e-02
      -1.1726146499368012e-02 -5.9174860734351855e-03
      -1.5464382766360087e-02 -7.7123751690774895e-04
      1.2522166365739149e-02 6.1091550907333191e-03
      1.1243076170557758e-02 -4.4719061491736416e-03
      -1.4513282604938338e-02 1.3951938214942710e-02
      -1.5235017072893641e-02 2.5749540829690556e-03
      -5.5209844984434996e-03 -3.2529405239177509e-03
      -4.7396009499906903e-03 1.2835616590829055e-02
      1.6705851664218816e-02 1.3241470947904642e-02
      1.4135328026420238e-02 -1.5440872541854013e-02
      1.8927947285502417e-02 -1.2711060260990290e-02
      6.6541832386888726e-03 1.5490962073682399e-02
      -1.7676047837262822e-02 -1.9803341849206613e-02
      -6.6319920469467709e-03 6.1554181448372743e-03
      1.3116440169451079e-03 1.4994094960898208e-02
      1.2150391249731315e-02 4.0379218644670742e-03
      -1.9356206023523753e-02 -8.6298877776856339e-03
      3.5426314023109459e-02 1.3182807493722136e-02
      8.1642514401913599e-03 4.2302645717542595e-03
      -6.9060700874901100e-03 4.9292742090594616e-03
      -6.5360395586867960e-03 -2.6306733222739823e-03
      -6.7898150309752660e-03 -5.9940723164990427e-03
      6.1287979488121799e-03 3.7585571519575499e-03
      5.9248458997356928e-03 -8.1957140058194029e-04
      -4.1943374541271857e-03 4.4299176424180660e-03
      -4.8604075007272910e-03 2.0889304629102740e-03
      2.3552446403322276e-03 -7.9917599521359180e-03
      -2.3817864436076917e-03 1.8527041992265224e-03
      4.6890920911850488e-03 1.0593040902247107e-02
      6.4686468259470666e-03 -2.1803083444181578e-03
      1.5760606953464304e-02 -8.7830193703903273e-03
      4.5576689033430141e-03 5.4956202277560229e-03
      -1.3156938563742296e-02 -1.7975304189791399e-02
      -9.6764993168829503e-03 4.3268704000033282e-03
      1.5016404034587236e-04 1.3238027736935541e-03
      8.0437493179094603e-03 3.6889559935480106e-03
      -1.5863482001236127e-02 -6.1071834979586938e-03
      1.4065917267925254e-01 4.0372527515105831e-02
      2.9816569802200481e-02 1.4396706936470145e-02
      -2.4881700280912595e-02 2.1358794363501556e-04
      -1.4196004941708676e-02 -2.0306757606567312e-02
      2.6469349545711335e-05 3.6214183804157300e-02
      1.0872215086442817e-02 1.9036535174336292e-02
      1.3617306046646167e-02 -1.3148997597929674e-02
      -3.3186922443028443e-03 6.8675042826924926e-03
      -2.0513893707506457e-03 1.4880385922090646e-02
      -3.7417055596644398e-02 3.3048716212497060e-02
      -1.9523351734227888e-02 -3.3004503326142611e-03
      2.9217050840547186e-03 3.2435387811763076e-02
      7.1650985188625380e-03 4.8824055461262061e-03
      4.3582754723525047e-02 -3.9900398911739264e-02
      1.3365044289646912e-02 8.5489014971565514e-03
      -3.5963603675123176e-02 -4.4428662512886151e-02
      3.3012680120947373e-02 1.3687447067099951e-02
      1.2800713707489475e-02 -6.1728524361583876e-03
      2.9832231000880623e-02 1.5225316206350774e-02
      -3.9972680452811993e-02 -2.5928140151071654e-02
      2.1217250031575038e-01 6.9612307903920048e-02
      5.4253904477372279e-02 2.4253293250780763e-02
      -4.8175382774428760e-02 7.6762402462005721e-03
      -2.4022047798267703e-02 -3.7209432155629496e-02
      -3.9243079140785292e-03 6.1832264590622507e-02
      2.1004261497954504e-02 3.7227491818026447e-02
      2.4057954562205983e-02 -2.7376342579407516e-02
      -6.5725455185985182e-03 1.9411945294524061e-02
      -5.8198779714116510e-03 3.2051433139599593e-02
      -6.7182241370531123e-02 6.2424170732692429e-02
      -3.5293770838923363e-02 1.2929903212542430e-03
      4.6660671589840294e-03 5.6936128576656517e-02
      1.8591844802467034e-02 5.6497311792906128e-05
      7.4086523295885900e-02 -7.0634271474162041e-02
      2.4135919825924401e-02 1.8176791336495812e-02
      -6.1633576218874726e-02 -7.3238100398212741e-02
      6.0974817181270353e-02 2.3779440923559401e-02
      2.8115463752515085e-02 5.2558342081354659e-04
      5.3173811904384687e-02 2.4516591090108418e-02
      -6.5833063380410367e-02 -4.8049790583967598e-02
      2.9627234127173525e-03 6.3759154904011756e-03
      3.5020460811892120e-03 6.8599283107741924e-03
      -2.0374770185194783e-03 3.5347319067184697e-02
      -1.6965334826802028e-02 1.0261010342575466e-03
      -4.1821084116969012e-02 -3.2760799484190264e-03
      2.2678553307818948e-02 9.0434332805167399e-04
      1.9064098271144785e-02 8.5730067847706606e-04
      -4.2349965610061623e-02 2.7053268425082540e-02
      -4.4443359807984847e-02 -9.3621252652813876e-04
      -1.7650105055517701e-04 -6.6397672470090117e-03
      6.9203379988789452e-04 3.6458881877768787e-02
      4.4047853974149773e-02 6.5199207857462088e-03
      2.5153000285884651e-02 -3.9333554421447189e-02
      7.7617955282376699e-03 -2.9263368751024691e-03
      8.4699250863161622e-03 2.5858967997425177e-02
      -8.7275407173106074e-03 -9.4184297505925090e-03
      -1.2112659294916155e-02 3.8716416344012155e-03
      -2.0750076533179022e-03 3.7286018509721373e-02
      2.8704919194449995e-03 1.1191002319829281e-03
      -8.1904813616785355e-03 -3.3858627434915143e-03
      1.6236825087467113e-01 4.5903777410823229e-02
      3.8943674866397153e-02 1.5028681697605602e-02
      -3.4481477752852763e-02 -3.9448808462937994e-03
      -1.1058320758078492e-02 -2.8578869753052624e-02
      6.5629353711595144e-03 6.2450161281651755e-02
      8.0313962196443545e-03 2.8662162745637185e-02
      1.1482642142843601e-02 -2.2065202841336024e-02
      4.5986598869650619e-03 8.5648005672055837e-03
      4.8690918594251412e-03 2.4566545654828052e-02
      -6.5879783398233915e-02 6.1130051092514251e-02
      -2.8855488341819193e-02 -8.0102882727007916e-03
      -5.7082603239651444e-03 3.8409480515162180e-02
      8.3857253403280194e-03 9.2205907894469547e-03
      5.0967001459000988e-02 -5.0182441717027633e-02
      1.3075231622646209e-02 8.9654631947547105e-03
      -4.0789573383920370e-02 -4.9033882185418744e-02
      5.7129490985332286e-02 1.7183969235363739e-02
      2.2630486798466892e-02 -1.0872313431840322e-02
      3.7103119372555469e-02 1.8898954863563727e-02
      -4.4370994461697122e-02 -3.5443166104717094e-02
      2.4341486937922199e-01 7.5630160008859720e-02
      5.9069069901498517e-02 2.4206409139523152e-02
      -5.3959828010303593e-02 2.7464039744967117e-03
      -2.0088166935713150e-02 -4.4236030925149890e-02
      7.0490655084589791e-03 8.4695844666515280e-02
      1.8067798881373918e-02 4.4888736542056960e-02
      2.0598347481155858e-02 -2.8209854242131606e-02
      1.7891288445905417e-03 1.5295601665914340e-02
      5.3545103538645729e-03 3.6640960438407019e-02
      -8.1568443360483175e-02 8.5413961425984938e-02
      -4.1080966440004744e-02 -5.8969840417287507e-03
      -4.0022802767287055e-03 6.2968020824351351e-02
      1.4893532387656233e-02 7.9188444683599649e-03
      8.0549704911492409e-02 -7.7410836864771126e-02
      2.0924178520582100e-02 1.6338557150019060e-02
      -6.8111727929934501e-02 -8.0184405883014231e-02
      8.9616919723202140e-02 2.4866864577853851e-02
      3.1888611564686059e-02 -7.7952814805710762e-03
      5.8798817433530860e-02 2.8429309831515769e-02
      -7.3491195090554906e-02 -5.6472424790102678e-02
      7.8804668992228974e-02 1.9227188496650779e-02
      1.4788797549440357e-02 3.8997931051323220e-03
      -1.3500024627712465e-02 -1.1663599217269647e-02
      -2.6975332613106292e-03 -8.7831885871580331e-03
      1.9529700483237714e-02 5.9535540891316402e-03
      -6.0567387404992731e-04 7.8990828226325836e-03
      2.4602726491319035e-03 -4.8735724848700092e-03
      2.0483445756622233e-02 -4.1149289720255429e-03
      1.9312084764985266e-02 5.0430004671877674e-03
      -5.6454897247219188e-03 7.8852050048988237e-03
      -7.9955801374778437e-03 -1.5843679222043827e-02
      -2.0475632889740445e-02 1.7517444301811260e-02
      -4.0761589897555855e-03 1.7470993883474051e-02
      2.1158957377823525e-02 -1.9037374687180069e-02
      4.7921565066152217e-03 -3.3546069480669791e-03
      -2.0031181288876675e-02 -2.1769764038119543e-02
      8.5585180955187346e-03 5.6423638453812867e-03
      3.7714597956838847e-03 -1.7380916765297606e-02
      1.4787934459762122e-02 5.4768695811803006e-03
      -2.1259297052261122e-02 -1.3383532146466490e-02
      6.0515470988934734e-02 1.5502766777554466e-02
      1.2391310167460364e-02 3.3044627803443570e-03
      -9.7153601958874670e-03 -1.7963938137068695e-02
      3.8929270144091014e-04 -7.0059963734962578e-03
      2.4823687043329715e-02 -2.1512859110593158e-03
      -5.4055321637123200e-03 7.4173084399110963e-03
      -1.1103101925843514e-03 -1.7475940191340003e-03
      2.3374498870313114e-02 -6.4998871740051976e-03
      2.4508487398481965e-02 4.9601354094934002e-03
      3.2891188577759325e-03 1.6478830264305621e-03
      -5.4533428179040534e-03 -2.2378173364310690e-02
      -2.5124251062433711e-02 1.3244356645219963e-02
      -7.0835679536730110e-03 2.2068844307156124e-02
      1.6725241173989228e-02 -1.5571442483893989e-02
      2.8935757787663236e-04 -5.8148372355911202e-03
      -1.5470351616266479e-02 -1.5245571514117224e-02
      9.1824042497102443e-05 2.3172493436501886e-03
      2.7235966215332728e-03 -2.1071926569169418e-02
      1.1573901402418882e-02 1.6041169400101178e-03
      -1.6675356412929967e-02 -1.0248212392361409e-02
