<?xml version="1.0"?>
<opencv_storage>
<shapeML type_id="opencv-ml-ann-mlp">
  <layer_sizes type_id="opencv-matrix">
    <rows>1</rows>
    <cols>3</cols>
    <dt>i</dt>
    <data>
      1600 40 1</data></layer_sizes>
  <activation_function>SIGMOID_SYM</activation_function>
  <f_param1>5.9999999999999998e-01</f_param1>
  <f_param2>1.</f_param2>
  <min_val>-9.4999999999999996e-01</min_val>
  <max_val>9.4999999999999996e-01</max_val>
  <min_val1>-9.7999999999999998e-01</min_val1>
  <max_val1>9.7999999999999998e-01</max_val1>
  <training_params>
    <train_method>BACKPROP</train_method>
    <dw_scale>1.0000000000000001e-01</dw_scale>
    <moment_scale>1.0000000000000001e-01</moment_scale>
    <term_criteria><epsilon>9.9999999747524271e-07</epsilon>
      <iterations>4000</iterations></term_criteria></training_params>
  <input_scale>
    5.1431769840353074e-02 -7.6696498884737035e-02
    2.5945837796732825e-02 -1.5476464650682736e-01
    5.1431769840353074e-02 -7.6696498884737035e-02
    5.1431769840353074e-02 -7.6696498884737035e-02
    2.9870374096094485e-02 -1.3363062095621217e-01
    2.9870374096094485e-02 -1.3363062095621217e-01
    2.3276457450903253e-02 -1.7355253362515582e-01
    2.5945837796732825e-02 -1.5476464650682736e-01
    2.1312693171372063e-02 -1.9069251784911848e-01
    1.9791785975149676e-02 -2.0659846763533432e-01
    1.8570223653198555e-02 -2.2153951024868451e-01
    1.6712560481127018e-02 -2.4922239313961342e-01
    1.7562129205940396e-02 -2.3570226039551584e-01
    1.5984519878529047e-02 -2.6220221204253791e-01
    1.6712560481127018e-02 -2.4922239313961342e-01
    1.5984519878529047e-02 -2.6220221204253791e-01
    1.5352063029559361e-02 -2.7472112789737807e-01
    2.1312693171372063e-02 -1.9069251784911848e-01
    1.8570223653198555e-02 -2.2153951024868451e-01
    1.1948149638437797e-02 -3.7416573867739417e-01
    1.0754563837845970e-02 -4.3301270189221930e-01
    1.2478354962115544e-02 -3.5355339059327373e-01
    1.4796387972658356e-02 -2.8684225806644709e-01
    1.5984519878529047e-02 -2.6220221204253791e-01
    2.9870374096094485e-02 -1.3363062095621217e-01
    2.9870374096094485e-02 -1.3363062095621217e-01
    2.5945837796732825e-02 -1.5476464650682736e-01
    2.1312693171372063e-02 -1.9069251784911848e-01
    2.5945837796732825e-02 -1.5476464650682736e-01
    1.9791785975149676e-02 -2.0659846763533432e-01
    1.7562129205940396e-02 -2.3570226039551584e-01
    2.1312693171372063e-02 -1.9069251784911848e-01
    1.8570223653198555e-02 -2.2153951024868451e-01
    2.3276457450903253e-02 -1.7355253362515582e-01
    1.8570223653198555e-02 -2.2153951024868451e-01
    1.8570223653198555e-02 -2.2153951024868451e-01
    3.6475191427722362e-02 -1.0878565864408424e-01
    3.6475191427722362e-02 -1.0878565864408424e-01
    5.1431769840353074e-02 -7.6696498884737035e-02
    2.9870374096094485e-02 -1.3363062095621217e-01
    2.5945837796732825e-02 -1.5476464650682736e-01
    2.3276457450903253e-02 -1.7355253362515582e-01
    5.1431769840353074e-02 -7.6696498884737035e-02
    3.6475191427722362e-02 -1.0878565864408424e-01
    2.3276457450903253e-02 -1.7355253362515582e-01
    2.3276457450903253e-02 -1.7355253362515582e-01
    1.9791785975149676e-02 -2.0659846763533432e-01
    1.8570223653198555e-02 -2.2153951024868451e-01
    1.7562129205940396e-02 -2.3570226039551584e-01
    1.6712560481127018e-02 -2.4922239313961342e-01
    1.3465735808071306e-02 -3.2128773156099955e-01
    1.2778325951794775e-02 -3.4299717028501764e-01
    1.2478354962115544e-02 -3.5355339059327373e-01
    1.0921574556798238e-02 -4.2345052228989660e-01
    1.0597633485511116e-02 -4.4249767886870978e-01
    1.0179139476758303e-02 -4.7056197405716016e-01
    1.0754563837845970e-02 -4.3301270189221930e-01
    9.8255345667450159e-03 -4.9817184031391393e-01
    9.6191743239138448e-03 -5.1639777949432220e-01
    1.0179139476758303e-02 -4.7056197405716016e-01
    9.3462342294910149e-03 -5.4355730650460898e-01
    1.0179139476758303e-02 -4.7056197405716016e-01
    9.8255345667450159e-03 -4.9817184031391393e-01
    1.0449915022217105e-02 -4.5191299175026606e-01
    1.1712549931781635e-02 -3.8425383109529226e-01
    1.3465735808071306e-02 -3.2128773156099955e-01
    1.5984519878529047e-02 -2.6220221204253791e-01
    1.5352063029559361e-02 -2.7472112789737807e-01
    1.5352063029559361e-02 -2.7472112789737807e-01
    1.4796387972658356e-02 -2.8684225806644709e-01
    1.5352063029559361e-02 -2.7472112789737807e-01
    1.5984519878529047e-02 -2.6220221204253791e-01
    1.5352063029559361e-02 -2.7472112789737807e-01
    1.5352063029559361e-02 -2.7472112789737807e-01
    1.4796387972658356e-02 -2.8684225806644709e-01
    1.5984519878529047e-02 -2.6220221204253791e-01
    2.9870374096094485e-02 -1.3363062095621217e-01
    3.6475191427722362e-02 -1.0878565864408424e-01
    2.5945837796732825e-02 -1.5476464650682736e-01
    2.1312693171372063e-02 -1.9069251784911848e-01
    5.1431769840353074e-02 -7.6696498884737035e-02
    2.3276457450903253e-02 -1.7355253362515582e-01
    2.3276457450903253e-02 -1.7355253362515582e-01
    2.5945837796732825e-02 -1.5476464650682736e-01
    2.1312693171372063e-02 -1.9069251784911848e-01
    1.8570223653198555e-02 -2.2153951024868451e-01
    1.5984519878529047e-02 -2.6220221204253791e-01
    1.5352063029559361e-02 -2.7472112789737807e-01
    1.3106028524901159e-02 -3.3224931962249432e-01
    1.2202602335020537e-02 -3.6393726262341952e-01
    1.1099655447137639e-02 -4.1380294430118392e-01
    1.0449915022217105e-02 -4.5191299175026606e-01
    1.0054802412509360e-02 -4.7980811512325366e-01
    9.1852784298537202e-03 -5.6159114610596861e-01
    9.3462342294910149e-03 -5.4355730650460898e-01
    8.9707288785949146e-03 -5.8860571940254358e-01
    9.1103786899089569e-03 -5.7059740215745569e-01
    8.9707288785949146e-03 -5.8860571940254358e-01
    8.7840774919258902e-03 -6.1565595754813918e-01
    9.1103786899089569e-03 -5.7059740215745569e-01
    8.6214088829161938e-03 -6.4282434653322496e-01
    8.8434557608376152e-03 -6.0663003552412420e-01
    9.2638238081604839e-03 -5.5257896399553763e-01
    9.4327497145561545e-03 -5.3452248382484868e-01
    9.1852784298537202e-03 -5.6159114610596861e-01
    9.1103786899089569e-03 -5.7059740215745569e-01
    1.0754563837845970e-02 -4.3301270189221930e-01
    1.1712549931781635e-02 -3.8425383109529226e-01
    1.1712549931781635e-02 -3.8425383109529226e-01
    1.2778325951794775e-02 -3.4299717028501764e-01
    1.3465735808071306e-02 -3.2128773156099955e-01
    1.3862705630558591e-02 -3.1008683647302110e-01
    1.3106028524901159e-02 -3.3224931962249432e-01
    1.2778325951794775e-02 -3.4299717028501764e-01
    1.3465735808071306e-02 -3.2128773156099955e-01
    1.3465735808071306e-02 -3.2128773156099955e-01
    1.5984519878529047e-02 -2.6220221204253791e-01
    1.7562129205940396e-02 -2.3570226039551584e-01
    1.8570223653198555e-02 -2.2153951024868451e-01
    2.5945837796732825e-02 -1.5476464650682736e-01 1. 0.
    5.1431769840353074e-02 -7.6696498884737035e-02
    2.1312693171372063e-02 -1.9069251784911848e-01
    1.8570223653198555e-02 -2.2153951024868451e-01
    1.5984519878529047e-02 -2.6220221204253791e-01
    1.5984519878529047e-02 -2.6220221204253791e-01
    1.3862705630558591e-02 -3.1008683647302110e-01
    1.0921574556798238e-02 -4.2345052228989660e-01
    1.0921574556798238e-02 -4.2345052228989660e-01
    1.0310642913264010e-02 -4.6126560401444255e-01
    1.0754563837845970e-02 -4.3301270189221930e-01
    9.1103786899089569e-03 -5.7059740215745569e-01
    9.0389236361705736e-03 -5.7960115596848150e-01
    8.6214088829161938e-03 -6.4282434653322496e-01
    8.6214088829161938e-03 -6.4282434653322496e-01
    8.3954811448998991e-03 -6.8857674302468475e-01
    8.3189033080770299e-03 -7.0710678118654757e-01
    8.2832870447254008e-03 -7.1643166895607413e-01
    8.4365739799009097e-03 -6.7936622048675743e-01
    8.7273572820103385e-03 -6.2469504755442429e-01
    8.3562802405635073e-03 -6.9782270079091746e-01
    8.2832870447254008e-03 -7.1643166895607413e-01
    8.2493724659976481e-03 -7.2580005117505619e-01
    8.2832870447254008e-03 -7.1643166895607413e-01
    8.4796317344325509e-03 -6.7018843795822181e-01
    9.0389236361705736e-03 -5.7960115596848150e-01
    9.2638238081604839e-03 -5.5257896399553763e-01
    8.7840774919258902e-03 -6.1565595754813918e-01
    1.0754563837845970e-02 -4.3301270189221930e-01
    1.0921574556798238e-02 -4.2345052228989660e-01
    1.1712549931781635e-02 -3.8425383109529226e-01
    1.2202602335020537e-02 -3.6393726262341952e-01
    1.4796387972658356e-02 -2.8684225806644709e-01
    1.3862705630558591e-02 -3.1008683647302110e-01
    1.3862705630558591e-02 -3.1008683647302110e-01
    1.3106028524901159e-02 -3.3224931962249432e-01
    1.3465735808071306e-02 -3.2128773156099955e-01
    1.5984519878529047e-02 -2.6220221204253791e-01
    2.1312693171372063e-02 -1.9069251784911848e-01
    2.3276457450903253e-02 -1.7355253362515582e-01
    5.1431769840353074e-02 -7.6696498884737035e-02
    2.5945837796732825e-02 -1.5476464650682736e-01
    2.5945837796732825e-02 -1.5476464650682736e-01
    1.4796387972658356e-02 -2.8684225806644709e-01
    1.3106028524901159e-02 -3.3224931962249432e-01
    1.3106028524901159e-02 -3.3224931962249432e-01
    1.0921574556798238e-02 -4.2345052228989660e-01
    1.0179139476758303e-02 -4.7056197405716016e-01
    9.8255345667450159e-03 -4.9817184031391393e-01
    9.8255345667450159e-03 -4.9817184031391393e-01
    9.1103786899089569e-03 -5.7059740215745569e-01
    8.9056249322954830e-03 -5.9761430466719689e-01
    8.6214088829161938e-03 -6.4282434653322496e-01
    8.3189033080770299e-03 -7.0710678118654757e-01
    8.3189033080770299e-03 -7.0710678118654757e-01
    8.3954811448998991e-03 -6.8857674302468475e-01
    7.9933954454063996e-03 -8.2247832082997430e-01
    8.1573075440362283e-03 -7.5419317117668283e-01
    8.3562802405635073e-03 -6.9782270079091746e-01
    8.5719616400588457e-03 -6.5192024052026487e-01
    8.3189033080770299e-03 -7.0710678118654757e-01
    8.5247328418566228e-03 -6.6104068703519780e-01
    8.3189033080770299e-03 -7.0710678118654757e-01
    8.4796317344325509e-03 -6.7018843795822181e-01
    8.6214088829161938e-03 -6.4282434653322496e-01
    8.4365739799009097e-03 -6.7936622048675743e-01
    8.4365739799009097e-03 -6.7936622048675743e-01
    8.5719616400588457e-03 -6.5192024052026487e-01
    9.1103786899089569e-03 -5.7059740215745569e-01
    9.6191743239138448e-03 -5.1639777949432220e-01
    1.0597633485511116e-02 -4.4249767886870978e-01
    1.1289940203818826e-02 -4.0406101782088433e-01
    1.1948149638437797e-02 -3.7416573867739417e-01
    1.3106028524901159e-02 -3.3224931962249432e-01
    1.3862705630558591e-02 -3.1008683647302110e-01
    1.1712549931781635e-02 -3.8425383109529226e-01
    1.3465735808071306e-02 -3.2128773156099955e-01
    1.6712560481127018e-02 -2.4922239313961342e-01
    1.9791785975149676e-02 -2.0659846763533432e-01
    1.9791785975149676e-02 -2.0659846763533432e-01
    3.6475191427722362e-02 -1.0878565864408424e-01
    2.1312693171372063e-02 -1.9069251784911848e-01
    1.8570223653198555e-02 -2.2153951024868451e-01
    1.4796387972658356e-02 -2.8684225806644709e-01
    1.2478354962115544e-02 -3.5355339059327373e-01
    1.0754563837845970e-02 -4.3301270189221930e-01
    9.8255345667450159e-03 -4.9817184031391393e-01
    9.8255345667450159e-03 -4.9817184031391393e-01
    9.1852784298537202e-03 -5.6159114610596861e-01
    8.8434557608376152e-03 -6.0663003552412420e-01
    9.0389236361705736e-03 -5.7960115596848150e-01
    8.7840774919258902e-03 -6.1565595754813918e-01
    8.3954811448998991e-03 -6.8857674302468475e-01
    8.5247328418566228e-03 -6.6104068703519780e-01
    8.2493724659976481e-03 -7.2580005117505619e-01
    8.1035264522945332e-03 -7.7338919123653083e-01
    7.8497170128666478e-03 -9.5986890490667598e-01
    7.9427717857972514e-03 -8.5280286542244166e-01
    7.9150598466463384e-03 -8.7343379711237656e-01
    8.1296861068310897e-03 -7.6376261582597338e-01
    8.0787899957892022e-03 -7.8307569696026913e-01
    8.1035264522945332e-03 -7.7338919123653083e-01
    8.3189033080770299e-03 -7.0710678118654757e-01
    8.2832870447254008e-03 -7.1643166895607413e-01
    8.0334456339462724e-03 -8.0263987518112312e-01
    8.0127734021953004e-03 -8.1252333797699716e-01
    7.9933954454063996e-03 -8.2247832082997430e-01
    8.2493724659976481e-03 -7.2580005117505619e-01
    8.8434557608376152e-03 -6.0663003552412420e-01
    9.1103786899089569e-03 -5.7059740215745569e-01
    9.9370944294274750e-03 -4.8900964692182575e-01
    9.9370944294274750e-03 -4.8900964692182575e-01
    1.0754563837845970e-02 -4.3301270189221930e-01
    1.0449915022217105e-02 -4.5191299175026606e-01
    1.1493734323791317e-02 -3.9421492285986010e-01
    1.0921574556798238e-02 -4.2345052228989660e-01
    1.3862705630558591e-02 -3.1008683647302110e-01
    1.7562129205940396e-02 -2.3570226039551584e-01
    1.9791785975149676e-02 -2.0659846763533432e-01
    1.6712560481127018e-02 -2.4922239313961342e-01
    3.6475191427722362e-02 -1.0878565864408424e-01
    1.6712560481127018e-02 -2.4922239313961342e-01
    1.5352063029559361e-02 -2.7472112789737807e-01
    1.1289940203818826e-02 -4.0406101782088433e-01
    1.1099655447137639e-02 -4.1380294430118392e-01
    1.0449915022217105e-02 -4.5191299175026606e-01
    9.5236333845258748e-03 -5.2547064902340135e-01
    9.8255345667450159e-03 -4.9817184031391393e-01
    8.8434557608376152e-03 -6.0663003552412420e-01
    8.8434557608376152e-03 -6.0663003552412420e-01
    8.9707288785949146e-03 -5.8860571940254358e-01
    8.5719616400588457e-03 -6.5192024052026487e-01
    8.1864322098888515e-03 -7.4467808786445078e-01
    8.0554408429249977e-03 -7.9282496717209183e-01
    7.8734877175591703e-03 -9.1581093977925077e-01
    7.8734877175591703e-03 -9.1581093977925077e-01
    7.8659009012851527e-03 -9.2665832547596139e-01
    7.8734877175591703e-03 -9.1581093977925077e-01
    7.8497170128666478e-03 -9.5986890490667598e-01
    7.8497170128666478e-03 -9.5986890490667598e-01
    7.8920046264698458e-03 -8.9442719099991586e-01
    8.0554408429249977e-03 -7.9282496717209183e-01
    8.1296861068310897e-03 -7.6376261582597338e-01
    8.0127734021953004e-03 -8.1252333797699716e-01
    8.1035264522945332e-03 -7.7338919123653083e-01
    7.9029581426731770e-03 -8.8388347648318422e-01
    7.9029581426731770e-03 -8.8388347648318422e-01
    7.9752852087257887e-03 -8.3250784196348138e-01
    8.2493724659976481e-03 -7.2580005117505619e-01
    8.3189033080770299e-03 -7.0710678118654757e-01
    8.7840774919258902e-03 -6.1565595754813918e-01
    9.0389236361705736e-03 -5.7960115596848150e-01
    9.1103786899089569e-03 -5.7059740215745569e-01
    9.6191743239138448e-03 -5.1639777949432220e-01
    1.0449915022217105e-02 -4.5191299175026606e-01
    1.2478354962115544e-02 -3.5355339059327373e-01
    1.2202602335020537e-02 -3.6393726262341952e-01
    1.4303492280140651e-02 -2.9861676865556797e-01
    1.5352063029559361e-02 -2.7472112789737807e-01
    1.9791785975149676e-02 -2.0659846763533432e-01
    2.3276457450903253e-02 -1.7355253362515582e-01
    1.5352063029559361e-02 -2.7472112789737807e-01
    1.3862705630558591e-02 -3.1008683647302110e-01
    1.0921574556798238e-02 -4.2345052228989660e-01
    1.0754563837845970e-02 -4.3301270189221930e-01
    1.1712549931781635e-02 -3.8425383109529226e-01
    9.0389236361705736e-03 -5.7960115596848150e-01
    8.4365739799009097e-03 -6.7936622048675743e-01
    8.4796317344325509e-03 -6.7018843795822181e-01
    8.6214088829161938e-03 -6.4282434653322496e-01
    8.4365739799009097e-03 -6.7936622048675743e-01
    8.0334456339462724e-03 -8.0263987518112312e-01
    7.9150598466463384e-03 -8.7343379711237656e-01
    7.8464922060152396e-03 -9.7117548269188614e-01
    7.8594153422041884e-03 -9.3761446187699082e-01
    7.8920046264698458e-03 -8.9442719099991586e-01
    7.8920046264698458e-03 -8.9442719099991586e-01
    7.8920046264698458e-03 -8.9442719099991586e-01
    7.8659009012851527e-03 -9.2665832547596139e-01
    7.8464922060152396e-03 -9.7117548269188614e-01
    7.8594153422041884e-03 -9.3761446187699082e-01
    7.9029581426731770e-03 -8.8388347648318422e-01
    7.8432713703294188e-03 -9.9416904650228155e-01
    7.8464922060152396e-03 -9.7117548269188614e-01
    7.8497170128666478e-03 -9.5986890490667598e-01
    7.9427717857972514e-03 -8.5280286542244166e-01
    7.9029581426731770e-03 -8.8388347648318422e-01
    7.9427717857972514e-03 -8.5280286542244166e-01
    8.2493724659976481e-03 -7.2580005117505619e-01
    8.3189033080770299e-03 -7.0710678118654757e-01
    8.1573075440362283e-03 -7.5419317117668283e-01
    8.4796317344325509e-03 -6.7018843795822181e-01
    8.7840774919258902e-03 -6.1565595754813918e-01
    8.7840774919258902e-03 -6.1565595754813918e-01
    1.0449915022217105e-02 -4.5191299175026606e-01
    1.1289940203818826e-02 -4.0406101782088433e-01
    1.2202602335020537e-02 -3.6393726262341952e-01
    1.4796387972658356e-02 -2.8684225806644709e-01
    1.7562129205940396e-02 -2.3570226039551584e-01
    1.8570223653198555e-02 -2.2153951024868451e-01
    1.9791785975149676e-02 -2.0659846763533432e-01
    1.4796387972658356e-02 -2.8684225806644709e-01
    1.3862705630558591e-02 -3.1008683647302110e-01
    1.1948149638437797e-02 -3.7416573867739417e-01
    1.1289940203818826e-02 -4.0406101782088433e-01
    1.0449915022217105e-02 -4.5191299175026606e-01
    9.0389236361705736e-03 -5.7960115596848150e-01
    8.2493724659976481e-03 -7.2580005117505619e-01
    8.1035264522945332e-03 -7.7338919123653083e-01
    8.1573075440362283e-03 -7.5419317117668283e-01
    8.0334456339462724e-03 -8.0263987518112312e-01
    7.8540229468234257e-03 -9.4868329805051377e-01
    7.8734877175591703e-03 -9.1581093977925077e-01
    7.8821853039918906e-03 -9.0506847043205130e-01
    7.9584181784764282e-03 -8.4261497731763579e-01
    7.9752852087257887e-03 -8.3250784196348138e-01
    7.8734877175591703e-03 -9.1581093977925077e-01
    7.8497170128666478e-03 -9.5986890490667598e-01
    7.8821853039918906e-03 -9.0506847043205130e-01
    7.9150598466463384e-03 -8.7343379711237656e-01
    8.0334456339462724e-03 -8.0263987518112312e-01
    7.8464922060152396e-03 -9.7117548269188614e-01
    7.8443445414872540e-03 -9.8260736888103495e-01
    7.8734877175591703e-03 -9.1581093977925077e-01
    7.9933954454063996e-03 -8.2247832082997430e-01
    7.8734877175591703e-03 -9.1581093977925077e-01
    7.9283253193840296e-03 -8.6307471239961231e-01
    8.1035264522945332e-03 -7.7338919123653083e-01
    8.0787899957892022e-03 -7.8307569696026913e-01
    8.0554408429249977e-03 -7.9282496717209183e-01
    8.1573075440362283e-03 -7.5419317117668283e-01
    8.0554408429249977e-03 -7.9282496717209183e-01
    8.1035264522945332e-03 -7.7338919123653083e-01
    8.7840774919258902e-03 -6.1565595754813918e-01
    9.5236333845258748e-03 -5.2547064902340135e-01
    1.0921574556798238e-02 -4.2345052228989660e-01
    1.0921574556798238e-02 -4.2345052228989660e-01
    1.3862705630558591e-02 -3.1008683647302110e-01
    1.5984519878529047e-02 -2.6220221204253791e-01
    1.9791785975149676e-02 -2.0659846763533432e-01
    2.1312693171372063e-02 -1.9069251784911848e-01
    1.4796387972658356e-02 -2.8684225806644709e-01
    1.3465735808071306e-02 -3.2128773156099955e-01
    1.1493734323791317e-02 -3.9421492285986010e-01
    9.8255345667450159e-03 -4.9817184031391393e-01
    8.7273572820103385e-03 -6.2469504755442429e-01
    8.4796317344325509e-03 -6.7018843795822181e-01
    8.2493724659976481e-03 -7.2580005117505619e-01
    7.9584181784764282e-03 -8.4261497731763579e-01
    8.0127734021953004e-03 -8.1252333797699716e-01
    7.9584181784764282e-03 -8.4261497731763579e-01
    7.8821853039918906e-03 -9.0506847043205130e-01
    7.8920046264698458e-03 -8.9442719099991586e-01
    7.8734877175591703e-03 -9.1581093977925077e-01
    7.9029581426731770e-03 -8.8388347648318422e-01
    7.8443445414872540e-03 -9.8260736888103495e-01
    7.8659009012851527e-03 -9.2665832547596139e-01
    7.8659009012851527e-03 -9.2665832547596139e-01
    8.0787899957892022e-03 -7.8307569696026913e-01
    7.9283253193840296e-03 -8.6307471239961231e-01
    7.8659009012851527e-03 -9.2665832547596139e-01
    7.8464922060152396e-03 -9.7117548269188614e-01
    7.8443445414872522e-03 -1.0177004891982144e+00
    7.8821853039918906e-03 -9.0506847043205130e-01
    7.8540229468234257e-03 -9.4868329805051377e-01
    7.8497170128666478e-03 -9.5986890490667598e-01
    7.9933954454063996e-03 -8.2247832082997430e-01
    7.8659009012851527e-03 -9.2665832547596139e-01
    7.8659009012851527e-03 -9.2665832547596139e-01
    7.9427717857972514e-03 -8.5280286542244166e-01
    7.9283253193840296e-03 -8.6307471239961231e-01
    8.0127734021953004e-03 -8.1252333797699716e-01
    8.1035264522945332e-03 -7.7338919123653083e-01
    8.3562802405635073e-03 -6.9782270079091746e-01
    8.7840774919258902e-03 -6.1565595754813918e-01
    9.4327497145561545e-03 -5.3452248382484868e-01
    1.0449915022217105e-02 -4.5191299175026606e-01
    1.2778325951794775e-02 -3.4299717028501764e-01
    1.4303492280140651e-02 -2.9861676865556797e-01
    1.6712560481127018e-02 -2.4922239313961342e-01
    1.8570223653198555e-02 -2.2153951024868451e-01
    1.3465735808071306e-02 -3.2128773156099955e-01
    1.2478354962115544e-02 -3.5355339059327373e-01
    1.0310642913264010e-02 -4.6126560401444255e-01
    8.5719616400588457e-03 -6.5192024052026487e-01
    8.4796317344325509e-03 -6.7018843795822181e-01
    8.6214088829161938e-03 -6.4282434653322496e-01
    8.3562802405635073e-03 -6.9782270079091746e-01
    8.1864322098888515e-03 -7.4467808786445078e-01
    7.9029581426731770e-03 -8.8388347648318422e-01
    7.8432713703294188e-03 -1.0058651529317202e+00
    7.8659009012851527e-03 -9.2665832547596139e-01
    7.8821853039918906e-03 -9.0506847043205130e-01
    7.8497170128666478e-03 -9.5986890490667598e-01
    7.8432713703294188e-03 -9.9416904650228155e-01
    7.8464922060152414e-03 -1.0296800298420001e+00
    7.8464922060152414e-03 -1.0296800298420001e+00
    7.9029581426731770e-03 -8.8388347648318422e-01
    8.0127734021953004e-03 -8.1252333797699716e-01
    7.8659009012851527e-03 -9.2665832547596139e-01
    7.8594153422041884e-03 -9.3761446187699082e-01
    7.8734877175591703e-03 -9.1581093977925077e-01
    7.8540229468234274e-03 -1.0540925533894601e+00
    7.8497170128666478e-03 -9.5986890490667598e-01
    7.8497170128666478e-03 -9.5986890490667598e-01
    7.8432713703294188e-03 -9.9416904650228155e-01
    7.8497170128666478e-03 -9.5986890490667598e-01
    7.9029581426731770e-03 -1.1313708498984758e+00
    7.8432713703294188e-03 -1.0058651529317202e+00
    7.8594153422041867e-03 -1.0665364503850769e+00
    7.8734877175591703e-03 -9.1581093977925077e-01
    8.0127734021953004e-03 -8.1252333797699716e-01
    8.0127734021953004e-03 -8.1252333797699716e-01
    8.1296861068310897e-03 -7.6376261582597338e-01
    8.3562802405635073e-03 -6.9782270079091746e-01
    8.9056249322954830e-03 -5.9761430466719689e-01
    1.0054802412509360e-02 -4.7980811512325366e-01
    1.1712549931781635e-02 -3.8425383109529226e-01
    1.2478354962115544e-02 -3.5355339059327373e-01
    1.4303492280140651e-02 -2.9861676865556797e-01
    2.3276457450903253e-02 -1.7355253362515582e-01
    1.3465735808071306e-02 -3.2128773156099955e-01
    1.1712549931781635e-02 -3.8425383109529226e-01
    8.9707288785949146e-03 -5.8860571940254358e-01
    8.2493724659976481e-03 -7.2580005117505619e-01
    8.5247328418566228e-03 -6.6104068703519780e-01
    8.5719616400588457e-03 -6.5192024052026487e-01
    8.1573075440362283e-03 -7.5419317117668283e-01
    8.0334456339462724e-03 -8.0263987518112312e-01
    7.9283253193840296e-03 -8.6307471239961231e-01
    7.8464922060152396e-03 -9.7117548269188614e-01
    7.8594153422041884e-03 -9.3761446187699082e-01
    7.8821853039918906e-03 -9.0506847043205130e-01
    7.9283253193840296e-03 -8.6307471239961231e-01
    7.8432713703294188e-03 -9.9416904650228155e-01
    7.8594153422041867e-03 -1.0665364503850769e+00
    7.8432713703294188e-03 -9.9416904650228155e-01
    7.9029581426731770e-03 -8.8388347648318422e-01
    7.8821853039918906e-03 -9.0506847043205130e-01
    7.8443445414872540e-03 -9.8260736888103495e-01
    7.8734877175591703e-03 -9.1581093977925077e-01
    7.9029581426731770e-03 -8.8388347648318422e-01
    7.9029581426731770e-03 -8.8388347648318422e-01
    7.8594153422041884e-03 -9.3761446187699082e-01
    7.8659009012851527e-03 -9.2665832547596139e-01
    7.8540229468234257e-03 -9.4868329805051377e-01
    7.8497170128666461e-03 -1.0418089333743188e+00
    7.9427717857972497e-03 -1.1726039399558570e+00
    7.9584181784764282e-03 -1.1867816581938533e+00
    7.9029581426731770e-03 -1.1313708498984758e+00
    7.8464922060152414e-03 -1.0296800298420001e+00
    7.9029581426731770e-03 -8.8388347648318422e-01
    7.8734877175591703e-03 -9.1581093977925077e-01
    7.9283253193840296e-03 -8.6307471239961231e-01
    8.0127734021953004e-03 -8.1252333797699716e-01
    8.3562802405635073e-03 -6.9782270079091746e-01
    9.3462342294910149e-03 -5.4355730650460898e-01
    1.0310642913264010e-02 -4.6126560401444255e-01
    1.3465735808071306e-02 -3.2128773156099955e-01
    1.4303492280140651e-02 -2.9861676865556797e-01
    1.9791785975149676e-02 -2.0659846763533432e-01
    1.3465735808071306e-02 -3.2128773156099955e-01
    1.0754563837845970e-02 -4.3301270189221930e-01
    8.9707288785949146e-03 -5.8860571940254358e-01
    8.1864322098888515e-03 -7.4467808786445078e-01
    8.0787899957892022e-03 -7.8307569696026913e-01
    7.9933954454063996e-03 -8.2247832082997430e-01
    8.1573075440362283e-03 -7.5419317117668283e-01
    7.9283253193840296e-03 -8.6307471239961231e-01
    7.8540229468234257e-03 -9.4868329805051377e-01
    7.9029581426731770e-03 -8.8388347648318422e-01
    7.8432713703294188e-03 -9.9416904650228155e-01
    7.8540229468234257e-03 -9.4868329805051377e-01
    7.8443445414872540e-03 -9.8260736888103495e-01
    7.8821853039918906e-03 -1.1048887820858808e+00
    7.8594153422041867e-03 -1.0665364503850769e+00
    7.8497170128666478e-03 -9.5986890490667598e-01
    7.8443445414872540e-03 -9.8260736888103495e-01
    7.8464922060152396e-03 -9.7117548269188614e-01
    7.8497170128666478e-03 -9.5986890490667598e-01
    7.8734877175591703e-03 -9.1581093977925077e-01
    7.8920046264698458e-03 -8.9442719099991586e-01
    7.8920046264698458e-03 -8.9442719099991586e-01
    7.8464922060152396e-03 -9.7117548269188614e-01
    7.8464922060152396e-03 -9.7117548269188614e-01
    7.8432713703294188e-03 -1.0058651529317202e+00
    8.0787899957892005e-03 -1.2770157519659771e+00
    8.0554408429249977e-03 -1.2613124477737825e+00
    8.0334456339462741e-03 -1.2458887614751766e+00
    7.8443445414872522e-03 -1.0177004891982144e+00
    7.8432713703294188e-03 -1.0058651529317202e+00
    7.8594153422041884e-03 -9.3761446187699082e-01
    7.8659009012851527e-03 -9.2665832547596139e-01
    7.8497170128666478e-03 -9.5986890490667598e-01
    7.9584181784764282e-03 -8.4261497731763579e-01
    8.3189033080770299e-03 -7.0710678118654757e-01
    8.9707288785949146e-03 -5.8860571940254358e-01
    1.0179139476758303e-02 -4.7056197405716016e-01
    1.3106028524901159e-02 -3.3224931962249432e-01
    1.5984519878529047e-02 -2.6220221204253791e-01
    1.7562129205940396e-02 -2.3570226039551584e-01
    1.1948149638437797e-02 -3.7416573867739417e-01
    9.2638238081604839e-03 -5.5257896399553763e-01
    8.6214088829161938e-03 -6.4282434653322496e-01
    8.0554408429249977e-03 -7.9282496717209183e-01
    7.9584181784764282e-03 -8.4261497731763579e-01
    8.0127734021953004e-03 -8.1252333797699716e-01
    7.9150598466463384e-03 -8.7343379711237656e-01
    7.8594153422041884e-03 -9.3761446187699082e-01
    7.8734877175591703e-03 -9.1581093977925077e-01
    7.8464922060152396e-03 -9.7117548269188614e-01
    7.8464922060152396e-03 -9.7117548269188614e-01
    7.8594153422041867e-03 -1.0665364503850769e+00
    7.8464922060152414e-03 -1.0296800298420001e+00
    7.8443445414872540e-03 -9.8260736888103495e-01
    7.8432713703294188e-03 -1.0058651529317202e+00
    7.8540229468234257e-03 -9.4868329805051377e-01
    7.8594153422041884e-03 -9.3761446187699082e-01
    7.8432713703294188e-03 -9.9416904650228155e-01
    7.8540229468234257e-03 -9.4868329805051377e-01
    7.8594153422041884e-03 -9.3761446187699082e-01
    7.9150598466463384e-03 -8.7343379711237656e-01
    7.9150598466463384e-03 -8.7343379711237656e-01
    7.8540229468234274e-03 -1.0540925533894601e+00
    7.8540229468234274e-03 -1.0540925533894601e+00
    7.9283253193840296e-03 -1.1586482440433152e+00
    8.0787899957892005e-03 -1.2770157519659771e+00
    7.9752852087257887e-03 -1.2011898862615946e+00
    7.9283253193840296e-03 -1.1586482440433152e+00
    7.8821853039918906e-03 -1.1048887820858808e+00
    7.8497170128666461e-03 -1.0418089333743188e+00
    7.8464922060152414e-03 -1.0296800298420001e+00
    7.9283253193840296e-03 -8.6307471239961231e-01
    8.1296861068310897e-03 -7.6376261582597338e-01
    7.9427717857972514e-03 -8.5280286542244166e-01
    8.1864322098888515e-03 -7.4467808786445078e-01
    9.1103786899089569e-03 -5.7059740215745569e-01
    9.9370944294274750e-03 -4.8900964692182575e-01
    1.0179139476758303e-02 -4.7056197405716016e-01
    1.4303492280140651e-02 -2.9861676865556797e-01
    1.2778325951794775e-02 -3.4299717028501764e-01
    1.0921574556798238e-02 -4.2345052228989660e-01
    9.3462342294910149e-03 -5.4355730650460898e-01
    8.4365739799009097e-03 -6.7936622048675743e-01
    7.8920046264698458e-03 -8.9442719099991586e-01
    7.9752852087257887e-03 -8.3250784196348138e-01
    7.8821853039918906e-03 -9.0506847043205130e-01
    7.8497170128666478e-03 -9.5986890490667598e-01
    7.8594153422041884e-03 -9.3761446187699082e-01
    7.8659009012851527e-03 -9.2665832547596139e-01
    7.8443445414872540e-03 -9.8260736888103495e-01
    7.8432713703294188e-03 -1.0058651529317202e+00
    7.8594153422041867e-03 -1.0665364503850769e+00
    7.8920046264698458e-03 -1.1180339887498947e+00
    7.8432713703294188e-03 -1.0058651529317202e+00
    7.8920046264698458e-03 -8.9442719099991586e-01
    7.8497170128666478e-03 -9.5986890490667598e-01
    7.8659009012851527e-03 -9.2665832547596139e-01
    7.8464922060152396e-03 -9.7117548269188614e-01
    7.8594153422041884e-03 -9.3761446187699082e-01
    7.9584181784764282e-03 -8.4261497731763579e-01
    7.9584181784764282e-03 -8.4261497731763579e-01
    7.8497170128666478e-03 -9.5986890490667598e-01
    7.8432713703294188e-03 -1.0058651529317202e+00
    7.8443445414872540e-03 -9.8260736888103495e-01
    7.9752852087257887e-03 -1.2011898862615946e+00
    7.9283253193840296e-03 -1.1586482440433152e+00
    7.8594153422041867e-03 -1.0665364503850769e+00
    7.8920046264698458e-03 -1.1180339887498947e+00
    7.9029581426731770e-03 -1.1313708498984758e+00
    7.9752852087257887e-03 -1.2011898862615946e+00
    7.8594153422041867e-03 -1.0665364503850769e+00
    7.8497170128666478e-03 -9.5986890490667598e-01
    7.9427717857972514e-03 -8.5280286542244166e-01
    7.9584181784764282e-03 -8.4261497731763579e-01
    7.9933954454063996e-03 -8.2247832082997430e-01
    8.4365739799009097e-03 -6.7936622048675743e-01
    9.3462342294910149e-03 -5.4355730650460898e-01
    1.0054802412509360e-02 -4.7980811512325366e-01
    1.2478354962115544e-02 -3.5355339059327373e-01
    1.2778325951794775e-02 -3.4299717028501764e-01
    1.0449915022217105e-02 -4.5191299175026606e-01
    8.5719616400588457e-03 -6.5192024052026487e-01
    8.2832870447254008e-03 -7.1643166895607413e-01
    7.8594153422041884e-03 -9.3761446187699082e-01
    7.8920046264698458e-03 -8.9442719099991586e-01
    7.8594153422041884e-03 -9.3761446187699082e-01
    7.8464922060152414e-03 -1.0296800298420001e+00
    7.8497170128666461e-03 -1.0418089333743188e+00
    7.8734877175591703e-03 -9.1581093977925077e-01
    7.8540229468234257e-03 -9.4868329805051377e-01
    7.8497170128666478e-03 -9.5986890490667598e-01
    7.8464922060152414e-03 -1.0296800298420001e+00
    7.8464922060152396e-03 -9.7117548269188614e-01
    7.8443445414872540e-03 -9.8260736888103495e-01
    7.8594153422041884e-03 -9.3761446187699082e-01
    7.8659009012851527e-03 -9.2665832547596139e-01
    7.9150598466463384e-03 -8.7343379711237656e-01
    7.8594153422041884e-03 -9.3761446187699082e-01
    7.8659009012851527e-03 -9.2665832547596139e-01
    7.9150598466463384e-03 -8.7343379711237656e-01
    7.9427717857972514e-03 -8.5280286542244166e-01
    7.8821853039918906e-03 -9.0506847043205130e-01
    7.8464922060152396e-03 -9.7117548269188614e-01
    7.8497170128666461e-03 -1.0418089333743188e+00
    7.8497170128666461e-03 -1.0418089333743188e+00
    7.9029581426731770e-03 -1.1313708498984758e+00
    7.9150598466463367e-03 -1.1449064637824393e+00
    7.8432713703294188e-03 -9.9416904650228155e-01
    7.9029581426731770e-03 -1.1313708498984758e+00
    7.8920046264698458e-03 -1.1180339887498947e+00
    7.8659009012851545e-03 -1.0791464043517529e+00
    7.8443445414872522e-03 -1.0177004891982144e+00
    7.8659009012851527e-03 -9.2665832547596139e-01
    7.9150598466463384e-03 -8.7343379711237656e-01
    7.9427717857972514e-03 -8.5280286542244166e-01
    8.2171045998719692e-03 -7.3521462209380772e-01
    8.5719616400588457e-03 -6.5192024052026487e-01
    9.4327497145561545e-03 -5.3452248382484868e-01
    1.1493734323791317e-02 -3.9421492285986010e-01
    1.4796387972658356e-02 -2.8684225806644709e-01
    9.5236333845258748e-03 -5.2547064902340135e-01
    8.7840774919258902e-03 -6.1565595754813918e-01
    8.2832870447254008e-03 -7.1643166895607413e-01
    7.9427717857972514e-03 -8.5280286542244166e-01
    7.9029581426731770e-03 -8.8388347648318422e-01
    7.8734877175591703e-03 -9.1581093977925077e-01
    7.8497170128666461e-03 -1.0418089333743188e+00
    7.8821853039918906e-03 -1.1048887820858808e+00
    7.8497170128666461e-03 -1.0418089333743188e+00
    7.8594153422041867e-03 -1.0665364503850769e+00
    7.8464922060152414e-03 -1.0296800298420001e+00
    7.8464922060152396e-03 -9.7117548269188614e-01
    7.8497170128666461e-03 -1.0418089333743188e+00
    7.8443445414872540e-03 -9.8260736888103495e-01
    7.8659009012851527e-03 -9.2665832547596139e-01
    7.8734877175591703e-03 -9.1581093977925077e-01
    7.9283253193840296e-03 -8.6307471239961231e-01
    7.9150598466463384e-03 -8.7343379711237656e-01
    7.9427717857972514e-03 -8.5280286542244166e-01
    7.9584181784764282e-03 -8.4261497731763579e-01
    7.9029581426731770e-03 -8.8388347648318422e-01
    7.9150598466463384e-03 -8.7343379711237656e-01
    7.8594153422041884e-03 -9.3761446187699082e-01
    7.8497170128666478e-03 -9.5986890490667598e-01
    7.8464922060152396e-03 -9.7117548269188614e-01
    7.8497170128666478e-03 -9.5986890490667598e-01
    7.8540229468234274e-03 -1.0540925533894601e+00
    7.9029581426731770e-03 -1.1313708498984758e+00
    7.9427717857972497e-03 -1.1726039399558570e+00
    7.8594153422041867e-03 -1.0665364503850769e+00
    7.8594153422041867e-03 -1.0665364503850769e+00
    7.8464922060152414e-03 -1.0296800298420001e+00
    7.8464922060152396e-03 -9.7117548269188614e-01
    7.9283253193840296e-03 -8.6307471239961231e-01
    7.8920046264698458e-03 -8.9442719099991586e-01
    7.9584181784764282e-03 -8.4261497731763579e-01
    8.5247328418566228e-03 -6.6104068703519780e-01
    9.3462342294910149e-03 -5.4355730650460898e-01
    1.0449915022217105e-02 -4.5191299175026606e-01
    1.2478354962115544e-02 -3.5355339059327373e-01
    9.5236333845258748e-03 -5.2547064902340135e-01
    8.9707288785949146e-03 -5.8860571940254358e-01
    8.0787899957892022e-03 -7.8307569696026913e-01
    7.8659009012851527e-03 -9.2665832547596139e-01
    7.8734877175591703e-03 -9.1581093977925077e-01
    7.8920046264698458e-03 -8.9442719099991586e-01
    7.8497170128666478e-03 -9.5986890490667598e-01
    7.8443445414872522e-03 -1.0177004891982144e+00
    7.8432713703294188e-03 -9.9416904650228155e-01
    7.8920046264698458e-03 -1.1180339887498947e+00
    7.8821853039918906e-03 -1.1048887820858808e+00
    7.8594153422041867e-03 -1.0665364503850769e+00
    7.8464922060152414e-03 -1.0296800298420001e+00
    7.8540229468234274e-03 -1.0540925533894601e+00
    7.8734877175591703e-03 -9.1581093977925077e-01
    7.8659009012851527e-03 -9.2665832547596139e-01
    7.9029581426731770e-03 -8.8388347648318422e-01
    7.9029581426731770e-03 -8.8388347648318422e-01
    7.8920046264698458e-03 -8.9442719099991586e-01
    7.9584181784764282e-03 -8.4261497731763579e-01
    8.0127734021953004e-03 -8.1252333797699716e-01
    7.8659009012851527e-03 -9.2665832547596139e-01
    7.8464922060152396e-03 -9.7117548269188614e-01
    7.8443445414872540e-03 -9.8260736888103495e-01
    7.8540229468234257e-03 -9.4868329805051377e-01
    7.8540229468234257e-03 -9.4868329805051377e-01
    7.8443445414872522e-03 -1.0177004891982144e+00
    7.9150598466463367e-03 -1.1449064637824393e+00
    7.8821853039918906e-03 -1.1048887820858808e+00
    7.9584181784764282e-03 -1.1867816581938533e+00
    7.9933954454063996e-03 -1.2158375177486576e+00
    7.9029581426731770e-03 -1.1313708498984758e+00
    7.8734877175591703e-03 -1.0919284281983375e+00
    7.8464922060152414e-03 -1.0296800298420001e+00
    7.8659009012851527e-03 -9.2665832547596139e-01
    7.8659009012851527e-03 -9.2665832547596139e-01
    8.2832870447254008e-03 -7.1643166895607413e-01
    9.8255345667450159e-03 -4.9817184031391393e-01
    1.1099655447137639e-02 -4.1380294430118392e-01
    1.2202602335020537e-02 -3.6393726262341952e-01
    1.0179139476758303e-02 -4.7056197405716016e-01
    8.6731723099555576e-03 -6.3375022229762978e-01
    8.3562802405635073e-03 -6.9782270079091746e-01
    8.0554408429249977e-03 -7.9282496717209183e-01
    7.9752852087257887e-03 -8.3250784196348138e-01
    7.8659009012851527e-03 -9.2665832547596139e-01
    7.9029581426731770e-03 -8.8388347648318422e-01
    7.8432713703294188e-03 -1.0058651529317202e+00
    7.8464922060152396e-03 -9.7117548269188614e-01
    7.8432713703294188e-03 -1.0058651529317202e+00
    7.9283253193840296e-03 -1.1586482440433152e+00
    7.8821853039918906e-03 -1.1048887820858808e+00
    7.8497170128666461e-03 -1.0418089333743188e+00
    7.8464922060152414e-03 -1.0296800298420001e+00
    7.8443445414872540e-03 -9.8260736888103495e-01
    7.8464922060152396e-03 -9.7117548269188614e-01
    7.8464922060152396e-03 -9.7117548269188614e-01
    7.8920046264698458e-03 -8.9442719099991586e-01
    7.9029581426731770e-03 -8.8388347648318422e-01
    7.8659009012851527e-03 -9.2665832547596139e-01
    7.9029581426731770e-03 -8.8388347648318422e-01
    7.8734877175591703e-03 -9.1581093977925077e-01
    7.8497170128666478e-03 -9.5986890490667598e-01
    7.8659009012851527e-03 -9.2665832547596139e-01
    7.9584181784764282e-03 -8.4261497731763579e-01
    7.8920046264698458e-03 -8.9442719099991586e-01
    7.8594153422041884e-03 -9.3761446187699082e-01
    7.8464922060152396e-03 -9.7117548269188614e-01
    7.8432713703294188e-03 -9.9416904650228155e-01
    7.8594153422041867e-03 -1.0665364503850769e+00
    7.8540229468234274e-03 -1.0540925533894601e+00
    7.9427717857972497e-03 -1.1726039399558570e+00
    7.8821853039918906e-03 -1.1048887820858808e+00
    7.8443445414872540e-03 -9.8260736888103495e-01
    7.8464922060152414e-03 -1.0296800298420001e+00
    7.8734877175591703e-03 -9.1581093977925077e-01
    8.2171045998719692e-03 -7.3521462209380772e-01
    9.8255345667450159e-03 -4.9817184031391393e-01
    1.0054802412509360e-02 -4.7980811512325366e-01
    1.1712549931781635e-02 -3.8425383109529226e-01
    9.8255345667450159e-03 -4.9817184031391393e-01
    8.7840774919258902e-03 -6.1565595754813918e-01
    8.1573075440362283e-03 -7.5419317117668283e-01
    8.0127734021953004e-03 -8.1252333797699716e-01
    7.9427717857972514e-03 -8.5280286542244166e-01
    7.8821853039918906e-03 -9.0506847043205130e-01
    7.8443445414872540e-03 -9.8260736888103495e-01
    7.8497170128666478e-03 -9.5986890490667598e-01
    7.8432713703294188e-03 -9.9416904650228155e-01
    7.8821853039918906e-03 -1.1048887820858808e+00
    7.9150598466463367e-03 -1.1449064637824393e+00
    7.9283253193840296e-03 -1.1586482440433152e+00
    7.8497170128666461e-03 -1.0418089333743188e+00
    7.8659009012851545e-03 -1.0791464043517529e+00
    7.8432713703294188e-03 -1.0058651529317202e+00
    7.8464922060152396e-03 -9.7117548269188614e-01
    7.8659009012851527e-03 -9.2665832547596139e-01
    7.8432713703294188e-03 -1.0058651529317202e+00
    7.8443445414872522e-03 -1.0177004891982144e+00
    7.8497170128666478e-03 -9.5986890490667598e-01
    7.8821853039918906e-03 -9.0506847043205130e-01
    7.8920046264698458e-03 -8.9442719099991586e-01
    7.8734877175591703e-03 -9.1581093977925077e-01
    7.8734877175591703e-03 -9.1581093977925077e-01
    7.8821853039918906e-03 -9.0506847043205130e-01
    7.8497170128666478e-03 -9.5986890490667598e-01
    7.8432713703294188e-03 -9.9416904650228155e-01
    7.8432713703294188e-03 -9.9416904650228155e-01
    7.9150598466463367e-03 -1.1449064637824393e+00
    7.8659009012851545e-03 -1.0791464043517529e+00
    7.8540229468234274e-03 -1.0540925533894601e+00
    7.9029581426731770e-03 -1.1313708498984758e+00
    7.8497170128666461e-03 -1.0418089333743188e+00
    7.8497170128666478e-03 -9.5986890490667598e-01
    7.8432713703294188e-03 -1.0058651529317202e+00
    7.8540229468234257e-03 -9.4868329805051377e-01
    8.1035264522945332e-03 -7.7338919123653083e-01
    9.7196908918204591e-03 -5.0729965619589235e-01
    1.0179139476758303e-02 -4.7056197405716016e-01
    1.3465735808071306e-02 -3.2128773156099955e-01
    1.0054802412509360e-02 -4.7980811512325366e-01
    8.5247328418566228e-03 -6.6104068703519780e-01
    8.0334456339462724e-03 -8.0263987518112312e-01
    8.0787899957892022e-03 -7.8307569696026913e-01
    7.9933954454063996e-03 -8.2247832082997430e-01
    7.9427717857972514e-03 -8.5280286542244166e-01
    7.8659009012851527e-03 -9.2665832547596139e-01
    7.8443445414872522e-03 -1.0177004891982144e+00
    7.8497170128666461e-03 -1.0418089333743188e+00
    7.9427717857972497e-03 -1.1726039399558570e+00
    7.9283253193840296e-03 -1.1586482440433152e+00
    7.8464922060152414e-03 -1.0296800298420001e+00
    7.8464922060152414e-03 -1.0296800298420001e+00
    7.8659009012851545e-03 -1.0791464043517529e+00
    7.8443445414872540e-03 -9.8260736888103495e-01
    7.8432713703294188e-03 -9.9416904650228155e-01
    7.8540229468234257e-03 -9.4868329805051377e-01
    7.8540229468234257e-03 -9.4868329805051377e-01
    7.8920046264698458e-03 -1.1180339887498947e+00
    7.9150598466463367e-03 -1.1449064637824393e+00
    7.8734877175591703e-03 -9.1581093977925077e-01
    7.9752852087257887e-03 -8.3250784196348138e-01
    7.8659009012851527e-03 -9.2665832547596139e-01
    7.8920046264698458e-03 -8.9442719099991586e-01
    7.8443445414872540e-03 -9.8260736888103495e-01
    7.8464922060152414e-03 -1.0296800298420001e+00
    7.8464922060152414e-03 -1.0296800298420001e+00
    7.8432713703294188e-03 -1.0058651529317202e+00
    7.8443445414872522e-03 -1.0177004891982144e+00
    7.9029581426731770e-03 -1.1313708498984758e+00
    7.8659009012851545e-03 -1.0791464043517529e+00
    7.8594153422041867e-03 -1.0665364503850769e+00
    7.8734877175591703e-03 -1.0919284281983375e+00
    7.8432713703294188e-03 -1.0058651529317202e+00
    7.8443445414872540e-03 -9.8260736888103495e-01
    7.8497170128666478e-03 -9.5986890490667598e-01
    8.0127734021953004e-03 -8.1252333797699716e-01
    9.1852784298537202e-03 -5.6159114610596861e-01
    1.0054802412509360e-02 -4.7980811512325366e-01
    1.3465735808071306e-02 -3.2128773156099955e-01
    1.0754563837845970e-02 -4.3301270189221930e-01
    8.7273572820103385e-03 -6.2469504755442429e-01
    8.2493724659976481e-03 -7.2580005117505619e-01
    7.9752852087257887e-03 -8.3250784196348138e-01
    7.9584181784764282e-03 -8.4261497731763579e-01
    7.9752852087257887e-03 -8.3250784196348138e-01
    7.9150598466463384e-03 -8.7343379711237656e-01
    7.8821853039918906e-03 -9.0506847043205130e-01
    7.8432713703294188e-03 -9.9416904650228155e-01
    7.8497170128666478e-03 -9.5986890490667598e-01
    7.8540229468234257e-03 -9.4868329805051377e-01
    7.8432713703294188e-03 -9.9416904650228155e-01
    7.8464922060152414e-03 -1.0296800298420001e+00
    7.8432713703294188e-03 -1.0058651529317202e+00
    7.8920046264698458e-03 -8.9442719099991586e-01
    7.8734877175591703e-03 -9.1581093977925077e-01
    7.9029581426731770e-03 -8.8388347648318422e-01
    7.8920046264698458e-03 -8.9442719099991586e-01
    7.8432713703294188e-03 -9.9416904650228155e-01
    7.8540229468234274e-03 -1.0540925533894601e+00
    7.8594153422041884e-03 -9.3761446187699082e-01
    8.0127734021953004e-03 -8.1252333797699716e-01
    7.9584181784764282e-03 -8.4261497731763579e-01
    7.9933954454063996e-03 -8.2247832082997430e-01
    7.8734877175591703e-03 -9.1581093977925077e-01
    7.8821853039918906e-03 -9.0506847043205130e-01
    7.8734877175591703e-03 -9.1581093977925077e-01
    7.8432713703294188e-03 -9.9416904650228155e-01
    7.8443445414872540e-03 -9.8260736888103495e-01
    7.8497170128666461e-03 -1.0418089333743188e+00
    7.8432713703294188e-03 -9.9416904650228155e-01
    7.8659009012851527e-03 -9.2665832547596139e-01
    7.8443445414872540e-03 -9.8260736888103495e-01
    7.9752852087257887e-03 -8.3250784196348138e-01
    7.9283253193840296e-03 -8.6307471239961231e-01
    7.9029581426731770e-03 -8.8388347648318422e-01
    8.1864322098888515e-03 -7.4467808786445078e-01
    8.8434557608376152e-03 -6.0663003552412420e-01
    1.0921574556798238e-02 -4.2345052228989660e-01
    1.4796387972658356e-02 -2.8684225806644709e-01
    1.0754563837845970e-02 -4.3301270189221930e-01
    9.1103786899089569e-03 -5.7059740215745569e-01
    8.2493724659976481e-03 -7.2580005117505619e-01
    8.1573075440362283e-03 -7.5419317117668283e-01
    8.0787899957892022e-03 -7.8307569696026913e-01
    7.9283253193840296e-03 -8.6307471239961231e-01
    7.9427717857972514e-03 -8.5280286542244166e-01
    7.8540229468234257e-03 -9.4868329805051377e-01
    7.8594153422041884e-03 -9.3761446187699082e-01
    7.8540229468234257e-03 -9.4868329805051377e-01
    7.8497170128666478e-03 -9.5986890490667598e-01
    7.8443445414872522e-03 -1.0177004891982144e+00
    7.9150598466463384e-03 -8.7343379711237656e-01
    7.8497170128666461e-03 -1.0418089333743188e+00
    7.8540229468234257e-03 -9.4868329805051377e-01
    7.8497170128666478e-03 -9.5986890490667598e-01
    7.8734877175591703e-03 -9.1581093977925077e-01
    7.9029581426731770e-03 -8.8388347648318422e-01
    7.8594153422041884e-03 -9.3761446187699082e-01
    7.8920046264698458e-03 -8.9442719099991586e-01
    7.9933954454063996e-03 -8.2247832082997430e-01
    7.9029581426731770e-03 -8.8388347648318422e-01
    7.9427717857972514e-03 -8.5280286542244166e-01
    7.9752852087257887e-03 -8.3250784196348138e-01
    7.8594153422041884e-03 -9.3761446187699082e-01
    7.8443445414872540e-03 -9.8260736888103495e-01
    7.9029581426731770e-03 -8.8388347648318422e-01
    7.8464922060152396e-03 -9.7117548269188614e-01
    7.8594153422041884e-03 -9.3761446187699082e-01
    7.9933954454063996e-03 -8.2247832082997430e-01
    7.8821853039918906e-03 -9.0506847043205130e-01
    7.8821853039918906e-03 -9.0506847043205130e-01
    7.8540229468234257e-03 -9.4868329805051377e-01
    7.9427717857972514e-03 -8.5280286542244166e-01
    7.9283253193840296e-03 -8.6307471239961231e-01
    7.8920046264698458e-03 -8.9442719099991586e-01
    8.1035264522945332e-03 -7.7338919123653083e-01
    8.7273572820103385e-03 -6.2469504755442429e-01
    1.0449915022217105e-02 -4.5191299175026606e-01
    1.5352063029559361e-02 -2.7472112789737807e-01
    1.1099655447137639e-02 -4.1380294430118392e-01
    9.2638238081604839e-03 -5.5257896399553763e-01
    8.4365739799009097e-03 -6.7936622048675743e-01
    8.4365739799009097e-03 -6.7936622048675743e-01
    8.1573075440362283e-03 -7.5419317117668283e-01
    8.0554408429249977e-03 -7.9282496717209183e-01
    7.8821853039918906e-03 -9.0506847043205130e-01
    7.8734877175591703e-03 -9.1581093977925077e-01
    7.8432713703294188e-03 -9.9416904650228155e-01
    7.9029581426731770e-03 -8.8388347648318422e-01
    7.8594153422041884e-03 -9.3761446187699082e-01
    7.8497170128666478e-03 -9.5986890490667598e-01
    7.8443445414872540e-03 -9.8260736888103495e-01
    7.8659009012851527e-03 -9.2665832547596139e-01
    7.8540229468234257e-03 -9.4868329805051377e-01
    7.8540229468234257e-03 -9.4868329805051377e-01
    7.8594153422041884e-03 -9.3761446187699082e-01
    7.8497170128666478e-03 -9.5986890490667598e-01
    7.8734877175591703e-03 -9.1581093977925077e-01
    7.8659009012851527e-03 -9.2665832547596139e-01
    7.9283253193840296e-03 -8.6307471239961231e-01
    7.9427717857972514e-03 -8.5280286542244166e-01
    7.8734877175591703e-03 -9.1581093977925077e-01
    7.8734877175591703e-03 -9.1581093977925077e-01
    7.8821853039918906e-03 -9.0506847043205130e-01
    7.8594153422041884e-03 -9.3761446187699082e-01
    7.8497170128666478e-03 -9.5986890490667598e-01
    7.8821853039918906e-03 -9.0506847043205130e-01
    7.8540229468234257e-03 -9.4868329805051377e-01
    7.8432713703294188e-03 -9.9416904650228155e-01
    7.8920046264698458e-03 -8.9442719099991586e-01
    7.8659009012851527e-03 -9.2665832547596139e-01
    7.8659009012851527e-03 -9.2665832547596139e-01
    7.9427717857972514e-03 -8.5280286542244166e-01
    7.9933954454063996e-03 -8.2247832082997430e-01
    7.9427717857972514e-03 -8.5280286542244166e-01
    8.1864322098888515e-03 -7.4467808786445078e-01
    8.8434557608376152e-03 -6.0663003552412420e-01
    1.0449915022217105e-02 -4.5191299175026606e-01
    1.6712560481127018e-02 -2.4922239313961342e-01
    1.0754563837845970e-02 -4.3301270189221930e-01
    9.4327497145561545e-03 -5.3452248382484868e-01
    8.8434557608376152e-03 -6.0663003552412420e-01
    8.4796317344325509e-03 -6.7018843795822181e-01
    8.1573075440362283e-03 -7.5419317117668283e-01
    7.9584181784764282e-03 -8.4261497731763579e-01
    7.8821853039918906e-03 -9.0506847043205130e-01
    7.9150598466463384e-03 -8.7343379711237656e-01
    7.8540229468234257e-03 -9.4868329805051377e-01
    7.9150598466463384e-03 -8.7343379711237656e-01
    7.8594153422041884e-03 -9.3761446187699082e-01
    7.8594153422041884e-03 -9.3761446187699082e-01
    7.8540229468234257e-03 -9.4868329805051377e-01
    7.8432713703294188e-03 -9.9416904650228155e-01
    7.8734877175591703e-03 -1.0919284281983375e+00
    7.8432713703294188e-03 -9.9416904650228155e-01
    7.8432713703294188e-03 -9.9416904650228155e-01
    7.8594153422041884e-03 -9.3761446187699082e-01
    7.8734877175591703e-03 -9.1581093977925077e-01
    7.8659009012851527e-03 -9.2665832547596139e-01
    7.9150598466463384e-03 -8.7343379711237656e-01
    7.8734877175591703e-03 -9.1581093977925077e-01
    7.9150598466463384e-03 -8.7343379711237656e-01
    7.8594153422041884e-03 -9.3761446187699082e-01
    7.9427717857972514e-03 -8.5280286542244166e-01
    7.8432713703294188e-03 -1.0058651529317202e+00
    7.8432713703294188e-03 -1.0058651529317202e+00
    7.9584181784764282e-03 -8.4261497731763579e-01
    7.9029581426731770e-03 -8.8388347648318422e-01
    7.8920046264698458e-03 -8.9442719099991586e-01
    7.8659009012851527e-03 -9.2665832547596139e-01
    7.8497170128666478e-03 -9.5986890490667598e-01
    7.8594153422041884e-03 -9.3761446187699082e-01
    7.9283253193840296e-03 -8.6307471239961231e-01
    7.8734877175591703e-03 -9.1581093977925077e-01
    7.9029581426731770e-03 -8.8388347648318422e-01
    8.0787899957892022e-03 -7.8307569696026913e-01
    8.5247328418566228e-03 -6.6104068703519780e-01
    9.9370944294274750e-03 -4.8900964692182575e-01
    1.6712560481127018e-02 -2.4922239313961342e-01
    1.2202602335020537e-02 -3.6393726262341952e-01
    9.7196908918204591e-03 -5.0729965619589235e-01
    9.4327497145561545e-03 -5.3452248382484868e-01
    8.6731723099555576e-03 -6.3375022229762978e-01
    8.5247328418566228e-03 -6.6104068703519780e-01
    7.9427717857972514e-03 -8.5280286542244166e-01
    7.8594153422041884e-03 -9.3761446187699082e-01
    7.8594153422041884e-03 -9.3761446187699082e-01
    7.9029581426731770e-03 -8.8388347648318422e-01
    7.8464922060152414e-03 -1.0296800298420001e+00
    7.8734877175591703e-03 -1.0919284281983375e+00
    7.8734877175591703e-03 -1.0919284281983375e+00
    7.8432713703294188e-03 -9.9416904650228155e-01
    7.8432713703294188e-03 -9.9416904650228155e-01
    7.8464922060152414e-03 -1.0296800298420001e+00
    7.8464922060152414e-03 -1.0296800298420001e+00
    7.8464922060152414e-03 -1.0296800298420001e+00
    7.8432713703294188e-03 -9.9416904650228155e-01
    7.8497170128666478e-03 -9.5986890490667598e-01
    7.9283253193840296e-03 -8.6307471239961231e-01
    7.9933954454063996e-03 -8.2247832082997430e-01
    7.8659009012851527e-03 -9.2665832547596139e-01
    7.9150598466463384e-03 -8.7343379711237656e-01
    7.8594153422041884e-03 -9.3761446187699082e-01
    7.8594153422041884e-03 -9.3761446187699082e-01
    7.9283253193840296e-03 -8.6307471239961231e-01
    7.8821853039918906e-03 -9.0506847043205130e-01
    7.8659009012851527e-03 -9.2665832547596139e-01
    7.8443445414872540e-03 -9.8260736888103495e-01
    7.8540229468234257e-03 -9.4868329805051377e-01
    7.8594153422041884e-03 -9.3761446187699082e-01
    7.8464922060152396e-03 -9.7117548269188614e-01
    7.8540229468234257e-03 -9.4868329805051377e-01
    7.8734877175591703e-03 -9.1581093977925077e-01
    7.9283253193840296e-03 -8.6307471239961231e-01
    8.0334456339462724e-03 -8.0263987518112312e-01
    8.1035264522945332e-03 -7.7338919123653083e-01
    8.7273572820103385e-03 -6.2469504755442429e-01
    9.9370944294274750e-03 -4.8900964692182575e-01
    1.8570223653198555e-02 -2.2153951024868451e-01
    1.3106028524901159e-02 -3.3224931962249432e-01
    1.0054802412509360e-02 -4.7980811512325366e-01
    8.9707288785949146e-03 -5.8860571940254358e-01
    8.4796317344325509e-03 -6.7018843795822181e-01
    8.3954811448998991e-03 -6.8857674302468475e-01
    8.1296861068310897e-03 -7.6376261582597338e-01
    7.9752852087257887e-03 -8.3250784196348138e-01
    7.9029581426731770e-03 -8.8388347648318422e-01
    7.8497170128666478e-03 -9.5986890490667598e-01
    7.8659009012851527e-03 -9.2665832547596139e-01
    7.8443445414872522e-03 -1.0177004891982144e+00
    7.8432713703294188e-03 -9.9416904650228155e-01
    7.8540229468234257e-03 -9.4868329805051377e-01
    7.8464922060152414e-03 -1.0296800298420001e+00
    7.8594153422041867e-03 -1.0665364503850769e+00
    7.8464922060152396e-03 -9.7117548269188614e-01
    7.8443445414872540e-03 -9.8260736888103495e-01
    7.8594153422041884e-03 -9.3761446187699082e-01
    7.8443445414872540e-03 -9.8260736888103495e-01
    7.8464922060152396e-03 -9.7117548269188614e-01
    7.8821853039918906e-03 -9.0506847043205130e-01
    7.8540229468234257e-03 -9.4868329805051377e-01
    7.8540229468234257e-03 -9.4868329805051377e-01
    7.8920046264698458e-03 -8.9442719099991586e-01
    7.8659009012851527e-03 -9.2665832547596139e-01
    7.8821853039918906e-03 -9.0506847043205130e-01
    7.8734877175591703e-03 -1.0919284281983375e+00
    7.8659009012851545e-03 -1.0791464043517529e+00
    7.8432713703294188e-03 -1.0058651529317202e+00
    7.8432713703294188e-03 -1.0058651529317202e+00
    7.8540229468234274e-03 -1.0540925533894601e+00
    7.8443445414872522e-03 -1.0177004891982144e+00
    7.9029581426731770e-03 -8.8388347648318422e-01
    7.9029581426731770e-03 -8.8388347648318422e-01
    7.9933954454063996e-03 -8.2247832082997430e-01
    7.9933954454063996e-03 -8.2247832082997430e-01
    8.3189033080770299e-03 -7.0710678118654757e-01
    8.7273572820103385e-03 -6.2469504755442429e-01
    1.0449915022217105e-02 -4.5191299175026606e-01
    1.4303492280140651e-02 -2.9861676865556797e-01
    1.1948149638437797e-02 -3.7416573867739417e-01
    1.0179139476758303e-02 -4.7056197405716016e-01
    9.7196908918204591e-03 -5.0729965619589235e-01
    8.4365739799009097e-03 -6.7936622048675743e-01
    8.4796317344325509e-03 -6.7018843795822181e-01
    8.0787899957892022e-03 -7.8307569696026913e-01
    7.9584181784764282e-03 -8.4261497731763579e-01
    7.8594153422041884e-03 -9.3761446187699082e-01
    7.8443445414872540e-03 -9.8260736888103495e-01
    7.8464922060152414e-03 -1.0296800298420001e+00
    7.8443445414872540e-03 -9.8260736888103495e-01
    7.9584181784764282e-03 -8.4261497731763579e-01
    7.9150598466463384e-03 -8.7343379711237656e-01
    7.8432713703294188e-03 -9.9416904650228155e-01
    7.8734877175591703e-03 -9.1581093977925077e-01
    7.8464922060152396e-03 -9.7117548269188614e-01
    7.8821853039918906e-03 -9.0506847043205130e-01
    7.8497170128666478e-03 -9.5986890490667598e-01
    7.8920046264698458e-03 -8.9442719099991586e-01
    7.8594153422041884e-03 -9.3761446187699082e-01
    7.8594153422041884e-03 -9.3761446187699082e-01
    7.8920046264698458e-03 -8.9442719099991586e-01
    7.8540229468234257e-03 -9.4868329805051377e-01
    7.8497170128666478e-03 -9.5986890490667598e-01
    7.8443445414872522e-03 -1.0177004891982144e+00
    7.8464922060152414e-03 -1.0296800298420001e+00
    7.8443445414872522e-03 -1.0177004891982144e+00
    7.8540229468234257e-03 -9.4868329805051377e-01
    7.8464922060152396e-03 -9.7117548269188614e-01
    7.8464922060152414e-03 -1.0296800298420001e+00
    7.8821853039918906e-03 -1.1048887820858808e+00
    7.8540229468234274e-03 -1.0540925533894601e+00
    7.8659009012851527e-03 -9.2665832547596139e-01
    7.9752852087257887e-03 -8.3250784196348138e-01
    7.8920046264698458e-03 -8.9442719099991586e-01
    8.0127734021953004e-03 -8.1252333797699716e-01
    8.5719616400588457e-03 -6.5192024052026487e-01
    9.2638238081604839e-03 -5.5257896399553763e-01
    1.2478354962115544e-02 -3.5355339059327373e-01
    1.4303492280140651e-02 -2.9861676865556797e-01
    1.2202602335020537e-02 -3.6393726262341952e-01
    1.0054802412509360e-02 -4.7980811512325366e-01
    9.8255345667450159e-03 -4.9817184031391393e-01
    9.1103786899089569e-03 -5.7059740215745569e-01
    8.5719616400588457e-03 -6.5192024052026487e-01
    8.1296861068310897e-03 -7.6376261582597338e-01
    7.9933954454063996e-03 -8.2247832082997430e-01
    7.8659009012851527e-03 -9.2665832547596139e-01
    7.8734877175591703e-03 -9.1581093977925077e-01
    7.8734877175591703e-03 -9.1581093977925077e-01
    7.8497170128666478e-03 -9.5986890490667598e-01
    7.8540229468234274e-03 -1.0540925533894601e+00
    7.8540229468234274e-03 -1.0540925533894601e+00
    7.8464922060152414e-03 -1.0296800298420001e+00
    7.8464922060152414e-03 -1.0296800298420001e+00
    7.8659009012851527e-03 -9.2665832547596139e-01
    7.8734877175591703e-03 -9.1581093977925077e-01
    7.8443445414872540e-03 -9.8260736888103495e-01
    7.8443445414872540e-03 -9.8260736888103495e-01
    7.8497170128666478e-03 -9.5986890490667598e-01
    7.8920046264698458e-03 -8.9442719099991586e-01
    7.8497170128666478e-03 -9.5986890490667598e-01
    7.8464922060152396e-03 -9.7117548269188614e-01
    7.8497170128666461e-03 -1.0418089333743188e+00
    7.8464922060152414e-03 -1.0296800298420001e+00
    7.8443445414872540e-03 -9.8260736888103495e-01
    7.8443445414872540e-03 -9.8260736888103495e-01
    7.8594153422041867e-03 -1.0665364503850769e+00
    7.8443445414872540e-03 -9.8260736888103495e-01
    7.8659009012851545e-03 -1.0791464043517529e+00
    7.8821853039918906e-03 -1.1048887820858808e+00
    7.8464922060152396e-03 -9.7117548269188614e-01
    7.8540229468234257e-03 -9.4868329805051377e-01
    7.9283253193840296e-03 -8.6307471239961231e-01
    8.0554408429249977e-03 -7.9282496717209183e-01
    8.1573075440362283e-03 -7.5419317117668283e-01
    8.5719616400588457e-03 -6.5192024052026487e-01
    9.1103786899089569e-03 -5.7059740215745569e-01
    1.3106028524901159e-02 -3.3224931962249432e-01
    1.8570223653198555e-02 -2.2153951024868451e-01
    1.4303492280140651e-02 -2.9861676865556797e-01
    1.0597633485511116e-02 -4.4249767886870978e-01
    9.7196908918204591e-03 -5.0729965619589235e-01
    9.7196908918204591e-03 -5.0729965619589235e-01
    8.7273572820103385e-03 -6.2469504755442429e-01
    8.1864322098888515e-03 -7.4467808786445078e-01
    8.2171045998719692e-03 -7.3521462209380772e-01
    8.0334456339462724e-03 -8.0263987518112312e-01
    7.9752852087257887e-03 -8.3250784196348138e-01
    7.8443445414872540e-03 -9.8260736888103495e-01
    7.8464922060152396e-03 -9.7117548269188614e-01
    7.8594153422041867e-03 -1.0665364503850769e+00
    7.8594153422041867e-03 -1.0665364503850769e+00
    7.8659009012851527e-03 -9.2665832547596139e-01
    7.8443445414872522e-03 -1.0177004891982144e+00
    7.8464922060152396e-03 -9.7117548269188614e-01
    7.8920046264698458e-03 -8.9442719099991586e-01
    7.8920046264698458e-03 -8.9442719099991586e-01
    7.8540229468234257e-03 -9.4868329805051377e-01
    7.9029581426731770e-03 -8.8388347648318422e-01
    7.8497170128666478e-03 -9.5986890490667598e-01
    7.8497170128666478e-03 -9.5986890490667598e-01
    7.8443445414872522e-03 -1.0177004891982144e+00
    7.8464922060152396e-03 -9.7117548269188614e-01
    7.8464922060152396e-03 -9.7117548269188614e-01
    7.8464922060152396e-03 -9.7117548269188614e-01
    7.8432713703294188e-03 -1.0058651529317202e+00
    7.8432713703294188e-03 -1.0058651529317202e+00
    7.8432713703294188e-03 -9.9416904650228155e-01
    7.8443445414872522e-03 -1.0177004891982144e+00
    7.8464922060152396e-03 -9.7117548269188614e-01
    7.8497170128666478e-03 -9.5986890490667598e-01
    7.9283253193840296e-03 -8.6307471239961231e-01
    8.1296861068310897e-03 -7.6376261582597338e-01
    8.1573075440362283e-03 -7.5419317117668283e-01
    8.2493724659976481e-03 -7.2580005117505619e-01
    8.6731723099555576e-03 -6.3375022229762978e-01
    1.0179139476758303e-02 -4.7056197405716016e-01
    1.2778325951794775e-02 -3.4299717028501764e-01
    1.5984519878529047e-02 -2.6220221204253791e-01
    1.4796387972658356e-02 -2.8684225806644709e-01
    1.2478354962115544e-02 -3.5355339059327373e-01
    9.9370944294274750e-03 -4.8900964692182575e-01
    9.7196908918204591e-03 -5.0729965619589235e-01
    9.3462342294910149e-03 -5.4355730650460898e-01
    8.9707288785949146e-03 -5.8860571940254358e-01
    8.5719616400588457e-03 -6.5192024052026487e-01
    8.5719616400588457e-03 -6.5192024052026487e-01
    7.9427717857972514e-03 -8.5280286542244166e-01
    7.9150598466463384e-03 -8.7343379711237656e-01
    8.1573075440362283e-03 -7.5419317117668283e-01
    7.8821853039918906e-03 -9.0506847043205130e-01
    7.8464922060152414e-03 -1.0296800298420001e+00
    7.9029581426731770e-03 -1.1313708498984758e+00
    7.9150598466463367e-03 -1.1449064637824393e+00
    7.8821853039918906e-03 -1.1048887820858808e+00
    7.8659009012851545e-03 -1.0791464043517529e+00
    7.8443445414872540e-03 -9.8260736888103495e-01
    7.8497170128666478e-03 -9.5986890490667598e-01
    7.8497170128666478e-03 -9.5986890490667598e-01
    7.8432713703294188e-03 -1.0058651529317202e+00
    7.8540229468234257e-03 -9.4868329805051377e-01
    7.8734877175591703e-03 -9.1581093977925077e-01
    7.8920046264698458e-03 -8.9442719099991586e-01
    7.8432713703294188e-03 -9.9416904650228155e-01
    7.8464922060152414e-03 -1.0296800298420001e+00
    7.8734877175591703e-03 -9.1581093977925077e-01
    7.8432713703294188e-03 -1.0058651529317202e+00
    7.8920046264698458e-03 -8.9442719099991586e-01
    7.9283253193840296e-03 -1.1586482440433152e+00
    7.8432713703294188e-03 -9.9416904650228155e-01
    7.8659009012851527e-03 -9.2665832547596139e-01
    7.9029581426731770e-03 -8.8388347648318422e-01
    8.2171045998719692e-03 -7.3521462209380772e-01
    8.4365739799009097e-03 -6.7936622048675743e-01
    8.5719616400588457e-03 -6.5192024052026487e-01
    9.2638238081604839e-03 -5.5257896399553763e-01
    1.1493734323791317e-02 -3.9421492285986010e-01
    1.4303492280140651e-02 -2.9861676865556797e-01
    1.8570223653198555e-02 -2.2153951024868451e-01
    1.5984519878529047e-02 -2.6220221204253791e-01
    1.3106028524901159e-02 -3.3224931962249432e-01
    1.0921574556798238e-02 -4.2345052228989660e-01
    1.0179139476758303e-02 -4.7056197405716016e-01
    1.0054802412509360e-02 -4.7980811512325366e-01
    9.6191743239138448e-03 -5.1639777949432220e-01
    9.6191743239138448e-03 -5.1639777949432220e-01
    8.6731723099555576e-03 -6.3375022229762978e-01
    8.3189033080770299e-03 -7.0710678118654757e-01
    8.2832870447254008e-03 -7.1643166895607413e-01
    8.3562802405635073e-03 -6.9782270079091746e-01
    7.9283253193840296e-03 -8.6307471239961231e-01
    7.8821853039918906e-03 -9.0506847043205130e-01
    7.8443445414872540e-03 -9.8260736888103495e-01
    7.8920046264698458e-03 -1.1180339887498947e+00
    7.9283253193840296e-03 -1.1586482440433152e+00
    7.8540229468234274e-03 -1.0540925533894601e+00
    7.8443445414872540e-03 -9.8260736888103495e-01
    7.8594153422041867e-03 -1.0665364503850769e+00
    7.8464922060152414e-03 -1.0296800298420001e+00
    7.8432713703294188e-03 -9.9416904650228155e-01
    7.8432713703294188e-03 -1.0058651529317202e+00
    7.8920046264698458e-03 -8.9442719099991586e-01
    7.9427717857972514e-03 -8.5280286542244166e-01
    7.8497170128666478e-03 -9.5986890490667598e-01
    7.8540229468234257e-03 -9.4868329805051377e-01
    7.8432713703294188e-03 -9.9416904650228155e-01
    7.8432713703294188e-03 -9.9416904650228155e-01
    7.8464922060152396e-03 -9.7117548269188614e-01
    7.8497170128666461e-03 -1.0418089333743188e+00
    7.8659009012851527e-03 -9.2665832547596139e-01
    7.9029581426731770e-03 -8.8388347648318422e-01
    8.0787899957892022e-03 -7.8307569696026913e-01
    8.1573075440362283e-03 -7.5419317117668283e-01
    8.6731723099555576e-03 -6.3375022229762978e-01
    9.2638238081604839e-03 -5.5257896399553763e-01
    9.8255345667450159e-03 -4.9817184031391393e-01
    1.3106028524901159e-02 -3.3224931962249432e-01
    1.4303492280140651e-02 -2.9861676865556797e-01
    1.9791785975149676e-02 -2.0659846763533432e-01
    1.5984519878529047e-02 -2.6220221204253791e-01
    1.3465735808071306e-02 -3.2128773156099955e-01
    1.0310642913264010e-02 -4.6126560401444255e-01
    1.0179139476758303e-02 -4.7056197405716016e-01
    9.9370944294274750e-03 -4.8900964692182575e-01
    9.4327497145561545e-03 -5.3452248382484868e-01
    9.6191743239138448e-03 -5.1639777949432220e-01
    8.5719616400588457e-03 -6.5192024052026487e-01
    8.3189033080770299e-03 -7.0710678118654757e-01
    8.4796317344325509e-03 -6.7018843795822181e-01
    8.1864322098888515e-03 -7.4467808786445078e-01
    8.1864322098888515e-03 -7.4467808786445078e-01
    7.9283253193840296e-03 -8.6307471239961231e-01
    7.8920046264698458e-03 -8.9442719099991586e-01
    7.8821853039918906e-03 -9.0506847043205130e-01
    7.8920046264698458e-03 -8.9442719099991586e-01
    7.9029581426731770e-03 -8.8388347648318422e-01
    7.9029581426731770e-03 -8.8388347648318422e-01
    7.8443445414872540e-03 -9.8260736888103495e-01
    7.8540229468234274e-03 -1.0540925533894601e+00
    7.8432713703294188e-03 -1.0058651529317202e+00
    7.8432713703294188e-03 -9.9416904650228155e-01
    7.8464922060152396e-03 -9.7117548269188614e-01
    7.8920046264698458e-03 -8.9442719099991586e-01
    8.0334456339462724e-03 -8.0263987518112312e-01
    8.0334456339462724e-03 -8.0263987518112312e-01
    7.8443445414872540e-03 -9.8260736888103495e-01
    7.8920046264698458e-03 -8.9442719099991586e-01
    7.9029581426731770e-03 -8.8388347648318422e-01
    7.9283253193840296e-03 -8.6307471239961231e-01
    7.9933954454063996e-03 -8.2247832082997430e-01
    8.1573075440362283e-03 -7.5419317117668283e-01
    8.1864322098888515e-03 -7.4467808786445078e-01
    8.4796317344325509e-03 -6.7018843795822181e-01
    9.1103786899089569e-03 -5.7059740215745569e-01
    9.2638238081604839e-03 -5.5257896399553763e-01
    1.0754563837845970e-02 -4.3301270189221930e-01
    1.2778325951794775e-02 -3.4299717028501764e-01
    1.5984519878529047e-02 -2.6220221204253791e-01
    1.8570223653198555e-02 -2.2153951024868451e-01
    1.7562129205940396e-02 -2.3570226039551584e-01
    1.2778325951794775e-02 -3.4299717028501764e-01
    1.0597633485511116e-02 -4.4249767886870978e-01
    1.0310642913264010e-02 -4.6126560401444255e-01
    1.0310642913264010e-02 -4.6126560401444255e-01
    1.0054802412509360e-02 -4.7980811512325366e-01
    9.6191743239138448e-03 -5.1639777949432220e-01
    8.9707288785949146e-03 -5.8860571940254358e-01
    8.9707288785949146e-03 -5.8860571940254358e-01
    8.6731723099555576e-03 -6.3375022229762978e-01
    8.4796317344325509e-03 -6.7018843795822181e-01
    8.1296861068310897e-03 -7.6376261582597338e-01
    8.0334456339462724e-03 -8.0263987518112312e-01
    8.1573075440362283e-03 -7.5419317117668283e-01
    8.2493724659976481e-03 -7.2580005117505619e-01
    7.9427717857972514e-03 -8.5280286542244166e-01
    7.9427717857972514e-03 -8.5280286542244166e-01
    7.9283253193840296e-03 -8.6307471239961231e-01
    7.8594153422041884e-03 -9.3761446187699082e-01
    7.8659009012851527e-03 -9.2665832547596139e-01
    7.8432713703294188e-03 -9.9416904650228155e-01
    7.8432713703294188e-03 -9.9416904650228155e-01
    7.8821853039918906e-03 -9.0506847043205130e-01
    7.9029581426731770e-03 -8.8388347648318422e-01
    7.8594153422041884e-03 -9.3761446187699082e-01
    7.8659009012851527e-03 -9.2665832547596139e-01
    7.8443445414872540e-03 -9.8260736888103495e-01
    7.9283253193840296e-03 -8.6307471239961231e-01
    7.9933954454063996e-03 -8.2247832082997430e-01
    8.2832870447254008e-03 -7.1643166895607413e-01
    8.2493724659976481e-03 -7.2580005117505619e-01
    8.3189033080770299e-03 -7.0710678118654757e-01
    8.3189033080770299e-03 -7.0710678118654757e-01
    8.7840774919258902e-03 -6.1565595754813918e-01
    9.1852784298537202e-03 -5.6159114610596861e-01
    9.4327497145561545e-03 -5.3452248382484868e-01
    1.1289940203818826e-02 -4.0406101782088433e-01
    1.4303492280140651e-02 -2.9861676865556797e-01
    1.5984519878529047e-02 -2.6220221204253791e-01
    2.1312693171372063e-02 -1.9069251784911848e-01
    1.8570223653198555e-02 -2.2153951024868451e-01
    1.2478354962115544e-02 -3.5355339059327373e-01
    1.1493734323791317e-02 -3.9421492285986010e-01
    1.1289940203818826e-02 -4.0406101782088433e-01
    1.0310642913264010e-02 -4.6126560401444255e-01
    1.0179139476758303e-02 -4.7056197405716016e-01
    9.8255345667450159e-03 -4.9817184031391393e-01
    9.7196908918204591e-03 -5.0729965619589235e-01
    1.0054802412509360e-02 -4.7980811512325366e-01
    9.8255345667450159e-03 -4.9817184031391393e-01
    8.5247328418566228e-03 -6.6104068703519780e-01
    8.8434557608376152e-03 -6.0663003552412420e-01
    8.7840774919258902e-03 -6.1565595754813918e-01
    8.5247328418566228e-03 -6.6104068703519780e-01
    8.0787899957892022e-03 -7.8307569696026913e-01
    8.0554408429249977e-03 -7.9282496717209183e-01
    7.8497170128666478e-03 -9.5986890490667598e-01
    7.9029581426731770e-03 -8.8388347648318422e-01
    7.8443445414872540e-03 -9.8260736888103495e-01
    7.8594153422041884e-03 -9.3761446187699082e-01
    7.9029581426731770e-03 -8.8388347648318422e-01
    7.8540229468234257e-03 -9.4868329805051377e-01
    7.8659009012851527e-03 -9.2665832547596139e-01
    7.9584181784764282e-03 -8.4261497731763579e-01
    7.9150598466463384e-03 -8.7343379711237656e-01
    8.0787899957892022e-03 -7.8307569696026913e-01
    7.9933954454063996e-03 -8.2247832082997430e-01
    7.9933954454063996e-03 -8.2247832082997430e-01
    7.9933954454063996e-03 -8.2247832082997430e-01
    8.3954811448998991e-03 -6.8857674302468475e-01
    8.3189033080770299e-03 -7.0710678118654757e-01
    8.4365739799009097e-03 -6.7936622048675743e-01
    8.7273572820103385e-03 -6.2469504755442429e-01
    9.2638238081604839e-03 -5.5257896399553763e-01
    9.2638238081604839e-03 -5.5257896399553763e-01
    1.0054802412509360e-02 -4.7980811512325366e-01
    1.2778325951794775e-02 -3.4299717028501764e-01
    1.3465735808071306e-02 -3.2128773156099955e-01
    1.5984519878529047e-02 -2.6220221204253791e-01
    2.1312693171372063e-02 -1.9069251784911848e-01
    1.4796387972658356e-02 -2.8684225806644709e-01
    1.3862705630558591e-02 -3.1008683647302110e-01
    1.2778325951794775e-02 -3.4299717028501764e-01
    1.1289940203818826e-02 -4.0406101782088433e-01
    1.0310642913264010e-02 -4.6126560401444255e-01
    9.9370944294274750e-03 -4.8900964692182575e-01
    1.0921574556798238e-02 -4.2345052228989660e-01
    1.0597633485511116e-02 -4.4249767886870978e-01
    1.0310642913264010e-02 -4.6126560401444255e-01
    1.0754563837845970e-02 -4.3301270189221930e-01
    9.4327497145561545e-03 -5.3452248382484868e-01
    8.7273572820103385e-03 -6.2469504755442429e-01
    8.7840774919258902e-03 -6.1565595754813918e-01
    8.7273572820103385e-03 -6.2469504755442429e-01
    8.4365739799009097e-03 -6.7936622048675743e-01
    8.3562802405635073e-03 -6.9782270079091746e-01
    8.1296861068310897e-03 -7.6376261582597338e-01
    7.8920046264698458e-03 -8.9442719099991586e-01
    7.8734877175591703e-03 -9.1581093977925077e-01
    7.8443445414872540e-03 -9.8260736888103495e-01
    7.8659009012851527e-03 -9.2665832547596139e-01
    7.9933954454063996e-03 -8.2247832082997430e-01
    7.9283253193840296e-03 -8.6307471239961231e-01
    7.9150598466463384e-03 -8.7343379711237656e-01
    8.0127734021953004e-03 -8.1252333797699716e-01
    8.0787899957892022e-03 -7.8307569696026913e-01
    8.3562802405635073e-03 -6.9782270079091746e-01
    8.4365739799009097e-03 -6.7936622048675743e-01
    8.4365739799009097e-03 -6.7936622048675743e-01
    8.3562802405635073e-03 -6.9782270079091746e-01
    8.7273572820103385e-03 -6.2469504755442429e-01
    9.0389236361705736e-03 -5.7960115596848150e-01
    9.2638238081604839e-03 -5.5257896399553763e-01
    9.4327497145561545e-03 -5.3452248382484868e-01
    9.6191743239138448e-03 -5.1639777949432220e-01
    1.0597633485511116e-02 -4.4249767886870978e-01
    1.1712549931781635e-02 -3.8425383109529226e-01
    1.4303492280140651e-02 -2.9861676865556797e-01
    1.6712560481127018e-02 -2.4922239313961342e-01
    2.1312693171372063e-02 -1.9069251784911848e-01
    1.8570223653198555e-02 -2.2153951024868451e-01
    1.6712560481127018e-02 -2.4922239313961342e-01
    1.4303492280140651e-02 -2.9861676865556797e-01
    1.2778325951794775e-02 -3.4299717028501764e-01
    1.1712549931781635e-02 -3.8425383109529226e-01
    1.1289940203818826e-02 -4.0406101782088433e-01
    1.1712549931781635e-02 -3.8425383109529226e-01
    1.1948149638437797e-02 -3.7416573867739417e-01
    1.0754563837845970e-02 -4.3301270189221930e-01
    1.0921574556798238e-02 -4.2345052228989660e-01
    1.1289940203818826e-02 -4.0406101782088433e-01
    1.1099655447137639e-02 -4.1380294430118392e-01
    9.6191743239138448e-03 -5.1639777949432220e-01
    9.5236333845258748e-03 -5.2547064902340135e-01
    8.9056249322954830e-03 -5.9761430466719689e-01
    8.9056249322954830e-03 -5.9761430466719689e-01
    8.5719616400588457e-03 -6.5192024052026487e-01
    8.2171045998719692e-03 -7.3521462209380772e-01
    7.9150598466463384e-03 -8.7343379711237656e-01
    7.9029581426731770e-03 -8.8388347648318422e-01
    7.9150598466463384e-03 -8.7343379711237656e-01
    8.1296861068310897e-03 -7.6376261582597338e-01
    8.0127734021953004e-03 -8.1252333797699716e-01
    8.1296861068310897e-03 -7.6376261582597338e-01
    8.0787899957892022e-03 -7.8307569696026913e-01
    8.5247328418566228e-03 -6.6104068703519780e-01
    8.5247328418566228e-03 -6.6104068703519780e-01
    8.5247328418566228e-03 -6.6104068703519780e-01
    8.5247328418566228e-03 -6.6104068703519780e-01
    8.7273572820103385e-03 -6.2469504755442429e-01
    8.8434557608376152e-03 -6.0663003552412420e-01
    9.7196908918204591e-03 -5.0729965619589235e-01
    9.9370944294274750e-03 -4.8900964692182575e-01
    9.9370944294274750e-03 -4.8900964692182575e-01
    1.0597633485511116e-02 -4.4249767886870978e-01
    1.1493734323791317e-02 -3.9421492285986010e-01
    1.2478354962115544e-02 -3.5355339059327373e-01
    1.5984519878529047e-02 -2.6220221204253791e-01
    2.3276457450903253e-02 -1.7355253362515582e-01
    2.5945837796732825e-02 -1.5476464650682736e-01
    1.9791785975149676e-02 -2.0659846763533432e-01
    1.9791785975149676e-02 -2.0659846763533432e-01
    1.5352063029559361e-02 -2.7472112789737807e-01
    1.3465735808071306e-02 -3.2128773156099955e-01
    1.4303492280140651e-02 -2.9861676865556797e-01
    1.3465735808071306e-02 -3.2128773156099955e-01
    1.2778325951794775e-02 -3.4299717028501764e-01
    1.2778325951794775e-02 -3.4299717028501764e-01
    1.3106028524901159e-02 -3.3224931962249432e-01
    1.2202602335020537e-02 -3.6393726262341952e-01
    1.2478354962115544e-02 -3.5355339059327373e-01
    1.1948149638437797e-02 -3.7416573867739417e-01
    1.1493734323791317e-02 -3.9421492285986010e-01
    1.1712549931781635e-02 -3.8425383109529226e-01
    1.0179139476758303e-02 -4.7056197405716016e-01
    9.8255345667450159e-03 -4.9817184031391393e-01
    8.6214088829161938e-03 -6.4282434653322496e-01
    8.5247328418566228e-03 -6.6104068703519780e-01
    8.1296861068310897e-03 -7.6376261582597338e-01
    7.9933954454063996e-03 -8.2247832082997430e-01
    7.9752852087257887e-03 -8.3250784196348138e-01
    8.1864322098888515e-03 -7.4467808786445078e-01
    8.2493724659976481e-03 -7.2580005117505619e-01
    8.2832870447254008e-03 -7.1643166895607413e-01
    8.4365739799009097e-03 -6.7936622048675743e-01
    8.6214088829161938e-03 -6.4282434653322496e-01
    8.7840774919258902e-03 -6.1565595754813918e-01
    9.2638238081604839e-03 -5.5257896399553763e-01
    9.4327497145561545e-03 -5.3452248382484868e-01
    9.3462342294910149e-03 -5.4355730650460898e-01
    9.3462342294910149e-03 -5.4355730650460898e-01
    1.0310642913264010e-02 -4.6126560401444255e-01
    1.1099655447137639e-02 -4.1380294430118392e-01
    1.1948149638437797e-02 -3.7416573867739417e-01
    1.4303492280140651e-02 -2.9861676865556797e-01
    1.3862705630558591e-02 -3.1008683647302110e-01
    1.4796387972658356e-02 -2.8684225806644709e-01
    1.7562129205940396e-02 -2.3570226039551584e-01
    2.5945837796732825e-02 -1.5476464650682736e-01
    5.1431769840353074e-02 -7.6696498884737035e-02
    2.5945837796732825e-02 -1.5476464650682736e-01
    1.8570223653198555e-02 -2.2153951024868451e-01
    1.8570223653198555e-02 -2.2153951024868451e-01
    1.7562129205940396e-02 -2.3570226039551584e-01
    1.7562129205940396e-02 -2.3570226039551584e-01
    1.7562129205940396e-02 -2.3570226039551584e-01
    1.6712560481127018e-02 -2.4922239313961342e-01
    1.5352063029559361e-02 -2.7472112789737807e-01
    1.4796387972658356e-02 -2.8684225806644709e-01
    1.4303492280140651e-02 -2.9861676865556797e-01
    1.3465735808071306e-02 -3.2128773156099955e-01
    1.3465735808071306e-02 -3.2128773156099955e-01
    1.3106028524901159e-02 -3.3224931962249432e-01
    1.3862705630558591e-02 -3.1008683647302110e-01
    1.2202602335020537e-02 -3.6393726262341952e-01
    1.0597633485511116e-02 -4.4249767886870978e-01
    9.6191743239138448e-03 -5.1639777949432220e-01
    8.9707288785949146e-03 -5.8860571940254358e-01
    8.8434557608376152e-03 -6.0663003552412420e-01
    8.9056249322954830e-03 -5.9761430466719689e-01
    8.5247328418566228e-03 -6.6104068703519780e-01
    9.1852784298537202e-03 -5.6159114610596861e-01
    8.6731723099555576e-03 -6.3375022229762978e-01
    9.7196908918204591e-03 -5.0729965619589235e-01
    8.8434557608376152e-03 -6.0663003552412420e-01
    9.4327497145561545e-03 -5.3452248382484868e-01
    9.4327497145561545e-03 -5.3452248382484868e-01
    9.6191743239138448e-03 -5.1639777949432220e-01
    1.0449915022217105e-02 -4.5191299175026606e-01
    9.9370944294274750e-03 -4.8900964692182575e-01
    1.0597633485511116e-02 -4.4249767886870978e-01
    1.2202602335020537e-02 -3.6393726262341952e-01
    1.4796387972658356e-02 -2.8684225806644709e-01
    1.5352063029559361e-02 -2.7472112789737807e-01
    1.6712560481127018e-02 -2.4922239313961342e-01
    1.8570223653198555e-02 -2.2153951024868451e-01
    1.8570223653198555e-02 -2.2153951024868451e-01
    1.8570223653198555e-02 -2.2153951024868451e-01
    2.1312693171372063e-02 -1.9069251784911848e-01
    2.5945837796732825e-02 -1.5476464650682736e-01
    1.9791785975149676e-02 -2.0659846763533432e-01
    1.9791785975149676e-02 -2.0659846763533432e-01
    2.1312693171372063e-02 -1.9069251784911848e-01
    2.9870374096094485e-02 -1.3363062095621217e-01
    2.9870374096094485e-02 -1.3363062095621217e-01
    2.3276457450903253e-02 -1.7355253362515582e-01
    2.1312693171372063e-02 -1.9069251784911848e-01
    1.9791785975149676e-02 -2.0659846763533432e-01
    1.5984519878529047e-02 -2.6220221204253791e-01
    1.5984519878529047e-02 -2.6220221204253791e-01
    1.5352063029559361e-02 -2.7472112789737807e-01
    1.6712560481127018e-02 -2.4922239313961342e-01
    1.8570223653198555e-02 -2.2153951024868451e-01
    2.1312693171372063e-02 -1.9069251784911848e-01
    1.7562129205940396e-02 -2.3570226039551584e-01
    1.2478354962115544e-02 -3.5355339059327373e-01
    1.2778325951794775e-02 -3.4299717028501764e-01
    1.2478354962115544e-02 -3.5355339059327373e-01
    1.1493734323791317e-02 -3.9421492285986010e-01
    9.7196908918204591e-03 -5.0729965619589235e-01
    9.9370944294274750e-03 -4.8900964692182575e-01
    1.3465735808071306e-02 -3.2128773156099955e-01
    1.1493734323791317e-02 -3.9421492285986010e-01
    1.0179139476758303e-02 -4.7056197405716016e-01
    1.0754563837845970e-02 -4.3301270189221930e-01
    1.0310642913264010e-02 -4.6126560401444255e-01
    1.0054802412509360e-02 -4.7980811512325366e-01
    1.0179139476758303e-02 -4.7056197405716016e-01
    1.1099655447137639e-02 -4.1380294430118392e-01
    1.1948149638437797e-02 -3.7416573867739417e-01
    1.3106028524901159e-02 -3.3224931962249432e-01
    1.5984519878529047e-02 -2.6220221204253791e-01
    1.6712560481127018e-02 -2.4922239313961342e-01
    1.6712560481127018e-02 -2.4922239313961342e-01
    1.9791785975149676e-02 -2.0659846763533432e-01
    2.3276457450903253e-02 -1.7355253362515582e-01
    2.5945837796732825e-02 -1.5476464650682736e-01
    2.3276457450903253e-02 -1.7355253362515582e-01
    1.9791785975149676e-02 -2.0659846763533432e-01</input_scale>
  <output_scale>
    1.0526315789473684e+00 0.</output_scale>
  <inv_output_scale>
    9.4999999999999996e-01 0.</inv_output_scale>
  <weights>
    <_>
      5.4182582389888691e-02 2.5279493690697992e-02
      1.9747354017648797e-02 9.3576336711944409e-03
      -1.8370151106384881e-02 4.1323413517553370e-03
      -8.1500407298501828e-03 -1.6471439986969903e-02
      1.4217364603052130e-03 3.0409263778805977e-02
      7.4595041835371521e-03 1.6121099702435217e-02
      9.1136681829918700e-03 -1.3300278697248345e-02
      3.1141553702874118e-03 6.2541265634839241e-03
      3.1962375103998871e-03 1.5710178356486068e-02
      -3.2051425639247372e-02 3.1746836782711521e-02
      -1.5310578904750453e-02 -1.5303507697650475e-03
      -2.7390819644107218e-03 2.1602484697120970e-02
      6.3487634740795633e-03 6.3973876040182174e-04
      2.8080460995092614e-02 -2.8709392089699273e-02
      1.0453088441399860e-02 7.6247846230458553e-03
      -2.1082092720264956e-02 -2.7011991890757932e-02
      3.1078404837669875e-02 1.0954164202813772e-02
      1.4634594692456055e-02 3.3139779141218778e-04
      2.1302571602332832e-02 1.2049177043206160e-02
      -2.2592823106341347e-02 -1.9600088919704231e-02
      -6.4052875081151928e-02 -1.8669413948925438e-02
      -1.6465612649189280e-02 9.4526866240416882e-03
      1.3650312052693717e-02 1.8003724070966759e-02
      -1.3585664579058510e-02 1.1880293383024522e-02
      -1.8083933439148603e-02 -2.3651794892954010e-02
      1.4034805425480542e-02 -1.0489010493201572e-02
      1.4239956639858567e-02 1.5621414272643933e-03
      -1.8650043646130023e-02 1.6607404793477783e-02
      -1.9416091785147430e-02 -6.8301441007321039e-03
      2.0940459713394081e-02 -2.1730921837876480e-02
      1.0318233345653715e-02 1.9877902354014043e-02
      1.9039596285966871e-02 -1.5186604782018612e-02
      1.6607411755036751e-02 -1.9946054951125034e-02
      -1.9779208282890124e-02 1.9961176728279396e-02
      1.1686668621691695e-02 1.5506638539437527e-02
      1.7530804559676056e-02 1.9683858995607775e-02
      -2.5154347057246843e-02 8.2791325225227193e-03
      -3.4356024394989176e-03 1.9086825936663110e-02
      -1.4979435287203339e-02 3.5568803297603962e-03
      1.6973120497438137e-02 1.4450005315830614e-02
      -2.1091364337403218e-02 -1.8249560062518724e-02
      -1.1633552452436476e-02 -1.3881168721235543e-02
      9.7200064461905565e-03 -1.4002687726230346e-02
      1.3451363138072110e-02 8.5262839916901215e-03
      1.5795482273656868e-02 -2.2355250142546058e-02
      -1.4561924093560562e-02 -9.2826324200207307e-03
      -1.2956541543135225e-02 1.0859975984438627e-02
      1.6905943714955851e-02 -1.4766769198703887e-02
      1.7436378214110638e-02 -8.7759374508593248e-03
      2.1092437690108077e-02 -2.1724293722204670e-02
      9.1247599966005032e-03 -1.4712118511938082e-02
      -1.7113593920542007e-02 -1.0048581741083898e-02
      -1.4338072084167711e-02 1.6730851071838949e-02
      -1.9161937386268847e-02 1.9561745415066119e-02
      -1.2176163928588533e-02 -1.4319244861124359e-02
      1.4694439515465020e-02 1.7974075789924628e-02
      -2.5191629477100762e-02 -1.3970917411149412e-02
      -1.0284130155825275e-02 -1.4483201010557794e-02
      -1.2338278402930348e-02 -1.2619678750782118e-02
      1.4752847756450218e-02 1.0472523402424059e-02
      -1.4035203645651511e-02 -1.1081855097028154e-02
      -9.0088077805346410e-03 1.2373238900640472e-03
      8.6195277383573823e-03 6.4199543850375577e-03
      -1.2485577176420415e-03 5.8949683181003460e-03
      -7.4893729397555297e-03 -1.6821017158574068e-02
      3.4287818850677067e-03 -5.9265310786364260e-03
      3.2034817051768707e-03 1.8564040762741383e-03
      -8.5794097110314608e-03 4.4916752426652296e-03
      -7.2557331948256351e-03 -3.8746428103203262e-03
      1.4660341861396281e-02 -1.7458676396880628e-02
      6.1960494252562273e-03 6.8549826532541000e-03
      8.7757638604735975e-03 -1.0039066188887258e-02
      5.3268421434362005e-03 -7.6292139604759125e-03
      -1.3756324349895308e-02 1.3329040350859012e-02
      2.9027401659160301e-03 4.3738318883441490e-03
      1.1409152218196982e-02 1.3793038954204580e-02
      -1.5791365028139465e-02 -3.3259498824363208e-04
      -2.7695367980620127e-03 7.6971536048564574e-03
      -8.6762285311808383e-03 -3.5497314467696086e-04
      1.2128585455850893e-02 8.1763115975987399e-03
      2.6790461432059727e-03 -1.0205475433675072e-02
      -5.7574378973796678e-03 -6.0047829211108926e-03
      3.0102822676293683e-03 -1.3953515717450788e-03
      5.9303137387711159e-03 4.7469890437101033e-03
      4.3353901258288784e-04 -1.6026266525536809e-02
      -4.5191207676583533e-03 -4.4902384003980955e-03
      -4.2457868183413830e-03 4.3949676072290184e-03
      -3.5072795236560820e-04 -5.3357721607574325e-03
      2.2940632104700700e-03 -3.4031699117145313e-03
      1.3119399845241318e-02 -1.5009074549178264e-02
      2.5758557696215433e-03 -2.3904627204230570e-03
      -2.1137048193595287e-03 -5.0008542568696036e-03
      -3.3443315394915758e-03 2.1859890649101985e-03
      -1.3143831619111859e-02 1.5149263189372769e-02
      -6.5578528204655977e-03 -4.7480638560859116e-03
      9.1232745267059209e-03 1.1960254124073507e-02
      -6.6583425408723749e-03 -5.8057423541575262e-03
      -5.5293484675918193e-03 -8.5103535201817328e-04
      -6.5218801554809778e-03 -4.7972135065867012e-03
      8.9755259883024432e-03 5.8647422495849422e-03
      3.1048103091726770e-03 -1.1576468086128130e-02
      -4.9066708272253994e-03 -5.3748542673007563e-03
      4.1543684863793624e-03 -2.7447525945376449e-03
      5.4194856752059336e-03 4.2894784655838486e-03
      5.8640416290508407e-04 -1.5812092273545280e-02
      -5.7597450983472125e-03 -4.8985173842465771e-03
      -4.0519118074793820e-03 3.9887702083278662e-03
      1.2488493191963245e-03 -4.8774739403246552e-03
      1.5943197233312333e-03 -4.8007637940549073e-03
      1.1195782330294834e-02 -1.5160868637524173e-02
      2.5854400481094410e-03 -9.9987823327496450e-04
      -6.8613365779697370e-04 -4.8880100307924510e-03
      -5.3347311533257129e-03 1.4906746290085664e-03
      -1.1542259089881450e-02 1.4392874065066128e-02
      -6.0639161226006752e-03 -4.4732289420551701e-03
      8.4762908796919105e-03 1.1861587105458109e-02
      -5.1813051681931848e-03 -4.9067215941153387e-03
      -4.3196069316403969e-03 -9.4486162095206111e-04
      -5.7429872223032086e-03 -4.8104202345962514e-03
      1.0031176544490440e-02 4.4390896946011997e-03
      -2.3415070647524763e-02 -2.0628516929604733e-02
      -1.5386303313439594e-02 -2.0331580588852569e-02
      1.3059780344830655e-02 -2.4248319882739917e-02
      2.1577703787199639e-02 1.0743134467566461e-02
      2.4097842704746464e-02 -2.7064650822393108e-02
      -2.3517752036587507e-02 -1.1366529388686862e-02
      -2.2888176749937698e-02 1.3793781840304256e-02
      2.3341022188024942e-02 -2.2519022873894443e-02
      2.3105322729109902e-02 -1.0866671763190207e-02
      2.5608305062823935e-02 -2.6243034988227974e-02
      1.0668993585117902e-02 -2.3516254233217126e-02
      -2.2576949388178280e-02 -1.7543610550222362e-02
      -2.4766348543778724e-02 2.4767192640150797e-02
      -2.2852162872420100e-02 2.5172141061911384e-02
      -2.2471975002221343e-02 -2.2925195116402005e-02
      1.9297307171570952e-02 2.2387242259167630e-02
      -2.8397461368842327e-02 -2.0770254556299612e-02
      -9.9715761727494964e-03 -2.2638840690223982e-02
      -1.6892638139224547e-02 -1.7446350723238017e-02
      1.8506207937970944e-02 1.5403909918414742e-02
      2.2937557845738778e-03 -5.8952677720306322e-03
      -6.0009137118844508e-03 2.6746440303445670e-03
      2.7901951893352446e-03 6.5647120309104611e-03
      -2.9687699438484118e-03 2.6312994799865272e-03
      -5.7740680032024021e-03 -8.3619792824500411e-03
      5.3796817249956597e-03 -1.2847418649163680e-03
      3.0108649071276753e-03 -2.5221950744400390e-04
      -6.3014394637936804e-03 3.7122159737603155e-03
      -8.0064351759295185e-03 -2.3700356236647010e-04
      6.4335666826998332e-03 -7.5366918262347914e-03
      2.0428250302475326e-03 5.1142191281509557e-03
      7.5615136680693383e-03 -4.5512043869126188e-03
      4.6069266820375635e-03 -7.4416869746335790e-03
      -7.5914505367317550e-03 6.1715992367625955e-03
      4.0760986121943926e-03 4.6414524935373264e-03
      4.6531611108637646e-03 5.4218026579401441e-03
      -9.5553766768895505e-03 2.3366193764861967e-03
      8.2558803901759453e-04 7.1106814256025165e-03
      -4.0600265776269536e-03 1.6958999000966720e-03
      6.6561197741932593e-03 4.9796280447067772e-03
      7.8029467643914732e-02 2.2119399404131084e-02
      1.6284678849171525e-02 1.2596516855722243e-02
      -1.5619591175343750e-02 1.0695613240040138e-02
      -1.2720872217923148e-02 -1.4707634650972419e-02
      -1.0191140150760059e-02 2.3166278012711875e-02
      1.0662465556313658e-02 1.3950522255387430e-02
      1.1290498719022509e-02 -1.3750227572797723e-02
      -1.0074262681146237e-02 1.0273592420354366e-02
      -1.0024433881939663e-02 1.2823648109243082e-02
      -2.5797523867558892e-02 2.3926740872673501e-02
      -1.3232712370751045e-02 8.4699368657058915e-03
      1.1226385963261840e-02 1.4727825813438150e-02
      1.0417366586750890e-02 -1.0483671959901837e-02
      2.2623902111185243e-02 -2.2836395714064265e-02
      1.0225526067285398e-02 1.2310582919911583e-02
      -1.7938061563590936e-02 -2.1776597997522334e-02
      2.2765526503897005e-02 1.1690854307991289e-02
      1.2412615261308333e-02 9.9948877764329033e-03
      1.6955917569035892e-02 1.1512237495042215e-02
      -2.0063958414248566e-02 -1.4193523538454343e-02
      2.8878095602289142e-02 9.2671702901017169e-03
      7.9137205439168377e-03 8.8517454701753338e-03
      -7.4901179740865607e-03 1.2973700149324282e-02
      -1.0372917580466514e-02 -7.6585926110549979e-03
      -1.4896904159711795e-02 9.3168270758158620e-03
      1.1024255576993006e-02 7.7615974302321046e-03
      9.8576508087556552e-03 -7.1043657030403027e-03
      -1.2431867488072693e-02 1.0332440334341674e-02
      -1.3225360284159899e-02 8.7591714515218525e-03
      -1.0874316968398329e-02 1.0329173952802563e-02
      -7.1611066563669378e-03 1.3367810713824795e-02
      1.2479735112825102e-02 7.1454691431421975e-03
      1.2357459001998158e-02 -1.2928669123464510e-02
      9.3583129001470564e-03 -9.0721855273058153e-03
      9.1980648623364823e-03 1.1534202677759417e-02
      -7.7180697859949455e-03 -1.0541114802536843e-02
      7.5953080887767683e-03 8.9942461421826277e-03
      7.8875402914357542e-03 1.2232245327590182e-02
      7.9432746795658551e-03 9.1684681194891381e-03
      -9.7958181370218986e-03 -7.3373877194605986e-03
      6.4325175006530719e-02 1.9586225563116462e-02
      1.4390441626762000e-02 9.0216039045024621e-03
      -1.1318283268182990e-02 8.6976986148438080e-03
      -1.0024477934747764e-02 -1.1965710568472959e-02
      4.0575916228146095e-04 2.0993765778340390e-02
      1.0251428648280931e-02 1.0032590359127050e-02
      1.0066105532477835e-02 -8.3472482129969914e-03
      -3.3835778950638942e-04 8.3139079181242526e-03
      -1.0095072836376708e-03 9.3377013642049894e-03
      -2.2546578607134937e-02 2.0037664625022565e-02
      -1.1601834608525872e-02 5.6608135429027078e-03
      1.3506074522038943e-03 1.4194499943242614e-02
      8.7750710402484666e-03 -2.3987489003809192e-03
      1.8502422478923215e-02 -2.0392865814319150e-02
      8.3906457180266802e-03 9.6511480274189751e-03
      -1.5546399045915501e-02 -1.9507696809155109e-02
      2.0833296757290561e-02 8.0598978375982545e-03
      8.8605926203444273e-03 2.6022926047128110e-03
      1.4614882853212965e-02 9.5379221461892923e-03
      -1.7927163916288374e-02 -1.2480214157036104e-02
      1.5580667608559523e-01 5.3669628359691642e-02
      4.1956512986969015e-02 1.9237003130273003e-02
      -3.7472616591210740e-02 1.0681024088904383e-02
      -1.8906265509835426e-02 -3.1694633520066254e-02
      -4.8680680048422806e-04 6.0369927141909835e-02
      1.8062093087752387e-02 3.0781051589083990e-02
      1.9220060461247263e-02 -2.4945483386293741e-02
      -3.3538539166753380e-04 1.7380807123629643e-02
      -1.7378932675959789e-03 2.9299707183627365e-02
      -6.2270969078762374e-02 6.3488527231647718e-02
      -3.0104307283943799e-02 6.2895280384457977e-03
      -4.1608173424462523e-04 4.1358574308449636e-02
      1.6625140366037294e-02 -3.3969231276582581e-03
      5.4811696736053246e-02 -5.7859389992107636e-02
      1.9084259359813862e-02 1.6128887859438487e-02
      -4.4043450427405165e-02 -5.3452051867321292e-02
      6.3619957794402354e-02 1.8954431954674115e-02
      2.6988834073643119e-02 4.7909843658621738e-03
      4.1116620995769494e-02 2.0550132218125804e-02
      -4.7403884026576019e-02 -3.7461238702500642e-02
      7.5424669992915278e-02 1.2814624260564721e-02
      9.7345298241566357e-03 3.9105696451453849e-02
      -9.0816380082340154e-03 4.0997668546210606e-02
      -3.9565644624669660e-02 -1.0480961629254102e-02
      -3.3792496850401713e-02 2.0103991813267739e-02
      4.0028949326999783e-02 1.1486383459664639e-02
      3.9977338460241818e-02 -2.5077750539043941e-02
      -3.3827477505269724e-02 4.2217502318596736e-02
      -3.6435230897862637e-02 1.4093663637154592e-02
      -2.3447868881963461e-02 2.2638532869113902e-02
      -1.1078963986231108e-02 3.8211186909893516e-02
      3.5499505952379933e-02 1.0547808856151902e-02
      4.0256461297142138e-02 -3.7549146638800178e-02
      1.5091106104385091e-02 -1.5930650597607617e-02
      3.8311074249339848e-02 4.1339475968114284e-02
      -1.1805127735970587e-02 -1.4718210635725558e-02
      3.2869549942464875e-02 3.5957771415564055e-02
      1.9385374969571139e-02 3.7391486288058613e-02
      9.3537996505979534e-03 3.3098475124915545e-02
      -1.1476501839258212e-02 -1.0706720024336201e-02
      -3.6116778405395636e-02 -2.6978402915729987e-02
      -2.1626695740817044e-02 9.0553002651406304e-03
      1.8208640931376401e-02 1.6382029289130212e-02
      -1.1020090603256746e-02 1.5548049316868189e-02
      -1.3661117018547150e-02 -2.9070011952211365e-02
      1.1745329789532901e-02 -1.5028565758018857e-02
      1.2304940399678006e-02 -4.2604496030510452e-03
      -1.3255702110675163e-02 1.2392642803778763e-02
      -1.4839000082114032e-02 -8.4615039371833782e-03
      2.5955782923444113e-02 -2.6130803145699343e-02
      1.0646107526376722e-02 1.6533191977522645e-02
      1.3174692331710499e-02 -2.2063949750091898e-02
      1.3082070014002448e-02 -1.5283392429688255e-02
      -2.7000718596919934e-02 2.8800271278393071e-02
      9.8563386217015714e-03 1.3189016333209855e-02
      2.3804345139884657e-02 2.7080188501514117e-02
      -2.0440084739043012e-02 8.7752982007173446e-03
      -7.2713467390202950e-04 1.4619047219755016e-02
      -2.2645881295063380e-02 5.7071161350985495e-03
      2.4420676511838803e-02 2.0866401087912191e-02
      1.3501925129192668e-01 2.9595596813108482e-02
      2.5082823870471789e-02 1.1402684483952468e-02
      -2.5428526768275395e-02 -9.3346587906087202e-04
      -9.1390894507808688e-03 -2.1757245111734401e-02
      1.6012254494147258e-02 3.7458752112024457e-02
      8.5858787970369606e-03 2.2320530303406229e-02
      1.0425344946964605e-02 -1.1868800780082388e-02
      1.6406967959369516e-02 6.2016431027037801e-03
      1.4468939126184003e-02 1.7118151389660354e-02
      -3.5935449988862229e-02 3.8496832770218606e-02
      -1.9842699468269141e-02 -7.9586091165757111e-03
      -1.4907996389999645e-02 2.7203223093005977e-02
      6.0126407906943777e-03 1.1486525259736331e-02
      2.9495752013109677e-02 -2.9626665786656601e-02
      9.4805871389567753e-03 7.3323161546974946e-03
      -2.7258126442040065e-02 -2.8862161363869421e-02
      5.7046098707061996e-02 1.1596329516468417e-02
      1.4690313689277913e-02 -1.0487915734723548e-02
      2.5675259089069716e-02 1.4445166712873493e-02
      -2.8570785032263804e-02 -2.6371686315399667e-02
      4.9881280083337649e-02 7.1909795922821809e-03
      5.7352460494872921e-03 7.2566999179080058e-03
      -6.0107617331605200e-03 6.5941678878352313e-03
      -8.6774851407591096e-03 -6.2021659439949256e-03
      4.3547764954040297e-03 7.4061141056033829e-03
      9.2785251570622861e-03 4.7781709508952800e-03
      9.9859923933693761e-03 -6.8190277537637390e-03
      7.3622027303640054e-03 8.1357449352445453e-03
      4.4682659409852636e-03 5.6108340731682331e-03
      -8.2554358451636597e-03 6.9454303930973410e-03
      -6.0667748453337965e-03 2.1428362979534848e-03
      -6.1467752141844715e-03 6.2911785594493728e-03
      8.4157060484413536e-03 6.4348874351071957e-04
      8.2384651188433557e-03 -7.8574076168132327e-03
      9.2771224397963752e-03 8.3360335969914472e-03
      -7.0545688664935104e-03 -8.5348782191229967e-03
      9.2774123144726481e-03 8.1713031518973606e-03
      6.3071517919342417e-03 -5.3540320975027460e-04
      6.1071650866758908e-03 7.6172691688437240e-03
      -7.8406907117020558e-03 -5.8996839228212155e-03
      4.0148580961294096e-02 9.1152141279902330e-03
      7.0821312648388290e-03 5.4987411389090853e-03
      -5.0126678911552626e-03 1.7398514271716498e-03
      -5.2209343286932254e-03 -5.4951624427095986e-03
      6.6160948995248273e-03 1.1386849114880814e-02
      4.3439628798922570e-03 5.4761633202598855e-03
      6.0124920156831409e-03 -2.2489965657119595e-03
      6.9554240237609446e-03 5.8272378632524035e-03
      6.7628083967165168e-03 5.2591552541333382e-03
